{"hidden_layer1": {"weights": [[0.8161305243750481, -0.3903054308539405, -0.04738409868822809, 0.02617564569075479, 0.13873423333602103, 0.3444329110932076, 0.03424327073662359, 0.13621760290019755, 0.13752317239994752, 0.8293161981501425, 0.24697840728802786, 0.0265030591476294, 0.6992330210832105, 0.02330947151847024, 0.07776205041832403, -0.0657783024190859, 0.13466071758903642, 0.08633218276782645, 0.19288825925358213, 0.1521655254968325, 0.2005376567174717, 0.05943256251404298, -0.5562398152409306, 0.0714129454981326, 0.1557335103139693, 0.11843955453713233, -0.33717676759208787, 0.09765429829195367, 0.010054689262419848, 0.08438576012299749, 0.06780820241284342, 0.090056879447526, 0.17429251096094467, -0.00869682264473996, 0.10716993174813168, 0.019092775717790462, 0.02918768612285478, 0.20136369630394338, 0.13456029055143512, -0.5158495378619818, 0.5295328353632143, 0.06356861654624252, 0.41773606538971536, 0.18363967985079063, 0.0019054616111084041, 0.26325834733209336, 0.20776985404303036, 0.1703731029088118, 0.24898562899746238, -0.046797051545022714, 0.15984039432941613, 0.7254484001551906, 0.1607716140666107, 0.06826540700801795, -0.010700691196635116, 0.24646605278975453, 0.18741294612478712, 1.5715778776657623, 0.3666466770928838, 0.10650043542152943, 0.4387257701482759, 0.2804549656575115, 0.0031437120253909583, 0.10660131183504673, 0.03529087744410301, -0.5124740972800406, 0.2834053462535901, 0.04970257129742381, 0.0836301854045292, 0.04067638401075631, -0.009828132285493665, 0.09454351831677787, 0.24981146313519131, 0.1651934822682051, 0.15862436366747634, 0.605722018132434, 0.09098405527418514, -0.874389403039813, 0.13567179881434138, 0.09065928462018275, 0.5312300131724258, 0.11324550426067057, 0.30242348097095745, 0.12514946693000714, -0.029768348877127104, 0.19757579565590305, 0.0902242270807859, 0.3665092903806675, 0.19108761184095355, 0.1958112112433743, -0.14891126752371556, 0.12796218496371256, 0.11860391287151006, 0.0695645125867049, 0.04048614219131468, -0.0037346600449966864, 0.007387269032389137, 0.04641084380295173, 0.6929145874549734, 0.03940951782068766, 0.30774547395488766, 0.0700085291263829, 0.22124629989745057, 0.06836620692331889, -0.1339224562722062, -0.7973709032598342, 0.1961994344787929, 0.18759199780845112, -0.0041359117734151634, 0.33456111896982577, 0.05786503818469464, -0.047257031427530745, -0.5647270956542934, 0.02109490402657906, 0.3715101002524091, 0.23060948328923084, 0.08240079858616361, 0.10670985296075795, 0.4064690479919086, 0.17972131276879658], [0.3712244543144417, -0.9531857732013443, 0.01623050668578884, 0.0009195989381337211, 0.09341038624526846, 0.7713278156546466, 0.2950089653135123, 0.2534560660361614, 0.3327503683285823, 0.058196967691265505, 0.0091038681283447, 0.03933039699649325, 0.657846784216504, 0.03432588532768681, 0.04359318593163606, 0.22496634235375712, 0.11617831793326958, -0.14148446052224536, 0.09009269446938624, 0.06926324504424695, 0.4224949687373362, 0.08922461164429683, -0.7752063251587865, -0.16592248552878786, 0.13102568808077564, 0.08130356193666888, 0.12383554099641313, 0.5906387708034733, -0.09958265207439543, 0.15505651655735073, 0.11963786003097514, 0.10983939098794335, -0.050069800937338364, 0.19176307872289064, 0.10559277401858119, 0.10294338344751909, 0.17507712409618764, -0.10795641347747283, 0.06019136826952592, -0.3185412031118113, 0.0938765206333409, 0.1097692459694315, -1.3563860263660426, 0.2292845670192762, -0.09839442869770869, 0.23531853933232735, 0.2813519922142073, 0.2886498703079635, 0.017116188896350342, 0.07004351583375171, 0.1418682004101378, 1.0471619263605914, 0.10044295901215002, -0.1315865384879279, 0.0028295258652617596, 0.01621934853183055, -0.009675747534969671, 2.5142738698401113, -0.9481426938239597, -0.02930896779796541, 0.0723614397184115, -0.04202371220148166, -0.1708780518563543, 0.09478913414547589, 0.042073166684061976, 0.513871570569216, 0.23155746103141175, 0.24962509624207072, 0.04202191122900459, -0.026484934639120303, 0.008871866579290838, 0.22156934849282653, 0.026637464867870046, 0.2555639104843556, 0.12265822108241012, 0.14043578928333908, -0.0344839312691427, 0.44839871329242964, 1.203561875392373, 0.0728129817747287, 0.3011203154406577, 0.005115223888675706, 0.13557739714351388, 0.06912561585940767, 0.10216508559171314, 0.07232793269923397, 0.12989387576193273, -0.5078858163560401, -0.04436889583661284, 0.08702633287098298, -0.5190537464351217, 0.24775114846628407, 0.14920736727608516, 0.1778895447212064, 0.2824054355813236, 0.17689293059084624, -0.25732121792615087, 0.3623631933232619, 1.1076963015798065, 0.06977291922833302, -0.13044931630500484, 0.0860526916919085, 0.054438322417833064, 0.13247686520050161, 0.06593542043346759, 0.3876773962382207, 0.035271181833580814, 0.044793965523970566, 0.1482240619038403, 0.1621272654685052, 0.17091201161022784, 0.03082394168855834, 0.42862650390606855, 0.2005982390043826, 0.395272618291741, 0.06771744796810147, 0.10739146685853646, -0.6648946121514505, 0.5378756888189258, 0.01717581716559003], [0.559962527180199, -0.7749535793247448, 0.9153927014769541, -0.0865635416210879, 0.13248508497981515, 0.6378118519645861, 0.15029554632150405, 0.058392697628801116, 0.23790766547576875, 0.8785529396356624, 0.17543727283981064, 0.10353777932670613, 0.6467654884582775, -0.03714286767615774, 0.3072406723131847, 0.024540268195338114, 0.11387318062057895, -0.22920016921412967, 0.06977004921294895, 0.12053281262401981, 0.19677353194025987, 0.2258002049363338, -1.0221317471325455, 0.2625318279640344, 0.2400130219799457, 0.24041151043412776, 0.13293675212360218, 0.10130534290701423, -0.19794651733861415, 0.05555505659302519, 0.09377653213288543, 0.17319055913725984, -0.10242049390070361, -0.02812846907470847, 0.1691578749406448, 0.12674372886963367, 0.18078935740208338, 0.1582253454116976, 0.20158278872009316, -0.43619855330488844, 0.34836806284492494, 0.3930452721372896, -1.2095498619624305, 0.023638564983818187, -0.22303458684455896, -0.00495778608243142, 0.04192867051919128, 0.2784456529098295, 0.1970185522736629, -0.27004576204368824, 0.2273956553411212, 0.16486322391117378, 0.0762493433925106, -0.09462548785780105, -0.12484765013243276, 0.2649124939661298, 0.08738723510157101, 0.5301189621960071, -0.3394977821297296, 0.11436990525658718, 1.2406584213589396, -0.045651135065434036, -0.24028148723332332, 0.15073687909878897, 0.13007281312450708, -0.981263208092169, 0.02385841144172715, 0.43145444956686685, 0.13511237151362696, 0.08053406240749218, 0.09225301916133369, 0.1789219519880343, -0.24875492532865284, 0.1477553282824151, 0.11722723951448542, 0.44886697805188, 0.1907747271114175, 0.15041698691385885, 0.8593664160376381, 0.14111312528109093, -1.0655235899392654, 0.330521226536434, 0.18191226931868368, 0.172488449377479, 0.09316665015297236, 0.16724551944096325, 0.06298996369058711, -0.43903269748348395, 0.17926756045513823, 0.05041221012983912, 0.031364843251275476, 0.31504858947760256, 0.24783675632289928, 0.053974393084236925, 0.2501310784667262, 0.12127801205804116, -0.671763703307939, 0.2720220180706, 0.23513773554102813, 0.14988347725315754, -0.585749539164763, 0.23765721691621944, 0.21545349094236008, 0.1844944690159943, -0.33913971440893803, -0.3793266022783375, 0.10308361823765567, -0.7663294421291817, 0.2557268584604973, -0.04419298720147838, 0.18565469704610355, 0.27995598997508075, 0.5576662868527866, 0.08275741723319414, 0.8115497096574023, 0.16341573982216268, 0.19674727567742958, -0.8971231211047633, 0.9661627452123203, 0.015777404693157603], [1.111532146746637, 0.14778854688409632, 1.8409247995957836, -0.3459153866665448, 0.1142034800947357, 1.0201342862694105, 0.18601993034683428, 0.18797231492018165, 0.23521520002225507, 0.37124046065058736, 0.1735664322893187, 0.19714342950981628, 0.7422794041265011, 0.2598427900991866, 0.1619535729783591, 0.5463186872275669, 0.2693030564034069, 0.20188240549749722, 0.10522141138085121, -0.009904844018176076, 0.39346447462017337, 0.3760669756922784, 0.33322458613462264, 0.0738461459921132, 0.31486663750889077, 0.2669898075413791, 0.3559614705055689, 1.0888583464211272, -0.04146224824488894, 0.13513743006534837, 0.23202358147676883, 0.11768426309293332, -0.24579419202913513, 0.057638453583556834, 0.06861251193822632, 0.0950138602522401, 0.1393882176046158, -0.645259280290781, 0.15299320250845155, 0.6375168354823089, 0.10269567249459756, 0.33856546304482976, -1.6545486493808124, 0.16592663423789122, -0.4096654780996869, -0.26333237509030044, 0.32342979255838783, 0.13233588945692062, 0.19898000761326368, 0.24977524630353068, 0.20048729297284554, 0.44212645610789986, 0.15785163344588968, -0.6803224737657396, -0.11565113969319686, 0.25921291526640805, 0.07496614543382818, 0.5637530351123069, -0.339220745432093, 0.22629923139738298, 0.19257360139937674, -0.10514203427694507, 0.1477290656463104, -0.011176828005136964, 0.0553886506934632, -0.9850581095791391, 0.35343282677501403, -0.07404560495517053, 0.28417518660218305, -0.004012521380997131, 0.011572286803090677, 0.10361424042791129, -0.05690654374186933, -0.01194433717975203, 0.2642808124021683, -0.46386903425115206, 0.1440927658344285, 1.2191424172658323, 1.4672515471979823, 0.3093548155470822, -0.04295386890371725, 0.20046838846727882, 0.18472889367561737, 0.2032660682773236, 0.1468494632967359, 0.1449259576137927, 0.25474639503001917, -0.5519393009272039, 0.07296941392440293, 0.22138767577350013, -0.499959192667511, 0.23069577784947382, 0.10780592804026577, 0.054030998226845976, 0.24930015983329232, 0.08112958248044647, -0.4510577002436047, 0.235211399797155, 0.6307943119942443, 0.20377161209629943, -0.5069746693477105, 0.047874404192928474, 0.08798831390804886, -0.023592627562798698, 0.3201632497111139, 0.3511192504418054, 0.13275024091988566, -1.6393181041832037, 0.16582401436393363, -0.4410630388167077, 0.12505984712407675, 0.004981605945318603, -0.45650660818806005, 0.216182854815419, 0.6223088991578087, 0.08499843993625707, 0.14199693426627702, 0.1346029397232714, 0.38265317224906925, 0.249946784588763], [-0.26247460417367663, -1.1835073889162822, 2.11961255682829, -0.2863925120127521, 0.16081683583632922, 1.896598938965359, 0.19795650337443954, 0.056212026454984784, 0.2757676106819462, 0.4609026180922778, 0.18040174414386592, 0.20487936349824468, -0.4921410379388801, 0.07533706145259611, 0.16883347067568844, -0.10775001178749205, 0.15099638464273243, -0.001996315459950769, 0.28828619206637923, 0.2169315291464377, 1.0227444137271278, 0.1918082106989743, 0.7141547671478553, 0.31430733641949615, 0.17996812487809485, 0.13344911666245635, 0.9918685846684975, -0.9755476927507191, -0.08873450684358018, 0.2486970269234821, 0.32846018372541746, 0.39051222457585466, -0.06085017965115954, 0.27937949457636113, 0.36342419781020546, 0.23758355243085644, 0.18048195217954283, 0.2444895833358961, 0.07045102605992573, -0.6018474500704588, 0.6837040565876112, 0.2788370405511608, 0.7754761353239209, 0.31776699917827184, -0.4698536168373681, -0.8081734012901473, 0.33484780261640956, 0.3510318797064575, 0.14730468604236324, 0.1092384542936924, 0.32425891117671257, 0.7464315838093697, 0.25477136177766835, -0.3677784322130763, -0.2286775496189967, 0.2120142120527396, 0.14251637258143768, 0.12021544050171448, -0.0008363872538712661, 0.08478382470608224, -0.5205873430463324, -0.07046609730447728, -0.003595033490399995, 0.10753985750165812, 0.19331429727557284, -0.3004202479815017, 0.19629371550062635, 0.2483754006612116, 0.16634250952695562, 0.11695509247462008, 0.26511260319227, 0.24733658140048112, 0.00612000601127635, 0.22762043501743964, 0.09037662119655059, 1.1394984421988237, 0.2942723863523696, -0.1472134490632858, 0.6615744782595526, 0.32464138520590585, -0.9599670850722206, 0.15163281520627928, 0.39565950655985666, 0.2663780157398543, 0.27229011642313844, 0.2408273545005406, 0.24933528414252107, -1.5350859608049165, 0.0898752844446389, 0.13562547657955026, -0.21744697164297114, 0.20300689941166242, 0.21370786501716577, 0.25209185621496605, 0.1538508084135617, 0.3254878720386545, 0.26835779784819436, 0.520839759805439, -0.4035282047002892, 0.09520619419583605, 0.15735739037151983, 0.05319865625230868, 0.30133668340151276, 0.2438594108001147, 0.6046990321969553, 0.33660656441958575, 0.2598092390518083, -0.5217699575621836, 0.09685683945542595, -0.6884154842718945, 0.16913697795894886, 0.3975395869605445, 1.6488621011096638, 0.19865431067910377, 0.4731543682157607, 0.41436468294393863, 0.15659048313570526, -1.1598263087150849, -0.17206932893254698, 0.1700491570307215], [-1.383386522268115, -0.06476802247282715, 0.928659548143223, 0.0354812543362227, 0.004016540686225876, -1.7505711016897945, 0.19138743345816406, 0.12526648093122228, -0.028421859071704754, -1.049592716174905, 0.01088999879358284, 0.04236415114202719, -1.7671118731008546, -0.012254736623794666, -0.045208814386275345, 0.6281864893550911, -0.04556292827757572, 0.7494903099220629, 0.08534645269372308, 0.041786754496578385, 0.14532175768451902, 0.024228585900221235, 0.014174613538899343, 0.11861631648082228, 0.256368074123212, 0.11184315803839427, 3.5252728542479703, -0.7361111988497432, 0.5852788304359413, 0.08317903602151722, -0.04595340284001036, -0.06632180439579023, -0.2369773730056732, 0.11276430207705426, 0.034944396417993046, 0.054773971403394996, 0.013350062374319264, 0.06583729458778612, 0.046114990784556074, 0.27332935241280676, 0.39748510120049013, 0.21286143257203216, 2.470427099471161, 0.07078636709003144, 0.06608785254044826, 0.6617512636943712, 0.04421331395188751, 0.09692913384429518, 0.11469474645551236, 0.6726059490884411, 0.07417263886809752, -1.8958864270279217, 0.06541593559252847, 0.27489718823120046, -0.2660367604786298, -0.04982593929959447, 0.07610128975100046, -2.5975967897316905, 0.6108361581271224, 0.08190269456760373, -0.9447168852986039, 0.024665832899424683, -0.06854095710996798, 0.04108785414756617, 0.02620372507229879, 0.5664891074225584, 0.16002095699484634, 0.49376769458768993, 0.21172740269624835, 0.01244564408548586, 0.019503311578122965, 0.05459276080068454, -0.15470278301970167, -0.02869345860142581, 0.08375112919705928, 0.30751234154926554, -0.07112132599805122, 2.3199759200055685, -0.45402432707478163, 0.07326426259239742, -0.056094840255189536, 0.08948800978150431, 0.13142324965855282, 0.24169271264151307, -0.03611549936312627, 0.09567050985574797, 0.010080133511193811, -1.3514216200476483, 0.06809294472363389, 0.04510461319870127, 0.5818313405364963, 0.13116479894218738, 0.12676482520401922, -0.09704577848278298, 0.07716117365737436, -0.07693961604896855, 0.35818009321307825, 0.18510795681915768, -3.390171988789513, -0.0005910855515836992, 0.437868456139245, 0.05392002286064733, 0.09206411192359164, -0.0292282131170228, 0.13947105619284553, 0.2954462357942063, 0.10008505963443573, 0.3362926040549242, 0.06399173193812822, -0.88309473117925, 0.06375024513178654, -0.04589395449692176, -0.4136983194394274, 0.08888172116487902, -1.816148712556621, -0.023967398172006344, 0.06237382274838775, -0.2195568040270244, -0.2934100647593906, 0.02093358568011272], [0.6721220574763778, 1.3731208795514034, -0.29210794216384034, -0.25050979664719697, 0.04143500466271917, -1.9432838256527614, 0.05201310882050392, 0.13352988191929377, 0.22299109616731275, -0.9529464906335372, 0.14619890488959203, 0.06182710861096417, 0.21730581411182945, -0.05288722970441558, 0.08897059741115206, 0.7013059023112117, 0.08406875027887586, 1.0873341727582428, 0.21919264864309054, 0.15250087474261764, 0.38174395480887374, 0.19051533953394473, 1.0323147680825802, 0.17639549534927149, 0.08060813917998859, 0.03809839692566554, 0.2335129749007417, 0.45707636552635245, 0.8666624667383361, -0.005531825766805312, 0.16129672770272344, 0.15054094144345892, -0.19898025486526294, 0.22403607019618124, 0.07250392234118654, -0.045587190100756354, -0.01786650663112864, 0.16568458506881076, 0.10406015145539171, 0.8524935008417576, -1.413387255459071, 0.13544161634250873, -0.026730333950654873, 0.0774179341855525, -0.45308777793936966, 0.24015278691338907, 0.2019988238482457, 0.06974828295058538, 0.06489783509828327, 1.1063886970913768, 0.02341757288990253, 0.2324669591095939, 0.15606490491758707, -0.5177781412917711, -0.15272186148274194, 0.16927834326012767, 0.11439308260228813, -4.70263654696697, 0.7766777957766968, 0.0479144567424001, -0.17269386624243807, -0.0986245597537894, -0.002381149433415535, 0.03196722292865966, 0.11414891077295078, 0.14501114058503656, -0.015751759199895132, 0.41840159969675905, 0.05342711417131093, 0.14445889276141816, 0.13134310523248627, 0.14192388723214763, 0.0863723948049351, 0.043632656960104446, 0.32220270034742016, -0.3212845112139812, 0.07061162618211037, 1.2767863548302982, -0.08989523649007053, 0.11911955939684712, -0.24755030628470415, 0.1542495225726977, 0.051417813288175664, 0.03382666008668892, -0.011041210500078422, 0.04216889318902685, -0.016705226603299775, 2.1551585549094012, -0.06098807367751849, -0.06486943572948804, -0.3313468499359587, 0.12214004164062746, 0.20195506568526111, 0.1048308973236062, -0.003135227739392245, 0.10898464230935116, 0.14453034545826224, 0.19862307319575764, -2.0683725607954706, 0.29348992110708527, 0.38288842211512575, 0.12414922369243227, 0.1302424094252917, 0.21623060120701829, -0.536723640881692, 1.0234361106271221, 0.07893237581394051, -0.03281111768657743, 0.08567039601769133, -0.6774415131559774, 0.13287883320931856, 0.2588593445800019, -0.4823524840420106, 0.19158206848528367, -1.0800317556414119, 0.20976759253103086, -0.024966333781730365, 0.1879811899625742, -0.9807283219684029, 0.1505717922041851], [-0.004963829044261935, 1.180607915251111, 0.9794164501876284, 0.02395158883998347, 0.1331934789587856, -0.22058802903614103, 0.29853727180340495, 0.16427944164199965, 0.21791125151092838, 0.35889532897998444, 0.35714408263768327, 0.19359686532457795, -1.2560890389710802, 0.02518937743223679, 0.19474166451257022, 1.0830062384496815, 0.25134778378706635, 1.099269099462587, 0.17687104744058849, 0.09490420328022807, 1.0967968737904636, 0.2936687917455348, -0.0473504258856865, 0.1160133826839205, 0.4405181606418061, 0.2723636219345842, 2.0357367427807103, -0.2912673200978927, 0.8642412444018955, 0.2290054284414022, 0.06615411654569961, 0.08171437138782212, -0.4214389286350316, 0.217363318315269, 0.1797380644925234, 0.31567133044951345, 0.07565801456074754, 0.6086314163347731, 0.32301850168358226, -0.3172500559872382, 1.563385499688658, 0.004793363472745832, 0.9668353358862355, 0.23926975572928444, -0.02838272767277273, 0.7184323669201141, 0.22339338556161256, 0.23771144202276318, 0.2885280287271255, 0.8818895415892339, 0.09427286224827008, 0.8346870645384963, 0.2882727865707421, -0.10138054204138505, -0.32176668071192455, 0.22069245328518022, 0.41583220143847976, -1.694957008516146, 0.08036847697310742, 0.13560978467999618, -0.857325566821876, -0.1681691053808452, 0.043419419615801216, 0.17436904315867516, 0.2237995801450904, 0.10937795070453572, 0.27708942408630116, 0.3390263841519753, 0.05650280926820254, 0.162704981500521, 0.1689841612009722, 0.19667387334573982, -0.15926008342085854, 0.17604521445814494, 0.18033314235609962, -0.0011183276688323278, 0.15761006417741014, -1.0505848572955725, -0.43474432035272265, 0.19839774290018267, -0.07320894242771317, 0.21311951910850968, 0.22531757138519137, 0.20112468784205673, 0.3150042800327165, 0.13122526800632378, 0.13698748312637302, -0.6542370195987431, 0.1952613487967486, 0.2960277453908652, 0.3421447254581643, 0.27370764160650185, 0.15036846753979857, 0.22442519697511265, 0.16072860498693384, 0.032735837322653165, -0.6247459760672935, 0.3426657855705297, 0.29949163081257113, 0.0469002242548225, -0.30485349497095593, 0.07032241489911994, 0.16518623748946917, 0.4306031549685467, -1.106894598104225, -0.12207897133933213, 0.3078357797636984, -0.9269667115050528, 0.05033398193801559, -0.5890731417495467, 0.22299576346251074, 0.16491840826325208, 0.8630113967401962, 0.18788111950354155, -0.8775380736260431, 0.1825942514418163, 0.206038320273568, 0.4932861671698255, -1.0973826230122896, 0.17804124429083468], [0.8389785007248798, 0.46458950407484595, -0.8344106688374622, -0.18558137926655824, -0.005750774412692768, 0.3314525983213226, 0.11237527502599252, 0.03852618728840551, 0.12874673882501705, -0.5707693181389247, 0.06323216952562109, 0.10885332805588996, -0.08412634066528228, 0.027981849102280618, 0.1281116923274807, 0.4181750772513302, 0.12377842135315129, 0.15856366322650323, 0.04547319984648264, 0.05859472486415476, 1.5700484356416906, 0.07061379816404321, 0.2877591073048269, 0.18640114047440395, 0.03960924618164687, 0.27344418287999894, 0.7549636550599588, 1.3881294780619409, 0.1512127769476579, 0.16406024923691112, 0.05759194781713834, 0.19673074673592122, -0.40009787440963246, 0.12223651078842754, 0.021213219420999886, 0.19363775510419143, 0.21136643009039788, 0.41831387231647205, 0.18075509066295894, 1.2351961641924651, 1.5855989818355518, -0.13671159196949292, -0.6923603687522192, 0.2003919566512661, -0.3663929323793331, 0.5266000358188129, 0.22415324777041679, 0.14187633395709248, 0.20511236986920148, -0.017959306397986895, 0.20029439099042826, 1.968540523201505, 0.16812181085696185, -0.4044180971961158, -0.5188325833584523, 0.09676885177410317, 0.06945047802307036, -0.33579293799931187, -0.7582233553868034, 0.16825599960123933, -0.2417538297284173, -0.3380050431758229, 0.04703890129028937, -0.05170660139532476, 0.137858995734008, 1.0248441428542852, 0.022055503198521145, -0.19930513139924833, 0.16141496410881137, 0.27129288816740826, 0.1800166782491052, 0.27466574127834326, -0.2636545386988842, 0.21273374319733715, 0.22642683467922933, -0.5446439842565735, 0.17439004220322418, -0.6282051335686495, -0.5143278371985492, 0.1054697571281778, 0.8130729394211305, -0.012801851117170483, 0.17548874520400642, -0.055034997949453456, 0.21724388697636468, 0.1746310375467378, 0.16129997760648893, -0.07964930049817535, 0.10638686852882487, 0.07540796674400825, -0.05629676871988587, 0.22149626606596795, 0.2486383141587908, -0.0052534027158460655, 0.2679431215797799, 0.14692716157740962, -0.7579141038926008, 0.06054652390363961, 1.0238738853004057, 0.21484085615738327, -0.23646043330115366, 0.030137597938336463, 0.18721089848224864, 0.05241010123143531, -0.9168764873457634, -0.38518638454202664, 0.08836585814405441, -0.4092591327978325, 0.05152172028248214, -0.35947945026491207, 0.2532713371895351, 0.17553949603934108, 0.3739112143660188, 0.014316391129321279, 0.6521939007341288, 0.2523431899440699, 0.18125954224680155, 2.7143126446053105, -0.5831785562036411, 0.18626870766266349], [0.5991259887161835, -2.055419606331557, -0.47392809460463786, -0.13559412248577898, 0.2958451653533936, -0.15825678139814245, 0.20884605581079385, 0.02100198313626467, 0.24632102471894257, 0.08803733573659418, 0.21391111618870476, 0.07894963510178653, -0.3392512962517836, 0.070923680396279, 0.23183341703528887, -0.6280796412308519, 0.11040480721057286, -0.5469719921893231, 0.1030150497947394, 0.2771255799912522, 0.10498457669336299, 0.2574021368669901, -0.1362040915417014, 0.15870480469815407, 0.1779707548765778, 0.0874205593718244, -0.37904205440612004, -0.5788543861718866, -0.3257079588829926, 0.24335191750432295, 0.10958816627510153, 0.01919788661726471, -0.16140608903973166, 0.01634702111787071, 0.21644983648285104, 0.09655490249102343, 0.22445075311764567, 0.1356199692165878, 0.11946103911832898, -0.2379324472105934, 0.8457970389474042, -0.5664915479324298, 2.498024220269869, 0.18186801543401224, -0.49706714297693677, -0.7594671040102768, 0.1842220113871111, 0.07437247410756602, 0.1485058602667673, -0.4240369262962033, 0.11347845954512305, 0.6333885310089769, 0.17268104884007074, -0.404781508759677, -0.111072645722644, 0.06325068838903895, 0.31554762875888076, 0.39127399178354466, 0.10033586940181793, 0.09939976410930239, -0.1579277551685547, -0.020561391145391298, -0.16174678674789453, 0.18629445445901402, 0.2603095432617465, 0.8740702280014587, 0.19447976986809937, -0.3560957119719719, 0.1678807456196525, 0.1168512758187793, 0.13549751767021173, 0.2686117145583974, 0.09577539087829855, 0.1485243046716084, 0.052720528218875864, -0.7176605839669277, 0.2973798743745618, -2.0799131593495814, -0.7853740759165059, 0.33250832339092046, -0.14712523387093698, 0.16027435162939135, 0.22027738077538436, 0.39551816881525353, 0.10371546231433262, 0.2147049265159521, 0.16043534434278714, 0.3869111376070652, 0.09545692623448583, 0.19346270292035841, 0.15675570822749127, 0.18904955287180808, 0.18797817319745183, 0.16874143941994535, 0.0900135228775449, 0.057436147546859974, -0.3196890468099258, -0.02706013278809215, 2.623474795003611, 0.2669325151869958, -0.10280579843619982, 0.0761420702043726, 0.14163090802317851, 0.12332011757503165, 0.033523632097091666, -0.2951562515721111, 0.1851316368382891, 0.30093646130264073, 0.23941222429123182, 0.4141802902468529, 0.20389223826732672, 0.05004957198551976, -0.1880776202853148, 0.24210440907440056, 0.7361628200937077, 0.14955961319595582, -0.02160899717657722, 0.38988100582835855, -0.20363899293982246, 0.2896853146391257], [0.9003585942140631, -0.8688589012558917, -0.08669815043488277, 0.12062507230582173, 0.06616380557175335, -0.02329838413987926, 0.20120003807599227, 0.2656948169131588, 0.22611348207241946, 0.3964333794249699, 0.016199078842215543, -0.1436430119308488, 0.12867965588411995, 0.05913618311228071, 0.26576271747923097, -0.2344750893720506, 0.11701650888086672, -0.056098902379555136, 0.2693507987059139, 0.26460068166599093, 0.3623317639545939, 0.15746569632004576, -0.5936647750020932, 0.22780791547198773, 0.08529998809103104, 0.13599743770721234, -0.9901965924486967, 0.39236719485246285, -0.06550495192663996, 0.11800328980774648, 0.017472971608749582, 0.12024148005284602, 0.24098533348535173, 0.1988882073417269, 0.1640047280806646, -0.03197781835907189, -0.029716295476588356, 0.12394062669372978, 0.038344029108644054, -0.6308968519534427, 0.8519885399524473, 0.14675045696774036, 0.894502521687232, 0.10023489292838905, -0.001929098651428794, -0.3325696999381541, 0.22927934003049674, 0.11000068664051814, 0.10972009126657423, -0.14670855619020312, 0.06901665219827628, -0.009532360787601151, 0.312441498695849, 0.04801687338166872, 0.26063527317887203, 0.1670070850278686, 0.1316584412718077, 1.1057207883062554, -0.5675699594180221, 0.18732815771043726, -0.08713270899147983, 0.16465725941382608, 0.0660379280927405, 0.14498176864500972, 0.06686076520777084, -0.18025302192514323, 0.05604697313884183, -0.04332125528605199, 0.18743942383403475, -0.04331745664976016, 0.22310868954945917, 0.1480415503751931, -0.03684721767438134, 0.288999933672609, 0.174682675183819, 0.0056125863109845004, 0.1164456900697272, -1.255209680798362, -0.4458099608224503, 0.020064929448417184, -0.5448029852228281, 0.12678718197445513, 0.05928782951407569, 0.09396018161402166, 0.10594992091906079, 0.11543252747380352, 0.14371144573729508, -0.6012530590610259, 0.1695595189345003, 0.15847938053823052, -0.40362372562480286, 0.053061188416490344, 0.1424910979896887, 0.07834470115368716, 0.16900042028300022, 0.28630966918909195, 0.2657108270509463, 0.10351774063440504, 0.397586476080815, 0.19530991756672722, 0.12110132641242627, 0.23827883588081766, 0.09025899213460459, 0.030851837167871935, -0.04359728135452258, -0.8318050505607654, 0.21084876603192126, 0.32737613085800565, 0.06169322550750855, 0.047880857493974735, 0.07386043112346136, 0.19109837177071046, 0.35466304848401997, -0.03086952441601038, 0.43057484500166254, 0.14130950691290975, 0.23855970552376002, -0.23985280834405684, 0.47669160904924585, 0.08901547011597487], [0.4843021768135645, -0.3762072367379408, 0.7523411534690143, 0.13852655614022222, 0.2902774268213991, 0.2823104570803913, 0.3781326030468151, 0.18718019946686076, 0.3476441694669512, 0.41712674759245555, 0.17049427060075784, 0.20175751349080487, 0.7420777980014083, 0.11679664295412213, 0.20540969203817175, 0.13266350013000933, 0.2322299101750155, 0.350608057754651, 0.37041978903412776, 0.17989360052327763, 0.648996250974689, 0.2541327640338458, 0.1885730868617232, 0.27166187178898743, 0.11340108336114606, 0.09226689905450233, -0.28149787548619937, 0.8752554141459877, 0.25913449795724597, 0.15807187827666117, 0.2198533493891744, 0.2834979053347573, 0.6127615740879044, 0.2414956570780372, 0.3333440527339606, 0.29060172899279296, 0.1324705587280012, 0.08523456566047977, 0.21588172789356228, 1.9441651733576486, 0.19734346344503917, 0.11701443675988589, 0.8083043598647407, 0.2996952406953735, 0.06074752481099502, -0.28769367690802855, 0.2715557277417747, 0.24045469586534518, 0.21046232490141953, 0.06342891879010401, 0.3290748626782218, -0.7353469134330993, 0.24364862295183826, -0.04288251538928468, 0.7153077274952996, 0.08699254758658026, 0.258523136901339, 0.32827145439884436, 0.6788061492505446, 0.2933256247687205, 0.2637106228833632, 0.5927538818166154, -0.24866879815180568, 0.14790836850532554, 0.324353302057943, 1.0061376801061481, 0.1797999220279254, 0.0007967762561029361, 0.2696154185817582, 0.2753959094593694, 0.2786965576625574, 0.21830849883076237, 0.34345967444280057, 0.17675770567841773, -0.03889125011657365, -0.3906956492889145, 0.3079376745981704, -0.755223995556426, 0.3723179998201624, 0.22527153643422765, 0.05078687015820571, 0.09040018828855169, 0.463254527035822, 0.12309420541319342, 0.1732136848673745, 0.2198934674399976, 0.2961416288649498, 1.2284364768162805, 0.25635528833886706, 0.14842561888395503, 0.4146573061170519, 0.3609504520858596, 0.1773948741377696, 0.3695779519819073, 0.2632726685803911, 0.14724887903094425, 0.6816457970865392, 0.10245627501007881, -0.5656497726754179, 0.298451576704553, -0.053062214159707875, 0.28736041397117223, 0.3167234549896099, 0.2151970019142639, -0.08977390966179886, -0.7450312342877508, 0.2558730515392791, 0.8425604723677191, 0.1663187371104848, 0.05364575744118916, 0.27399705759837417, 0.39242615158617733, 0.8879818823758782, 0.17868048319194524, -0.11536230875992268, 0.28006157306574114, 0.2353396164205541, 0.35559971677431945, 0.027737060981467603, 0.20201997920110598], [0.1631898488755089, 0.660473305842641, -0.23491119946769623, 0.05629612796337599, -0.0949814530829455, -0.3395470739810881, 0.194711524324372, 0.053686011361736896, 0.1875534802102207, 0.006754203042383818, -0.0005455411870063022, -0.03431925739982289, 0.7311634850870639, 0.09745868057435919, 0.13538541901874773, -0.07230321586386733, 0.10103603249234508, -0.03178965719317895, -0.0038475683308638003, 0.12265479788623507, 0.3517806460508784, 0.10751721019631422, -0.1617127297562278, 0.10453304632244442, 0.08938385257323932, -0.017728682398399226, -1.1015843432539465, 0.2768876273026345, 0.007791484483823589, -0.04717246421259109, 0.15689392536516233, 0.08036697931896963, 0.9766395770513574, -0.04922354682879763, 0.03751859794052809, 0.0767142050771499, -0.027825438442604416, 0.05995908365805003, 0.1022849768645629, -0.5621048304224735, 0.4830497777204074, -0.13661061567843183, 0.16840853982440862, 0.0986011491499881, 0.07943937659931256, 0.04742165153929493, -0.11564693534309592, 0.13356557363497323, 0.1508734055491409, -0.12589825598824264, 0.13852732017244543, -1.8177260503961286, 0.00628817513873285, 0.055007484208127774, 1.0598809368686843, 0.0882637465698374, 0.14176249754521253, -0.6958172438053762, 0.46211637297676544, -0.04994029270149264, 0.09761355277301363, 0.7698822384743207, -0.3399933021474535, 0.009264090705051254, -0.038311943736315926, 1.0725450852389766, 0.1259062694101482, 0.053506431762252976, 0.10240046701148943, 0.1007066425502911, 0.13072659235699674, 0.2605232903929992, 0.8933258599781111, -0.07961175969200827, -0.15876125039683664, -1.5881772818463524, -0.009564557522223458, -1.3438737710582347, -1.2673409208287219, -0.035705298490257775, -0.187453213973164, 0.06537086538691259, -0.08923115556361579, 0.17862558596310613, 0.05167971677972502, 0.06582891172662525, 0.05921344039268776, 0.06752611370650172, -0.07949098538910164, 0.019756603241471805, 1.2746930671264032, -0.03098098460499347, 0.19839740649920454, 0.020225926761130664, -0.09616284611185325, 0.08872834425385435, 0.8609760861739999, 0.06898225865489868, -1.876449080164551, 0.10382662762532607, -0.1066830725830723, -0.014641457933614701, -0.06989885690128894, 0.16389296466487596, -1.6152023923554626, -1.6495232918554708, -0.1457869603168237, 1.0669538008318262, 0.16586794915515285, -0.34679540244341095, 0.13388454236734884, 0.2314245931221638, -0.8674015008123749, 0.10008738017447241, -0.23862349205585306, 0.06652051245795594, 0.03645727705396865, -0.7229433677594693, -0.5080253940790145, -0.0019759019910930474], [0.3850693319597983, -1.3196315186449044, 0.8187736357402935, 0.14877779313148598, 0.0035885677666091624, -0.5887914954410295, -0.05231734584651699, 0.08543264645312504, -0.08079474812010937, -0.12210483898720682, -0.016699442833111113, -0.0051648781309229464, -0.713952958418765, -0.035101795370931686, -0.0023139024151587573, -0.23905528324492648, 0.09696035263846456, -0.5032313236843966, -0.04607489422231351, -0.018441275654606914, -0.017905292939580285, 0.009631130839614054, -1.085509819111854, -0.08402713615833117, 0.03509055741855441, -0.05509098936435877, -1.684668364454662, 0.04088549733673854, -0.45638581140279016, -0.0519468818253953, -0.06770519485459317, 0.027011575539335555, 0.42243868058052914, 0.06711702379560561, -0.058850458480228136, 0.11808597817625423, 0.0862087345024058, -0.1247169099985336, -0.034103992812776394, -0.5564999416389247, 2.4060448660162703, -0.005014096548714718, -0.35344912507451903, -0.057821286740392525, 0.2000653732457375, 1.1481428954441992, 0.048190566165760826, -0.07030009908722314, 0.022377350076039824, -0.2915452472323572, 0.05551009904940366, -0.44643234373545937, -0.16107864821143436, 0.2875194063833466, 0.2495791240915007, -0.060135640151596385, -0.08049853151937814, -0.2031833468428095, 0.1770720604094379, -0.01424879768611495, 0.37035349673155604, 0.4469865964101262, 0.011989607686554916, 0.032495223348096666, 0.0034901444637101087, -1.5498677231058324, -0.053632558330489875, -0.030505791874537738, -0.1583324628863924, -0.0474660179523437, -0.013070503718956576, -0.11113642611532074, 0.5360677196272098, 0.10389284420228029, 0.039324944893861055, -0.5926074582214437, 0.11885665794861841, -0.5130813591913043, -0.0716723098661738, 0.15320842967399181, -1.3756619685413967, 0.21536157395494313, -0.0244244727092259, -0.15975749547677665, 0.09406699229979158, -0.08724810118074056, -0.09897496045281624, -0.14070498384083913, 0.0036823303086539884, -0.07525829930213285, -0.12951193576909753, -0.06367880795799102, 0.000475353613722329, -0.15873043835767808, -0.09034523954147854, -0.14647181298975812, 0.016886259211721894, -0.010771406884570843, 1.7950364481849785, 0.0006124673865222024, -0.371350415004726, -0.1278354050904805, -0.02345041776519701, -0.011141112250978198, 0.3565738456719067, -0.6420323991853173, 0.10672081173759514, 0.2869643956715635, -0.060031822944302496, 0.6022471242885811, 0.016194579374764803, 0.0038209274266238235, -0.8277005058160741, 0.03821316199685565, 0.33799446744831096, -0.18394237454651918, -0.016984223577201647, -1.872570059945208, -0.10972844704818818, -0.0034660895633944803], [1.5529733488130346, -0.17496788694855914, 0.5874579035393022, -0.10069758103815157, 0.038975705934050704, -1.4229000712699835, 0.033697102683991974, 0.12764791948462254, -0.008766102202085502, 0.9037552130961011, 0.0488449556338798, 0.06478674949812974, 0.9649541069315418, 0.10811952990281647, -0.02571260657658215, -0.1671590779973691, -0.031128330167294726, -0.17642608155391432, -0.006477588766846183, 0.018350352799215857, 1.027189641614573, 0.03989151584409779, -0.8496224118164944, -0.0073000643863691435, -0.11314491764169786, -0.050722018821033, 0.05240897459027988, 2.0168486327324175, -0.09033665581114027, -0.050913542539555885, 0.049038400986606896, -0.02949608025268197, -0.10226563029690897, 0.09319680598604403, 0.14938048867044826, -0.11629455214631947, -0.03650684382962435, -0.675949355171658, -0.06658613130907774, -1.39901346783171, 1.6435223331977917, 0.023033678797689968, 1.2046715593123927, 0.053937213779131396, -0.06667731638987713, -0.16769815264993518, 0.09095823095453125, -0.02526230746790622, 0.034595717140993354, -0.04454189084603089, -0.013567971426466265, 1.2690296522411653, -0.05486403784882477, -0.20271219409061658, -0.4149534124888761, -0.004403402944167293, 0.09289204406822454, 0.3678608011571202, -0.9280179757566998, 0.0378310388625453, 0.5500493357483551, -0.22231590546706917, 0.009589410807396679, 0.05839776961277751, -0.023287449325160095, -0.005648745364610055, -0.015996551164350087, 0.2191026380988423, -0.06035590747914236, -0.1330372175216114, 0.018260848879499452, -0.06468591002666098, -0.2339385784188637, 0.06607150005593132, 0.16097559858368932, 0.9866435870187159, -0.01464561900734367, 0.33341534917224497, -0.2894046391698004, 0.22506809710367262, -0.982213249123092, -0.0854628306237769, 0.06835121037858172, -0.010622380895019632, -0.002560118291846886, 0.14478201865233103, 0.04643402497775279, -0.8487126661962996, -0.001490434811405101, 0.006021445381555097, -0.06438650626184994, 0.07075124696201356, -0.029082333227282854, 0.11382122555688848, -0.06219472332313607, 0.0050639574463267915, -1.1485761529196403, -0.11391637773691587, 0.8011310364293875, 0.037524486660921536, -0.5975705782043271, -0.0465625733638072, -0.012977345847362456, -0.09547295822713836, -1.2531477571678153, -0.7712717430885441, -0.03932941248109775, -2.018748678509138, -0.01629875144675596, 0.3139944207495753, -0.05949610292179315, 0.08631852162505409, -1.8918848269996735, -0.02691798795451526, 1.6222764313938893, 0.11877201911758828, -0.12363607474792143, -1.0387505169621432, 0.7249109428136955, -0.06499745213273937], [-0.40311604546567537, 0.09425245056539365, 1.9069525716221667, 0.08336186034226654, -0.21633605754928537, -0.3703785514608997, 0.11865362244338844, 0.025410678336455654, 0.003981739160390013, 0.048943338095595104, 0.10616102564599018, -0.018983860368410554, 0.2924194581368014, -0.0747684514499433, -0.04782347404912383, 1.4759235818073924, 0.10439928739266821, 0.557244923134866, 0.12085373288429128, -0.11752353050739239, 0.7300659054462382, -0.062196251425902814, -0.20365851353530925, -0.03033908637877803, -0.0517618508829716, 0.009404064061850438, -0.4320338715873232, -0.04707833932539652, 0.34453680907104756, 0.10870234065963941, 0.05316747390408776, -0.06433905440992435, -0.17857557200245072, -0.023870011203258667, -0.042426646494043006, 0.12431926531871586, 0.07121908064468008, -0.819998439262818, 0.09799847693971564, -0.5254976113443257, 0.9755548175637289, -0.091109507874646, -0.7285892805788057, -0.060950028147329416, 0.01976298005415479, 1.4228781104654178, 0.0728947367158229, 0.056984573688543164, 0.03778049933583614, 0.3302342330740507, -0.06151226898316207, 1.4426727051561643, 0.16442743055278966, 0.06099717161986373, -0.4020790251616619, 0.04521258394841644, -0.08644637965397362, -0.6640826057541821, -2.584032548707256, -0.09559637578531806, 0.22187083560720816, -0.11691710930318769, -0.06661355001106598, -0.10665159233493997, -0.02747384369704543, -1.3087981709592083, -0.020286643912052645, 0.6277620436725111, 0.036434834242163074, 0.03718618204769619, 0.04787084679407413, -0.16838253652854773, -0.27699910005826806, 0.07383250208167702, -0.13175012355216384, 0.9764089835847344, -0.07189601588564018, -0.12467786103230963, 1.5015141482390058, 0.14125878282923077, 0.5291684457028105, 0.1381058937424056, 0.02349371750789406, 0.009303852494112669, 0.09352399602115885, -0.10567515832897842, 0.02259373581238712, -0.6879656254064267, -0.028917826775061557, 0.04158791875704298, -0.6150672655904844, -0.034790042478034286, -0.02237916843512029, 0.019312601568435218, -0.1553559265186244, 0.00845932638257582, -0.44222300863372255, 0.10634659547842469, 0.4884975103872524, -0.04755306617961037, -1.2993303804324556, 0.01807814761097221, -0.07576761881244409, 0.0974843289795302, 0.33726115981016097, -0.24394308974754014, -0.0501831172316751, -1.3036171373558703, -0.16336028313354592, 0.12617369263551792, 0.03872511670470605, -0.14280628225798564, -1.40909487277343, -0.08697108857436202, 0.026462332153231957, -0.15768658822801299, 0.05144928040241587, -0.24442551207176907, 0.08586467250040006, 0.0511413051747619], [-0.3325898042537496, -0.9042419379236798, 0.6390373421383677, -0.3746361858820404, 0.01731702020475658, 1.1645600686623379, -0.03973575399588654, 0.1294373465380277, -0.006090793354307288, 0.4105492373631755, 0.06860272292286189, -0.0017553277980367757, -0.10554812471272541, -0.10164799577943484, 0.056485293779113564, -0.17717939490290338, -0.02224598464460809, -0.19622293263569887, -0.07353774053752808, 0.04556458831404719, 0.8175167724668432, -0.006802275100136946, 0.06363706558336513, 0.14485168937044, -0.0026426483924308483, 0.01589916208303997, 0.8604083890662454, 0.08233734096434081, -0.013788666663607663, -0.0670568955334665, 0.10066413273244762, 0.053905142342933074, 0.08697646758119636, 0.02177130683799491, 0.08256351035833309, -0.03636366269510843, 0.11795541927532809, -0.18394365842198918, 0.014869144970431562, 0.2112862145700702, 0.4089246006321274, 0.23756226977935588, 1.1031214594232315, 0.14563924903615402, -0.6442663100789645, -0.7991882641220855, 0.13389568724161058, 0.08135338932032407, 0.18687181238364445, -0.03207333937946235, -0.055834119295396806, 0.41632744700059904, -0.12201019604885942, -0.7878908881813614, 0.008604528021760432, 0.026033459938381336, -0.020960474097446277, 0.5625552366549929, 0.10094189142677239, 0.020767292713200887, 0.012445699153091818, -0.04894932271106702, -0.3200030485916866, 0.13870775707059033, 0.028492229333009912, 1.3120566829987794, 0.030329298150497674, 0.5745403905058055, 0.06431448379753088, -0.021980904791349662, 0.06017392769475555, 0.058631735858662166, 0.09301474651282644, 0.06681657350965435, -0.04567782339861224, -0.04100269919135219, -0.016032090070448972, 1.8884277510888297, 1.1009831272243318, -0.12631871945660794, 0.3713487090734986, 0.11065143505531351, -0.007781761885707607, -0.007792878294335483, -0.023741828737779618, 0.13560671660951015, 0.004668543288803666, -1.049375262989857, -0.052575023736205005, -0.01397637607314643, 0.557987758585358, 0.028303597326469403, 0.04726339116091972, -0.07727503384659817, 0.035967903819804505, 0.016204494505971292, -0.29496545188860723, 0.03659018923972568, -0.8032369054290758, -0.07577498024365541, 2.022023060925638, -0.07917863133895868, 0.039029979308169475, -0.012182454646066043, 1.1054606932937685, 0.5630339169177585, 0.04670081617804518, -1.1854904187714286, -0.057756627468117834, -0.2953874331491675, -0.011327264892033263, 0.02401626497862062, 0.9960797219485739, -0.11259113746231561, -0.09097140001966945, 0.03376325516695608, 0.03748869753280697, -0.9854649572458098, -0.09393347151300743, -0.04299969198935898], [-0.1244487240154342, 1.809619381979221, 1.1310117352929423, -0.3516092588813886, 0.12329274823757418, 0.40287161759804313, 0.20195878075903773, -0.05998210856692134, -0.105529051743323, -0.09197056278506652, 0.09548374888981868, 0.045173406000015744, -0.7390937051743796, -0.027202913931794404, 0.06206254918256471, -0.24007677450924017, -0.038933068006174604, -0.1120547452904819, -0.05228949519171078, 0.024997178636944582, 2.187129200119678, -0.02182293476840727, 0.29295071542594114, -0.05717353345890221, 0.006335910293431775, -0.21195939501889666, 1.5446549568554755, -2.340606691993076, -0.07014439197959839, 0.10406616036955878, -0.12621938482164774, 0.15059336351997044, 0.12251645702993155, 0.08304095524012285, 0.01671323682123653, 0.034434177533221436, -0.0720362222344598, 0.6050768157718689, -0.05759573633190707, 0.5244687949898318, 1.2566222156954885, 0.7342049468453228, 0.22101302884075627, 0.058809922374002635, -0.22315595596509863, -1.411661554106907, 0.01502077883611446, 0.10362883128449929, 0.1457975463013072, -0.22473211451662128, 0.05687214809969373, -0.12452377639566732, 0.06418439394919734, -0.30732379143776606, 0.14906266041512775, 0.0853767447437098, 0.15941987549957534, -3.1569195960462015, -0.5408846285651827, 0.08653492620702714, 0.1189438035453297, 0.0013868319019367077, -0.0675126436020607, 0.14096466687060316, -0.022704161148746658, -0.12191248013647706, 0.03422753057133667, 0.9214808348498228, -0.08901472872607241, 0.25502430144717053, -0.027250298461800663, 0.05162713335750349, 0.12528567843433577, -0.0564218059556875, -0.013586626310445311, 0.3568419430111328, -0.1282011230765194, 0.3856161764318737, -0.5622356962674149, -0.011194835549785368, -0.2675308196611173, 0.013834622330254115, 0.0017334657951860767, 0.027504094238142675, 0.01657112261915791, -0.001890634943132233, -0.03234411403264311, -1.8639168447097896, -0.127720473013326, -0.019207167853219517, 0.027255183501253773, -0.14625923424379367, -0.04949927201088507, -0.1518890565810873, -0.036365187275707804, -0.09130068972827803, 0.747702792000519, -0.16029582114987084, -2.1980968490657298, 0.04354435086473114, 0.7245845703317009, 0.024694852574866505, 0.013885613582754013, 0.05774544803741984, 0.4367413477143749, 0.6093452785186171, 0.014759408740476498, 1.0424849717931417, 0.09637016362096137, -1.0566219046971514, 0.04935775111901161, -0.07189983727850291, -0.1693207001049247, 0.11114542935064153, -2.5459110461450685, 0.038091270055525796, 0.003269597229376642, -0.9342289710402147, -0.3967399032218115, -0.03376117651280788], [0.34562785238005517, 0.5773536158828178, 0.2607311146000855, -0.2063005091192476, 0.14575574105556985, 0.16896467347832067, 0.10590364381647535, 0.10847211909733155, 0.010861213475013325, -0.7515393942405229, 0.03356919663745587, 0.09590078537914307, -0.7641321630377653, 0.07085965737333899, -0.10517100784272418, -0.35700232915141894, 0.19776262802092004, -0.36601072697377235, 0.07301187229724342, 0.1352430948846533, 1.1581676829694603, 0.24468311088166336, 1.0141180408254893, 0.08941038086826139, 0.00804579760192488, 0.010182610490202896, 2.3782223454987594, -0.06561192148195702, -0.357148355500901, 0.05280010692936053, 0.0056381087421473524, -0.07019047072233767, 0.25124185526202086, 0.02906019378236083, 0.0923683545490768, 0.059123953156482716, 0.11553037185937919, 1.5987181760393956, -0.009593667377720876, 1.4462050094994139, -0.1983310118281146, 0.8089087891750398, 0.591893027361286, 0.051337717520203496, -0.31381034234469124, -1.1173607149296647, 0.15220062217847208, 0.1676984597780496, 0.22347426147947042, 0.025889164925320608, 0.18826278468466293, 0.4606442949625514, 0.09688195620467457, -0.24664589299712666, -0.0014117957494278377, -0.02353367705235479, -0.023968983998487597, -4.1207699508676345, 0.012330996998145986, 0.06063405239701393, -0.5447960544276775, 0.21253429610490968, 0.012399367646465764, -0.11198293052613907, 0.033015756685164384, -0.6092283971916559, 0.047439948306013995, 0.7039918346895212, -0.05681409798533731, -0.004056005525761299, 0.08948945652498128, 0.03123708158480581, 0.06267378111849178, 0.038873119313221426, 0.07068005982894338, -0.5848348533940093, 0.17132572837415355, 1.9693700813045938, -0.754991001730839, -0.11925022854615458, -0.9122727999322585, 0.026006652215121343, 0.1234488903714144, 0.0712590524060806, 0.09236619534499742, 0.09213771645268652, 0.22320387005908848, 0.1790511269927458, 0.15299589919797113, 0.08039685441110278, -0.07928951557809086, 0.2940448556943424, 0.12851533205208332, -0.030072342469398057, 0.25201634775735804, 0.09246891683316341, -0.4162637449106254, 0.2728319143821738, -1.6724219001390543, 0.020289313646043024, -0.7728450376520721, -0.152259415534631, 0.2053148395560513, 0.08337664214676585, 0.1859577492778716, 0.5329434592859067, 0.14936446025687902, 0.5708726552984444, 0.024467992225878258, -0.8397054150976789, -0.011293425674592046, 0.02642823863002165, -0.23242935692024444, 0.0900590551479416, -0.7744288216792631, 0.05315083119557822, 0.1909085638640934, 0.028490900017484708, -0.1353385272673552, 0.0773283806663191], [-0.709312514491799, 1.481594857773125, -0.28673948815278133, -0.03446757929292927, 0.08376401676715244, 1.0122932064547205, 0.08196392535210602, 0.18123613521171889, 0.26674372048350226, -0.3047868750896502, 0.012618279680721692, 0.006416002523081912, -0.2616549781541112, -0.1379179367807619, -0.05856179511032613, 0.37604560128355624, 0.10866297078690018, -0.1444878847353578, 0.10225719954880391, -0.011299820109209697, 0.9274057191922936, 0.1118728167076112, 0.887025156145504, -0.01633757356556076, 0.15622357603606565, -0.0006564335508997914, -0.5362811140354953, 0.1596466514060748, -0.11443768052468088, 0.1191697550297167, 0.0628410955821421, 0.07094920440468856, -0.26203447086394577, 0.05787073415507048, -0.015877439566563387, -0.10354733334615487, 0.0431363664388169, 1.7316878520360937, -0.06389097609859844, -0.09246798891120125, 0.3781079985849586, 0.4972572938372136, -0.07939574311854508, -0.06413973347900621, 0.0011456563629474688, 0.11530410110723852, 0.2710282997880848, 0.13413788403395024, 0.12351568794341211, -0.11090438584307451, 0.02849318135519946, 0.30757218529631203, -0.06282364765522003, 0.1158223028146372, -0.454237720030545, 0.21585731503019276, -0.05045630742898137, 0.29956515716542637, -0.10915414444638387, 0.024684079899955406, 0.694052242256961, -0.20588613482214688, 0.028339706957707513, 0.072398582298582, 0.08629117150654027, 0.09688939434653979, 0.1296248061410982, 0.362509771868672, -0.1028205677971375, 0.04069007360486205, -0.04508401862265413, 0.03168302308607272, -0.00013071061168735807, -0.004334684113550621, 0.029695010140751803, -0.04103877934880336, 0.1581723672374508, 0.40096022939474874, 0.6725295164942471, 0.07488828416411666, 0.3393839133577197, 0.12490968504645204, -0.044159526005626365, 0.1487187391044671, -0.15099620048995072, 0.1324601523504679, -0.0026530747790611507, -0.2223397693248688, -0.047089546797150945, 0.17574484831665108, -0.1435218842434387, 0.14981724174775246, 0.0744555877400695, -0.02035942465914333, 0.12646298586646518, 0.04451789072601472, -0.5832812081510234, 0.17029404441254345, -0.3286279029364274, 0.06326114963311325, -0.7469604283009575, 0.17070163597672547, -0.023446410235588855, 0.056142910338848245, -0.7429233391901722, 0.6700451523526358, 0.07228168669414028, -0.9464833407640821, -0.09709295332698001, -0.039714216502412455, 0.09023811293920225, 0.028977508531962282, 1.3874843526572251, -0.023297863429782528, -0.4123437463473071, 0.058173648576131866, 0.03829160521455608, 1.9733635142999137, -1.4538705955245885, 0.08970813760780526], [-0.29849965024697417, -0.7132035815016297, -0.8764849678947711, -0.1881098668932879, -0.1226256098134593, 0.6881954452633875, -0.09351823169861252, 0.07874054129757999, 0.09598395271400792, -0.46945413750095916, 0.08133213298349025, -0.019920250267571396, 0.32295330405302297, 0.015135102461281011, -0.1063281131967792, 0.7971096389719331, -0.0614916172902023, 0.08191065361728547, 0.08945829235362228, 0.03845206299932072, 1.6222829344711285, 0.09669013656895345, 0.11822742441790544, -0.034769607232969804, -0.05086255953294802, 0.06082813073695256, 0.19098351205411143, 0.14716288144438305, 0.08727167239917108, -0.04394011486421728, -0.026612014998637135, -0.03982469216613816, -0.4281702686545457, -0.007572322142684612, 0.03953743034639249, -0.008175958788212274, -0.09050752616076578, 0.007208881580074411, -0.05425860535291191, 1.8439428917630585, 1.8859380716705447, -0.49398807350644486, 0.015068377210141343, -0.1610964208280151, -0.11885241697719363, -0.2645845311718428, -0.04153033999351879, 0.09269045173808176, 0.02314073088869831, -0.07386914165312983, -0.05480321191725451, 1.0460646191968144, 0.10666750185737185, -0.026510213450368428, -0.7262505633695964, -0.07755181355656365, 0.023425996314870624, -0.20361633783013725, -0.40071693654080687, -0.024300348297733993, -0.32953338465220633, -0.5020239729083816, -0.09211622215313692, -0.05086068140410833, -0.10907391475724623, 0.24123488137536012, -0.15894200265430178, -0.3390335362236951, 0.16540261557351774, -0.08162341695496152, -0.0101611794435538, -0.01965797235228699, -0.34459161737771665, 0.04369522717166522, 0.06927371402245625, -1.3095302864655913, 0.12226900313396455, -0.4261413456835336, -0.6677349092550489, 0.028024684470238752, 1.271174180141254, -0.17448971379828526, 0.021477696161047076, -0.06303637084568274, 0.14327423064427708, 0.004566051950867039, -0.03729432913539197, -0.5307291601380043, -0.041340218572711196, 0.06982737227278828, -0.23941904414861215, 0.024660255521919333, 0.01587141195683726, 0.12104010575361894, 0.02291599998790715, -0.060999408669094375, -1.2021142064351924, 0.0250869160343554, 2.2504153461702754, 0.012421206262043693, -0.05052237422239343, 0.021269217927708913, -0.08270343426205837, 0.056441770872262854, 1.1424007946761965, -0.2811060139287708, 0.03658775855082131, -0.5007673563678277, 0.1101883601329461, -0.3037886457332028, -0.017310211776829256, 0.025839562298075075, 0.07410756976708285, 0.008840370418560905, 0.5178872064474624, 0.08803952649628818, -0.023345049102892583, 1.3293106262134515, -1.9319646206887817, -0.06517370844246902], [-0.4868963577999504, -1.085191829406457, 0.004013953573603986, 0.3658334190881032, -0.22341016103383837, -0.1042571349563504, -0.01837136345193157, 0.27448764427935596, 0.1484202464326359, 0.6359532662514189, 0.0038949971481960495, 0.028530579737339315, -0.37256031487113606, 0.016053976831921987, -0.04530234331948797, 0.12211321364648023, -0.03818008380470939, -0.07617839629541857, 0.06617670494764634, 0.006479350192815589, 0.524507595386831, -0.030972718971485205, -1.1010923998644875, 0.016357081570406974, 0.006634286602187545, 0.10287450215938311, -1.307973804719639, 0.9314476601102024, -0.08490141233206495, 0.038094962249574406, 0.14497263400498164, 0.08317274564512547, -0.16486571072775608, -0.12731024496383025, -0.03258199523150055, -0.0637786125327792, 0.09798202752808569, -0.16469442367467463, 0.07805581120743266, 1.7764777204761268, 0.42582720668299895, -0.8643529054463572, -1.0619419654114566, -0.08492951111026718, 0.26925010130019156, 0.8327155624295424, 0.08032066819885161, -0.14233708086741215, 0.11282780392083189, -0.03957081839651648, 0.07094827152771134, 0.7062048032242878, 0.10937774638869134, 0.4686308303381647, -0.21699914633038384, -0.07182326427619216, 0.07997388599459788, 1.1531032128733985, -1.1160086624048406, -0.03652321662966157, 0.42987016578026227, 0.06003574363847844, -0.2413957366193406, 0.09507709982109971, 0.20743937274662713, -0.9255495984805996, 0.03320296516008779, -0.5398628909715062, 0.03790497762861704, 0.07792172018546703, 0.0607709811730856, -0.06971415900573069, -0.0172055137979222, -0.10340813309216408, -0.06781166732524088, -1.4290797901747676, 0.026013745851859147, -1.5319927349635902, 0.029086097856141427, 0.031600372534421446, 1.608761544568811, 0.13968553784408916, 0.012379094980972526, 0.04617345206997281, 0.10672498237149455, 0.15239075290194445, -0.04103132139961107, 0.04416665264470494, -0.07235807001203169, 0.16633913991363217, -0.8093524186553371, 0.044667408752360215, 0.1370310171007143, 0.0175164894787058, 0.1854281142551332, -0.0025543039188467825, -0.6480980865361032, 0.059301692782336525, 0.8844096953002771, 0.06007922071547275, 0.5364401946081567, 0.014566237556645547, 0.0494850656932907, 0.02145936997460846, 0.5757972984224181, -0.2812165188185573, 0.12493449718732003, -0.5806026665951196, 0.0412844666768287, 0.28808913230347716, 0.012313764009090643, -0.005795860221308197, -0.8570794295761186, 0.012887373153688859, 0.25741649068225136, 0.10188976433455094, 0.12002581939136324, 1.5952631710351601, 0.09334145632679032, 0.04194196904795758], [0.3758517648135049, 0.12954376739794432, -0.9148377304823492, 0.16944831163755364, 0.0953472657991194, 0.0872391060523735, 0.03256098956263278, 0.13271100962649954, 0.14204109630581813, -0.32215389879595385, -0.02714063457244415, 0.13793173493509978, 0.3093120752275077, -0.02457299196788001, -0.0965321054938616, -0.1901805184737044, 0.14232031576724044, 0.05046716009377103, 0.23161312797192854, 0.11162429308125729, 0.3579979278556296, 0.22852085494641516, -0.4201654694659394, 0.0906164782017007, 0.20845482489210995, 0.21412857595929555, -0.6816329538044265, 0.12901861262286293, 0.09825916461301805, 0.009399395197058123, 0.06644680497319702, 0.03180280431128792, 0.5687652557885204, 0.055775784761534136, 0.20374076686239284, -0.0033247915484890963, -0.00011741341970467189, -0.2404711912700826, -0.06466209988530733, 0.23745800188759458, 0.5842913745868398, -0.2762116753457846, -0.7427504440719094, -0.029442944223239068, 0.32023761053277505, 0.5045535383232491, -0.01838509091068604, 0.1778891003903133, -0.06084818367280823, 0.036191355044177705, -0.08030023914648537, -1.548095445516295, 0.015248397763403743, 0.5996261929320267, 0.48220257566797237, 0.12504730874674477, 0.1597179007225993, 1.9774977513086278, -0.22999954453729124, 0.09405164044992552, -0.4012432185892276, 0.5466970138561014, -0.2877415337884568, 0.06974164460603512, 0.15879628397098483, 0.16562586063232473, -0.01358411089311461, 0.15316419394857309, 0.07236584589992563, 0.01653852024145085, -0.04385381353768625, 0.09121137248806335, 0.509116481274662, 0.27965580537113965, -0.06870685967786874, -2.658780292719906, 0.01881183049244807, -0.04138450404320912, -1.3945704377954398, 0.234866879687233, 0.48543962133424284, 0.10164015741750872, 0.009272836884868754, 0.11865582739650193, 0.1859274537471783, 0.0819725545983576, 0.0025870545526929353, 0.7376977806838485, -0.0021677059334925877, -0.07692560826900287, -0.04001235272891413, 0.030848914620633373, 0.030002622185384176, 0.08789472843155513, -0.06240436718004782, -0.06382332903738935, 0.1731158193582274, 0.04806676046010015, 1.2436629642465802, 0.21355015356447204, 0.7646319009831014, 0.0750701992459255, 0.07911072747630397, 0.055997356239243005, -0.15707292165950273, -1.8169738240900997, -0.004294057748090252, 0.46206808955629836, 0.10792041465958013, 0.4353572708112911, 0.10650098394454023, 0.12402193850005602, -0.6790540247137877, 0.09780597920307324, 0.6039498151276154, -0.02450369316194673, 0.14041084632781822, -0.22819666564940178, -0.2856507506255227, 0.0033474934677594913], [0.7969990493749293, -0.8021066271639306, 0.5193192835743025, 0.03670185131459011, -0.1612524494670659, 0.34778247009508034, 0.1481369645325347, 0.21980666321397557, 0.03535182135662705, 0.5890732285199196, 0.22910844829125723, 0.2525568413641477, 0.5988583505816221, 0.13199258600000593, 0.23941933705214527, -0.059433735131527866, 0.17359018556165057, 0.28750406578119586, 0.42407082105603816, 0.07928801305894101, 0.8568628180501082, 0.22552245412566624, 0.12301087497491994, 0.12334918919210411, 0.15510419200945774, 0.3648758430641038, -0.19469617864242605, 0.7153788441715208, 0.24467423120752244, 0.18252281928608802, 0.14031231458354296, 0.19565776076821037, 0.7174971754242622, 0.14655523433168507, 0.14812128594915486, 0.02093822497254799, 0.1631119753017495, 0.3896925974976855, 0.19766477999617096, -0.24180000298820845, 0.30804157156135953, 0.09151974317018625, 0.557678550475225, 0.28118435865663993, -0.12677394332588166, -0.30606186732993884, 0.09108901466315632, 0.3012774914037822, 0.24598568965470494, 0.12593128275969945, 0.13762401015319295, -0.6403746156307485, 0.09663983758286976, 0.06658654158319134, 0.707408710083507, 0.19348019990636695, 0.2524338262393934, -0.9160008055920436, 0.7374995651392475, 0.20011242161945678, -0.09508094008544174, 0.67901839307653, -0.2259574721234926, 0.18086909034766113, 0.28116944427796914, 0.5814883435963435, 0.008239033584015414, 0.13436577162159033, 0.2625660924519697, -0.08285645326134083, 0.10249371874887094, 0.1672475646003799, 0.5826441177912862, 0.1554999344213883, 0.12011607578154006, -0.7552293448049452, 0.07725078449542032, -0.9301461027929379, 0.2742520685808187, 0.2141060543515977, 0.4755010642136672, 0.15867897783428295, 0.13674578489559347, -0.006698714474030033, 0.3047180394690627, 0.1563277221918448, 0.17129139726155312, -0.323877597750161, 0.084996260273076, 0.20037487665019676, 1.0850926286683693, 0.10645677395823246, 0.2382120923289058, 0.0237878639855936, 0.10239858368519908, 0.19975211376994723, 1.2669912811076471, 0.15036289935275118, -1.2399471496405456, 0.27697287824416494, 0.2733658420948313, 0.13123539145551166, 0.28201342194794105, 0.18087276269718786, -0.040431530864709644, -1.0306525023791167, 0.07751455130287084, 0.5407670182112153, 0.16498471282245136, -0.07613162140769404, 0.2391818789349242, 0.2731562515876517, -0.6721262732513104, 0.19345766304269507, -0.6810000486634326, 0.18922740096338103, 0.20736839303629298, -1.1787899575767422, -0.4945235151498822, 0.061563008830026786], [0.3273480288517712, 0.6492959171927267, -0.088499299892361, -0.1589987538149157, 0.04421134569896238, -0.5766195426743906, 0.09861354238451289, -0.0037493234627731667, 0.061161451034638735, 0.17005769643382365, -0.02356638260141484, 0.04983680858185951, 0.792761971473116, -0.02833996755385886, -0.01634364433974869, -0.13768273421873195, 0.1583018309556975, 0.17396153247996257, 0.07253002818010491, 0.1418854097122315, 0.2440390445521858, 0.10071617980651835, 0.06407129261313588, 0.03559511959214397, 0.038515831913031304, 0.057418475211006015, -0.10190276142990225, 0.10147410984592516, 0.08332454983871604, 0.0405934979033959, 0.18311538539609234, 0.1383914911162214, 0.46281372928856607, 0.029593225839465085, 0.15810967655127015, 0.05808860745950402, 0.09403225520373722, 0.17616228490286778, 0.0700506943576735, -0.006057601454210625, 0.18475975116623966, -0.12442689840483402, 0.19175466199842786, 0.18096581229682748, -0.25770471500058145, 0.15399592000217188, 0.20684199467922382, 0.05097758498473594, 0.03074843291412583, 0.12962361439376516, 0.11208001355776392, -1.3097189860644558, 0.15931722540457455, -0.23005008047417894, 0.7732101679963876, 0.07493020285291452, 0.09099357350181811, -1.6530132190591833, 0.4319139151077884, 0.104113129312269, 0.046905365875877625, 0.3979191529110712, -0.13786155458064245, 0.0837160013330837, 0.07153795695976754, 0.9818298828754776, 0.0963663225140915, -0.18938174196025875, -0.0035549016053392124, -0.01837192377681415, -0.036252542447015736, 0.0315323884922114, 0.5432418826879369, 0.07400961333210582, -0.0892900215683929, -0.792335611753462, 0.054394782059764446, -1.1951373282202309, -1.9030426038347452, 0.07882455410811047, -0.1358829613827519, 0.056049960129887166, 0.06964527318747755, 0.03369554931063362, 0.0005042629389983736, 0.0152785495909612, 0.098060352102237, -0.45201369835328575, 0.04276621890487895, 0.1050988051320054, -0.22682728761546728, 0.13894094940547522, 0.0650720638465126, 0.18048393634642165, 0.07997145204239973, 0.004248475546528715, 1.1883139351319416, 0.048084116426053675, -1.760596561135072, 0.1842901516506183, -0.023595792899144534, 0.13892687307931426, 0.02286353086571359, 0.05856597109722144, 0.3450543353472351, -1.2256886327262733, 0.059051078522082974, 1.5328575243792169, -0.045613676181239356, -0.3520873637156341, 0.09167051454720719, -0.1099850313837004, 0.13438014252178795, -0.08175003759999462, -0.3881866426248806, 0.020039754800649453, 0.15475188460970773, -1.2816707584201217, -0.3279531620466152, -0.04259829559982844], [-2.0851954619089343, 0.3320388094856666, -1.2717642336447461, -0.1807947471786799, -0.15624219850742355, 0.19890303251719918, 0.024710105864804464, -0.039125036758309764, -0.06178028827237122, -0.22365970263156196, -0.048484890754801925, -0.03940340092188496, 0.21435972969961758, -0.11228055411331675, -0.039216906653077734, -0.2605591829479134, -0.021609939096652, -0.1455280496462922, 0.0004161750187942254, -0.002422127020140341, -0.36869497292259834, 0.029947962195849415, -0.03199663749343007, -0.040988668746676664, -0.19213974052504998, -0.1696799733575148, -0.8369563668856268, 0.07179807546671593, -0.15650729794792778, 0.11546899318584113, -0.053105711593282486, -0.1779385229018664, 0.5605222494920572, -0.07044069490754751, 0.10288888822829034, -0.22832650372628716, -0.05354035834177735, 0.11932803090938941, 0.07273547346531922, -1.1896481129292562, 0.9814467811711947, -0.30807770565011844, 0.4190621957210055, -0.04661964154755052, -0.259587349405162, 1.327970188162623, 0.031361236933709805, -0.04592568746743518, -0.009296120371399203, -0.07023497448460105, -0.0649400311873825, -0.8955596662301699, 0.0014992753533402306, -0.4459447494037164, 0.9721506251885998, -0.025201428294043503, -0.028932450831652645, -0.785346607896556, -1.7166693737454721, 0.0012718187287068105, -0.8941416606243285, 0.3229852983618156, -0.05698791502248577, -0.023118648911580133, 0.007654061619748655, 2.7879284152844326, 0.0538067337227695, -0.0741772940503414, -0.03829323114776737, -0.039651983505142034, 0.14046087713071995, -0.07113320621569548, 0.6576455530534433, 0.0557129429187909, -0.09721464570215776, -1.0286512606704905, -0.010743512380768388, -0.6532352791620057, -0.1725350737908083, -0.1769393881109374, 0.17473537586444696, -0.032456377585600174, -0.07096990501130804, -0.07092248839780796, -0.05373081561884982, -0.007831520359088764, 0.03589515812168242, -0.6171553358125457, -0.028040321126581978, 0.1855415872393509, 0.2091544108278004, -0.08386712289908127, -0.12927743745923972, -0.15693644888932531, 0.16817052648812233, 0.012809988570742607, 1.0743072855987663, -0.05028280181597536, -0.8579188814535791, -0.1354144551255473, -0.12630010641615763, -0.0649668350577701, 0.0009213720434266471, 0.0754479030298611, -1.0727254469673841, -0.9109248246189195, 0.03594697087714269, 0.8428730922535844, 0.0005760037035696974, 0.07715467236372915, -0.10573575241402244, -0.15274743855272466, 0.13888874429681572, -0.09705451032406866, -1.1560589227760378, -0.1544307708800568, 0.10751846925791944, -1.374308081338373, -0.23959936858908357, -0.042949207160083484], [1.198905371689958, -0.7380655325179585, -0.17506179011480988, -0.07278409904578888, -0.033984899641032004, -1.0229252773920772, 0.11846914208930127, 0.006985912500909268, -0.08132699665120653, 0.7531673466015754, -0.01674157053703731, 0.08279807591624219, 0.33815863054381917, 0.14311103955170015, -0.13970353795222198, -0.7708440807017717, -0.07493517391765256, -0.6037368431376438, 0.14613332063792614, -0.1495873519818422, -0.2719500897255073, -0.050089560632371764, -0.78313566099962, -0.030030951727394877, -0.066973105145829, 0.1151432975581073, -0.8804919296281236, 0.19151895416403858, -0.4443351577680571, 0.08552693464851821, 0.14560085437973475, 0.1065808499169306, -0.3263377717982008, -0.05732374314544591, -0.012263186548474673, 0.1444694030560202, 0.092203832449267, -0.5648831523084892, -0.08973627999625078, 1.1303791162277959, 0.31907643619749376, -0.30710961791567976, 2.519243804053191, -0.18295495305340234, -0.2867570276679543, -0.7730613978564679, 0.027158387028305152, -0.017805067547734803, 0.21982283139305586, -0.676245682085238, -0.007314793466807135, 0.4613459659476465, 0.18360177364929667, -0.34826857363947894, -0.1698657042377123, 0.07217481335446423, -0.020672839144717105, 0.6485688385078835, -2.260799729217271, 0.055592684649168306, 0.6653064443656179, -0.14349651529201637, 0.15966436876740608, -0.13414224614982712, -0.02515930185230764, 0.26867759814165904, 0.013280065635891892, -0.22450583222252715, 0.20077520135986607, 0.017373307035519217, -0.03765135884249704, 0.19262679987640344, -0.1380768072663596, 0.07747053045196921, -0.03332663946658346, -1.0670137704152471, 0.14958772790751107, -0.6084337969057068, 1.0215100931626855, 0.04452204727651948, 0.04184782214288137, 0.14916681122164469, -0.01048866050390193, -0.0019526687210130293, -0.015572966914594186, -0.1850094259836084, -0.036335872710698124, -1.0896915623193713, -0.07702111465528325, -0.029971518403578975, -0.17839534781146524, 0.10848945299690813, -0.047080308367577796, -0.053558001409524394, -0.0355134982365029, -0.07078982439011204, -0.40026893633423355, 0.24192329552148745, 1.8904089854754687, -0.07216084279216306, -0.19954433274277444, -0.13232049267454282, -0.060820876926985144, 0.09218373419766263, -0.2365183632452527, 1.0067921085414993, -0.07174073620277525, -0.8150081060153812, 0.10362850452643736, 0.16973452981659418, 0.06558809819712613, 0.012548857990815671, 0.7807204912165141, 0.033747920530448915, 0.5571205999022737, 0.03182364593984072, -0.0678756881163492, 0.4964505490345195, 0.9418487969208289, -0.009852839256339431], [-0.310195730343314, -1.0228049336010114, -0.46616926479747256, 0.06498413404041953, 0.13323562633401953, -0.9406533924345599, -0.06776187651842616, 0.018581895041588744, -0.10893245912394676, 0.6141966349577082, 0.06512590908409899, 0.16002174967170757, -0.21511361141044, -0.014200871147371695, -0.05972574905704186, 0.7297686556581938, 0.04711449284060103, 0.3606499519519513, -0.023477031577081073, 0.011773281963286718, -0.4596279515381783, 0.10863856048433043, 0.5228977263676116, 0.043728037656483525, 0.015347256647136414, 0.04745477292961453, -0.8921662031722575, -0.8064348055396345, 0.21603989824870273, 0.029659536431759084, 0.03665031089472551, -0.004037578505040278, -0.2631530676805709, 0.20265794068960158, 0.06695209778288531, -0.10399450577419835, 0.15050638483115447, 0.06643078643513106, 0.07908685082870429, -0.894441039547738, 1.8410797644804653, -0.0781531934131384, 2.7822760805849063, 0.04084214406766516, 0.025450163207514656, 1.1740596918957087, -0.1456894864593118, 0.10719936304858603, 0.025530333605619345, -0.21657477156420485, 0.13547969593533893, 0.7760561773525289, -0.15099918656136974, -0.21441114705246975, -0.19373893609222506, 0.0036397009571232943, 0.0634283368732164, 0.1648285641762731, 0.207539728033261, 0.05379809374307003, 0.3410410135677589, -0.40608751555522543, 0.06554051452234501, -0.004544265562960584, -0.004696007271265069, 0.6496607265392259, -0.031704336178246625, -0.60721599565226, 0.12389227998204694, -0.02034465957662968, -0.03413068341496674, -0.06170617536308438, -0.32168402293616766, -0.10313791881492664, -0.09009709088560046, 0.9989836059088804, 0.026557869128336714, -0.07263709304659202, 0.8997592804371788, -0.11071691153388613, -0.6690455890951041, 0.08183728791821644, 0.10799875345801305, 0.007577212305022674, 0.07911298308200507, 0.021621243881759733, -0.059183711864753505, -1.2723317263938525, 0.12341426542036557, -0.04391971875654822, 0.5516390797830834, -0.1953505831461082, 0.005461134898911091, 0.11138642793036972, 0.01608973981923036, -0.15063789671720113, -0.7622423958318861, 0.16413763884724533, 1.0587608085359321, 0.04016803016523418, -1.380626451403333, 0.013623727074683479, 0.04837261586066177, 0.0841005355877344, -0.18647157198774364, -0.6149759727365912, 0.000504513447721772, -0.874044492572975, 0.18618489018507198, 0.22334429039241463, -0.04651976673915888, 0.14234167954004628, -0.22701973934165257, 0.11012038620483261, 1.642582840395294, -0.012979200534823534, -0.020417435063636837, -0.611629777325615, -0.6483114365048194, 0.038962461356322864], [-0.47921376006584593, 1.2678891081783832, -0.0030286127684304638, 0.24414477806514, 0.11850783866616445, 0.8333508451529412, 0.030944564348142953, 0.01636450691611788, -0.053192091019716684, -0.3205427215570905, -0.051731913421821804, 0.004996310838809916, 0.26321384057073843, -0.012208737893433972, -0.018463165330077722, -1.3673319793519465, 0.032853463765572986, -0.6710688634418591, 0.06017040001607318, -0.07414100429334222, -0.3429829964910687, 0.0050839283670461735, 1.167851578928743, 0.14599563879716565, -0.06060797142756082, -0.044873211535354715, 0.5791994233636635, -0.6429623180367875, -0.49190370429393543, -0.03115773454152292, 0.16611757844465574, -0.031387291774388475, -0.23932976481579593, -0.03268255366087469, -0.11802266686106327, -0.16234519300860675, 0.16224387097543677, 0.49573718535376, -0.009914392048477758, -0.8248130360921744, 0.6646876340608392, 0.3681808029528142, 0.5715010604106916, 0.041428964999064455, 0.27209426731830294, 0.2768619777306748, 0.06401840924055151, 0.06180836831991856, 0.10325713314433527, 0.11848710764564946, -0.010039546011120705, 0.1795255944977179, 0.08149694115554294, 0.38991244461044056, -0.3117374457023387, -0.19653666444941592, 0.0771949073815454, -0.9865303935506213, -0.21047919231577222, -0.07291483292102012, 0.8018627218388675, -0.009471885462078004, 0.08655594566392939, 0.1449686807113787, -0.009641906637390167, 0.44453351851180384, 0.10299281464299218, -0.03064040344548552, -0.0624503046626056, 0.11855535356726074, -0.051388795045250776, 0.09713470520795114, 0.01446878004940652, 0.10709187404920902, 0.03113556128420555, -0.9010494268110795, 0.05203228951975997, -0.5409327149563521, 1.8525260127535876, 0.09723483442687499, 0.9391153377379209, 0.1168524596936498, 0.0037476996790165814, 0.06403569740238538, 0.07798053898519174, 0.09645221687858105, 0.06550873894910109, -0.9226727935749034, 0.01194376508399072, -0.020683574803101137, 1.1617836698241637, -0.0036925719677290652, 0.04688208236241933, 0.027492749034940055, 0.11695966804062156, 0.16375611047803773, -0.6041495749555785, -0.1280357629674546, 0.47121808348134614, 0.027875562106725232, -0.030852467994006236, -0.03793821668602089, -0.07764105098502881, -0.04388972336936301, -0.33847412743858196, -0.22249905499167055, 0.019815671883083853, -1.3844907357495553, 0.03377697860115277, 0.6506164289897752, 0.017058633401085547, -0.09721201904732862, -0.24380044250796604, 0.000958717163225229, 0.9018143691214991, 0.0646268431652812, 0.11847029775365604, 0.3128658459888693, -0.3296727016570152, -0.013799224030901648], [0.3871345312751561, -1.0343829320237559, -0.05288125457204218, -0.0049483041716093384, 0.0615031656155657, 0.7586482433904523, -0.05868229534183381, 0.11476066335733444, 0.10541831782048947, -0.5746257797257376, 0.2631879468436356, 0.049995356782775995, -1.1427971076850254, 0.08923122703072325, 0.10163859692173015, -0.5315235704782222, 0.11063368876693162, -0.577503410791227, -0.0011440363122748806, -0.02112976364586799, -0.2823625251033357, 0.18825895602791995, -0.4047347432465612, 0.07623115709929834, 0.06519586741039958, -0.04371741380399853, 0.3178198548209097, -0.557278234458123, -0.3061390274845724, -0.0057358779676840695, 0.17408709669720784, 0.12237997696729642, 0.2532162732991695, 0.028499036993626575, 0.03617221129484039, 0.08751875101902702, 0.08950097599542002, 0.3539238383071067, -0.0024393060904142135, 0.9480855808646885, 1.3539461569030635, 0.22559358292140091, 0.685803638884817, 0.019215851581944894, -0.24757063486883427, -1.7227771568459669, 0.11228089295851687, -0.01668374563332882, 0.07079741698929612, -0.5233122109343041, 0.06064744626160981, 1.7805794334534795, 0.16361170746265988, -0.2936170096445443, 0.18290997001114234, 0.0881995569457376, -0.03552785887319518, -1.1524363047999657, 0.0588439813489097, 0.12620871271946174, -0.8812484305438312, 0.32701486112942263, 0.18289069401418903, 0.15653328882994064, 0.10647836800871355, 0.2327373039288553, 0.03329562061978622, 0.5379970476288574, 0.20858655210951677, -0.0017517270772910033, 0.23746347165191709, -0.017217316358254676, 0.24951020314607544, 0.03030154701570772, -0.12370645541156065, -0.8641734914686445, -0.010847732693206399, 0.7685034524123339, 0.5858044288320905, -0.08690775863134682, 0.03237315862981205, 0.12844824903428848, 0.20379230396813008, 0.05786775617789654, 0.13052661932339266, 0.1274187462563947, 0.047357117695987716, -1.2696222375742312, 0.12376607048629219, 0.2234024737889339, -0.9515435555058525, 0.1339435113532656, 0.10394194953870023, 0.07880438882767808, 0.000930362263778064, -0.026878750213670814, 0.912598073031039, 0.062445877755099355, -2.548745788981412, -0.01600168243956194, 1.3546591840718916, 0.2604462335711614, 0.002656560585131031, 0.07620107388597622, 1.9897208790172873, 0.729824888964999, 0.0030639898746001627, 0.3315964730568037, 0.063920665066546, -0.4360331603357018, 0.146664433163057, 0.10817679826037975, 0.5078143229914978, -0.056269854163172144, -1.794401540326317, 0.015062378136538228, -0.058099880134301125, -1.751292388487627, 0.955356952407345, 0.006661678808336152], [0.5783403620192762, -0.1536952372683019, 0.2562507961083861, -0.037009276403343144, -0.06703665659672473, 0.878392680093595, -0.007594800102307274, 0.15331307006897815, 0.09642098987386713, -1.0477405254299406, -0.07009952988597999, 0.013278911195771449, -0.45107933418422586, -0.03379914084341983, -0.0713029296527046, 1.0350700619740714, 0.13714970854735867, 0.06483790005153468, 0.18368110684969918, 0.1456046881600925, 0.22822347778042118, 0.19090998539876688, -0.8640079540214224, 0.12148550286187365, 0.18812149141307008, 0.13666683982769395, 0.23948875821633564, 0.4984518222231288, -0.08273518737242694, 0.10863455343561655, -0.0482368183257739, 0.1482173394879819, -0.046077186669810165, 0.07220944034646228, 0.04567069814184857, -0.11334305925048398, 0.1603693864472762, 0.5710224124125178, 0.022938665630845356, 0.4226241981653198, 0.8321408492058722, 0.5318815570425016, -0.9590544910767379, -0.12015191227044864, 0.7485075979709835, -0.29322656661491464, 0.03907130253377097, -0.004324714637288714, -0.11611830836225558, -0.3234665044568043, 0.011222246326511386, 0.41444916178412755, 0.020967470343990286, 0.6471856299034536, 0.2027314243713075, 0.0714105115628525, 0.0722366093684067, -3.085307773221692, -1.158582498897716, 0.12634898538646203, 0.7981510797468323, -0.1020955250601841, 0.2039433248960164, 0.05655153566417373, -0.006815936022459384, 0.2791060411821254, 0.12963438037597447, -0.15860934625660472, 0.1375300257403308, -0.03736655540519619, -0.01603352057910494, 0.1083474595953222, -0.01733843774905278, 0.14342737785040952, 0.024444300270463102, 0.0720012952330173, 0.13335772061130946, 1.4131529887792025, -1.7514317554854872, 0.05254588019376086, 0.26224786004810113, 0.13222867924753462, 0.08528306490793515, -0.009268813202561997, -0.05191659541748115, 0.16643682116577344, -0.017482926384439445, -0.4487419356105228, -0.027721877664179134, 0.01179427572454037, 0.762033743012071, 0.07518496050242374, 0.22919766314190185, -0.03252893815896776, 0.056955532870607964, 0.07739756242579147, 0.37852344965061585, 0.14652099000759702, 0.36921808799566275, 0.1465671295683229, 0.3089806548807008, 0.06502929899174592, -0.08012738099463923, -0.016401481071701078, 0.3088438136322503, 0.05386882587383215, 0.06438247548396359, 1.2510005112792955, 0.19796392402877083, -0.4988436629120461, 0.12747245134426866, 0.002992820053003404, 0.5734397937389718, 0.07091993454652831, -1.3132596040947682, 0.12456263095320019, 0.01946769688665368, 1.864470614852202, -0.6271401004278292, 0.11107789306733974], [1.3323150065931189, 2.355366112434551, 0.4715847000000164, 0.3165856242766455, 0.1850731099202859, 1.2113024850325227, 0.17202892523254593, -0.01104546761647106, 0.000636747707583014, -0.36286072560218946, 0.008775394064955751, 0.09904669345167953, -0.7969566941723809, 0.09327377989446091, -0.03650079559569002, 1.4241314432362617, 0.12193679133985558, 0.37087911487318653, -0.016254181509989977, -0.058099851073389615, -0.8945345341350047, 0.02415994793582261, 0.13135820049291308, 0.09965967458062638, 0.043025721716261005, -0.028476119895206643, 0.4149909695967825, 1.8122865792636438, 0.2288843383221506, 0.1986670577271556, 0.16908821250962253, 0.016053882179530753, 0.0698570281760954, 0.008511002773601119, 0.025409264556970578, -0.20160174683618898, 0.11342934319048233, 1.4638170290060304, 0.19541236211599758, -0.8452342200100814, 0.061782473269464254, 0.6557055920614538, 0.3727218932938587, 0.07157400981945956, 0.5037490917168918, -0.08616368597107445, -0.030465932319891125, 0.1196536779297271, 0.12411184350787663, 0.16500436452337067, 0.03706233690515388, -0.006118910215031621, 0.08985539286318683, 0.46769350862119635, 0.25400331681490823, -0.026734723670734747, 0.19089213641240782, -0.6873797010964231, -0.6372042070088824, -0.04636696499328057, 1.0112913382385715, 0.027559340598271344, 0.12053976895955054, -0.0880138223298561, 0.10199436443550992, -1.836413891678056, 0.010358338535227454, 0.756820139850542, 0.04703458744585872, 0.12075291008350215, 0.024412201493495635, 0.029253922913723508, -0.04137741162699635, 0.05855598457587797, 0.0467476179846138, 1.3426550467896397, 0.09159120625457917, 0.4313100418470636, -0.39061117683030333, 0.04139642015174822, -0.05142092753886343, 0.08301588762284635, 0.05755334935854947, 0.0730139679350145, 0.04753221246706782, 0.023656842721316698, 0.08524634495216259, -0.4600523542504008, 0.013806937057319392, 0.1761310882714706, 0.9740377766369599, -0.061733449250607995, -0.0259066954490637, 0.0372911946594255, 0.1894201967537846, 0.07607271961540281, -0.2468905651897295, 0.3507660176121643, 1.4912007525238211, 0.04596738999873818, -0.8209123271200016, -0.12574039084986724, 0.14929964643445512, 0.06723579719118297, -2.1567287082020092, -0.3196913394747444, 0.07578456625479676, -0.8127774190458111, -0.05008540063677296, 0.05688669336034789, 0.010468328803949933, -0.001165331319862866, -0.3698024848059406, 0.010925772145618599, 0.792834336612592, 0.2224944638230926, 0.18674997292427026, 1.0921448188053002, -0.23674164648098392, -0.04420423076157009], [0.5605434877064774, 1.05082653561206, -0.19599496678377076, 0.3441155284931305, -0.06051761059219558, 0.888727844754498, -0.0502527810635851, 0.06527389189547989, -0.0012099522867035238, -0.5440874459298278, -0.07040608275698554, -0.06902905553073421, -0.2608563596050183, -0.1995046121442044, -0.048334933840600815, 0.14555622155993864, 0.026083262945944763, -0.39401423057515783, -0.04547907494036874, -0.11140085494330447, -0.29100071230122865, -0.10996883488803602, 0.37663649863226145, -0.006131022221160202, -0.14415595365618297, -0.05120787851941733, -0.8018588620601368, -0.15871483328156985, -0.23087533171840924, -0.10504325651991965, 0.01026148612235773, -0.03190476679092586, -0.4902722105010149, 0.03468379091911327, -0.005162584523475295, -0.0398942996326171, 0.03430888785571114, 0.2577760528358875, -0.03364085638525808, -0.25590819089479183, 1.5545715512403655, -0.0854167195159213, 0.34868267700350347, -0.06509099936211542, 0.38515200606153993, 0.12087950757593317, -0.07821989918146173, -0.005172233380937086, -0.13730740881056394, -0.3942789861045922, -0.009005447502426687, -0.5948998962181362, 0.01517177449494095, 0.5419993688743223, -0.3151585065586612, -0.0510425028611961, -0.12788416305694014, -0.2102765644941266, 0.4468189345867893, 0.027241669405331195, -0.2244076617638035, -0.4293515821777962, 0.020588024575212166, -0.0210717781449201, -0.06532343405672845, -0.6856055660169513, -0.026923366873573083, 0.25261268288058125, -0.1028473224165896, -0.10299415803985723, -0.04655015095112534, -0.05285690551814636, -0.4463682910465911, 0.002297536384180397, -0.14344239468679326, 1.2126353416335314, 0.06551337538839887, -0.26616937408425473, 0.05143198130958157, -0.07041242722919815, 0.22511625641110392, -0.17856699508403676, -0.14920049743112718, -0.08436622694649686, -0.0070226673829518575, 0.09056909255555903, -0.02925932696810036, 0.054715810090845425, -0.01844688361252255, -0.1372013878304505, -0.27634465895482, -0.027586249908094326, 0.017584004203029774, -0.025517275059825095, -0.009498293487314504, -0.07117445742955852, -0.509531638854659, -0.02869607741694456, 1.0865159500439627, -0.030442941211859205, -0.5366749963277987, -0.05753581553762316, 0.006741338533286222, -0.07534469254690822, -0.027053494544092817, -0.6560251224434098, -0.05118072997039946, -1.217832865586132, 0.1265507884028066, 0.29909103976882334, 0.03639486971850385, 0.09026815530687193, 0.052459815755402726, 0.007243802070925865, -0.4028049659337755, -0.16994350224731847, -0.11006504033719426, 2.0985749334955646, -1.1858420531294132, -0.07633550728573246], [0.06972561833097504, 1.1004142775826853, -0.2921427722133381, 0.6543694029589326, 0.07430176961406985, -0.2805455918614783, 0.061798697707091975, -0.03693087314654095, 0.09501283248955508, 0.9092874617606772, 0.06208732366017306, 0.009116419094016986, -0.5833494003885216, 0.039680791722249475, -0.03310684068289468, -1.0022382908630065, -0.02631424654534505, -0.233725840135055, 0.10755998570011062, -0.00898266995618862, -0.6933860725078752, 0.1307651211187797, -0.2982829190985875, -0.0045699847200265774, 0.03062591127341085, -0.07169416502841035, 0.18367972728511633, 0.43851083001682556, -0.11865316735648522, -0.01875105692850724, -0.08807911855778303, 0.09107565297697483, -0.22805831297498222, 0.09902615759880094, -0.03469347088246864, -0.03959254995207337, -0.0874498635161061, 0.3484597962261064, -0.022312872408991942, 0.8249700600814519, 1.4078788684242967, -0.06410816163609652, -0.14739138844737845, 0.09375206758943541, 0.7729318025681786, 0.928207201419097, 0.10021387903806876, 0.11870214380854498, -0.02447262034351648, 0.11024770035335375, 0.013707730986002245, -0.06197619222266215, -0.030934436778765867, 0.974129987927091, -0.23781378280563834, -0.10719080537681532, 0.02688592976116393, -0.56809579527069, -0.3523064215951801, 0.13304439001627938, 0.012903509414622408, -0.10244549420588786, 0.03944412522606457, -0.26278726004536845, -0.09312765844320692, 0.9709713957189496, 0.12176872208996088, 0.13003852219981762, -0.032353961520708435, 0.011794704396134982, 0.015297092756632092, 0.15469421243423712, -0.09413808920763093, -0.08396197475863985, 0.03404021243297239, -0.8894684909302978, 0.1288986620359204, -0.5882061684137354, -0.7293290591433119, 0.031134497142719958, -0.12381442977222928, -0.14004372289771738, 0.21802155938494444, 0.042555562516647605, 0.12246114476372107, -0.06315320456399272, -0.09343504492150981, -0.4812993303042646, 0.030375182896001277, -0.03422071303806854, -0.5850470129840931, 0.03989147936880644, -0.0857386628450815, 0.030856180511480744, 0.058086831901910836, 0.06665517187881712, -0.9176970441548736, -0.004438054651710908, 1.6920757890433766, -0.11863069031686091, -0.04572447005884976, -0.035313940375771395, 0.02603230650817895, -0.016547003962726282, -0.5890728912265277, -0.02257954796842927, 0.04562093648682457, -1.4318977561202184, 0.023656873705072384, 0.1449202925376095, -0.08150365220304588, 0.058253021799549956, 0.2031132931197389, 0.0006451906882199228, 0.9237003240051487, 0.04192967392651519, 0.12032157668393839, 1.2312952594982154, 0.907171337804327, 0.05841852405593173], [0.2647166409618253, 0.7984975173911748, -0.5155755576254896, 0.21526880306516757, -0.03945137137077712, -0.9301865507472181, 0.01812606286259849, 0.16907808020595586, 0.0038761693882713734, -0.48963440572448497, -0.144064490555659, 0.047181594307027654, -0.131074369529558, -0.09326146270176647, 0.0031734653310354763, 0.3211761571532281, -0.01752207030507095, 0.6353258392281842, -0.03918220097522457, 0.05785045675587724, -0.0965199482800826, 0.07350835885738911, 0.40245336545247423, -0.11120090888172013, 0.08129718776121005, -0.08963195480902776, -1.7374687303372078, 0.04323112903843395, 0.4784572735288701, -0.001225389253413606, 0.041496775985992836, -0.011111650950355443, 0.6677544516918837, -0.03388688779136598, 0.10033149496863174, -0.09897731233371927, 0.1185367953137604, -0.08088139227214898, -0.05778840771443472, -1.8356366682962955, 0.44094397779430483, -0.03853694691349191, -1.1814577530284451, 0.010554482061751379, 0.2562739009750051, 0.6976147843400305, 0.1725969532935317, 0.12449545783724927, 0.24032443985471072, 0.4356131792030165, -0.10449749480344062, -1.5450720963411215, 0.09373321284521033, 0.2742061814754453, 0.7863575003631474, -0.050144413996961464, -0.09631430962756582, 0.27252608647730625, 0.5534557860748544, -0.06179718439489933, -0.4136005365917647, 0.6511014455679112, -0.14215279787675095, -0.03879476727254464, 0.046290003016825794, 0.20978551418426813, -0.029781026409252252, -0.011078815635505652, 0.01810361153164871, -0.09271384072837427, 0.15767559889829064, 0.02174940191222311, 0.7709331722977119, -0.10756559239185888, -0.07171072314885389, -1.943686711692029, 0.10655278941662535, 0.8660499790202637, -0.7590771019780697, -0.03285346991309787, -0.4245145037437803, -0.07299173232876717, 0.09059858236284951, -0.03460521170973423, 0.0728419253471293, -0.10919167376213072, -0.08845855880023151, 0.7363715750818904, 0.10190957606202507, 0.09607788674615081, 0.39364537562155955, 0.026163217266794995, -0.093534382804041, -0.06214334981204676, 0.08620273780782226, 0.03804378661567423, 0.2128851929593728, 0.15883255724537715, 1.648501395538713, -0.20876409462577789, 0.37748755493251906, -0.010618422871543104, 0.07667414755225266, -0.10832790713653448, 0.1411410913442255, -0.32536136284945666, 0.0012651683039759556, 0.05433434149754555, 0.02616114436832891, 0.6432847042306385, -0.09259771488171588, 0.025867901666400125, -0.7143540651224168, -0.09285150987191967, 0.11006210253217241, 0.056005856502293755, 0.07692643060347776, 0.3198912449250771, -1.2231051345171091, -0.01747207601060954], [0.5971124918688294, -0.6330587248972394, 0.4056202017679774, 0.0074195582666966575, -0.06545484574499834, -0.08170062648622188, 0.2798418592140105, 0.12954676282317037, 0.06203468090583512, 0.41714968287279036, 0.0949580115742146, 0.19844894883841907, 0.34219011397474525, 0.2228642022043113, 0.14546841495445656, 0.016795658283448443, 0.097795332980863, 0.3621115104290602, 0.2395065169243765, 0.10121787717915033, 0.5044657101368262, 0.2876773932185211, 0.12567018315267264, 0.2690408861859645, 0.10460509212769402, 0.250491437954146, 0.0893732184618695, 0.6749184805936862, 0.1641187706355728, 0.21360160194866493, 0.21684203249373965, 0.31727705258712663, 0.635114505975122, 0.22538212865227453, 0.2398105284608613, 0.07155122697715108, 0.20728782787077385, 0.4301774880097912, 0.27961573768284714, 1.5858285646696249, 0.4431712201378468, 0.029353264138857547, 0.9296316366514291, 0.17071332880120688, 0.06808749711644745, -0.35898733083894263, 0.30370242591375834, 0.2678768881931695, 0.11824760484833506, 0.16790778943065068, 0.13722507562418745, -0.013779391973819171, 0.1514338627640627, 0.04473212860986287, 0.7805285081726934, 0.07370308747000111, 0.17637908920750506, 0.6073664837405578, 0.1435198154305474, 0.09026880455741328, 0.09325155314721205, 0.6419246805187178, -0.10365045500663331, 0.06734007327569796, 0.17067537731167332, 1.0649347629880934, 0.2781949078804295, 0.08806223018627703, -0.020060068079716664, 0.09427136402628118, 0.12143734721218899, 0.18916938910169537, 0.37984638109800056, 0.03784669440470576, 0.1409190001119026, -0.6419109910931617, 0.19324956465553986, -0.0024905299045013254, 0.4436506882418508, 0.195150254711861, 0.2916788448130862, 0.16622963852950953, 0.2099991132460933, 0.13783441058131654, 0.21856440156880722, 0.2017311526311128, 0.23425569261931473, -0.15652224090783345, 0.06033527065575897, 0.21685476893905056, 0.3818742410768434, 0.1623143765246105, 0.32726832556856805, 0.2444341841655634, 0.1103910146987187, 0.09677603164975239, 0.7088544592765396, 0.24062702934019364, -0.057464170293831156, 0.18864390790536392, 0.45136230000903443, -0.04200265657774487, 0.08168702744109657, 0.2944169242167114, 0.38863817744226464, -0.11249338029121744, 0.17373417164509386, 0.7344244767172389, 0.31575950250042323, -0.28151681701432085, 0.08502218290670854, 0.23342583259310365, 0.10154384735087697, 0.13422825026482219, -0.10687000453518028, 0.12998151639758398, 0.20576793944951283, -0.45863100715074173, -0.28603841685170595, 0.26218742645157067], [0.43867284474097845, -0.12305285035189914, -0.1985083796038498, -0.05200956275653298, 0.12871087881961468, -0.24222962429006745, 0.11111473170353549, 0.20938101418385108, 0.21400483741178578, -0.2664060684926138, 0.17005933188942945, -0.023874788838735023, 0.2065308087957355, 0.1632512443328343, 0.11006801989270264, -0.013732352199929035, 0.14937689977725757, -0.05151988154219422, 0.03509929417955148, 0.061640152541245496, 0.6770689364146023, 0.23937953603026002, 0.42083729080973803, 0.1557283969988181, 0.028934386307083792, 0.16220881674230728, -0.7270065202587286, 0.27195743856886767, -0.07895176468121497, 0.21406161177181843, 0.015490753866060225, 0.06289033846396964, 0.5884341662244575, 0.25080919768216914, 0.1577410646427403, 0.08864762753430402, 0.11035310833156156, 0.6741991351124995, 0.021576312309868985, 0.884044183078981, 0.533104378577578, -0.03489885159133754, 0.42776672614894146, -0.0072327868751671754, 0.01656880367260241, -0.015047801758212378, 0.09199249449806297, -0.11356925303825638, -0.03277217348377153, 0.21212671542075315, 0.028435928771128802, -1.0608575609205515, 0.15347596407312125, 0.15157630398123867, 0.6146580679537907, 0.09411330673181001, 0.008906491450904665, -1.3952715517294492, 0.7003811385772958, 0.09839191760252465, 0.4388588690467067, 0.4859524840960725, -0.04860321201099721, -0.04232655732513808, 0.05466795260549335, 1.1058056212756189, 0.050675541716702556, 0.04075528575552308, -0.017482399513131974, -0.020674910139067703, 0.022933718343070314, -0.07734671667040384, 0.5672786958183181, 0.07656889202601115, 0.010356248076510557, -1.3000765893933675, 0.058365156052089764, -0.6205520364105476, -0.03643250720403201, 0.05633902097757379, -0.048412408428881296, 0.0075335081283221614, 0.19299228043529518, 0.05462712730710728, 0.10681425593979223, 0.1255190050980662, 0.17319898243992507, -0.28666068817966306, 0.12865897297362133, 0.10225565838974096, 0.45178833792286044, 0.0868821892662463, 0.1747635671977042, 0.03986317787623739, 0.035702757942751004, 0.06169698866582576, 0.5681324340074276, 0.1062344726093812, -0.07487620104121066, 0.08984405244195647, 0.14129997518500673, 0.13265122637770393, -0.019912896041555245, 0.00103081859152534, -0.12022575313231025, -0.5139133328968793, 0.07561123359086085, 1.0121052446873149, 0.1409627172584564, -0.32657315070458637, 0.12398528288621809, 0.17161453900174717, -0.15992339586297266, 0.0674190123030243, -0.3507409609877272, 0.18763661299563963, -0.07165820322500317, -0.71920301145842, -0.46835780762102147, 0.15746668762644145], [-0.7567327837650822, 0.8890096544633252, -0.754727527213915, 0.13004439758753814, -0.05047108906383535, -0.28616743480702905, -0.043243018048525476, -0.1419348175134173, 0.03658275110576792, -0.106705034439781, -0.005297507908854639, -0.09303508445120459, 0.11907007095156005, -0.00024042336413893496, -0.020610755868466224, 0.6907705616880798, 0.06863188262198636, 0.48427400560272504, -0.20519570927398167, 0.011951580585837614, 0.00651844402507115, -0.1681620538442231, 0.08242314513339753, 0.09038780483567806, 0.017479722568639458, -0.08283770360114563, -1.0003849391340223, -0.45457084484063737, 0.4229406420181203, 0.09361439458350235, -0.0003445862378160195, -0.12245096464457189, 0.44040301628495665, -0.05101915631816334, -0.10342613744526524, -0.017186443359545923, -0.07009042700107145, -0.38243135908325643, -0.056372234510673934, 0.7023095034002159, 0.03636370731831974, -0.09203704234182702, 0.2700801437230025, 0.10033375655099273, 0.16575669335320528, -0.16062159847791488, -0.08792436562541489, -0.016300171041931516, -0.07553771855102352, 0.3263014407777347, 0.04261400694267931, 0.11453495914193332, -0.19448547862953502, 0.16692767741507444, 0.4872588425737122, -0.030686153719822105, 0.05842024923291347, -0.23589328191587766, -0.31462415087605133, 0.14205646937411598, -0.921250113368541, 0.3762179609821428, -0.2926567203688835, -0.10273336036182966, -0.17586512359921688, 1.4286519518984464, -0.07808848449466087, -0.22395843584417904, 0.09607012722881358, -0.15705910836298823, -0.06831955723549797, -0.07286931966059758, 0.7058263355780001, 0.015841372281101898, -0.10252099308122618, -0.1702213579287752, -0.053786871301420826, 1.4828998199685433, 0.3827880603379603, 0.07183706164026536, -0.21216506249105238, -0.006904263168557292, 0.049794389469359907, -0.11659543118215858, -0.003180414633239174, 0.026058763087504308, -0.14758287465595807, -0.2019266274526712, 0.07134421005017447, 0.05204791111408067, 0.6542940452942669, -0.12491281100353856, 0.023849333866042738, -0.036785772646655335, -0.06444556215013078, -0.04167899286169972, 0.2193820494760412, -0.1481396754286807, -2.1851147282479944, 0.0008264015679580462, 0.7416700321822186, 0.07540309972376577, 0.016433359237246103, -0.19279813354168612, -0.8471747488118443, -0.9904137090264037, 0.004484586014732098, 0.257414677144161, 0.05253552460798464, 0.00710971593783989, -0.005723900253582371, -0.09199606722497677, 0.3377180632635553, 0.1134422784689564, -0.37521836116669494, -0.07012453843034158, -0.01970512313864185, -0.1476396703113992, -0.6587502957480812, 0.07618263858511119], [-2.2797397391162777, -0.8091743737519781, 0.00459703576096748, 0.30196883218655873, 0.09530892844429414, -0.21305755490130626, 0.1794713934280553, 0.09399619094191322, 0.019459448965015225, 0.11900418211804949, 0.1917505718824214, -0.022638393414762235, -1.3492866164156827, 0.10796342249795707, 0.003961148900675397, -0.039477724887548415, 0.14379360612447253, 0.02010377832826065, 0.16848125579703502, 0.08811020592570126, -0.2115182839157093, -0.02248450929203166, 0.87225522483345, 0.21818030752647144, 0.09698188192061559, -0.03750856358920772, -0.19074002164509946, -1.458273734788888, 0.08679025576628586, 0.2361974666394513, 0.20464972743511214, 0.09602594672399677, -0.09551374539975035, 0.11230268552279234, 0.025886723791310906, 0.12748847419684092, 0.053583461084788994, -0.7568057810174418, -0.03630190052923022, -1.502414609518601, 0.47397445541168487, 0.10469107100023423, 0.5268584862017954, 0.13152699612987517, 0.7605320623825705, 0.9591589229934291, 0.08133073124581267, 0.1512712031054466, -0.0739398975961324, 0.15571680134973032, 0.11155896034036299, -0.3164354369561508, 0.03590574421672664, 0.7078622594750215, 0.056427620696425325, 0.20367423543794855, 0.11759091119468015, 1.7497458169564537, -0.9824609320210301, 0.019712536430903354, 0.5671583682478193, -0.06112484468046278, 0.0008923819930675481, 0.050099441849081786, 0.039406758536868834, 0.675694263217274, -0.1011612613157358, -0.19790224422076727, 0.11392398919775133, 0.034374362129599136, 0.24737333657460495, 0.0481119089592624, -0.2601378992144982, 0.2179732764466095, 0.0904407181421622, -1.2700587524288702, 0.13061229581802125, 0.10765504927957814, -1.1225017024846529, 0.07322428241534552, -0.8546628628320141, 0.04926829499092368, 0.10294500272051556, 0.08926683654657139, 0.07751235482474049, -0.02611742522407246, -0.021442448150912716, 0.43437478496525933, 0.3186793645274113, -0.02072865475327804, 0.18027237782073124, -0.02148717297224925, 0.2453656586764259, 0.0393956429847458, 0.036144218095456884, 0.06701501526851453, -0.3450928131611817, 0.15562180567617742, -0.5256515828583106, -0.06910292543965584, 0.6588997820665625, 0.15665539936661665, 0.020640559575657497, 0.14674668969586036, 1.07464208277732, -0.1652875070758328, 0.06521420779726136, -0.10004472150265833, 0.04345555113226179, -0.014195966568273198, 0.1762278543960456, -0.00908172903696904, 0.2511387311344097, 0.0254047139343221, 0.5786077590793939, 0.07642576565569545, 0.10167180213932077, -2.182075509377202, -1.0323391232290264, 0.1724156284829857], [-1.2755638131573763, 0.5807599487188335, -1.5862015795732534, 0.5245455749572548, 0.02080676809438861, 0.35834899719151153, 0.0325004748879493, 0.1926881234186037, 0.1182322134079507, 0.3338044396415864, 0.15045238928637336, -0.045477201455156234, -0.05421428781746049, -0.0021905392052233743, 0.1915493901055353, -0.20712884827826164, 0.22816989936436974, -0.1877173503463454, 0.09309268910341241, 0.11577400876483299, -0.2739475536731321, 0.1442047711123239, -0.06278310245544555, 0.1459705646127166, 0.11451593247619372, 0.17352371751977605, -0.5497860888751952, -1.2517151758100287, -0.26774478433983007, 0.09059160277092473, 0.11939861100326778, 0.06309546923343001, -0.4701371203657722, 0.01690032580158945, 0.0358430398399986, 0.15399850882079155, 0.07452543746617254, 0.09529284527329211, 0.11806868950504378, 0.319719690969876, 0.9357107488219689, 0.22613072505818158, 1.330861986169012, 0.11616761449042262, 0.7679936427911103, 0.5897956038266289, 0.17112298486143257, -0.12120595252035314, 0.008500171785827756, -0.31660487602704146, 