{"hidden_layer1": {"weights": [[-0.06023912658179842, 0.13241409288264516, -0.10402675015423493, 0.11516017374624828, -0.10751185107236699, -0.10577399312020101, -0.040010980491103215, -0.003622809803948094, 0.018621643540720108, -0.035468034867463076, 0.018233335029562238, 0.045946432992459235, -0.03021509262996296, -0.10241301282320488, 0.07740965620411788, -0.03530058789391444, 0.08735974440828813, -0.011862143517391602, -0.014710962246869061, 0.13724202144216252, 0.08361703564917237, 0.15143342345209368, -0.11408521213021547, 0.2015252207070625, 0.05515463770127912, 0.16716932920342598, -0.022908976853289645, 0.03768339336635565, -0.008614494423143108, 0.02381422523319845, -0.058588284221061035, -0.028496348593983277, -0.0676897721080857, -0.03530931849418093, -0.09260219902142608, 0.09432829869587835, -0.044912323538610535, 0.115310053502972, 0.17986881860937176, -0.06035703732252587, 0.05935896494405939, 0.06212011228580762, 0.006050032582562791, 0.11998766991756535, -0.09132523644631099, -0.0344844104991543, 0.017596854135803437, -0.034310568674409216, 0.011115226168172069, 0.16142059511059195, -0.019232644675248076, -0.08363242461539594, -0.008335195278852663, -0.016441172752403598, 0.04979610873906626, -0.18916686111787948, -0.06525544498063025, 0.05784334489330368, -0.05414210545423334, -0.02173308971827133, 0.003205270943846563, 0.030404836972805337, -0.05571330141227836, 0.07162737487543866, -0.12749395987544374, -0.14333180463509762, -0.1564691518851715, 0.03678110828370153, 0.12539314086839906, 0.015079805164913388, 0.12368458270830064, -0.09360807284140694, 0.11853165189474793, -0.09377601068514703, 0.015934452979406544, -0.05695251582381033, -0.009753405646708648, -0.06290706728024124, -0.1871483166827601, -0.05355308289355889, 0.041260672857627606, 0.09263058220335903, -0.11488288426846344, -0.08603268251976012, 0.011225411897823067, -0.06907678777691154, 0.08402971989372351, 0.10813722649544799, -0.1020748122613838, 0.11747563261915571, 0.031424775688896345, -0.1214056537383598, 0.087173032502502, -0.011673857328048811, -0.10665846827587958, 0.1075201616740259, 0.09598468158165734, -0.16591219425118126, 0.11273083682338952, -0.04128785354113184, -0.12754986817711517, -0.07481578475597331, 0.12118646528580138, -0.10401603245761276, -0.16244048662631136, -0.09733289315797373, 0.1428401799724768, -0.040418669172504716, -0.13143468623051502, -0.039651583840729344, -0.009512109796317164, -0.02125104447702071, -0.1585211453452146, -0.03006191426645232, 0.1058313943943811, 0.09986543495251736, 0.015098361446295804, 0.00890353784426874, -0.11489762888591441, -0.00486536492986269], [0.018467435958250313, 0.03807235224085128, -0.13502500741297122, -0.00881297494488415, -0.18620802162626174, 0.07930930123433336, -0.0189562881965059, 0.020801958715994655, -0.05743367311718488, -0.1843868333516073, -0.08133243724273359, -0.0527875207587346, -0.028903589778747896, 0.023060155497294985, 0.07192953846775278, 0.09778872829812296, -0.11481880088720214, -0.07117750394294206, -0.033975997537419235, -0.19823844438819177, 0.16045806199615698, 0.08677743943137428, -0.1218364446750728, -0.159404800541858, -0.04207472215459182, -0.03408135642714557, -0.17280047480357652, -0.04908470604387725, 0.26505542657302367, -0.029759185380957766, -0.09068127114048102, 0.130502406885441, 0.05218968800854283, -0.13537809449597665, 0.14371828598599617, -0.0021989052111170424, 0.03733130069270762, -0.026722694255700938, -0.059445017625930754, 0.006890461475789695, -0.12386385234496398, 0.004140023743440044, 0.10177613830465074, -0.05736314686790211, 0.08796991461055456, -0.031136428203643412, 0.08732653823353093, 0.014184640510135068, -0.03494043854212045, 0.03879828822907887, 0.12356592900359578, 0.14477380225763828, -0.003501330702800619, 0.10534069383799721, 0.012148514714369394, 0.13687816502462954, 0.08106054559894496, -0.09672977426047868, 0.10413288993129691, 0.06417194485816449, 0.056884023069849486, -0.15334649117996044, -0.028061744160485277, 0.028865804506624605, -0.03108691536025946, 0.11394579505173714, 0.05815489254052425, -0.11098604539544543, -0.03585240337728972, -0.14610647253162345, -0.2908142446222253, -0.04598836151042497, -0.008257345841466104, 0.1413654641919672, -0.016484027057745022, 0.09240840395655534, -0.004735322589784258, -0.10241254875923618, 0.030314093007928308, 0.027910512791250508, -0.1896006231184506, 0.018089410202544245, 0.05806236364811161, 0.29879960861739424, 0.036701847366707646, -0.15456250104333302, 0.011370588263333101, -0.1960856100957242, 0.05206445354304085, 0.061856951321843795, -0.04766862081651361, -0.07414203496599804, -0.17352388591964404, -0.038326585156622926, 0.0985999269463555, 0.14265033048044232, -0.12398210033674606, 0.11177256986016189, 0.17218139901240054, 0.08161201139551097, -0.07951847982183914, -0.04544353924867693, 0.15115836317191478, 0.09181783364148498, -0.05843482124191088, 0.0453061832707695, -0.04729218698439544, 0.1704872463386778, 0.06476633506727743, 0.08310304853490832, -0.028551103903824697, 0.04909972780452478, 0.1600248681273028, -0.08321650559861761, -0.08162142035036013, 0.04093872940721205, 0.04557652466188199, 0.18506694581728284, 0.005746050896078393, -0.09471063495737292], [0.009321196984054654, 0.036645778880942476, -0.1772198723108228, -0.05253420948328627, -0.26257291670121685, 0.10816667662482785, -0.14851425560771278, 0.08871761685560382, 0.011430229718834006, 0.03419549432959152, -0.06918790694416053, -0.05611977039946387, -0.009948027556251262, 0.10150404375819498, -0.1122918004714794, 0.19630778089009066, -0.04536601651241094, -0.2627527029021819, 0.2034666028124871, 0.0943663361931176, 0.11046832942796625, 0.1257257698051933, -0.08473994176024624, -0.0828830151982221, -0.03657325371015486, -0.15962862119605564, 0.07390135675996319, -0.10031432265202431, 0.06480426929497851, 0.02743912967150392, -0.032101140496515156, -0.17957570177163526, 0.1493504439648366, 0.07740278572117582, -0.11870041699022392, -0.052816647493775015, -0.048911901816016956, -0.04256721420606853, -0.11136697848998439, 0.0776759344592923, 0.04082032377136904, 0.13360030233334758, 0.13524249061208504, -0.02274668722022417, 0.18186047389188736, -0.1317087932718713, 0.1793806563031345, -0.03187628415059433, 0.044744299328957765, -0.1786463394818311, -0.01244686987638408, 0.18257885043744498, 0.07899066671224723, 0.008127610128332935, -0.2246946966605375, 0.045057195423924834, -0.18213317958289932, 0.09933478576774125, -0.056558795668073335, 0.04209800170994144, -0.07163050035186949, -0.01511114044385489, 0.13704083262749142, 0.14289870477942143, -0.1062298838299058, -0.027420032594823385, 0.12433699605873294, 0.007973903103210887, -0.041483090131209946, -0.012923457664154352, 0.15630423044276331, -0.06911807334898777, 0.02431347644228709, 0.13260832595589786, 0.0602361193371305, 0.03634249166078516, 0.009128380912113708, 0.03566688972076137, 0.06615221885594873, -0.03022422536393695, -0.05958713414893926, -0.01605099097067425, -0.13950115727892287, 0.13825114237702837, -0.022204588941643726, -0.24336038681932035, -0.038939239768565656, -0.036630071931327, -0.17997311761446758, -0.15999523883540076, 0.015979315021144996, 0.0636144530112289, 0.04791027362112306, -0.023274992749670015, -0.11915558651086916, 0.16810708387585716, 0.028327280625915316, -0.06840278161828298, -0.10615081588984493, 0.006618169570890103, -0.09559531701081174, 0.007901577295111695, 0.175661706235967, -0.060272823413194794, -0.10662930594633874, 0.08593510704402134, -0.000598549615121368, 0.09309626407300013, -0.015118368558159517, -0.009056185316252102, -0.060747491963770425, -0.13213358242280662, 0.00821763860534498, -0.22173917224663856, -0.11585394233831688, -0.0942352833078501, 0.24020603122166131, -0.017638116997314598, -0.2610354588830914, -0.06064739897977168], [0.00011552957190471178, -0.08899193844873718, -0.1178184770083563, 0.07684654336610001, -0.03713956032600472, -0.01699901995860921, 0.13951407521624998, 0.01955265779502093, -0.012152789292764669, -0.09911581785118738, 0.010056760371145808, 0.16173917793549972, -0.021320543569670634, -0.05825205596433669, -0.008236606223292382, -0.03697156742654747, 0.08613144917284242, -0.07446129174823744, 0.12068172770021961, 0.07405574609704102, -0.028703488423281662, 0.1719682651326688, -0.18070749329375327, 0.06727949869368673, 0.11559880761158492, 0.08473658059158175, 0.008375449375743397, -0.008180587562245014, -0.09453143692031679, -0.1832600869301571, -0.0418936354052309, 0.18024418899677988, 0.04962844890429468, 0.04372572369580298, -0.03533109428989415, 0.025298563347111936, -0.011509267912832726, -0.010575553889127103, -0.06058569452678218, 0.013712482769340844, -0.08416177969380675, 0.015121640001244288, 0.11107489451229272, 0.06548166120294598, -0.0475598581475402, 0.08308653878339964, -0.03082510320064155, -0.018457897941439955, 0.09166590730136642, -0.2121304400627403, 0.09049437080007554, -0.1604673504123102, 0.2469483758025275, -0.0028429060296169453, -0.07131465491291336, 0.05295251863756792, -0.10658577334199086, 0.01641942642061424, 0.027864090140836947, 0.27803439668970376, -0.11208239559716329, 0.14419420145761574, 0.0944257047877273, 0.4102797429937504, -0.012769381116044141, 0.1631218484791142, 0.19256682280479054, -0.10904251859060526, -0.018811324283879865, -0.28326947766560817, -0.0729101677150795, -0.11166038970050769, -0.036222780931902836, -0.0692806892790147, 0.009613641903035108, -0.011973358033986756, -0.10435788811683085, -0.15618525368620853, 0.059119357883663695, 0.098984414377998, -0.042738980932421296, -0.07443008386052666, -0.3500722210134989, 0.22929640493270284, -0.02569726364809425, -0.16470235954278004, 0.2195044733228881, 0.09312118423528294, 0.08629229722503012, 0.18175562835107584, 0.05852792414003645, 0.01185037741866748, 0.05234316042119999, -0.13821708621672307, -0.04903699715377186, -0.03537166113880295, 0.09254122871117983, 0.01852121127902568, -0.015224334447684026, -0.015136964940607884, -0.0502865365380048, -0.08026813655953975, 0.13950619070869313, -0.14571394524400164, -0.056312683825148195, 0.013654863081503123, -0.0836218463070716, -0.07278148499125708, 0.05432440224187543, -0.03438067529196063, -0.10090398419367547, -0.09491672478298942, 0.17128023922104038, -0.015810772438082564, -0.161071305412003, -0.09611038010321524, 0.03230120893521859, 0.11408124748011177, 0.04685609250991702, -0.016957345361232664], [-0.01903637978221472, 0.07368212861227515, -0.010144765995320368, -0.006455645980196876, 0.09716305251198248, 0.05468531019788909, -0.061409583352700914, -0.1671063670847867, -0.13996775969858316, 0.08449867486242278, -0.020387706017265004, -0.08020984202481901, -0.1509555738646459, -0.09383500061530427, 0.14152351746821876, -0.03902512010588236, 0.16888585496906372, -0.1232144976134873, -0.04515133246939027, 0.10440944628524144, 0.14295051140069956, 0.014188831905078823, -0.08177429937343182, 0.19018210907461003, 0.208917144777337, -0.07020210029615721, -0.08048089516936291, -0.07854138036831526, -0.008127911275529412, 0.13512760967620027, 0.08570162823375226, 0.10119466596755754, -0.13890164556047002, 0.02520803477877471, 0.024620454804364374, -0.04139651019468346, -0.014762565949028623, -0.09505698093976875, -0.14130093184459136, -0.14008416637065396, 0.14775243157913406, -0.08242594304652734, 0.007300149597005359, 0.20131566775770293, -0.10184176453692466, 0.07258364542456387, -0.001716960984448136, 0.05434131957671448, 0.047118557316206996, 0.024453784144618133, -0.1898688637847212, -0.029049083823197656, 0.007577248413014247, -0.03327614340056812, -0.06364404438911965, 0.021285106561976786, 0.032437695223280424, -0.016372364144126874, 0.03138999701830576, 0.0304976887616144, 0.20342821384745646, 0.2330390402007359, 0.046416335780852344, 0.14462534898185622, 0.076958694724191, 0.02891499392984239, 0.07088430281842185, 0.15668212816529706, 0.08385119230418453, -0.1183474433944737, 0.011019841331889912, 0.055046232552735164, -0.20809503393917234, -0.07087387856716099, 0.126861235406314, 0.09817370394975672, -0.04592586523399801, 0.19782134617877029, -0.1493768838361944, 0.08981842652480744, -0.03636147439897115, 0.04855798711954807, -0.07714900468691842, 0.053702691084159815, -0.13547323985778184, -0.17699744406354934, -0.017461452269237433, 0.03315483998049768, 0.02312681527500399, 0.16345800907749053, 0.19181910505205577, -0.07528443364084192, 0.19516888798879364, 0.19120358106061386, 0.061698253779871724, -0.21227163721344705, 0.07799131351311187, -0.03928058439441697, -0.02964869058788446, 0.09381998228432774, 0.13365325904171851, 0.030704387350787274, 0.04283688418407251, -0.07985528124554465, -0.09867677147341919, -0.07635457697334198, -0.07099220824274724, -0.03648179702450851, 0.06080820894484016, -0.028065128313861286, -0.14117698314337151, 0.15063444490750608, 0.06330854811555123, -0.11225645730224205, -0.16552781069815245, 0.0905757974758992, -0.028293665727973705, 0.1101317074511937, 0.003719347301847967, -0.15440933730729622], [0.02294918948963539, -0.2133874462332475, -0.011286363077190727, 0.017412716990431853, 0.001519572065964952, -0.05767415528104259, -0.17339635359716743, -0.003824793140277536, 0.20733400360656754, 0.1444537740367835, 0.09768136879237681, 0.09858761318441174, -0.06503827110309567, -0.25733631389241307, -0.10235592573424122, -0.0029230465352985246, 0.1293412723083976, -0.36277259751660323, -0.07938364273506117, -0.10573442223931154, -0.02804076178090278, -0.18900784108248045, -0.14688138625948735, 0.005804352992150276, 0.24946106725114756, 0.09113724546064728, 0.15449012586658611, 0.08566924816082729, -0.35076952190450694, 0.04713364639913106, 0.21588897608902444, 0.06431781758207993, 0.1163608552110958, -0.03482100320894873, -0.06885897906608895, -0.15344650827540027, 0.13604082911638166, 0.08602585741083824, 0.2103762189637653, -0.025705687810757504, 0.09521539992223858, 0.06770279232789383, -0.03566415136260325, 0.28976343423833645, -0.23945440870117476, 0.1169412481308169, 0.04176343339136039, -0.21683823127861912, 0.03267756000935751, -0.13564370713859725, 0.17976663553049668, -0.1226872951893768, -0.1967338690508047, 0.010370035383166193, -0.1417454941224573, 0.041179012778029316, 0.01523780427620235, 0.09983113587333443, 0.023420946622302517, -0.1867907578292926, 0.2707220283046235, 0.019217980472950952, -0.1746172156648888, -0.10145608832377112, -0.09848693886339441, -0.07800816031088334, 0.07458148971190777, 0.04778871402078923, 0.13088149934918877, 0.0316201625712755, -0.08419673061366492, 0.0206606961604945, 0.055830256864648146, 0.0037438278385796935, -0.06983985790282903, 0.06418449894658507, 0.2857354955889416, -0.0022048672375474094, 0.08936975628238727, 0.08932254949844982, -0.10636326504443604, 0.031101394368827678, 0.033449443964326336, -0.10216399688622302, 0.03645275970774841, -0.1917225229116516, -0.11281783072650549, -0.0779891555399474, -0.07099482835933002, 0.1318260411755527, 0.17588295241608357, 0.07701634515151391, 0.00931807613423468, 0.1709071638275263, -0.0013163215977068225, 0.11461953280518818, 0.17802508514395315, 0.0834165191789145, -0.11962639611211635, 0.0821178510320109, 0.10931484255250809, -0.07629862755361745, -0.17105476170015038, -0.09547343936896052, -0.05718087961130913, 0.04341887175325964, 0.025884081270853194, -0.01506892931216613, 0.10449924293839079, -0.0674893432429572, -0.10341726639263234, -0.0653211662044017, -0.05666831730105522, -0.044192287088107116, -0.3918215601307058, 0.014147659702470994, 0.018633817510063686, 0.04548438287442833, 0.10358595136582927, -0.21225442387679339], [-0.0352848570106599, -0.12362702793456065, 0.157909789360714, 0.2800484321702036, 0.011284742584126166, 0.023824150018966317, 0.13247989532603285, -0.039412695281176656, -0.20662987605821684, 0.19700577725075852, 0.0026108762330745747, -0.028192678781229708, -0.1839257124914607, -0.07615844959956912, 0.17039854606454213, 0.0909174830310144, 0.2697045971441498, -0.023084026381606882, -0.022405784147734118, 0.0638490994148308, 0.0038824004475780313, -0.13288907081356613, 0.07930434108042211, -0.0011436228552062892, -0.08278488430271773, 0.029045013016219066, 0.09670819539226293, 0.0637493666568682, -0.16186559052902466, 0.1343200083352644, 0.06410472155164491, 0.05252417437049766, -0.031207372592192854, 0.057221963900091564, -0.03353096955254918, 0.076879764270305, 0.09299086326379749, 0.05217423641307241, -0.14263393430857438, 0.009859263498565099, -0.134738517606582, -0.10230564862622477, 0.039934842819289655, 0.35506035536537695, 0.017149536496086987, 0.09471897795784485, -0.09930145565332038, 0.2700113099732506, 0.14998338688267362, -0.00044571160728930966, -0.06026938258637976, -0.22562181229874118, -0.07791482955852484, -0.22442320366795185, 0.05089591960116251, -0.09865848498915908, -0.1412399879515789, 0.10611662845732485, 0.009652978336651626, -0.11143566181885697, 0.2785571725113953, -0.04330362025475902, -0.046483424438833104, -0.02552543091733687, -0.03072051301491592, -0.05437482025879359, 0.12615873197727318, -0.06922975928419034, 0.1006627296679741, 0.03141883338418899, 0.1698149866068793, -0.09098341503176469, -0.21205009891008234, 0.13524311389214608, -0.13633735419854467, 0.0584204185359523, 0.14406457435140246, 0.02086237265798008, 0.06401117745695988, 0.1027509885574411, -0.13080326306393805, 0.1783480185929108, 0.0490071016961388, -0.02537826441967211, 0.07429941901108707, -0.030895831597199233, 0.10501107858003399, 0.030649942361504423, 0.050564574171894375, -0.02909373341898543, 0.008091488023942385, -0.08894694789420796, 0.11766929233661833, -0.12119836337916304, 0.033039657326066056, -0.04747977482527269, 0.3430591450683319, -0.0626949221134737, 0.04768104331307704, 0.011953077093513599, 0.01862099535972729, -0.13020502464645248, 0.16625669847758853, 0.027154762181085184, 0.08867901073010163, -0.1688044323503871, -0.17267483508112175, -0.07650246844887393, -0.05881373379938018, 0.08711588830979024, -0.01842170301629254, 0.018941362581166552, -0.22063098138478737, -0.033911559094268455, 0.08318333859601779, 0.07581149532068562, 0.051950059034065604, 0.052438507558956134, 0.06481995103247201, 0.027967047555434256], [-0.1565516173266676, 0.03412339908910083, -0.0955264165157533, 0.09101818309844299, 0.010803114769340254, -0.029427849651015015, 0.03914815957595022, -0.10316060056978518, 0.1003228661196775, 0.22074157222384028, -0.007177058504506072, 0.052900847876092075, 0.053062668931530055, -0.1509693185343671, -0.09837586668253155, 0.2018039706505387, -0.16592712473345844, 0.02479084823762502, 0.06345935250431665, -0.032003845258153876, 0.174805656351056, 0.025107936038956006, -0.13197796757162847, -0.010869581276804886, -0.362850321196472, -0.07801415601694726, -0.030166356846971037, -0.018070767638981158, 0.04055470878767709, 0.004851092709538851, 0.052922953860182066, -0.004014151387705857, -0.016571957782398047, -0.027119759378401317, -0.17960633205703927, 0.04835279961966921, 0.09001083405002161, 0.0253290513971745, -0.002473146171748453, 0.013198621741104075, 0.04199992706449657, 0.17033036934458956, 0.03540404351580008, 0.3023726062873866, -0.05794012391972726, 0.17734447254034374, 0.1680182815819763, -0.05785020307888172, 0.09353613470159496, 0.1755674678432758, -0.07502684707286401, -0.07969611065194838, 0.002969662272425889, 0.27964113907906163, 0.053272404487939004, 0.008691630864851266, 0.07615688785857054, 0.1436319464763066, -0.005742668592794571, -0.35302930536482396, -0.058990495737728035, 0.12993022322876996, -0.09886607805206671, -0.03451783693389192, 0.018014568214550688, 0.09324919459053127, -0.10078451002695149, 0.0009145861292776212, -0.08697094313823618, -0.13508207250584148, 0.10400462053180223, 0.13519688424878046, -0.17318953153280187, 0.1937071785157993, -0.07336897198186687, 0.05206852450340167, 0.0045978603487943324, 0.03697294174175736, -0.20576829598584484, -0.044988845302738285, -0.2289364873749239, 0.19530639871096012, 0.15976667724102422, 0.23500665675701513, -0.07283688108158586, -0.22124341936597774, 0.005791364804187537, 0.054094043865555136, -0.012431333382549823, -0.01472812090354483, -0.013434309108958051, -0.06149752303547454, -0.08140092746665759, -0.22606679187049428, 0.004771002954067576, -0.019020292393843233, 0.05650881831020668, 0.08206076179977873, -0.165952400935508, 0.16418821659162575, 0.007687663141971926, 0.08294343519714266, 0.006589616057591689, -0.1393224098157298, -0.16261030812283345, -0.14319401673389612, -0.0929011091918367, 0.23374517539696604, 0.15552833171619815, 0.19559809153734484, -0.04568990546697791, 0.06907644746498379, 0.09302692472017683, -0.21018957548251094, 0.26712504011423205, 0.06650329577055392, -0.02229141111645658, 0.12881778516530157, -0.09663092503151341, 0.185195005273272], [0.015499498606808822, -0.006096292962630838, -0.15130136793414103, -0.2286651910994486, -0.05262948166087406, -0.017382126419674217, -0.027943143894204044, -0.20411450788057872, 0.08635523419441703, 0.05802172076246685, -0.03285439566267072, 0.016761797060133525, -0.09115320560836111, -0.13233519451989162, -0.09487689767824325, -0.0382894606515663, -0.025513827402000366, 0.08026769361380029, -0.04680617046900682, -0.1988447847174482, 0.0025421625664924295, -0.09124712332900618, -0.08786965983575605, 0.02309751199413214, -0.22007775443454675, -0.1585231006355383, -0.11159584477444937, 0.1030363612089172, -0.042247128794604266, -0.04109158722629987, 0.0006652152754950545, 0.1397302399467413, 0.11170828872541476, -0.0751982420344782, 0.11380666154406258, 0.02219200471048688, 0.10937747751578543, 0.035415077273906165, 0.09225036050619713, 0.15390788639762693, -0.10177591989417348, 0.06849017280590378, 0.004647317645357364, 0.11510491242160419, 0.040633211853986995, -0.0977936701294993, 4.003199413624617e-05, -0.04874934928208498, 0.0037634939864943408, 0.08123448643349299, -0.07164077345341362, 0.026874301344074862, 0.0652656263484559, 0.3070685916929988, 0.08543117222052156, -0.06216336960761396, 0.0819795761551835, 0.09507530060985868, 0.20695536363352224, 0.02592554292625618, -0.039905350588467586, 0.045353421646715394, -0.17039439160437067, -0.04195838908548752, 0.03855922371664717, 0.0067756713413795674, 0.12576644811244908, -0.15247646723610517, -0.0011872882341883357, 0.08233679137320317, -0.19436023665441818, 0.23151343661838275, -0.022551248030634345, -0.028357074300848252, 0.02373172143074616, -0.09886325089047338, -0.11690103806287605, 0.0038860772007198456, -0.013382971241034469, 0.04756466172410521, -0.13034971496618478, 0.09594606208296581, 0.21644384213626774, 0.04547947857817494, 0.1131391074139157, -0.12925627180069593, -0.009911211873834392, -0.04347021176277807, -0.018776096902421054, -0.06902726066955661, 0.08602072605819863, -0.01738253883095801, -0.06754060051938524, -0.08389462887986218, 0.12860308933066336, -0.030687645205294926, 0.1516754841906414, 0.10955598899797996, -0.21264339065815246, 0.04634459722130696, 0.07818384359356277, -0.021179394048580092, -0.002201845185236245, 0.026033966622578238, 0.15070926605481552, -0.012920323481403656, 0.06952914776322738, -0.04693255840612798, 0.025321115931211526, -0.02855949011886204, 0.05794203178105473, -0.13498004224816554, -0.09448656292835843, -0.2463422472108096, -0.02838557972120443, -0.01646646173224869, 0.06365037124066748, -0.053392694534580155, -0.14559389817999543, -0.06071820110793609], [-0.1297602881208217, -0.053893996027488095, -0.01850676298691361, -0.09731817429705586, 0.09872236629735623, -0.026326630586468024, -0.08963318663095861, -0.06947683007386782, 0.18201531250525027, -0.15135650671475775, -0.07653399827782317, 0.01738182142863789, 0.053200743269378986, -0.037776218158282415, -0.1480576694445722, 0.012300981477550802, 0.019623767014280466, 0.24752006168109253, 0.031159590279763005, 0.0674024572416166, -0.028316810172425336, -0.011998829393437025, -0.2551289559166022, 0.09847491961477753, -0.19024126442005407, -0.06313706349733414, -0.026509552842040023, 0.033743886498680785, 0.0786822384877083, 0.04639192480229587, -0.11503051915028356, 0.05320029716931299, 0.016346636807978272, -0.013557518802442756, 0.06143618154153453, -0.1115572064801778, -0.06716831788681506, 0.09849490344649299, 0.07904643046536558, -0.013063612636371465, -0.14188729697741723, -0.17899963886039438, 0.036466991178327676, -0.12693742509731332, 0.06665627495666603, -0.027391493191990315, 0.1113119765206938, -0.009892858286324496, 0.1513558050253199, 0.10777053580731712, 0.024188245848873382, 0.2064226035477627, 0.015128624964675397, 0.25976058502309857, 0.006896855560447747, 0.03816229511210564, 0.0031581949273703867, 0.02418946925595365, -0.030382976981872176, -0.030781079912436164, 0.1302616941469329, -0.11052935970006167, -0.002688117752902119, -0.1889319760954953, 0.1524792136119554, 0.08737219821466742, 0.045902751112929845, -0.2230402948650962, -0.1719526149235266, 0.17774549719668079, -0.09506709386958932, -0.0929665324011902, 0.04403092782260518, 0.12569457728609607, 0.12829712336916294, -0.16031393538419922, -0.13147846465856053, -0.07765835652522107, -0.1810709349922363, -0.12947852802918247, 0.05264328010843668, -0.08651026618389437, -0.03415887692511346, -0.16510517645275152, 0.03519031148727718, -0.04101630087692917, -0.15536870082231055, 0.12704346911869674, -0.00895574114712142, 0.04317780111492139, 0.10294967060505668, -0.16177070915736794, -0.0020686733380284278, -0.09693365573090447, -0.14095875158043297, -0.19057196574953153, 0.0029847233356851597, 0.13268823710640248, -0.18022921512765952, 0.09177814341613041, 0.01953999689086169, -0.09019420125176654, 0.002301119187908506, -0.03224843019094186, -0.02878561588946385, 0.05297226900336484, -0.19181338565365585, 0.020675053076356923, 0.09653147412564238, 0.009062747346933426, -0.107414326528899, -0.04252176320016531, -0.10450925166177628, 0.025757237798209227, 0.15186114100315837, 0.07826063824813678, -0.058023826848948364, 0.08169358392199275, 0.21687877366046124, -0.08589284634520505], [0.10025587173932908, -0.20910208926378135, 0.020739317082794907, -0.0641382026069095, 0.06392006712201741, -0.14739355790650105, 0.08646207347358165, -0.12781999742584937, -0.17537676535735358, -0.014093420451851945, -0.11871705168489388, 0.1544696236639476, -0.05792495030949304, 0.09351239771989334, -0.03812083535302581, -0.012195398522727515, 0.08159512798207232, 0.07757399723086411, -0.0936368683813016, 0.06088869746093299, 0.028798701083274734, 0.26840064319573814, -0.045579682898520615, 0.045482454034902836, 0.07997525248923741, 0.01276813759842337, -0.03134189541348214, -0.016130225623620868, -0.004645958558110108, 0.02343283818211316, 0.08754131407009125, -0.07419493259414822, -0.09107910003167502, -0.09451452124917237, 0.07296392303263458, 0.046143640236201634, 0.09171458707690847, 0.16672878902228905, 0.06985858792877737, -0.1948890538656293, 0.005636441138220257, -0.05916312982735543, -0.02274965946643093, -0.09765080192603982, -0.034883223186016214, -0.04625366157487682, 0.15917175860604196, 0.09339479810365035, 0.015595987502559859, -0.07364817420588984, 0.11966274217263381, -0.0013431644708135375, -0.07889606192159136, 0.06449794213027968, -0.037281365284274226, -0.08895071771128095, 0.02453242329349627, 0.025181916486453185, 0.013500732913857172, -0.019587989800330975, 0.050549459164714684, -0.11407835507625844, -0.17631299490038999, -0.03514141303043892, 0.09412212653467203, 0.02222908885661345, -0.11814473757400476, 0.09742766364354243, 0.05639480293867471, 0.005964770889614145, 0.041198238850858646, 0.07210113517405031, -0.0417434542531105, -0.08420399558185977, -0.1078607319295066, -0.06994303962486847, -0.046466454384288806, -0.24441485563729473, -0.09040750137332852, -0.10634669099733161, 0.08535286544082071, 0.02366685536159174, 0.02954673916345058, -0.07085030523040563, -0.10646386472860214, -0.12056796437906561, 0.041833529236586356, -0.1282352063012569, 0.14051993471140894, -0.15752722382251264, 0.08643534379309721, 0.04192996433580453, -0.01604237146416958, -0.09858739301438119, 0.02284400163014806, -0.09274402186311206, -0.006492436454271272, 0.12178443417209948, 0.06519341949651637, -0.05042310238797174, -0.1545344646823725, 0.1021690091114758, -0.006026493537402769, -0.033803706907761306, 0.02090958748265335, -0.06986917206351675, -0.15371822884804123, -0.15378122433568972, -0.14749164055716155, 0.07502757014703224, 0.09373909415697264, -0.06685801526084921, 0.007792122359931117, -0.06511824153205978, -0.01401474324976029, -0.05856847531095029, 0.04990917778700969, 0.179549936678659, -0.07235680205285333, 0.009658994762207922], [0.0428169429824654, -0.049520496637630515, -0.11352449797413842, 0.11566486027231423, -0.1541362924367414, 0.03514777723520097, 0.03448759046122758, 0.1262194097097073, -0.03103857686293034, -0.11347839133690436, -0.06476680406998628, -0.05541925556399028, -0.023564585755472395, -0.020531038848684346, 0.09985236848432737, -0.01537722813697661, 0.07183237540280446, 0.0798712591381787, -0.06589793599538891, 0.12056231520850469, -0.16383863335599114, 0.08426092906893307, -0.1362456926953941, -0.21221733822369232, 0.008309648851814806, 0.05234864459842007, -0.1118826170433654, -0.11335875211052213, -0.06712535534516018, -0.05689458055017239, 0.060035442756300066, 0.002943687535577032, 0.04078286404342261, -0.06900294774232058, -0.048731876500702265, -0.06076381478034683, 0.06247562341253429, -0.04482276328689402, -0.07073006998462186, -0.1294560497652778, 0.04229024504898715, 0.03581103245579391, 0.2392666940697962, 0.049273746688912066, 0.019764000821115554, 0.15206492518118828, 0.12466886927186753, 0.0075186131452011995, 0.0014534816096089976, 0.10540341000895806, 0.19667265142209908, 0.09408886951918903, -0.029416102033812216, 0.04194608810893701, 0.07400132432581727, 0.07489186800149877, 0.0769528874067613, 0.04176209938222942, 0.020533598610169325, 0.008721259420580676, -0.03614297713907333, 0.0926708158518025, -0.023276867329210128, -0.0023996282926127778, -0.022575538037525548, 0.05001923887892322, 0.04374570615827568, -0.16027699221489572, -0.09659827126557123, -0.07837669281041826, -0.0018293981233100548, 0.018657461435852393, -0.08096801485345329, 0.1591682681342456, -0.23459863909973955, -0.025628178163302706, -0.21281845512716388, 0.06975404747890769, 0.07686253244237436, -0.019171421908265093, -0.017046560648754875, -0.03864761009241391, -0.11581384103306357, 0.0677609079363349, -0.10081687001969299, 0.06545417260096831, -0.012791836348314232, 0.15092830676648056, -0.03699442972317591, 0.03127367112312512, -0.07402182396034064, -0.09509066743865657, -0.12258584878380867, 0.054928079525811545, -0.10710913752049747, 0.07862446793475382, -0.006358723808617124, -0.1925052138380587, 0.045040663158006755, 0.06666626792180452, -0.047554117422149524, 0.02360972901047646, -0.14807624723515428, 0.27795935881546396, -0.09482558174452527, 0.011360840689777874, -0.03253449997541986, -0.045826313742246806, -0.06026950052675515, 0.037013964287666234, -0.07484001810195497, 0.08094253079952621, -0.017501328066166947, -0.05702312690426834, 0.0217598513788241, -0.03043063574812535, 0.10459821327095489, -0.027608263064710155, -0.04131066914958292, -0.13210100149102094], [0.020361914861194298, -0.1104236809140992, -0.08204915350510342, 0.07829459487360302, -0.1730749492531872, -0.08363192522301063, 0.10704123899848439, 0.03205998354154158, 0.012021233809676813, 0.05742599499116535, -0.003746254546911943, 0.17663038224821856, 0.0074367510774320114, 0.35823228314978284, 0.11566537607157454, 0.10226361588443594, -0.11366861817550597, 0.033987065024730236, -0.1920754498266891, 0.14319144170622547, 0.15389145157374623, -0.03832916313214163, 0.006350256056846185, -0.028646750992287806, -0.011351506482078227, 0.09532082207017128, 0.008755588026291772, -0.08281206080072277, 0.08464280466228191, 0.11789056766212568, 0.021146212817527935, 0.053072634138082456, 0.02261542691216397, 0.1681535827770857, -0.023476858870177777, 0.07419641349068538, -0.05449056467513532, -0.07956580440325126, 0.13029106636164903, -0.08088665674139604, 0.12423705687174703, 0.24831076895115237, 0.1548288680442359, 0.06829081656671543, 0.07140242371759313, 0.06126362698725441, 0.07071046180880715, 0.019100920751683265, 0.07299077222235756, -0.21250890128696226, -0.08823733771824857, -0.029385994116112108, -0.10623947861828316, -0.049298968959048874, 0.1674874745555599, -0.049160264675356065, -0.022492492956696062, 0.024045408364710714, -0.2036069601872865, 0.04924040885798855, -0.07427290131974422, -0.06934762559418986, -0.09378946520599087, 0.011767432997419612, -0.04801435962951507, 0.09093185697637256, -0.007446905649925889, 0.08999525739525521, 0.11573575427335063, 0.2609348095141235, 0.12802845341429417, 0.05456357965720331, -0.08127814154361998, 0.07487076347662026, 0.20185864324674918, -0.08774959897850927, -0.01952322525403817, 0.014581425959594508, -0.008684381159591005, 0.07954038433889114, 0.024864828362271198, 0.0922884258043467, -0.03928146361362696, -0.07099223446784098, -0.060653064537973284, -0.13781449602878712, -0.17926678287022546, 0.015933206997342624, 0.09744320981460654, 0.14503550572968463, -0.05036339044629222, -0.025214295374639505, 0.23356145577117213, 0.052531891826037846, -0.1790803486379914, -0.03844577763351185, 0.12375142466263646, 0.12329239496486415, 0.07256797252504013, 0.013591461089956434, 0.0783524827683005, -0.13402003340023969, 0.07634551639346854, 0.05546784859358311, 0.13744397445214704, 0.15157894040501835, -0.09919757632070136, 0.06469671497417127, -0.09887205667412706, -0.09665937242924938, 0.03754904594411317, 0.01873835012340605, 0.02114960925147079, 0.11654630560116835, 0.10454959827951706, 0.049232086017088464, 0.0929949217193033, -0.0912267154648699, -0.0046508077141958325, 0.04263573765731389], [-0.20057409155641598, 0.010691169040371411, -0.04003971773945586, 0.09316822825116332, -0.06433201690208346, 0.12778471571108033, -0.08818581407973146, 0.10184174958010535, -0.0016522003970068874, -0.17428169694647722, -0.0017416066182192919, 0.15502526057502705, 0.08991578978566299, 0.10051242936296785, 0.10599872940757514, -0.05359011891277679, 0.15763213569123086, -0.057868236076806766, 0.09475731146801007, -0.00988356326047186, -0.08036544975615778, 0.10763698034895058, 0.04480956163604308, 0.0060652158791314895, -0.10959199954611583, -0.19785905553997746, -0.00816939719480424, -0.008069765823058168, 0.011705953300070387, -0.09388655998586937, 0.07246569257225297, -0.14466312538378295, -0.0692960135645311, -0.02191217892513912, -0.022898468075142776, 0.2154537797222013, -0.030057830434828497, 0.05212072036391087, 0.056346700775642966, -0.21963506591880272, -0.05336832089460756, -0.10883600319777656, -0.013032384850928301, 0.015442049011694752, -0.048370069644626125, 0.031117070814354785, 0.11603095569551516, 0.156329981319884, -0.009772515272402206, 0.12190207584390955, -0.05226531112549033, -0.10563863475878428, -0.09793498896276333, -0.10431985854439269, -0.01812713497556469, 0.04316486664898888, -0.0597913959423688, 0.02513844157543181, -0.08369269906222054, 0.027723473547152, -0.2266586337216582, -0.06070363438172862, -0.029332952664378773, -0.09041742147487496, 0.1577585954288479, 0.04114498792375999, -0.040824803550703774, -0.0008585494374117093, 0.1482739690285323, -0.03775691474188644, -0.09873658113149311, 0.13296440180884875, 0.038949795956134604, -0.17810935006451625, 0.16433136348070349, -0.05229092658835181, -0.09225270552714093, -0.052988427512400425, -0.22132671965373027, -0.09104093289685515, -0.05994115842026749, 0.16531257220493376, 0.16059224793941673, -0.018705226564938154, -0.038967946994635905, -0.07411265731947454, -0.09839286947623688, 0.049379439840609246, -0.029507270902486397, 0.040353443366642046, 0.03401728474560272, 0.02695983501814543, 0.1073369651465478, -0.04361233496207901, -0.13253408846208903, 0.04858729314775529, -0.05252028662731264, -0.008094288282385873, -0.12349924227160945, 0.11798355475563123, -0.08177195161941661, -0.030986859923786855, -0.03956861018524964, -0.03939977999711262, -0.09387716928635086, 0.1072883241084219, -0.011237345163163232, 0.10204128523225917, -0.17535063139849102, -0.10982109018432247, -0.052272318167519705, -0.003711111423335542, 0.0826933496090774, 0.09519094482952296, 0.05396530039701183, 0.14056225660572716, 0.14154665739329686, -0.010939515475408992, -0.0926965899983089, 0.01515809350532236], [0.09226785860966893, 0.0668513130653538, -0.1582034769658711, -0.07082273367726474, -0.14974390226020676, 0.09778110639068031, 0.10666955579373433, -0.047208069620297596, -0.007644695073025071, 0.04118093932698933, -0.11735339488288828, -0.06157040552550823, 0.03166832038331411, -0.08099931707058851, 0.0195451825279372, -0.0691045473714222, -0.2646234383367466, -0.3200906243173044, 0.24562834493112165, 0.12395343688111704, 0.2044422895309463, 0.1539880782700581, -0.08713479068815057, 0.08887153826181365, -0.0660094212111293, -0.10036302057558905, -0.08745628725680449, 0.14351343755339893, 0.23708158725274214, -0.09036554859300121, -0.06892235116471115, -0.03790300175082271, -0.021968178679194594, -0.31926382405693476, -0.042617315844825976, 0.18068313027490376, 0.13110434620947567, -0.04427755552460027, -0.1913050407283458, 0.03124533314313048, -0.0779619820124712, 0.037330546786514034, -0.04695088226898973, -0.08320799615814004, 0.006070585437921952, 0.04716812443456166, 0.12120892490264233, -0.11310473250982779, 0.016213801387027552, -0.13888442729201814, -0.023330101124035524, 0.07919242857328844, -0.04516620208930968, 0.33803591780572245, 0.06289743019599901, -0.16877539037242684, 0.08345345739579468, 0.1339710354177418, 0.10650339075691445, 0.03966569976601487, -0.16999616855527402, -0.19189693763723656, 0.1783782316553846, -0.07704309709829334, 0.16075842538798463, 0.12339083835896301, -0.02358022942655064, -0.12289017475834849, 0.0792875261534457, 0.04561391294632165, 0.16467839121974284, -0.21316538160431894, -0.04527732806651715, 0.1654944206388238, 0.043406899091008144, 0.009421590292094847, -0.0722422755458553, 0.050861997628115926, 0.06976765514217463, -0.0006488959658364751, -0.09354066039565108, -0.053882443968501434, -0.08687976108250767, 0.13713777298749355, 0.002129893657643688, -0.2296043225174481, 0.08907962348941373, 0.042346758959100395, 0.007256180626400267, -0.040887537479484704, -0.14888788874606954, -0.11010547970271098, -0.206105371049801, -0.304177578224834, -0.060678600746383364, 0.05609430799414193, -0.14631888467500836, 0.03985411075662014, 0.16823645793775044, -0.09691345620419088, 0.04484660945812623, -0.16450984286607306, 0.24796643836869545, 0.2468030707045912, -0.14194398452990273, 0.08307378122772417, -0.08648947905485688, 0.10348507835858105, -0.05734448241747877, 0.06409484176082325, 0.17522311449272424, 0.09059289281407686, -0.009014445745461726, -0.16741754087767752, 0.011985797374002736, 0.09726222286881453, 0.20673095919403553, 0.14796269223637495, -0.01911817688085732, 0.11641998235174739], [0.1369638839879864, 0.30797467672670537, -0.2035783577713524, -0.08471060889541852, -0.12275576203450414, 0.029622573866420757, -0.034256144406711354, -0.22812663501623479, -0.07834298930735034, 0.12154893787270452, 0.008059294854044751, 0.13784121972167437, 0.11327777437316798, -0.09997967797586522, -0.10303849604306645, 0.054250555726530175, -0.21739261872439142, -0.17304836732962828, 0.13205137621735924, -0.09110861246568175, 0.458847880034973, 0.1504231278244647, -0.034360038353140304, 0.01994539236480711, -0.2242818875598661, -0.16001405137226618, -0.02405395417950895, -0.028919571459420902, 0.30975238730584087, -0.03723539787650199, -0.10600538395015895, -0.008513942235550418, 0.10790978907154189, 0.18757933827643927, -0.2450797357106738, 0.15768718802046594, -0.04067520499111413, -0.04145588981980798, -0.18057595512252184, -0.047926358020725375, 0.06534080353983342, 0.040124795250184926, 0.015837658457256227, -0.005208624001152699, 0.11265096992758487, 0.08114947860719669, 0.01736607345063517, -0.031015926200131456, -0.11756314089016656, -0.09335345723274664, 0.0012285908346735344, 0.004439047649523401, -0.08565660411981171, 0.02828136781275961, -0.017948651071623366, 0.08735273726320564, -0.07364983613163946, 0.05567039938485202, 0.25589547047276007, 0.09759650355576996, -0.02486606416428939, 0.04954714929649557, 0.2459544471465591, -0.003944208683846691, 0.030874982119241657, 0.10450413072118454, 0.111376963004171, -0.038529571162204894, 0.10361489516658336, -0.09651578232989588, -0.05571643353000882, -0.09796166716183667, 0.007488268233605116, 0.12364433884935064, -0.07468627825463961, 0.11809698929047145, -0.059608774948169435, 0.014934211289834765, -0.04541797984880798, 0.19141851628284898, 0.11521008305043393, 0.1560349558225876, -0.11641330890622155, 0.13401451291021943, -0.033663061652269496, -0.10398008527328047, 0.029264528366653247, 0.19801268648656964, -0.02897173845956836, -0.037130256042230476, -0.15011564019490425, -0.12139531867335478, 0.033886936658327996, -0.13786745756152052, 0.08212729942648382, -0.05817024247635996, 0.09600071515078394, 0.0642948330289594, -0.09052247305348757, -0.08527921126617911, -0.037045270556927176, 0.01852801137507616, 0.1842966610399507, 0.028662260348064725, 0.1025143449618667, 0.050278436564321016, -0.19722636603324636, 0.0029076582302057425, -0.0849732172329, -0.0417768528825858, 0.09887636805758585, -0.03417883164546457, 0.07642461748255464, -0.09295561997728118, -0.008493255064391551, 0.0769168253181272, -0.0028639157207663484, 0.08632225031686856, -0.014455170806276499, -0.06757952301245701], [0.1433461234181903, 0.148575417027089, -0.18500000311569081, -0.05432001289032751, 0.008209945003812716, 0.005467540626755563, -0.04732437843087284, -0.23406511955051312, 0.03682577908690831, -0.0030527739864316876, -0.12534818570482603, -0.2152825845870794, 0.027233591463183493, -0.04400744195977409, 0.20721755708353773, 0.08361957473327554, -0.044470253620702276, -0.035957180736830664, 0.14974249434359022, -0.023036225551636185, 0.09799800429547759, 0.19185132218071954, 0.1884977547390631, -0.004151014267748209, -0.03859010771180592, 0.2431968416598449, -0.040402978625414414, 0.021874213105779448, -0.11694335698416443, 0.06323226834189977, 0.059591563101485, -0.011518507910880493, -0.1529786447007435, 0.12673888434076985, -0.031512409573128286, 0.13825357273090708, 0.03288624762133433, -0.024029476463478517, -0.020415772327708907, -0.06851855791464781, -0.016555055050681135, 0.07916032731037552, 0.10000890880882253, 0.0693515659102953, 0.18115010746292612, 0.050936597017894186, -0.039787637976456895, -0.09092104379792489, 0.09124893774111618, 0.023958868225630505, -0.0929372905614707, -0.14247541722155027, 0.11463003812147608, 0.012657939845756605, 0.04353705001781715, 0.11948126284358694, -0.21523197465812596, 0.17644583338981776, -0.042573496555747485, -0.07473582140644384, 0.022934558764774765, 0.024371553486715148, 0.020048986260939126, 0.011784698477327877, 0.26067516859586476, -0.03890616783948397, 0.03331502409123055, 0.1423549199615769, 0.07360725374630524, -0.3239436188939008, -0.05444390604877877, -0.1399699320859367, -0.1277579812729926, -0.1437115559955097, -0.110890408177027, 0.0027998894268178457, 0.1690942551413904, 0.10713255903497809, 0.04490721560279868, 0.09770545549003976, -0.08534590342095999, -0.06934731753553086, -0.12127280330734976, 0.16112314535174496, 0.07596522699543708, -0.04175173995137874, 0.07674396822354546, 0.02065496509205659, -0.016201716280690982, -0.11975027622916588, 0.06750184671637689, -0.16797423781199092, 0.03899762735465297, 0.02763081362194241, -0.11376676347841386, 0.09942315061946723, 0.016238735497134765, 0.006547562561681921, -0.03540114628053036, 0.07398489908037563, 0.05414232113279733, -0.020781484565557354, -0.10002028810681647, 0.05517771862431673, 0.005239623364136632, 0.15415595921155115, -0.12315946520502688, -0.19450860789042854, -0.16903623242107282, -0.024159672090264168, 0.11128201409750685, -0.04285714337986471, 0.20162338281580766, 0.00487806512649045, 0.013345342663272943, 0.020264074787627435, -0.20832532176959626, 0.08799306606712536, -8.364544313621837e-05, 0.04077577289798108], [-0.2621005700087371, 0.005365898868133909, 0.04765018799528437, 0.04552902480902878, -0.16166642482200017, 0.07903364923588482, -0.1927066661193431, 0.10609173260502362, -0.07145308615605701, 0.18406669530423972, -0.0384677366097885, -0.25336944451925497, -0.07657095184809573, -0.11630731436952446, -0.02613700814992273, -0.055008507250654495, 0.10529592318816866, -0.3560783731574652, 0.047707374677104564, 0.05257211563135203, -0.1376555316459683, -0.046072377674953535, -0.2777891120401221, 0.05915889351927465, 0.14255289030857518, -0.12138210617156542, 0.22388118127654005, 0.17948322128156327, -0.2823048271500622, -0.19426095618828765, 0.3598182334095816, -0.23204870871858516, -0.06377598920064015, 0.12487245381966117, 0.0274373967391582, 0.03596808653629272, -0.07445589759899904, -0.029189812325028337, 0.14746557052739032, 0.08539891420213601, 0.11868339997978875, 0.004005383426639503, 0.059698049324468615, 0.2398489164339273, -0.039119796053359364, 0.10550635138342515, -0.14543373929220438, -0.09527402270559944, 0.2865008870427173, 0.05520662194490762, 0.1070417743453438, 0.05455314741359426, 0.13229592135885573, -0.0068307908392514355, -0.15017207457372575, -0.1352276012381566, 0.0069751985907704536, 0.006717725804159223, -0.16346493928875727, -0.33975692987883005, 0.1412109490723775, 0.14927401621308595, -0.03700797687903304, -0.20892033303039928, 0.0198915649656302, -0.2325118315548324, 0.2537561256322854, 0.1153047514580033, 0.09240386331470749, -0.08083414139729508, 0.025824172856294094, 0.07046403987179724, -0.15311352278558416, -0.035251299155279706, -0.09838449411979526, 0.08025703982054071, 0.226361787506764, 0.042735312214259843, -0.008800972457818574, 0.19629541379060575, -0.12247962849766593, 0.09221793483879943, 0.09586299988227219, -0.14225306374373078, -0.05673512164126794, -0.15526901253828107, 0.14145613961616557, -0.09603422292199676, -0.1348173545135452, 0.19171605145082377, -0.17694385175893287, 0.22440736575568956, -0.1846266100619853, 0.16368989795616198, -0.04395274231726605, -0.03690020891865664, 0.23353012690777816, -0.07453771077568595, -0.24031500701176328, -0.02558893134911271, 0.047171549144368344, -0.09862176963046779, 0.1108247866502065, 0.1394203414075862, 0.1899123693836181, -0.03161913240840269, -0.013857135308927846, -0.3916100978265981, -0.03136092601121807, -0.14286563428873456, -0.09996557205620102, 0.11509274502931591, -0.005465216095338508, 0.016427890490244033, -0.43064930418115455, 0.03738853492119173, 0.06212781676487542, 0.08942217724383576, 0.04056384934196664, -0.029645656071020376], [-0.3233902403053594, -0.06540714723716703, 0.17499304685355618, 0.15127851656125516, 0.00946716658976691, -0.027359425922733115, 0.009173293980469299, 0.1618994868893887, -0.12830323192788962, 0.28167004196301443, -0.12803668696709827, -0.06575473824541087, -0.059970057213866765, 0.06326888136367799, 0.024273206032326678, 0.05154255917674476, 0.15508908658387455, -0.2819452493661128, 0.02132129600235203, 0.025243777048066487, -0.05462625100626462, -0.2223503297704928, -0.023650880557231073, -0.052437248780276724, 0.13722121154250488, -0.05125676461273151, -0.19401777710591794, 0.016733006448084165, -0.2312115751210402, 0.11319839343518368, 0.1855161938984816, -0.00802598104760502, -0.25163466117095734, -0.045859695329940345, 0.038791357026025895, -0.08379761222976023, 0.17519216871893373, -0.04442157486665928, 0.1958061711037727, -0.07387549841538446, 0.11490838757480863, -0.08416418044990272, 0.09048949738444186, 0.20056673317634816, 0.04632605010262022, 0.1328564952688214, -0.16496613356765927, -0.11853639430180948, 0.07952756563066497, -0.08503821265826535, -0.0013494085956308292, 0.03280162785633382, -0.0022757828718372114, -0.17888903642153012, -0.04284348329244142, -0.09294112093444412, -0.09127752133940509, 0.036166110619009866, 0.002927822365128175, -0.0512944493493542, -0.064762690409869, 0.04634385170706653, -0.08911948937990617, -0.18332569531394877, 0.2980277009068746, -0.05960662146527658, -0.1257118181894885, -0.13654976933806, -0.0022707927429863987, -0.12653663225719997, 0.0106962128399882, 0.06283243494075055, -0.22761061063334895, 0.18472661983305194, 0.05451810026659787, 0.0389696799553802, 0.1805378200232475, 0.13429427405475555, 0.07129792396529672, 0.0924851835066301, 0.07229748190113591, 0.006397796604571516, -0.025127251916118677, -0.04468829854853029, -0.08543082960925918, -0.10655562467451161, -0.011045521587501668, 0.01613180899279885, -0.04098182804453513, 0.16257107980562785, 0.14239925102207682, 0.10642154299888004, -0.07354598966795656, 0.09422700293890537, -0.01633816569495405, 0.005161883511694845, 0.3177114846088535, -0.09035376413127442, -0.17431162221136257, 0.050123851262857316, -0.025495658969691155, 0.014367337275877924, -0.018100987558440786, 0.016595755382472377, -0.033049664136524395, -0.015155981012342654, 0.07526735135608893, -0.2028285898245699, -0.15819566156038348, -0.17109378018289514, -0.05803483640155484, -0.06424105380096877, 0.13422872846164186, 0.012517117722232447, -0.11986841190989939, -0.13315712439710276, 0.09702761458683982, -0.09822558931798867, -0.1256214203891768, -0.16295894703551186], [0.024558939209355243, 0.1246474838592997, -0.15019890880648648, 0.24005873120519405, 0.04652482111714122, 0.04690378921532991, 0.053961383408384175, -0.031052140059979094, -0.2018131146810167, 0.11325803996828725, -0.008995147826831648, -0.09191254738655322, -0.030196669499800127, -0.148420777825289, -0.16821458845650542, 0.09890985108196781, 0.02279699377100292, -0.04280686025239198, 0.2099210705811208, -0.021334392725660564, -0.02653038016294854, -0.21553161035240867, -0.020375091015957147, -0.10647137770814485, -0.029852126957434444, 0.10952986999696225, -0.053316169759718306, 0.02185755358709485, -0.10314477788704433, 0.006939728677589788, -0.03451538043797682, 0.1054105153024711, 0.025719552494501623, 0.041063106777702474, -0.08581312190751793, -0.2098373974628069, 0.0664444146483754, -0.031098950793143103, -0.12687634397015676, 0.07400355951437712, -0.13303782115247825, 0.026224963161648764, 0.19717257719222167, 0.17009587591158642, 0.002389396915498794, 0.16790068125137644, -0.2536307821789429, 0.04754663972263788, 0.20128428589759156, 0.4156137089583329, 0.10511230522151441, -0.09049515519179911, 0.04389108884065211, -0.006926607399603242, -0.13923054407282937, -0.044746553377596365, 0.18637530949449585, 0.08702762515096554, 0.0817428414374823, -0.20112126000419073, -0.13393733175982744, 0.27592519180023806, 0.046601664703270713, -0.19892176369650963, 0.11170717962089208, 0.23744091407108586, 0.03827156157614897, -0.07362686343086415, 0.07254120038815141, -0.07325912167777544, -0.07802714624687958, -0.17064678698453364, -0.06675657749488233, 0.007512666473423174, 0.010528774889551111, 0.010994785729326263, 0.09669719146258186, 0.08831847509990626, -0.027160257836830733, 0.21209093883746377, 0.02328327479979634, -0.09424480353448177, -0.03697148376865397, 0.07877541720805553, -0.04311460549310677, -0.16354065219437677, 0.018640604313473613, 0.0761808849848051, 0.03234586335967553, -0.08264251220136513, -0.0007951422878644793, 0.01132566300528261, 0.20211112459322847, -0.17483434309744264, 0.00571862986745394, 0.014677012495662514, 0.21852460481515568, -0.02730609247157911, -0.06645187757717944, 0.06546307926316126, -0.1269977877628428, 0.12652641931596229, -0.04139932813665338, -0.06811165531278413, 0.10515400102029704, 0.12473893338872322, -0.08517477398691303, 0.004017250793993103, -0.10907835007679176, 0.030803139095135476, 0.1036835487308421, -0.02374821432553407, 0.20417392382467675, -0.328472034711186, 0.06310084245302372, 0.022504192729829016, -0.03023120126542916, -0.01706730877170931, -0.02432433632377809, -0.045734052209439824], [-0.055023603149449214, 0.24783297515316424, -0.21395920978377447, 0.04984486451776882, -0.09506275201731318, 0.01896841388011266, -0.17541004600694568, -0.18039908863670664, 0.2719511550744405, -0.018480412927804543, 0.09472716063131982, -0.04682608962749844, -0.12260094357468215, -0.08128240972451772, -0.020221533325193428, -0.09207067448367315, 0.031029865930451667, -0.12149998684101472, 0.157595901793689, -0.06442180866369412, -0.012410546807704806, -0.02142134137438811, -0.05318929836741017, 0.01709385825581529, -0.38786118563319183, -0.1277815165945028, -0.06670787472124069, 0.10798746833375247, 0.21341356907322542, -0.10839407854569318, -0.16595536502967118, 0.10915697603552682, 0.041761705020912775, 0.1229677995883891, 0.08290619490059761, -0.09798489708585635, -0.026578670719162433, -0.10729647406847548, -0.12666702524739182, -0.00037846700805297404, -0.05977431851277464, -0.09692963435256555, -0.054750885819315205, -0.10928146328336337, 0.05708721531927926, -0.09585049721868552, -0.09524164503104733, 0.09066960773874466, -0.20993416037682835, 0.22245212436595252, -0.15031713559114246, -0.08270436357820513, 0.17595849444090758, 0.14366870376004084, -0.05813941606942082, -0.03515632301621859, 0.062467718800084025, 0.20702804103460598, 0.25088018825886105, -0.14764175436975907, -0.12609011936818862, -0.060663032504497755, -0.025225074483914974, -0.5252794960570515, -0.07389024985251631, 0.04367175288777047, 0.14376484260197578, -0.17181825584325186, -0.08409460341258633, 0.10354863080334437, -0.16271431719027654, 0.00523117453852771, -0.14575714684620378, 0.09221098892071204, 0.03568159542846716, 0.08591032298259772, -0.12850364156483882, 0.05381883596563714, -0.019024439872488155, -0.13881759156615386, -0.07498290541651637, -0.046511955838208295, 0.08257750897024176, 0.06332648596538656, 0.07932458431178545, -0.25656710637892294, -0.08245867679135734, -0.04899264478589565, -0.07399928286061609, 0.01426933359521237, 0.11487209286478224, 0.1255994564406799, 0.1973132387009483, 0.15916285870030727, -0.03202185987081419, -0.18168189681815433, 0.15355881180765985, -0.06566352701838889, -0.1888636477153274, -0.25118173226249757, -0.21899609450604923, -0.11557742335280893, 0.13790526311285853, -0.1386042248172958, -0.13149955624347331, -0.10673711598783754, 0.08598278203845132, -0.039348341066081975, 0.04394896658656667, -0.11193299550798919, 0.15065865897092284, 0.07280777861782334, -0.0216833020838669, -0.1549439834881353, 0.066169106615754, 0.25898534705905957, 0.131991279326817, 0.0981508806016973, -0.011175303597912025, -0.14861418692113046], [0.21439689224951186, -0.14039293481425885, 0.04879333533139987, -0.057495037823452846, -0.04584472560471991, 0.061124629648311515, -0.2283435072076724, -0.033923509005427524, 0.16697263530374357, -0.024895882387618053, 0.08219361620769937, 0.09650030347679535, -0.03217327865486141, -0.05177922269322604, -0.06519195760857842, -0.09798335518101045, -0.1751524004381972, -0.015770421970824795, -0.10364179726264805, 0.10928786244028048, 0.05167232169347252, -0.061106381306922426, -0.0676178863683665, -0.08856853773171619, -0.18849111833550708, 0.03712264677954423, -0.1370273088087044, -0.12565630103799966, 0.32342564432042936, 0.09880478078840797, -0.09379882928593862, 0.12479377760319416, -0.010474536631595656, 0.15495341628916062, 0.06783382548805163, -0.009525405928369207, -0.10998244080916009, 0.10026213967130458, -0.042939733232348024, 0.05133813216472173, 0.10580358318409579, -0.11041101558000971, -0.15280549823380812, -0.17370504988900498, 0.012346909498384653, -0.15192929343086345, 0.05513679692886875, -0.014982021505110132, 0.20890117677078818, 0.17021760237262762, -0.16666146636593726, -0.03877766912500558, 0.031168182777757278, 0.21938432765366508, -0.08667841859468563, -0.18293321970694765, 0.03272878405611847, -0.027604485192151057, 0.15945647158606233, 0.08447213646078684, -0.11988063963190336, 0.059328558026675304, 0.23662381139297795, -0.20924484360361784, -0.18378316077815526, -0.17679821503626175, 0.13486963741467356, 0.029772643824191085, 0.1457289878007894, -0.09247712516301497, 0.026106629585898124, 0.02425753646122816, 0.04792636043193208, -0.1373842264000254, 0.0005479517060882135, -0.019701060251530393, -0.1442549625568276, -0.08346599163361146, 0.017131190162461948, -0.11454884783753487, -0.03557922344245748, 0.052678737094911665, 0.15707796579974498, 0.09491527353538019, -0.0946981885841753, -0.08148996519296921, -5.4063559515536476e-05, 0.00195475206968602, 0.010759646120007207, 0.18807121027385776, -0.019953287560830604, -0.2583119799935949, 0.0570926259975536, -0.1247205209698983, 0.03272531287313056, -0.15685001016801656, -0.06926250380137884, 0.13038942958803243, 0.11253180216691015, -0.0604205409673263, -0.09294657484464594, -0.1469071501245534, 0.11690870944324774, -0.031893250070781996, 0.09108572834775024, -0.1956826774849035, -0.015340713536664453, 0.05038406586072301, -0.06060363995350927, -0.08080597100139908, 0.1624147389548407, -0.011875437728016485, -0.01937631113366878, -0.06099243495465304, 0.1574150723166281, -0.012670059015352363, -0.00794171395013092, -0.20724131247317687, -0.025288403607175162, -0.08087003525028968], [0.17278667045676047, -0.07613944857345642, -0.03692840320464355, -0.1775359861024829, -0.21774725047751198, -0.1366691717901946, -0.03701451283477579, -0.0305991641270222, 0.023665940617089924, -0.029665491811850842, -0.00417592650166262, -0.021923094292245808, 0.06388249541686015, -0.05396938952069335, 0.06022910356550442, -0.04530534741521403, 0.026871122999580263, 0.00798591863645401, -0.1265874143106804, 0.01624732321762741, -0.013228496104372073, -0.06269673971988372, -0.010140477023973218, 0.1178380769620185, -0.09013749535357052, -0.005476127284815104, -0.1384892732501534, 0.1746866439318221, 0.07574364254165813, -0.04301218860796152, 0.11959195040522845, 0.047309599930185124, -0.06610910279287417, -0.08605888118986259, 0.05422855481051724, -0.11969777525675467, 0.08768971522118285, 0.25721583103032597, 0.051740898764527886, -0.10739828339958578, -0.08653890275785621, 0.17157027305938743, -0.1182186473002461, -0.04111623993177351, -0.12797444680518338, -0.04799012160152249, 0.12968442088816867, -0.14028638753709285, 0.05057219296965328, 0.1735263743381385, -0.009244348516607832, -0.14178033189273626, 0.057226877128596004, -0.053793640209871284, -0.18417455344407896, 0.06482764401592085, -0.04783001988561905, -0.04331727715199499, -0.021924547585220163, 0.09173193496583734, -0.010884449342501275, -0.01124995321969632, 0.08841869184158202, 0.029142559760271546, 0.05356095334598352, 0.07052172664464429, -0.16800892172366363, -0.047007860986475324, 0.017803924960203308, 0.05758251585088417, 0.1533721591360348, -0.0935435799335634, -0.07975268023903158, -0.11510049057374817, -0.01089678045017889, -0.02556321922123479, -0.2889449744345181, 0.11503322459259063, -0.03258844790509652, 0.06030651537197728, 0.1115295534614773, 0.004207303788655105, -0.009514063437932357, -0.09185468776416493, 0.07919954078776571, -0.07820298868603147, 0.08056929577328094, -0.17537842332465428, -0.08127475211709288, -0.08204003766163642, 0.0402289794772645, -0.047371187056758524, 0.13206622474274685, -0.043732833579807125, 0.06036811636774807, -0.14126547695772995, -0.02486890747713038, 0.02527195399609913, 0.0826008092654086, 0.008270089123785648, -0.21760021708926536, -0.10438126089959023, 0.042255650198928095, 0.022440888315103987, -0.05534423203800867, -0.02242101212812633, 0.07269415789405059, 0.007119507296861286, -0.11370733353523538, -0.13613983901787433, 0.047253893345739095, 0.042946826353289475, -0.050706694406948465, 0.060424362283761905, 0.16862056491301292, 0.11589835447262595, 0.08926419185214092, 0.005813919915491761, -0.024222111781058996, 0.09536299681765255], [0.08831600884655495, 0.03353965929120019, -0.06788498956943595, -0.004928868742261067, -0.11192254383469889, -0.03840337488722626, 0.07132304912372348, -0.09220523181368705, -0.12335477274413595, -0.04885436788093751, 0.001868937592172238, 0.0019024701425328452, 0.047568413939169676, 0.11499720418128868, -0.05199891080729839, 0.11404448006602219, 0.024961940754499763, 0.25166254977906494, -0.07146862931184828, -0.057088908968243035, -0.011100830861228388, -0.06413277263476472, 0.037232852304897875, 0.06835776407748115, -0.02123612376915062, 0.00781156971885374, 0.1531665702324796, -0.20225206346204916, -0.022693937118730613, -0.04897827898608746, -0.012623089633164244, 0.2784303749418135, -0.18199420718607037, -0.0896022279436585, 0.05048510617002829, -0.20467482119984082, -0.030626058746910788, 0.03764663410453459, 0.06511546575069432, -0.14444468106433217, 0.15206695616733037, 0.1266178238076196, -0.13835323334341182, 0.012014555277575752, -0.1455338926489725, -0.15043611645292856, 0.1646621971665051, -0.06409160618519916, 0.01735410273856731, -0.15021519901081848, 0.05775809581031635, 0.1654532507084763, -0.037018270113455716, -0.13319048765530037, 0.05329389517216525, -0.09862180977100493, -0.12080851923521745, 0.05171911482707117, 0.024159418177995207, 0.042254793450333915, -0.055204776563820564, 0.13168667734682446, -0.010888688024603197, 0.003919281480047634, 0.18138477850179122, -0.12715020589777537, -0.18900117999142343, 0.0031195941425136756, 0.054554553393120965, -0.10616821229231214, 0.0035293080647712644, 0.03622180869738403, -0.024902588550376855, -0.03099343503948596, -0.05798808945604192, 0.11051834577109157, -0.016909886614193386, -0.009603216123579091, 0.23965437672607073, 0.17784537633441705, 0.05154549217830956, -0.10266495816561645, 0.09800047296635939, 0.011052878038158841, 0.06589096259384448, -0.004178978641231767, 0.0295220830762805, -0.07076133361243452, -0.10931445430355612, -0.05781147667403367, -0.08388459603844488, -0.05371694844063283, 0.12484320394113352, 0.08436155793680675, -0.09225455934151341, -0.041411252078979284, 0.0151069521165138, -0.05392400792044132, -0.13396952038691962, -0.03663991321001891, 0.08341537883236438, -0.10853989674867996, -0.029811077717658074, -0.010146814751693944, -0.028409978526736275, 0.027194195622618433, -0.06438110460613158, -0.06917254958878127, -0.06359363881511372, -0.13770682980452995, -0.1058060277144629, -0.09669649765915621, 0.08655288668630828, 0.033984438626130625, -0.11136013693752102, 0.03677875549814158, 0.09392040411852695, 0.021209334373933207, 0.04598091657536944, -0.05320159294378703], [-0.04771656386333082, 0.03765375990242851, -0.29083039044964815, -0.11864577529998625, -0.12508274016573312, 0.0865802736245894, -0.07426331508852438, -0.1839187059881816, 0.052002345344226944, -0.09982505503565657, 0.08044592228033746, 0.05818914329709894, 0.09258745766547005, -0.030357508277125987, 0.06432250400474951, 0.10152031438436414, -0.016022157929130355, 0.07970612570714188, 0.13053613088123686, 0.11049397363517148, -0.09477425304955663, -0.03451006603460327, 0.009392776184057662, -0.02352346598604332, -0.023645706808567857, 0.02419177710094015, -0.060492983307153504, -0.04607691750415113, -0.07056294351615314, -0.141711556755895, 0.048964174570521615, -0.09361094746610259, 0.1311628162367103, 0.09719236065473989, 0.1598155630268247, -0.047400269662169495, 0.11372870472868585, 0.0013869387441801265, 0.22011009064078385, 0.20388223936118427, 0.11873969562129182, -0.07250953589197696, -0.03903520296876145, -0.021312340410206906, -0.228801758892454, 0.017189411248915445, 0.06878675435241359, 0.0825584152138806, -0.10117519560894467, 0.11657791105400946, 0.018301515953402615, -0.037893327425174886, -0.02255307663535689, -0.031501634047836645, 0.12039922275205969, -0.12286174067345776, 0.04745839173409102, -0.12312886934065559, -0.033613352931429585, 0.10526550861527922, 0.08699650728928518, 0.08703322929212044, -0.14186196491606265, 0.03233028500900113, 0.042004449244108184, -0.1155889674291194, 0.08373879812412116, -0.11752342051431028, -0.3405996097039136, 0.027509456269815054, -0.03620893811572693, 0.09863921923465797, 0.12404258665132564, 0.12369099129056618, 0.059501728065537024, -0.15409104260599302, -0.08417285638253671, 0.0037161160349198966, 0.1685251698457998, 0.044478062132691475, -0.12910532838685176, -0.08630683545812974, 0.17890398455431059, -0.061942851090587996, 0.06392385499120638, 0.17114644242906807, 0.13945452961951652, 0.1105448283794696, -0.055410173579093835, 0.04346133390270594, 0.03672715861834627, -0.21548462502120302, -0.0910974455101385, 0.09605847875499719, -0.01616308642971837, 0.03670363314259883, -0.08312454098015429, 0.11366613063440313, 0.06206108322588273, -0.026161339270706466, -0.17322644286417424, -0.05795163086368202, 0.11098138837549892, 0.05407218606706639, -0.0019299595797659583, 0.0911697423141356, 0.00868493518521537, 0.013366302000186661, 0.004722463919943189, -0.21100660931058754, 0.053921149854110235, -0.10611635446456727, 0.17719496126642847, -0.06890242112212576, -0.04275419106959354, 0.09552264228846802, -0.06531338539343526, 0.07123891714858434, -0.15694324224393214, 0.09487105484036978], [0.004294835491266911, 0.11205542418891769, -0.11954925631835049, -0.016574237861976045, 0.04020947870482967, -0.00878143165360888, 0.053806858965365155, 0.02517212825430358, 0.012493163527946457, -0.13247427734449255, -0.14540810178432206, 0.1966567820651834, 0.0839917041914895, 0.12322706655599706, -0.14790299849933117, -0.21433159019182352, -0.018062730646384077, -0.031826725980626615, -0.06560330370816492, -0.03297756177469565, -0.0270290011182953, -0.11049377353837508, 0.018715434981061728, -0.08438099277357551, 0.03255232186681158, 0.06402925104387626, -0.009863621551636035, 0.12283126647026776, -0.08235467835826196, 0.03581520530467709, -0.05760130558912216, -0.07244285817207181, -0.013046206961084265, 0.009790678392350333, 0.13155783745623778, -0.028890098473879886, 0.10562789268900152, 0.0659571558734927, -0.0009687413721105332, 0.035831329890922296, -0.17633596670177223, 0.02191009828630923, 0.05202662912163841, -0.05846771239584207, -0.2511754507523649, -0.028440789468548593, 0.06757432144552644, -0.02257359439052161, -0.23156434183355237, 0.04119904269222052, -0.04134347311307607, 0.05615522308999997, 0.09744018518641592, -0.17295511223125615, -0.1141029714800583, 0.07777581953023607, 0.06253948193461777, -0.16213738308252224, -0.0368484498578167, 0.07031673742299843, 0.04781784711390693, 0.04932711396900658, -0.07098059093254057, -0.1906742085290394, 0.060988058358251336, 0.10059417365452228, 0.021699657835154876, 0.1676403444492732, -0.1002422005702142, 0.12290200012713262, -0.13864570972196888, 0.07946638011236899, 0.08079002834710866, 0.053601050398640895, 0.020296286605791296, -0.02655856397882882, 0.044243704144754405, -0.115078509929486, -0.010451819052652706, -0.1686779485662783, 0.11353924692488583, 0.20060671152175677, 0.04002218985425043, -0.19672274968988623, -0.03847477841553074, 0.23343941439928126, 0.0472942127831643, -0.0256952516394544, 0.04814369489773692, 0.020671517818924144, 0.06609443777390318, 0.06872830413302908, 0.1296603386566687, 0.010256357308763354, -0.1668640465622701, 0.023581993199449768, 0.06754054254797184, 0.1826708352544564, 0.1384033191854116, -0.025785499305947274, 0.006943295483405817, 0.09310278667628147, 0.15080480089450096, -0.02559347049045621, 0.06144314198845054, -0.013985846134725916, -0.08080099119281746, 0.12601937144927242, -0.10880080915579099, -0.04306010260548975, 0.023679377446417193, -0.18047155387490577, -0.046036817606597266, 0.007628653881289729, 0.04363734309526219, 0.02503134257451381, -0.03487619403799651, 0.07621197395405734, -0.02540469683539264, 0.14348380434540478], [0.13657210394674416, 0.1425142102097022, -0.1619293375385227, -0.15878644039456288, -0.13089851853581128, 0.041638975941638734, -0.04035239737321577, 0.0011301326942291664, -0.0002951541955412218, 0.018175582691089157, 0.018391952652502253, 0.17365734357267462, 0.14197531428071758, -0.08410531586540144, -0.03306818848873619, 0.08780276502820154, -0.06563870204882011, -0.10534375131728065, -0.10514084166387204, 0.11762071745019602, 0.11561472082483007, 0.26202115450027735, 0.09111693907067035, 0.11157260912979217, -0.051121051355569366, -0.005170340307839892, -0.02766907827887128, 0.049491307993420636, 0.05142211957405629, 0.015773790793392976, -0.027693086071492075, 0.0547505522110533, -0.0836082875429058, 0.106998282631129, -0.0010209857842342714, 0.07290784352723609, -0.09464968894057833, -0.17393099107678642, -0.018072998686335204, 0.18798436731956897, -0.13520670047256902, 0.036734924147231104, 0.09060087809936868, -0.13417398932416857, -0.05873919454212699, 0.021789163985126436, -0.24844585204389594, 0.012024215318199178, 0.07143124156973953, -0.11842619733387898, -0.09584188336909305, 0.051424257180677786, 0.09917003226609217, -0.004633713527371488, 0.05441578312270806, 0.17716728800577788, 0.12196680683436784, -0.03749574193737642, 0.20093710673555162, -0.04421317302420013, -0.1258417677028566, -0.011572624972800708, 0.15840811739763241, 0.06849040814462666, -0.15222411247009368, 0.0702377360496114, -0.0029212402795125423, -0.012026786254428226, 0.12751534385398772, -0.16682028774247984, -0.13342394897661225, 0.15891413351839284, 0.08982664713795818, 0.03579461332280232, -0.017077597336422744, 0.15990423901547215, 0.14017704741617185, -0.11937174166001259, -0.09877455948701157, -0.1699669264854913, 0.010947741020715359, -0.14000300290612328, -0.11666251081436946, 0.20376891947818548, 0.02826543094458178, 0.16360143991723036, 0.08142878602251483, 0.0821619462142804, 0.05160422909802678, -0.031582894881257484, 0.12572178346851318, 0.061166751940392075, 0.1547011612536895, -0.1070004283990726, 0.03539542140965355, -0.11725295889637913, -0.054946000015185424, -0.18184468579184196, -0.004425204520550766, -0.1391127065245872, 0.14974325539154384, 0.055761743128805254, -0.02371706975043298, 0.105086594204835, -0.19009914154998175, -0.008376383919487055, 0.06620867517755417, 0.06067838673121482, -0.11994325832942644, 0.09328855956983016, -0.04416652052564519, 0.14089268856973775, 0.1663719020482399, -0.04792646501716596, -0.029185487246681883, 0.13268912966137478, -0.08243007019811678, -0.16688221654236327, 0.09911330842257159, 0.006660266533096908], [0.10735120186078347, 0.103743575498714, -0.02962412071064339, 0.22728451834779206, -0.059662239226163455, 0.06170093380779524, 0.015476961592401101, -0.04875504287488085, -0.010785888150885757, -0.1360876123932951, -0.08293712036896973, -0.039912451528368274, 0.05348143691021269, 0.24947942559101846, -0.262874698102409, -0.10740365996110694, -0.2863386031774496, 0.19087936378700263, 0.17059404932768227, 0.1597335749783716, 0.04989627680454114, 0.12176810426431074, 0.05995663820650551, -0.01031958434035437, -0.15822108030536527, -0.017570833731194474, -0.12193692729221688, 0.014926020534800704, -0.021162466087392615, 0.12896075676443197, -0.037930049161087845, -0.0937090200725626, 0.001498783761281443, -0.2723285387050888, -0.2235446891414828, -0.031904469270871365, -0.12381298770520761, -0.01807364370374768, -0.07228193535691214, -0.011571392182960188, -0.06410428874076848, -0.07349402250230325, 0.11398672004892703, -0.09115484939203292, 0.05640847045751402, 0.06047043565882394, 0.0325494725036426, -0.043832292314970156, 0.021409571707124382, 0.0036845153510883205, 0.05021854802313046, -0.2792440926869045, -0.11658046336447903, -0.04130323968921222, 0.10021133762191384, 0.08650576513711515, -0.14180454940619544, 0.019570328337180344, 0.4207268696459496, -0.013759115597667407, -0.13122133155932475, -0.07511644477937646, -0.11953007825824191, -0.09754677846231728, -0.03175837016563187, 0.14795315472112902, -0.03828460077389391, -0.20228962844924425, 0.14584014817515062, 0.10088213925502361, 0.019087949646991023, 0.006867452289748283, -0.08231043724126236, 0.0729128869018535, -0.1438746436386528, 0.13111130528928608, 0.011379205085795267, -0.09087888097985508, 0.027605230058666694, -0.036110438839525735, -0.10844344109012517, 0.10177453059169454, 0.06663579236534437, 0.08100528377196278, 0.0499607408996872, 0.010349568291336646, -0.07887579453345864, 0.06658248195055366, -0.08935379217725709, -0.13107780627077611, 0.20948965589733032, 0.11370054471693787, 0.012011846803038692, -0.048865605081801745, 0.15536755761205337, 0.03605985087092929, -0.028035824591464472, 0.11288758156269647, 0.03544215815359165, -0.17409830939657825, -0.2421703104660327, -0.11692985196645389, -0.08976628329682713, 0.04462203478640997, -0.11730526806355271, 0.15959179262843123, 0.08461640084156975, 0.2027559275796978, -0.05967697190908643, 0.14168125556864394, 0.377621862982639, 0.0904248523691835, -0.06779336189382729, -0.11554333891834558, 0.06388228339005012, 0.022325541818018057, 0.02195393102084872, -0.07560156607602905, 0.043254433400468084, 0.10936289039377091], [0.015909183386780965, 0.14576667383095568, -0.23779406990673227, 0.1433130527487101, -0.15245729316242862, -0.012077670124315638, -0.05169228538491383, -0.09517174043023441, -0.16168836329389122, -0.07150342760001256, -0.026358785566916752, 0.015029056606709551, -0.055704825847193856, 0.2139042815414614, -0.19367080210812873, -0.06348481983428923, -0.10617430415596965, 0.09448015901990826, 0.0862323142762261, 0.06344380543507241, 0.0905394465815136, -0.1349687418193445, 0.1410621587237311, -0.01502128551222193, 0.26399810853577677, 0.007528115536946631, -0.09731466480226043, 0.24609099304657303, -0.12423125031186374, 0.010120524789100874, -0.2640209569605866, 0.025057741470222675, -0.11065549782488349, 0.07486422375124259, -0.06694493956969044, -0.08355358318649325, -0.33513521425182635, -0.07838586159263446, 0.10337558492390718, -0.029133699165788604, 0.061251347618175994, -0.07596467550996526, -0.09586488077532486, -0.04870708049115459, -0.010809426995407673, 0.2019745847342615, -0.02387979145519349, -0.026000910441340862, -0.1155025256737165, 0.25697035781142163, -0.10106768205186713, -0.013002310937104184, -0.0668277450414215, -0.12384858800231503, -0.10285620034814241, -0.13342433344577592, 0.0943389082905048, 0.06066866747062336, -0.04329185881009545, -0.14016182221090545, 0.13867003316874815, 0.15675120129747233, 0.14969678773936354, -0.013035716421620755, -0.08638683184611366, 0.04244153737518229, 0.10086305892934816, 0.13954894856617645, -0.032180050856547536, -0.08803219365663392, -0.004395552123994321, -0.2515418470122544, -0.11347897252427856, -0.20284960608633812, 0.022618493037229268, -0.0027219726120463134, 0.22908087666867133, 0.058648151010416816, 0.05847857772560525, -0.0044901723960095235, -0.32712122330681825, 0.12210154226295375, 0.08602910582053294, 0.011894407175083358, 0.1963143977738768, 0.12034467962647721, -0.1322133682147691, -0.10417184423396203, 0.03736486658650536, 0.07295219075846018, 0.05007548817347477, 0.10989948869597067, 0.23800404109117798, 0.01582528598458156, 0.09093885217352639, -0.2035910896198253, 0.15893014786512993, 0.09763672433110425, 0.04608547915879074, -0.11959477216283725, -0.003549396631322542, -0.0863008834277035, -0.14278588371507078, 0.014755670116426013, -0.04617528337662674, -0.05126891181855702, 0.07987796857779696, 0.2588730642842889, 0.05599338833103415, -0.006916036303476175, 0.23163966263299732, 0.042558933235635546, -0.0034126226933959224, -0.053184701065614466, -0.04071387621920909, -0.005428991143086619, -0.15074965483648062, 0.0912937239482022, -0.06981668806707557, -0.07960008424720345], [0.11796374422884857, -0.07594279650444156, -0.01859625031197671, 0.11920578552983115, -0.03169556385911315, -0.03697825172228263, -0.02295595012222767, -0.054317449526816164, -0.10035582513533753, 0.152105785113655, 0.08994778378925256, -0.23164787987267899, 0.10631533681843117, -0.30236980900825916, 0.07769529417508582, 0.024520061475220206, -0.03946385336350864, -0.1458142443521961, 0.0554021154241692, -0.11318727162738734, -0.05283392764152429, 0.10567769280719795, -0.08933440330674976, 0.008824873635973144, 0.07059361702137018, -0.07145035400951075, 0.08464452289456605, -0.029204487746131283, -0.18383956474494334, -0.05421825174059033, 0.2656338114047906, -0.1820005076714684, -0.10377296398683752, 0.22394205855011828, -0.10799938194749696, 0.2628423059717595, -0.035643752808348625, -0.14104442258821634, 0.30259068170283077, 0.01411999144411813, 0.06677949274317548, -0.010185072049194643, -0.07295230343434618, 0.10122102458596621, -0.00934177291264757, 0.2497936901894436, -0.16896495098861936, 0.10669358908113781, 0.12820462640060254, -0.11451147518852131, -0.001501116135761187, -0.009921623673189247, -0.007194259576699311, 0.06845308351331676, -0.07928429042975975, -0.1122162121545787, 0.18238660128607914, -0.19244025603830292, 0.0004223273572150987, -0.20590436385295588, 0.09644393115479745, 0.2659492338114196, -0.005544030623000431, 0.17211001754999716, 0.023024537062284703, -0.11984196042108519, 0.16027908391825982, 0.06676598806856926, -0.11128933027507817, -0.20493859838986353, -0.04372045124742154, -0.06974912031719731, 0.13546261977019927, 0.016711993505732107, -0.13936155312654144, -0.15463709122260474, 0.035907745655549425, -0.012041855849463864, -0.04965183322141945, 0.0169541210745011, -0.06584143895925286, -0.03813628489091587, -0.016950018681386052, -0.10019701383329425, 0.003838185682350962, 0.1015351880121319, 0.04066490094465869, -0.009239382826016244, -0.03128793913745649, -0.18679194154062229, 0.1587303400507797, -0.09473512479838164, 0.017788298955137206, 0.19077394249049454, -0.0532385654451922, -0.06806813385246675, 0.08649697436370696, 0.10963023984598125, 0.12282671818601486, -0.06217191729031214, 0.039470056402681655, 0.009911722324797633, -0.007137058831827084, 0.15768134375060522, 0.07253803188643483, -0.10760260127464337, -0.01389526926811612, -0.1273164202203877, -0.21822010567815292, -0.10808359340204352, -0.07978200678051946, -0.10578057213001166, -0.1284014509434274, 0.09309928647052827, -0.10687541347801423, -0.007260043100100735, -0.10101147716801608, 0.13541224232347152, 0.12747143789951262, 0.018776691376222992], [-0.12192588485880614, -0.023092458501995854, 0.023169785233276757, 0.3600978809193491, -0.13131593308366415, -0.07440468208059944, 0.061042444256270964, 0.06500466569384833, 0.04516582806467136, 0.21267866435755942, -0.10675508570782909, -0.06098917763055471, -0.05505376774386729, 0.1301936524804585, 0.0491065367180122, -0.011913510534300672, 0.17829160600783064, -0.30040796220146815, 0.016005488280826, 0.07525465681497401, -0.10621964664684688, -0.03902336778303894, -0.02924770471769625, -0.033437483218940016, 0.12191080714103768, -0.1153546855693852, -0.13163012904664095, -0.013086670619609246, -0.21249211244893304, 0.037283900831879414, -0.07535934982430771, 0.07628168531269847, -0.05409248058553886, -0.10192566441366183, -0.02273757901525489, -0.10179265417399615, 0.1799247301797283, -0.014338111274712625, -0.005367743940196419, 0.007672356698349584, -0.08533676499648639, -0.007382541567630259, 0.023431664295774646, 0.36232794151341335, -0.11329620075879414, 0.07557325955286816, -0.3145693640515941, 0.10600401403730815, 0.032133362236103656, 0.20705236904555283, 0.06426917480811352, 0.05213360464411823, -0.02956097955255696, -0.17524280764384925, 0.1778921735467373, -0.18890156787487059, -0.19052475714596917, -0.08585670320640407, 0.008870812932967372, -0.02695971632134278, 0.014643241714788624, 0.05360954271730632, -0.1477611850942911, -0.06660992255189671, 0.14381758167333158, -0.12746719359165126, 0.30317515436363, -0.15024556307851217, 0.004247699290365185, -0.1372021700709715, 0.024189006755321305, 0.17943498552888415, 0.22353431391754924, 0.09625393753204747, 0.091730743449119, 0.10880067543924715, 0.1901413289090391, -0.19996125819602187, 0.12879807252124656, -0.040257601727723934, -0.03580194993459177, 0.18624926428689711, 0.17776703201027297, 0.09630880555784888, -0.13892143151803124, -0.06382986675544224, 0.043897789383250944, 0.14144172626207926, 0.15380769635327393, -0.04007275673818572, 0.24665735945820103, 0.02343977387066862, 0.18770758844133834, -0.06701070517078683, 0.19195821144794628, 0.02673830655568641, 0.15417163866736489, -0.1345950679505392, 0.17307583491107148, -0.07096664703443165, 0.1553378252559128, -0.14302660752374335, -0.007536389978189889, 0.07758099690758054, -0.014939698199959509, -0.013280735920786711, -0.07897912138256159, -0.0729799153404691, -0.13758451933383234, 0.09865757501020318, 0.0795339777257156, -0.03266452304115994, 0.18084957844098082, 0.00536667368640308, -0.14947434909821988, 0.18848634348661283, -0.07120242372850481, 0.003057157007795407, 0.18380200631463053, -0.028879440433653425], [-0.21352897978371835, -0.16480728814493678, -0.1679073570448998, 0.5615658883311263, 0.03633534196349844, 0.050942253837172616, -0.0010845249551953635, 0.17690322162939456, -0.1250461222873112, 0.04960543852875735, 0.07378427461851739, 0.07315933988572164, -0.00599711981803576, 0.20476908969204546, -0.2058942984822529, 0.04296998723302643, 0.10883501401301311, -0.20624534407355477, 0.14702317590741026, 0.06778576342720873, 0.18170990048069172, -0.218090575182116, 0.1323758002445221, 0.023405497476472203, 0.14451704866155485, 0.10441825303033642, 0.16381468186983544, 0.02596592581639134, -0.03445801006828392, -0.09096888720452413, 0.01567779900841799, -0.04634470131157716, 0.20856724841601143, 0.0915147661876218, -0.20494642307224437, 0.023514269968541023, 0.09437017209069956, 0.06556458234720022, -0.2815467810768938, -0.0380294069691554, 0.019133014438843146, 0.08015732247122309, 0.02910737957569824, 0.2341060440744462, -0.046411888225300374, -0.11051895234907672, -0.20825595296477875, -0.45159014091018307, -0.12380160911441163, 0.18494892372352784, 0.026732638801379268, 0.13178137080115324, 0.052849116189505385, -0.07462689175152108, -0.101327306039013, -0.0651677660900768, -0.09910830717338753, 0.20238165006100964, -0.03994637186821995, 0.2896246887667376, 0.10361305048933545, 0.10438733637016215, -0.12053237761911352, 0.015144109038450327, 0.13198364625570974, 0.001940849752061999, -0.0343553234442288, -0.07258809353550216, -0.11597203487241399, -0.06654891171825461, -0.0032238183692137744, 0.0011210754777098068, 0.18825252450355218, -0.11387641315455578, 0.0034860590097299735, -0.006543553768380105, -0.006488198525640147, 0.06038439994494966, -0.09014997984799734, -0.08059404833349364, -0.193248098421655, 0.056019465971197786, -0.04510997755053039, -0.15227123572500528, -0.022190608365891932, 0.020604770167699866, 0.008437941489789571, 0.012507941539252977, -0.10077936535344797, 0.2074773866017076, 0.18725994791199096, -0.03300950774013616, 0.06255803449635368, -0.12569464516436715, 0.15193365882591756, -0.10349613260449063, 0.1574213443443322, -0.091789438399005, 0.08795247417110803, 0.014452582833444827, 0.017690157659168166, -0.06923680957285012, -0.049512045638998255, -0.07350462261602578, 0.01803282379454729, 0.1985705225652576, -0.01477579388802816, -0.10637232394423592, -0.026629625463903513, -0.011470232151195348, 0.1336000771954204, -0.03000989286204019, -0.05379160862775398, 0.16753207214974702, 0.08483402390071075, 0.1983962653001993, -0.0737343603258938, -0.005013720892161811, 0.05252372928016718, -0.002181992012605004], [-0.16176799270499287, 0.008676261249020727, -0.2815189598217141, 0.16975625076030634, 0.039833928722825075, 0.06202659562121748, -0.11754014459308097, -0.015777451114137985, -0.015063260367218816, -0.02753784543956859, -0.06817535327843106, -0.18537954162828083, 0.17048175926692194, 0.05316264413063873, 0.1697260412757021, -0.1432966764593144, -0.1602118624735429, -0.16046660991522171, 0.12489250315106847, -0.016949284659695904, 0.19807499175727594, -0.07647286091185157, 0.18252080985349978, -0.07006318803127327, 0.14614665818229547, -0.16616706854675153, -0.011995084311534334, 0.10388565474803343, 0.06365782846367174, -0.13749199130543527, 0.03172867244197902, 0.030388363373123582, -0.06772532139432273, 0.013957134665613309, 0.10428993142102731, 0.05866975069041324, -0.051492028921028436, 0.04726534125833114, 0.045553233851722746, 0.10299104624428707, 0.05743736300283115, 0.054512709522433006, -0.10907619255730998, -0.05089574459688569, 0.06457127960494846, -0.33836921234466627, 0.15425663910154525, 0.029835349712848465, -0.08826370923551898, 0.1739335797139207, 0.005193712226913643, -0.026410165872425936, 0.07854612010864259, -0.06712142430775056, -0.1929617710905271, 0.08500508953511976, 0.07250543067103564, 0.11769067332570315, -0.10543404473800726, 0.16747999087735077, 0.14702497199865533, -0.010817243503067507, 0.09391214042771635, -0.1811509192998321, -0.00797578737924783, 0.05842806854545424, 0.15878697845491746, -0.02785118188345511, -0.07020178187230827, -0.04728703876999581, 0.03693424799707944, 0.011346140606000732, 0.09035606180449436, -0.13325169954475613, 0.014186362536024389, 0.0548620607088154, -0.012706451977579454, -0.03720080707329544, -0.062254881706427845, -0.11945942097043577, -0.08710950818947061, 0.009844965394688938, -0.14154760579242717, 0.01817330685232033, 0.07791763524314384, 0.10420000524116697, 0.10638980072349816, -0.007948513654273197, 0.05550593714992205, 0.10217476566948916, -0.15645214065700402, 0.020776338064820835, 0.24441337088052137, 0.18846748264645144, 0.020253762970553674, -0.023342139530428123, 0.14594302477905519, 0.016351299615708022, -0.15942131636780452, 0.0031545424300161735, 0.015184044109644104, 0.015458750559014162, -0.05184192083302981, -0.07752742529609054, -0.02347708362269439, -0.06592613687522492, 0.05971110326498588, 0.1484513729806831, 0.054967074252858454, 0.12939407850367496, 0.06004584636697794, 0.2566488077885312, 0.09374390114250074, -0.14113475568005224, -0.08851327743788805, 0.004399540466343144, 0.21177309165474395, -0.05403142454218436, 0.026877199537236936, 0.147848156157243], [0.05920604340882352, 0.019624128502100966, -0.12052132957359958, -0.06606677161521501, -0.07565181684739632, 0.07141650774644434, -0.1677742873283732, -0.01261288669284613, 0.20922979672911587, 0.09347320177649987, 0.08579745137910427, 0.16513674679243698, -0.16795949158441306, 0.059461523370633936, 0.04186193708117149, -0.07419425648243816, -0.028201770223491993, -0.03866882568570143, 0.012051672193588176, -0.06125155459016602, 0.1076687756789059, -0.09838500165988875, 0.08781652407023781, -0.022858963903508958, 0.10720103141195286, -0.18367311342049766, 0.10226250003846558, 0.02166904407936561, -0.029647096011661187, -0.14952604167213093, -0.15953188604257915, 0.12187559151468863, -0.03022158169762457, -0.019201663793139402, 0.04073319141986288, -0.01918703430641724, -0.09451069751297998, 0.043811417792697024, -0.11368000017480068, -0.06728508886117979, 0.02630029255550717, -0.19995112962708636, -0.1688453437667012, -0.21156983998048712, 0.02855004088245527, -0.02570111975014444, -0.02813280496141669, -0.17659220249611293, 0.06290651202146065, 0.2310339637522687, 0.15773291175475523, 0.09427408494724199, -0.045299517660140336, 0.05186189883005068, -0.007912090225488584, 0.09892055451468408, 0.014608725625157911, 0.10942852077100572, -0.011134551686291013, -0.042101968661346204, -0.03953285621308737, 0.15448208422753631, 0.15665323105977313, -0.1641396766423101, 0.05742620992326527, 0.012923796254067265, 0.06487038132002265, 0.14313118730842245, -0.14559389237878004, 0.02460721810626756, 0.004660525241417775, 0.0010335117708362633, 0.09375813753904466, -0.06449224111009287, -0.05172485152845901, -0.07285665133004104, -0.0015282228679025448, -0.05528158007732018, 0.07120037201686966, -0.23725173193090845, -0.014558297731471478, 0.07388477485654274, -0.011333594605372555, -0.16772968404199454, 0.09850149736281942, 0.07795711120284, 0.0683218741985666, -0.2718901501322069, 0.09912709977016843, -0.053960532247415566, 0.04096841463261787, -0.12392885958876129, 0.1825835179642712, 0.02436404543734444, -0.09906914170419501, -0.012272466256464096, -0.13683446504775137, -0.03243454409672708, 0.12666506149736137, -0.009153850247582687, -0.002582099116237736, -0.18844935917685723, 0.09502616142735418, 0.06201489663316831, -0.012368859070618606, -0.12513563272103995, -0.029018144489144138, 0.181170648836725, -0.009223931312867582, 0.010098244984414308, -0.014245530351072832, -0.014538580370162054, -0.0006232720720747466, -0.17519073574066954, 0.009753543130675502, 0.04427984035124594, 0.014654903719882576, -0.09876990829963724, -0.07630592612122396, 0.14423824330658697], [-0.05895492459375851, 0.06061994519774467, 0.03994966723091462, 0.010133396407636722, 0.051414418094830036, -0.0014123363420709702, -0.002712296016603408, 0.001828006969091273, -0.08401535148421256, -0.007791859790205601, 0.05417990643259872, 0.026934324350405225, 0.019231036313893644, -0.013456914171916813, -0.18909696517385016, 0.15349576741564636, 0.12207216732995446, -0.043264121296506974, 0.12424074312116688, -0.07676856502984254, -0.08684363422204483, -0.13424840452259942, 0.02390346353228983, -0.008487401359570178, -0.07365705342213989, 0.021952471999143516, -0.038566397078768605, 0.008085319932792259, 0.09660229215986339, -0.12278788880915537, 0.08461822535664555, 0.01651941176650463, -0.09641815189695921, 0.11524143750866853, 0.025843619584227245, 0.07915239770192392, -0.07644521838358045, -0.19392593150845946, 0.022733366844020397, -0.005797732667843891, -0.0074599799267390686, -0.11370333571900845, -0.03725675794012558, -0.034602825402237, 0.061064511418803896, -0.16601062216654514, 0.008933570562590849, 0.054393670106041694, 0.06665196644892109, -0.02263756868604054, 0.08271893011690284, -0.07802645193237702, -0.13534207907933393, -0.13892318633092138, -0.10960768829921198, -0.08293708920123698, 0.04466545670007125, -0.030115683570503943, -0.033584289710727064, 0.10798644199788836, -0.04298561529871067, 0.12058582964877497, -0.0009999359542080392, 0.0668794022258601, 0.10540277523290008, 0.14058770295481565, 0.027405190156621254, 0.00826589271012069, 0.07831476258285132, -0.004670472577378457, 0.09260321855789715, -0.06312768947820989, -0.09794109945823667, -0.025387714281674623, 0.03358131090665791, 0.09129428140461726, -0.06311115223390394, -0.134893367270791, 0.023610046534416115, -0.14001762583057112, 0.1494867604368154, 0.0748736477381719, 0.10094821000893467, 0.059908290778389696, -0.1390082022867591, 0.1408793896805746, -0.03516487448273451, -0.13864200942327523, 0.1186641340981881, 0.10726757893025925, -0.049942815284294846, -0.041438649923454515, 0.2018011727526006, -0.011245547860874835, -0.0011481059536488348, -0.12120353771478773, -0.05433715226220049, -0.08520942823723233, 0.09293256410615844, 0.09973646414437898, -0.09932386334961525, -0.14935152849217612, -0.19732265979105273, 0.018393053361408708, 0.045551682894808675, -0.1161442438571952, 0.07136548213059854, -0.11916146239322459, -0.1588263384247409, -0.13642706393665252, 0.09282755034002334, 0.08605814410774851, 0.043206684360108716, 0.061851819303569096, 0.09415790260728515, 0.05764093201313614, 0.16432483888775315, -0.028211365219648857, 0.009226060753071365, 0.04860338445835724], [0.024217446033650523, 0.026143437563793462, -0.05160198757691852, 0.05748769945888807, -0.03389751874836196, 0.13398218308884816, 0.011002080302010735, -0.07329099867392123, -0.08595014177194103, -0.01192556586241045, 0.04676876667153023, 0.14021826359139483, -0.05651028547090689, 0.09573073696685355, -0.05668312013878383, 0.01881961041722609, 0.16141887258966278, 0.1256315390946585, -0.04071209457963859, 0.06724743003661703, -0.09669452948580012, -0.059440377511785554, -0.11752550506303262, -0.043041736814857116, 0.0003249554402126055, 0.17644243468300433, -0.061615530710287574, -0.10876617395753063, 0.04684687241146875, 0.1609220825391318, 0.0077096003680628385, -0.06859106329711423, -0.04082569229596811, 0.0007474134251143803, -0.06418862552477599, 0.03004155954164575, -0.14019526088468137, 0.13458539053710122, -0.05738115585819376, -0.015415336242570205, -0.11123227509052322, -0.05552206535767985, 0.042133569311637344, -0.02161244263962203, -0.03589169697453143, -0.07439427381680098, 0.002038203366544848, 0.020888496044605572, 0.042741390530979674, 0.05675280306563662, 0.01830881606802261, -0.11904286063539807, 0.1496010689130012, -0.005605693725005603, -0.02614461433229635, 0.08067495414130241, -0.1086879618651194, 0.02979771202960021, -0.09934457732476996, 0.09375472813114316, -0.001327610309935229, -0.03143948833888185, 0.1308972299171804, 0.004036151346552637, 0.08241863544184952, 0.04950570049205961, -0.09807317824449678, -0.00679442578521027, -0.040239446516701305, -0.097156112351388, -0.015866102957882242, 0.1278947846747086, 0.055692600649760775, 0.1011005584537847, 0.00841090046571962, 0.07864093915352571, 0.09027320544598769, -0.07803197839166119, -0.08226160570753574, 0.10341475402787834, 0.1724364831088729, 0.2219674990963409, 0.14950430275271404, 0.01530918904537036, -0.1280096334550306, 0.05404662872478694, -0.046757493175225824, 0.01916002258467602, -0.014684675177968011, 0.09467998738564372, -0.07052496884754882, 0.0006937767496160053, -0.16554948905270886, 0.04615882297510501, 0.0028490640933729917, -0.1021669530255486, -0.011603533567180496, 0.00681747472309956, 0.1401775044675677, -0.05375256676010507, 0.007969190803651634, -0.08007712237437391, -0.055621182770251576, -0.12776707928607386, -0.026735014107025463, -0.012171899094849066, 0.041266609181702406, -0.025037381396339233, 0.07986139641551829, 0.12856989100498942, -0.012273689120235265, -0.08942078400479882, 0.005967024339855397, -0.15205954735816976, 0.012426608536216893, 0.265323759428457, -0.05314816795707779, 0.06063044761068473, -0.13957159971897923, 0.014255057645422295], [0.057725823436426925, 0.059548237737592345, 0.05235701638576274, 0.021556195163145154, -0.14310442347964883, -0.026528762584442433, 0.1522070570924765, 0.091813957135134, 0.039563930925860295, 0.1988483691624002, -0.12171124256794709, 0.043489053134247904, 0.16743190413789902, 0.15517819461942153, 0.026742155348199393, -0.048825280369377, 0.09549139897078583, -0.22313319260743958, -0.0850091305492881, -0.03474461485290774, -0.07211762117360923, 0.11507175634931785, -0.13652510792680903, -0.036575535847827606, -0.0748360972469255, 0.08168894069297596, -0.12240084007835812, 0.024791313073826017, 0.00196151047756935, 0.13405953004096893, 0.22325727855318328, -0.014268850531393278, -0.040589946311730685, 0.19132231900992996, 0.17236845113212543, -0.005060963284413098, 0.35108532046676244, 0.020862438920700964, 0.014784207022949603, 0.08451927454258282, -0.018180426125173454, -0.04176932298972946, 0.023437021742365036, 0.055053746651491896, -0.09559571613247131, -0.03273590398240928, -0.14730434885855045, 0.1454896387275517, 0.09347680612122669, 0.03636738297368991, -0.1008207096838122, 0.18285631925765575, -0.03795132904283068, 0.03811601692783591, -0.025207960236956182, 0.06263969725754402, 0.07396034676499032, -0.04541858324568039, -0.06197394560592985, -0.08109561350217961, -0.15959697370757978, -0.04594914293530708, -0.08523609989639205, 0.007213758857358222, 0.060756551107232236, 0.0781669395027834, -0.04881535931520538, 0.2095515772325311, -0.02548100751295786, -0.0079978373025146, -0.00590165655117093, -0.05549558110882283, -0.005784736087557062, 0.014808858607611641, 0.0016624931635664333, -0.17073187885640093, -0.10228282004982905, -0.08775046202561447, -0.034399407847071364, 0.00816431211760925, 0.11870299865464827, 0.011023552935537587, -0.11719562271026966, -0.05662736507622324, -0.025752551375891275, 0.06582104813512424, -0.021693084178982174, 0.01960512125271891, -0.02667218884167304, -0.03035180562030637, -0.013819671247325855, -0.036910079248309025, -0.16157250048776747, 0.060357521690552834, -0.25942513856382465, 0.12352325197440905, 0.22355015699986058, 0.14462127272896963, -0.06820730658352363, 0.11794323518210742, -0.17709877043052905, 0.15517534820057644, -0.0653840775915817, -0.0015536032179715217, 0.029344093648025857, -0.09682644301344949, 0.10901475548453468, -0.004623351036173863, 0.11464427985631087, -0.03891034981786372, -0.022968197980352975, 0.09444843820851703, -0.025001117994505457, -0.050839552190632624, 0.09159479459590633, 0.05960733538796591, -0.038017478803159824, 0.09737377738227342, -0.07296637626604528, -0.07642896827443865], [-0.013631005944880053, 0.04668444121631228, 0.050933892065072324, -0.19413610789322563, -0.1516542797953581, -0.12688822811531775, -0.082021465773142, -0.30035636864649384, 0.032041946862842965, -0.06755552323002713, 0.011810388696751157, 0.04466371992138392, 0.12713112784382166, -0.10259657579676179, -0.04584990738398836, -0.06554443523045778, 0.1414478630415779, 0.0939861077049722, 0.11027309301688015, -0.04645632414999091, 0.07286311471392395, -0.030350485058751563, 0.04885716121300096, -0.007238169849716409, 0.1031865840465232, -0.10256155499875091, 0.10415888940719041, -0.021833602914029804, 0.16075425801898738, 0.0797181289501667, 0.17180149901974034, -0.047956081464569054, -0.27773922022086195, 0.0662441887214718, 0.09318468654246878, -0.06489355297150556, -0.028369204440619036, 0.014361664255058314, 0.06645111693175013, -0.035919698907498486, 0.08101351642026, 0.06300149317039573, -0.22832245450725303, 0.03221140637053744, -0.2717934998863391, 0.018799894369052432, -0.025095230825599245, 0.26086572343042835, -0.009891929575169597, 0.024971873846669605, 0.06614551919034431, -0.042085965032988566, 0.07020741780709032, -0.10021333285425497, -0.15880539192918383, 0.02198557938820427, 0.016469034305502707, -0.09403382958294468, -0.05043100174870168, 0.0754731741154006, -0.028399194490217907, 0.13128558706197732, 0.07183818842307507, -0.056218472781275904, -9.179983519241963e-06, -0.03786612981406409, -0.06408600135015409, 0.011003136277538005, 0.09002479093651992, 0.005265646125160826, 0.055717203357277895, 0.05354252389297554, 0.033153851729297, -0.14560054860069083, 0.11106852770710963, -0.12966727361689806, -0.04156894738247041, 0.09472881981231641, 0.1161269972814193, 0.016234580196596904, -0.18031286493997653, -0.07579899694487223, 0.08855807009760151, -0.014878622824351019, -0.18164742401645836, -0.040866381036971176, -0.06412907284470451, 0.17558230859729687, -0.017725123666211418, -0.03194460237907401, -0.009049834890055184, 0.015635830389522168, 0.09828491972800565, -0.05969975276011621, 0.09049411507994201, -0.14026499340747975, 0.047894334867314974, -0.14385729711147272, 0.017083717719540283, -0.05542373099885509, 0.07174101000207578, -0.19530529364746843, 0.09922951297978472, -0.14668562689091927, 0.02846348898179926, -0.02789601071801641, -0.090782168401462, -0.2548597624885618, -0.13577512143857234, -0.08693404373670144, 0.14886331482658924, -1.0110639208916014e-05, 0.14415258605436118, 0.10482726038926576, -0.026035291164518255, 0.07848748988071184, -0.09098783583740884, 0.14330825918293294, -0.01614338168132958, 0.03128506342160308], [0.13541879216561556, 0.01428151980378001, -0.13542775463108433, -0.01572732122344706, -0.15542815506800645, 0.019483578179290865, 0.010877706802822951, -0.1698595206318982, 0.19676373151312812, -0.11175798275407628, -0.004104743396258537, -0.14295004994422178, 0.059245676954094946, -0.05712349846013238, -0.09481709025309022, -0.08727152740246007, -0.19177636074100163, 0.06598473852172132, -0.21622431288432192, 0.10635747182554106, 0.025781214508608284, 0.06523380216134464, -0.04173216400268691, 0.026570966419254865, -0.03889053305253979, 0.05968829789347353, 0.0609036348621107, -0.05412813357201557, 0.011051627591359728, -0.06952593113677655, -0.01356150331966279, -0.13066387830680393, -0.13093786435672236, -0.04946545592644811, 0.11993530394286007, 0.1403685692560252, 0.0476877213399204, -0.005820182064113474, -0.1491530359339669, -0.019894595961875313, -0.001847933246309927, -0.14765096734819327, -0.15857601817122133, 0.10011481586906154, -0.16542924215584187, 0.052713792995215336, 0.11014851479820767, 0.3718347607793662, -0.08637126569006344, 0.3376370683120628, 0.05485703058209847, -0.05139264162581206, 0.024355728440540864, 0.0296568794840942, -0.051619514116777544, -0.022276544502026662, -0.0947459490355658, 0.030081240701560787, 0.060503946644082915, 