{"hidden_layer1": {"weights": [[0.0904312502084472, 0.13287679096918556, 0.10567739831005131, 0.5678277408825118, 0.21701274824464337, 0.21466694455633034, -0.07687095519057267, -1.2220480652738956, 0.2826481223184456, 1.074427494133244, 0.05711673897776321, 0.2427183105087538, 0.14003083503853395, 1.7031082848945913, 0.1093952614416839, 0.03531392323726529, 0.2685078891289814, 0.07093792098844431, 0.5974178245872268, 0.19904656969253748, 0.2709470165654866, 0.0005381320656595022, 0.14643680691355185, 0.5845751769470996, 0.39033850292955147, 0.16113136778374895, -0.20199598613709285, -0.41621504622649885, 0.31613625451131266, 0.24571685428503845, -0.5287164004293741, 0.24226270748292386, -0.08270260730565389, 0.16773353664825694, 0.28722282740856203, 0.18600372634135298, 0.03249209779527785, 0.6414373018992097, -0.38912358313168616, 0.1353988790936676, -0.08144118530448143, 0.25670669957167536, 0.106733591738752, 0.18119127669438512, 0.13216552015142888, 0.2431479611318663, 0.36807372154187007, 0.27924435633809624, -0.35545730276965476, 0.1912272599106131, 0.23768465773873176, 0.17378056358479574, 0.1767613999083764, 0.10467572629626067, 0.16914502137777815, 0.21331236638660347, 0.12144160155253644, 0.49711885766083935, 0.3443399761327917, 0.7002999149683709, 0.20326109818264984, -0.7976414689922097, -0.29048555172270635, 0.0675032792774366, 0.5327359748082725, 0.108171967084243, 0.1339428671117639, 0.22278753018424002, 0.15794823056013912, 0.16521449121626977, 0.6336652983903917, 0.36945041694117686, 0.27700771200280694, 0.20762812290364788, 0.14017398733975234, -0.6271898701051624, 0.2295737645640408, -0.44730736694726425, -0.24273194190699005, 0.488609645818438, 0.3163992116574791, 0.05951342417620459, -0.4056063703835129, 0.2431508907702422, 0.11636165217037193, 0.16612001158062903, 0.15284494183656644, 0.27293418368965655, 0.14064717348542888, 0.13057615578472395, 0.1790534630860447, 0.21614961426711862, 0.13981375823437564, 0.18898650831530536, 0.1733637499248542, 0.026470808001196514, 0.5388239066791111, 0.1585793581735241, 0.6825116354622085, -0.19215253780856872, 0.10421446456386818, 0.2126212674996706, -0.6944398193222745, 0.20386564868008097, 0.4406327383045795, 0.18184231779939328, 0.27754935464195, 0.6605269304844971, 0.4561111564338007, 0.0008606097064767806, 0.25737019304675823, 0.11061008627668073, 0.2521513548312132, 0.10335776687838721, -1.1121214063988083, 0.1780485246108354, 0.15968708860143582, 0.20322605015436304, 0.16511018567479627, 0.613708318747593], [0.489771802985397, 0.0950960782693773, 0.12977833287991192, -0.516463781547176, 0.15286291333329513, 0.2977514139069124, -1.2148892165103493, -0.7557713234979758, -0.08967191360650704, 1.233356609950145, -0.034177785774863544, -0.023200403959894287, 0.15071456289770926, 0.1979105083967353, 0.15221373953834727, 0.0450609427836581, 0.14962543303455375, -0.28287184103988394, 0.9680066032071744, 0.1958663986582283, 0.08534402640959256, -0.0704413180382537, 0.1043747547199138, 1.2327944748439357, 0.05379899505928179, 0.023514918267279923, -0.5588156599344664, 0.543040870473045, 0.13724076741546357, 0.05148645391635825, -1.526516521403655, 0.14430541377759645, -0.20710138246263537, -0.11877525586668108, 0.19098027206253493, 0.14577139591792893, 0.13165122522509115, 0.2570378397705998, -0.5510704968358333, 0.21632868240506775, 0.5727488871068058, 0.26398492297213927, 0.1339135878266978, 0.136256823017107, 0.21951547063063992, -0.015070487159119988, 0.10381277543868007, 0.26666553406258825, 0.6740300204641747, 0.08295829599162598, 0.04428606283121152, 0.24943868800609378, 0.09412316715389564, -0.04906341281286395, 0.02882486823046326, 0.0796179502096708, 0.13545695322445644, 0.3457585151330513, 0.2704249293416479, 0.2102256079816614, 0.2052757959103744, 0.5027942457684507, 0.1752890624288142, 0.11765173089744871, 1.0071101213776839, 0.08701041633789762, 0.09869705678589669, -0.05244503885048284, 0.12903648417432126, 0.22934315285691206, 0.04247291649820491, 0.08650658392713755, 0.05327844309607238, 0.17134672818284516, 0.02793141425948041, -0.030377182698915633, 0.5050596873540703, -1.2490762826342126, -0.11960436017251744, 0.3913010807000048, 0.22113519867695683, -0.009448402407729173, 0.3328475304864308, 0.20954394071720073, 0.13922389135563853, 0.08517362944046973, 0.20163109272428104, 0.43240914252884927, 0.25382456610314336, 0.13509094769431065, 0.037505510881855546, 0.0949312808641486, 0.20211635687483334, 0.06780345855343141, 0.08564987967522769, 0.6170283253441047, 0.0109404085311718, 0.07941504367206231, -0.05743081588224305, -0.7954236303769692, 0.12120913571779571, 0.21617525887531427, 1.0356417452508995, 0.15777438749274278, -0.5576624066378911, 0.1997874133956107, 0.18133816071648776, 1.6937277025030146, -0.8371875672145707, -0.17095633931769852, -0.021306703355771117, 0.1866135238429188, 0.06059766684865184, 0.22705509788966585, -0.6052990783850825, 0.11576844059832173, 0.042963697262076314, -0.2150924381858059, 0.11239963409339661, 1.3598812048497333], [-0.02267299812098142, 0.31961098154531126, 0.18938101561647536, -0.7928937722503305, 0.21457673808417096, 0.28017674995533387, -0.5143937464873511, -0.2127546518765888, 0.09466770130912404, -0.13920252949521217, -0.7453726752243233, -0.1860959670015202, 0.14207954089617766, 0.08346008561690989, 0.2682842044751088, 0.08267056862499575, 0.1679013581812677, -0.7493610913430401, -0.1203647585020835, 0.09624631362183884, 0.10868917217286812, 0.519629459912083, 0.20120725494047578, 1.891481492241496, 0.14843507133516676, 0.27017916461658414, -0.6170743683221777, 0.040059314791154564, 0.2293581516028664, 0.04431030236462954, 2.845907984473315, 0.1333722851705395, -0.672161282628174, -0.5330636912048133, 0.2854744381640741, 0.15443353802113147, 0.21603102150456285, 0.6699614570255064, -0.5040737515068092, 0.4267351895429176, 1.2758638888908853, 0.25260706312668846, 0.1880601842343503, 0.21763088736235553, 0.1202883429491425, 0.10827518083033913, -2.0418999191471485, 0.11577536811904945, -0.9193460891381524, 0.23115097206574084, 0.27052671525935146, 0.17101389240766943, 0.2404203068296943, 0.31049078727283363, 0.14694214337052514, 0.3532074258876043, 0.16366250303627644, 0.19269100052661656, 0.1729621613128808, -0.6667212147889519, 0.19825305181339495, -0.7478774950157295, 1.6426517656640816, 0.29272770210248383, 0.08847418920316345, -0.09046736140700025, 0.0404760700880452, 0.12187192693859858, 0.010120816856365929, 0.15267647466302683, 0.6384674874386691, 0.028230497026483423, 0.13185110773134945, 0.19194358836390987, 0.11069358825557109, 1.197144311813783, 0.020640008396835337, -1.4700896611161363, 0.16539725209111844, 0.9962909284414323, 0.31568973458143135, 0.08933006776985204, -1.2415696590578544, 0.21992434208570882, 0.2994607782060054, 0.23570806807344324, 0.006688719303308872, 0.8924602961605557, 0.14190351847842797, 0.18360771670093531, 0.1421665212242365, 0.29511777084154056, 0.3119123574769764, 0.19339250566207275, 0.14481141926346525, 1.160370745279189, -0.588354547512009, 0.15331716416926228, -0.6187208127888784, 0.056943747865614625, 0.18150393838751927, 0.16986811018377942, -0.7759024198349667, 0.16847669593251205, 0.593662819244355, -0.009689210894371287, 0.169036798397005, -0.17867426359992541, 0.05310372149696233, -0.13325627158543216, 0.25001168602188767, 0.23442677705467263, 0.12049044742230902, 0.2840170135186006, -0.24633461921753916, 0.17827728715654415, 0.20662537409884185, -0.09684966406548999, 0.10830458171356123, -0.2735336402512378], [-0.5811933273797337, 0.11602742439067126, 0.026074969360122102, -0.9515787095454203, 0.19028876566905076, 0.09760828043008825, -0.22428847322066547, -2.779953028391686, 0.2066099119951793, -0.34936655211647305, -0.41635884619855595, -0.34161832669205355, 0.03166096685289515, 1.117384574830277, 0.08417593064734036, 0.01875101289854862, 0.19318363163074767, -0.5114017722900092, 1.3099061501031828, 0.057417085524388914, 0.2243717873009593, -0.6436476200939089, 0.15169616956824497, 0.11719660748283561, 0.09728008236092982, 0.09992278444382044, -0.06621454667016254, 1.5442753758608465, 0.20501275365827995, 0.07924669702694775, -1.9712687627873353, 0.18010132507374424, 0.06495765701727055, -0.20564473563211558, 0.1197171328729366, 0.11582690152377553, 0.02906874912756881, -0.6438165997242888, 1.2054041089547651, 0.022993889214274428, -1.2060967493389703, 0.2666808189423962, 0.1880989138374188, 0.19735312960737766, 0.08008495421259788, 0.29072995014728237, -0.1265778602763281, -0.6358178942347523, -0.14398623917778172, -0.05990755800012371, 0.17000885489870687, 0.06889003539676594, 0.22617862223194993, 0.07746831501406835, 0.22152270392339718, 0.03577883092356749, 0.12482405804211598, -0.27905934447381625, 0.2100292205489714, 0.044866632809221194, 0.2882137666318294, 1.3842890397781902, 1.1315204543899349, 0.10545709878345363, -0.807649276129463, 0.12105766162580657, -0.027561220083626842, 0.08647243944690754, 0.06830382758393398, 0.2505011335146369, -2.7752296090970883, 0.29425069539079135, 0.031670144703383474, 0.27979305222128265, 0.2450435794465499, 3.1824159653357857, 0.7959397779002015, -0.43112421994638583, 0.5343847462725597, 0.21454203461676152, 0.16791337185166366, 0.2575671303633965, 0.2855122141771671, 0.09443341004545244, 0.10889859080351831, 0.1960111890214898, 0.19731352846614147, 0.7297586425505476, -0.004650668058582897, 0.11669212606887722, 0.2717143222755609, 0.1641917076405246, 0.144305370576884, -0.001670783294727207, 0.16056815391674895, 0.35861524198284234, 0.25356002021283747, 0.07245387210303159, -2.0124882559577926, 1.1312378612858447, 0.21959257988910158, 0.006460881954634336, 0.8806019961850426, 0.25955854780577825, 0.9744210516288382, 0.14396968208251457, 0.267170906171334, 1.5256519650314264, -0.47389738966230915, -0.2701127160857338, 0.23617154138579005, 0.14751067444143523, 0.25769939763190525, 0.17305621687356285, -2.1431371038435576, 0.14360427069740003, 0.11402830143409749, -0.15298298961316406, 0.1613530148966081, 0.9233475626818578], [-0.456472763939748, -0.03605034209408229, 0.24054282063359397, -0.4313598200367091, 0.11332108447603843, 0.23554438157673369, -1.0032935666463505, 0.12217128273412671, 1.3601248003341277, -0.5310025397371767, 0.497647122663642, -0.25552954422610014, 0.15463815586122728, -2.30754441986864, 0.17285009735569967, 0.11376461362560203, 0.26668537551224764, -0.13827319235214908, -0.004720860125567717, 0.1482178614336434, 0.11366952121882189, -0.832028440713877, 0.0767365802571471, -0.2886121681969694, 0.1250426064690497, 0.05102092604376003, -0.05363571584612914, -0.3793212714082522, 0.2189010569967185, 0.3293445253132932, 1.1184218215221042, 0.30668480400230447, 0.31764700726690626, -0.6139472971033396, 0.004588740585474669, 0.16955128073260678, 0.18806500390537154, -0.2306509726340636, 0.48389629296511855, 0.25296754027135004, -2.6639975228199617, 0.15341044045994798, 0.21999628508463062, 0.25655655174523206, 0.1698613546852517, 0.0876564804984804, -0.41500101058049615, -0.5238963644775936, 1.3967457564280223, 0.21340114659006557, 0.2919042423408195, 0.11379584819712929, 0.3312028864093517, 0.20042126864218796, 0.1669978302867704, 0.3643215555281933, 0.2567522090861954, 0.01411779331985611, 0.10653354417339776, 0.8427137783554026, 0.12039397984859344, -0.9027255628406127, -0.1164048754947016, 0.2394420466671193, -0.6797993969437867, 0.09008642586956332, 0.14229029063323967, 0.10706902823549176, 0.16213900220410107, 0.17957438321038524, 0.9536680031765743, 0.2915957808091141, 0.10897401743128558, 0.3204793364750879, 0.05085562358760802, 0.8525635905360427, -1.1795176412265542, -0.7124647784965568, -0.01870510558423894, -0.1460186267206279, 0.3168305849930947, 0.18608724122165612, -0.11345492655397861, 0.34326617655978037, 0.1742844200391131, 0.0911100817369546, 0.21339034438407883, 0.03415914625000955, 0.11855015425496865, 0.2700991529542494, 0.1457396411037949, 0.21409276850350886, 0.15709520557589032, 0.3072232241078507, 0.19052853911463857, -1.9740781321740335, -0.4897138619845198, 0.13216507105090847, -0.22368703099221224, 0.7613726499430266, 0.2829711930320588, 0.29094383107767396, 1.4836875678491661, 0.23687339273557492, 0.43353451123033615, 0.29991988320709934, 0.3019301915059807, -1.5014790584423106, -0.5249975168090889, 0.07985120853786552, 0.20976101725395602, 0.13155688440132388, 0.030696499727912302, 0.15455527346629594, 1.5032803568672548, 0.019341353663843572, 0.2114040131570582, -0.053717128197215, 0.008010471865476725, 1.3268181587771353], [-0.18980355308792246, -4.7205541187099054e-05, -0.018186392866621895, 0.8884760118066141, 0.08553649904637266, 0.04510654746523768, 1.2920112157294665, -2.0291562338335916, 2.5696747023842526, 1.0343428946967252, 0.3538239657285936, -0.4030255055569308, 0.11150770721975387, -2.114106651110856, 0.003165958998034213, -0.01907103201348737, -0.028615495591979047, 0.38951735687083433, -1.0965908565777636, 0.05039289962877312, -0.06545891115100423, -1.6828292179819062, -0.04071079987986893, -4.580175306616871, 0.07323834594221336, -0.0027848979560480087, -0.1444826815342274, 0.5527755557496918, 0.023761812700422047, -0.022679859647782796, -2.8009568801531417, 0.08744456024180389, 0.5436225901212883, -0.1177874701066218, 0.1309316237618539, -0.017847478715503656, 0.18448181451427356, -0.22601814825814648, -0.37018712486355176, 0.06154911063894443, -1.7928536947409774, -0.014134502599871129, 0.01924743161321381, -0.016236650259097977, 0.09903911318350946, -0.03958872439632238, 0.8244489774695652, -0.933540480300795, 0.0960657221963806, 0.08916265240332612, 0.05495775863420068, 0.18702806793652246, 0.08325170731136698, -0.031087678600641905, 0.11025202448835578, 0.11021430711361582, 0.14020445737143974, -0.26353817018906145, 0.12834250929582877, -0.004908782560967575, -0.13636164839373335, 0.26149680642389245, -0.011183783440303538, 0.15039324258406658, -1.597211450202671, -0.01296730381266434, 0.12256648862939606, 0.06249924575671282, -0.04193318684694475, 0.01791761100032038, 1.3144400381424657, 0.07445308350084977, -0.037248247128913003, -0.04136942547206519, -0.10488443109694338, -2.2338212179410104, -0.09112964159627159, 0.2860769706225771, -0.411026782879547, -1.7038816828825203, -0.004866926728229819, 0.12993340260854971, 0.054419764052387666, 0.6802882983392314, 0.12715405126945412, -0.06854951798562604, -0.015252573859472249, 0.9067161968427193, 0.05148775077727981, -0.0029129065449885858, 0.06568972184638754, 0.03754677960479862, 0.06390327437425254, 0.06082019276648963, 0.014151132966637715, 0.7427638510374028, 0.4075656153117777, -0.02816815583036632, 0.7146742339457866, -1.6968194665735512, -0.1226258705259681, 0.12155638711518627, 2.7930079574443663, 0.0016077953290556267, 0.8248331981822125, -0.06424505068807197, -0.0591599679982492, -1.452980659663207, 0.6538736689998838, -0.06445566397790171, 0.12196667409680485, -0.18549528084944783, 0.10832526143203047, -0.010212667502993603, 1.5566548679553363, 0.06016337814749249, 0.03070191418798525, -0.22000720804226695, -0.029387014855607154, 0.7129227337344398], [0.008148903800276774, 0.24050803368997672, 0.13698610097655986, 1.0209088752693216, -0.11927061481227381, 0.2895342751769095, 0.8539642310273732, 0.1808498664783871, 0.7453584007188264, 0.29888852237673624, 0.35874769323067185, -0.08016757708639417, -0.04164931313623584, 3.022018435845213, 0.07677415566848977, 0.12175935460429357, 0.27638717636295074, 0.23687184255104407, -1.474944138673994, 0.3230665275773064, 0.2138209903274153, -0.08039910786729292, 0.1945654944228473, -0.927589226875761, 0.18410125560668772, 0.13752001678854495, -1.1403252424412564, 0.5148837294730859, 0.05731129683597783, 0.22873193320504911, -0.6306118193750169, 0.011848779639530063, 0.500346664799682, -0.029362258697773994, -0.11195508658854984, 0.17610837341636476, 0.010425462689012923, -0.3186893161685014, 2.064128248077576, 0.23418080564038707, -1.7566027568748936, 0.1235339937149337, 0.20201559093470203, 0.21541598268893836, 0.12364054554680552, 0.1772939564347872, 0.5380925616448774, -0.5297943660481479, -0.6725695570727197, 0.09678801324711393, 0.19119961001962782, 0.09816721534940825, 0.17242631495132146, 0.04399600433999069, 0.18668651791885243, 0.15306882986391027, 0.22479330491879965, -0.1977016295815481, 0.009629098068998747, 2.2706030409134397, 0.17456037371945357, 2.560398074986306, 1.2839220047713356, 0.10490973709648255, -1.9541595941617562, 0.0024142496299255534, 0.14656132037052622, 0.10844747398133926, 0.10073151882929988, 0.20073307477084, 0.4977395607790911, 0.11021959722627041, 0.23950768757802102, 0.14979569904954798, 0.14525589650751897, -1.2406273379434252, 0.38924071230674356, 0.43197407040915237, -0.007406067266972092, -0.6425873265246128, 0.2519510831122581, 0.35456748198334664, 1.482294659746733, 0.4354077955704076, 0.13280864907902795, 0.2870873841777824, 0.08869491729546151, 0.2033981194191832, 0.15560796545182093, 0.1509240548182452, 0.08246509371070497, -0.01182505211230419, 0.10481322371205655, 0.12045334300974019, 0.19417279591321468, -0.4373411393622696, 0.24237122567637187, 0.14099125847739014, 0.6865512706699415, -1.4197748236299, 0.15019856565136736, 0.0931254187306027, 2.3029652281964688, 0.1840339963989808, 0.10008749996924617, 0.09411358311427621, 0.20543461954438805, -1.8147557094115034, -0.9596394577873569, 0.10495456487370082, 0.02983647248435034, 0.1270000007914631, 0.18457861012948384, 0.20754614167487925, -0.3112309844992693, 0.1314684522908654, 0.08881102642780482, 0.12822231752233254, 0.14044760694542188, -0.6636369166621422], [0.39122042695007264, 0.08843056851042269, 0.2079969222469917, 0.18721717065216412, 0.20042530428982344, 0.3753605141490115, -0.21413507014431205, -1.0730423264213673, -0.5846171777226176, -0.1522799082787984, -0.29708867363448493, -0.5700723738312752, 0.17795933056491003, -0.3074065521711044, 0.3069122458058396, 0.191548535272959, 0.23874599915697983, -0.015429702525384288, -2.384828084104151, 0.14744046056056273, 0.20030401023480182, -1.5792640778084084, 0.1660521970090603, -1.0703827727089952, 0.30684817558897676, 0.25576089399915397, -0.25370512646115484, 2.2400783950211935, 0.20510565357930602, 0.20595346681308765, -1.0663907959856962, 0.3085453709049222, 0.759724562612319, 0.2690927510739383, 0.20723922009206913, 0.2245845373217214, 0.09214548420290233, -0.655742749599791, 1.2625443050149816, 0.3681490230094992, -0.47253592744368067, 0.24249737753323466, 0.20131245549303203, 0.2235051683608399, 0.27422734545629673, 0.3155446623036205, -1.4753043260916596, -0.241172635921839, 1.239031292882631, 0.29781609053983626, 0.2694838882471465, 0.3154051617484756, 0.1844768249399467, 0.1252269617174175, 0.1829400850500537, 0.2739165611196541, 0.03596447039215832, -0.17238599471959945, 0.16304813428372664, 1.0298462403123534, 0.2545921954510341, -0.7035662681896314, 0.02070519079363681, -0.11724482758344665, -1.72749388276606, 0.1679950073646493, 0.2530555883200655, 0.10710750049787131, 0.14057520678447674, 0.17373455496486082, 0.2786922429615515, 0.10078339854966271, 0.2336507220912971, 0.20585835387096493, 0.24340404983427816, 0.016347079224274145, -0.8085162709974214, -1.0807787086258442, -0.14002345468527935, 0.523610885136124, -0.002402431244819577, 0.3039871664960495, 0.6238996268439704, -0.25186300347011475, 0.143663765637928, 0.09241286116408619, 0.20634069112903114, -0.10141277317068827, 0.296256903495336, 0.4619980248013075, 0.1681527425801596, 0.2665666691856057, 0.26404297554087053, 0.21151686829141472, 0.15762232802597348, -0.23923876916902165, -0.8370622683498864, 0.10655575914159451, 1.021410768681244, 1.236997599131936, 0.3778208225578335, 0.22331477334125358, 1.0734033713426876, 0.14384090632985866, -0.29946502938785535, 0.14692995471019035, 0.2258049108159181, -0.710891085021481, 0.3096087318179724, 0.09490442362386405, 0.20635682735974076, 0.2295228053071749, 0.17231293773963496, 0.31649002507711493, 0.8438133921058506, 0.1023724971726589, 0.30389333771423205, 0.16996707727246937, 0.06808453759258982, 1.5664984489637734], [0.32059863467795324, 0.21401919164517205, 0.20831918729240004, -0.35240137513371755, 0.1686026265939842, 0.010002108781374457, 0.5442938874290446, -1.4741590590965292, -2.028975214715208, 0.8561284213387024, -0.5205494337568384, -0.3821127341295257, 0.24982477140529707, -1.9691564612001726, 0.22186599984930483, 0.20544352891173395, 0.08312198361158527, -0.528041362968214, -0.7340145464127956, 0.1882446645457777, 0.05455182136108613, -1.645377374523441, 0.167562004022389, -1.544402070266152, 0.22000578550497124, 0.07000518901095051, 0.9692980572711941, 0.7301932227914232, 0.06816040146306607, 0.01585083560378765, -0.9827323241175018, 0.08130212208474231, -0.5958620128078715, 0.5158247993362771, 0.15362877981641954, 0.09190720222146166, -0.034201118718948764, -0.7793154104250373, 0.2254304315139425, 0.1231531418944594, -0.057823467188102044, 0.15350935632964915, 0.15665373048847744, -0.10517825343225501, 0.03995970064547481, 0.1781884004815095, -1.637953683361481, -0.6548135944507587, -1.3942822485801918, 0.15013390755330516, 0.0734738323056532, -0.0036430455183121273, 0.07932173789979778, 0.23836282084935928, 0.03736741391759082, 0.12035330408519074, 0.10258983223761, -0.1854490773162241, 0.2350903658767232, 0.6542411921384959, 0.2117389545557455, 1.607247412664228, 0.30931831136284665, 0.16835981574264627, 1.0580015311967952, 0.17593872703445737, 0.19581027039188953, 0.2177993833406756, 0.21271625841931385, 0.017433014833021735, 1.8836446905092255, 0.0981665502381522, 0.1411242858163518, 0.10073941282799084, 0.233178909883151, -0.7454301468392088, 0.8251906266509481, 0.10587184265797653, 0.03741272078513361, -0.4037150709809614, 0.14831014259166367, 0.10817668531036252, 0.6229962095826459, -0.5911038293499661, 0.011794766478615527, 0.007449720970786764, 0.09844181189847363, -1.2267734193864703, 0.20325521924045564, 0.08036593145860929, 0.14224655231445765, 0.17733827890721968, 0.06778105232642749, 0.2413412400874149, 0.1318660875760992, 1.980764284443738, 0.9763121003795246, 0.14526406453641644, 1.6306001881834316, -0.017332404039676414, 0.08938061959617538, 0.17631400445877535, -0.5090406655214291, 0.44146389774542877, 0.31991588025149065, 0.13756625064053804, 0.23761079233268126, 0.23125298418330864, 0.5538890239860371, -0.04294793752936505, 0.19673853546838455, 0.04812677856846249, 0.21032153844461088, 0.1136502923194693, 1.862326519741558, 0.15164700865314204, 0.0299025901156819, -0.25859646992003427, 0.1987624851856439, 2.3827845837825468], [-0.11547179213417563, 0.21749579008266937, 0.13612683921300203, -1.2241187215938594, 0.25608512940420824, 0.15397540320168068, 0.13294848539386145, -0.3189274528165706, -1.031544327143087, 0.3742274105649791, -0.5176121914078247, -0.15823748108440883, 0.1359592207652398, -0.42021789727129605, 0.19242722102914156, 0.12928225057550508, 0.14137069985607978, -0.4247143185795713, 0.7731728756990095, 0.2666493874905867, 0.33821993603393047, -1.3959527097830193, 0.3125420352729234, 1.65212804870049, 0.22709967135307418, 0.13107889754228622, 0.2326738885350274, -0.2714446410327928, 0.1118547587020362, 0.24664313957248254, 0.07148175383725348, 0.21809977584333531, -0.6305500782760147, 0.5216533335456696, 0.20626507266360466, 0.1171892177611815, 0.1471133752881806, -0.2544764144496161, -1.485329015918319, 0.24334993600919347, 2.3290290744104007, 0.11564224105789414, 0.08124626770925648, 0.14603381715508124, 0.13821055318566722, 0.21748257882307595, 0.7952555730406979, 0.42580731430044266, 0.46688528829875253, 0.21739168727515903, 0.0781759563075497, 0.10811771055574831, 0.22082510987196516, 0.01781281734719897, 0.35271662401245546, 0.26395535700955947, 0.14764845302123186, 0.037219453776097804, 0.11950447965236623, -1.8512986659185782, 0.10267038667144691, -0.4976634970465076, -0.8887622950252585, 0.1778292299550245, 0.36556527011500695, 0.02537711781715368, 0.04914152993852866, 0.07426865224000463, 0.02733069619680612, 0.14973847705365448, 1.7251793070278916, -0.022325710899796843, 0.0903581812672465, 0.05070493227343196, -0.022256925573913497, -1.0903521551175408, 0.5882295994907816, 0.17396358608432783, 0.08935302669959048, 0.544978566955067, 0.17733446636912373, 0.0686972542502443, -0.08750370670832565, -0.5051512111993708, 0.0811063105089574, 0.16426954185574047, 0.11016846184594477, -0.8136088673205653, 0.13894433711372872, 0.16238026261266894, 0.05975525865022068, 0.17347517758848804, 0.22828427030358692, 0.2133506250006524, 0.15558991846425346, 1.0599614558025987, -0.370297026806674, 0.03614482248418126, 0.9652280682470524, 0.8485271981399204, 0.06158134258569926, 0.25761900362361334, -0.434504971632121, -0.025550726803736528, 0.5555260878092135, 0.10427168355340548, 0.22420658947461383, 1.8151124710191262, -0.8086457633365992, -0.0349389763745736, 0.08375418696280322, 0.2647775012385683, 0.19640921448671333, 0.10899328740970426, 0.5825568141659911, 0.23414797530578305, 0.1398287693298892, 0.0031296063681692013, 0.16243605347303128, -0.38325384567856186], [-0.15914192684323553, 0.1377825474156654, 0.09095672689544394, -0.35986509728632204, 0.25578133891240296, 0.25382404853706536, -0.21114970442362907, 0.35374125453355815, -1.0248063628808572, -0.06509024635623183, 0.4317267401255657, 0.31487416467837664, 0.05702088831725844, -0.4043497947920422, 0.3485197993581533, 0.11520264264170232, 0.24569309565571187, -0.15137325403741003, 0.7975759416461099, 0.20378503235061834, 0.040951688754971564, 0.6132756827307041, 0.09706814802236836, 0.16964381957201416, 0.05458968374238085, 0.12981089258845876, 0.5669012114242088, 0.6719295059542048, 0.11981391214157555, 0.16690943168551955, 1.0392113199712747, 0.07591832165613224, -0.4574997833197057, 0.2485946112234563, 0.08666241977768117, 0.07449804644473491, 0.23066416508223128, -0.18438579380097492, 0.01959608089397061, 0.16608937287739434, 1.109388793456082, 0.08370410851990542, 0.14483218386026667, 0.25300014867213444, 0.13202162408824714, 0.03890560631570014, -1.0153435622821256, -0.32438711265685355, -0.63494315224659, 0.07264037683351086, 0.234814868758062, 0.1843756100161598, 0.2443894793466521, 0.10538066318492893, 0.020647528948402386, 0.23512045485746572, 0.08801213541916561, 0.535300015036521, 0.19920969325241064, 0.7033533761481112, 0.15727313549764674, -0.05733986053414661, -0.9036203919522885, 0.36660921118664397, -0.22632054686879477, 0.12425119990130812, 0.12263798161243983, 0.04508144684197315, 0.18098942921174535, 0.17213682156189056, -0.0746604344911257, 0.20054867919743838, 0.19166116141565112, 0.04200874624965254, 0.23255032749192553, -0.771491841067335, 0.27445682705612856, 0.9001590055685702, -0.26297303899134816, 1.4722760004920548, 0.1806750714451614, 0.04632686197215977, -0.5802636706671745, 0.030981778581345026, 0.015561876330699772, 0.1990999426710311, 0.24339770557184925, -0.08645957492495031, 0.13120539794701808, 0.31510493213527496, 0.2017505898312102, 0.17489550841107135, 0.1960940256584829, 0.09023202987166874, 0.04760321818864522, -1.347420520530577, -0.1309438220637663, 0.05682202184813056, -0.23070966872614432, 0.6229099444163343, 0.1586207136625598, 0.010528058085801513, -1.2399331907886508, 0.1486072689159296, -0.2925468798024181, 0.16892405397341417, 0.23662734165352242, 0.0197445555888142, -0.5870337958438169, -0.037781366451607214, 0.1927190497546537, 0.10995142948188458, 0.1084165603144262, 0.24159017406081282, -0.8178833390376838, 0.12584332716936047, 0.14954867439582936, -0.07553276344667638, 0.14473203992342668, 0.6897592663874955], [0.4301862262675896, 0.11261095039241664, 0.3070489948605511, 0.9618532270868027, 0.420355184204808, 0.11616682180666972, 0.09957609397112292, -0.0465448294542009, 0.39349711008339183, 0.837075733620765, 0.9950452814220505, 0.6606436949224679, 0.18423001412859596, 1.4673766610481396, 0.2293553654339433, 0.209056903251863, 0.3027420757167701, 0.18115827024064757, 0.44161192186108494, 0.22887208926346644, 0.2030977411410711, -0.5577287648766504, 0.25466258867958363, -0.18804843095237406, 0.18721707630792017, 0.1963818069294094, 0.6886898027349205, -0.7783402663069459, 0.11847071809960161, 0.2108429459691066, -0.8936556538848605, 0.14730816235678448, 0.14861351623279417, 0.3098792228164992, 0.285488868258794, 0.2472163277363128, 0.281108316943267, 0.4858219457915162, -0.10187900034775596, 0.18417134755244635, 0.1359356382134163, 0.3342215144329638, 0.1484528875919328, 0.2213057455379931, 0.1311331583718714, 0.3011778347228821, 0.7906724321173745, -0.08644326644739203, 0.18444827761697352, 0.11987677996403297, 0.33303040995248373, 0.31510996729096524, 0.29742486717341265, 0.13937534666843449, 0.2972878091827852, 0.29913969898242887, 0.4369657237636463, 0.6882706023420002, 0.2763838713465831, 0.4144886786231592, 0.31919705519557684, 0.2571143255280276, -0.4728042471913495, 0.26818623886998594, -0.6095916496955512, 0.06256457328944452, 0.3215261879199951, 0.09968791368086723, 0.3294822815417479, 0.26767241413000853, 2.473198114097212, 0.19428951177359513, 0.21125837537550848, 0.2912162702763068, 0.3998061250898642, -0.18577023720252656, 0.5235907529919719, 1.1292603758989723, 0.07362948569030732, -0.1474454839538558, 0.2306435126279873, 0.2589862432627734, 0.3553620311325505, 0.16300675803540338, 0.11355138089130178, 0.1790372149531414, 0.21668553632839965, -0.045212128371520326, 0.15953162676470162, 0.42695122727541873, 0.3689845308132542, 0.15121587360999214, 0.3613426450933073, 0.2794489289765219, 0.32448387736768175, 0.2579513182501053, 0.43760330797930735, 0.20586802019612543, 0.6627962836284866, 0.6452756862563712, 0.23222132885088698, 0.24783180776435207, 0.5787657457515623, 0.4704974014436494, 0.6839561332253267, 0.3083663916570372, 0.306490846204322, 0.3940199451315079, 1.241151049999625, -0.13404530796487732, 0.2540559650819847, 0.3970883072041376, 0.1001135637608205, 0.13040552191640312, -0.48832972910446165, 0.24575080758130055, 0.38326874082379786, -0.2880345800925167, 0.2714079253229705, 0.035883433962134156], [0.06874386199951052, 0.13093480118402087, -0.08252989617410438, 2.1858997897075945, 0.14539770845613295, 0.028654154079400782, 1.1721152247243591, -0.060451511698819335, 1.1867268637649158, -0.6299463649178607, 0.9464861930490334, 0.9164946657548008, 0.3322202114005435, 1.493911777659564, 0.10706444594318748, -0.03330852720218214, 0.11365254357629972, 0.01608316559742852, -0.00013388924189139615, 0.04399175528613025, 0.25785406193605526, -0.16157274228448282, 0.13385724086716813, 0.1372122631760354, 0.25003628833677866, 0.18760678561656832, -0.3185941229287905, -0.059704336125388, 0.01749945537091145, 0.31560620142618373, -0.8742285446796697, 0.2232145410649289, -0.020745789963621218, 0.02062596181315826, 0.11463685450891518, 0.20207439769194763, 0.10013699989608998, 1.382666161214492, -0.4476993490326505, 0.22200167607798982, 0.14668731951812686, 0.044326489673281316, 0.18095977269874594, 0.0462234787138613, 0.1950022767996739, 0.2165678648997876, 1.4227214440917575, -0.10236461493043272, 0.3005404308828438, 0.1358957565966005, 0.18115443555916771, 0.13264080108689677, 0.1271280213154099, 0.10192731240379459, 0.03885210403787045, 0.32167197328504865, 0.13130711394076308, 0.948827682837093, 0.14001638807205927, -2.3696390587984637, 0.37009398336519284, -0.6520421884600894, 0.2990272706272726, 0.0693881685360152, -0.09318146502185203, 0.020312444635057648, 0.01364884372225911, 0.024740806242602623, 0.20793964006537508, 0.015845975856470282, 0.49632965989072886, 0.1392982936646068, 0.10341744690053294, 0.2886673418513124, 0.2727400486063998, -1.6231045958933503, 0.14292853796076038, 1.1501167753069126, -0.22117414256976553, -0.6459920125978481, 0.17785631751007966, -0.08033863890157279, 0.2978557039280274, 0.044167055227175456, 0.14360411350305707, 0.14427764667000453, 0.044675559587576526, -0.2586033209881895, 0.04077611035602685, 0.14165877335561852, 0.11734919411449236, -0.005257429454563954, 0.15598434375203876, 0.18043373428893553, 0.17080138210024798, 0.708170942907703, -0.603664500854857, 0.11175945179309602, 0.5333368240462673, -0.8049290023688404, 0.15199333316979857, 0.10769673501102806, -0.8811012776500557, -0.022816753537391776, 0.4503294484041205, 0.1360509857144899, 0.13838364024387648, -2.00139443536864, 0.26661003193025473, 0.3467915512563499, 0.032038510826228654, 0.05684667189292627, 0.03932385265696324, 0.18532852324793983, -0.8069413651477026, 0.22499529577294006, 0.11261160183975892, 0.3064063229269996, 0.06321457276158811, 2.1653497398036707], [-0.162156922440991, -0.1758519315722025, 0.0119847313443322, 0.5262208301709611, -0.034681977038024524, -0.04754738744994299, -0.2848077790543046, -1.0338065581395743, 0.4431665613468857, 1.3080084672556278, 0.16616965013198637, 0.5480639644483793, -0.09395525838179622, -0.406551031399956, -0.09394301057630963, -0.08973409284672212, -0.08683995335066008, -0.7244372837808822, -0.052906124923569754, -0.04028318136442449, -0.059431701500674415, 0.9723045203553898, -0.007267463397958835, 0.5119989849047292, 0.10369582199071002, 0.02287158666486315, -1.529599566982723, -0.45700570885090397, -0.09540906857208875, -0.05467950432985574, 0.9563321562818138, 0.03681201769298572, -0.21933324623158112, -0.45181338504211604, 0.10525436249054003, -0.057340612901735984, -0.05381951849299356, 0.5307080123771346, -0.49609989576665703, -0.15523542553836306, 2.369073267901962, 0.093367679781931, -0.24810396591929448, -0.10571742461873135, 0.11992223971032365, -0.002839047131604719, 0.1732696082373107, 0.49215389613193766, -1.9997957030444187, -0.003737450321697076, 0.008716235629322, -0.12650331397159226, -0.10964165044326492, -0.03953596639183083, -0.1255685969424173, -0.16235607371669628, -0.032161793588303456, 0.5527569359202503, -0.06660273797116031, -2.104937454519892, 0.04365938402363563, 0.09430775652995615, -0.4131544027043084, -0.09446710808393716, 0.9789404456402976, -0.13991969138351926, -0.09847396021155003, -0.17571743635440085, 0.019518251591710604, 0.0010601091418892753, -0.4895021046656082, 0.0038564272007947085, -0.18094745662623254, 0.0014334136231967832, -0.04934340104047644, -0.772169387604623, -0.055655384534490336, -0.7592007402987329, -0.7871031872132446, 0.3708365058744505, 0.09169006486454259, -0.06996199189758531, -1.7648023429564164, -0.12380134282082074, 0.0018723027912207703, -0.02309914771376862, -0.0692226823654878, 0.196064391473755, 0.13369079537979128, 0.0144004244498213, 0.033041930208970345, -0.029735995139971112, 0.028146380182557173, -0.019766105843431386, -0.05007752538453964, 0.15397523346610623, -0.021034626511088488, 0.012457150883411993, 0.38994150901830904, 0.6035450168640198, -0.027371048294648228, -0.1304832866385383, -1.2683080415136048, -0.0786446928095179, 0.8189452018429545, -0.029785153261809427, -0.2721749912365577, 1.8209009326649623, 0.09047157525824302, 0.1869690509506626, 0.002467039085271618, -0.1243036538972393, -0.1598621115167953, -0.07583045366159089, -1.2146139624738954, -0.040091377692702664, -0.10634839613420681, 0.16472190547330742, -0.032120092970787315, 0.9850830062452971], [-0.6442855241025068, -0.11161463173323935, -0.001253275130324914, -1.142743087678687, -0.09130513896484906, -0.005866993077917929, 1.937989101137626, -1.3770848950563708, -1.899040046194627, -0.5118205468984706, -1.009047736546555, -0.3338784418411716, 0.018792515118455148, 1.0891365076829538, 0.15401435559172083, -0.0377910122758799, 0.05038890631283661, -0.9783134965586638, 0.07522602355692048, 0.05265052107571799, 0.005453946017087129, -0.7102256555500405, -0.08389046007214544, 1.4716362788159694, -0.01657965107514083, 0.043753886263222616, 0.6322838783132164, 1.9542348408742949, 0.012281681705479035, -0.05975581008795557, 0.09005283010988065, 0.1066604725715846, -1.187458901618412, -0.17034620732019082, 0.0024099632679962075, 0.09516373037870433, 0.08402670450249852, -0.3280331504282029, 0.356968932925967, 0.054102538520176185, -0.08101256445977989, 0.028676311727454756, 0.020015105017696273, 0.0705263641002182, 0.19656160301534442, 0.15097446740488482, -2.603113812156773, 0.14258580986975464, -1.1169342181715358, 0.025870680132153323, 0.020214058906677063, 0.04945701826930659, -0.021179231410604082, 0.07702399162171265, 0.0210736832405173, -0.018574203407742067, 0.04625075282902755, -0.13234505525654686, 0.05064746423656079, -0.957455668305953, 0.10607079156915585, -0.16512263146846412, 1.5058083705864036, 0.13053495831378067, -1.172600665350182, 0.08192070244599496, -0.05360240421325596, -0.03496362060000153, 0.00457988699521467, 0.08753397704948077, -1.1093191619954184, -0.043705784362501936, 0.052851207735945274, 0.10562556872378759, 0.051263316899047034, 0.16376239796245418, -0.029194769015606168, -1.7237979437194157, -0.7862019699306366, 1.4759303474296583, -0.06401515695184858, 0.025324415292638458, 0.057539034919875415, 0.1440700325657355, -0.07403492511359412, 0.08508401533637687, 0.11108442483715476, 1.1729593734743575, 0.045001676213820466, -0.06829643661951579, 0.04309362863985123, -0.06864577110365395, 0.03633600232798073, -0.046027565320360286, -0.0162207408078487, 0.11086119283816803, -0.285455997867724, 0.005492820012408835, -0.3358207440721722, 1.693431850694649, 0.17549441676576993, -0.006954911636258248, -0.06307167257932152, 0.052559407738475936, 2.0141112638013996, 0.010073410228399275, 0.07003100829322356, -0.07442454998563935, -0.3917457278097331, 0.41422407396071054, -0.15897467249337877, -0.03197451054007603, -0.024669748271995362, 0.013300880250434119, -3.3511489518654654, -0.011272382742652173, 0.008019109364960308, -0.0024169937800649875, -0.07356486362482804, 1.6401124093275792], [-0.5628543879939459, 0.036109007029340515, -0.04912174204114203, 0.41834781676932437, 0.09464626012032458, 0.11145303110456116, -0.11038773630875089, -0.6801412848575089, 0.4041846550430813, 0.3599702718929879, -0.4501830232178086, -0.5269237511200549, 0.043494594646643465, -1.8731128156520045, 0.0399999487490414, -0.05378835905892804, 0.00527075435499093, -0.44733686652820315, 2.0154312716131066, 0.0008528482802439914, -0.02813850175466519, 0.7856146648162553, -0.09068698994484752, 0.7631711123178812, -0.167693677621632, -0.10152084643040604, -0.3871544298480659, 1.5521972185470163, -0.04957486304613607, -0.03683653323421943, -0.12995186255296293, -0.03890929367874663, -0.44684618048087205, -0.10368551080481582, 0.0687217188632336, 0.048415797310208376, -0.08779744141051404, -0.652337400601994, 1.333349007702351, 0.022115065727943257, 0.38666444136559774, 0.13189668616641373, 0.11828979008854927, 0.06309362887837461, 0.09765626120845246, 0.09032519650148271, -3.374411274855644, -0.7133816514290472, -1.56281438485541, -0.026335812954385668, 0.09687762154175834, -0.01433717750751266, -0.0993193063396108, 0.03674601494117404, 0.15876993258554678, 0.12332782120320676, 0.11817216241763867, -0.6240338051179644, -0.006005009337427271, -2.1333173680877704, 0.07346632185528286, -0.4513361543174434, 0.5819669281741886, -0.08555858447844578, 0.8923363860447654, -0.0693229713597391, 0.19823231438919808, -0.021212480513344983, 0.16962099562399918, 0.010058988388409254, -0.67379416661981, 0.030575141104092398, 0.06421056724887862, -0.12917875424486316, -0.007744503719967647, 1.4408108727716074, 0.2834246920025677, -0.04186437411522221, -0.4529545023267079, -1.2643583296172696, -0.13970252780434417, 0.14225260664338263, 1.0687464785182887, 0.17642677098790116, -0.049397090222225756, -0.11741196773810687, -0.032153594985144605, 1.4937366275198871, 0.020382588633533993, 0.10414445522780308, 0.010163616935658091, -0.03754680024182945, -0.01228581035083793, 0.015942835499183895, -0.05812160274109209, 0.7960126286754998, 0.5133921498167825, -0.0014347330945602642, -0.17229975327769106, 2.088664992985238, -0.0668566833899899, 0.07324526838411849, 0.899593778501169, 0.07791370484456718, 0.1290834821605286, 0.18306923889083546, 0.045705507425637004, 1.4734949369904735, -0.47041473928805216, -0.21115192231244764, 0.05751299377726245, 0.044325849659389356, 0.07877601906659423, 0.08147165560448696, -1.3855281712762724, 0.03850677789630453, 0.07423053993074806, -0.36695049352821485, -0.11668259329222168, 1.2553019100112839], [-0.5784050934819617, 0.004627816849612066, 0.02794602841723176, -1.9749846629908394, -0.014522642274051334, -0.011822310709881226, -1.0762313623065138, -1.2138351850705562, 1.0354135230925692, -0.743323349337704, 0.17617640957043118, -0.06500037340954927, -0.055257174187180284, 0.8694083549252282, 0.09103941164585455, 0.14141314917008457, 0.22306236189682713, -0.4244313281278713, 0.8789133627904249, -0.10349282834261785, 0.14297451800440886, -1.584031394383262, -0.018640632895904976, 0.5741398334400466, 0.09566023481968157, 0.07199758629412406, -0.23180802855870955, 1.1770537181656449, -0.07322113274385644, 0.037769823405375, -0.05582091650911842, 0.1303416496405886, 0.1291920657425285, -0.5542928439937985, -0.026005855932521107, 0.1170247513393461, 0.11038331316597408, -0.524352207266952, 1.4540424308627415, 0.05649348400894358, -2.0646046112069305, 0.032614967799627324, 0.1584088578362244, 0.013594475614159222, 0.22863544876079162, 0.05889075069760709, -0.44363581409140923, -0.013937149628454434, -0.2517437364328078, 0.10679673370555796, 0.08341779187256233, 0.052440337195618116, -0.019214359380940706, -0.013025416495346063, -0.009337563576173758, 0.03301991482880144, -0.05143920977441384, -0.050932464792765995, -0.017396217389214513, -0.040635261570358835, 0.03733775660557925, 1.3328812912917554, 1.5108235059173978, 0.1803255683029459, -0.5828681583728045, 0.11743671411710101, 0.03527997179785408, 0.13654487344948574, -0.08539014932527007, 0.11166084543193566, -0.9049090685671473, 0.20821034652674222, 0.023846311837501192, 0.1789955452193485, 0.11928466279810336, 0.4946725856197889, 0.563386824185707, 0.3656985126741106, -0.040891712152377364, -1.4161232793459604, 0.29274188729713285, 0.06313552970943453, -0.09015779475385637, 0.7218571073572869, 0.05726458742436988, 0.010193141775765625, 0.22628867142697012, 0.5198644610245671, 0.2585031729834986, 0.11101665965587285, 0.1313541690879026, -0.021345915395003245, 0.14453023231197484, 0.1118881164729517, 0.018819014504633125, -1.4217399709195315, -0.09986297606636908, 0.026157532744980307, 0.6095297213531183, -0.1303305487588736, 0.016906672585941047, 0.044694619911671035, 2.3033476342924915, 0.020809987369241247, 0.9944965505937765, 0.03925409730250649, 0.1778790323396436, 0.9392642253502296, -0.22162551774434722, 0.10583948082466002, 0.023359983634577475, 0.06039426828766122, 0.13633198146738534, 0.2239018482645608, 0.5212422355953926, 0.029776814790274882, 0.039638542557612955, -0.03724486552344587, 0.07557003391067636, 2.413907985059411], [0.18966850584329836, -0.028370539453964578, 0.18034487295491566, -1.668615548474217, 0.13513494548932717, 0.1512445311002002, -0.9134102314893187, 0.20378043452043906, 2.8790756877627497, 0.9496149174482852, 0.7814396562575054, 0.01750487014582287, -0.006864083654322781, -2.925130695027281, 0.058428735326194775, 0.005105320939294143, 0.03163278786668589, 0.639965599505297, -0.9273714607238632, 0.0020463812566741484, 0.13348927732944205, -2.3150660786926784, 0.014861364873871123, -3.9862361665679855, -0.0132398918416142, 0.06264762455306225, -2.2858526804138473, 0.8654667653343462, 0.010641296276592958, 0.011572641023563087, -2.259492215957036, 0.08453651341333175, 0.4158155462420476, -0.36437224569957677, 0.05449483339408963, 0.030654041092634136, -0.06400200826588395, 0.29587577737869347, 0.3232503418601146, 0.01973227725748382, -2.453476717979833, -0.027713424861228343, 0.0785019554877497, 0.009663859395936943, 0.05995914663627086, 0.08225481505988835, 1.5822489316808912, -1.4654490754769611, -0.08812450534515147, 0.038473004333219867, 0.15419144368035814, 0.046582180984129355, 0.0081806795404765, -0.040694431022369186, -0.07496351703785176, -0.02162081618844809, 0.07504653045859122, 0.07971062973714697, -0.12408614380581466, 0.35936811059895857, -0.06001646853995206, -0.8160677231870433, 1.092847600982201, 0.09440338689113195, 0.08294830496402418, 0.0337058619394651, 0.08492033019416534, 0.033546387600997894, 0.125755135465848, 0.0032708270617260705, 1.8692686188451104, -0.06547346873980371, -0.04828059536905567, -0.04246066830812934, -0.013198955419528003, -0.3052424542293635, 0.045377795332579095, -1.5377810313435925, -0.44888617699095107, 0.1965255598946708, 0.18316027142982613, -0.05962885116284871, -1.5850219600303415, 0.9738988567757586, -0.021246967997422313, 0.012362153674693115, 0.016521566466593585, 0.7855598411432363, 0.07328329019701951, 0.022329369571467864, -0.00365842446952424, -0.1316868031160935, -0.02214830425797357, -0.03838300046179942, 0.04271374075926409, -0.20509526234508707, 0.33744820538393794, -0.024071157615202645, -0.6947810236326613, -0.20178551786434784, 0.3086997282009588, 0.09478475411340787, 0.1984588286453066, 0.088013990878312, -0.4788109255785087, 0.15157748213610847, -0.043535691727020015, -1.6358920162242765, -1.2530410267127279, -0.39028235095075475, -0.025088757814760644, 0.07974281318685789, 0.05567105419626232, -0.0350343918987819, -0.6408335965519585, -0.09574853421732624, 0.20441144866948807, -0.21638857510661255, 0.07919820286630046, 2.541401068136179], [0.27800209742361087, -0.11261999725745855, 0.0542841705279135, -1.219263897665207, 0.012509294654138194, -0.04540124798515083, 0.14561304509912304, 1.0054972649888412, 0.9452735053099864, 0.6750663601845763, -0.33335192187732815, -0.08235564263818297, -0.03281083277649716, 1.025094628519671, 0.11931772605021018, 0.10571273879151133, 0.00477622102302078, 0.7487245690617891, -2.774743734280441, -0.011970554816136927, 0.010897654807068106, -1.0894587551632382, 0.024113570009487415, -2.4688928689598106, 0.06653658359962765, -0.04318372127861611, -1.3003035014458784, 0.2521785678854276, -0.043756359078791794, 0.09001114708369568, 0.24741361136715212, -0.07163298857783508, 0.3364718739930804, 0.2811039916647317, 0.032558024240270066, 0.10760588803178799, -0.05364739259127009, -0.48431018338260207, 1.3390978304548657, 0.10435676356215791, -2.3786814621260195, 0.10600580050426772, 0.10104436189928541, -0.029951059952384333, -0.002566749064685529, -0.007185543860686369, -0.07701626834118074, -0.6142812521930023, -0.01836203983596532, 0.11313302591198716, 0.12605766150970424, 0.03903388525571153, 0.2637657748444344, 0.00018615963419998005, 0.11812146808452839, 0.17395692531552923, -0.09955362384438873, 0.29655638419368197, 0.1285408971721202, 0.9900068657086115, 0.079995970021854, 2.8080727256391227, 0.15845693515579712, -0.013545834345746454, -0.27708197566633874, 0.03645781698111595, 0.010907291657359664, 0.003981048220896906, -0.08127706081862536, 0.09274227931704512, 0.1460440246641567, 0.08963847910097485, -0.02907075893691508, 0.1236989071369587, 0.03618001811798177, -1.1185030636055993, 1.606471403884086, 0.21843052075057617, -0.09548692675041771, 1.2325296514854158, 0.24826097832372224, 0.01911608871641103, -0.023505531216320767, 0.3483927597756031, 0.012544838565299053, 0.03303996848073748, -0.02798858715967878, 0.17862884586233596, 0.09168629157270247, 0.12529557480728007, -0.004872451354468491, -0.02844633403270433, 0.12427280354674651, 0.0015921993265046522, 0.011104875385813045, 0.5175692863560116, 0.7344880369176118, -0.04666397373563106, 0.26604012104378005, -1.2968523968967285, -0.14271341689983846, 0.1257197318755818, 1.038633925237868, 0.0026950166103301217, -0.6946984231245491, 0.06131530782225258, 0.10796670623919147, -2.8013378772795967, -0.40177583124829636, -0.17943200272906193, 0.0711480485904346, -0.06144996967597565, -0.01241789639322836, 0.01902255850511399, 0.3982642753338957, 0.06402169072770128, 0.03848643741143117, -0.1607488361163331, 0.12420335508331755, 1.5444696443212527], [-0.06158767881122871, -0.029791522257964543, -0.020865032238276064, 0.766383213364953, 0.1318470454402069, 0.07567087612087502, -1.4383802652323554, -0.0410611111258071, -0.2596133069568296, 0.08596154026800114, -0.15814694615385483, -0.631434541853704, 0.24214252891385737, -0.5631526448833956, 0.1685239905651355, 0.009861370155027596, -0.03134665632565893, -0.4787229291983749, -0.8888651493058524, -0.03671944594613541, 0.13851716129060598, 0.6084265523096691, 0.09814266057756031, -0.8497423537007055, 0.16055617878422773, 0.12310450561502496, -0.057466024447654196, 1.4035502488090377, 0.14149482549672002, 0.06586580919380979, 0.5275909973758172, 0.03853410931963704, 0.5280140802829766, 0.7660543305725053, 0.167857065444931, 0.013197686439875515, 0.09687241227992555, -0.982021152240544, 0.9312537810007251, 0.07851667205400446, -1.6254104160535723, 0.13390728293652868, 0.0722507377429789, -0.01687164529586599, 0.017961760474216982, 0.08118202071984057, -0.977498584572968, -0.09120731446771133, 1.1165524578013069, 0.16646261366045165, 0.06547186207242241, 0.04557931779511085, -0.0416797719719039, -0.024001024238587857, 0.05812048579545485, -0.027826785438035503, 0.12394622801164859, -0.532770187497608, -0.004851188843147866, 1.8845636034402677, 0.07460929278997715, 1.3808874239227025, 0.3782031316993865, 0.08597393076308515, 0.037440426794592745, -0.05341596153427396, -0.02786387185365186, 0.1686164880480257, 0.09774067771922872, 0.034955423833511225, -0.3772527573674189, 0.16047493798105986, 0.05085147657701096, 0.2199374006133257, 0.18461004604213763, -2.128915808631073, 0.17888002690385077, -2.541313411210139, -0.10245524513103137, 2.275736355761699, 0.061705549887400686, 0.0694398840822839, -0.07327791524994913, 0.43438678798124114, 0.04577948615951499, 0.19466398269824353, 0.005878442871139131, -0.44728691709256857, 0.02952105935121271, 0.08268046290426567, 0.03820113315256877, -0.05179314710924671, 0.09979040388226466, 0.16163491595835286, 0.17100276370742823, 1.064995894467859, -0.32650816711635444, 0.11933168529233293, -0.8940766300698662, -0.9486169771172807, 0.11570342460934899, 0.03954401064407935, -0.12433274253012094, -0.08044121207540585, -1.0433835266348261, -0.05774926343931581, 0.15868481909975132, -1.5416871852620841, 0.09822054141315877, 0.08195130067661223, 0.12039856906058564, 0.17331631674521236, 0.1344234573929708, 0.08201440345473751, 1.2394417704609368, 0.16223533245900926, -0.06615877336319335, 0.08684518578846924, -0.08626321067749827, 1.1971663782235487], [-0.13739445839619935, 0.15157617534404597, 0.04738470447468232, -0.7864947120767082, -0.04624705144851239, -0.09934295252626811, -0.7819525841814006, 0.03872181124207767, -1.3906498422170905, 0.8445934321407063, -1.1727467587177625, -0.6512792510247785, -0.010544000404759587, -1.685243957717442, 0.036602964861229006, -0.021589435582307543, -0.0368471131497587, -1.783889425756594, 0.07176867351978716, -0.050094217580375966, 0.013968885566958026, -0.7178339075937511, 0.030113912607324034, -0.6688017782759751, 0.00409018952460612, 0.0032387477370709123, 0.7689363071683805, 0.21510034566981787, -0.06670045404566399, 0.03683566496368162, 0.7912422182607654, -0.04871461264472863, -0.675762022884312, 1.0145645429239207, -0.07568465746946688, -0.19466921946925164, 0.051500079011470884, -0.6489555984307369, 0.28184671372084213, 0.034501604297274904, 0.4636857007604346, 0.14055613066575726, 0.002677825039823552, -0.028046768638281136, 0.010871032745204338, -0.12950768848991176, 0.04527164188241756, -0.6641824809536951, 1.8032639585515968, 0.06801532257101668, -0.040661326062547014, 0.03401493103543902, 0.05949177674500338, 0.08479437738049332, 0.02080600284800756, -0.09818662656819732, 0.07241964940731005, -0.32492306708006685, 0.013260037315925038, 1.6961713369488136, 0.03065726629808665, 1.1310740601415572, -0.2090199936235952, 0.04108571983715485, 0.693044610984152, -0.0551136227115016, 0.13234041275726827, 0.03126959197153532, -0.009374737133491648, 0.0007532783927475466, -0.9579222753325745, 0.06054730163188237, 0.03829931018549358, 0.08457221464443013, 0.08379778373232731, -1.01795279449837, 0.2637326320316043, -0.2740563477696342, -0.24676551420883877, -0.31798221341866084, -0.07934182068787013, 0.08572352443193935, -0.21567938615201288, -1.0827824033278735, 0.0786150108682593, -0.03930447409205422, -0.1504396107597611, -0.8426788361834265, -0.09035166699601432, -0.004713074587703468, -0.061407035845385476, 0.1373573275833483, -0.07266704600475003, -0.18042733818552623, -0.04279849004414942, 1.7825331227869277, 0.9164779029517799, 0.06190571656790451, 0.9158141695529445, 0.3047159177211725, 0.0019929248520344283, -0.10505283420401731, -1.160799242780437, 0.025431040186104047, -0.5085872490420997, 0.13305841967151857, -0.07316619439932662, 0.2202236248471253, -0.033787136337353287, -0.2093023763224978, -0.1045620212893034, -0.08923270666487462, -0.08784871202102609, -0.09451870690683764, -0.6350936085762258, -0.04640434673881797, 0.0053725931226854436, -0.42901175508689515, 0.09351030555539526, 0.28799177827527905], [-0.13492720532184416, 0.06037118955136188, 0.09142889529907446, 0.28168111959446934, -0.047018506688928985, 0.034253461324434346, 1.757693164054847, 1.2839293154315543, -2.5885246576262646, -0.8591959266520863, -0.614269539149111, -0.07477028883150776, 0.04383287396309942, 1.0964978895590476, -0.0802112456153252, -0.0595991866052053, 0.026731959219738935, -0.5548774018470518, 2.4098168451955377, 0.057969360070223436, 0.0064663095920155815, -0.4324300460985278, 0.06269087102638705, 0.8993933276874188, 0.09580164683360508, -0.006440293657228319, 0.8142377706297544, 0.36670211701962663, -0.05043911335824896, 0.07990828133457875, 1.0145894514737799, 0.08402132387624571, -0.22120901588296393, 0.48558232063192525, 0.09591179205933835, -0.0663787314808287, 0.08664247927604149, -0.06668180980336491, -1.4977995382049551, 0.02760549869722065, 2.13485594578887, 0.05097865753946543, 0.12636749307749023, -0.06903818452862931, 0.21750423961592696, 0.14499785895300701, -1.108676958791549, 0.22031116998029884, 1.0547779850124217, -0.0030436074677832195, 0.07806242823872568, 0.01682837995662015, 0.18619954877888276, 0.012597000059517244, 0.1834035797030304, 0.10182217075129066, 0.08371408466137559, -0.052503240191771335, 0.20409754292534585, 0.6542688644936538, 0.08229077516795576, 0.11574606432478998, -2.879427153679652, 0.03250770243785492, 2.149645460315384, 0.020082694844462307, 0.02323542209986264, 0.01899225541463252, -0.16157765476317928, 0.11545356069615198, -1.0507079749213177, 0.1593393757629912, 0.20848603904859916, 0.09564208345208847, 0.08635993887392042, -0.04688752858464112, 0.24019733121812167, 1.2894150794247516, -0.2869789406982555, 0.4771388855929912, 0.10596875839917741, 0.13141309964484219, 0.32854965179947937, -1.1387301634363747, -0.07784511886802607, 0.07090019016673167, -0.011036830533847509, -0.5121242363975365, -0.09059817890495944, 0.1009092672862823, 0.06476945179978356, 0.18013041312598158, 0.06736771782455696, 0.20739266043112511, 0.25160913260367895, 2.6789874799560467, 0.46437384685667626, 0.031848085804228196, 0.4648292001150741, 3.1438231703023383, 0.1708877080065111, -0.078057866311566, -1.0653715885577202, 0.07180663288209081, -0.4634730319663225, 0.1877089991241548, 0.08716785107634542, 1.1969523413001493, -2.0854056196002007, 0.464865345101011, 0.027071911301970557, 0.07003635161409691, 0.09022455585975206, 0.0037330249312973614, -1.2062162588486347, 0.17650127005707586, 0.22309128785030463, 0.3343579129401523, 0.06834321303002937, 0.045516898939652106], [0.044753149541122764, 0.16775714439922337, -0.01679773239477022, 2.1608945516712676, -0.105494790329684, 0.23985111770521478, 0.4640830403939784, -0.24092378707772413, -0.7260707329840358, -1.352563970942721, -0.4023452383713853, 0.31934423059350364, -0.07210954237122505, -0.2885124870431646, 0.09673810811289146, 0.07410120646025686, 0.200894159171733, -0.24839951243604144, 1.630557837022845, 0.10686515469090481, 0.04953859213687548, -0.6355432033396567, 0.1512946407630357, 2.7002853867598016, 0.22125260725039547, 0.04580192426842779, 0.21673779174303553, 0.26229383341648116, -0.07692798977574344, 0.08855874703318478, 0.47376543083566375, 0.1811715544988052, -0.32959788730763667, -0.05244540001895875, 0.10875820234804269, 0.1293222629083292, 0.18249599136843161, 0.36714160749327795, 0.36873999691701875, 0.06530040386064086, 0.47910868280771557, 0.2179744309324553, 0.13302169194359817, -0.03925484368004907, 0.16910678959305586, 0.06257108135546639, -0.13597813216136534, 0.7061162000664845, -0.5402086257741427, 0.13437242528611235, 0.2319986652019067, 0.2685293523175751, 0.12363398140369826, -0.03125109901300573, 0.15292941788234204, 0.21329416717858926, 0.32812157654447477, 0.3312011271308202, 0.11090719901228292, -2.5299117356210217, 0.12759323490305938, -0.44447026186209365, -0.6921323599330955, 0.028759385322170344, 0.48095564888079007, 0.11799717657444167, 0.13571252576360937, -0.02501718598998867, 0.1388961959151701, 0.18545099926704847, -0.5442837121119266, 0.055322573947160926, 0.22790068907697572, 0.2460890068650658, 0.058074967566010244, -0.12369491809831555, 0.31984895495865245, 0.5616847642413854, -0.12258171717246368, -0.705250243462875, 0.19039223427625482, 0.08015025127936233, 0.008389901028105426, -0.335438133291524, 0.13954770282413204, 0.06813152465860882, -0.06488064240273526, -0.07749896696116267, 0.10900437517960354, 0.16903790736811705, 0.1393454910306507, 0.1833200765838486, 0.1318167114106785, 0.0735446612752191, 0.06753571968193453, -0.4959750039020101, -0.6204969797647047, -0.04761645084013618, 0.04442939920406738, -0.30693480429403536, 0.28140186203088596, 0.1296738493449201, -0.6921410432972215, 0.0453556685475003, 0.25828101997842495, 0.09292197701880127, -0.05474882804179837, 0.27527714695428224, -0.05533155445890162, 0.5480179927355927, 0.23222347967221335, 0.0943235702163682, 0.05613581664231271, -0.018995816179507064, -0.7114386870630751, 0.02501213306098168, 0.06952774037831787, 0.6395645514408472, 0.14234094612023648, 1.6615605349432099], [0.041857596174888725, 0.22665145795049765, 0.1793611507098508, 1.2389376352252406, 0.3360148787336714, 0.3109981197352656, 0.09167328698932588, -0.4513759921896044, 0.9156210921377369, -1.1983453387747958, 0.9184388701926887, 0.6745033045907798, 0.19571651658851905, 0.40226001537218886, 0.20108228914690734, 0.2145791122564512, 0.24110338047197286, -0.12784871617639718, 1.176289848201338, 0.23092991810572366, 0.0839273723232092, -0.5477106122694998, 0.209527436320275, 0.9238672819236075, 0.1738472840461347, 0.026989749266567303, 0.8736212181011994, -0.1962587075916292, 0.11032453138968581, -0.0002983625634227677, -0.15170981188675936, 0.21249236467347654, -0.009535818122923801, 0.00022005711103862714, 0.2159938663314282, 0.41185436001913206, 0.2084484107802234, 0.8660115632507446, -0.23330601490166225, 0.30469335427673244, 0.24555186175606933, 0.1389991181586683, 0.22249075260932258, 0.31515687894543, 0.20954446823284, 0.18443955372122203, 0.4760383061760111, -0.16398316215965733, 1.2566295272510948, 0.1732386929935896, 0.41125214977893015, 0.11409943781516971, 0.23071067879430215, 0.1904046278238109, 0.24707181780598442, 0.3208630873916836, 0.0855527716192312, 0.7354522628112445, 0.16789802260860567, -0.9703403471573264, 0.21646096465113326, 0.14362379179995455, -0.022267385457202537, 0.09345105628778655, -0.2857428032572096, 0.03691371100871358, 0.1314847841132483, 0.16129132973993998, 0.0472184525109815, 0.2898517090644427, 0.9929484283494863, 0.03169093310931953, 0.2382066447861905, 0.22102429499125056, 0.16446592165606447, 1.0619543074256137, 0.4376699873059782, 0.36823454476490214, -0.28189125901761153, -0.2576984965526231, 0.2840919349046196, 0.04160778855262257, 0.3844786165885853, -0.236211081572629, 0.27550852325685254, 0.18818570185850125, 0.26284690829853935, -0.04633124896002732, 0.10872206601098264, 0.32436609473214256, 0.12869231604167547, 0.24474525333517338, 0.23248078983416146, 0.04916069622520028, 0.24909325123697584, 0.9307340127607951, 0.03490225483775239, 0.1344694184830031, 0.7525165315885702, 1.0223401631267268, 0.041891824654695396, 0.20280160879524725, -0.6844024917613407, 0.24404724785687762, 0.3473836837488732, 0.056756277438133836, 0.21979215715354075, -0.8703044412805557, -0.12922033373591393, -0.11998389295829374, 0.2122273660663866, 0.1887947880586368, 0.254597462863539, 0.1889229913444331, -0.6444341989983369, 0.18342619971006122, 0.15572510596535472, -0.10107793549240447, 0.12261697870304734, 1.1134130354593648], [0.04785738744689305, -0.09483849343894252, 0.2185611508337533, 0.7095128371324538, -0.07644364817766135, 0.13587557295009822, 2.1167506457399523, 0.214665918773669, 2.773644069075305, -0.346049512866596, 1.2987127690273992, 0.35218954603919767, 0.11935934640645457, 1.0182873875496994, 0.13886522650304206, 0.19336955648542448, 0.1871150503749722, -0.02395576342907954, 0.03627106319765466, -0.08499737861422448, -0.01353178773533974, -0.35602952296882, 0.09291117261006597, 0.07219805750218188, 0.09984730283831271, 0.05997270456210589, -0.5832060852973288, -0.41288446119362077, 0.15566738555196544, 0.07642639707113988, -1.4922923174609193, 0.12259658590852689, -0.04136091903294561, 0.07822375916782258, 0.006732063351566766, 0.09270909704911594, 0.00048654302314731125, 0.45119643850481606, -0.9395492188109495, 0.2413922270944508, 0.9276059878560985, 0.14159504235878348, 0.1833193736173712, 0.14112637026510771, 0.11713409138012824, 0.13031591471677642, 1.4847476120124405, -0.18974811956042362, 0.08760883612595315, -0.013804131734171193, -0.0190728452376285, 0.1666215266843494, 0.13304931529332611, 0.07034401186057386, 0.04191921551965356, 0.23231552031796718, 0.07572650491790417, 0.6202307590612339, 0.09160837044642094, 0.30686284758839577, 0.175767115846328, -0.06926579420235503, -0.49185953558767526, 0.17081567437393738, -0.2993083899368886, 0.07516086533035284, 0.1117468412877192, 0.026852494204919426, -0.015269149524395837, 0.12791999964762982, 0.6333265804015522, 0.024537299031315133, 0.21677371467513126, 0.041232237850529256, -0.017200178641862934, -1.152868032328421, 0.0683197672116407, 0.35493375659389326, -0.7231393429868662, -0.8430291365780621, 0.14571272700099921, -0.08377719678539057, 0.2982682821055075, 0.0749938999923044, 0.033198339021000625, 0.15491127661770837, 0.16382113875613785, -0.20963600138469804, 0.037949431337800835, 0.04608870567461355, 0.01825539728457636, 0.1142049298623201, 0.22377621004768236, 0.11698638786340794, 0.12184438461357314, -0.12576440129511268, -0.45424311880279244, 0.20229926985988328, 0.17129359796622054, -0.13588228095526494, 0.2401497307846182, 0.18015989765472015, -0.38974179743253706, 0.1774260168153258, 0.5288743521193623, 0.2752470643110723, 0.25626744804995427, 0.3478735444902407, -0.7572916016799928, -0.05766958969084388, 0.08600010055548897, 0.16242121298406703, 0.1397529946110937, 0.12404243981256668, -0.03462385205511663, 0.20935363933645, 0.20564547818897994, -0.130216018026914, 0.008232743094876836, 1.5357889328639054], [-0.26126259569269994, 0.03589653380718058, -0.029132803986154317, 1.5833453946939635, 0.021753371550554762, -0.04616795864261147, 1.3743983730755633, 0.6786968606487457, 0.40202144049934385, -0.2305867113786746, 0.548379325882533, 0.7552991328240872, -0.17714508420068595, -0.869552693196609, -0.1297014922086729, -0.07614137722182271, -0.051914083966195075, -0.09412619564033581, -1.1144683444230397, -0.167269422022734, -0.11114489876824647, -0.6800856874809958, 0.06818678857467751, -0.2412724348449142, -0.09446875098258962, 0.019234014392767056, 0.522449965780471, 1.5115564541033526, 0.044832387070091066, 0.03632534606815949, 0.7144407955745887, -0.1506406922337813, -0.21964896358267855, 0.2501429823541615, -0.14062072464384734, -0.09290313206301748, 0.0038714451726507937, 0.11136150011444372, -0.20404553737316855, 0.014488683668109492, 2.6336051215380856, -0.08361336535756128, -0.0077904718710269, -0.00629109131483093, -0.21295108286168823, -0.03142846071735692, 0.552460072773553, -0.46009656023955453, -1.5491308978685148, 0.02215356925112491, -0.06645863578132627, -0.06643558707170771, -0.1362051358558189, -0.16150866258648056, -0.018273478280346134, -0.11020091653138311, 0.0012420983021620275, 0.7547477336245403, 0.08034532649313238, -2.7018981110107307, -0.2260735469916775, -0.24826079578332785, -2.2762631108946128, -0.04044602378729564, 0.12180736187688955, 0.0562614514408615, 0.07866087806475794, -0.017786494778431992, -0.02504569919955263, 0.08056770142787822, 0.03872081982866592, 0.02266688782635685, 0.0677048597013236, -0.06822351169480141, 0.10612525819272363, -0.8790284211790049, 0.009350671207258698, 1.9388472603323257, -0.13275286240724615, 0.07879376329634352, -0.008845538398295126, 0.04299250548474428, -0.7506476192172543, 0.03471017893807749, -0.12316728471082052, -0.022041094189721153, 0.030557909788953376, 0.15207947649713704, 0.07770900103619915, -0.06301174677291871, -0.028437202920522684, -0.024338322722802737, -0.021006714132546612, 0.025622428072584955, -0.004812597518758505, 1.4445502065035551, -0.26549417270122055, 0.07446962868514412, 0.9645579138089988, -0.18307108341331835, -0.006395797438137308, -0.10412795554146101, -2.898129962937728, 0.06671238205143652, 0.9369012536486722, -0.013989212461767023, -0.00929621229541644, -1.5331275563852798, 0.5283081283753793, 0.2608301730390417, -0.05377649518113231, 0.10448149667044443, 0.07603035384483231, 0.013471264256548179, 0.053185666458823236, -0.048704497712925156, -0.04105073647327743, 0.43141033566467474, 0.04277228500448113, 0.12574514170329026], [-0.22677142561773048, 0.03436456287852766, 0.0052550973754113255, -0.40073698103665006, -0.041233387096721336, 0.052626013546242995, -0.2785489842118375, -0.4202950274886415, 0.2158231802408404, 0.9844417680087223, -0.839493784641975, -0.35461836385833595, -0.10836111033186971, -2.245059859021714, 0.10690296266678243, 0.07209234885798707, 0.12094757805269016, -0.2474744991051239, -0.08995250792724455, 0.06370466685937715, -0.06683377330809771, 0.4307315974104942, 0.09976979743214677, 0.8715987550921692, 0.11397165549491155, -0.14002093248095324, -1.2662676130689305, 0.4705761657441962, -0.029431935539048756, 0.12231255049214651, 1.6303974324622272, 0.04449552295679752, -0.12893744691644005, 0.3705788969545, 0.07946276602418963, -0.05578368555046074, -0.08507491193507838, 0.5383343514966803, -0.9939303819954012, 0.1274907290206448, 1.0016537333854743, 0.043194467519007324, 0.08586885920131955, 0.11436467248870918, -0.049545516215050545, 0.022825005407726754, -0.44483101181926293, -0.07662656968183554, -1.8396283565794642, 0.0880294240051002, -0.0500248786893376, -0.05115579890886577, -0.04926178113821166, -0.07279096636469777, -0.04689226941889867, -0.16385105429752164, 0.0013007940887547482, -0.5315294720942888, 0.007580066360017751, 0.8225919576430747, -0.019483050160968508, -2.102714813883367, 0.20894515404632158, 0.036123509712174866, 0.49258143896350154, 0.1312886020937936, -0.018922525718792816, 0.01759875952451411, -0.06143255987747398, 0.21290015408826893, -1.2790670299759246, -0.022008773510489483, 0.03225660778628903, 0.06689035908892534, 0.12513838416384448, 0.999500031998763, 0.3698832099176112, 1.5573703376272046, -0.6800546091505015, 0.8325084632137864, -0.1631300920216043, 0.1885902091749351, -0.7433370632625803, -0.3819926956886082, 0.1474993984352153, -0.061059046939754336, 0.042463301368882204, 0.11732159311595629, 0.08140395577576678, 0.034483434828927684, 0.045983315666046125, 0.041444133085334, 0.13701655501910567, -0.05083271869601022, -0.05913386128613616, 2.2969719283431447, 0.20741494399636817, -0.07310852833401155, 0.12277972606111619, 2.5880600571607615, 0.053632621196024736, -0.0023559453665791402, -0.44713898280369474, 0.13887735912268104, 0.5318122428339772, -0.09261126311093683, 0.04478692836976077, 1.8265969398317539, -0.3020113740981452, 0.45146961159059223, -0.023149609521607946, 0.21390716389230907, 0.06551851747196857, -0.02922148339127083, -1.2058000044538286, -0.03402659351358669, 0.07975686006652193, 0.5383047561081609, -0.0617034318191787, -2.3741993021192975], [-0.6604078519428386, -0.006331369755826969, 0.13376896253777343, -1.5714444478478933, 0.05790372129865508, -0.052125679581237594, -0.6781543820437741, 0.4865034195155938, -0.7463926349305198, -1.0857278134947694, -0.8960836665812251, -0.1487898619010779, -0.10986736029292796, -0.6183273631242504, -0.08161155827509683, 0.006210803583682096, 0.09052541363654576, 0.09833075928604466, -0.4013996524183127, 0.05579796077289155, 0.053451477406026036, -0.6858997851798975, 0.007492651779193819, -0.31788983533901954, -0.02914927657340829, -0.06982841963606123, -0.10136286197840881, -0.36466601104579943, -0.006214028526424043, -0.12536857330587728, 1.0571956387018009, 0.036351871238536636, -0.864271314918065, 0.674837767078828, -0.1074199598104117, -0.05214693789246191, -0.10319324973518315, 0.14936989519013089, -1.956951372497085, 0.08301257783633441, 0.8245444578963927, 0.013827193875874545, 0.07356004811742849, -0.12567307081021614, 0.13028661529098995, 0.1413383423661634, -1.0956986396318815, 0.7294068952769839, -1.5708929484369, -0.010355919125317487, -0.14782023072956718, -0.08622618626326331, 0.1515031467136899, -0.017029707805974462, 0.005815587202974141, 0.011607588326302598, 0.046632472864064176, -0.42278216263399443, 0.0365556124454368, -0.12873565551614222, 0.10311300319792234, -0.07625247115529729, 2.0939301362801555, -0.04513418932674344, -0.6132457267986856, -0.10876285816140062, 0.002015530486957182, -0.1581621683192564, -0.08408936973786678, 0.03920677265252578, -0.44471197149725494, -0.0813931928064613, 0.019251829896844496, -0.10509917446046094, 0.15867921527672268, 0.7431931061019215, -1.021064029294329, 0.21230097570118045, 0.40531750443784015, 1.8032657739106353, 0.10130071305207924, 0.06369179914461635, -0.6381202886155465, 0.1826605510436955, 0.02249539109505277, 0.1331257292793882, 0.09466201917036522, 0.4696025654370001, -0.008280858486401407, -0.010614412372253107, -0.1118588678043783, 0.1885757167247176, 0.004751032913218885, -0.02903365200888148, 0.1122595248522795, 1.2064914842579841, -0.5129980854923029, 0.0712617390645553, 1.3563410085949357, 0.8279906411515169, -0.01892762227002141, 0.02257788488283479, -2.043357916501841, -0.06373581184340225, 2.0503975080593237, -0.06909577356977349, 0.015046093590473274, -0.8262550882879028, 0.5681677402010407, -0.4974094055441847, -0.05277840843774341, -0.08519857989568258, -0.09941385520546056, 0.024515166050242388, -0.6660575089122185, 0.09192745706302052, -0.029037446721605867, -0.587186153616307, 0.19861252954143774, -2.1079186255084323], [-0.8007147920050633, -0.05919322686544425, 0.08426968219148732, 0.25981661922427196, -0.0870799146381553, 0.11565618748821686, -1.6958006508753434, 0.904484806746262, 1.7823833683404757, 0.24328854908743136, -0.9117143598392148, -0.49896623274313234, 0.13953051975821212, -2.6965590360648037, -0.001360657099655564, -0.07753955598831094, 0.020468363752104722, -0.2285782046712826, 0.12117560135733632, 0.01905845973495018, 0.020487963839821745, -0.3179512003957699, 0.0641137234178307, -0.7409123249898198, -0.005640536311779691, 0.12290126290984144, -1.3256280956015674, 0.5109752349168071, 0.19084311881434726, 0.0476204849335027, 1.294256049301452, 0.09511199925446819, -0.08681137327062836, -0.4360673831710256, 0.006476256168378846, 0.08696095152269935, 0.17156595188721493, -0.8090612648121087, -0.06985957711245137, 0.050746729617674166, -0.422996744162103, 0.11288302841250525, 0.01560002132492235, 0.018183114892636548, 0.10549022067535642, 0.03496682540358856, -1.5877372014651046, -0.43832118194911013, -0.28801915282108853, 0.11426627973904847, -0.030204483620020824, 0.031210131710934286, 0.11792662447847586, -0.0708879636265801, 0.021230591136895457, -0.03793175869072205, -0.050491510352038485, -0.4534314875008288, 0.03947508231449176, -0.5352012602809549, -0.013067606957383699, 0.4449180601327966, 1.1280517611311234, -0.0010071056389144132, -0.18925244465235325, 0.014640385464815728, 0.02976258505569789, -0.09971466667509109, 0.2112413202401495, 0.027856089905633225, -0.9010845891955133, 0.10423318940740013, 0.180949720626892, -0.005873433918009525, 0.05556768445943294, 0.5155278132632671, -0.08620156398084068, 0.42493535318877274, 0.8287596024231914, -2.356043559020009, -0.19579684682297663, 0.004396076292782591, -1.0751687349537848, 0.9879169287482651, -0.09190457959397323, 0.16333892681873224, -0.02927056804245082, 1.296014701795665, 0.08497769662457286, -0.10294601898850342, -0.07308398883005097, 0.21015551460500329, -0.09606783420055236, -0.05490199783528532, -0.02649068967034505, 2.7001113813201227, 0.48100656674846154, -0.05284158269790227, 0.8673659466462618, -0.19865180393291657, 0.08552297526676178, 0.13275180610519086, -0.07506781569742321, -0.02729105486785004, 0.18352598967192396, -0.03208230899773339, -0.00013181013427686198, -0.7263275613138388, 2.6524525150065172, 0.030312892942110595, 0.029465399036891424, -0.012039241040914925, -0.14715783940959914, 0.1775356278373131, -0.3344630525202735, 0.06341487017087918, 0.07788305700728514, 0.04394209615392365, 0.0915552470994525, -1.7685570973076925], [-0.0964619669292553, 0.1537282765870391, 0.09748533847465644, -0.6202073814114507, 0.2599132130271939, 0.0993586849760502, 0.7155350332552868, 1.0738848785665929, 2.648362088281933, 0.08161774335860628, 0.8518502218636892, 0.0064370479737063885, -0.05151947344827291, -1.0926658169658285, 0.12068507045014179, 0.04502260508043383, 0.08891401918129191, 0.05655002409535424, 0.6394923370345242, 0.3295813583821215, 0.1129127630474772, -1.4718293596502754, 0.158690301567093, -0.7302519091442313, 0.02887447003198106, 0.13695868138451286, -1.7089377148446003, 0.5109077882763814, 0.12449216266313995, 0.119735451452013, -1.3048657484609443, 0.038527900002739486, -0.2657113381895638, -0.23768906539663018, 0.10644961194703563, 0.09308921104930663, 0.12273433570224082, 0.3150839964981593, -0.16793305482429666, 0.2772032880807242, -2.419622835274322, 0.08462987447244091, 0.19764404368182995, 0.18043567845565628, 0.2402148513356584, 0.1530644717638361, -0.1577707131756163, -0.4132654492608417, -0.9075765578153314, 0.01866109830204782, 0.05474736119026873, 0.05346719716969515, 0.0978235981041062, 0.21700484492894256, 0.2093073010351233, 0.20960814384715484, 0.05154643482924705, 0.21153761464226742, 0.08075001608421276, 0.4928201659229142, -0.10753304742299037, 3.3866762524362133, 1.0567543574131648, 0.200203561775141, -0.7911416491795299, 0.09429433526492677, 0.1779967524303651, 0.16005421290782484, 0.09534339291761444, 0.1916070582769777, 0.4608638744118685, -0.05220423498887645, 0.13265915479726484, 0.052368363762355215, 0.03238749427324095, -1.0612864893126872, 1.1646518599544595, -1.4036541677934995, -0.1504703446576794, -0.5568328773311232, 0.2118144578524281, 0.0050603912002639565, 0.8536956779367167, 0.3974226227123953, 0.11605348275329584, 0.15226684429626405, 0.06977604265040364, 0.501028742521978, 0.12349186484061367, 0.15521657257666613, -0.05751178839262113, -0.009440529315304303, 0.13091022902629484, 0.09253827195034749, 0.14814083041487275, -1.490955782732037, 0.2833784148319416, 0.22192028301575473, 0.1947288999418594, 1.1638615892597712, 0.1859324177443893, -0.0023926483860532617, -0.18059427710407153, -0.021834254514132772, 1.893842401983137, 0.21219771146128893, 0.24033183684459422, 1.1782649182684917, -1.7507219884868948, 0.05486881148590967, 0.13093110650575218, 0.16882534723658288, 0.10351743325257048, 0.08464429855993966, 0.28749342093401836, 0.13638174403357278, -0.029844904869383515, -0.05233510090798962, 0.02231369819806712, -1.1316145714385075], [0.5508376544555466, 0.03518664116110269, 0.005379091943179851, -0.31180819057416514, -0.038546352972646886, -0.03667041917736322, 0.4376778600350878, 0.19769647878345173, -0.7589838407075767, 0.7064932122997447, 0.14360491289118804, 0.022627660195962254, -0.06855854204275386, -0.5162349054168817, 0.10918111300476616, -0.1043444597468837, 0.05004215107827433, 0.2331564940313949, -1.4768411308510598, 0.05697395480702028, -0.0513087172618173, 0.5526050048577525, 0.06667389002044936, -1.2636929393543592, -0.008503162005630975, -0.014805198595287547, -1.0712816535225493, 0.2728592898386026, 0.0386135647126614, -0.03858923661157652, -2.3229453184633515, 0.14652452276249697, -0.2556149868247443, -0.13805934879292245, 0.08618587566993245, -0.02917707556692814, 0.14287233119479584, 0.17692324673239335, 0.7574704079841603, 0.028935402562099755, -2.237364494485327, 0.08727717470598456, -0.05729277264529843, 0.10928911008452563, 0.03458740373577267, 0.02105769990597581, 0.6873815483858007, 0.5390866893920063, -1.194067859173616, 0.04078395978768754, 0.0961373964596731, 0.007479377476313916, -0.0635366563168517, 0.10794106378577396, -0.01882559304462732, -0.1386115016339135, 0.02507796052229764, -0.10202544593849615, -0.08039439138851999, 0.40891859513739337, 0.02563931208647024, 1.4436539421366203, 0.5811802227403144, 0.049759597959047754, 1.2709384155172974, 0.06566023992476565, 0.05686897730024891, -0.10476199332884133, 0.02296049821240003, 0.16823204612799306, -0.08764293988392205, -0.030752713200329806, 0.045984970376076115, -0.052181370037898904, -0.21537040709730632, -1.2119689925161823, 0.6346143252735192, 0.16517352143263814, -0.07598715804851812, 0.6618278816877551, -0.08566366481953941, -0.07534297417580965, -1.7945150757614499, 0.028516547141568458, 0.09759424780678334, -0.05947580111059933, 0.0798835457301224, 0.021745802363580386, 0.02397500530799256, -0.08371791772417234, -0.04210026085641815, -0.04019303282000023, 0.0034331943803847464, -0.11991239552779782, -0.08538401950585181, 0.6525940437214286, -0.28827257351111285, 0.022254275873646066, -0.3789620295682734, -2.34956901126422, 0.14704336164031895, 0.02697238431628484, 2.0960903377612805, 0.17071069740775516, -0.11992162278749229, -0.05327815076304083, -0.0922874970265605, -0.5670307625630432, -0.5285869273950398, 0.22546007065472914, 0.022968163338595783, -0.05282986579785875, -0.06199445162659942, 0.010645976543226004, -0.005638910882812583, -0.22211588484981268, -0.002495045624007769, 0.07783136620920071, -0.09264121957767658, -1.1092412329331331], [-0.011882871142138134, 0.17473014212112345, 0.14881420543727633, -0.2906490021866754, -0.0898715740378817, -0.08924888652347805, -0.3248953389066538, -1.56084956828985, -1.2196753752103895, -0.29139113984323894, -0.6983464403286807, 0.01726353501143962, -0.07541495744382029, 1.6577284701341934, -0.03808627148734228, -0.010820549761258676, 0.01674468311695841, -0.5091207466802472, -0.7981548886363294, 0.026451746291606227, -0.06423646380251864, -0.1660477901645243, 0.029155275265688136, -1.834216107724741, -0.17444160312093437, 0.0844268932566517, -0.3637568168430473, 2.9406378234281454, 0.025484722429918262, 0.048960673882961485, -0.028459070286827017, -0.021122697269533884, -0.11358630175374941, -0.3970080673051301, -0.04009689925167498, -0.025691265810368562, 0.016808214105320008, 0.10678640482961288, 2.4049836336136545, 0.092468962240834, -0.02237394031518318, 0.0382824743798017, 0.07160608923473448, 0.06100533424346491, 0.09527092886611045, 0.13035893851086458, -0.4562113423263268, 0.13709277699407582, 0.9304137197350961, -0.08872196395276678, 0.0057912856459505615, 0.01006030535103418, 0.11515213503060064, -0.04105733116600161, 0.1696978326907556, -0.11248144658576623, 0.0931145984119974, -0.171924231650234, -0.002637951368588511, -1.542294269209975, 0.020041014090067203, 0.7904552566154822, 2.91161621458959, -0.03946841550462967, -0.45899131274283145, -0.03863626536096513, 0.03264855343277029, 0.09093631110434212, 0.1229844599988128, 0.052811622799248954, -0.877199001640431, 0.11585029057227926, 0.09544014595392265, 0.00423848807067779, -0.011420768704209541, 0.9915860601039023, 0.15316258342524894, -2.958010939725639, 1.0374563618517993, 1.072967033828213, -0.15652280957412013, -0.024377086152736004, -1.0323417799959322, 0.15562302698603248, 0.2261215210168811, 0.057012188744077666, 0.0891508989796143, 0.04164638304610949, 0.019725077252035737, -0.08771015090539164, -0.08327535434451387, 0.14808827425410961, 0.11530048598894753, 0.008954811944043203, -0.007702085580970379, 2.569847361105137, -2.084676243027427, 0.07552293371943888, 0.39150381123634814, -1.0460760138871876, 0.19406031148694686, 0.13364534381658413, -0.598833877176655, 0.03674543836699595, 1.3360615746240707, -0.07194057212668471, -0.15856400640265964, -2.050942417312533, 2.560768510019209, 0.24493254565825637, 0.06930727353423725, 0.09129123407616807, 0.01537653523900599, 0.02875363568884177, 0.9789482883277083, -0.06892686526984156, 0.09664171307402546, 0.398677738102139, 0.004764397969293604, -0.6631400254162506], [-0.3180345460161397, -0.0404477376333389, -0.04234784476389443, -0.8522575267893081, -0.10316816069250843, -0.005431728408449466, -0.7302710360588456, 1.0350055423098485, -1.6511933788754307, -1.3100185040651973, -0.4452758208517043, -0.3856959326652801, -0.0702608487034489, 0.5973381314778395, -0.08896178514847256, -0.05414672388626138, -0.08798182976103022, -0.6492559482943238, -1.336221739253172, -0.04557025187654451, -0.08227542156234344, 0.7469859182062623, -0.062401455520186035, 1.9902798785688045, 0.03736331338314074, -0.1267355410290854, 0.12999766150730074, 2.4509022014157806, 0.010349981614413948, -0.0009002206504873612, -0.7227233262302443, -0.05540213549344553, -0.38928519508874654, -0.02818125578841839, 0.03643836706491435, -0.13288327958775506, -0.1229724331526425, 0.09590908038223059, -0.11726992612725101, -0.15320494648772015, 0.7339421403782065, -0.03253487072535492, -0.10602579518525361, -0.03282413712706499, 0.06276545390975206, 0.07875383239811612, -1.4510886784055421, 0.40339980397219494, -0.09432891229700709, 0.09139243395944667, 0.01263693385398039, -0.0434825828676817, -0.10238178801133051, 0.07414563388772157, -0.038822117796841464, -0.12068265862094246, 0.058372327138175695, -0.504923398994246, -0.0015436665481659234, 0.9957897574010314, 0.06556246834619307, 2.4131753648461687, 1.3403013211725636, -0.14696392592266552, 0.3095923803265763, 0.05502590466602394, 0.0004113605255064843, -0.028743588447630426, -0.05525489433841285, 0.04219788893082877, -0.5497440139053424, 0.008202641354501368, -0.006028506783011109, -0.13578314284028412, -0.18141920403491804, 0.5823048255429, -0.24783005580967968, -0.08980366809691226, 0.710748750858291, -0.3723098823991594, -0.01684035222311609, -0.037400074070068096, -1.0003664953877465, -0.40403788105413846, -0.013000808504856586, -0.10311404914419199, -0.19970208663732303, -0.1345106044829575, -0.03301946699404448, 0.0062073214538832305, -0.04325120627376126, -0.009339259092386861, 0.06556785049422607, 0.0026894696208517193, -0.17675081964314798, 1.5375130388481786, 0.07600201733387217, 0.10841357894545098, 0.8296039846616474, -1.0203897715718304, 0.03179003842456694, 0.050960618040000516, -1.044614167090157, -0.02370839464815289, 0.5773742519849815, -0.011235404606945434, -0.09299573929750146, -0.33358173264348895, 1.6164600665761404, 0.11452266775559254, 0.02396756952765701, -0.07425005192070522, 0.060712864513410375, -0.13152713123453919, -1.8501249414256582, -0.08563280532664072, -0.003854990320876769, 0.26680240196825644, -0.08456283309324523, 0.8559629464366957], [0.22998486191678036, 0.09447432077337001, 0.1368351693116556, 0.3346332987592822, 0.047393663213118525, 0.010672860446241831, 2.0093250785562486, 1.9260875080672308, -1.5899601644704537, -1.5287395198584732, -0.9643933297884135, -0.32445181548608054, 0.0656338704944539, 0.203573088699436, 0.07296730916618852, 0.08085744870214606, 0.0351156692746492, -0.38803187388332727, -1.1015749582824903, 0.10848075891435545, -0.0038702595496253748, -0.6935541062026737, -0.05628372741512006, 0.6777007664242106, 0.21378304202524478, 0.23209978647017823, 0.8817091906298601, 2.0463975068546403, 0.03689529139172507, 0.08814770794189264, -1.787449863985806, -0.18126934539021342, 0.14079878803321919, -0.3802481012869759, 0.04186255016544378, 0.09079882028335302, -0.004544452565729125, -0.32276114311517257, 0.23186292209717457, 0.027167380138774358, 0.3188196172858814, 0.10134469019195988, 0.2021024324075089, 0.12517816593280046, -0.07133492704825566, -0.009658096526951543, -1.5670285319537347, 0.753874868608368, 0.34712013470687925, 0.0577298507359331, -0.022137052932418206, 0.002277221014451043, 0.021118009833674862, -0.025238792329944252, 0.0645478609099438, -0.05562616433593682, -0.11237115912820342, -0.3186983087621174, -0.1727703623914034, 1.3377743862827016, -0.09156867991311686, 0.2873063699180362, -0.7530642689030631, 0.09981973752027848, 0.09865629382627002, 0.04121003533600918, 0.043520684953655214, 0.23041285319819144, 0.0660682730311455, 0.04856160620113014, -1.4963242108266102, -0.1322617263601489, -0.053432181879564555, 0.09737833573878049, -0.014291981415297595, 0.9770216438780879, -0.21347954908725925, 0.22168475025643036, -0.08762137132781274, -0.6904986447271632, 0.01290798246190765, 0.2713669559536101, -1.310991818544797, -0.2322169564174913, 0.0899712696795867, 0.020091153295420675, 0.27716934056782566, 0.6429556785986323, 0.06907691121041343, -0.04330087130456675, 0.0992847623847165, 0.10217905836952555, 0.1354848387837195, 0.07258822964135862, -0.027014537382475685, 2.3020127039027845, -0.4324669758276414, -0.02237112749422578, -0.2943030474750761, -1.0471173260296098, -0.12581181944386877, -0.03543140779817398, -1.608755927749343, -0.07861653663924185, 0.42903591797298524, -0.12158614127104071, -0.007998251546640307, -0.898056532038355, 0.8694363716153811, 0.5125714488550526, 0.15458005599194763, -0.014197994077430968, 0.010446475283359197, 0.06760449002366353, 0.011467342106975772, 0.06116718850647263, 0.12746651326568442, 0.6295599495973723, -0.04359619051776223, -1.161154064343724], [-0.25024191428899295, -0.013428564741395066, 0.1024351945066576, 1.1106465951955335, 0.06202598909771259, -0.05347918582125577, 1.0171466864352106, 0.19641984906020135, 0.45760591698116326, -0.7814244249487754, 0.24109349962243048, 0.5863276071254151, 0.015353945178852574, -1.0992068422482073, 0.15356251251834252, 0.007145131524191069, -0.05821551694622671, -0.27972652324356534, -0.014099881151244534, 0.04428688376220208, 0.03680875692155949, -0.6806958322165083, 0.014866849357402373, 2.051726268129127, -0.06426399273767298, 0.01826320034793672, 0.19452056965664932, 0.9343567233151855, 0.0779604480575492, 0.07762511677761935, 0.47582635960647496, 0.111635889904628, -0.11063152341091011, -0.22208706413005, 0.03535893022182143, 0.028967340859629515, -0.027729907811892014, 0.2627855366301632, -0.24808399967054884, -0.08264092950515571, 0.7333174066961274, -0.05704697944890112, -0.008594835129308266, -0.07030187884985395, -0.027032377187167795, -0.08896156914729922, 1.279167820531306, 0.7270553677907925, -0.7152551720212856, 0.041621193613662295, -0.025036860132403648, -0.09107086087520788, 0.03627925576803507, -0.016027322332821947, 0.19185979323954488, 0.09543464764347245, 0.005473916606795733, 0.6922034047429126, -0.03175054392783998, -1.3936593927902627, -0.15583920273197824, 0.18771713230360465, 0.11629678183704471, 0.13886281149496757, -0.19639757801218982, -0.12974885137576195, 0.029636788753034226, 0.019025420106299776, 0.06581810580523441, -0.09127258770903415, -2.0733116948473325, -0.09979537530970799, -0.14404586330349958, 0.0829903857701936, 0.03525480159188597, -2.7079563479405633, 0.4287529579715304, 1.0346011586022232, -0.22449946332451493, -0.34055328898701476, 0.16330158940917075, -0.10806480338123801, -0.2430714605244711, -0.14104286237030667, 0.08175285777499201, -0.03073560833936808, -0.115574799801636, -0.44664632418792277, -0.08767886445318504, -0.11308880296458715, 0.0015227032826819738, -0.19903922334625082, 0.1286761185024525, 0.04348886899560721, 0.02999867661080589, -0.8005124768106873, -0.7214654998427582, -0.012929172123417251, -0.5543970092689596, -0.987279951893747, -0.07797451885281673, -0.06744860472072287, -1.4442175294983168, 0.017766744160330254, 0.35167714695248753, 0.2389088998618437, -0.07574165093966792, -1.8685474897248786, 0.4311041360492051, 0.18344421548582288, -0.06613747241440308, 0.0958038151085556, 0.20118116814580267, -0.06984464728130668, -0.648718719099213, 0.1635493700454417, 0.06219323384515479, 0.5821322543789216, -0.20411204170319427, 2.025504300338036], [0.21132773460188986, 0.17785729211598214, 0.12942817509537044, 0.1375841706921123, 0.146189159501293, 0.20172660766159028, -0.16769322125062827, -0.4070414176601525, 0.24792147186539967, -0.5025795485618624, 0.530542369849614, 0.3830911463774109, 0.15350348877941106, -0.2915252462833045, 0.13626848306339015, 0.13272897205389522, 0.1700891107478321, -0.12175519111437716, 1.0267971297168956, 0.2178882078884939, 0.04745867265135131, -0.21214590165051944, 0.31223784733366705, 0.8655443316723103, 0.2670568893195786, -0.01837034089435443, 0.5971467005702223, -0.017800787078164935, 0.10382842456971433, 0.1414748388811187, -0.00674963512458355, 0.19817269976168264, -0.12441728614003664, 0.10195152668367263, 0.2023340643820432, 0.012334084630461704, 0.07491431779902902, 0.5860115995695565, -0.7215272737018363, 0.26842906808339384, 0.2876242967536644, 0.25004018040711407, 0.1937680360229904, 0.154238789417815, 0.09821250313572923, 0.16554653739160133, 0.6244123558322702, 0.047728969022494315, -0.9122354338191734, 0.3160564778803058, 0.3341861894828763, 0.16618688852928312, 0.2976850846834428, 0.33271269486579025, 0.23158648197822396, 0.1452436581460704, 0.2570234250971933, 0.5795542292354429, 0.18084938624705213, 0.042877669848488356, 0.258035773644316, 0.07781292071520793, -0.17839996362004049, 0.20962297097471236, -0.13892624149248678, 0.06679792323790075, 0.12112648656175143, 0.12232011159069127, 0.058255589624871804, 0.1749864934104415, 0.08409419981184407, 0.29131968036440464, 0.22092911869380613, 0.19791177680049007, 0.11637985046246373, -0.21493474089711495, 0.49698815284268005, 0.3046641770781372, -0.16236659495815392, 0.1374438275967979, 0.1960188459083344, 0.10978514831946025, 0.4852314943690088, 0.04916465889609634, 0.26782410535950024, 0.06984787855671938, 0.0036182608997440036, -0.11021959862880927, 0.37951630450172985, 0.2770828457191666, 0.1328397112290685, 0.18233414361959874, 0.13023600410900638, 0.2640680928236239, 0.21335813952561394, 0.7133884668536181, 0.3385946194554563, 0.14556816310643766, 0.5968896491345308, 1.3011235394100764, 0.10316693108502126, 0.0247991917713396, 0.20838334978915382, 0.18568920792724528, 0.6846052228509137, 0.20308130820438117, 0.35232256538871287, 0.6206609421599026, 0.0702308567822169, -0.0716397491592944, 0.3163397986983701, 0.1903207847945147, 0.07316942798002929, 0.3077537016731819, -0.6353789071780187, 0.16314241837825702, 0.2686583699691988, 0.020250709624410404, 0.16486856829023058, 0.26825285675301813], [0.1276650287923444, 0.2441373481315598, 0.010179109228035645, 0.7348490216335329, 0.0929887298178667, 0.08490433132982235, 0.4151548468062759, -0.253251941521103, 1.5239577655734662, -0.08998524650605129, 0.42655239577528986, 0.43559765610140727, 0.11549996645634383, -0.3591881552591652, 0.1929891884665319, 0.1948332230378625, 0.24797648675052816, -0.11933886815655187, 0.025719212007017125, 0.12413347857177542, 0.1807364595540365, -0.49976605719278216, -0.05529596595458058, 0.1012455002402828, 0.19957811684883264, 0.005080393608938804, -1.022411764588603, 0.42399278809357743, -0.09700745732810298, -0.048950405054959324, -0.0855751114854454, 0.27139175002103466, -0.06008791930539044, -0.2950985951828648, 0.056667763375099184, 0.1723329418092308, 0.06398139285722007, 0.7211097575619485, -0.41964871603579057, 0.10975639698622029, -0.3229798548476046, 0.08931907385496671, 0.18588122190328896, 0.001399757479241693, -0.005398537820233286, 0.17272422680972063, 0.4045123266259581, -0.20704087946504215, 0.5797445192776469, -0.07393134929283439, 0.004338317456442374, -0.041151741212285146, 0.0986845043053192, 0.2501087032980416, -0.0246848145540645, 0.261537579260873, 0.16715031343558037, 0.3262502031135098, -0.03075494215166543, 0.6156859087258497, 0.07773384029308823, -0.16909030182421203, 0.031017572263805162, 0.011189519506034798, -0.28427127300184907, 0.029515734389422132, 0.0087649265214208, -0.03898183315974348, 0.049087386337882996, 0.19239155245186676, 0.48261852782459447, 0.2642328368912725, 0.06937628672366365, 0.09592182688541842, 0.20377344180830506, -0.8758385116461074, 0.21428639036501287, 0.8544541381674644, -0.13042021773920254, -0.5905896410197654, 0.07388289122576441, -0.051708696975319164, -0.43307442439971033, 0.26550963617119555, 0.10979183046101791, 0.2156970568933434, 0.06279444364783208, -0.2663101191513479, 0.11428871259796486, 0.29023593673000553, 0.1574179059778253, 0.1876572138479932, 0.15781596266012995, 0.0009348389726842439, 0.11964011605478014, -0.2012233826672585, 0.08122840796586228, -0.004591602860164225, 0.47950745657449223, -0.22167859209700663, 0.1454324122909264, 0.09375755269139907, -0.962986340268599, 0.1379813557921216, 0.5196570703248516, 0.1318212192856906, 0.15399767326096672, -0.8868787530986685, -0.11400867644439323, -0.02293028080156007, 0.13793178907497183, 0.11390549718938396, 0.13817359758028763, 0.13497180525743627, 0.33742051387451594, 0.11271923629837344, 0.1886972181651051, -0.08028072747775279, 0.0864154140389322, 1.2451642310682893], [-0.046550268584421614, -0.12074618582486038, -0.17850230090529454, 1.2396067438004807, -0.08795397164035844, 0.00028653921182141375, -0.3249279910168351, 0.15379593425036395, 1.3824977691714597, -0.010802147395262422, 0.47653548582917177, 0.44039697721745136, -0.04528986701470491, -0.7306263126915765, -0.057421397087313905, 0.0655176113804955, 0.01107117631348829, -0.32870740979501156, 0.20567520564538777, -0.03664019320407852, 0.027604199023350654, 0.7566517171799477, -0.06912789014953134, -0.22128876597158528, 0.0427641465485277, -0.051413228923761226, -0.6069709298925438, 0.9851353329003936, 0.010707644733488238, 0.020604414559685306, -1.2751407003795276, 0.1315236613284169, -0.29697831304709127, 0.4861686126291142, -0.04310439550369752, -0.135557528229832, 0.09309098896299597, -0.03862824595931423, -0.3563539370981652, 0.012457809709251784, -0.7255646278016772, 0.09418985642585093, -0.00371148098342539, 0.08166724094128172, -0.12724351156840777, 0.024151022049742312, 0.058976233845487405, -0.0314688886113922, 0.709010771218044, -0.003983175276462361, 0.12796156026728023, 0.1187607966171488, 0.11675803367596038, 0.056942004725961386, 0.15534523899450559, -0.037348779025361, 0.10298689248270912, 0.713466444807545, -0.0005462865152961254, 0.9246610722480031, -0.033650928942874504, -0.3063537056020042, 2.1843783602431897, -0.035398593842924486, -0.06808696370338671, -0.11638193327857553, -0.0105399125266858, -0.09040936028146639, -0.09490418365929791, -0.10064104546748881, 0.12002856691998276, -0.03279424277757167, -0.12733114859716077, 0.046946878331720766, -0.10974852465681405, -1.2156428526274885, 0.03848602376351077, 1.3846911427679256, -0.04364227395188082, -1.3615739817515862, -0.16212428582306335, 0.07357558267315832, 0.21993140291873164, -0.012993432275952023, 0.0268856414032763, -0.033818065793300434, -0.12025314936542773, -0.014480338469696978, -0.06023748533601435, 0.00974869769256189, -0.03427078377227131, -0.04011911008593913, 0.07047168591104579, -0.18464165749869624, 0.18251796390751912, -1.6026740287225056, -0.16750050452816356, -0.06093445846949009, 0.1163514798432377, -0.4857217208406793, -0.23397777703379996, -0.10405281999398464, -0.5309670509811523, -0.11108926707460702, 0.518640145959195, -0.03954736689284725, 0.03728344502522378, -0.8323373627857847, -0.8860915668372541, 0.2927223604905736, -0.0700650690021951, -0.06688052289091508, -0.11627063964634368, 0.07608980141608468, 1.0785054170354795, 0.06343299682486053, -0.012147942287625942, 0.10789149262089391, -0.11048412315090304, 1.1583202581152858], [-0.19590005066341215, 0.239844139014442, 0.033816766161139294, 0.6585941331168553, 0.06068220831175672, 0.018783706241651963, -1.4966031016627361, 0.8476076407233714, 0.2509026686786058, 0.7401763797553667, -0.20555705887627446, -0.0948768035491112, -0.03426502778467439, -0.39818276004953174, 0.11579636693953102, 0.07365484539378778, 0.11297797220704878, 0.1082425811663239, 1.6305910389358702, 0.12735313604855408, 0.16710757622789202, -0.5595016915582703, 0.07493681147974575, -0.37189954939094355, 0.042429690194298555, 0.09175617816265413, -1.640065767941097, 1.3864889688939253, 0.07817638267197688, -0.03140205263782941, 0.39637043242575626, 0.06748056274335949, 0.11550067403755775, 0.15675566006770644, -0.16329481431694393, 0.052155110077170365, 0.086040005353718, -0.5676087030371988, -0.715531646299691, 0.15382063146043579, 1.2684331029511375, 0.02497820141735085, 0.10208212675859753, 0.18427455766713885, -0.053821997802225505, 0.02682083355058665, -0.041909511268835506, 0.183511664801658, -3.170713245365859, 0.16449585033842543, 0.17864802537012714, -0.02798691593934967, -0.011357098537182232, 0.044153631960962815, 0.06331457178273403, -0.09441753544709205, 0.004818344387222738, -0.17550108320446975, 0.038942871610142316, -0.6223678034150182, 0.05114950157964222, -0.6160859849449783, -0.24429266978574954, 0.1278135573224608, 0.5921674510691104, 0.0982874230054671, 0.06556416215080763, 0.044125467397665645, -0.16664967120301566, 0.1644568021343563, -1.8313478555112852, -0.05085585782535489, 0.04996718116031369, 0.08102274657128616, -0.09468043226165047, -0.041300854887896234, -0.207963688183001, -0.22514585996208275, -0.059484096820184115, 0.3417588888343501, 0.2139688126247589, 0.24088644128428624, -0.1480961094781996, 0.09316720065839779, 0.2151139413074144, 0.13553092325008761, 0.0714167498898781, -0.48780032366481035, -0.0014270502548232936, 0.20405896010682392, 0.07189275806727884, 0.20424290591605285, 0.059934353057869635, 0.10018226852969732, 0.06449349514784243, -1.0502419955528228, 0.12356804032648212, 0.02279967457047279, 0.5376711390250017, 0.09873695605722546, 0.09671126156083712, 0.09031631974335272, 0.13749817190640784, 0.08535321223433735, 0.5151824846001474, -0.012157964490046426, 0.03948244162800385, 0.40147287633788137, -0.8094403796150297, 0.40759782722647026, -0.04038687971862119, 0.0719185286623866, 0.1463726585610094, -0.020576458995309747, 0.43135400416615305, -0.037084072142012627, 0.12757281093255168, 0.2944458653662435, 0.07917272356593234, -2.1477506701199482], [-0.657736001563845, -0.12955799250045139, -0.03328996457756481, 2.072851279602415, 0.08046299245623213, 0.02268703571923979, -1.9257642346063022, -1.637085555257305, 0.9815424497561493, 0.5280456017785493, -0.9892128872733599, -0.6383727600770539, 0.0839009100013294, 0.4629508814078696, 0.011460514878746017, 0.028451970223138456, 0.0438101435613906, -0.5197244027193603, -1.6796502155941397, 0.03577975978652735, -0.06198643830815491, 1.2995703219531705, 0.10049474012268957, 1.3288053191808935, 0.2448763768077909, -0.23066552450915748, -1.1472491917670735, 3.1317001725552776, -0.004322653302487222, 0.24733956732090415, 1.4475664790451739, 0.03916208361133084, -0.6123744566951295, 0.5752955182057476, 0.1050172126237263, 0.09469260001042619, 0.06632071322104388, -0.15014076026791776, -1.3961684159536787, 0.02113269464383554, 0.2434926998102017, 0.03896189288706754, 0.056646961072363014, -0.02321718688489096, 0.05160128924453594, 0.07697337023167777, -0.48214094865682927, 1.0040968267175763, -1.5922777327321744, 0.03983052138724629, -0.05493813391068315, 0.058159545581812126, 0.10497110256440038, 0.15462771040406276, 0.005063532626354852, 0.13942487638276252, 0.07003072648585962, -0.6152908316953618, 0.07380602446515493, -1.3091130068298005, 0.11734810136793274, -1.0257484598836077, 1.0169928953601846, 0.05857928804278942, 0.978398834282166, -0.032934224824532427, -0.03824824764621658, -0.023164966413019898, 