{"hidden_layer1": {"weights": [[0.1874445953431166, -0.40019362327050895, 0.04396175741551479, -0.19902421158748063, 0.11898618251106974, -0.1758586194100699, -0.22488121658097734, -0.08588477059880827, 0.22338603285832276, 0.1322709036838425, 0.19719762240048944, -0.08403358181286151, 0.11444279270975101, 0.07332511781236269, -0.19555772950639924, -0.07545693495857592, -0.02759775574732534, -0.2271389888313742, 0.018645634570227453, 0.2484546883246923, 0.003688737351753406, -0.30374196679119103, -0.11897840674725667, -0.15580198563728298, 0.13056854189353503, -0.41818274853842063, -0.012818014231618735, -0.04940740256177901, -0.07707772749966137, 0.034284887372800214, -0.13362346336781367, 0.1322660592625561, -0.10447328575840147, 0.13333224716865807, 0.14953301309160183, -0.22630455266529298, 0.12399984457188053, 0.15884588490426343, -0.007954055385762488, -0.04887248212696481, -0.039949322738364275, -0.11437205954565358, 0.06840062627867233, 0.08877164759743461, -0.09202641862665427, 0.3773897620681645, -0.12680408343166058, 0.05226322732513307, 0.10573905942517614, -0.2892893810903368], [0.2149218488335521, -0.5232654208343391, 0.1002196002809932, 0.23425877534404402, -0.12848321854664535, 0.06239672561775947, 0.1643197843529759, 0.1422881080457789, 0.08765331185439922, 0.3554717349029343, 0.3609197664121255, -0.2266801832241181, -0.26267272381764173, -0.1594933693843303, 0.065269197458231, 0.1465849190411627, 0.11187575912196684, 0.014169689575327285, -0.06033094579661367, 0.24530542453550322, -0.11871278958669683, -0.14703742738460351, 0.5362533087624312, -0.2567153182128484, 0.21429337449322136, -0.2213788820390638, -0.07234510394630889, -0.020209905515383642, 0.04929307982920673, 0.344305500622127, 0.14929311364468054, -0.030032113413077967, 0.13355851784443024, 0.04562487039632201, 0.06675547465462889, -0.016322968342106864, 0.13428898368472955, -0.07405541934985732, 0.2636501904595564, 0.3614802528805205, 0.15108792926039924, 0.14759925619651748, 0.06047471118755782, 0.00014622426287346649, -0.44903290517821637, 0.133286849517055, -0.5778358562461731, 0.10479928803055209, -0.16564093158178161, 0.022890408279128135], [0.30456124491375536, -0.5304894286930222, 0.023762075620193772, 0.28717533974050263, 0.36828915579227695, -0.08501617877142086, 0.17862564040822898, -0.04312412319826474, -0.2430191739655627, 0.03187901489528332, 0.45958175065979395, 0.29253418855838514, -0.29754975440335946, -0.02177979095921681, -0.40971734992914177, 0.4858722667394647, 0.16507903820654926, -0.20525065136178425, 0.13205032106877418, 0.13312622079871417, -0.07905245538731467, -0.13065297275827178, 0.07712074634099304, -0.58473441654245, -0.5480225150791571, -0.7930468887691279, 0.042496022871718414, 0.18335085768214834, -0.23215969124498545, 0.10856831191379725, 0.1088869657976039, -0.1586185078466007, -0.10393857449787125, 0.28896705148270263, 0.09879518214609678, 0.024813204845776364, 0.07832642532401528, 0.031410998209665995, -0.10015371769600233, 0.5065409116068588, -0.17228815991959856, -0.12294008396404431, 0.3563074056341904, -0.15723103137812428, -0.34520314948486064, -0.10160291161284259, -0.2815726116255074, 0.20730062982866818, -0.3815930222865076, 0.10079783164057307], [0.40926114828940113, -0.009232196420821247, 0.38867507438142634, 0.26003371288712507, 0.1545107620953516, -0.41523355615209556, 0.5051805607105259, -0.19733740247999454, -0.7404250385534705, 0.08410610579265988, 0.6733506913664387, 0.7409220948794983, -0.19472642265310391, 0.25500206210219606, -0.2608178961791136, -0.4379901961545609, 0.08293052997403642, -0.8342085712153482, 0.23578365584308103, 0.26734917098743866, 0.28880079848358714, -0.36410657754632025, -0.18787974120903733, 0.16739474308865068, -0.4480812815777478, -0.6228581302438847, 0.014052067690133868, -0.04464628002205183, -0.06470961406702357, -0.0950761168851415, 0.04325019432242158, -0.35094041896474887, 0.6262467383620611, 0.2756745218565078, 0.3502021223474461, 0.08483282112530172, 0.4334448413481644, 0.18894547957880325, -0.06701361498766983, 0.07955209654204139, 0.2429550095854571, 0.12944860312322745, 0.27864702205512387, 0.06755349362149202, -0.14655044783467197, -0.028059328709060864, -0.2399867267756437, -0.11124542470420559, -0.19355305936565745, 0.11465858090759032], [0.0074470224606458125, 0.18871420626924537, -0.12255016088485146, 0.1660269038389921, 0.14763120512793734, -0.2695724261304746, -0.10931516001733474, 0.13549384710160656, -0.2550161459191507, -0.10215616589036124, 0.19323389157913504, -0.3922024851495824, 0.1158033104341779, -0.33885866762490535, -0.296356750842736, -0.19697621797109524, 0.1319599508003866, -0.04069724068624906, 0.18678104292690803, 0.2881545524254296, 0.2983386232321555, -0.4826741135600862, -0.5075836431021502, 0.46429059564385394, -0.013561023423967155, 0.29022614956379267, -0.021117905097463262, -0.09669410270893768, -0.13876710985949461, 0.03573741261089497, 0.3428102237359703, -0.23004782980311497, 0.16996172232022996, 0.2528592395911863, 0.0817568832235193, 0.2831601593910381, 0.5544629327613496, 0.45258009157265505, -0.6195558394998332, -0.1051076312309196, 0.6457300529975999, 0.1097248004940409, 0.13901567820181637, -0.3486673210145927, 0.3379863010400922, -0.16546559262257887, -0.3603455135943498, 0.13922072746284278, -0.14568331193117232, 0.097795194417543], [0.1683705950746297, 0.7996663718860835, 0.40315886929418937, -0.08092203548262554, -0.3293753538519833, -0.13217662407098685, -0.2226377692830676, 0.6697656733897522, -0.5028288120694613, -0.14296284181860452, 0.6945081185373958, 0.42044502727137717, 0.5123832335144035, 0.13731346629339392, -0.38567010799369855, -0.7455613553156455, -0.4164777805391765, 0.21750531395886505, 0.08120125601744323, -0.10723501721352516, 0.21429473124074402, -0.07677567048855351, -0.4021503878298687, 0.3140594975924707, 0.4000903386152966, 0.555770775229948, 0.1254821884135863, 0.007964957205301547, -0.6763422442350936, -0.04530168441943154, 0.09957267883214271, -0.07311783551783449, 0.2783962308088095, -0.0458726512099403, 0.16503297810094514, 0.23220682843556148, 0.6458719868513182, 0.2681934183144826, -0.009656064441651733, -0.1398255380243348, 0.30242379524092844, 0.40028586925434223, -0.19036267464718254, -0.25463567013088984, 0.5732464698747021, -0.4356442929069661, 0.18809155533280336, 0.23955113672335313, 0.15129661999700156, 0.1571317258729948], [-0.001982332907860533, 0.5969635310201475, 0.7591916169985602, -0.2400029648228408, -0.2121029626399027, -0.0500502709852015, -0.3326579819436087, 0.3070272940924571, -0.2615228376591814, -0.002894437393017248, 0.48159476125358086, -0.001185043956808331, 0.34233883280323024, 0.26773363701829017, -0.1617061247282682, -0.30170934774472385, -0.13207800728075944, 0.5511731061326555, 0.05513610392164087, -0.537496657322325, 0.3139555533063323, 0.028921452767738384, -0.1935399104134288, 0.47215225359627133, 0.33247499487450455, 0.6355958093846946, -0.15202868086192997, -0.07678580993998162, -0.5100521133288669, -0.02086109034775908, -0.01896506850894874, 0.12191477825181404, -0.3170045794783076, -0.42765054150766824, -0.3530408528064843, 0.43192547417772853, 0.09603542555295848, 0.6128576246565265, -0.2614950093888357, -0.2985827815155085, 0.03041130756397428, 0.43344150500808776, 0.09503277283594162, -1.0324013819611384, 0.6026235486957201, -0.3306864086159673, 0.18736679754727012, 0.27745550876317415, -0.17554714136782096, -0.06922367333456415], [0.11228110879276888, 0.4759208627998937, 0.12152352255811992, -0.18062315069619603, -0.12325998782307793, 0.12429660528460312, -0.11578833330816647, 0.014755285416579148, -0.1255173975466709, 0.010157240743827674, 0.6483114182162218, -0.20734263788168247, -0.09576357196138145, -0.318096846207984, -0.08696165763648124, 0.018744505054250474, -0.2171079702711516, 0.7288338452340967, 0.47941003497292506, -0.04041027655948618, 0.4125441448787768, -0.15331077837637222, -0.06864113497319217, -0.47025081754255055, 0.45169048754034835, 0.6493513239539598, -0.04063393808233197, -0.09743807504630254, -0.009409017862016972, -0.010176490830319228, 0.09601108296705202, -0.3585077042607533, -0.35457125476314333, -0.06405209304547776, 0.0018276098225424575, 0.2557413208343238, 0.34694179139272907, 0.9049648495047101, -0.5488932266703416, 0.21763219133008888, 0.15468513554618926, 0.05516839305163397, 0.7154344706924972, -0.5007536785300853, -0.03417791103748966, 0.13972657232557337, -0.5766526183813223, 0.09832757541841931, -0.5843131602012671, 0.22233581590911955], [-0.37288968160957225, 0.19083219970587856, -0.6750218142163079, 0.001403973910236588, 0.3015542009130373, 0.5347497982273445, -0.4018777258609954, 0.019828494789423858, 0.521554315346491, -0.11186679944881683, -0.2031296262117703, 0.029217274647896863, 0.1864466989630905, -0.4213446491527481, -0.10368774701748251, 0.3314358739440712, -0.13143734865753368, 0.5032893937778707, 0.3954769531241446, 0.2660687254481664, 0.5464130502135122, -0.1279138049032608, 0.0227525097644193, -0.11721908341969876, 0.06325727203159884, 0.3316325753384681, 0.11363272414883514, -0.18317367853728325, 0.11512492976413682, 0.05479306923956476, 0.3571387244870578, 0.32437846133386217, -0.12330767133482481, 0.009370450972180016, -0.06698624743025174, 0.08292842633948973, 0.22312706607702373, 0.6871318804891142, -0.18187322990173532, 0.7526428213711551, -0.17841677048174026, -0.1700783974125106, 0.5687609945636469, -0.04968641904262322, 0.059217183079756514, -0.3716093838809278, -0.3462285428446349, -0.3305815403054674, -0.0027381280455054885, 0.10053732186185185], [-0.07525430816384385, -0.25905905044282956, -0.31992489115249517, -0.32603356727037813, -0.05433420703385529, 0.38201265286489655, 0.2755088971063837, 0.029890500916168874, 0.2761964201031447, -0.16339620034746694, -0.038737469899841705, -0.08523491356003396, -0.15322718802564247, -0.23917674470967581, 0.16961801733128992, 0.23589476906618093, -0.16470647259605858, -0.01665441266822827, -0.06787443815388741, 0.33196348787783825, -0.12079586045199289, -0.16671792179293918, 0.5243018352340398, 0.10974792549814512, -0.16931068369007388, -0.5504428082368304, 0.12685682527085582, -0.2242973441603035, 0.125789527148991, 0.2729960567886606, -0.17361561803548486, 0.024562449529860083, -0.11779720264481533, 0.2874465118385225, -0.05201937203624043, 0.13184305549214465, -0.06260044577287383, -0.18780459831882085, 0.22117822400749526, 0.12784611488737738, -0.273589621365736, 0.012437780633969997, -0.08620585012788345, 0.6458537386444219, -0.12629034000156553, -0.2638610061460175, 0.0700531550023718, -0.16407834683341535, 0.07507427765016961, 0.03467178576513697], [-0.24476482752195666, -0.21396731673503055, -0.037529655543735156, -0.07606886957309594, 0.21948327774229104, -0.08289743177089097, -0.20584081926568423, -0.1380258593917795, 0.26329285347046105, -0.00044148976019703785, -0.05102723355635479, 0.13221717898747418, -0.005776222683248904, 0.040910043531754384, 0.17534129371317708, 0.307645370610347, 0.4142193530995208, 0.051397762122732754, -0.05409520291135581, -0.09671474561664102, -0.1349317899900221, 0.12408988934101332, 0.19782484076735732, 0.02556445117845037, -0.3398657702182166, -0.24170113565103146, -0.09965430928653358, 0.032502212358719015, 0.05307548178860413, -0.1174936399374092, -0.016534864380514352, -0.021735742902888617, 0.0661172737328682, 0.1252510316940114, 0.09837293776384966, -0.23278909759573954, -0.06998834017522614, 0.026493272750275354, -0.11378976957834118, -0.183399606105578, 0.05431361418467876, -0.3799169725093925, -0.2719461924583186, 0.13174322093800614, -0.12483321147113356, 0.001364384559696463, 0.042415736768122575, 0.09104606225478994, -0.00235252079977085, 0.03408219264891102], [-0.1305811279244776, 0.10296154754810799, 0.013301976046910897, -0.028102269213225107, -0.21344084755762538, -0.07075249692482885, 0.03294693430548156, 0.042072091248970676, -0.006906826892700549, 0.05360967890319993, -0.17418128696374643, 0.1766756186165382, -0.0012348460284876182, 0.013655658356466364, -0.272208525557953, -0.2241745052980552, -0.03764946829115059, 0.011564190162245042, 0.06398156971550621, -0.11272405906036558, -0.06235888685678679, 0.07676405909294955, -0.12116814868165232, 0.4813883693968231, 0.07286905102037608, 0.15934699433802085, -0.009956964204477926, 0.10687980252752412, 0.0758029800745512, 0.1048669339401656, 0.22227882420364034, 0.17026778906161075, -0.38003966279763246, 0.23241759425001368, -0.04165280998368407, -0.15450509707497115, 0.002300007481479645, 0.11812698760757981, 0.21866479445770265, -0.45962129306203986, -0.20866248073732288, -0.005461338640628428, -0.29392724414179905, 0.08343885114974058, -0.12742813488932728, -0.01410215285242112, 0.03403751747893458, -0.18585125544860953, 0.10941150484608678, -0.03329931255611833], [-0.19121388193041655, 0.14429482464064924, -0.33786502827887327, 0.015812180538897283, -0.2758157822062881, -0.15747382447514474, -0.1197471441152026, -0.06324602001707968, 0.11171083157688484, -0.1267790185899272, -0.20257125516515442, 0.18605351878922405, -0.08629520665287935, 0.1555170619732857, -0.29708302935142894, 0.018196023971921153, 0.1025961831099502, 0.042293430452355806, -0.4990928962459443, 0.14009736577458828, 0.21106086910917063, 0.01634177003743305, 0.16899234518554426, 0.4143053879582176, -0.29723233423457474, -0.10079439301548096, 0.24461178177648013, 0.08823835004647204, -0.3198567442442692, -0.2435122892306402, 0.2851073977075045, 0.29214537275100744, -0.17133223825914828, 0.22625281682086137, -0.23730693757437346, -0.16879208931118617, -0.01122490438113092, 0.03135778223495707, 0.08522006590354415, 0.16665698158937178, -0.10491199574494858, 0.033075516707925995, -0.19085972632244505, 0.12140361415440906, -0.19068896762017978, -0.17487821552035454, 0.1848742121517056, 0.12818401601341733, -0.04408698873750714, -0.2901350580201891], [0.16296167576622772, -0.35855268529693307, 0.019541069042910707, -0.18605667891030464, -0.04952762849171206, 0.09479923516760598, -0.08827966671819831, -0.5385982326031398, 0.07198927138037989, -0.05506643395806181, 0.21402101003703383, 0.25730284468587766, 0.14550511641760255, -0.07313411377935854, -0.31586664734488606, 0.3154035669047531, 0.026338081916241218, 0.1049871814689526, -0.23045700917563816, 0.4307942843652538, -0.22777927249309404, -0.15717631961201198, 0.14684521678901236, -0.0671773776146787, -0.5150920536687195, -0.6545696715911802, 0.21054300058936962, -0.030292311560602643, -0.08913560701301841, -0.19108192805606128, -0.09001911519828737, 0.1206423566337755, 0.14264057125385787, -0.05562317651179116, -0.21151154135597566, -0.05304460714278859, -0.09152053857609221, -0.1438756425351178, 0.06971562357359784, -0.029699934021972237, 0.060961966055080266, 0.03951287534451086, -0.30257293081498554, 0.3522608502945594, -0.3756173626228022, -0.1910369460344909, -0.1983791036329184, 0.0696303683045834, 0.2830070654648372, -0.2723185405072202], [0.19986968676068115, -0.5897670262892759, 0.0405850512753137, -0.20991058654101444, 0.49174732312786307, -0.29756830326943867, 0.31803322327795547, -0.2435503865435432, 0.002882381714818677, 0.030332022861676706, 0.03193883558904426, 0.2899614175879662, 0.2775323418748008, 0.18227750394483827, -0.6738395712067231, 0.17562056736650775, 0.34889189247191515, -0.057053172815093214, -0.15030103725129862, 0.9520506034709184, 0.3752875427486365, 0.4551149775926008, 0.27154343901645145, -0.1023878022170776, -1.0323024386163073, -0.23094629249524046, 0.3341454559272878, 0.07325835538983672, 0.08793395128612586, 0.03247274284307162, 0.37689164302230777, -0.3806471258974117, 0.3395363775747851, 0.22973835528442854, -0.34482414691177465, -0.5990814645098201, 0.2502775447584, 0.4802737804728135, -0.5809027907293528, 0.49145232449014903, 0.17661195853440642, -0.2123940152765917, 0.39414307761731177, -0.010470450161135196, -0.14953527571342623, -0.2947021506680232, -0.3130721040569109, -0.24934462937991397, 0.1299857465271317, 0.18812682169861014], [0.16275288903181684, -0.20223492860803322, 0.05794594360508857, -0.07044095846388417, 0.47591961968634816, -0.03787951909413508, 0.28586090692391897, 0.026280316929818474, -0.5591568593929134, -0.49547409334401926, 0.08909569345898058, -0.3945555887133541, 0.08897820720307474, -0.7664244282536498, -0.39457005367510084, 0.2015255721695496, 0.13192486542174997, -0.08959516361927942, 0.537175818944604, 0.1487978049598961, 0.415840352053686, -0.31878145344808567, 0.3209335349300261, 0.003165592879558369, -0.7404457689270637, -0.13171079362208546, 0.3566142262617219, 0.23385190202853304, -0.218721559215271, 0.0954949732442328, 0.2872935246057678, -0.5156436612477011, 0.5612505076396253, 0.46017857676414237, 0.21000445669117912, -0.4430671492438141, 0.35974651032769667, 0.4065553849056085, -0.5012229224560413, 0.4962145887094586, 0.2287785261768928, -0.21570992206905149, 0.2833680252878961, 0.22935704959193234, -0.06565818328007691, -0.15956704107544895, -0.4289551959324774, -0.06151428392933685, -0.6475576004247235, 0.1407662499774574], [-0.33298535484411085, 0.044524446180120685, 0.24255743135910995, 0.017303028073085702, 0.17239485517958117, -0.37228918334319433, -0.011692452819143134, 0.0955260779050404, -0.0878076350648243, -0.04199881843624687, -0.07180506013146441, -0.2541451650308424, -0.014170369418628627, -0.18010200307424526, 0.10679046586643512, 0.2817687037164018, 0.11829543313621788, -0.2506899012591389, 0.0034806600106505035, 0.08450888547623399, 0.10872537664694457, -0.3392033562889189, -0.18497419343028015, 0.5013308250318047, -0.14926505740672927, -0.30721354182403016, 0.2792115413956116, -0.0020574635145358413, 0.06017629576674537, 0.3667903046452263, -0.06642994441873996, -0.30064358181744644, 0.24040266788976847, 0.595987269849386, 0.4167438746796049, 0.05072803294051987, 0.42650643719428544, -0.27095878638449467, 0.3845175494370413, 0.028294508065020037, 0.11850800760778084, 0.13129021214083023, -0.20435108118645967, -0.12066205464710322, 0.28927575516103077, -0.04495892431105854, -0.31721518256346287, 0.11653906340016486, -0.21680352231188738, 0.04177022608866965], [-0.41224788074934915, 1.1072814550628813, 0.029071282985227508, 0.1970407127174965, -0.4761376049263316, -0.5122010690318756, -1.0181784429350738, 0.6189440076226811, -0.8206363869291495, 0.49349589870575583, 0.5397057228836177, 0.49942385676515355, 0.5821759597707764, 0.1412364899114762, -0.33865874000097484, -0.908647936277814, -0.270632669168401, -0.03876842988246036, 0.510599245703127, -0.3136439230657452, 0.29634592987717434, 0.40692312375320566, -0.8207480431942049, 0.20629779549724925, -0.0647827532364078, 0.7330671347363157, -0.3203903957988594, -0.03259120913690674, -0.5842287720891154, 0.16421914162748733, 0.336579817247761, -0.30842979574190427, -0.6325440961014448, 0.13832393949215877, -0.12451932125036064, -0.15552267360569616, 0.5688999270107157, 0.3054526084018241, 0.0667120617897001, -0.4863936688199404, 0.27267710189934313, -0.1526759507933879, 0.29282983018716785, -0.46251239263858956, 0.8511743246988289, -0.419356766296258, -0.3727811129529846, -0.4860245438078781, 0.28678085634695827, -0.2174573787351849], [0.4127586177333576, 0.6481982499920739, 0.7604770851218883, 0.48402408221263743, 0.028847198345754426, -0.41703477753256957, -0.7838461959298048, 0.44751443933508633, -0.0020710339838775267, 0.34741846862950143, 0.12397505224795742, 0.2658266593311274, 0.8336703976722268, 0.12061861302637883, -0.5359268925766918, -0.6934946386313435, 0.05861911518327161, 0.08803611634233197, -0.17840667150408004, -0.6127709009846166, 0.05326727952027981, -0.06867121553846191, -0.465233718211206, 0.05020725065210273, 0.24414302330303395, 0.6828603013820524, -0.1292113074622865, 0.5228517448970693, -0.4865031889534204, 0.1369750432624192, -0.09039033116803127, 0.05272214439867764, -0.16524079850764525, -0.45342940257494835, 0.2612251264348429, 0.045188092615516366, 0.18170338744393197, 0.031742621908968156, 0.23713618373295184, 0.31100226815263776, 0.16921291390433132, -0.41158231163069664, 0.12183922243161599, -1.218253883034654, 0.4015323742112149, -0.3417646150021301, -0.12886129879682087, -0.018787114692820798, -0.2852912124836778, 0.08002010660184403], [0.05780779067651821, 0.14427251429021593, 0.29951789770232473, 0.14873060229124713, 0.6157613751767964, 0.4760700590373138, -0.18698840173248266, 0.31787734653521127, -0.08398167041056205, -0.13936711910702604, -0.05185433804556016, -0.9121245623686663, 0.10621589910905213, 0.5523667103218206, 0.47184287280466136, -0.069147641089491, -0.446163708380445, 0.31297437442918574, 0.775418687275763, -0.6513914802883705, 0.07756951064627998, -0.5045756960620257, -0.2248701786681675, -0.11145423434653169, 0.1863936246178014, 0.2625125623840337, 0.05252607182156927, 0.16340285468684268, 0.002423434796039853, 0.24580625496985153, 0.13052500313514664, -0.03739811494766078, 0.17421059696250624, -0.0619330625122835, -0.04508218131059421, -0.003699882714041904, -0.3317340730783551, 0.5806521729979828, -0.7998159762457016, 0.5988682071281619, -0.2070428241065799, -0.23883160750186963, 0.682272203171852, -0.4412416515765131, 0.25184945346204246, -0.15608435694768136, 0.28494778652332864, -0.030012094730982642, -0.29672988789507787, 0.22932404222135563], [0.10948592738550669, 0.11177225397727737, -0.36860384835114013, -0.17391486037213016, -0.3206369649519295, 0.34409384942421994, -0.4024793594479529, -0.049484947732132516, 0.3226923241886626, 0.13045321397970766, -0.32810358193712713, -0.1692687877618889, -0.4572988223963499, -0.4543637061440234, 0.17337677409152313, 0.5945773616703484, -0.12379235095016702, 0.42093683386583886, 0.2121938425921691, -0.3739884471642413, 0.6186026584374377, -0.15846594663361535, 0.46952450070389584, -0.08536343872898003, -0.21648604383152012, 0.47795951370117795, -0.3118065771649957, -0.37279459787468483, 0.2009750295886998, 0.2545856800864491, -0.36296351781312935, 0.2799559167462314, 0.4649484328846166, 0.3021855934169469, -0.19860274259935345, -0.603530467351074, 0.2076352839215267, 0.599731071143472, -0.5629362115781282, 0.31707610409693127, -0.1445618463138721, -0.39071206020385024, 0.8024263461249768, -0.2417903568492485, 0.003539404370627666, -0.03289617513625793, -0.6950599716014936, -0.44839073557768216, -0.009159611662120067, 0.04947347514293124], [0.2903899495814448, -0.010949072946537115, -0.44928651194985825, -0.2342454431083234, -0.08804190655991581, 0.21498854056438768, 0.14959153384377188, 0.014025165438773222, 0.26383502026966277, -0.4947153450871356, 0.22184759849334226, 0.05570902026163271, -0.6164965453190026, -0.8879311551337569, 0.09610554886524583, -0.2119888711319047, -0.13249858923164873, 0.11238112927767528, 0.12384375956884493, 0.09732091063178672, 0.2140290843048799, -0.3283647884917173, 0.9351462902676727, 0.12378623352673977, -0.33984425166069543, 0.08972725056411913, -0.03881220577168956, -0.01279080973509293, 0.2304064029089596, 0.2505710356689343, 0.22598780576414385, 0.4344868316835832, 0.2703357316676351, 0.049784585789131856, -0.002799405409063176, -0.34354549037385207, -0.6668780827160757, 0.3182335886045065, -0.32066643328496075, 0.7552398101078703, -0.47478079221750463, -0.025967124944299903, 0.5528798306959923, 0.04788849531778346, -0.26478071137517417, -0.14728854184512288, -0.4176444298600599, -0.2797226023751559, -0.20232303223074607, -0.019483712617086278], [0.28488895422629257, -0.2988230349670294, -0.25576429832743386, -0.07378974372616161, -0.05248852439014181, 0.041650023128584346, 0.05221661617856185, -0.02330344017248288, 0.2484326852697686, -0.07733036230770862, -0.3844173033754603, -0.09166948521447706, -0.3414699297083922, 0.08169988536917885, 0.04559686047707754, -0.23044666022349958, -0.0795056340875499, -0.06590335069820229, -0.5829207448807557, 0.014111776393071327, 0.05613292578330604, -0.020968787484340872, 0.39046204735102796, -0.05882777691265934, -0.4391677989147212, 0.06446167189549758, 0.04308345797047809, 0.08487727553640477, 0.004318058352688209, 0.0004161460005254365, 0.003051793081111576, 0.05766346816612299, 0.42947922637400265, 0.1265917926872153, -0.1907193274232638, -0.35235336176978876, -0.17797919315035832, 0.24013685658994186, -0.1898139784221119, 0.008619762070673638, -0.20518864122006575, 0.22159664025690884, 0.0141270140616831, 0.053685412144281394, -0.06436232690691095, 0.02103895991964543, 0.31490796147166467, -0.1526219638786603, 0.3351796153886047, 0.0773325145346805], [-0.36718041987223526, -0.03894092778555648, -0.3975604735130756, -0.032025241247909175, -0.048743489067686385, -0.15967269345647825, -0.1657007544392816, 0.008083026310413284, 0.3968532950410097, -0.06412820328610634, -0.19152746036571855, -0.2375021293260941, -0.2004739849321285, 0.060083958683314356, -0.49465192225071863, 0.24559358982540133, 0.18977444133802077, -0.18780180114793016, -0.25259467520536394, -0.08197390175129843, 0.012692741376846442, -0.12298435144631897, -0.0205723336724331, 0.30732440177103837, -0.09852449818743751, 0.07257234288428856, 0.013737448406987481, -0.2525098254176601, 0.09491666515045555, 0.07642960638150342, 0.07509358534985401, -0.06145913339278438, -0.2318694296232964, 0.28998094706589095, -0.17647248651199027, 0.11027232623500306, 0.11772353352235722, 0.018249730549210127, -0.10735236686769402, -0.1418906092404789, 0.2431311184913909, -0.1968822417035052, -0.25450460628053406, 0.21464301113777354, -0.059082005008611244, 0.10652458902612481, 0.19340029759599864, -0.06598387368668068, -0.2722188613906405, -0.039528868128216876], [0.19281172932871243, 0.32261441258909457, -0.2513177577375797, -0.27473381480524095, -0.15793982089789804, 0.02452782818112336, -0.24120909048280567, -0.06799645693504927, -0.03526546162831966, 0.05948711335612223, 0.18709642332361112, 0.0035474966750976616, 0.1456913598964343, 0.07388688463789093, -0.13722734546201973, 0.43738886650071884, 0.024833399651392557, -0.014222939897283583, -0.28681012512440307, 0.12485326250121732, 0.17551682522852627, 0.06439331002834404, 0.05168659187144291, -0.04097877945051047, 0.3192124325005466, 0.20826159499563576, -0.07669784160829089, 0.06102654179084758, -0.14410848627536346, -0.13293081644563134, 0.24471846002799982, 0.08237155154972696, -0.08055529044131053, 0.03952294429118801, -0.05258009951398067, -0.14317505516122794, -0.3184611146890831, -0.39399952053474624, 0.05177856884275573, -0.2708170937167562, 0.10068836439047557, 0.2560905185442294, -0.36997958707588113, 0.07481570109414215, -0.1425792431861024, 0.06310063433516819, 0.08711539482707518, 0.23488652768921317, 0.20288293081260805, -0.3475037801473513], [-0.6312162079803102, 0.08290968280273107, -0.21216489623615192, -0.23837976771709282, -0.15225545342344732, 0.5506185299546281, -0.5456430139123508, -0.10161558512222987, 0.19732182811977964, 0.08572650712689263, -0.0921316365215992, 0.10137464483956965, -0.0047637245768452794, 0.22530308662448706, 0.009955008728302862, -0.17916658464004684, -0.04378615161414396, 0.3394725563404371, -0.23444769541935578, -0.23603000997243798, -0.06615580259057444, -0.11588281254107474, 0.3175386818142131, 0.3235504285081985, -0.22334333138455703, -0.03620762984216729, 0.16422593939192617, 0.18488358234407573, -0.432499993707334, -0.26426673126202316, 0.011960044052157852, 0.7285774684141894, -0.15317662968087922, -0.04531527510598216, -0.3956138297615613, -0.02292570099667532, -0.13846526532781409, -0.34921440678331345, -0.036553749427064915, 0.15979113818445195, -0.5031048979238663, -0.05456030423962919, 0.040570179273094996, -0.26507821763427836, -0.055694740943605464, 0.08234300511999676, 0.1512729649827487, 0.428467202599518, 0.48901893076166714, -0.47821419081001454], [-0.12686109964324993, -0.14923934755088142, 0.2655156021179218, 0.12839881024739178, 0.20149138197259137, -0.07682923408905051, 0.3288620706782673, -0.03237473845692437, -0.5378301574967508, -0.054105029164126496, 0.12528975808716714, 0.0003505881368788067, -0.33148553804109077, -0.2827067527548091, 0.09268038448463242, -0.23599815490173934, 0.20707301141871098, 0.35361710436030397, -0.019298873027325688, 0.29793369562189165, -0.01759977465632669, 0.10009480541027214, 0.6743399298411173, 0.1491061799156113, -0.47552000962471924, -0.2710689840059444, 0.13043331465001434, 0.04767172037634261, 0.013304073662038791, -0.08217644668311719, -0.20242326857623724, 0.2481556303400999, 0.06605978700795541, -0.0255232274524633, 0.07199294316769778, -0.020492154574204252, -0.048306800109477493, -0.4046964169440273, -0.15342369780208245, 0.3902909731699082, -0.5057519238715091, 0.09522075045824005, 0.02375597769246284, 0.3446661337746731, 0.05404180311039505, -0.04980644445081512, 0.29471075376646094, 0.012549853190492448, 0.2556389938275108, -0.11190372011621241], [0.008327673929873772, -0.5266666791212452, 0.36239603863805964, 0.6855229719064816, 0.27207732603361984, -0.07767614870018648, 0.16473311226896387, -0.7111947003510308, 0.3564132741791198, 0.2969226009878424, 0.3605123374807608, -0.058546584394126654, 0.051950562150645745, -0.2137107261366937, -0.13592147088726533, 0.6477687082021265, 0.3472977487103012, 0.04500128071483706, 0.30352651335582687, -0.3028122518572553, 0.26992010986919085, -0.2119858492561295, 0.303143740781141, -0.6919756182791849, -0.365046943705586, -0.02283414838764795, 0.332538771273256, -0.18135893522335686, 0.09927082244903361, -0.3078995899148507, 0.26360235835093104, -0.2791381194629099, -0.03304308926636943, 0.24736148599907024, 0.17867445097822357, -0.17335423699718588, 0.43827619619882835, -0.20210568799296214, 0.020953322589991195, 0.6736235876521622, -0.3489122614143808, -0.6372615895600042, 0.2339776997035904, -0.06626424935527996, -0.0569057527384584, -0.322733414827097, 0.10606797147841361, 0.11918291235495469, -0.5348331114864937, 0.16938563606777507], [-0.4765475380359508, 0.09055319512827228, 0.314781796320988, 0.9154015545078842, -0.317051381319164, -0.022064933298273488, -0.35649958591527653, -0.08980809170859974, -0.16765283252788787, 0.19526469579563, -0.011443259311645557, -0.40119351231077016, 0.31074022953841063, 0.19651700571700745, 0.3919137115672451, -0.05155049422116007, 0.07102897151293602, 0.20772792389500297, 0.45569274669471005, -0.17370998899272885, 0.17160641692326162, -0.18041403225456087, 0.4228477687547605, -0.19842075460571876, -0.030456438875609008, -0.12155610612915549, 0.4238475421617566, 0.2609043655364506, -0.49730668814406626, -0.23420570343016278, 0.18383249359294762, -0.2752309248349167, -0.15928582900955637, 0.02965121488654745, 0.06409667090745118, -0.30842253990869706, 0.2935532339881268, 0.19254599819588927, -0.13600260099730843, 0.40812699487823856, -0.20067047045821268, 0.06584805745071541, 0.6450916860165797, -0.5685601641855897, 0.33911978476620136, -0.4286787016335148, 0.305763075113651, -0.07164022487048305, -0.0935147205340628, -0.003759132108709948], [-0.28152298495871797, 0.7521765861271823, 0.10261469666311603, 0.436278728783332, 0.03626628810736115, -0.48211276160395217, -0.15046803283136417, 0.6110593073373172, -0.3784573079283104, 0.3769758586978859, 0.6338149609203791, 0.007756704284134723, 0.0867550382199825, -0.7686033482705135, -0.11790544207873739, -0.06888830837865442, 0.4463348737768791, -0.159093565517293, 0.5648691570673765, 0.1894430604944766, 1.0857056967996526, 0.525918519646777, -0.19651446353985527, 0.057345825084424845, 0.15726182481184212, 0.9906185653557614, 0.4942704938454986, -0.507217944225962, -0.33549068575743063, -0.11609504663060705, 0.024961851758869065, -0.2757460121837349, -0.437134909723985, 0.07471100601233263, -0.3379713783283168, -0.6233775263612996, -0.04421671840798715, -0.181931392375218, 0.08888043300103962, -0.0706832582544424, 0.31827689157847744, -0.06761935940982568, -0.19494609114763192, -0.08034472308466367, 0.7417208499239709, -0.08616073321155927, -0.5837838097172655, -0.10333803808733222, -0.05766260134174172, -0.23751846876851412], [-0.004376184541654093, 0.5971511792663395, 0.1552381422523705, -0.3865174992277551, -0.25299765967377735, -0.11468009340213589, -0.7928877556066027, 0.08365223744095962, 0.275696058269813, 0.3802664882444894, -0.06728724044393992, 0.19492075670400288, 0.6375313302438343, 0.29645595627532906, 0.07260123079295762, -0.39869571102195206, -0.5059509154823268, 0.054026394761655924, 0.7306962523026608, -0.4311951831253552, 0.474313994632389, -0.2328598682186553, -0.5722543244105914, 0.30548536931914066, -0.022850152142865038, 0.3535404769467868, -0.06868902596245104, 0.32794856071110995, -0.5972564668981736, -0.15942637649611235, 0.5522204359674142, -0.011484064043235856, -0.19157618516705832, -0.5518124559625068, -0.5441363625684927, -0.1936393514513026, 0.28266511041816905, 0.10601243010262668, -0.08490420310566663, 0.29695923621635417, 0.07053901375227196, 0.08099923459122535, 0.5002664648401418, -1.1239274407054989, 0.6626045111088089, -0.11034809433249404, -0.4475454715393502, 0.22557643460027002, 0.038528939484919214, -0.08884585162989952], [0.421766656886668, -0.1075050377829073, 0.24665872397453395, -0.2975511597623135, 0.42602484875639557, 0.09073603108914798, -0.014952457124133593, -0.5914291761583373, 0.051695568492226514, -0.14786062704303748, 0.05374528602914717, -0.1431316366251599, 0.283443133736708, 0.9213836385858132, 0.2167312266477511, -0.602603266924135, -0.1287039107918823, -0.3953293357178675, 0.41528412680235355, -0.5010283277150762, 0.12104164816461133, 0.07802902747586676, -0.12787738720996825, 0.014442872382354966, -0.5860899080615821, -0.07745924625483638, 0.35951199493989033, 0.31734963475400446, -0.12370024564728224, -0.3600324040069058, 0.2769808016777553, -0.30878840633963955, -0.2598245701975572, -0.18042649727780985, 0.18407191360085604, -0.0029496198207812664, 0.13093398900491343, 0.6891367728448502, -0.08838123383961256, 0.271833886430223, -0.12470943504602208, 0.30652219727222957, 0.4542281166267754, -0.3573852851901038, 0.6581386106314875, 0.2354995438213154, 0.36967188308864535, 0.3863301437667317, 0.10448852799990963, 0.0205843542891891], [0.06299355905471114, -0.0074993412087382355, -0.058904393628491016, -0.14589262605577283, -0.22871515894289046, 0.2864008580113018, -0.15576389852814682, -0.02570678224575978, 0.1734227592423017, 0.16466366735889584, -0.3185150482382934, 0.007900501890424216, 0.2843519949522968, -0.1899447980460776, 0.11436193144913802, 0.206653171416097, -0.23476719044204059, -0.4543466272549174, 0.037804296847248405, -0.12534589816708877, 0.2757981813713254, -0.15308728812584405, 0.25608568638915086, -0.2304651098484989, -0.7998468525214236, -0.11521494720517343, 0.3027362935341333, -0.029647444624610938, -0.02596206100534311, -0.18719166595348136, -0.004283220866806974, -0.03939497818326936, 0.43159031839305795, -0.11756486114576715, -0.3263964517725509, -0.3472673911873574, -0.008923474014852543, 0.9398155349579392, -0.6046002131811593, 0.6288931570693195, -0.19726674810400982, 0.17431319702385703, 0.9993467822080002, -0.044145405008327435, 0.43371022165444445, -0.1029165214102613, -0.13295051689198165, -0.6150771294216422, 0.028583901446394878, 0.14181487447837196], [0.2865366903682072, -0.45109596488064596, 0.26044842245201355, -0.20366744814346993, 0.3653560716400299, -0.31554669193947327, -0.1377778669634355, -0.14615280315314258, -0.22406135707593552, -0.27397409231160136, -0.14648307181550393, 0.15323219211565625, 0.025356780797703257, 0.5429323999772259, 0.3905303972741443, -0.10622049778813931, -0.28305332856099047, 0.21200081964198014, -0.2939085170850474, -0.038299995070388594, 0.0707174322797774, -0.30262759901208286, 0.4057495514368733, -0.03090956845772522, -0.23558231943776803, -0.7555490454149311, -0.03919174395813502, 0.2539757258683142, -0.1750623910584564, 0.030432335236257515, 0.07451603900991792, 0.17406996091428034, 0.6956780137355291, 0.008919141473027338, -0.20014133868716788, 0.12680692559488171, -0.23784708048131428, 0.14581468978466228, -0.3236509738297299, 0.05715902369593118, -0.5147131396059187, 0.1896665627721617, 0.47813235086924266, 0.29228528624652583, 0.15929125518445134, -0.08004221832238077, 0.2440757040416238, -0.28290324209039713, 0.7383350388551383, -0.22144586282402337], [-0.16492940193591615, 0.051657962848484944, -0.16631411792593048, -0.021717312362830015, 0.0777088714931326, -0.08812189235419023, 0.0454155294210644, -0.2827468680721236, 0.33466769727321527, -0.16322770527508265, -0.4453532818345454, 0.12080515970819866, -0.26366259649171736, 0.3634308905605166, 0.11897345313089375, -0.17518021531028632, -0.14226361984618094, -0.1184956839866756, -0.8122612277311907, -0.20541773029066224, 0.006600903558299015, -0.027490732048940553, 0.005907591843640184, 0.043719732217950606, -0.7335605632975464, -0.3428371089018752, 0.11338582952767293, -0.03498542517197361, -0.10726426444202618, -0.10383678852431139, -0.051261422242969666, 0.10334692216150396, -0.02522274682464583, -0.04238667008270688, -0.2616378079400956, -0.08680937397656258, -0.2736523489877271, 0.15264294028023398, -0.024768776954606716, -0.014805346034496627, 0.3414696267979186, 0.048524116510901126, -0.2749134547464047, 0.3573636017864482, 0.11769262538967114, 0.24470165110830425, 0.4067733602173833, 0.07045756382987585, 0.07887902889417789, -0.06901853131917865], [-0.16232403495987074, -0.05253482605979648, 0.13408180722440274, -0.11803738142022645, -0.037460541854458365, 0.10830351481362659, -0.2694217705501325, 0.20906290832803592, 0.1894378186709424, -0.05607964639962988, -0.2624508741817267, -0.03029241057480098, 0.1460880291742563, -0.12838283322212238, -0.5064839574467133, 0.021381373895818453, -0.040824325378781896, 0.09414141777984576, -0.1973123793896881, 0.23812891153585494, -0.05808944789457271, -0.07851627550173816, -0.07103114824418096, -0.0075770402841110794, 0.2829006342577152, 0.0006085768724219629, 0.12676115387682965, 0.291114475655037, -0.08163539586292085, 0.05002004114902147, -0.06303880217560195, -0.05983674131208772, -0.12918235708509276, 0.17906316216742765, 0.02641304494968008, -0.07457935963033216, 0.0669306613602152, -0.13185289003513873, 0.39571208810099145, 0.044227892043247084, 0.016284443709411938, 0.11504428565294464, -0.09387524495985197, -0.03327566904265068, -0.016598847428322915, 0.1407561304574519, 0.08376285512203996, -0.11016707097142203, 0.043960878826281476, 0.0133998533036779], [-0.22485422295430618, 0.07218961440379165, -0.15600775906999037, -0.07991523062031101, -0.06613679911755437, 0.22762025660867677, -0.401879346118806, 0.010031112681953596, 0.15592481656439225, -0.17010201005778403, -0.41954249613594846, 0.050213990052001084, 0.192347006446979, 0.05245099683957592, -0.10116248226725331, -0.24718568557660373, 0.09832654904688663, 0.03733220075542573, 0.016068686461235677, -0.13186243740034337, -0.17933371719185698, 0.14134151326636468, -0.019066127351935882, 0.19020761610710282, 0.053897134013280064, 0.08678440646732744, 0.09544547811724842, -0.05208632295524994, -0.11830955725293962, -0.23124527924706997, 0.2730782346415246, -0.09589168680763972, 0.0013475359170092547, 0.07624513078995833, -0.11000968180708547, -0.15398735452955267, 0.03158016244266445, 0.07151524789163634, -0.10318901923083988, -0.020368955308555266, -0.13864393548850318, 0.014985261049468014, -0.0974645896682186, 0.04335080286250462, -0.0341468014271242, -0.003355807259403767, 0.007232355942116518, 0.11121650268077422, 0.11003320964789814, -0.22340258003406058], [-0.28623429974596054, 0.04749774621421638, -0.17349469009213742, -0.13720163097471988, -0.2982045665682627, 0.20883307192465428, -0.1926922394821884, -0.4199534814028316, 0.3477399177226862, -0.10712221325099361, -0.08313034417648951, -0.30207409954006703, -0.18921972445696814, -0.10820953146017903, 0.2413765290597363, 0.37339966888770854, 0.014996392428249402, -0.022926206069632162, 0.02921373474849662, -0.3306428826819354, 0.026491045607501748, 0.11283507538448773, 0.41300394935534385, 0.10957736819343666, 0.05543908823855625, 0.27780631318598065, 0.12884723166178172, -0.16201581511750499, -0.2626053044122835, -0.4466132455715592, -0.0664600796946568, 0.31873649534074283, 0.184869582723943, -0.06268393055835603, -0.16644872519388731, -0.07164101420389848, 0.05937777117850991, -0.13426333277766253, -0.10981952940852231, 0.2958962621137523, 0.033265327542530886, 0.11323581551509901, 0.12029848175915865, -0.14427177941013272, 0.0027788274943007663, -0.09573912764429572, 0.2487543328203718, 0.441206937981017, -0.06357851204932054, -0.3438440428407566], [0.034954599636787764, -0.09054127969513714, 0.16083138948105422, -0.04031563636575628, -0.19616398481138486, 0.4243789926619966, -0.017308464246208664, -0.0643580655967037, -0.11929348512278543, -0.01847290163531492, 0.030124893995107597, -0.15433800546392554, -0.16573364788818207, -0.4202758515546289, 0.0015258062275622748, 0.623632709866247, -0.13354482559486122, -0.04153025686209323, 0.18285465425136116, -0.18727582464388473, -0.21821184910487132, -0.015320100993476063, 0.1614399542765463, 0.056116447394688226, 0.6139230541900348, -0.08801098609062845, -0.09500901416622243, 0.02805214552734229, 0.016337380232912747, -0.07367603145402069, -0.19537567894031876, -0.035079551850300386, -0.2353870193111165, 0.3272639486623248, -0.14551283750835375, 0.1314471703301407, -0.07646713503482468, -0.610124061620319, -0.2269568068052368, -0.011378712594918324, -0.22586765854485885, -0.0220736669738828, 0.1286598532433859, -0.4802314215813899, -0.3168261691042157, -0.19483561421521836, 0.2382089879049759, 0.2646023086972111, 0.21165729851344522, 0.23120922491365037], [-0.4692741464017533, -0.5809267157396233, -0.47127906154101235, 0.39212973739378215, 0.2835985777570028, 0.34985690443094175, 0.13381703960651933, -0.2241938785304311, -0.19647677579393838, -0.03288340860260808, -0.11469180772763218, -0.15770492946947876, 0.28253019955942144, 0.3118945758331017, 0.4018637114580286, 0.6986145416292486, -0.11743466433400178, 0.057360582026948, 0.6822421261577546, -0.2272245144950228, -0.30180807634168044, -0.01804162893037578, 0.5353783768873795, -0.5307801635119492, 0.18220129943326657, -0.37115491495521513, 0.31554088853663687, -0.11934830828617171, -0.2334694747793455, -0.4311830828953266, 0.31752067530157874, 0.28390143923371186, -0.4582105222250227, -0.03716415480274634, -0.13874720977506497, 0.040094749944964335, 0.11758383312319194, -0.09356691852432353, -0.3641194957098778, 0.4181550216940498, -0.6620990306867864, 0.006546946482029667, 0.41927583079638203, -0.2516848201185615, -0.281583735642938, -0.3764094011031219, 0.48654767592295184, -0.057465675247894484, 0.010591116229258794, 0.2563736741727432], [-0.8255513014078572, -0.5478392961511537, 0.3857615086176944, 0.24470152178606286, 0.3211286529069143, 0.18828926949142272, 0.047138189539265726, -0.7966061124008775, 0.14419886986410962, 0.56283473220573, 0.23342970265928054, -0.20273824217193367, 0.3128559385291457, -0.473388257348274, 0.03198821102729364, 0.8260231797378549, -0.05241197958272095, 0.27464212364721485, 0.45944345377870205, 0.05819354640835751, -0.47540219397526673, 0.3134858326247989, 0.6669143006379862, -0.6499793813775551, 0.5844282676218805, -0.5479578919438228, 0.4154576037655395, -0.0154186502321219, -0.3951964558204379, -0.5299648202928398, -0.12104180933645046, -0.13542860247523317, -0.2739794782303829, -0.04648059637290693, 0.29752715284508696, -0.3008200109085774, 0.18107677884278725, -0.46451222219748606, 0.4901580675090457, 0.06366518451253203, -0.5550004922062025, 0.035553181559340605, -0.22286879819543257, 0.2482204390237585, -0.27865515079669256, 0.0072395267989799235, 0.4321320022866833, -0.24441407159621542, -0.0634923634835993, -0.0867354909263402], [0.25875782919232204, -0.12826300920055225, -0.11231150208195849, -0.9834388159818508, -0.12142576954540601, 0.6039322280824881, 0.12528680180422133, -0.339460649445429, 0.3962935629763773, 0.5569860500793907, 0.8101853180452807, -0.3944083785516069, -0.4163107847806135, -0.04658035804567064, -0.0891715653690975, -0.34166960207871194, 0.09609504645091749, -0.42765548087552396, 0.2562844658121241, 0.5984369578003881, -0.39648228859877976, 0.29869963167796765, 1.1877422589950999, 0.8334916621984197, 0.033948528183023303, 0.03174634761104729, -0.05871879153946088, -0.04623005178683728, 0.804758930068135, -0.4345133409920184, -0.3496562297879758, -0.2710670839297509, -0.15910900705104106, -0.27432045402831623, -0.28548546526052654, -0.06096683889593337, -0.15914918329325597, -0.23939959369196515, 0.020586203655102622, -0.8212696781555902, -0.44463939650620005, 0.3748865812855567, 0.35938693812431666, 0.3405473333520901, 0.2701682359846511, 0.2136079432980282, 0.1068289893675652, -0.16322427115281796, 0.08552706276822193, -0.2611300106595728], [0.8666813972427746, -0.4436525350794639, 0.4598138824775847, -1.1919827612492238, 0.3244351289198638, 0.3595801421690218, -0.01998978570243874, -0.6530372683152628, 0.11741140689369883, 0.15303780519396898, 0.6753716020375801, -0.049925470367776996, -0.07016262925987095, 0.8396710527976861, 0.04176170722647026, -0.08467761511107047, -0.28826482363032957, -0.6832932952204483, 0.25231973933598667, 0.6721956842284983, -0.25747400644096685, -0.1282316581356332, 0.2972319306947016, 0.8284542060854675, -0.24067200935416838, -0.03751407353818976, -0.5132979536557167, -0.31981304807645267, -0.3850757563644403, -0.20773660855953385, 0.14605799127912775, -0.3122442760143216, 0.2673819818047283, -0.6407045334892967, -0.3754758860881751, 0.1156833629258453, 0.38714436642199457, -0.1269345705692748, -0.17443900270954107, -0.8146678651492023, -0.28838586583785797, -0.3331746805630618, -0.027147327109043305, -0.5339901839583671, 0.4810484310501637, 0.4011717711537654, -0.8404559595004192, -0.2053795889478543, 0.3849043570503272, -0.1223154153859704], [0.18918613978192933, 0.07768609412009217, -0.2724131563127416, -0.46771949062902585, 0.6819390815436975, -0.2502055872438522, 0.0912600365043668, -0.003987234040737814, -0.5507146387806183, -0.29016533517795706, -0.3080495660113245, 0.511109119083975, 0.30649868215472414, 1.459204674347049, 0.5399780595109576, -1.3127429742401, -0.9286051166230945, -0.4153455125512654, -0.022617189507338115, 0.04165314957039384, -1.106911742536329, -0.05356120499667507, -0.28934623930899006, 0.25205166467396806, -0.8291387522828628, -0.8847338886504253, -0.15510339952364555, 0.49196294935642876, -0.727188315800941, -0.7728959323482075, 0.4728129022870111, -0.008140396590052033, 0.08576880614628385, -0.4807840262500958, 0.09376919293330793, 0.5260159018066132, 0.4824597081064207, -0.039243128862644326, -0.721038816780606, -0.4452067546485309, 0.03197511777286971, 0.7898741868022727, 0.6383721693525902, -0.358601939260699, 0.34512366158117147, -0.148501786808684, 0.5882909471463292, -0.345656716683818, 0.380277707983629, 0.0057239574401169715], [0.8636381317864198, -0.16547866247167714, -0.5507793302345655, -0.018447101995395062, 0.7462377209879174, -0.7116241253303655, 0.6796159790890643, -0.2677234499381916, -0.19165305266384017, -0.08705160148149117, 0.4516608895789421, 0.9363491628293902, -0.18105763702560815, 0.5441099316333303, -0.26142440873128303, -1.9612118781126544, -0.8345493407391571, -0.3049141626835891, -0.5750918842040165, -0.5986128200905592, -0.008916159367319454, 0.17958335648036497, 0.4368549973845206, -0.3101603983317754, -0.928454363359549, -0.6922658508180223, 0.17449019597526333, 0.06834403843980386, -0.12492403621926484, -0.7365127046748513, 0.3060838493107006, -0.3592858790469076, -0.12943400219491125, 0.1822711149008857, 0.2358139573932168, 0.2891456625530735, -0.14527830476435769, 0.2541957670828184, -0.21115780541236054, 0.36942741077985447, -0.04071703268358237, 0.8515244967535107, 0.6361822586372589, 0.42550784227850363, 0.7452402072955363, 0.16286260837885858, 0.3064598706231834, -0.06718985466118077, 0.18027841145913334, 0.1859994737829571], [-0.21858023120053127, -0.09049427554995998, 0.4918184166397325, -0.1247689743262779, 0.7319025435437769, -0.2904555904463959, 0.3215947750832214, -0.3671538660102865, -0.1518440447023973, 0.24254557359012718, -0.08824129404882423, 0.34909240611947284, 0.08884146225463363, 0.7490148996677969, -0.0783484270685918, -0.48044582423869014, -0.4582006198992943, -0.5533308247860081, 0.017328845897750123, -0.29248572734664924, 0.05137417283703792, 0.48374536406783536, -0.14511554228538176, -0.07910620551803425, -0.6522068617349106, -0.2560219084963918, 0.649010378646657, -0.10759739516909088, -0.4751936803442912, -0.9054115263829622, 0.42040230598472084, -0.3107992274152733, 0.3233912541054782, -0.5508565912154902, 0.08240874831784434, -0.15636230594785608, -0.15859901848122612, 0.3275729639124715, -0.06509651668099221, 0.20234671292274733, -0.2430572634886387, 0.19191301081870912, -0.004141802832972729, 0.20753430955463822, -0.1255923800824086, 0.023003906910045047, 0.5655737082343865, -0.35259972857167304, 0.002021966064995491, -0.1506304990364605], [0.25148675947538013, -0.004611276571783617, 0.0028832584967564217, -0.15308744377562397, -0.13389276648756315, -0.22453659966297246, 0.3232755621554916, -0.23730776991381916, -0.1017402363970137, -0.41559737604046987, -0.16373706592154566, 0.14497649112587652, -0.13672960893657515, 0.2206875416504274, -0.20347980459164344, -0.21810996836180838, -0.14750172240136256, 0.08544604723005392, -0.359123748651739, -0.149596983559921, 0.12445869430686506, 0.005940820191050007, 0.059372313307238904, 0.29307616119636065, -0.5744452690004371, -0.23550824237634452, 0.04920005437144573, -0.016407643872942846, -0.029385117952198555, -0.1774024775386235, 0.19702090183608964, 0.0012537999777370238, 0.31563083459859753, -0.016530122616744244, -0.0844741258968015, 0.015627270865119933, -0.11207979116545692, 0.23952181305291753, 0.09167771510563798, 0.060635110193855105, -0.08764680839280241, -0.03310342194333852, -0.1521499516903165, 0.31975670378141413, -0.10809105825184859, 0.11827469667214092, 0.5069813840825154, 0.08231110886434052, -0.15521305128535465, -0.21236106646024108], [0.09032338957949634, 0.02203754340190109, 0.19459986181764916, 0.15564864439833853, 0.3708444432767942, -0.06693827849444643, -0.2543102098725348, -0.1554345197387026, -0.08472724190504065, 0.17344140489492427, -0.013001222601967717, 0.05699459834433056, 0.07544087080068868, -0.2697665176927511, -0.1229741667273839, -0.14647955703496318, 0.11437893196051561, -0.26511339021931074, 0.21465932997997325, 0.34895934274851564, 0.07854167129063148, -0.20811281963763983, -0.12927828411714137, 0.0342913331771575, 0.1491188963408035, -0.0934541548581382, -0.08192167678926612, 0.03321760633262189, -0.04051621275072434, 0.11327095040722061, 0.017192013493839167, 0.139093784684717, -0.08909832348337923, 0.3445041176671768, 0.20150975897739756, 0.00948617521754926, -0.09938892166738138, 0.04237475283392673, 0.12117255667162227, -0.011868362904044331, -0.04926829448835012, -0.23266602144061713, -0.3494191596927911, 0.09641917405700985, 0.1882057698173372, 0.22256457440407135, -0.28086986052789525, 0.36187687397929374, -0.11447522193912038, 0.01328824643536737], [-0.179522074369739, 0.2835485353591295, -0.11334434855749417, 0.1786801398716352, -0.2144791974434147, 0.058745005278912674, -0.2253747014068219, 0.04539324046856131, 0.1025809712952662, -0.05154014218388214, -0.11006642782798128, -0.055505108089000076, -0.07933978028405106, -0.2168048092395994, -0.07787002891065205, 0.233216933098546, 0.19934924716690383, -0.0869136904089327, -0.20505795628690723, 0.1319496740305096, 0.14319187938661398, -0.17214386796206377, 0.030180856514229647, 0.0631188370946566, 0.004456180819368127, -0.04658959702584187, 0.1764509406888039, 0.16684363172032537, 0.026806361793746337, 0.10309943817373468, 0.044018745580634205, 0.09844337875658168, 0.01216125180066957, 0.13847417516126018, 0.1195119935324187, 0.01181982906247459, 0.03159950189219266, 0.15895564467290554, 0.06839334891973402, 0.043701080959208896, 0.017408657044503246, -0.05945529704527832, -0.12410572450495667, 0.1583953835558059, 0.03722577317256309, 0.038635855900795754, -0.1720867131310238, -0.06965963924255922, -0.12447834612132486, -0.31431444291070304], [-0.3798099024392805, 0.25576274405647376, -0.0546504578466818, 0.011490462536573239, -0.35772666210927767, 0.3666750919721018, -0.0602515939187041, 0.10717551416533942, 0.4061601452520886, 0.1664525994834483, -0.3187463564794246, -0.05714152613708913, -0.0252748728182129, -0.031848407378117144, 0.1695575976749835, -0.02659164189163237, -0.044059192669020655, 0.2939192785828441, 0.03508711190677569, -0.28731196758138716, -0.18951006202169837, -0.09163562042948747, -0.124526533009799, 0.15332287299708292, 0.22688745405909908, 0.33348913746033826, -0.01871103830144547, -0.09876207814515979, -0.08852327650662033, -0.07088165475524574, -0.14211789547284215, 0.30923950280176077, 0.007160320007111083, -0.47628046283481273, -0.32285539667418944, -0.0927871486048757, -0.19474100675437075, -0.19582510785398463, 0.29508403606306444, -0.006348582904207445, -0.06899769036878849, 0.1434980772264177, 0.06517097910044362, -0.11003190363052853, -0.07424257188198854, -0.224242990266769, 0.5437064916540779, 0.16711384198564425, 0.41792164180771524, -0.22118052493493193], [-0.39547428623522946, 0.10664771567888968, -0.28046385764318055, 0.1821715970834013, -0.19179038805344625, 0.37859098845850514, 0.06848846905850207, -0.004029263634101227, -0.013166060025280918, -0.31029698385829474, -0.3436773861462966, -0.27738353634182733, -0.361491230336548, 0.09505816609727961, 0.2556060899679778, -0.2142082018190953, -0.017574595211169566, 0.3185001249025022, -0.35731679074614936, -0.4771449285300154, -0.23448692318326178, -0.2649084060623565, 0.19439314008424363, 0.6961100080122496, 0.05813333770321902, 0.11602841857688462, -0.20225617277203511, 0.21374422429949877, -0.4423231269268651, -0.5354536125180058, 0.14540656839156252, 0.74159024366465, 0.06164003501862583, -0.16436100655740565, -0.25993802817032186, 0.07721142936598042, -0.31765934895267367, -0.16528443802294712, -0.21078952822678987, 0.17755830415764395, -0.15215075266829753, 0.05131871131238191, 0.6942433292941964, -0.06467944318795638, -0.12621968332320055, -0.24118044675716796, 0.2047393039330363, 0.12065092595661091, 0.09316203567076302, -0.21264142037168224], [-0.2990789009967091, -0.40783368719954954, -0.10380000778791221, 0.6323706521655909, -0.06556394860708081, 0.6103696600601444, -0.03513467575732405, 0.11948118808950976, 0.13937838640906564, -0.09602366523141288, -0.19486637721763048, -0.22368017658779513, -0.07833320616151779, -0.4606945684554108, 0.5691989933184024, 0.2868397937209621, -0.2092667340078478, 0.31028684915808, -0.206669058952132, -0.7113578273812305, 0.008772357616327152, -0.6134763294847111, 0.2996405603138659, -0.13415259376900338, 0.8658384218836636, -0.33769685528839677, -0.20350680228493565, -0.2790797051498374, -0.1870919391375725, -0.06144591078970785, 0.04724251155364155, 0.10653730165986938, -0.1349208086377138, 0.5598832981648605, -0.663596761423511, 0.1264611445394898, 0.12083799570827894, -0.43317170592881316, 0.31087104374870855, 0.29404585090344637, -0.38230065301560856, 0.01797953534827258, 0.5911475106968649, -0.6183569036351523, -0.03708264741496443, -0.03884576825516869, -0.38877119724024445, 0.44035310340314615, -0.019755536311866773, 0.19866007928324614], [-0.18463063793430234, -0.709385083147662, -0.4534026730834984, 0.3225673253793276, 0.04731668127700453, 0.010735705507093237, 0.42283416684132136, -0.009009330441076244, 0.2749494057595276, -0.2514017066448125, -0.05311041029804053, 0.48098710360157426, 0.009404980488109504, 0.01636787591110609, 0.14878613312606345, 1.4392484715900402, 0.2600355981161842, -0.23087752429040015, 0.08925185739871314, -0.18556689133371485, -0.0364028645772674, -0.09474630614439979, 0.04118915936112065, -0.6955038580668591, 0.4729156474019601, -0.30165852991840736, -0.07747052629235074, 0.15530419392790062, 0.08219373671291245, 0.4386872573398481, 0.3540877377705028, -0.6151995777560709, 0.05391920695596904, 0.5622082090406024, -0.3253772410288957, 0.12754107235990228, 0.6987360788075165, -1.0759870301787031, 0.14719669729771892, 0.7106634809029531, 0.08590536188706807, 0.18438156104426165, -0.19430444940120237, 0.0292449656673179, -0.826678524664595, 0.40635787133339024, 0.06415298803019992, 0.15847727346675564, -0.2813611472735873, -0.16182906322619486], [-0.8219787997310272, -0.24414551541076054, -1.027537201164067, -0.007948231710241012, 0.5941954431354471, -0.5104116186204993, -0.17484749084609993, -0.43395693992960865, 0.9738294748404923, 0.2701989068903919, 0.030556208227114263, -0.20234627497853963, 0.07136593132068698, -0.42730289336580163, -0.024991894432148578, 0.06590572051105766, 0.6526779451341832, 0.2297176562458038, -0.4403504980515175, -0.3786374887815686, 0.1241711321299461, 0.7033503137832949, 0.2503273321987449, -0.5078108115417643, 0.1143007320077713, 0.3800935805415723, 0.5073047317720442, 0.6057611426059774, 1.6884978236406316, -0.6415365095964691, 0.48190688389760444, -1.0987523719584875, -1.256225736733746, -0.2801706718808522, -0.17646137918823995, -0.012371306292608068, 0.22686823432776887, -0.813144395368879, 0.09582222923538068, 1.229540073907678, 0.2354018337509135, 0.03748038484888802, 0.4007503567418448, 0.15865954114854017, -0.4960980439827356, 0.06413827406775294, 1.3550409770147123, -0.21712998783888826, -0.10151069910780444, -0.045642684040457966], [0.7279942134054375, -0.02917175477256241, 0.46821677388583843, 0.038565951083932556, -0.1859711152445533, -0.35903937446406375, -0.10403573727029819, 0.0896109696497143, 0.39878379191919916, -0.2563869860874648, -0.3739732248803152, 0.9477870257598981, 0.2892050179082293, -0.0015051912799423975, -0.37602672995027936, 0.012390273522053914, 0.11851376067225612, 0.4880937980488781, -0.5641448689585168, -0.15214526744336432, -0.09820207819215945, -0.21607522643998542, -0.7048861872169166, -1.143151612816614, 0.36727492735748607, -0.1660443387907973, -0.1382772168740005, 0.187367090901425, 0.9242107247710291, 0.4994735270669758, -0.2323773244113955, -0.54307033211325, 0.26595021413426145, 0.07514902305555021, -0.19720539848938826, 0.2387886098125801, -0.38636610437719615, -0.4673778683407573, -0.16974440189510748, 0.4955570504306804, 0.7634153880283586, 0.3959947354746153, -0.4428455847055335, -0.5897612345865103, -0.2013533406208823, 0.05126384468962804, 0.21303442545723955, 0.1731566322584073, 0.46476527333136164, -0.10151446643706828], [0.3100905269197367, 0.22737101550618855, 0.6589319663375296, -0.06294646878009064, -0.034299682237077696, -0.0986913158472412, -0.4113050157588165, -0.18571686110585905, -0.2172199883509473, -0.1061254041005524, -0.38369385125166, 1.1056413418347484, 0.5828275570982325, 0.23521001284741339, -0.17799531447901037, -0.19287014638683025, -0.29586591772652704, -0.0007055329400200967, -0.1575194547855665, 0.06452911974372187, -0.2709243049523002, -0.4736044151488469, -0.9060818781867778, -1.0048492955089265, -0.030105759825988083, -0.4305954425987356, -0.19803296167371331, -0.13401271095140643, -0.1433392655528599, 0.18863424494264003, -0.19227623815959932, -0.04751999849468405, 0.15186204942308448, 0.1476904760444114, 0.33625390495380497, 0.1458682456735876, 0.11627310710577438, -0.6957554909016306, 0.07742536574312324, -0.0717882985379666, 0.4538026212481117, 0.20831864869363262, -0.0242055848981632, 0.09507577107807746, -0.13737691208873268, -0.2438404116760401, 0.0013169598868151091, -0.3498099631025243, 0.14355792156327002, 0.09851563882021358], [-0.13533651474272831, -0.06928657161317148, 0.7421240399363492, 0.4208758723788731, 0.45459936194206185, -0.29888150407768493, 0.6497578545708117, 0.19776742644446965, -0.3033905405176764, -0.5770656649385634, -0.07825362733800718, 0.20251061689139357, 0.09523087284149476, 0.6555678576909821, 0.07503309303974041, -0.8107768400495359, -0.38877685725611727, -0.9999867966523409, -0.5139599020520468, -0.6287409153269843, -0.3409620458431997, 0.03617507208075887, -0.3050018943130736, 0.2905705742165617, -0.7903649625330976, -0.08759124311602604, -0.36312386350337583, -0.27431201769158603, -0.4173545267983486, -0.6393546801656874, 0.07431148144131783, 0.04146348664247292, 0.32580215191773065, -0.6360175722232948, -0.07667089636527318, 0.42847721978600306, -0.41514265748078244, -0.2191434574079969, -0.22864615039409036, -0.13174396443945607, 0.24867827831159756, -0.17402327661718225, 0.4595958937872541, 0.1801108791567956, 0.2844226346481965, -0.292655151112074, -0.27087753908684925, 0.24187519935776194, -0.047090792515114846, -0.011269909004471114], [-0.18879807256415465, 0.16626210227074742, 0.36186747005833075, 0.25906512384230196, 0.2686336058818686, -0.31934006468429044, 0.029992764884257096, -0.09821400959793349, -0.35181733971621726, -0.04203684548747071, 0.5048758665402967, -0.24886904342419397, 0.32072280379841306, 0.670760914011521, 0.40688156788421437, -0.2677669213197213, -0.16470341699708735, -0.3692078035208749, 0.4069584909813285, -0.7693206923820777, 0.24691025840348846, -0.022587692966902738, -0.4610353389282383, -0.06087211835417311, 0.03269698739637783, -0.16427165256318516, -0.08727440252438201, 0.020642787417778332, -0.9421431080319936, -0.45663206320469585, 0.25257690710078956, 0.005347467056708748, 0.188590318246227, -0.44450875634281684, -0.21452120134202093, -0.31736288561546655, -0.27884377106471736, 0.059040976098021246, 0.02430924578530148, -0.18207803367970032, -0.31581802852582547, -0.345248418561656, 0.4805710676137171, -0.5503158909528615, 0.1132479719033387, -0.10170903658403918, -0.2784556859070711, 0.09806910304632423, 0.1436386561163628, -0.12870255786645468], [-0.22615607024959009, -0.19613947305690854, 0.24591584167349975, -0.00593249297618523, 0.12780999261119405, -0.10358863444679868, 0.1757735927364055, -0.10804977312856291, 0.006496630573446812, -0.050107898702742855, 0.043388134709543204, 0.03094286499294064, 0.014622895393093001, 0.07300752001204845, -0.06917803358267222, 0.12845628242503085, 0.022039282285115147, -0.16963943949713833, -0.14892048183310835, -0.009718526006599892, 0.017438796543047377, 0.07260159420883948, -0.014659048730282604, -0.017382596388876972, -0.025143989392152986, -0.13027324241255833, 0.026926227783313512, 0.12510979000833078, -0.14167185082142916, -0.2638458205045969, -0.18692596707554557, -0.03262766607664695, -0.11281072616991028, 0.1573653094112753, 0.11693830007677315, 0.15016671360223727, 0.05389545898782423, 0.05469262427986841, -0.03200410637040142, -0.1025413197090089, -0.12596867666454073, -0.1321883454262318, -0.05127029859148626, 0.10683386854678707, -0.11084890723988387, -0.167887479313378, 0.11505512793689888, 0.16031332815766128, 0.012186924214843468, -0.30871838520771333], [-0.05096597876002239, -0.1248705430074569, 0.2476276452188802, 0.30413556255906077, -0.16754694875198906, -0.13153507976542125, 0.006514165448002185, 0.41528899495090854, -0.1855880468328847, 0.0753517068535063, 0.015972340433658687, 0.038088505384724844, 0.15482443470995666, -0.04401802366273046, 0.030181047916196, 0.048302883924199395, 0.0535893248619758, -0.04969399204017675, -0.010452704711998453, 0.2626089060912488, -0.0035469732300536165, -0.15675307249896234, 0.11675558075667682, -0.07514381563552655, 0.07120239169791186, -0.02322256289138344, -0.1663454992348463, 0.18796919442297633, 0.14454868820970587, 0.0923002368124742, -0.1720827684984437, -0.029189268479572303, -0.12146452465861662, 0.4035496523149302, 0.11561515979995952, 0.1464978359181227, 0.16352233225422877, 0.23219078602793994, -0.222743694559377, 0.007033781252314159, -0.22700968988174094, -0.05250031157440861, 0.16282549750227618, -0.17437566142059352, 0.12503398280013214, -0.13568355035147406, -0.2736630877708912, -0.15300373484779248, -0.11018746502864206, 0.058690256796172166], [-0.28641786425344046, -0.19103051121872405, -0.017694155801153612, 0.31758360370265193, 0.07776722633200961, 0.11160783778782501, -0.4345997574911317, 0.03536935075053376, 0.26348292607102275, -0.12057311948024164, -0.20547956110592863, -0.3201207679733141, 0.3879434851506558, -0.012540226066124269, -0.11071466026611063, 0.2376077381238374, -0.07301633218956748, 0.01841984987438189, -0.0427165227579904, 0.15363199054680682, -0.07559793747079242, -0.0059334309514277005, -0.0922053772625464, -0.006106145680860778, 0.20278966836495116, -0.08535172895897779, 0.11709357932279951, 0.04593666765301292, 0.07642328022838238, -0.07135641371991237, 0.08241036228347683, 0.1034914785838842, -0.13881346249737367, 0.36388749911143203, -0.03317588653724047, -0.16026587983897625, 0.1528793421744154, -0.06202973994864934, -0.12878586122666172, 0.20097108915343537, -0.18748182561426122, -0.032312782393165394, -0.2693943202359745, 0.08790648845841015, 0.055491517628411584, -0.05636719541943251, -0.10388230677099683, 0.08639188745869919, 0.01631581000719942, -0.18333310704443276], [-0.5078638913859965, 0.2661654770611545, -0.3471660669238287, -0.41105254199673896, -0.47634561461746283, 0.5118014170550792, -0.14202787722445764, -0.13309154220621386, 0.14001343517329384, -0.3482234912054799, -0.22099392248126865, -0.04570257664334076, -0.028812472520634354, -0.12988261509795554, 0.10627278561227725, 0.15098960957859495, -0.09686037355235833, 0.26249370372227915, -0.039326559381847655, -0.42620245635723125, -0.5234171872445974, -0.037129112412298305, 0.26363129060367674, 0.20278118529661562, 0.2134352144583264, 0.6824496491485363, 0.08714491473362997, -0.14666147518396666, -0.4549208628684353, -0.06539364623867452, 0.130317927770704, 0.46308326373511094, -0.2742668496241073, -0.4850982656531407, -0.06993231164771742, 0.12132163188344952, -0.34741752155893413, 0.1180553663663226, 0.15093911138016874, -0.11452921416083067, -0.10450475320723723, 0.1916210843266652, 0.43943259772132814, -0.29833673573870645, 0.03989967232327674, -0.2300212113890479, 0.35014052191566464, 0.17028860374508778, 0.155025920016297, -0.21620431300723864], [-0.33581933523010277, 0.24174017907830334, -0.36698263231724004, 0.44749487666901344, -0.7162561926312838, -0.01591197124412546, 0.03164212872646502, 0.07593974572484155, 0.15998584473629818, -0.2646422400742004, -0.3534804154602537, -0.21584189464169917, -0.26109857446186313, -0.10330711749160938, 0.3555961633748723, -0.20426575944698855, -0.012703766856250291, 0.27426346952697195, -0.24089406922725434, -0.6587330445208212, -0.07411637059874004, -0.5882533548488265, 0.18411760076592218, 0.15785863396380856, 0.4365406324601834, -0.08992432472688291, -0.4608950418763013, 0.004774666751680815, -0.27056389322962304, -0.20913236083840622, 0.15232840512442533, 0.3284191068583852, -0.18442335714792696, -0.06671353264383607, -0.14687013514377123, 0.03502937287929415, -0.1421907640979361, -0.5914939886360213, 0.09650508622632252, 0.0208575051029232, 0.3905905739172988, 0.5796567497799822, 0.6509247729896612, -0.08576379035447437, 0.02283209434640796, 0.30353763347104223, 0.1910554036782284, 0.32533917602300194, 0.30896878041353826, -0.1260991778407628], [0.27128187277242594, -0.2743610114484959, 0.2979755560675921, 0.4265273066374688, -0.5614790230950358, 0.18160640132359718, -0.12354437047961356, -0.1371968130576007, 0.02256072566709795, -0.04562994990046792, -0.3093565213010497, 0.04795282813529324, 0.06497352715147792, -0.27994625314563415, 0.8050182605713133, 0.037889056954753586, 0.5544912871629288, -0.4666046825010396, -0.23101020409698553, -0.10844366154883861, 0.2142318469977579, -0.9432780431102726, -0.3113143770151223, -0.2199279251520577, 0.10213475564434787, -0.2563952455506826, -0.884840617787315, 0.38194810587927225, 0.12838275992314296, 0.21679407384077512, 0.11751308970958314, -0.045161451078099546, 0.11471399503076717, 0.1365809695085571, -0.2847424721701517, -0.18341968220830593, 0.11866797492154497, -0.3285463202118757, 0.4366453804531296, 0.3993542359440641, 0.741432561405837, 0.2097224944087687, 0.6031273819614017, -0.08076563429228344, -0.20883265101008425, 0.6262191120458381, -0.3850404885362165, 0.4053528378340248, -0.04239804810116126, 0.09526491033904581], [0.3887210772565035, -0.10964108969671164, -0.6790450956645817, 0.24615214624917622, -0.8215809852664844, 0.16848008567421946, 0.3537201199756075, -0.2813274175232751, -0.10189474488909003, -0.21734811411665064, -0.7078045756151747, 0.7680908843648108, -0.25059350054915164, -0.031871761398669006, -0.07202756698334631, 0.37864875901735534, -0.046008293557674905, -0.2643125571476491, -0.025364889958566325, -0.48978954566174143, 0.22634618713418028, -0.5660760672414841, 0.2101779421334966, -0.9286597516685637, 0.1772421708052237, -0.5994502221947438, 0.31104143661097944, 0.14000423881434443, 0.0034407512658024774, 0.46580844056173193, 0.397876579485966, -0.14910158509548535, 0.20257348301218156, 0.5039117237021032, -0.05388338514000035, -0.056024802727322874, 0.6965431887433583, -0.5784050202945541, 0.3085189851749951, 0.8779860814202982, 0.29633807707371707, 0.07232455046369367, 0.07966383387078572, 0.34642710843714297, -0.6432424954654682, 0.3017624120216109, -0.3480711557600891, 0.24978048408730402, 0.02351506968374575, -0.18461722642025802], [0.009646495640393427, -0.10169648361275001, -0.6099956862578949, -0.026370836153552447, 0.4561679127217124, -0.28346037597716617, 0.35814331525028614, -0.20637466744760039, 0.7765655406102991, 0.3459775978458427, 0.5227662781744795, -0.13106074313044458, 0.8669138695392818, 0.16814071244142648, -0.2750394662419165, 0.3067498312088926, 0.5627688057395812, -0.09656166093735158, -0.2393680437820829, -0.00829396931980477, -0.14943914956983914, 0.2432789249896834, 0.16326446340943507, -0.4869249301739589, 0.09408598160969098, 0.151896121054533, 0.43972546065831364, -0.37878824915818643, 1.1477616840741391, 0.2798057586577892, 0.17996777640515035, -1.0021854292366787, -0.2406537143208096, 0.11559679028375257, -0.15546575396829096, 0.46527575647058106, 0.35611379064298815, -0.34387555613099346, -0.008912978342630785, 0.7132109125876381, 0.6314944563294441, 0.06490418969255213, -0.2148113142512422, -0.45469085741675563, -0.38079874134562697, 0.035197281810601985, 1.0999636886120863, -0.27836074302815667, -0.6743477797804183, 0.008605935773598371], [-0.1953374847399954, 0.6172473775546902, 0.39221446001572335, -0.016526156388403667, -0.7439831064525441, -0.28844357299256773, -0.10335558218295897, -0.04034784836726692, 0.1437572713956953, -0.19115356134976788, -0.11162205317603587, 0.8458922238242894, -0.017523493756331388, -0.2902566202973037, -0.5720465947836971, 0.6042137872875193, 0.5612370893807381, 0.2737920800672268, -0.1893284989806607, 0.11755097845606402, -0.21480813789168077, 0.48719955252535024, -0.620087161068914, -1.0640497742080974, -0.1078812301597569, -0.014823416797045592, 0.281470092311762, 0.10385202645041679, 0.6562219252171918, 0.26274523308617637, -0.4190045608017718, -0.1732065924645245, -0.32549137789440125, -0.013136199741210164, -0.07191976016506424, 0.05844313719277585, -0.09892091070921502, 0.35973960755215223, 0.3094583639394584, 0.5574816993368301, 0.5825370588535245, 0.18340309117229409, -0.3234537292119747, -0.6168559052183782, -0.5950343780968418, -0.35744027588366506, 0.6620057219816343, -0.26487825904998646, 0.11138396133759253, -0.1440118118102495], [-0.391821852429755, 0.5423616305467452, 0.29651940748484584, 0.5638769564453884, -0.27302124202878353, -0.3318553062036016, -0.1974710590807264, 0.3659970248733188, -0.3107536525795454, -0.5256432385169155, -0.7630934646156924, 0.9635602662698666, -0.6864536347993849, -0.5244830644933738, 0.2177223758291995, -0.2796697193229639, -0.3128574675130411, 0.08229879244112501, -0.2278987851989251, -0.3288671379479664, 0.4657774656477372, -0.8918972389594038, -0.3172906370317756, -0.6464859369626382, 0.2680992195373527, -0.10457510337332955, 0.0661708100019955, -0.3647305818614704, 0.43184379587752625, 0.8764708313072741, -0.3055209307745118, 0.2442569515369262, -0.4108046619473584, 0.20595497973185903, 0.04012959267460993, -0.19380022568800806, -0.5172490467824061, -0.6310963860577355, 0.8395935558034983, 0.4912881762084673, 0.46981591586084875, 0.21880278170427478, -0.33695621139074466, 0.41480811720096566, 0.0744724809215561, -0.2748680028075817, 0.2627157565758784, -0.772187784795058, 0.7980966736398969, -0.018874713277248847], [-0.23090823858585574, -0.4630066564112203, 0.7518448666376857, 0.9660479671991976, 0.4912303891540698, -0.2054178841842498, 0.16057115314299183, -0.6907862689388712, 0.3557576984170653, -0.4694026369062562, -0.49065253878168996, -0.19371799577104815, -0.381769942406141, -0.2211197241919185, 0.15035454963627007, 0.3799254590144316, -0.13788765456983396, 0.26146833825283977, -0.1244349706268749, -0.44426729253504993, 0.49098416138828577, -0.009566663590274345, -0.32170186014876256, -0.2546988054003634, -0.14324899414196837, -0.5155114362218896, -0.376863382368048, -0.17398559644678466, 0.2824061721434209, -0.1331058336883922, -0.6223900584144062, -0.0006891281157990461, -0.3244439194013129, 0.05711543758653669, 0.270695055919764, -0.26476816218653004, -0.5485830627791272, 0.22138219408685783, -0.21109172252775357, -0.1150642886855983, 0.6115624063826542, -0.6399759959993399, -0.07992773390450003, 0.08661056901120072, 0.3347610481617758, 0.10843210323788645, 0.5466837376096723, 0.013250837758829983, 0.25043625065397435, -0.11333603421151942], [-0.08974444693753227, -0.3273025976032523, 0.20788340128554647, 0.24968544129685583, 0.6122826524489082, 0.07175742579571358, 0.18362568417045413, -0.345333385214951, 0.15166681867774515, -0.36658916164154715, -0.5987134573188666, -0.26908378220494356, 0.02952863787994339, 0.09007531633180815, 0.17675226597946486, -0.15647607528947394, -0.21255227331237353, -0.27233755385028985, -0.23753934879489697, -0.5907818470504468, 0.012977865034075251, 0.31873536712370826, -0.6068871169359368, 0.05718270818849848, -0.3989503395159127, -0.5137742349821879, 0.4273300171916776, -0.2647782495013322, -0.07100288211795423, -0.33055363949704497, -0.10673831077563412, -0.19461209725103404, 0.004926398358234356, -0.1838234456710831, 0.1568419776919924, -0.3233426490767565, -0.43658055000183055, 0.3339891650921168, 0.1951554634919321, -0.15799939519634687, 0.13676641940928394, -0.23215015689786062, 0.22816019099170287, 0.10793172426558972, -0.0900282363705819, -0.33636365513658323, 0.22228019007625255, 0.12150416778719772, -0.09936945124593914, -0.07721889958569343], [0.15746540524356328, 0.16014177676383787, 0.3312966240217922, -0.07094709959879024, 0.2186287862850552, -0.1671396409241228, 0.011460245328010708, -0.23558541935513824, -0.06953847051847481, 0.054057580103690266, -0.01719469417682825, 0.011157207290144838, -0.0300753381786682, 0.08214704374152322, 0.18177254979250448, -0.09497659570958927, -0.20688930917262122, -0.030675370848969277, 0.275990317840921, 0.05448896813875643, 0.018846065339019114, 0.2438272231993369, -0.013243716243957811, -0.015349141514710389, -0.16746171430375226, -0.22192360623864874, 0.08883240243159345, -0.0049997034883277605, -0.1331641898707965, -0.31411951034997126, -0.023569040060371613, 0.027169892377945138, 0.014605165127678614, -0.013816482222855241, -0.08863255780672209, 0.24006834051822057, 0.060641839981175144, 0.10738465028750642, 0.2397037820437606, -0.009112943110033174, -0.006754314294504693, 0.03095429565591201, -0.009017016363366381, 0.3080128890545407, -0.03331201880034848, -0.004224127932733448, 0.03297088928124756, 0.22233976352636145, 0.01963026367615401, -0.04275889023438725], [0.16442319747503387, 0.011950998068838061, 0.4086688546614637, -0.0321298299426976, 0.11427958556875496, 0.11651331480611798, 0.22230060619403907, 0.16112936477074788, -0.11574020011440835, 0.10489706138521265, -0.01985393676480336, 0.11044615814645321, 0.08483675517581664, -0.06684664603642158, -0.0452293743637774, -0.20119586664161165, -0.24307497603347697, 0.22331880363610268, 0.18229396457925884, 0.40083571181285793, 0.16333529298894298, -0.12018988160910052, 0.0867459928894883, -0.020970488539462033, 0.3275969534296944, -0.02828195536986663, -0.19453984607069424, -0.12956587052747154, 0.014981401072879362, 0.22525427509735074, 0.09615168017532368, -0.029870886718168482, -0.18444108197079156, 0.4041801354934949, 0.21598009733583423, -0.040191973460241684, 0.0804390575882524, 0.20690327447622214, 0.11315148005045067, -0.2009407824438386, 0.03024013791269515, 0.040051342783651245, -0.27789071273141397, 0.1741001023202854, 0.21532049082836088, -0.12965207578713372, -0.2642918832488621, -0.17893318257100702, 0.10617687429146441, 0.04837615585242908], [-0.006843125178352344, 0.008702615071024053, -0.035314495187042, 0.11512846843189953, -0.027565753976171434, 0.031787558242667546, -0.21526376353289284, 0.08290739538074508, 0.44237538406472254, -0.020380052440622815, -0.225169485775942, 0.005263027001599806, 0.10104324258932873, 0.17341173550969696, -0.04268876957474105, 0.1167920851922446, -0.006626199870146234, 0.21594032789461773, 0.10827787937518606, 0.07673113562154056, -0.22233519573729393, 0.020477783387262086, -0.20049610519990793, -0.04524222839728312, 0.08092709398108791, -0.13643741832508585, 0.18414244760492068, 0.22426984076152373, 0.00396132511721836, -0.13771289640451673, -0.03954918910799611, -0.04447058086266813, 0.031165585768249217, 0.04065883117171881, -0.04769211355662738, -0.15498431962909973, -0.013864578988113168, 0.3030830425536498, -0.15394792377471808, -0.08981380924339512, -0.015053653771296464, 0.21751070877034046, -0.18766543775530492, -0.07477846678194759, -0.040031437501670354, 0.005313796447927272, -0.21739267647978072, -0.10634831623724375, 0.016609303387788113, -0.017629860098821976], [-0.4870598488874285, 0.2251795799431261, -0.21192665185529128, -0.008076468312620272, -0.483807284618134, 0.5236301529708433, 0.05783083171703815, 0.06271897700877445, 0.2337946866279257, -0.3281633160658798, -0.8417901862508794, -0.1284654514079927, 0.006425134500797118, -0.04616591332783788, 0.23287968741397758, 0.2445773692526303, -0.037261312662806356, 0.18722253132718006, -0.13362595397376137, -0.08816082888122846, -0.3472407246559997, 0.1328213151537608, 0.0512578719925351, -0.00839421838531222, -0.28004500083417605, 0.06941321758993178, -0.1762742963794395, 0.048917543534043914, 0.14403879167769293, 0.11074672193170075, 0.0023382606716275817, 0.5083352105218352, 0.21759186931140018, -0.3560725296742618, 0.009999295627892271, -0.09715044811911139, -0.5477305498943966, 0.30859806254790706, -0.2178511953930724, -0.04230917388368643, 0.5192673759551028, 0.44858751934872687, -0.05617717854910647, 0.04236081915753698, -0.24886521670170067, -0.2934894086786283, 0.18818758546347575, 0.10488840168274553, 0.4255098811964783, -0.15908865580720669], [-0.13596343250110773, -0.24232589878563007, -0.0199014455980243, 0.282008579041574, -0.25328686467430894, 0.2509002492224194, -0.2918483113166699, -0.24306496084035073, 0.22801742257885219, 0.36433878741463455, -0.19513444272669486, -0.24780114121847688, -0.05514940248317322, 0.456814180816345, 0.07799095377089105, -0.17569376142968285, 0.360605540586079, 0.0010950397299412187, -0.08101723479501106, -0.39891028657312816, 0.06946265879370596, -0.08160300350891547, -0.01778025520621033, 0.06888832099760069, -0.09709618254145504, -0.377061804492535, -0.22392484640637464, -0.1365060789893469, -0.16738246596916218, 0.06313976945928047, -0.46004011591800925, 0.13230950929025156, 0.1369606321239346, 0.1421872072647263, -0.07858242550850408, 0.06640795827071144, -0.32990437961977503, -0.4419276582672087, -0.26625035094770877, -0.31795019391643947, 0.2742660050441869, 0.2530102278646406, 0.47487843719543804, -0.04364808801356537, 0.3267274972924905, 0.6894195588454141, 0.11773794877633297, -0.3860084590989403, 0.5902119379251374, -0.03527601400570429], [0.5197193452858304, 0.30432171873012154, -0.08651570599086836, -0.44736963828757204, -0.4499169478939565, -0.001096497191658466, -0.3087739505081912, -0.47437833897914095, -0.6842799933389146, -0.06304736281834707, -0.27910217606787774, 0.4232230589964877, -0.24304521722240507, -0.35135907649193104, -0.48829264827771013, -0.34028491228407204, -0.018575777239880596, -0.17182802254721877, -0.5750747233840355, -0.10391129620703803, 0.008029695964661463, -0.32563801854792046, -0.052871402640005796, -0.1378639858185386, 0.03992760683123949, 0.32211786942369053, -0.9468294420312907, 0.5115876015731656, -0.274725440095492, 0.06797044840824419, -0.062040401656784386, 0.16933345233538502, 0.5225326091593526, -0.07378013211387134, -0.07774082441017421, -0.07672377634595902, -0.19168560715368654, -0.9071673771214436, 0.21547474365760164, -0.6503192209286309, 1.015921911045311, 0.03602843927845777, 0.21420993186425688, 0.09343287281137778, 0.7629398047876587, 1.000683070377993, -0.5441915758411932, 0.17638776966130681, 0.13135722087308482, 0.004709882151740498], [0.140375482700851, 0.3984864412722379, -0.15216213497985936, -0.5024421869410683, -0.7053042275794849, 0.010256215929559135, 0.13563625694003648, -0.18200852362711475, -0.26979257897074366, -0.06331436807617377, -0.6004908896602803, 0.3662787859254036, -0.7266231966656758, 0.00552007988221502, -0.2512470091372952, 0.23575263219576217, 0.06924067617175791, -0.6026348111435543, -0.48794031232887863, 0.22523875937567658, -0.013225689964481962, -0.2618969747858433, -0.04898436820756371, 0.17565089842340048, -0.22711975196932072, 0.22404254862216158, -0.032594438378820985, -0.09255973024663616, -0.29717857124885505, 0.566675783552688, 0.009080087729776993, 0.4991938203941613, 0.6728310268976719, -0.06619242927308973, -0.054744985402140116, -0.04708274778112613, 0.13027253979185446, 0.3061364634365979, -0.3427638132365181, 0.11882329068648609, 1.2230249205361337, 0.40544797039489255, 0.03401177781707352, 0.3712081948119971, 0.5143290429252192, 0.7782062648728906, -0.5414378478312735, -0.36487059688106177, -0.29182511362158103, 0.04930032960394136], [0.4124966079386622, -0.0981457410994128, 0.4749404462142139, -0.4905142376897507, 0.35548052488788506, 0.47712549965412704, 0.43320852612285865, -0.015613902261130562, 0.037272715388679475, 0.049712250641085795, 0.23593238468086158, 0.573652911088245, -0.43101473823430475, -0.033864954565994615, 0.0568816784690316, -0.039978223085088284, -0.1204301516201436, -0.12263751862463068, 0.21244562701092717, 0.406959951976227, -0.5331483686406017, 0.5692031986819723, 1.1887932847466063, -0.4817193138231803, -0.6443484493629075, -0.19454025825233415, 0.3998490078467199, 0.32878691129985943, 0.39768631421662437, 0.4079559552747891, -0.329726506424095, -0.4266705320508352, 0.1611895612915747, -0.5077607616363613, -0.18705497937600585, 0.2658427427561369, -0.3953453308438824, -0.12439469264997763, 0.48900798262261874, 0.3569189845888461, -0.39795649947281686, 0.18486997270887845, 0.26154690072206815, -0.23937720496889645, 0.17849238504467502, -0.28388498074776036, 0.10407258563009365, -0.364179295952489, -0.11587341670322109, 0.25941562185417694], [-0.7425863826585296, 0.7213646542941908, 0.35194297778220257, 0.06495516822785025, -0.41587169056177514, 0.04873818306276402, 0.4243446419227266, 0.3961855924501057, -0.4525152064147966, -0.5655142637916512, 0.4159104147566538, 0.16090041732689234, -0.7835812195279718, -0.22620379951295752, 0.027290111711440915, 0.7205580120037776, 0.5195297022872848, -0.2159240874908186, 0.2404949511401822, 0.06746794451707847, 0.2846997801543697, 0.4006438891439348, 0.41021544941767757, 0.0010927684889894065, -0.16064833891613037, 0.30260693223623447, 0.17671429902531946, 0.36435508652036014, 0.06294867707800617, 0.11649561522166481, -0.13179891269624364, 0.1278613009281508, -0.2757180414424684, -0.5363056956133312, -0.49560561400634096, -0.16644801695741285, -0.7314354851848306, 0.08397820662889637, 0.7482221172964716, 0.4986874768924478, -0.2726028923802089, 0.6359458667783996, -0.11188077476804557, -0.15865052561302673, -0.5623692834047869, -0.6200638258567398, 0.059545657608669686, 0.03098504949155113, -0.3375348401225807, -0.2252148663751312], [-0.2017229915224633, 0.041596386359985735, 0.20429155961731735, 0.023654864477909304, 0.34869538792366755, -0.2932684878316308, -0.01030399950627079, 0.42544674393509013, -0.12584627904284498, 0.046811126478089556, -0.23579858248174115, -0.06785897186975313, -0.03442770863924016, -0.781296507730033, 0.2609896652167659, 0.9241864237715567, 0.43961301866655994, -0.04805721074829767, 0.7297832650690745, 0.09820703602355312, 0.575334226874235, 0.39927187725929114, 0.07601194541258177, 0.04627325149305809, 0.3055817473386306, -0.20524410442914462, -0.8099437996059571, -0.44735607049225873, 0.4748522450977389, 0.34419292309719113, -0.5265629338524707, -0.039475936230378914, -1.058171190939649, -0.31998543704598564, 0.02160857424857268, -0.39543632687872765, -0.5072153360578707, 0.12485113548045199, 0.8168640767449689, -0.21175839811878613, -0.2416794130970145, 0.05362364494925156, -0.7313391649773604, 0.08542080038687062, 0.14317872657200575, 0.012810323481670601, 1.0282693588732201, 0.17118433829386875, 0.05610129848455499, -0.1707024750725291], [0.06003968661713325, -0.46536600993181443, 0.25655639595045354, 0.09764045488587832, 0.6417020952382791, -0.36974172722840026, -0.4375189301294797, -0.640494544882148, -0.19412452341420966, -0.3520119526743551, -0.41286836342482697, 0.061908107217253844, -0.006879546824989828, -0.38552003981865157, 0.01727135803227539, -0.4014031877183294, -0.36271165306606823, 0.0015768961619562428, 0.4930765001206881, -0.5015634436823426, 0.41608396881479004, 0.4501424148456607, -0.5839612141986045, 0.3953111605848129, 0.24069243797169712, -0.5770880960111848, -0.3584020913299127, -0.07507364006808939, 0.6921346903781603, -0.2361890636216618, -0.7827177071870519, -0.19743468330238262, -0.9322300468153248, -0.0803060464493085, 0.054302478373117045, -0.27692253388494187, -0.4632402674725342, 0.11595396629836241, 0.10135121270572603, -0.20907595719873653, -0.30760116116797737, -0.2161961278364176, 0.04204836912912313, 0.12027645994906301, 0.14149406092671216, -0.16481816991970055, 0.5810810394119097, -0.1558345368922723, 0.4562173123722008, 0.04749600030263752], [-0.4522841347976688, -0.17701132284125345, -0.536033657394985, 0.22568842951630405, 0.6844910755343985, -0.1900187402048279, -0.2762920704879446, -0.24519238477367344, 0.034973804163530096, -0.0012666735751209713, -0.25834557946524633, -0.19617704914563075, 0.3344046045716213, 0.2620218023839393, -0.03632871602138973, -0.08495025251551248, -0.2192022464806178, -0.17451773275340585, 0.35427169350511756, -0.16327183365659884, 0.14088887658905958, 0.7276987546087796, -0.6368912063810447, 0.5657647227677247, -0.07757628145195347, -0.33715513187574164, 0.49044448845773575, -0.012538545415762641, 0.14279534906835545, -0.983277593857591, 0.11422362765136816, 0.12808275411992395, -0.3228076744886826, -0.860262017578198, -0.012753987183744476, -0.45648617503240835, -0.4915467726309158, -0.013669122949240567, -0.05151650872277423, -0.09998668129544154, -0.38423981880469216, -0.2600393015013847, -0.13862410836445277, 0.19343387481253296, -0.2792568422805305, -0.21851787150753962, 0.9088337755180858, -0.10030173399957926, -0.19011465507761247, -0.026793707298870678], [-0.16010144271094257, -0.036734558872611255, 0.08222163027013515, 0.04122311564392375, 0.21637448218010447, 0.09463054790099006, 0.02942025393330003, -0.02702664865479719, 0.08293569679134802, -0.15015432642781798, -0.06350775133733481, 0.012174505392387881, 0.18467582051704548, 0.10198256662187948, 0.16945304870783875, 0.10031860307112034, -0.05103595262763864, -0.32323897453528905, 0.12183588691824775, -0.15079080094380484, -0.08801940375594226, 0.12067780946111203, -0.08428703930447654, 0.09943963067690272, -0.00885613833677553, -0.3925576328338988, 0.0007798955516382995, -0.002808194818300568, -0.12142162754713666, -0.1672342236278254, -0.07240038511190336, -0.1839154545712005, -0.0663883363423749, -0.009025437776161743, 0.1638449973709773, -0.30934823320661636, 0.0433821766142402, -0.13667872714167767, -0.07776733633045436, 0.058891523603222314, 0.17282116562109487, -0.13308016298188993, 0.02704604523175176, 0.07163366264318848, -0.035644538697940736, -0.1528361055664468, 0.08918324996550599, 0.07686734503361874, -0.11049768287614349, -0.08789962317024295], [0.05660275987024651, -0.06575708890664601, -0.002564114816189489, 0.1482817218787916, -0.04525009263469919, 0.14001236663886674, 0.052638686952600613, 0.4591662900002515, -0.06822262742024904, 0.05110697660712807, -0.11816799327193377, -0.0882768525369333, 0.05822706904353182, -0.46894952424080344, -0.14306049714487243, -0.15882970834736726, 0.12083439776294462, 0.0589509345681901, 0.45039073514833977, 0.3566591630731148, 0.35088823012611686, -0.01942939049135477, 0.0980928644006673, 0.08388095963409728, 0.00681186178730596, 0.10707548188885717, -0.0801787935597576, 0.24291466117880503, -0.027037827278068895, 0.15457705729145377, 0.20412249875922664, -0.08772123773790028, 0.006731232583766603, 0.34443774574220987, 0.12591999928210432, -0.12439789028373839, 0.0987955593156377, 0.23316230526386275, -0.25192287535339253, 0.09142072699451256, 0.10737680889645375, -0.13236219304731855, 0.25340221976478766, 0.18275345478330335, 0.4437530480429314, -0.14094389929609963, -0.596072812795422, -0.36601149820466444, 0.0867194776327058, -0.042452085318683025], [-0.13679075086093911, -0.2605211136146778, 0.014684961108337852, -0.04111619004063849, 0.31734822683165714, 0.07911959492714114, -0.012749727447612757, -0.06562457535850018, -0.1085310248839103, 0.11329534957985384, 0.05338182332055873, 0.3096276137024983, 0.5262178467304395, 0.3631193188569175, 0.012010576807163522, 0.33603658849229784, 0.0643111342081009, 0.5454180258729656, -0.08749374536214302, 0.36793697186647417, -0.2411005476863134, 0.17978252134575573, 0.14673369363257902, -0.2504601717441721, -0.0236044013577702, -0.5900316385006174, 0.1942340972594147, 0.15888051143546983, 0.022231028071911775, -0.25069749542930225, 0.21689825033454663, 0.2701101957527979, -0.0967530152979335, -0.007245804418033408, 0.017639512058858074, -0.2670213063795434, -0.0007496874993659133, 0.011162444243623912, -0.23963128054619928, 0.006146070418795638, -0.278908784625082, -0.007216474563125873, -0.13161360683569442, -0.24775137278953127, -0.30312389826270847, -0.27308412446442315, -0.021368734774179818, 0.01614517240790265, 0.12597834954070355, -0.06617727851997435], [-0.1902405657300618, 0.048161361598346546, -0.10419544312595207, -0.22074416587198245, -0.410321690364656, -0.2416207194001641, -0.15748579559728917, -0.09241634943041492, 0.005452130765040052, -0.32710881221420507, -0.48133495768843126, 0.41735151225834805, 0.10594738199326162, 0.07916667126910214, 0.05065126160361915, 0.32332993615838385, -0.0027951301689983893, 0.03372769031427889, -0.21123315497145503, -0.0006219531078786898, 0.019913134685149315, 0.36399656043898976, -0.07982547224088583, -0.24423266959081338, 0.25089948366653303, 0.16717135956196216, 0.1534011421253543, 0.1468009752031355, 0.0073262002692961355, 0.12050040518238678, -0.1579331588341975, 0.0813990356144337, -0.054653284019117454, -0.4286908839221941, -0.018966140663073693, -0.027953883784576517, -0.4012950344178106, -0.07286084920083022, -0.19699966215008538, -0.2068416660826929, 0.3884167628853789, 0.15310259310179353, -0.07401652297371521, 0.31272051624182623, 0.027396465570313316, -0.0338177941506668, 0.5060803647163622, -0.33262074811096815, 0.24210382781937845, 0.08923569318273523], [-0.030254862333061697, -0.026622855765156984, -0.3162315778586525, -0.23275337948276237, -0.20420808268297097, 0.48426620732508646, -0.2341698693927198, 0.13536141449690878, 0.24378722806032704, 0.2508906681236701, -0.8871162470924938, -0.10938943338240273, 0.06547688370928874, 0.37304955971758974, 0.37046491475060833, 0.1890316680202724, 0.1867170438988986, -0.8343947818176549, -0.009725330914282916, -0.09849215763702976, 0.12906139342842526, 0.49014243237870225, -0.287501332525514, -0.0011469538804331069, 0.09698759766640767, 0.5382710169074864, -0.07644102098029672, -0.15188149750479737, 0.012522621888476236, 0.2364708156941987, -0.3221150467696568, 0.05997994548313463, -0.0972437147849204, -0.4273053388587093, 0.23889236053845297, 0.07863772725705288, -0.4829575455387388, -0.019925235694419258, -0.05871267845177112, -0.5205062414689774, 0.28840269114323763, -0.3880412247268499, -0.1868097570657531, 0.35489583951520887, 0.4530341798647877, 0.3839781261703128, -0.0017409752797780404, -0.6118688331859171, 0.7636442246413299, -0.06394168002356876], [-0.1937509867487904, 0.5182846626261773, -0.17195463204825304, -0.10938423525710272, -0.4755863170165898, -0.20755959960772635, 0.026535376212708937, 0.0561516935674448, -0.027242339340322164, 0.23494736992062534, -0.29471154016215134, 0.0342829046575757, -0.5121416590849802, -0.22903877081665955, -0.12305519635779961, -0.5576534181423504, 0.15783754801534453, -0.18151530917319822, -0.13227444643371944, -0.02692927447544141, -0.2910514366152191, -0.08323352527208883, 0.4272541099053669, 0.0778422720123562, 0.07038743913789643, 0.5161021009312796, -0.047004094510674145, -0.09567100286429794, -0.2090927854389724, 0.1291020547889355, 0.2590200782045369, 0.12634629170228057, -0.28310693207692267, -0.3856180488409314, 0.43260664510561125, 0.11335743483428921, 0.058649739370703516, -0.11319216670143149, 0.4013039747444727, -0.1166781359902154, 0.13125184147953767, 0.14174439685409335, -0.19193540584716448, 0.23417637280115336, 0.12826039056159214, 0.17323623180632952, 0.41081355575373824, -0.16874398308120425, 0.5503269546287152, 0.0339876703134655], [-0.24355564873278318, 0.9449356013093086, 0.3378554227207293, -0.23844388927504717, -0.5599611359950317, 0.2715895056321176, 0.07631869206677064, -0.011338099971917188, -0.368155631904991, -0.48802027677492915, -0.1188048545662249, 0.5072385921273104, -0.16833950121628627, 0.23977079574802776, -0.32548026200030855, -0.24943511028321116, -0.2644381525072977, 0.43630874927846264, -0.38060044312589714, 0.47589607885804536, -0.270597825825996, -0.09042635066651399, 0.19087715176757128, 0.19862152524404136, -0.14809198483065195, 0.6690047248951817, -0.16481369373660376, 0.1409619658672521, -0.47204499363635083, 0.058174800640488016, 0.48296481059993174, 0.48336881614792426, 0.34897066732613513, -0.005662573917488112, -0.46061152324244264, 0.24722315206308834, 0.049420754644069316, 0.10235879866167158, -0.04594554168509943, -0.7412144850466824, 0.18367636060248074, 0.5413079066136368, 0.0006193720466234339, 0.20127220282027108, -0.12062013690547123, -0.2533724221372027, -0.2980412146149415, 0.17139577533473627, 0.6554720858677553, -0.04734152814301357], [0.352540956394491, 0.1725348867412684, -0.2750898822191823, -0.8991350314773597, 0.2512029381447014, 0.48816751275311054, 0.27213314180543957, 0.5819441221657516, -0.6410497406966454, -0.49099089926076755, 0.3940170056930445, 0.06734473692650599, -0.4008258377313093, -0.043893855206994035, 0.11318124056233166, -0.27388096753693447, -0.47164695317046523, 0.07427164914015356, 0.24485077922667625, 0.35955118819700055, -0.3101119851912577, 0.4057438943142861, 0.31565792590782743, 0.23626989667202553, -0.4228581311010477, 0.4267992487077328, -0.0026384834974288998, 0.14992438162899668, 0.6653961567894694, -0.22370229256359883, -0.7123025376505832, 0.3316860570013151, 0.4987957616066503, 0.08963775389660962, -0.26174573967667886, 0.17858036663854315, -0.6905466586874915, 0.13146915603536885, 0.3450241401201027, -0.20471758614076618, -0.3285250738191812, 0.385654499657515, 0.25157179748841657, 0.07230867262594114, 0.30360362808599284, -0.07952392586706433, 0.5054535591174829, 0.098331056873883, -0.2448198809450582, 0.03811615799517843], [0.11787266459765966, 0.2746268380367852, 0.14126900958894834, -0.3881111663937989, -0.08043829180702759, -0.25284890018760403, 0.13769330613598924, 0.46544741115134625, -0.6487949808756651, -0.6991541367431393, 0.5634324249386897, 0.2867358574465815, -0.28678743618904995, 0.08239464791331524, -0.2179131279205531, -0.09453614214517604, 0.08115951119450282, -0.40545992762634503, 1.288498131097217, 0.3212976273307516, 0.14426353922290291, 0.08237979723344513, -0.08046396262677587, 0.41365519380370264, -0.4321669885146915, 0.21294869445520145, -1.0450443204837871, 0.08976972167646308, 0.0354769551687074, -0.48805767559212143, 0.22201453560360931, 0.548611587098021, -0.7976624502720113, -0.41189923425481106, 0.13873661626065478, -0.35718933909945383, -0.06584377556089606, 0.628688994544885, 0.6091027729331593, -0.2264370846874435, -0.7404109612524483, -0.14393698250546083, 0.06601766691779705, -0.2113077169615087, -0.679690505533914, -0.006056493666343752, -0.5437520743564143, 0.42002827696768735, -0.30654265994433283, 0.026601544026161026], [-0.1081027343619471, -0.10540554390995734, -0.22945674230930918, 0.029609631312623688, 0.7659015161871979, -0.8008847955871529, 0.09687765857803467, 0.2685542419628823, -0.5597259809576998, 0.1069287042808175, 0.2925610122560644, -0.22458977702659097, -0.1923560438992265, -0.007124960037045256, 0.09806910142856642, 0.30606266609043126, 0.22670301951651708, -0.23413515551214448, 0.783210346598385, -0.18072499136382475, 0.6023423944149412, 0.45439434362275327, 0.12520492237645817, 0.49522801187460286, -0.05791838481113785, 0.1324319981010967, -0.5529343235535823, -0.06102795088723448, 0.011349870723208798, -0.32776330866230297, 0.08063503265640655, -0.025108734910599517, -0.6204860454289843, -0.30735161227775676, 0.4149340622709486, -0.1989928508099482, -0.3721907075647944, 0.6654490713754441, 0.07845007532973484, -0.6378748965259765, -0.03657391384831049, -0.1396819642347698, -0.35492672399753916, 0.21837193789509735, 0.03835163402330992, 0.5253563067942574, 0.017659426050140516, 0.03448994758003366, -0.5164617301112436, -0.0766953019583912], [-0.014181739396646412, 0.09995366840025942, 0.04173102450496558, 0.18612137207300414, -0.005416024836192334, -0.28943529161887555, -0.41111390864255365, 0.04641171214051925, -0.2001138370855772, -0.3240116490242943, -0.34335490229638554, -0.1869522277157109, 0.27440217393731786, -0.17192918170513635, 0.4125781801044939, 0.4591408882277153, -0.016588650592388225, -0.2450143185503464, 0.2479386869950258, -0.2613806033271016, 0.22418890828333915, 0.4976725160097818, -0.5165616654632544, 0.1140557382015088, 0.00641382213262657, 0.07072070559221012, 0.014802715164227268, 0.11323357906286499, 0.42950461131884976, -0.1972788465995973, -0.15683306519838028, -0.12576683632914865, -0.6310268078470457, -0.17796625257425408, 0.1813978957005026, 0.2627595638567621, -0.487251372151209, -0.019396952944899768, 0.13346000077229941, -0.5431477643676785, -0.04416367938591495, -0.12390240530281714, -0.21765956363789912, 0.10962798282383465, -0.12690025829154258, 0.31410004336335084, 0.4807470557801621, 0.4781187668142918, 0.06871810711590068, 0.1011569002558375], [0.14945198711506197, 0.022824656853155413, -0.3184223973642796, -0.008384347687869428, 0.23844867554585158, -0.44770614720143326, -0.44745726590958684, -0.08680069924299609, -0.06593850754476485, 0.1775725705361123, -0.1841468345270535, 0.1653077890947421, 0.25814359403955756, 0.06172594234855619, 0.5683374588162917, -0.5569507726156461, -0.23818761368226954, -0.03435793792598917, 0.5550759946232879, -0.3481351286978712, 0.055352546737232035, 0.18244882247164862, -0.3485602629017642, -0.12110595261679366, -0.053645426510914106, -0.03935468489190897, -0.07030021657346328, 0.2970162237873666, 0.014694681549655182, -0.3719751843535359, 0.107501527561005, -0.3856215987350753, -0.7027882162461008, -0.1794750418455796, 0.2655384967064217, 0.009114361063380554, 0.009014970775914597, -0.0517697458120749, 0.36342144749045013, -0.09091114736338587, -0.1649688343076142, 0.19704326455369736, -0.08290414416152718, -0.1684603663698085, 0.2914332186677854, -0.32696585390839483, 0.4667530872842997, 0.23222338574380413, 0.47982646995269435, 0.14222431293464458], [-0.11132989129477756, -0.13489077945000677, 