{"hidden_layer1": {"weights": [[0.44930601930949177, 2.835010649272091, 1.078163448343197, 0.20704468367873607, 0.2818959279733436, -3.202518592379772, -2.451718147960323, 0.3826795410978192, 0.3342285329265465, 0.037890324270187715, 0.12144433428116558, 0.13786010773076793, 0.21753484590240021, -0.7604419739463537, 0.3185931342761844, 0.12342077073957868, 0.22760288102146148, -3.6690128700929647, 0.1758109300043161, 0.05624083479370846, -0.9870207681159237, 2.0254814935033307, 0.3698297857153165, 0.26150560580490995, -0.005764219350820018, 0.32000179019179475, 1.7861016321171712, 2.7726491856925746, 0.16531035953085974, 0.2356087579525849, 0.6771689542279209, -4.949981045976719, 1.1870524891337149, 0.3725057169673025, 0.5402342872480957, 0.06196575927407016, 0.06227443486659348, 1.426412772860803, 1.7699434221158563, 0.1478584398654069, -0.06303949605094238, 0.2627843114953183, 0.13445752362004523, -0.9930103129967772, -0.18301674518440902, -0.5492808783281938, 0.2519662692103307, 0.5936619587925083, 0.22572707344452111, 1.2313506595612467, -0.07224887982248873, 1.4723016600826555, 0.2148286648867622, 0.139376281329859, -0.1023466076834797, 1.581240324402219, 0.7468328899188433, 0.4880912161883344, 0.1685281995565761, 0.035754116452398066, 0.3651454113270402, 1.1450570535190545, 0.2966172908846821, -0.8226076784721921, 0.13464629741397105, 0.3427191935288187, -1.1456110303458849, 3.313865973267216, 0.18525330050169403, -0.21144803895690426, -1.6106409978385874, -1.0330593881444192, 0.28522839590757926, 0.28918365871716395, 0.36948681017309065, 0.3155673393610516, 1.4597808636180203, -0.26352103633551055, 1.682780345763296, 0.09451847162109943, 0.8378680468954061, 0.49632177795942756, 0.2576784781921088, 1.4976253228115057, 0.8633385387595938, 0.34909179116001615, 0.1282205439311616, 0.5014610795343732, 0.28710078625125696, 1.4563882672773443, 2.8029180668120506, 0.23907870803649797, 0.7343451055530691, 0.25348712855823546, -0.03258994582454106, -2.7327035375115916, 0.1829785528388176, 1.091220279486774, 1.1997114067725887, 0.2818646514676656, 0.2377995341695922, 0.36707755044551815, 0.27822025767810515, -0.4720197146515867, 0.04328184964694549, -0.4462972723732132, 0.2471676657871759, 0.23496644308191256, 0.2225859728617076, 0.4096366585824989, 0.5148313016359356, 0.30485773552347534, 0.2300035709551421, 0.17842627131828237, 0.11973443211223478, 0.27571687533701444, -0.44256216664068443, 1.2312399003352477, 0.030999766290433484, 0.10562258951309227], [-0.19224196876386226, 1.5043644693956568, -0.0791660644970638, 0.043040414822294454, -0.24739664648912368, -1.0138323924560506, 0.7254461274968467, -2.158312773126477, 0.21518596682655297, 0.0251944372623622, 0.14109101686991185, 0.16023958008710912, 0.10213299476501976, -1.6512159506895903, 0.04396299871631555, 0.5264801577408021, 0.1501775968505059, -5.721029853413802, -0.10066024836504991, 0.12954421417497547, 3.1521936459408293, 1.0556901603735374, -0.07130567380587306, 0.13983575249091856, -1.960061747067321, -0.45751529680951697, -0.061344189204403925, 1.846734818727254, 0.21047526602445052, 0.1319842727796136, -0.06353087289086705, -4.304260376818307, 1.0258525241449397, 0.11141268916555912, -2.5401845822132754, 0.15468545022813046, -0.06873924241146961, 3.966872131782584, -1.2731098484111085, 0.4482990981133419, 0.9199944891858943, 0.061224313836142616, 0.15222155674133048, -0.05956347328487988, 0.01942848404289928, -0.6629621838174172, 0.04620992798364757, 0.5728014395006416, -1.0508062864472183, -1.1600800597942234, -0.2387531131028916, 1.9348074544567049, 0.12113045916515852, 0.08063048604406485, -0.7625591439252486, 4.150222146210573, -1.1421488931299046, 0.2540866164666943, 0.16339473077609412, -0.9029183896277955, -1.1596496228153355, 0.619942189565277, -0.05161675898993246, 0.4853259114525579, 0.16843751603465468, -2.673747763445173, -1.8069026980685672, 5.670959580176546, 0.14866100478825078, -2.228293221094476, 1.2024013253016537, -0.4887152576693517, 0.13811860514572502, 0.20076343585572495, 1.0874046703800275, 0.10767398374376984, 0.014673835113486725, 0.6710254314863076, 1.0310117192753925, 0.17226490847492884, 0.34612684580742836, 0.4914418589973763, 0.6626288071539967, 4.0922807878730945, 1.4997019186273854, 0.026486738267238494, 0.011521755610287234, -2.6925170263276774, 0.16985140053098585, 6.893627626079898, 2.114214645679542, 0.234340893251527, -0.9589299190729408, 0.15395136020178618, 0.4810009886395495, -1.4373149384897037, 0.1265397441461898, -1.3248762444517581, -4.156673017960613, 0.05438687319989253, 0.12103778830157673, -1.120791562737073, -0.09556903631377571, -0.9972479381951765, 0.12127712143668425, 0.9800607125092508, 0.1160139514884167, -0.06629165233865766, 0.08330713109873625, -0.34380413219308176, -0.16549405694218414, -0.057067838722202245, 0.17424952034042404, 0.21771060646588308, 0.1863042679120955, 0.12926015310630243, 2.426588364044237, 0.0848717645683005, -0.6311678488948915, -0.01623051816158773], [-0.6494740185756781, 0.49314731402337175, -1.4983576450574552, 0.24704246545646585, -1.145193000676155, -0.250885439874101, -1.0143053749452364, 1.8386184830855197, 0.2783857648490769, 0.18156505914201482, 0.05601769598711343, 0.09767482842683937, 0.0992512601465355, -1.118986641366916, 0.19062823677347399, 0.15849642582284515, 0.08235712584027371, 0.0584239598138637, 0.06509094101452217, -3.727260521042334, -0.4662877893640328, -2.5424181980516662, -1.097670412834524, 0.13288063360830327, 0.7673148833821783, -1.275429275564805, 0.6195509750176534, 2.899538971254626, 0.15534985698465167, 0.07640278357415542, -1.4515618908554426, 1.0655698358322252, 0.017311616122055493, 0.17410347425107348, 0.24029661575900385, -0.04068101500188718, -0.39404880012506366, 4.357233989871827, -0.08667501131813046, -1.2581259126445579, 1.9905713635848796, 0.10584809137404229, 1.0652284933470364, -2.8347698583941954, 0.21551108174781558, 0.36370839548538125, 0.10193116057302655, 0.3919701352595629, -0.9190196507415509, 0.09174013011676559, -0.9905816461946036, 2.301531603767783, 0.04110116912395769, 0.23279566303593488, -0.2427534122716737, 2.729976060194473, 0.16668086574514168, 0.37207507598417877, 0.3025183670791904, -0.6796987274316029, 1.5007720548333368, -2.979058627380169, 0.21800556941799512, -3.694310876539481, 0.18482202092469646, -0.21345432114953655, 0.771668093090568, -1.5635266188493608, 0.10431715569112236, -0.615261062490216, -0.04095921282553876, 1.3007371012658064, 0.10510558378660044, 0.18863731826386512, 1.1628552593885308, 0.10785192960022875, -0.42041597081674587, -2.905290704846878, -0.06298061818300275, 0.013182894134787088, -0.1705211565410757, -0.45037036562472443, 0.652217085725264, -1.744124551057971, 2.207674189315112, 0.10090318308578367, 0.06140832704040183, -2.8532972300582866, 0.18633159729065385, 1.3757151786781923, 2.4527601204143177, 0.10675354409381847, -0.8095552842375601, 0.22167923189222577, -0.017737433343517996, 1.6227690946346132, 0.055625187895794195, -2.481248342981965, -4.3330768903615295, 0.08104347953590392, 0.0835166581728891, -1.0813749392773553, 0.08974563686950311, 0.4070906878006529, 0.07306947772710735, 2.074320271730111, 0.005560009781671676, -0.24644192818433117, 0.021259227749183242, 0.3337370976980852, -2.437494891661614, 0.13721478008459503, 0.055115787457464274, 0.0656192820031044, 0.0932099779823056, 0.19547670116656182, -5.1567790334137165, 0.032403744046244555, -1.7440744358570786, 0.1516188353049636], [-1.593582837585819, -2.146600003834763, -2.492465550230383, 0.19086751712219968, 0.18625003811818824, -0.4600448884979197, 1.311334503936215, 4.005553695093681, 0.035505793516930284, 0.05526363960226804, -0.08572057256200907, 0.2085100720380523, 0.15699831196837674, -3.160932080362976, 0.11182330030514454, -0.08172453716480287, 0.15073934382377296, -2.494663152485922, 0.19940417350306902, -2.9017780657801335, -5.221949606576479, 1.5525684263532635, 2.8534719929503822, 0.06219511407547151, 2.866282337391253, -0.13614188759702867, -0.5118711783136893, 3.585791492275436, 0.07546014114154352, -0.026075946904353955, 2.048156988994326, 0.10555722676583996, -1.9281640491550642, 0.23221554429480457, 1.657564759337254, 0.13159239068631845, -1.1190795640136024, 2.4631736907982624, -2.5598320996212514, 2.275094636126098, 3.85475391380467, 0.08323054088957048, 0.020247764236968904, 3.6189634907400947, 0.19824348569543998, 0.1459532556008425, 0.15481334908833858, 0.3777980771700171, -0.5034272642096997, -1.6410523296257444, 0.20710311329628184, -2.19764502339494, 0.08400241248683313, -0.03494842699629538, 0.39895534553436024, 0.0642675056431012, -0.6202870644834727, -0.5445859224166545, 0.005889035485928927, 0.015719705204655182, 2.7169072039004294, -1.9542232114203808, 0.16190786009538213, 6.845085327407658, 0.15551741300518157, -1.8056136410993149, -1.6248114851544446, -0.08708962881243444, 0.19607078784594112, 0.9375599043547436, 0.9515453291212341, -1.0783877082169588, 0.18091899078734355, 0.023566132697029764, 1.4991665451544376, -0.021645835342753727, 0.3346092842228835, 1.2790451403386145, 1.203988025551038, 0.12413136742255436, -0.5468178961378098, -1.1405051251539196, -0.9703889360856273, -1.0705114752471512, 0.9652911393686993, 0.10523936884294488, 0.15936135385671002, -2.4715667049257855, 0.16842355408878623, -2.4642293540954485, -1.380427863841531, 0.13033488230419868, -2.5156373087179222, 0.1644464548103982, -1.092408085714655, -0.8100278034807514, 0.13954806764948557, -2.3359450394802024, -3.1368084509104253, 0.1495838799602815, 0.02197076945219111, 0.41812125172062464, 0.07927679710813311, -4.3842665061370525, 0.05829232130451912, 3.8871958891882987, -0.0024610482664732453, -0.004596228349681612, 0.2206925766752402, 0.25990398361477973, 1.48086244828302, 0.1018587594112349, 0.2674564555886683, 0.024641187742190485, 0.17389087146604268, 0.08149559319912447, -1.2291358104300019, 4.064455457222465, -0.15355551843256882, 0.15022424939041726], [-0.6085541302541714, -1.314772455351688, -0.0018255482684538886, 0.07419063325924552, -0.8596128285967668, -0.0996540663015457, -0.9395995557563057, 3.4861748577458185, 0.3801386388195434, 0.26507643103568396, -0.08610149047882962, 0.18884560336761572, 0.14982923813021545, -0.6769320496608942, 0.09982287819927754, -2.3398198028600987, 0.21463117597580983, 2.27766461473708, 0.07793073454661767, 0.888767443807037, 0.8904043494378858, -1.9695179944900894, 0.45800523383647823, 0.18553595257347855, -0.8472083322703685, -0.5749658995052228, 4.41153858952279, 0.3440905394498088, 0.1857656366492634, 0.2852307964621917, 3.422103987336196, -2.72228134920227, 0.4298152296122128, 0.21022567669392833, 1.6734983315226069, 0.2045167855513188, 1.3768715785248211, -1.8899618719204518, -2.216976545810159, 0.10485988618086275, -1.272014076800855, 0.22755759717823143, -0.7624576156546996, 1.8027242527677931, 0.10893445170516647, -0.3934546897974601, 0.3233044231813074, 1.0889834272493362, 0.9590336824363668, 3.0446187538956777, -0.3387276002728492, 0.726454926597092, 0.11095863846578308, 0.09081812595664503, -0.4084876974006714, 1.0663270101110935, 1.1043868898056035, -1.510027217688327, 0.14304131549980204, -0.5944660375343485, 0.4696205243976836, -2.5316025975182916, 0.2163116164985003, 0.3269677253176956, 0.25447963207079993, 4.014442040253387, -1.9665707626044038, 2.4228299129816024, 0.3232212147005791, 1.2879837334375617, 1.4285135085152278, 1.1745428019801427, 0.2478369418784456, 0.11157831113871745, -2.4614142201630154, 0.1657479904301024, -0.7590983350986257, 0.09316148915833261, -0.1611224824990112, 0.12736152152219052, 0.15906636766856236, -0.5191301068521087, -0.9222794355573911, 1.9878937651616662, 0.005035397768454257, 0.18789231057751546, 0.17556937839733922, -0.8708541684348721, 0.253204505335721, 1.2586578354406464, 2.148584454563489, 0.1454164959734455, 2.7657518180921263, 0.2325181641689934, 0.7211312943115553, 3.7428779870831708, 0.3116561564374075, -2.747244586118254, 0.9883926803844707, 0.15444525509183693, 0.05927567924146819, -1.7433251550329127, 0.16008807369410583, -0.012238123691922726, 0.230698790730381, -0.38911893651333146, 0.1250142113552666, 0.16220577121661, 0.2205522017813085, -0.33688483478375814, -0.5242689782588914, 0.24411260948479402, 0.27841709718228197, 0.2855875255188677, 0.15354521886649272, 0.12970141851332204, 3.6198727831331414, -0.20340194776540563, 2.076512598865871, 0.141017373933387], [-0.09187362112693358, -4.385294913001447, 4.406432819646304, 0.18478171436883045, -0.478099235573192, 1.7363531861371857, -0.052939521700735584, 0.6166520720253726, 0.07294077087423063, -0.028818078595686185, 0.23466181104124664, 0.07226758441733748, 0.1914021633977094, 2.260306173025478, 0.05634521820415801, 1.1537359603300414, 0.29309474327549306, 4.94869947664182, 0.045304724438230186, 0.5656888390133479, 5.637723153866548, 0.08520547193032796, 0.1974118540094554, 0.023450158137464813, -3.407221385672164, 0.40408792006346106, -0.2078715581612675, -2.0475965974890835, 0.2260120189387778, 0.2050310932643264, 2.334537910095815, 3.5131252645455393, -1.5016226406592335, 0.1578414855678571, 0.9120113352368016, 0.16044229904607255, 0.8058529950717906, -8.455714901438313, 4.077272478256775, 1.3528064865446479, -1.4991674644055069, 0.004154555525502768, -2.223996778244472, 1.896588588795159, 0.0758165801695524, 1.458843370977727, 0.32283801282207875, 0.981607814970222, 0.6389381398354961, 2.311675895161333, 1.3788896052202122, -0.6253754808377906, 0.0871341375273289, 0.08240359151828848, -2.457234694431761, 9.339277330530637, 1.5623396386747588, -1.421869943090854, 0.27968064505698725, 1.3946052387107883, -2.238913737435904, -3.4677043968662287, 0.1722552158737781, -4.148663345476291, 0.2058087391247886, 2.7042004938434503, 2.632917636582347, -1.38075769440156, 0.06659480957644752, -1.2955816448530448, -1.9195559480865667, -0.31293040590531646, 0.06683317349663513, -0.014852858621522684, -3.212516906995033, 0.2586255369962881, -4.818072531949318, 3.13413321561849, 0.8335249869567418, 0.08532651572900281, -0.7798723973650024, 0.12483199783319933, -0.39078938504287863, 1.827244638025916, -3.366098996161319, 0.334596282347192, 0.23278935593179606, -4.719348581294646, 0.14247678058896246, -0.35241814638760793, -1.8016078966761053, 0.29051090938855234, 0.009824470841097084, -0.050661095194023315, 0.22791015730335168, -1.1832828447569266, 0.12211516905370003, -1.6911668491476095, 5.057496477620407, 0.16710396888730855, 0.116004919788247, -7.196946946000457, 0.24696413095629155, 0.4244429486776962, 0.20017605595025376, 2.1198374314416246, 0.2899177715957903, -0.011587833954834542, 0.12230189887189838, -0.17270083549341445, 0.7056300552976487, 0.16174147792967758, 0.118273937134283, -0.01743311411168632, 0.08086646946803744, 0.08469336312491138, -3.5974932236201314, -4.921228475473694, 3.87955273707703, 0.26845402979231003], [-0.06055059590235021, -2.533328482002159, -1.3776169743990947, 0.314119391909459, 0.018301472668394127, 2.2726118796390824, -2.0937024342485846, 1.9838528370843582, 0.26757495825248995, 0.13822440332583996, 0.05846642203319227, 0.19613256724509973, 0.12886414033032859, 2.386784843462704, 0.4058786362918696, 0.7681842557953261, 0.15795504315563302, 3.662457621862979, 0.04513477975329352, 1.7233635962097966, -0.14997384075783174, 4.079977268939422, 2.47258245639662, 0.2444030087234726, -0.8317344098018484, 1.5689586492011023, -1.1486321120609004, -0.41157439659124156, 0.09751432651050336, 0.21322528335765928, 1.0581797212340258, 9.088821269145562, -1.3670180123747078, 0.25430099760341873, 2.0896266711039684, 0.21760165397312975, 0.0007361823796246398, 2.226067941044999, 1.5567062885952099, 2.000028840473576, 1.9285264341302124, 0.27683291203348165, -1.9353518397792113, -0.17586170416110491, 0.04605883609006757, 0.5446937294204252, 0.06767020138302361, 0.31861086300683994, 0.47534984482521514, 1.0894444272805044, 1.2827847384613071, -1.2570464647206196, 0.21388655538155274, 0.13651183678593784, 2.1761844971120747, -7.610663316380449, -1.8115511698748559, -1.2294143675690696, 0.14049005660211789, -0.261015004695728, 2.941147338381675, -8.27147752338495, 0.08717259841548004, 2.1443507743880654, 0.07136298382845396, 2.1285040428910214, -0.7543907867535687, -1.6557279049537075, 0.26972629665698844, 4.8504922523744325, -1.3934798037996337, 2.8633778888295685, 0.19416421179769863, 0.0998013626144564, -0.8681787034498247, 0.3317329448090997, 4.447045961085039, 4.152669855823927, -2.1218556408616904, 0.10391017657943159, -0.055769045944494784, 0.0068398826274205255, 1.1791952516682749, -6.263246631597355, -0.6322735206737677, 0.17957261862418175, 0.022376104143280603, -1.1896339504794706, 0.14539348227799964, 1.8600005749054311, 1.9268109053727904, 0.07069344414018087, 4.230186640043832, 0.19394366123339973, -0.9200164395296151, -2.991382271819253, 0.19658797189270522, 1.8566243295702738, 2.3939566492544633, 0.03161214071980061, 0.15294477466543094, 3.322803888973648, 0.030408029856747378, 0.9731796506766047, 0.1718505391582987, 1.1425159116468777, 0.12926401214676272, 0.17398373445681797, 0.21435174123741382, -0.3050860058586407, -0.4495867183860017, 0.18566244889791544, 0.04645266409478695, 0.14444770414695812, 0.19338035614051505, 0.3150676807203964, -0.6799176037653542, -3.246709711652663, 1.4828949884823974, 0.07416080459534484], [-0.11939195947731163, -2.1058782507174545, -1.2978787929748117, 0.3770904290141092, 1.7982184142141708, -3.0037472581756046, -1.3515628380342597, -4.157486754294126, 0.15314652736343418, 0.28421734249480773, 0.5016623743868127, 0.16946137699966998, 0.3283040880803971, -4.400761671781084, 0.2479444229531472, 0.9420391223659276, 0.2272475701020673, 3.224748579202418, 0.3135602798778032, -0.6953364512730862, 0.39156075152883324, 3.4289454271651767, -0.48681535069201837, 0.47379475086184536, -3.444339588100911, 1.2573912780984788, -4.915498864391795, 9.888705920147068, 0.21728350655760512, 0.08557281337164935, -0.7124610969283462, 6.685114780183513, -0.6488841366253781, 0.22938342192179983, 0.002686241684882831, 0.22183835876434416, -1.3555504932822984, 2.6224365042827893, 1.475741705467952, -0.9476441448310442, -1.3883724734171432, 0.2316898908134281, 0.23643347248124624, 5.4170225898931905, 0.15590138654928554, 0.5668201670988083, 0.44238890951388704, 0.7860581239253981, 0.5383267198225523, 0.14047842402817678, -0.7455546406647872, -3.101657533262861, 0.2565066945145051, 0.19004374582469405, 2.335319104291664, -3.4894037921103065, 4.242763710453805, -1.0908980011273053, 0.13195617884119043, 1.0758840493979576, -4.152522885896401, -2.1777716526792124, 0.21097544052382863, -0.9721935218613211, 0.21498466676929584, 1.1761976603365472, -2.3904941470857306, -1.3367676179038146, 0.23396473579110644, -1.3901637949007684, 2.0712534178489466, 1.862356250451225, 0.03584772469755035, 0.23372740750094015, -1.7531417950137953, 0.2384235609916801, -0.0008492442960170568, -2.3324243038446437, 1.3617423727687683, 0.31152988242511237, -4.1533944642007175, -0.14970618539208494, 0.31229013071421363, 3.4452939485226985, -1.1394334670218058, 0.1841020185172941, 0.17154409087737477, 4.477304716699212, 0.3523776212792005, 1.1181100436898435, -2.570385650265902, 0.2126459883435121, 4.791120799122676, 0.3675315473002796, 0.2923422979283072, 5.073377062440607, 0.2284386446706546, -0.36515664560342964, -1.2947396190893188, 0.28010424442504955, 0.1423858544013551, -0.9357863692508123, 0.2882116612337488, -2.1130764228102983, 0.09915107852447462, 0.623084495276658, 0.03218953220068133, -0.05359929951893523, 0.19799770355682936, 0.3110934541680534, 0.7704072765471133, 0.23907309954082695, 0.1967576595420885, 0.2004524704375989, 0.2910719418313213, 0.27624176603256384, 0.5853532660377468, 1.6253980684325398, -2.9751748613253213, 0.18346131406185331], [-1.133005801090532, 0.3713365418199558, 0.17438731537375715, 0.20291381687099946, 0.3183782090680183, 1.958992224201904, 0.20516301344194773, 1.463089590102835, 0.11237656003835993, 0.14677892807010673, -0.18542794079799826, 0.17877776974437468, -0.02386514855042583, 0.5925301690419433, 0.18756802850206647, -0.6118351044285292, 0.06546964368255659, -1.811307848823464, 0.1816465411961601, 3.5477874662726094, 0.6617215720799504, -0.7001022744864513, 2.806541775554976, 0.06047240648820822, -3.1277713388839463, 0.4519186502701057, -0.17452322890413363, 0.6360124938517573, 0.0860533609886346, -0.0965245835455516, -1.985202642267486, -4.33005912056916, -0.6083108596124422, 0.159504923583473, -0.24344716409698736, 0.10886312752400647, 1.1083133106147802, -1.7460628635035311, 0.8177943964048007, 1.4896460851510507, 0.5828118573555109, 0.16819329757241547, 0.5302624436938383, -4.556356906034485, 0.2150569841776751, 0.5534358925154236, 0.09613534494285696, -0.44174554147658895, -0.3973513253461245, 0.38084793344694157, -1.4246392840609374, -1.9710175507077734, 0.20037131210387796, 0.053279920647118305, 1.2933536493434739, -2.7501790532841213, -0.8742448549358105, -0.49849279964954074, 0.19681828333580387, 0.7006592673684053, -2.299937273045543, 0.03869439029164142, 0.20708765955932415, -0.6656431459423973, 0.1824475326016297, 4.632706760725307, -0.649759682949891, -2.292987165099933, 0.22706822340384364, 0.37958157823970845, 3.5870859045478682, 1.414409318379329, 0.0877057968721059, 0.11355446435057627, -0.18335895034175675, 0.12485202382485676, 4.792877501405946, 3.6020680971633046, -2.2988814980794348, 0.11337075011242222, -3.715533050410365, -0.9862568074955228, -0.4861256627731573, 1.2137749310225745, -0.7031632327619894, 0.23738043378921944, 0.10973884535844522, 3.560968299440751, 0.03788604781093291, -6.439831285734828, -1.894364260546063, 0.05597744923885077, 0.9185202437920222, 0.03301127191191296, 0.4549440513818348, 0.9615643303868335, 0.20099913700643218, 1.308722889755237, -4.231548371353099, 0.14709633686035767, 0.12099362058948594, -0.6940297600323019, 0.12437640707548277, 0.28470665250365806, 0.07926951543666895, 1.7143177383585295, -0.13187887515486146, 0.006604318898785288, 0.03990363769104882, -0.06768639474167282, 0.20344669985871747, 0.21084596850214332, -0.011593228382006882, 0.03170701334506181, -0.06776947910082526, 0.08256003698542025, 0.8021536501605316, 2.088283625799855, -2.4362386925855954, 0.24465969537510027], [-0.555125199610989, 0.7315578197350674, 3.5167722345238923, 0.12754330912322126, -0.19712433944456847, 0.8828563376534211, -0.4190287674530395, -4.087244424585675, 0.13524988431644938, 0.16646916144735308, -0.11677429471319115, 0.0855789193009771, 0.16250769505158438, 0.05832768401130238, 0.058766215210524345, 0.6655699116972164, 0.16072206257832777, 1.9884991681530175, 0.11694536466570693, 0.8120130703800192, 1.75636227306162, -1.3998365196936462, 1.9414578787820334, 0.10086957854471312, -6.155415095041883, -1.0786055021478556, 3.216693353113189, -3.9744117731832938, 0.2176251258496911, -0.09382320384902113, -1.8802713636677328, -3.8555475307338942, 1.4423908168619826, 0.17226946719991842, 1.2731120462745584, 0.11524170961985782, 0.9038645375975268, -0.3487535338962436, 1.2455905630317952, 0.1347942960078631, 0.4031663742685373, 0.31283070218458314, 0.3407572353762329, 4.944056838209847, 0.08436738491193299, 0.8017834249099037, 0.14520958209459575, -0.5969085276707968, 0.30245424013806244, 0.39150386207189036, -0.5177743016799581, 0.2700910457651824, 0.1841208131436133, 0.20114754449219466, -0.5434152969153232, -5.817868381495736, -2.514458789824982, 0.9616883405491602, 0.2104092701610742, 0.44704098223099265, -1.2763964292870635, 5.6750543702511, 0.15075123981968389, 1.9329820231456896, 0.16496049977372196, -0.5797057071674615, 0.12690739886944363, -0.41469901092481737, -0.004300579701910844, -1.5774030226977198, -3.0054400668438768, -3.364040104590306, 0.05654367890273845, 0.1796219011789432, 1.0613460845684832, 0.1582453763069016, -1.7811878343080554, -1.2197026655122163, -0.2794540724174585, 0.1104913523846265, -0.6677511485763103, -0.3560929655626748, -0.7724554172097859, -0.1438795521681448, -2.5501627190014897, 0.23454912952782056, 0.2528078242058586, 0.9329075765986232, 0.18332236087609238, -1.5679088098049863, -6.815746595061162, 0.13431558482649877, -4.2399669093895875, 0.14869335882493057, -0.5577058541723277, 1.983983513259548, 0.1524281599694347, 1.0992187885521272, 2.935628749148315, 0.11065332501588455, 0.09176271867399065, 2.840931205974437, 0.03449053532915136, 1.6006918820174734, 0.10313209287014623, -6.035909690223408, 0.1357093037278617, -0.020566323209988524, 0.200602630909911, -0.3136380600870374, -0.07567884247188725, 0.16317657790385615, 0.1510151391807437, 0.03332312501878911, 0.1232059166625229, 0.17834466628078008, 0.027260582069678005, 1.1724440015992008, -2.4848517116463498, 0.12865265221855574], [-0.16851713092006196, -0.33208215471774605, -1.320842128180313, 0.12145150484214084, -0.6796070760024164, 0.9719477806881627, 0.9635326670437705, -0.6471441161892219, 0.14244393357050292, 0.11080385202185616, 0.05290315065158773, 0.006354306205448395, 0.24587918035727635, 1.1624288624946608, 0.08676470349613832, -0.23678974547099296, 0.10847889928269994, 1.3734288749984385, 0.01600627902446923, -1.4130845692025003, 1.3475233837386222, 0.4378237218033696, -0.3560744033889886, 0.08827162177373285, 0.7119410791956962, 0.10807943810036524, -3.8696090451777647, -1.86915685031081, 0.11534848098447979, 0.13071485050995768, -4.983458450214671, -2.1276432676682657, 0.11840658873310439, 0.02047178144260524, 0.17985908942021905, 0.11795995684845033, -0.12447447454892462, 3.979707469234356, 0.5235760460258145, -0.13273634476459797, -1.3300886585801064, 0.13587398242858484, 0.9337125718052306, -3.866882193814626, 0.08965998171694206, -1.217208553230979, 0.1537650830996317, -0.0675701027699134, 0.24558456158733405, 2.592231330083352, 0.31094796183792894, -1.6966089821673687, 0.1629735672950862, 0.11387710480188055, 0.07606969221168593, 0.23630571176082943, -0.08717841083882728, 0.22499971943300415, 0.18668911948927175, 0.09287022753541821, -1.1478021191028718, -0.4095937940989041, -0.029202392033598392, -0.27985922716870293, 0.07014369906468462, -0.40240280794805333, 1.903089416699615, 1.1724055548273598, 0.027565144031470184, 2.0755694481882987, -2.7841014522116256, 2.8669133958535826, 0.12942773650302855, 0.15872068286606753, 1.76246730436763, 0.12950967898596275, 3.487336137134611, 1.5545901760263803, -1.079102231893196, 0.0947799141020901, 3.250981857130595, -0.7298520840664374, -0.6489882122768345, -1.3011392813765275, 0.6854411177113011, 0.20262965937370622, 0.16954466496790999, 0.9625211023298554, 0.2962354269531932, -4.288177768893075, 2.9516503340611693, 0.19098008750703369, 0.18332696938649715, -0.04401004157517155, -0.8506348353487154, 2.8922248976254012, 0.05385626070599861, 2.3465467353644054, -3.48829937753507, 0.009245359572669002, 0.15849166305365342, -1.006061657435051, 0.01687365528029707, 1.0138455397601303, 0.06275282518490084, 0.33037524581736016, -0.04674313380236037, 0.18612115231008208, 0.012102687923982194, -0.0989320394835469, 0.3263798729530041, 0.26303630174989207, 0.08656449419168838, 0.1789769788807155, 0.10779418465255486, 0.22698744416434394, 0.7191193042174796, 1.223664987037509, 0.41358855087040536, 0.08319199249978905], [0.3731399681631702, 0.13069020375771517, 0.6496843567509143, 0.5034830848228657, 0.261616487361757, -1.310394430128737, 0.6759721848054885, 1.296311363645158, 0.46739185401583266, 0.48941869957243406, 0.26138558040918697, 0.34678941768366195, 0.4068787455040478, 0.6531802787742076, 0.37432749429790413, 0.8799514850293549, 0.2545893608756142, 0.24187975403883719, 0.36391338638271165, 0.6855078248081381, 0.9130770762562982, 4.547326459996756, -0.0413249640233967, 0.39777455986658333, -1.1867413705230416, 1.147963026738221, -0.855109311695189, 1.7948853049141444, 0.4604139854000158, 0.3501516141690619, -1.5840350096761102, -2.849729772357073, 2.4879818147954587, 0.4733169724200025, -0.1990750701573003, 0.20405688922076343, 0.6824270295606, -0.34202164802925733, 1.969342843581109, 0.8521627796389699, 1.5946893115401388, 0.394161953070244, 0.40789627287317454, 0.11101039677755611, 0.09871813980067601, -0.026750152069587998, 0.5783283026800768, 0.5526787212855067, 0.41582333476941147, 1.5486712433362626, 0.48478360546509425, 0.5415649453971848, 0.3214659425592637, 0.372380422716928, 1.2000956417870272, 1.1217679560970941, 0.10537609406955198, 0.5503320666685031, 0.488521555972617, 0.958845666187597, -0.3161558312716614, 1.0464225458803027, 0.46582343502098283, 4.385231074148693, 0.23601895996530553, -0.393806138149187, -0.4682956357337742, -2.392143762670848, 0.34093909293671165, 0.24927676198721035, 0.21372838708388162, 0.5376860281032877, 0.45102107032785926, 0.29251310996251273, 1.0167983511258658, 0.5543497182104169, -0.43959944262966466, 0.08478264516444561, 0.2975138460498468, 0.36289740413190386, -2.3564646676392704, 0.23069013384842116, 0.6546227633637747, -1.7989421362846225, 1.4048500744419832, 0.4046166633821668, 0.25951326055376295, 2.5386312043108905, 0.4649059553123776, -0.3010823634865627, -1.1701923785265154, 0.32024684875106374, -2.773813229774502, 0.5565466855000444, -0.16856245117612445, -0.03723417252525461, 0.30960650229221054, 1.1462103417379623, 0.4575572926193787, 0.2693389320277818, 0.3526931727740688, 3.850536370563667, 0.368214015695666, 0.5936806653860741, 0.4881133562743168, 0.30040632525912997, 0.11903162773693549, 0.6138013582037501, 0.4325724212548087, 0.9313123454727646, -0.4771759713841365, 0.1457969908576517, 0.28118482354190294, 0.23543088361972558, 0.4434537879819575, 0.3622238623399095, -1.7533827705940837, 4.362061697726337, -0.050690546796974253, 0.32690836219841357], [0.24387832295822662, -0.4308177136110568, 2.5822324836716994, 0.2786415340818335, 0.3716403882067796, -4.394765796221221, -1.070607127781114, 2.003550775465491, 0.17551257504990977, 0.25067285170874065, 0.12515891902932672, 0.2316624398435657, 0.2580683396235661, -0.09936099519307762, 0.03429956655181453, 0.003140358356194643, -0.02434856038301994, -6.41048363440473, 0.13016083228502387, -1.6012170055546915, -0.6069674518029463, 4.4374466573887625, 0.7967199621119238, 0.11692947946508686, -0.3196969630638372, 0.7471171921593062, 0.4123957717435968, -1.0832266615962336, 0.25769096975383593, 0.1618975816593069, -4.118831520199024, -3.054376735916056, 2.6669002248275393, 0.2259804597959152, 0.5865047680573732, 0.257512953759061, 0.27855076666536865, -1.4882804187335021, 1.5442961251042278, 0.18498411866074935, 0.3284031171634556, 0.1519659584691983, 0.5782555633926953, -5.282123321573587, -0.04873721349871703, -0.10666129279055026, 0.13973627277044467, 0.33841176396643746, -0.1403291227205693, 0.5031900409487212, 0.5614282362389241, 0.9062627512914484, 0.17700496221090625, 0.025015501949356214, 1.1533682437396338, 2.3294512949815465, -0.9758906588699966, -0.5045353209497548, 0.035169810370754555, 0.4527153656109948, 0.8078238291342016, -4.2156852552960675, 0.1308340168751478, 0.48731999240534685, 0.11021792102966721, 0.4638684719119069, 1.0392454554730783, -3.5082343059062326, 0.09220616722299992, -0.6975256385232307, -1.2879133421537814, 0.18278173748304585, 0.15914160623860554, 0.09181777994423897, 1.6835823217471806, 0.24179244036627745, 0.5910066740681134, -0.1915393111538439, 0.39447343551186004, 0.08169669070899581, -2.7153807640972834, 0.03587765727372184, 0.7626061303874632, 0.01059177279382302, 0.17345071952715452, 0.04437412262664834, 0.19497493860587295, -1.583867139156004, 0.2446164392062281, 1.1998488719858806, 5.258631021372688, 0.28727751152253184, -4.318575796183574, 0.1379518205797734, -0.06248781918981989, -3.495262724222333, 0.04342248366237675, 1.303613880881222, 1.999869542425991, 0.15827099165203234, -0.023688195195157125, -0.7717548932228632, 0.1836977628010531, -1.4831916182480793, 0.04307193467521841, -0.6810201227211033, -0.19355930473737362, 0.8484592369961829, 0.2626401490219024, -0.1868266915849041, -0.12317045883996945, 0.24558946563624678, 0.1375711712641872, 0.12556081333287322, 0.2705587623891204, 0.1921214184601193, -0.3977981656344853, -5.5861915787645335, 0.49503816501551556, 0.1431943492360024], [0.41670390619113795, 3.2553379489060443, 0.25408053791066865, -0.07962633157146062, -0.5024896426610395, -1.7613603579517771, 1.5761336655190163, 3.046005989634402, -0.06854747183803524, -0.04616245671623909, 0.03463105107374277, 0.07316142213764278, 0.05495906385556941, -3.0732487934179757, 0.024415787810292782, -0.43947243551764376, 0.09386773978035645, -1.3641625906130963, 0.0878062962562988, -0.49942471333092503, -1.1667702380758602, -0.041925166560509194, -1.2707198809954783, 0.1154304567545148, 0.5454432365591722, -1.5603820014454512, 4.276735881766868, -7.00079973333868, -0.053062058577951654, 0.0010704111513492591, 1.2082122728518976, -2.640040099316001, -0.5241287382042439, -0.030013539093337864, 3.0993411000309137, -0.1495410763651574, -0.9663234958507337, 2.548351171174926, 0.9016815451855762, 0.8363245213214663, -0.9352044747134527, -0.09550314023726351, 1.3629751902086116, -1.7343944264341211, 0.18497770824260545, 2.1148245216684494, 0.0827930394886724, -0.013682917444881924, -0.21907958791569607, -1.0934865926461, 0.26835174297129255, 0.24819723519993306, 0.07758536608734634, 0.04638501593822519, -1.790864845084002, 3.4000932648828615, -3.2602497319058474, 1.1629833689237388, 0.018000183195749923, -0.7732340010561516, 0.7620218381836966, -4.511952457744172, 0.07616538886860695, 2.1731222689492005, -0.034595462147161256, 0.6327057840478149, 0.8619536206491879, 1.3123728927113303, 0.06496452511637378, -1.9400711439932616, -1.778957546509957, 0.5694193364532164, -0.08457402519226286, -0.1473302278134723, -0.33804424457534915, -0.0722380751039078, 1.2146940150441259, -0.6737963621059564, -0.5293805639576834, 0.07895192464516913, -0.9923732340781801, 0.2875145465113458, -0.8921379916445453, -6.518418215364924, 0.8598253784655694, 0.10574252636661696, 0.17483332494295523, -0.5987425085920066, -0.12963249164988433, -2.003435102819147, 2.6788205574987116, -0.09264454685754543, -2.0913708291822664, 0.11410021210277757, 0.5901220963680329, 0.28169004226022204, -0.012964784366794624, 0.7386198583311508, 2.2224351255219283, 0.0231521819663415, 0.10525405819777105, 5.221160825148164, -0.0848174078321587, -3.2172564736673186, -0.11671420749992652, 1.3565735272061963, -0.07073278147603687, 0.30265374427238234, -0.11960791544786104, -1.2470146712651022, 3.4145935550377615, -0.03517911512091825, 0.07023384367848107, -0.04653863268898878, 0.053272749680923055, -0.18577471357085254, 3.741837572881111, -2.045673800251662, -0.8790383166374287, 0.056263278262532294], [-0.46951351884796233, 3.494940168062067, -1.5134230111869214, 0.039488198598295, -0.20854205391530645, -0.6105276113491047, 0.956643321750583, -1.1706626997134124, 0.005813411417487197, -0.1087530257976553, -0.16813155242593783, -0.09552859803798198, -0.03405830114797047, -4.530554716318345, -0.1039491861829493, -0.794990557051454, 0.092599259727146, 0.45449353613582066, 0.08427723084544342, -3.0413538103632547, -1.1344889077223141, -3.8292615181825163, 2.1525866242095466, 0.05666014045697829, 0.905181616046806, -1.391850330375007, 1.8696811968413074, 1.4363368772014637, 0.055555972568513426, 0.014614360027940988, -0.6726888356380822, -1.6720501515722264, 0.20264043022434905, 0.044411213126821336, -0.6706774145726246, 0.0790268388255951, -2.196927329693155, 2.5262065834206284, -0.742361852347825, -0.9636866167792029, 2.158301556114786, 0.0033600303882489447, -0.07829545152417777, 1.9255130697833096, 0.09233171810209392, -0.7411670333502595, 0.002653237850698296, -0.10478105513656341, 0.8710500285306988, 0.32657241796936576, -0.5287872082469373, 1.1470347627019142, 0.015410557427554017, -0.09138614292753218, 0.816810434433354, -6.633415678357697, 1.4958285919413659, 0.11714284596761569, -0.11069821219549093, -0.6500991026039444, -1.203392609232295, -3.723390342028161, -0.08048220688752532, 2.4640393902370152, 0.003191003461289502, 1.3367609650348322, -1.5321315746980846, 0.9121097312871632, 0.027839432214949143, 0.45004223377778313, 6.725245094685102, 1.2021075253482645, 0.11633964703740814, -0.05826461746802934, 1.1389057251223045, -0.06545153159793535, 6.330442074169249, 1.5348180249196712, 2.1577574140200286, 0.09954098465188792, 0.20058008850596137, -0.5762504492142263, 0.01971815497473638, -0.1814908330487484, 1.0817024280496461, -0.061438590122897145, 0.1154114820805045, -3.877514792274341, -0.07200067716421098, -3.2478004223126, -1.6100897750253986, -0.04016308404309031, -0.655294085116438, 0.04030566306678271, -0.268678499976907, -2.6406170294673874, 0.01261357932295897, -1.1267520530322872, -2.8682480155547707, 0.04533811552558412, 0.02093893899619063, 0.2075030708156877, 0.0408920373748638, -3.343547168064684, 0.03698733493313092, -0.5700908938848727, -0.11378933741562433, -0.6231567356734499, -0.0022540214351288754, -0.7663289473256293, -1.3526554794337848, 0.013227112184749576, 0.0557005126670759, 0.041477130654886604, 0.14509224783521982, -0.08657167496163395, 0.08548774929875717, -2.947083348384041, 0.5229171814362726, 0.11207280466913032], [0.30850241279611923, -2.7802861540859727, 0.9640766133650561, -0.05595928383979426, -0.6790387413548207, -0.8744291436738498, -1.7712928815594204, -0.7584141566515862, -0.14695630583478533, -0.07602705403086746, -0.3762642961855103, -0.10564886871305533, -0.09215674714753887, -1.5375685512359203, -0.050453020309030705, -0.019326229062794, -0.08659256242532043, -0.8043209295273636, 0.007076705030360244, -3.5032542062939154, -3.536156104711523, 0.7574391268131999, -0.7412093254420175, -0.0023679614294892567, 2.3577275117478487, 0.6195043213901547, 0.3996469436751638, 4.437142858101688, -0.17169876044394386, -0.12062619424644663, 4.319845628506928, -0.14978085018788642, -0.4004653817714498, -0.10834538491482586, 1.0500788300731023, -0.15239637456741306, -2.047867701931043, 3.7801773589593415, -2.7561508044506753, -1.0595880433621403, 1.0958540197473452, -0.1446444626259169, 0.7616767948262055, 0.20807372911729657, -0.07657470151854026, 2.3205416221869983, -0.04140396317468032, -0.054158258975033326, 0.019433564103364154, 1.2837861505786312, 0.22575275875681222, 1.9754513704371361, -0.09098297257699703, -0.08386368622358813, -0.5814478421260714, 0.945059717445508, 0.0517604439278874, 0.4825150613990615, -0.03708886687423674, -1.1373853141910066, -1.4971537094045428, 2.94853221307613, -0.07574642477286837, 0.28901442403102495, -0.11827867089305932, 3.1421831338985764, -1.3755971402357512, -0.5939494799436872, 0.01835957617595867, 0.24742484519128313, 4.309344852484367, -0.5923880433475002, -0.10076837725246328, -0.06106886401930972, 0.015775828824751634, -0.05655175972278786, 3.3977462583337283, 0.9044847258375446, 0.10810125885532611, -0.05896882046240471, 0.04227343032334889, 0.18801621716013459, -0.9090167271441982, 3.5224556186163327, -1.3486034624520207, -0.06296087614825809, -0.12215838944681623, 0.9124859838107258, -0.12967714270249137, 0.18488552836212765, -2.0577028197119236, -0.04247179530673044, -1.25678129341385, -0.09111717917866466, -1.6600179633602925, 0.2268201868987461, -0.20097666119528895, -2.936288511841314, -1.0111922810712564, -0.0603784609086036, -0.09356430568331549, -1.89851771747403, -0.2263874544136365, -3.587683704228219, -0.06010914710166566, -0.10607711292996123, -0.08892201984361045, -0.2154764523672052, -0.0078119828737103205, -0.08893392058158509, -0.7585977261997947, -0.08472186928525918, -0.08080889021143639, -0.0479451585133487, -0.05000832260504975, 0.0659696432932782, 1.5488890538307507, -0.15634007230724015, -1.8579914074397854, -0.006762458658142459], [-1.0091325118907306, 0.018672833109490056, 0.5460485282083757, -0.012125353658573779, -1.589769226740993, 0.5159875352112299, 0.4274335050068202, -1.856360420772355, 0.08748766676157664, 0.06549661980964405, 0.038230409319172355, -0.022300196808234824, -0.13996132591016616, -0.5440935454775873, 0.07350463564586035, -2.2147157800596773, 0.007941404132945518, 0.6745327785724186, -0.053301078185341695, -2.4455436892145395, 0.38223933102686086, -3.4158394676184587, 1.043079250228829, 0.11478497301752213, -1.2273479190193322, -1.3338623304744932, 0.36701727201564444, -0.366465150968498, 0.054552108042898576, 0.04802607753246815, 3.133467133176863, 2.641135950667698, -1.2564832567408821, -0.004891725926917904, -1.372144166538871, -0.06706671453832756, -0.3429693399009958, 0.2169952906756215, 0.9680561564919834, 1.176365825848813, -0.22065699653601706, 0.05417936034585595, -0.7682456018544273, 2.438475442606026, 0.1603746555836033, -1.0890075786335558, -0.03339271937888768, 0.8277311971264552, -0.3159624994015693, 1.3849000735294539, -1.6615845620336116, 1.6680031095343706, 0.10769957741040043, 0.062281868858738015, 3.520912795239203, -0.2641208698308597, 1.6237896341623814, 1.060959983424103, -0.07292015349203819, -1.1012626813767192, -3.8865744976530414, -0.3977034902079562, 0.09211782652742966, -1.4495880079989696, 0.029674181478604823, 3.212727408103451, -1.3987578871121131, 2.4198946010021443, -0.01649277304566811, -2.675748289705771, -0.2192885440313308, 1.5610061107380948, 0.08549058145214065, 0.0012963239624032114, 0.7243518874055843, 0.10019463226547061, -0.3487824311820099, 1.1982055086272032, 0.4802216460190479, -0.025937213688987663, 1.8147782684007376, -0.9562625925216522, -0.7897626840021454, 2.1383755697369895, -0.7233451234153978, 0.005781501020160395, -0.03995358894926038, 0.4299963786033582, 0.05555187112720192, 2.985828689445829, -0.6976468086681814, -0.056406250634046196, 1.802570848601864, -8.10358431269847e-05, 1.0011966137058381, 2.0737549296659057, 0.04412770132491087, -2.2168743811795815, -2.3748048522296235, -0.004551397034975221, 0.010406025027943628, -0.3120819847775363, 0.03429268006243233, -1.4950586075889853, -0.08614003974774699, 0.784373803424724, -0.006017291926534925, 0.28947892208378156, -0.02998735948230658, 0.4576279785160255, -0.6448374526200877, -0.07492404250738649, 0.042648314662185785, 0.06593436765975974, -0.04455763465106336, 0.03457947802261781, -0.25919403534736885, -4.35324258287048, -1.2505067395293372, -0.10748729908944991], [-1.281280236468597, -3.4165556092668314, 5.0107265595478045, -0.16308051845511246, -2.768203834938424, 3.460351608134555, -3.5908973958819597, 5.853680048250814, 0.06452628341959792, -0.015052685479172828, 0.3007001131589641, -0.11189876545439621, 0.07121510703985208, 0.03343055222437828, 0.009969254465990268, -0.11716006648234344, 0.04063671532316282, 1.390859448536325, 0.015287931852031757, 1.7354138323012855, 5.704577895703204, -3.565434412786889, 0.34443382270365025, 0.07893287988370579, 2.7538680799430586, -1.8970359867282693, -3.144206744052268, 4.814091649220162, -0.008412947305569166, -0.13179876698249024, 2.433604977728873, 5.4558742319870905, -0.6952932543688768, -0.07459167001826895, 1.393702651236776, 0.11616899375723992, 2.186649830584229, -4.7882294770109946, 4.567166365729571, 1.7754088985127168, -3.5185345530843577, -0.0010346608511660983, -2.929925741649397, -0.8715625817799615, -0.24976632238815774, -2.5573197448080425, -0.021686822913051556, 0.7616612651340304, -0.7632509766850049, -0.6461449302454632, 0.943920419638826, 0.10328761012085519, -0.1265222024819471, 0.018386670613690585, -1.3356834339514054, 2.40363415609505, 1.1011272543533421, -2.6747334638091727, 0.040115588299963714, -0.2974579756883273, -2.8938619193509, -9.909900866388652, 0.01620191093351871, -1.9776594788543893, -0.00796352222542484, 4.062704326303066, -3.028688046904808, 2.082979413027873, -0.03087387946280776, -1.0997380663842697, -0.8795211985398128, -0.8230191885899324, 0.10629435727321214, -0.0001498934234452732, -2.733701325576316, 0.03383451456789229, -1.912959115465713, -3.9632892258624466, 1.511454927785222, 0.1311782002701737, -1.6628103086857275, -0.8123654501770713, -0.07464805140500727, -5.9260211802715075, 0.7206361434242956, 0.060740258324161724, -0.05364018747942141, -3.8824737502065636, 0.09297061705071362, 1.8609642258655308, 5.807230905710803, 0.10872632935066277, 1.4826973691568222, 0.001988082730712462, -1.7116842010998934, 3.5771567225073584, 0.0626139682016594, -1.458832397736387, 2.989493117006266, -0.06883860673965618, -0.01967974541258141, -8.10680089698618, 0.048203968093689695, -0.6917416930834533, 0.09629891309175916, 4.063159048828253, 0.09702367633689016, 0.4911258234858939, 0.02486697451734883, -0.49810723700592, -1.2762195093736433, -0.08602182543325337, -0.00913407701813812, -0.016268735738230365, 0.04282013511344213, 0.1255750019557754, -3.12493394954675, -1.007387952794499, 3.937432294785863, 0.0153778985641236], [-0.7148176492838533, -3.167347963613916, -1.1507182316636533, 0.17820123631291335, -0.8089878786675784, 1.3362142227774274, 0.08597417238921287, 2.6317009807837515, 0.165956801651275, 0.0940252044580901, 0.428265643483471, 0.08801977581488295, 0.025581314352033795, 0.5554999703393386, 0.14757114478239716, 1.0467992462490971, 0.10804233738475152, 1.1752059223651188, 0.014283121052874907, 0.33414395376346934, 1.9490587544430484, 1.1650764824947653, 1.3609415220142302, 0.07926132870324604, -1.4402947586837453, 0.44155314556814473, -3.2715444140253775, 1.8190271684433434, 0.12520776467876382, 0.022465634374480785, -2.300927777830859, 6.057172612579155, -0.06175719031797107, 0.07608701669169506, -2.40443295654067, 0.054332016574938656, 0.4684279477161128, -1.3390475182239006, 1.1672295686734133, 0.9308421826344704, -0.47989202531187625, 0.14762454069067105, -4.145656351503744, -3.123977855662652, -0.11441470327274894, -1.103755382154807, 0.16854070784308242, 0.9764508902570513, 0.9391453564200893, 6.472655334440278, 0.4950952224504659, -4.545386640622925, 0.16632617793929713, 0.09818310347007113, 0.4294651309226912, 0.8282091671230847, 2.321253793940992, -1.5591076012133627, 0.14494964408349081, -0.8745356982147505, 1.800240980573878, -5.314913940683583, 0.008070937836603958, -1.467582374391683, 0.11011914373573012, 2.475449003178458, 1.6470192909707657, 3.693197489217817, 0.052673451064486024, 2.2500792992440015, -2.3860819444569485, 0.6538407994501197, -0.04961306858454598, 0.09564846066184428, -1.4916999841857927, 0.21746683349763413, -2.536038805193593, 1.6743828273163368, 0.29643852557098743, 0.14255487861783508, -1.374740189597265, -0.4394049289290143, 0.2911624633409342, -0.7076877960673699, 1.090853193920814, 0.06586530650376271, 0.04194668048302401, -6.235169997501039, 0.06066784377829669, -1.8896722267304185, 1.2254979388691691, 0.14601181693150708, 1.8190065715753965, -0.0026571607459500266, 0.24257762898112012, 0.6299017403842179, 0.07015379399985737, 0.7403973050918388, 4.253256996957817, 0.23056272388876264, 0.016654988427117632, 0.5308356249649724, 0.030322200302425842, 1.673715765923257, 0.12140568255844529, 2.393680475207472, 0.07605976143154161, 0.15490809406118103, 0.0644435664961952, -1.8358596735453339, 0.6972605977259505, 0.05996705496850913, 0.010696973961788498, 0.061131141574464865, 0.18210780687617786, 0.16562705409428655, -1.913754793159672, -2.4429432918328287, -1.3527641955818857, 0.07796244637042817], [-0.5513297814065977, -4.370846754690065, 2.147802082275537, 0.08919626677896722, -0.0037619461252050472, 2.104717306945022, -2.214832072682142, 4.105258478782616, 0.06942440620625971, 0.18246062478781744, 0.2139583597798059, 0.09374741339979432, 0.18791116103441627, 2.0255353178625053, 0.10632958686840674, -1.814290917850637, 0.07131185695419806, 4.25213939136593, 0.04645358316877644, 2.3780677464734206, 1.622547993346702, 1.2194524057981517, 1.2111430770955252, 0.13414669673974083, -0.9090363671865065, 1.0059460288119826, -1.4127153020624543, 4.6282458312335715, 0.03698854954608112, -0.012410493392920401, -0.7482585649979174, 1.1431527971373208, -2.284403854251867, 0.05654108290612572, -1.0398998704653244, 0.02854223596505606, 3.0420367987803854, -4.115696530113596, -0.3910638218313106, 0.4785637813665226, -2.2227069102696113, 0.0694181339560531, 0.1547666643775258, 0.1513696270597546, 0.14345662465189246, 0.2366257067509272, 0.08542951977459413, 0.5571151273728339, -0.14975657852562105, 1.9823889571960063, -0.05324043184061109, -2.3489585990890323, -0.008251881192162197, 0.10370666992320797, 2.6096705658021784, -7.126807107553533, 1.9566366339924355, -0.08767109441332582, -0.0424070064066772, 0.5144857696610732, -1.8056715563142183, -0.5249198378353916, 0.08018611814260611, -0.19519844128432862, 0.008986365149747905, 3.5995445188993904, -1.1416405605901778, -0.18989463139588134, 0.07807986545985342, -0.5818999034875483, 0.6072216161328559, 3.020411152557592, 0.17106836368202352, 0.11403170460312158, -0.25229666493393016, 0.06807008970573646, -0.8772592919604413, -1.5305010240039763, -0.3836992369875582, -0.06678199146151127, -1.880237051079182, -0.33399123690678634, -0.5367836217249029, 5.578767659264407, -1.2719451765457352, 0.12765987797227787, -0.005324851055028633, 3.815388043537734, 0.08154276909550855, 0.9503661726904813, -4.346989191632032, 0.14644684271845612, 2.894716755416999, 0.1273076593814763, 0.37159035963553183, 3.2026520005274026, -0.11080561753349095, 0.003357586933725996, -2.4464665187390753, 0.14556493520827968, 0.17964796902698432, -1.926022317341845, 0.021053021211546105, 0.9852043290771142, -0.03061867667667527, 0.15518821604805938, 0.1739803387184198, -0.5009047769053451, 0.12239961304766184, -0.6113977440157906, 3.331525051619912, 0.10106453055601869, 0.20231191152546388, -0.024354911473584644, -0.05045062835271568, 0.07181569174960584, 1.5937829334868094, -0.4683891167341492, 1.6699039440163006, 0.031152359145167785], [-0.03879118128474889, -0.05324489702210885, -1.5759313897303706, -0.020402026083632754, 0.06599593473582076, -1.064970396289146, -1.4324486572657067, -3.8768913871926127, -0.014755603912393188, -0.0047772059650373865, 0.15876126338562677, -0.11180658368658498, -0.13021806658686003, -2.488266585403213, -0.15958675127773972, -1.8071417173142126, -0.11257898335465236, -0.39173371251225175, -0.0183688271578258, 0.7272444987217346, -0.29111683146831696, 1.7670155774414475, 0.9367875745480599, -0.10347371662506727, -3.212504287174753, -0.32184115550584225, 0.026092727528546335, 2.950383905765313, -0.05153594174448892, -0.10606864110116171, -3.350720080616836, 1.8043052600927805, -0.9582983912077908, -0.154605128379469, 0.034294974885908845, -0.06926213612225786, -0.5187588559192798, -0.10187993221522705, 0.526946832824351, 0.8586453855932024, 0.30148472540025073, -0.17118442637384435, 0.8621615055775831, -1.7426877251341744, -0.11299254279938273, -0.28432952966182995, 0.013421725422113819, -0.12080163278288447, 0.053842455269462956, 3.6406964947008853, -1.7251255472202276, -1.4835143779264803, -0.1617071491594599, 0.048456684042866786, 1.576611717294854, -3.349605666554492, -1.8258590848535634, -0.4212197290545949, 0.05247954370659334, -0.19472435736873314, 1.7162587745142919, -0.6030221691796898, -0.07933314437711643, 2.922078700785278, -0.21705084186551893, 1.5126923137956176, -0.41065530910997816, 1.8687406991500624, -0.28761997473157164, -0.4928131975235349, 2.4756772809608836, 1.0541973821598778, 0.030583359159064977, -0.06171178512068347, -0.9761274831587861, -0.17399329264260016, 0.7578436871614199, 1.6451166390269414, -1.9137185505199454, -0.12687412670312107, -3.805561106545072, -0.2719928229669497, 0.6345809512392537, 0.5963973315910255, -0.7867815809979222, -0.03839295906158811, -0.05508529983096733, 4.261719971580636, 0.05333719496246406, -3.864281861043498, -0.4040156617419273, -0.20152730331514115, 0.6280017454242063, -0.052768086021737035, -0.30603818607702954, 2.025731766521341, -0.1283785748739959, 1.179834828584677, -6.264438402458967, -0.05754161913188822, -0.005118409060303663, -1.6711927198386451, -0.15267215060031325, -1.283167871718865, -0.06694127745714061, -0.16034435778840167, -0.07533843308707361, -0.8842557410878927, -0.15718559073818836, -0.311703439758854, 0.3250013860393832, -0.2746127039362372, -0.1252540930417285, 0.0047242003555833375, -0.02039290097415049, -0.08146489845222724, 1.4187555578147475, 0.4635879218343071, 1.819661269350347, -0.14745836732563591], [0.9894682509116776, -2.809495190411867, -0.4159311078774355, -0.01925518524724409, -0.8290068688102241, -0.7920084027418004, -0.9800366163227324, -3.5675806557462675, -0.018118397659525384, -0.10772474121407616, 0.24225349967727347, 0.012027053842576301, -0.004192774017456227, -3.0840411715836313, -0.12169519912852167, -0.022887816126219623, -0.008001587189570983, -5.691176334741258, 0.013402333501553216, -1.6861449711363798, -0.5692728812796201, 0.4667739213666253, 1.40625170287368, 0.07323268292042798, -5.069953751742812, 0.6277181444762922, 0.7112490420992362, -1.4429125107672292, -0.009587537441315111, -0.11774520482810466, -5.335546980653624, -4.895285943614102, -0.13467100325244288, 0.06035377815534716, -0.8415110821866079, 0.080898788139718, -0.6399455755075313, -0.9567485429948884, 4.04369244906049, 0.5242338083189853, 1.7607605680938625, -0.13839234452991933, 1.3808229894426352, -5.897519513665441, 0.18906314750931585, 0.9381033520688153, 0.08753798525395605, -0.2277914837251276, 1.817409531647524, -1.2193463390174777, -0.9444767223852603, -3.6917084343266673, -0.0718687290376527, 0.022218738340742138, 2.567472157685635, -1.4784904371995933, -2.2725774333880495, 0.1823854486237273, 0.01891757054294708, -0.6009649206365557, 1.1452728162813661, 1.5337465586048786, -0.08293651148611576, 3.553439857714928, 0.13283126821731783, 0.4551480252196248, -3.720080308592242, -0.7463942512395815, 0.0727132845802413, 0.9547411890090238, 4.085757430447902, 0.2717765223485464, 0.034525406514052365, 0.07247401177108821, -0.9019483405839435, -0.11292886069535714, 4.349221619765529, 3.1936317981236138, -0.5991608582822419, 0.018512623537463888, 0.672623258202037, 0.8934975473114469, -0.6312896696720993, -1.7691005544233058, 0.39318564811814755, -0.11201375412805231, -0.003582367024132857, -0.42834261223348874, -0.017812067291543172, 0.10272415798009361, 0.7715806085730471, -0.05508306058053081, 1.1750591826833283, -0.08192745208428245, 0.8992398729944227, -1.6155608710295286, -0.16059623810990997, 0.2735699136391847, -1.472975739241691, 0.04941789958344669, 0.041611875914300406, -0.5716418841708925, -0.07999969474133524, -3.7571201453043255, 0.07574825438197459, 0.3407686522171192, 0.12963539896087461, -0.1095751549589635, -0.059071325682881634, 0.5904964674706771, 2.2107460555388103, 0.08606713053826665, -0.04577604191457013, 0.07003044956006238, -0.07545398848212473, 0.010134583312529642, 2.9483590990037243, 3.4125162564615747, -0.7119598882037323, -0.01783762647959073], [0.6885002217346597, 0.33570598014059083, 1.38989746938031, 0.009936838547392442, 0.33528733652503495, -0.8343647287381488, -0.2913228627514449, 0.7283830234364305, 0.0036979336223884533, 0.14942488127193204, 0.025450319203626982, 0.1631784527826313, 0.2517223498706589, -2.403318302197468, 0.13611580104135096, 0.33441396575946025, 0.04716987187844593, -7.9692036144522485, 0.09568646337325587, -3.2059824341064305, -3.0679817707600865, 1.79034309041327, 0.46777898936746315, 0.2123713784250329, -1.309352970410203, 0.21974667694809044, -1.5622446255361278, -0.661551522366864, 0.11456062242100419, -0.046528767701587176, -6.884785968148097, -4.4677822446155275, 0.3804553863200402, 0.21070164447040857, -0.8564934673203037, 0.032190417939460585, -0.3668523764858889, -2.9842922655769373, -0.3426189905379611, 0.4749347384474524, -0.09861175896731667, 0.13664778894842478, 1.034929611616208, -8.101651195064708, 0.2899882708269843, -0.5852771130355742, -0.05144736909935938, 0.0936602739772592, 0.2088340056986704, -0.7117468211014266, 0.3212025843579063, -1.6223297276600408, 0.06872214048099493, 0.10029440908139763, 0.9936854870000844, -0.2851586480181524, -2.5193713218017755, -0.027848714940801277, -0.061668593187324226, 0.2206817041871744, -0.06562557993141191, 0.5491671431974624, -0.02591011680209755, 2.4100677389706946, 0.04298380135661375, 0.2575389051957234, 1.2129436893259669, -3.4816763203416485, 0.06283151526156432, -2.0876855896817874, -0.20973566507042343, 2.2909022899088654, 0.04042511950419596, 0.18862579649853026, 0.18248360751681664, 0.0202478911806868, 2.127047716868794, -1.1897152167320733, 0.3644628338333487, 0.04573620552255856, -0.5888677603784582, 0.3193878349743611, 0.2785244834038776, 2.589672978663018, 0.031996167161661586, -0.003302221362310569, 0.10965790125962396, -2.1470679651465936, 0.1654319530434022, -0.20000093370236247, 4.053268781615437, 0.09283404347535058, -2.9540979396917892, 0.05569084848367632, 0.13194857266076843, -0.816161423601551, 0.2032054717630582, 0.5419252486663316, -2.6429243245756786, -0.015246923328815573, 0.09085163419652266, -1.8694017386221802, 0.0279128390402101, -3.2111296726055505, 0.16877494421053182, 0.6328996214366277, 0.1411500478343762, 0.7143034061933179, 0.20304173255190452, -0.156136748504883, 0.4613527596578273, 0.1208065222057538, 0.06301615945913465, 0.1217257441885023, 0.09929515995226815, 0.09882222726026887, 2.2986728577237496, -3.8716769518645977, 0.18781818684003265, -0.0006265588989482232], [-0.029483158415025888, -0.8843137069622302, 1.3945987394205137, 0.47694487218135534, 0.18286627981474407, -0.6572440580124099, 1.6979244572730594, -0.34073823826909677, 0.2535964526965665, 0.1975105795446755, 0.036444094236012796, 0.31956193185287635, 0.23268414729165507, -1.6251045723703181, 0.3195447734494218, 0.057292503833806345, 0.30402397039462975, -2.994900784653535, 0.3550873934610459, 0.3055827775296602, 3.479455026962598, 3.826306805121143, -2.0580346249746535, 0.2958212771275925, -1.0824667775799584, 0.7240914322415767, 0.6184129485098667, -0.8029399079941946, 0.2816569091424966, 0.2015368159527688, -5.534830241636608, -1.3785248938566248, 1.728082478337464, 0.3031832209057822, 1.1171660413631244, 0.445042270226224, 0.589143662792594, 0.09690443020136631, 4.342230856821905, 1.062994372954043, 2.73245621618089, 0.48965835177065536, 0.40119677434322654, -2.144348362629769, 0.2849474866352145, -0.028430917235268676, 0.19198797936317882, 0.0036451034202716246, 0.563403153512676, 4.090788202572028, 1.1252696244791727, 4.883058344142952, 0.1798743875563618, 0.36054531661049255, 1.4953133621879537, 0.4829411102592171, -1.0609047157230893, -0.02080477180868903, 0.47036608397120844, 0.636270824005845, 0.430453949283604, -2.6300293063335887, 0.36150337614225075, -0.2810995262800752, 0.3171993315075926, 1.2356670736915942, -1.7577816957069368, -1.6972553418921652, 0.3149569754724957, -1.839848577169444, -0.8302013864766444, -0.2402311355244436, 0.3174212556166281, 0.23823092307222524, 1.0966241863019464, 0.39941972660626174, -1.2330024646481326, 1.4530912706499906, 0.36596426782724695, 0.13033262992400382, -0.09217937019256643, 0.06629696589911477, -0.22232668810081385, -0.004254547746702032, 1.3899530327880962, 0.25772292921707257, 0.3025121245982694, 1.8655217723625854, 0.3654328087179248, 0.9589811612637013, 3.281483659072807, 0.35253993630433295, -1.6458962907458277, 0.19092143357635782, -0.16421822407792813, -1.4008934696839928, 0.20953018793456396, 0.07904990962479681, -0.09369122516803513, 0.21142636762066247, 0.46859409054554174, 6.001943953780778, 0.26697727152195455, -3.2666521039102525, 0.1602256377625171, 0.25756041503068144, 0.19331162225964535, 0.728653911953948, 0.2946293542741249, 0.2190659068798189, -0.370603036394782, 0.34613905186888455, 0.4663671199050435, 0.37158135920580676, 0.2824150785802169, 0.29415954530029925, -0.701877604824635, 1.1414312233316166, 0.6616181691802643, 0.23141785250709865], [-0.07093277546362922, 1.0077191740041869, 3.6821680526392795, -0.009026824061169133, 0.13444064189889843, -0.26201883399757303, -0.4993565866210591, 1.281049761719091, 0.1258089761589222, 0.10367847125157964, 0.10681730154889146, 0.04908839450192714, 0.12398896395737523, 0.042624091181196255, 0.20867580292348184, 0.5230459320587612, 0.020654263599638373, -4.539415427722729, 0.0392724483851855, -0.916931727993695, -1.1261741402888383, -0.8250892727195542, -0.6475545999762745, 0.16923842550426788, 0.25382431115267895, 0.7815541719356488, 0.37032321669781315, 2.648796217616919, -0.04777603716649266, 0.049176057324908526, 0.5766077914560577, -3.95036391062214, 0.9582105450974323, 0.1731200217412026, 0.6597954170018094, 0.09049895651349, 0.8678652742794523, -4.311251020451782, 2.8980568802729905, 0.11544212722345931, -0.016379687352683518, 0.08963582269738031, 0.2509742211224036, 0.59181024455049, -0.1607909812554979, 0.004734848845482682, 0.12139325614162476, 0.08215524073190147, 0.08117365096282111, 1.3359204591061176, 1.5630576197381214, 1.0483105437135118, 0.1206850360570575, 0.019064749461874017, 0.9693089635515901, 4.409500473245477, -2.6340156734666036, -0.7645700593246557, 0.17600392403990217, 0.20496317494858754, 3.4106078973340517, -1.1569145406338546, 0.14096855706531533, 0.7173621994555226, 0.1409336680882139, 0.4200699969442286, -0.47457950018813244, 1.4743949435018748, 0.18869444983966077, -1.226460372559884, -1.476988551632946, 2.3900622729848346, 0.2824587416158288, 0.13139793116090923, 0.5510302314990744, 0.2184724587551743, 0.429042320663226, 1.4766593186114623, 0.04782061922187355, -0.0008183283076297344, -1.310627325793377, 0.01137834056360018, 0.02708363203076108, -1.2455428903629295, 0.4770015520128796, 0.13467063842868995, 0.1472490882119683, -2.2802766450087697, 0.2465817195278725, 0.5635388730274241, 2.1433188884303696, 0.2748479856101595, -2.272224326567649, 0.07164497005271758, 0.22049168675700842, -0.6779925035085627, 0.018580623949746505, 1.2696711453353875, 0.7025511586749843, 0.057895234811523845, 0.08885699977044424, -0.039488853611585537, 0.01362230624425179, -0.2573384171960989, 0.06063341014450701, -0.7881647918873359, 0.09497708083859938, 0.3919783550862316, 0.10156681837674167, 0.05961365600006907, 0.03344097393207876, 0.09824856776325464, 0.1841970319713758, 0.006379212126366963, 0.025479175546660408, 0.11967752685045921, -7.083258568456753, -1.0348755086106953, -0.052707226274670935, 0.07711082236010545], [-0.31928704865524127, 1.3170303672560855, 3.8533092941502156, -0.055074176718778844, -0.7018929579345217, -1.6116121848133445, 0.4281578157422141, -2.511010551786663, -0.06344219417985837, 0.090543697354381, -0.17235336962041345, -0.12533945276311634, -0.08268478407930903, 0.5555980882672606, -0.02184082634775143, -0.5566652917930256, -0.08467611195857608, 1.4537655334398625, -0.07038406646378664, -0.11931525722551793, -1.6600575873285621, 0.44152521326278726, -1.1374110371313575, 0.046390065167889204, 2.5955703126973195, -0.26262179852855316, -0.30843772640837946, -1.9245719486166921, -0.09122588382730241, -0.11467264042128911, -3.5708116187989463, -2.392857378775654, 1.2115064389362593, -0.10894813306187599, 1.3989689353718118, -0.12156364237978244, 1.9570226252065837, -0.2742874141742293, -3.663108852484608, -0.040063365661052376, -0.44874085951330955, -0.13238763463679437, 1.145626638449205, -4.652181744008121, -0.0005721837418162549, 1.173589966630058, 0.008869050275591234, -0.19904702288964884, -0.21558959311820172, 1.1342178959898839, 1.0298371179682653, -1.3441439784846523, -0.12691412938544586, -0.021967834773245203, 1.3449326165095425, -1.947505413505799, 0.991356695976456, 0.07384538178280904, 0.030036782852927168, 0.2740357525247884, -1.2062051839373649, 2.7818459869846426, -0.057853838152997765, -2.946395514331963, 0.0040125331836762465, 1.066621814921011, -1.6332874928983794, -3.0590243113221947, -0.18838960986096587, -0.24136515697963, 3.7684886544942793, -0.22289866167937145, -0.10836753527660313, -0.054107766920206246, 0.532050380571378, -0.14253381285914574, -0.3435400768522754, -0.628882574750923, 0.7342345730370907, -0.09683056477155629, -0.05793764807473149, -0.046734287751627406, -0.2821341966391847, 2.737017429041774, -1.2123231510701424, -0.07509346185661356, -0.04443722354655166, -2.917761778529524, -0.05315176661647361, 0.49774485417903236, 2.8389451405553943, -0.14039180112686997, -1.7380501729466344, -0.05063838506833726, 0.37313182422046504, -3.211637517283764, 0.06861576407319646, 3.951079334991181, -0.9912897000738039, -0.018698606504009722, -0.27914313430310106, -0.13425794741735186, 0.046108495879319616, -2.232633688122414, -0.13762815204092996, -1.0739782935641198, -6.844132256405835e-05, 0.6150321400318949, -0.032954441952472976, 0.14059612842203742, 1.4544833705753486, -0.14166916255347292, -0.08978810673953352, -0.047288166992432726, -0.09998792294773548, 0.0654638616831704, 0.04586514980752728, -2.2631964783192915, 0.45523278833937375, -0.13891936653898349], [-1.1537284006880335, 0.21450795950519522, -0.4154631209720979, -0.09713100912666023, -1.7083764516385744, -0.7069604822450934, 0.06009354884665247, -2.8338505554833677, -0.08975333275495624, -0.14778982332409907, -0.20125715212408854, -0.016812201453086973, 0.10120589331395204, -0.17665893101782995, 0.10728643376149918, -0.91852758576427, -0.23412908943624267, -5.897392553018421, 0.06317558478103985, -1.3837555862289346, -4.059726088155237, -2.3103584707363014, -0.2797091401939085, 0.0783362627224733, 0.5769363695471676, -0.8199869167124708, -1.660047514751058, 2.5711771929466254, -0.1190265538925925, 0.1760719817589324, 2.411885377980541, 1.4431438786059307, 1.0010683368014006, 0.06372620237198152, 1.355711433603575, -0.12377578375848496, -0.1469236614690257, 1.4538066800091194, -1.992237548892301, 0.18776861681022874, 1.063489023015618, -0.04599531697511798, -0.6401959772273578, -1.1769009205408907, -0.08665795810257956, -0.4005236413096107, -0.1136918890122904, 0.7177644955954428, 0.12233872991178436, 1.5332579804924278, -1.3371181138387294, -2.2853726802593908, 0.013721766545596708, -0.024596455854442867, 0.12181816121294603, 1.6679724681857104, 2.022958219733455, 0.7909015177185589, 0.02411616674638355, -0.7857043405471684, -2.629507712422575, -0.7891503329621998, -0.0856365587070017, 5.143264141045415, -0.08028553381380149, -1.714768487656624, -0.9490935744379224, 4.362298331884577, 0.18337590526611913, -2.422218080263848, 3.9997850511233475, -1.5963883851127803, 0.11336236344656896, 0.03721921587077713, 0.2988498617627961, -0.006370981508220999, 2.908394805660019, -0.23419733122027045, -1.040873037152422, -0.04516699273826375, -0.39648317714903836, -0.40287119641065094, 0.6493600300919293, 0.20756873108814272, -0.17169290145915844, 0.0072008850549041626, -0.13938475115097848, 0.8964851625894685, -0.01824585303128111, 1.4523284322430436, -0.4236632825985082, -0.1257808379886299, 0.36157596633851596, -0.05042302870607139, -0.40799969232882977, -2.081247922930309, -0.060790785988927606, -0.8687074556116424, -1.338356793421458, 0.0032974787600937422, -0.13784142517230685, 0.6545919202757745, 0.06663775340710239, 1.1854604964153508, -0.09517739028204898, -0.5391465903500963, -0.022116104837208682, -0.6221570651577043, 0.08470517957004339, 0.6881037379691862, 2.234642135722372, 0.03465980920032782, -0.027048825112101865, 0.021433250287158083, 0.10692305236953747, 0.10337193348322712, 1.789593027440566, -3.348523575104301, 0.1903092369055095, -0.05162641463287063], [-0.024810554216709014, 2.3934996158976016, -2.215517006125318, 0.05847104321622598, 0.4283228384907546, -2.2458966361553796, 1.0585948796133167, 3.148777041409888, 0.053225897889468785, 0.031839632204686184, 0.06593792590196298, 0.06052720588874661, 0.08785042827974864, -2.807657780415426, 0.05351026074251919, -1.9293228442394565, 0.04112525440492523, 5.729994950415638, -0.1726993779633215, 0.3165832966954912, 2.1598454834630694, -3.855377972716953, -2.12081013606071, 0.0229378636475529, -2.1750633588522814, -0.749845290797862, 3.76616311638842, 1.072635896418523, -0.02302445934723679, -0.01708000459237613, 0.9044622299388267, -2.1675553363517674, -0.4702056033361723, -0.12451969066544978, -0.0928221453940389, -0.13221058108273281, -0.8252347955958516, 0.20057903368226504, -1.0207855763211817, -0.24176931384153882, 1.2376120260041952, 0.01784223305941685, 1.477509966570579, -2.1880702476372997, -0.039567517247194275, -0.00510245046662753, 0.0052058568483892296, 0.5712222594102498, 0.7132689079308681, 0.7171166035846153, -1.8973345179318395, -1.4766331722597554, -0.07018508019792127, -0.14142924685648348, -2.716107975984206, -2.2777119942719146, -1.7630881454259184, 2.084512992737354, -0.04065998612095831, 1.3825049967107281, -0.7244639393390572, -2.579897447290674, -0.02078068972850784, 1.2876932293206786, 0.03704673472571409, 0.22660123003191737, 0.5463262633959426, 2.8222291359950438, -0.09627496787772853, -1.6963699266742667, 4.25300882186105, 0.5822796399861766, -0.04795278862334422, -0.0974422679663881, -0.8862533312422485, -0.07741203619739657, 6.121837264424559, 3.445043262842861, -0.0770590551182072, -0.0697704372312594, 2.79459060025795, 0.06109286295391728, -0.007660973356228749, 0.6370770891442888, 0.7390377147944984, -0.038770734467105224, -0.15055632872317593, 1.5984406708153294, -0.07964303051128925, -3.0782838757761652, 1.710869454297607, 0.01693460510910676, -4.704760077681084, 0.04851889935160819, -0.8268806200534362, -0.9752507251437025, -0.059306653719722546, 1.4492272592928424, -3.086244280944699, -0.10861732703073386, -0.037460386952578334, 1.2785922647931844, 0.04228375358272145, -2.1353929082138405, -0.03734926242900328, -2.79554609836897, 0.153106539413661, -0.8835662087218873, -0.00834960187468024, 0.027944657814786635, -1.345409868828528, -0.013142862847932639, 0.0811258727627901, 0.051091166760964285, -0.010353152391289833, -0.08933834414916733, -0.15548534448423626, -1.4360020768344381, 1.125295142544963, -0.15623938767877596], [0.7849076270245697, -2.8660851552570428, 1.2846446924880366, 0.09267662693904122, 0.5014323344006114, 1.7283516563996406, -0.32951955120492293, 2.106560846464549, 0.08732936231953796, 0.11450523227440745, 0.14655158112830477, -0.06611924915806976, 0.040173765485099294, 2.6434988788395084, 0.027885047806644105, -2.330142972883208, 0.0928329395670929, 2.749199216978743, 0.1956421208631813, 0.1379481906199503, 2.446204222407122, -4.219974484939342, 0.44854091946862246, 0.0010702158623953836, 0.6503028002688751, -1.5411600628095938, 1.7772468752818942, 2.12400879735951, 0.025655857822926797, 0.10849748419297853, 0.009784204927753186, 3.4477080907359556, 1.442585669174393, 0.030326093642426957, 0.4116435351414398, 0.07296463149806874, 0.22193541504655454, 1.5558925264046009, -3.9298930664644076, -2.1236642401496613, -2.9763457558901836, 0.06600209494035657, 0.2865238492142733, 2.089982626886874, 0.08513045307672751, -0.19362925021495647, 0.04717507008935464, -0.10183400330241618, -0.5754270521232014, 0.7613484687096308, -1.0921206747495815, 0.5820077374643023, 0.06691629351727824, -0.03705388510680729, -0.2522254714214907, -4.086189623977163, 4.4120526564312454, 1.6379318885161047, 0.13727203688016815, 0.18680602000439392, 1.9135589611791566, -0.7237105085963003, -0.1148439928430433, -3.621100932295817, 0.04408662306139078, -0.0352351805430966, -0.4660746350964169, 2.5912472106460713, -0.008996240870177658, -0.34191509061719955, 1.81168258009644, -2.8491232650261478, 0.023857598941780928, 0.13045421991922565, -0.7752934186691267, 0.08745446674537365, -0.6549660802224532, -0.07910373055903092, -0.1976633467723157, 0.03957130725032592, 1.7030772736522226, 0.3590668976321356, -0.49284328541331623, -1.9147265978875936, -0.07412261759999492, -0.07307335658086475, -0.02187111952135344, 3.4481931036633373, 0.04752872603746848, 3.298656125409507, -1.4032644204965086, -0.019812048058030347, 0.23998710427336548, 0.0558003595746602, -0.6570923544133958, -1.4488546213484648, 0.029234143032798515, -0.2390278762644144, 2.4253158710735057, 0.06311564419034064, -0.056479418009287005, -4.9202627844126265, 0.16251689320832147, -0.9185806378228941, 0.09898309537836374, -2.5151376141907025, 0.2145819028300229, -0.08194333008458088, -0.03694878565336207, -0.8858035026915366, -0.9623940524292731, 0.0033059658529214666, 0.048323451772594214, -0.01694967721625714, -0.05125961338734417, 0.11875681641400646, 1.2258874193447264, -3.302239014272815, 1.7400384007951442, 0.0999424575612352], [-0.7280079665072016, -0.5997506634050758, 1.501156306513998, 0.042228944024109205, -0.9174466364647114, 4.385866114750711, 1.0404942159311719, 2.54002103375202, 0.11019564045110637, 0.07467885295620363, -0.017251403007141206, 0.06840385161442704, 0.11327366605940435, -1.3448049243210218, 0.20000860713991178, -1.0165243399438624, 0.11553665046534495, 0.3768253375973831, 0.1118545459204679, 1.9310115014029652, 2.2044991724786245, -3.9254226186646632, -0.8092171546426946, 0.1775778930360421, 1.0794410702466997, -0.15903302223398796, -2.1796838141192008, 2.5237704769538922, 0.19795051983695686, 0.08491877567379982, 2.2599412765422136, 4.547958098285569, -0.31889735125841917, 0.095605998586248, -1.3252909992447945, 0.039865701225196025, 1.141708502148172, -5.154812763622249, 3.5102626717731895, 1.219531760295601, 0.23821866399592354, 0.12830150574422067, -2.357043548986792, 1.59933799809048, 0.1498925742800813, -2.7337006606048417, 0.09022574133157109, -0.28936766527491753, -0.45464439276301394, 1.2432942530656004, 1.4842932680685137, -0.05120846185899071, 0.12578019576606192, 0.21095071931246415, 1.4450973364370934, -2.806178267218616, 0.8291792794165921, -1.2640019696798532, 0.01938903428239554, 0.134807362124537, -2.5989617321204714, -2.998477647411647, 0.10079605456770056, -1.160256800433994, 0.16280815884901328, 2.82418654869111, -1.6473335810122116, 3.7268763135277343, 0.2689446698991065, -2.813356458230124, 0.06482963954208382, 0.8253728587227661, 0.023216728354709063, 0.08252130187470792, -2.1602197237428555, 0.05133661391432776, 3.2492622313186956, 0.033739411210885674, 0.635819043098869, 0.22683658665538334, 0.1971986112306473, -0.3868273251183577, 0.8918417985072962, 1.1445292814754744, -0.23759665770374538, 0.14899829677944051, -0.02413933583477141, -4.511035106042698, 0.215332840337764, 3.3040296241681455, 0.9646600016977236, 0.10466955527459286, 0.0845954197178585, 0.18384600533043322, -2.2688945162597927, 1.451002277120223, 0.13998962898743822, 0.8112978375795535, 0.40641303986594834, 0.07056281950857456, 0.1504330844873114, -2.986175042268129, 0.06641039099659085, -1.0264664620878434, 0.17852567146981738, 3.733074490146985, 0.17483108902103892, 0.14588734622492963, 0.024292145754827174, -1.4296733267332438, 0.8109105206996989, 0.022978236373956396, 0.12842602061886985, 0.08941759381198588, 0.08123055492085843, 0.12542314123466655, 1.344686692504663, -4.418034832630476, 1.4165635244665278, -0.043003779969834184], [0.9699417571557817, -2.9646789901595376, -2.1752919607719026, -0.02764930918465103, 1.2457191600446853, 4.249073023920832, -1.7964082639592962, 1.9935725811727447, -0.10518170319590904, 0.019463344106553905, -0.08948680244601978, 0.11896560350507603, 0.029402519394223708, 1.5466647833162486, -0.02642924638591782, 1.9849943554394087, 0.02082205999624495, 0.6316493798519897, -0.08390209979341257, -0.19660703622415837, 0.38456993180077753, 2.50951385119522, 0.2753825776052751, 0.0346049965077437, -1.9977985633052788, -0.4418173326192312, -1.9581082863932284, 4.665615362516639, 0.058664960623404525, -0.024300054250960587, -0.8933244649753675, 6.0706749449488555, -0.6874825212076556, 0.04485465081333262, 0.26757601288346333, -0.15031953758701, -0.33692003024968026, 3.9992841166616238, 2.4654567833519576, 2.9651300287455356, 0.007901771244196587, -0.05697908967360468, -0.9081913966539259, 0.5508210423252377, -0.15908241222011882, -1.1448060569326208, 0.10989425286817588, -0.217616407379544, -0.22550645400425687, -3.3400037922492243, 1.8371009803647524, -3.5438081394847254, -0.0016236693371252404, -0.04893835950653926, 2.2183727138758083, 2.9026273989054614, -2.725655842344921, -1.5845746798292408, 0.049631647196394776, -1.4009634882126125, -0.2860788982728792, -4.902902890865867, -0.06895355613250652, -2.476775705510851, 0.056995669991134736, -0.2555547289794516, -1.6475726940166353, 3.6154087864011837, 0.10654507681860838, 2.5866333574934783, -3.8142490280464263, 2.024525494849399, 0.11430076675359711, 0.04561786858182115, -0.4453556892478705, 0.12116012038307243, -1.7734491825329546, 0.36358409602805225, 0.5278288015679343, 0.10310297682507615, 0.26164483101188624, 1.5054810443575735, 0.9435214663475471, 1.3789817935841677, -0.6928319260057538, 0.0037973434902427057, -0.06988088041229873, -2.5250961861377927, 0.15554455774671516, -2.340090740902265, 1.9654936394028482, 0.06360185286938035, 1.9815616359648371, 0.05645350071763573, -0.2525255041392418, 2.355910903914123, -0.015093999151537868, -1.7589332338849748, -1.2114985659853605, 0.02548379635766046, -0.030740726535805483, -6.596465337998813, -0.08248047147271183, 2.5522677017069455, -0.101250618181689, 3.9202426308158738, -0.2056913928297334, 0.2213054632014339, -0.08886238116506387, -0.6188270994995092, 1.378908878511176, -0.04525021075736637, 0.026471156785546544, -0.0014190693231125498, 0.1409805911578366, -0.09235079328523882, -0.16795107064224066, -1.767460825101752, 1.1587524662909912, 0.0619993237557464], [1.8696773994357794, 0.9116570970462472, -2.8242521638945366, 0.05803864344121347, 2.8203040772631374, 4.77054791425133, -4.7898495290484595, -0.5209834177317243, 0.13954414285815822, 0.10166110824401522, 0.053648117094887406, 0.07779036079885386, 0.0419469492406601, 0.3885081144459399, 0.24430230944098466, 1.071492970150146, 0.0913234840818348, 9.126136664898016, -0.00884853602994524, 3.3064184569407002, 1.1645496451891397, 5.660766817413209, 0.6607559546071938, 0.1540906342299717, -4.193742352920232, 1.1145032701261368, -2.903305657777238, 7.44580915373439, 0.13937459230312696, 0.169708316977303, -0.7296618436828106, 1.2726832811186308, -1.4563943153849497, -0.02185264246972575, -2.6011091889763436, 0.15565668016279754, 1.9491331809141317, 3.3257839253359647, -2.619190836470818, 0.30300195131349716, 1.6325189421545288, 0.12339176150252164, 0.5624302629098052, -4.254531263457197, 0.3514203191339149, -0.6768957963382304, 0.14370228050429548, 1.0941641938824072, 1.0301160505821163, -2.825258221111826, -0.08504267472373322, 0.5467824497094974, 0.16882330904130047, 0.13853464238426608, -1.2846181975251483, -4.237720837160688, -0.3751134918072942, -0.34408643506090786, 0.031232630820070783, 1.7175253837010405, 0.006720816731711075, -6.896267091797968, 0.05500093451424149, -1.5795249934061657, 0.05979394586737486, -2.867200264437971, 0.3462275775386895, -3.7894276471364154, 0.14547529356853783, 1.8532371222820114, 1.6219219209490832, 1.7052327545644064, 0.1458622684629504, 0.08039263560569283, -1.108234203468643, 0.08142300298675638, 2.952434257185903, -0.5799359164046047, 0.7070294208441517, 0.04781474659790815, -3.5335183971986903, 1.9339610049793652, 0.14393875705821627, 0.00048703682753619163, 0.6136708724847793, 0.21007129117168963, 0.10057313505754581, 1.2920061495289652, 0.06235518114307302, 0.14113957902491323, -1.4655512485047304, 0.19084295555850803, 1.7563745080549509, 0.1482629015677595, -1.5298594523308522, -0.7696038290107242, 0.14535586483102586, 0.9412957835570225, 4.085225895031537, 0.1473941179842393, 0.21829271007195206, -2.073203341027158, 0.2973340582090695, -1.1825865004407115, 0.2590983596897337, 2.8629844325494713, 0.21400305873982264, -0.3007523439752109, 0.17401321399498218, 0.9004157063080257, 0.6195520869344326, 0.05561661203148278, 0.07411059413748713, 0.109418067140268, 0.10130234863129312, 0.1924572331696097, -2.7076778665239, 2.335913596205673, -1.9879192731987838, 0.024294973443253945], [1.0818263767223737, 0.259342036813147, 2.0908267208179536, 0.07331518807237067, 0.5651591291658794, 3.4684614111514196, -0.9138899888825274, -2.039805753884782, -0.10375311024388499, -0.14448547041583115, 0.17994830027626477, -0.016271291901474663, 0.039663954980204544, 1.000039882021399, -0.11169209635675625, -1.3398205835829464, -0.19591859051023008, -0.047143813849746176, -0.2441514171512171, -0.9987014656268846, -1.3937727595307023, 2.7974772365515808, -1.3335750814518061, -0.10266106535567204, -1.207218295421245, -0.4106853367294, 1.835314194689021, 0.7354773122212181, -0.13644285997334535, -0.08818067596890802, -5.009510881412326, -1.0000182537168418, 0.3210274715978558, -0.015978064824911035, 0.5564023122489461, -0.11676269323987203, 1.3185045075370667, 6.232442007940944, -1.1158365014435663, 1.0070204347004597, 0.33177376632370725, -0.0451392412104161, -1.0369990337766142, -1.1387681292041087, 0.13363153791417742, -0.9417560728357331, -0.17244337220510367, -0.24466736736663655, 0.49291956308388524, -3.473272171042162, -0.44879453852485773, -0.08185277551017525, 0.08847502239267427, -0.05167713192912652, 0.5601112687369136, -2.2578030341544135, -0.11662379648329352, 1.0682816674651527, -0.027170138902697007, -0.5668983145332349, 3.212373927683313, -0.27906393399297075, -0.062168634473288624, -0.5825903984973972, -0.08493815215962353, 2.484365822254927, -1.7333257586597959, -0.9564462413014131, -0.004636473312111351, 5.184661880777704, -0.9382276407954071, 2.4163959659164873, -0.17728634224017173, -0.0784958636293628, -0.08200112407889046, -0.1765451199348395, -2.2570701455240165, 3.024783194075692, 0.6683816925388186, -0.05517426985000636, -0.03868799300621036, 0.9832389243010625, 0.21331533894735405, 2.7928278710064354, 1.2720501280435392, -0.05245258197283994, -0.02233870988744932, -0.02383110152478448, -0.08959381745194768, -0.21567198356940284, -1.6825304585759235, -0.1387607108119984, 0.2720788361171228, -0.07807256310769645, -0.40014820984149563, 3.8920477840345056, -0.10914522340188591, 0.22571383126978595, -1.5954234901793987, -0.06596646396696236, 0.003080752704854559, -0.8709304038460915, -0.12615781193407194, -0.855615734855064, -0.07713183743500436, 1.83539420652517, -0.1000674544000277, -0.7175601788694909, -0.1443628813294662, 0.6561750591351824, -1.2588040158489109, -0.26113503705855806, -0.11078844945549624, -0.1531511081940385, -0.05649468765565068, -0.19692356510700978, -2.405940792253979, 2.1154344737139423, -0.6386398026600215, -0.08599008606520754], [1.1604336506090251, 1.4850571185964383, 1.4336540194015546, 0.08115352289596903, 0.4017173325226642, -0.43337570288920946, -3.399031955330726, -1.071399947992299, -0.036252351446592224, 0.04456799454544085, 0.26791724221643526, 0.13033498994830292, -0.11851087691503544, -0.0807820643109795, 0.0640622840490705, -0.022640146241160036, 0.15637737024198683, 5.279275400097533, 0.03523768222267613, -2.5493812727964364, -1.107591358744944, 2.0180549122933598, 0.2100174383605222, 0.07568954436259012, -0.4141508442438515, -1.302993107235544, -0.26594537398054036, 0.05407453854307029, 0.009766252194459741, -0.08081485570591695, 0.3200285195625785, 0.23633170508893955, -0.5637573279099435, -0.1953922827031656, -0.0805941143546262, -0.09603275261310994, -0.2824392188695681, 5.374605786134382, -0.6710812645796109, -0.33154975516952456, 2.597406837239717, 0.08931277226029706, 1.0969372764171519, -1.7383734127229034, 0.10841685838436349, -0.18412012818723156, 0.10583886081898451, 0.015045950516323845, 1.800264987783555, -2.2035342969948855, -0.20803534508639437, -0.9786432422309722, -0.03780010867349059, 0.07292501688943441, -0.1683367995521655, -4.864181744068319, -1.8181046195018051, 0.361904606001228, 0.05399982051686435, -0.35037518974454573, 2.305069454249932, -1.1407040716824772, 0.04268535324077687, 1.6032350219474842, -0.05364911598340034, -1.7324450835918237, -0.3157609790540967, -2.0076257626854965, 0.008811546583086208, 1.5938914558564268, 2.6684913904544936, 1.8930954272124734, 0.07523941829458637, 0.11081040025809187, -0.12920558500165927, -0.12994670277941633, 4.834833176495802, 2.579243346562308, -0.2561899443195011, 0.11414355362699498, -0.9996648020645958, 0.36128368327923466, 0.27166198866177327, -0.8186125112705497, 0.7369252333693936, 0.03132468351012644, 0.014606179044814325, -1.3593740769045215, 0.07780460572258342, 1.5833089277863701, -0.7684751726740485, 0.09386298361154054, 2.7630570767225056, -0.11118240102484908, -0.3197415459988872, -2.086353815089661, 0.1392052919308186, -0.36865317959306587, -4.897119055481842, -0.011026501345661634, -0.012860562344811552, 3.2783917186978666, 0.03974818683940365, 2.0615328344722528, 0.10974765140110278, -1.0897754429232436, 0.1430033210241843, 0.045519660791433575, 0.11992616649684157, -0.47516940140417285, -1.4072011564169185, 0.03529592177103819, 0.06474878313628235, 0.01655964681291762, 0.0842935064686624, -0.04758832184242334, -1.9357182506917223, -1.645072675481738, 2.200432851701173, 0.03479258713972915], [-0.004121448677367035, 0.5890372292004851, 0.9425298830970381, -0.1115036563920386, -0.061440057333596296, -2.5488126040254024, -0.8048864847907855, -1.201357595435632, 0.13621088059091122, 0.020203999486285776, 0.020375746646890333, 0.13829801208570555, 0.06454274296673491, 2.147511868122502, 0.01582899779496143, -0.8164185688472002, 0.035666626359763476, -2.5740095084259162, 0.09228990261841574, 0.4487536273795986, 1.4431998504926524, 1.7120486099930405, -0.10924855977171351, 0.0781260377869595, -0.7249045896646493, 0.7730790493709151, -0.623038367189585, -3.9663751012587207, -0.16015763668445823, -0.10606949107983721, -3.175972604660994, -2.8094979608873634, 1.8337120817554493, -0.12444663086331867, -1.8389052166743214, -0.07611668673364895, -0.14761081058416345, 1.371779967090157, -0.017738309934040748, 0.26162379369789307, -0.4772462309236072, 0.02524775697078192, 0.5744374064370432, -0.2549697976366792, 0.1973234914139555, 2.5867204208165973, -0.0474662535452929, 0.13241623497560598, 0.0970946417137905, -0.4991827118290133, -0.33463398904098907, -0.946517474555678, 0.04974663919539663, -0.007827213721591135, 1.8856983925740445, 3.154195514877104, 0.15763174633393856, 0.9122335348264331, -0.019952427412610666, -0.11941593428968018, 0.5480219185783693, -4.236856482292206, 0.04639870698973748, 1.6316993160024629, 0.1819015096885414, -1.4422438425346427, -2.0412393236605215, -2.629482163601903, -0.018435325096735396, 0.7983406320903106, 2.2599571722467435, -2.6565054560530847, -0.06186897893018365, 0.05030528112349461, 0.20978155596811032, -0.12309566437720328, -1.0910821534410908, 0.6494820950694902, 0.36121194632090464, -0.03182108212006591, 1.8174094533463925, 0.040951428492403165, -0.67267043496408, -0.06913182538726075, -0.06588897293698501, 0.04151904353526303, 0.0022075187079957383, -2.4852390894084326, -0.10418333143533386, 1.5274670647272068, 1.1051297903708426, 0.11709496453578695, 0.5689762912808954, -0.10316863931237738, 0.05062260728390091, -1.1543502318185592, 0.046726027322405495, 1.3440096701117272, 1.7155450519534665, 0.20370639507212945, -0.025692802002154107, 5.298464815523419, 0.13907536356161593, -1.831671746862212, -0.0001793902799724895, 1.056685868421247, 0.21289199053368582, 0.939814175257713, -0.000260187891439536, 0.733438827133282, -1.1550775517571716, -0.02881567306611146, 0.11154990259445408, 0.012444302777657549, 0.08663233162120168, 0.06171830751043905, -2.309088090146111, -2.3595986301485183, 0.26109410589832155, 0.05754771956062862], [0.3178874822615302, -0.6475573543495514, -0.4643296121428424, 0.2832687744416493, 0.1327877014263102, -0.8851832332962517, 1.3820179246945021, -0.5197844101438968, 0.36785639746472126, 0.35479562852101393, 0.2714308564107269, 0.25199777314191774, 0.2963085188811248, 0.5118573019512822, 0.3804680591423145, 1.394026594386513, 0.25844691883103904, -1.7323378004604606, 0.3202449952276859, 0.8443044474484167, -0.05636517491637281, 0.1691321616759127, 0.9267168864922842, 0.3923490753985685, -1.0231846968883838, 1.1429082930475973, 1.9742988459492563, 0.21305755758276493, 0.37054912528813094, 0.29342834239341226, -1.8660707363249114, -0.08603949785156774, 1.1882889258202374, 0.44074296819868974, 1.2469948521220313, 0.3414617841699322, 1.300270589948487, 0.8957975811708957, 2.029916040367963, 0.3851529224662854, 2.0182807103505804, 0.26711384385729786, 0.5082043024424053, 0.5297278042726246, 0.3462444171334843, 0.17441893178886742, 0.4022068295165849, 0.6525096303747524, 0.35135516017265234, 0.47029202582170393, 0.4048808740440303, 0.43910156554217317, 0.43745638344758714, 0.4109417959641995, 1.8861907688317006, 0.8902572463206098, 0.3770868048969305, 0.1297023865477357, 0.4176481685647378, 0.7083924596085764, 1.3831255868919008, -0.7483438853694453, 0.41623796204545266, 1.202722795748821, 0.2157923943774896, 1.6922423957913086, -0.3929439098585962, 0.6298379877314272, 0.3899019877228106, 0.01116672703401835, 0.22737150954759536, -0.13103807284682126, 0.37626684063465493, 0.3790654329622502, 0.6724677324718509, 0.18338366811601975, 1.172453069907201, 0.49024117696427005, 0.7611826700069027, 0.29274058315978113, -0.6966993387971532, 0.19462520855271345, -0.028203446393218846, 0.31018465095746306, 1.6515753699882965, 0.34643714308439444, 0.30442153746005945, 1.5899307185413372, 0.31863711149691626, -0.04126559026660213, 1.1036104517740781, 0.38618667384673383, 1.3867458804100765, 0.6121936937829877, 0.5899405369193822, 0.5938443756263779, 0.315636840205453, -0.2515604238250225, 0.5743007193564958, 0.4656519293639533, 0.4186437299688896, 2.948707037980915, 0.37464453431332184, 0.8998452135445115, 0.34315792936097583, 0.921975715553388, 0.3777743072155986, 0.5394418696490383, 0.41486218196828134, 0.7820557270578304, -1.322846737023183, 0.4714844425443487, 0.2280245943433872, 0.41891683672251373, 0.37221002319812274, 0.34364826728709313, -0.22228340667461918, 1.2282278939922904, 0.461583523720252, 0.42725258461019866], [-0.07734930179760931, -0.4748020411938625, 3.4093655747335028, 0.12210471872616707, -0.11683708745175107, -1.79152362692637, -0.7973307555990026, 1.4837995265839192, 0.2371783640906391, 0.05776324311575371, -0.0626885512137349, 0.29583415940142305, 0.295372110869738, 0.3197231556098967, 0.1349399620140496, 1.479601812435217, 0.08364868970444891, -2.5107259327695943, 0.14765577460591792, 0.3391360296166422, 0.6980559352617196, 1.0740161262068553, 1.0329964650397732, 0.25207648691684087, -0.40384882563652447, -0.2863928163312589, 0.5032752480227851, 1.2102483205476204, 0.2248555480000711, 0.15283965787657927, -5.195601986113904, -0.03314923692045122, 1.6702124689934812, 0.12332264364528646, 1.212420336028994, 0.18909612019436295, 1.0921247794606852, -1.7388105919291443, 2.045134660641453, 1.0992537546148546, 0.1503795779312095, 0.2083724588749879, 0.06768717336175353, -0.02101312129530756, -0.1448285887766504, -0.23278211540046803, 0.16060098944588205, 0.3128314576205453, 0.07736153842911014, 0.2446243367489053, 0.6098312620734195, 0.5166002853014974, 0.13490813615693056, 0.08563753056671354, 1.3044042645872596, 0.8181846623112976, -0.6108218966681652, -0.39932995793701076, 0.13522597390963026, 0.6314238085491928, 1.1976621418618152, -2.209554782124926, 0.09569207960135313, 0.5764471575150387, 0.132584292122505, 1.128137076324131, -0.9911543496277706, 1.8148799193257246, 0.14615560200362004, 1.411889781828766, -1.7537754803027799, -0.8446018020592515, 0.007105181701466683, 0.17187410964174624, 0.3641639652680328, 0.2587901213185112, 0.9160995539336155, 0.218621342393413, 0.9232487872965911, 0.12508025311945645, -0.4191116816571018, 0.035045567016405314, 0.5951290802608544, 0.28717791383606217, 0.843763164055054, 0.16771317930075583, 0.07424956035160207, -1.7936260925174647, 0.03328518749626752, 1.123509340535783, -2.677449339547954, 0.14781143686433942, -1.0651604429097532, 0.21746705896753926, 0.026266808142992114, -2.7058398867112894, -0.016016625359541774, 0.1582854670684074, -0.054191209018262736, 0.12308188672331137, 0.2040691182294994, 0.6023699216529678, 0.1514227252606482, 0.7307698724086006, 0.28230812566960245, 0.2848854282233788, -0.008959928643343166, 0.8786996262929329, 0.12874050633696857, 0.16328645678122936, 1.7856414699506569, 0.03146934799210847, 0.04134900236255924, 0.21139670453092801, 0.12336415643398099, 0.1860839022599163, -0.7057745935659173, -0.5140049942740321, 0.6192064747470254, 0.13609902790886216], [0.21325579150561622, -0.37875057706173587, 1.3586894137074503, -0.02645777252316307, -0.539665932912974, -1.0545079738153473, 1.3457953215716794, -1.7998577073005946, -0.08693997280358944, -0.02816977180028047, -0.07004471201373028, -0.001297242715125667, -0.056794723558566726, 0.18370324196951635, 0.05328493550985855, -0.3451384216154719, -0.06490221928571677, 0.08779240070473791, 0.005259839490303117, -1.256032288692265, 0.6468857282880752, 2.2160316930358563, -2.143042760682139, -0.0001818245294192052, 0.6127346672532941, -0.19960294932775466, -0.8300770982979623, 0.9883938955124161, 0.005711279659474334, 0.009020419490162983, 0.014245989216031806, 0.26251714734962617, 0.03969554840683145, 0.04933854670440342, 1.1610518800539344, -0.06893590900585923, -0.24754211285215483, -3.484164549167568, 1.7356013859813306, -1.38395042610483, -1.5329582273739346, -0.03070354616842048, 0.11483702965025858, 2.8461873470016066, 0.4018800200510356, 0.6938416593803992, 0.0014380776435712565, -0.17360484151341773, 0.29197228931800634, -0.6938228083492857, 0.8374461971705324, -1.197450638663104, -0.043396802943483866, 0.19404216453610554, 0.5767537856916742, -0.8569591010248157, 2.5867584925309743, 0.11147696062363628, 0.008023904735397432, 0.06032469909347638, -1.7946591177012337, -2.5667570528519534, -0.08903217962464464, -2.5120940143503296, -0.05042131244883436, 0.8524821446580454, -0.026888311940133403, -1.297142422582317, -0.07727653177663758, 0.1752345135395014, 0.49801284372837706, -0.17574220313461028, -0.03631560475681128, 0.03697814590930386, 0.3051435313681187, -0.2640882161803603, -2.1621993684939502, 0.4192348689310867, 0.1406232000332998, -0.036589412790540114, -0.3863122902076549, -0.02326633228730389, -0.29342589577242684, 2.6912275692643948, -1.421128822784097, 0.04045989668643219, 0.044862376467215526, 3.332534977800253, 0.053185968952551524, 0.6845255374653795, 0.903120365774741, 0.11747118835328911, -0.9470115369126516, -0.02075414312523796, -0.6815323114178138, -0.9507458114514374, 0.03135158757636603, 1.5683097168660511, 0.1445401033442849, -0.12947944545253837, 0.06955532068104119, -4.767986052662943, -0.09640935956257456, 0.22832443738381578, 0.0026820381434865845, -2.110964185306926, 0.008667374021607627, 0.41970106518981976, -0.14146467267601567, -0.4362604765484705, 1.845934075777982, 0.12916131939176886, -0.06787998674795215, 0.021109579348556368, 0.01512498108294102, 0.10315103090255356, 0.9228394646869381, -0.0768867569792306, -0.5377669738941258, 0.15559403849135547], [1.4358910580277073, -0.6906431314510586, 1.3581252787531286, -0.05513628088068259, 1.2600075124705432, 0.2581515820948347, -0.8683101611050836, 0.056874862439844596, 0.2600568716151426, 0.054915905645935924, -0.07918997537787109, 0.07165181415471712, 0.08126661055921965, -2.2021086698875316, 0.10104637563084323, -0.2390765484878583, 0.20730071926613863, 4.0950373910301785, 0.05810956402807083, 0.49440533135240944, -2.2581909276374583, -3.7980409658015875, 3.0001529338987103, 0.19103021031099254, -3.442847282093395, -0.8391348356935139, 3.7045119376464126, -2.8351130083766165, 0.05779849525543185, 0.12872765856764434, -1.8079309889486943, -0.5788794062518678, -0.3365327843719767, -0.054611807340402885, -0.09018882125598436, 0.15408763841890494, -0.17667405408858453, -3.3982239717220892, -2.556374652698078, -1.8027960529825062, -0.6111022100973657, 0.053614068913933, 1.2174116724911537, 1.7150346961643288, 0.29748402541535723, 2.1357444935161762, 0.07545940268592659, -0.03088269658492353, 0.8453023113648372, 1.3457901109582806, -0.5819984103237874, -1.785248104823776, 0.09259000726326377, 0.19585773894192218, -0.5783461880758671, 3.1584120081780798, 0.9415107663921977, 0.4723945043668456, 0.07687525354817533, -1.778805448996445, 3.295722199230824, 4.324173120864758, 0.1626691728923841, -2.5973992499810614, 0.19822847852297526, 2.3108933710328468, -3.3260563923915587, 1.6676410205191814, 0.2148484266059894, 1.517981735565997, 1.8484752057213858, -0.22752676469879998, 0.13199463497685401, 0.12801587123949623, -1.795107924847697, 0.04034094165293838, -0.8927383076671688, 2.3508468319048847, -0.3019350306178939, 0.05556320592470403, 0.40745376507915265, 0.9363650603253163, 0.18478890493150907, 0.4357810617870115, 0.42257705303651355, 0.16030341927449596, 0.09473481227193067, -1.030147920870501, 0.14365252486631247, -4.518780846246893, -1.0315904440650885, 0.07855297508195082, -2.3259916487225043, 0.10458135468927263, -0.39444444737003753, -2.6239632160731006, 0.1745983040974982, 0.0847182811423716, -1.8727274712424995, -0.03564079197219478, 0.12934341160661, -0.78195351734109, -0.04939657381927183, -2.1090385978106982, 0.04523303773767202, -3.0389560023484035, 0.16172435995124354, -0.7418711615442427, 0.1899489954929746, 0.5294612815319123, -0.02634261214358763, 0.078382821248595, 0.1298576561808961, 0.11684164737439415, 0.05548157422756909, 0.13485091081848485, 8.751664280350665, 0.04299206667341846, -2.177052228454019, -0.0013445003249264438], [0.807319347286955, -2.4100120529141664, 0.9002841353702211, 0.11710074862537159, 0.802124224312301, 5.18506001828309, 1.0023551931730927, 2.8565461854403287, 0.19191140959846895, -0.05401872225317699, 0.26217652902690974, 0.1405622390796951, 0.030089198089754927, 1.1384401194159945, 0.09735005627524843, -1.665067763326038, 0.06509412509663731, 5.905668088242089, 0.11312409336555979, 1.245613625483958, 2.493309175433785, -2.9658140357034117, -0.0668553620165057, 0.003154303814209139, 0.5835137045385144, -0.8028318709685308, 2.429348769779835, -1.946318264434876, 0.08197392673240768, -0.06591847705676332, -0.7966061442228616, 3.339099749472854, -0.13837953613575107, 0.08991560636009376, -0.6896458572936099, 0.2456211167267927, 1.6371055855297054, -0.37819362906525217, -6.168655832957727, -3.1182154824578796, -2.3594521874289436, 0.09304550645405406, 0.7791106336615703, -0.890378126184658, 0.34854932020124774, 0.1574594022793993, 0.05546900823379725, 0.024716556572202408, 0.5170379841823404, 0.9975319791027946, -1.822813589228037, -2.281153910474626, 0.12737825365361885, 0.02409838960106192, -0.6947927387815587, -0.6054262467192886, 2.6150533376033445, 1.3050240598138863, 0.14582638512817891, -0.9646831404352272, -1.9410059705813338, 1.4522058934345496, 0.1307970162109248, -2.9774910136151322, -0.01608506276824835, 2.510677531878827, -2.5663187448668845, -0.7242253384112741, 0.059857219708190676, 1.9306878904991003, 0.2754698701921981, 0.23475713659777317, -0.026783738877754256, -0.025725429142732147, -1.2905006940936532, 0.10858251185506966, 0.8411192513404643, -0.29974068700510775, -0.05618951600138209, 0.2261574794051414, -0.8435475490459379, 1.2589137245307376, 0.24976654237811588, 4.384037873061366, 0.5102075525877833, 0.2883199923385858, 0.12815989946720208, 3.3164873580764764, 0.13821272034818965, 3.7359070666002463, -1.4546675769656001, 0.3353785842227, -1.5643442251397623, 0.32321999479817176, -0.9909393697268775, 0.38909524563290004, -0.030401258390920862, 1.7161026345630614, -3.872990721776653, 0.05447344267840786, 0.09964312369277468, -0.030492758681688516, -0.09699076384933931, -2.8328025232835756, 0.062332720373029775, -3.194667784096476, 0.08737909723568621, -0.9694188722926796, 0.14821504622862644, -1.4644659364843071, -0.2900011272435657, 0.09421851317569563, 0.07222453666621623, 0.023152602837335792, 0.010344917040848308, 0.14881399580588764, 0.525142708953353, -3.2462086793122005, 0.6951110199981982, -0.06742521757759924], [0.1401939493744699, 3.4921593659330394, -0.2827271066988547, 0.10612219200240061, 0.20066347021186887, -5.771568287047825, -1.0451443364143507, 2.820757190095046, -0.0016503568550404453, -0.0007283879520580474, 0.1816742890486102, 0.07683328761348011, 0.10618055166580849, -2.1477195400795055, -0.07868370002770023, -1.5383685803896756, -0.07562302831158449, 6.616635674957712, 0.024175180076271896, 