{"hidden_layer1": {"weights": [[-0.7515903311103086, -0.77667570670521, -0.6259371882640685, -0.8089536863997844, -2.4825495073211075, -1.1389974752272007, -0.6800015804468594, -0.9743362379887648, 1.0675928216028832, -0.34578474011902666, -0.7127101782430318, -0.7775661560274608, -0.47023466776486206, -1.160494265283982, -1.151424134598573, -2.159495127938055, -0.6494088408021488, 0.2991113511141471, -0.2554983726604184, -0.7582414718374417, 1.0553220510558392, -0.2672217447706944, 0.8508542202160801, 1.8911367925573972, -0.8767259502371578, -0.97379987079488, -0.6104699771172079, 1.1577657102846328, 0.3851503693433, -1.9098570269803228, 0.3141609733194675, -0.9285953667032326, 0.18895728712309232, -0.12748988149235044, 1.8256253973076912, -0.6654157012979297, 1.2210377106413128, 0.19419409684851202, -0.39220162250293406, 1.6184121673641803, -0.7218852729310403, 0.05571126375657194, -0.9709694649436914, 0.16194007042942762, -1.6831197752387175, 0.3016862235862421, 1.586182337476366, -1.4350607894884153, 0.7454587484010161, 1.0761620034453245, -0.622567535418124, -0.01216583937764081, 0.09347193438975884, -0.137657679071998, -0.5396417494786564, 0.18446481273570947, -0.38879484246531953, 1.4855749674445848, 1.39778769034313, -2.007217459096325, 0.13240390476320849, 1.9707856917904145, 1.2195199106470986, -1.2496246584468815, 1.2977169968482438, 1.562544594774286, -0.6035841965250026, 1.0210272307315615, -1.2151719656729911, -0.5579861759083242, -0.9084097900531442, -2.1497535152123537, 0.3138049604037569, 0.5311914074920516, -0.3318215037720987, 2.0919686159783693, 0.4169385571533798, 0.6149906636905063, -1.234208951281643, -0.2008052709225661], [-0.7500869558866635, -0.31235805201225986, 0.7468250247646135, -1.5609199426833418, 0.5905688924437755, -0.019937504426333862, -0.8883532903005597, -0.1435956585079441, -0.0007690622764543699, 0.013768462492013253, 1.2678557743181667, -0.4970868630336138, 0.5582061917603605, -0.680274697865851, -1.477011584268009, -1.9487106772017024, -3.9066691746224014, 1.1449886895615795, -0.8372310071290427, -1.6944552939851265, -1.0252710390291941, 0.8414120667081847, -0.9026024551076636, 4.681970600220932, -0.4290488931952735, 0.8020839501294361, 0.3593463832581303, -0.549529904215793, -0.9619391201192218, -0.9983098205609681, -1.496345602166142, -2.501819733323614, -0.009897959843392728, -0.7236355529226287, -1.0857396080787511, -0.8746147421034259, -0.9486566889606699, 1.0206206761579506, 2.1094957146353632, 0.9477981000233503, 0.8558022418791522, 1.0555462008432661, -2.051848496764097, -0.23487479122465452, -0.7962765005010357, 0.08393917723884221, 1.027192013872721, -1.1801087593668822, 1.3511473045380265, 0.6129169589558321, 1.4423460609649508, -0.3091742896211056, 0.8782503526459514, 1.2061775568009288, 0.8379660819090969, 0.46448739018437224, 1.6615174314840242, -0.22469060952243414, -2.799919639732313, 0.6440781445258701, -0.2617290512150054, -0.48795265658077397, 0.06602245728168837, 0.44626222143156935, 0.22013281724346914, -0.29267584116245604, 1.8660596834893093, 0.42341088570839913, -1.3442938946412464, 0.23712201439812877, 0.04661064314362619, -0.7711358433889808, 0.2818508256282822, 1.5600488426390555, -1.7627394988123921, -0.34048888507147046, -0.6166720286793679, -1.8260970168512873, 0.32315255711931246, 2.9799021494038085], [1.082006204359888, -1.417651890807955, -1.9668918605918062, 2.377861319702423, 0.34243340883532, -0.8525945091013329, -0.23990810038622334, -2.4546787129964898, -0.2259485638743741, -0.5637000798506432, 0.2811029777896858, -1.1865895506137376, 0.33865694071215563, 0.32506313281680443, -0.7355357982967676, -1.9578134747983769, -1.5932278489399119, -0.6188318253172759, -2.2258951133933413, -0.260316369737017, -0.4877711148597003, 0.28580483508820087, 0.5746934362957138, 1.648332748369289, -1.0336760460657008, 0.28841606797407066, -0.3503088690328776, -0.026281015024720633, 0.5939960922756229, -3.905842975304448, -1.0292974219690483, 0.41456411204902327, -0.12424168090266727, -0.2937738497771205, -0.04873667994938173, 0.20094342274888144, -0.7850197180645307, 0.48384500136046016, 1.3848657363035637, -0.8038983588789702, -3.331824239904164, 0.5521070525307722, 1.1492188734350512, -0.268740074135516, -0.5093646673294338, -2.4220707396454437, 0.8956663867280771, 1.0925066382675637, 1.3385647494031607, 2.287339895858366, -0.656173764974641, 2.6431716966479164, -1.6805404428413755, -0.5135233046115313, -1.1922824438232154, -0.4979206535220178, 0.31774237915603604, 0.452518115559169, -0.8682483413910065, 2.1523256293378705, -0.706513766133451, -0.6062056604500643, 1.4358489669834094, 0.12840985375520564, -0.2529143714333593, 0.44070727740479676, 1.4990157416899488, -2.400638777814427, -1.381217447240361, -0.3076250249242113, 1.1636083363778484, 0.5992858773251781, -1.3222352081044246, -0.004510637585835527, -0.02621214283516252, 0.1814869786050196, -1.656531712482824, 0.8857542805179037, 2.5287384841574525, 2.226473633550002], [0.49997467970145704, -1.3952187865647063, -1.2738349273433054, 0.8546218271223442, -0.17958380833908388, 0.11802710502680494, -0.5861647489322893, -1.4163177590929563, -0.6538373236780888, 0.058433013901438416, -2.2986650159306103, 0.1277547122787725, 0.6043716997338195, 0.5022987782474654, 1.747749895946576, -1.0100055749538728, -1.2810381794025902, 2.745370577187471, 0.6302998655505825, 1.6663835414977028, -0.10347964593493196, 0.7977179154730151, 0.9733935677552068, 0.6029364682198888, 2.9496646153645614, -0.8028660523471034, -1.3643000773277891, -0.9421716435562807, 1.0766747407729012, -0.47937041925671436, -1.234574959203269, 0.05771893804441339, 2.039712673142547, 4.520874122490196, -0.262034571727865, 3.361483821452897, 0.8985285439132201, -0.4666024284279352, -0.515142655868239, 1.6038296460273556, -2.548495990723066, 1.3189459447264014, -1.3002301843967068, -0.4007162813994793, -0.815402691562515, -1.2929006483482883, -0.0726970636051151, -0.23077715430801987, 1.1571887419996205, -0.5390234940167591, -1.0775534384869776, 0.5444190732454807, -1.059847458162624, -1.4228402667263764, 0.22100718256937732, 1.56647733160672, -0.4925201867081498, -0.8529729225678748, -2.9118036697964187, -1.3279290055443942, -1.7697172300024504, 1.4587047611504969, 3.5240339810930816, -1.2674687377828142, -1.1306962956977449, -0.5984159305171437, 2.2151125668890344, -0.4329137398919314, -0.05083016078755632, -0.1341789549820996, -0.033970244537047854, 1.141971053328532, 0.26107606276708967, 0.5198736536209405, -0.08876598176066598, 0.8346440742519328, 1.7623102753518176, 0.6337308217404749, 1.6541692813611246, 0.8023446366176383], [1.6713383810617222, -2.133758578550938, -0.1120898444833626, 0.8337797572376227, 0.04690076924830436, 0.16478671889885843, -0.47641961055936677, 0.37089226379362306, -0.18955004763064395, -0.40763993946606397, -1.627152031275105, -1.6723204528335789, 2.4242483942898025, 1.6321822087209987, 1.7845061113857759, -1.3387312091053785, 1.0197713570013294, -1.050677361465894, 0.6631297407214347, -1.4470264342405734, -0.2201578155026981, -1.6087101835107687, -0.06687477732165159, 0.1954402214322903, -0.8268593589100335, 1.002498628640895, 0.5010945712817071, 1.113277126849373, 0.7571153584131762, 3.578535399738271, 1.4614482622412912, 0.49684858175487523, 2.0847985391277546, 2.831580512361363, -0.2992264829639945, 3.966835437524558, 1.010626938691484, -1.884239319811746, -0.6211972669299768, 1.157368168390749, -1.065793555587395, 0.5081325968192246, 1.7714562264476919, 1.2402218365997015, -0.09381245589859846, -0.8944930827453487, -1.2704104631078255, 0.3845925074185285, 1.5169788735198688, -0.39023519147612057, 1.0025862074207554, -0.42929825018826606, -0.7717497569878454, 0.32758405607947405, 1.1354820310667153, 2.1946633121598755, 0.08237813580267395, 1.8370714760682756, 0.36728230482152613, -0.43410863822527473, -1.4566165480227653, -0.2085498458890088, 0.44923637106375647, -1.2742675645060857, 1.0250657133034562, 0.06538559085979581, -1.2532209718432081, 0.3001866150428594, -2.3765634249416574, -0.16580776152256185, -1.467775418376813, -0.5738850480670346, 0.6013569786306974, 0.6155505835492241, -1.4547015593980932, -0.37142215177633886, 1.2924688514563796, -0.365738225025281, -0.4915933188695861, -1.2505519231144668], [0.6112478823409709, -3.068779955496825, 0.05417653382803245, -1.478383894904311, -1.975182315247306, -1.8682940201255442, -1.7571942562689045, 0.5681896455796018, -0.0624031196175377, 1.96516165991026, -2.879434019885234, 1.5514864602319294, -0.31610772525974423, 2.355835766172241, 0.48152516238277404, 2.0340443885140695, 2.858491702932468, -0.9819604620966526, -0.9323607418629729, -1.5352581580554108, -0.9822489191716117, 1.3450897179794024, 1.3423431143478808, -1.8285172833225214, 0.004509491065592562, 0.92245103971851, -0.6126013755928156, 1.4389521116741197, -0.4320283321242612, 1.2419808946202278, 1.7335248262293659, 2.0365837004255405, 0.5064334938132022, -0.12346014159514972, 0.8147952955264941, 2.5455097191313194, -1.2094982920737385, -3.931348451549964, 0.3569481190540463, 0.862006915064211, -0.6685667349702218, -1.9336720194327977, 2.902952420650468, -0.3826173405271965, 0.8674322557619367, -0.21983593573254523, 1.032250810580266, -0.5214175194285365, -0.7724107544961515, -0.7681891571705641, 0.8367619361505244, 0.041916852153014425, -0.20470104238374356, -1.3799376295893349, 0.2308629223852365, -0.2599581424862968, 0.04626355365327059, 2.5700369254280435, -1.1649410303018972, -2.0706308509157787, 1.3381916626710049, -0.8171838795517574, -1.0215373984303402, 2.4160753101297785, 0.6166584133470806, -1.4871256797354448, -0.09540700322291387, 2.2202357005454667, -1.0318061074869505, 0.5540780503288882, -2.2415536062137815, -0.4429604592897569, -0.021824383698025897, 2.2266934825808544, 0.7040638690226397, 0.5169710332829345, 0.9514438708823951, -1.3924092876522272, -0.811612293539026, -0.7454663073164292], [0.02614463190208292, 1.532677727493913, -0.37022347824399526, 0.43957655224761777, 2.430698496722165, -0.9902157012437109, 0.03028102802211466, -0.8301553434195947, -1.7480449972172927, -1.451793495436763, -2.389444872066162, 2.3164718233400046, -0.3019193326243959, 2.201836102732273, -0.08724438192939321, 1.7764964988019605, 1.2177636258087747, -2.153466484201434, 1.7313835340357444, -2.0382610144929663, -1.4585227012486188, -2.30985303979516, 0.10696820692082493, -3.2986512663156238, -0.0026796946882468725, 2.8476778727876675, 0.2801037114487779, 1.8705802271941137, -0.24472730550819355, 2.0388558667554286, 0.8480124312871403, -1.2356496926853324, -0.152128050694948, -0.9106263117369479, -1.204795359543699, -1.0873519346898424, -0.5041056484904173, -2.395714634862743, -2.636318481841437, -0.6118216128753852, 0.598472194245488, -0.06489591970533357, -0.4507466216187744, -0.19078058600771594, 1.3087858488757702, -2.448657920915592, 0.5429331634257587, 0.1953886357145836, 0.5545573277866737, 2.6585161717505605, 1.6580255471318013, 1.9569776681747688, 0.44507496801377894, -1.6855548677413066, -0.4957554766339259, 0.02269441731055602, -0.09227713476547589, -0.17826932385896432, -0.6992755715558627, 2.2130607745456223, 0.6922546313000094, -0.5359311851781074, -0.4154580475081082, -0.04556988727787252, -2.6858594886844793, -2.4577165995398693, -1.4810003926270523, 0.6181635525277199, -1.2747179590909012, 0.23305948192445006, -1.055079625884764, 0.5349388005809022, -0.41131152202601545, 0.43962350956937996, -1.7851368198948494, 1.7181468950964878, -0.22668114300629394, -0.1512828623767155, -1.1712361592069493, -1.202657578982385], [-0.2537099094787935, 1.2327089049156672, 0.6292554603563039, 1.8909925701646353, 1.3958201538339263, 1.7021911929809017, -0.027077553635694605, 1.664465190361665, 1.0061014856026884, -1.466250301263036, -0.9646627780395474, 0.054594530680918185, 0.13905077798203794, 1.1859012567212694, 2.2488804480428466, -2.500948125136795, 1.8570438882949993, 0.20857297616938672, -0.849850389567552, 0.1451017995539774, -0.03620107375781074, -0.45246863546723237, 0.6392515967975682, 0.58392947936343, -1.2881922088865365, 1.4032969993563127, -2.3813050150747155, -0.4292299600749997, 1.6726914396097625, 1.0868727682697228, 1.030978585885662, -0.20764984004336182, 1.7791073950938, 3.536631630092958, -1.4530769633740181, 0.4204266384458511, -1.12319969870634, -1.3035950893086574, 1.8385550916582145, -1.6224764183568914, -0.44587743763645876, 1.2207416123625752, 1.1523665410954131, 0.4813239454119335, -0.8193639280816105, -0.03081368446988727, -1.973587949119525, -2.2555992680359798, -0.6447387885731851, -0.9347750061496645, 2.3432533809205713, 2.82492791795999, 3.676173265088043, 0.9313566710725456, 0.8717370480497347, -0.9370812884629756, -0.29184798456389677, -0.38404454742043037, -1.014772808573675, 5.887494344068807, 0.15560277108760154, -1.7302540818304895, 0.9914383041461313, -0.09017454157702827, -2.01749870406951, -2.109708618979045, -1.3810403719124202, 2.148972324785114, -1.7979664510588287, -0.10598288053130334, -0.8802953308452898, 0.9970465648749949, 0.2845910018328838, 0.11901683381734447, 1.100934641525912, 0.27872345537665766, 0.5161185433393513, -0.6405144690183724, -2.15401535701708, 0.4730722161305642], [-1.515138733100967, 1.2361066919044446, 0.776100942881786, -1.009906526569296, 1.2703619232505046, 2.636678624582857, 0.5171939006216623, 0.6313207270014543, -2.2478715075357503, 2.407202537623664, 1.940146787286792, 1.8657465229317365, 0.6797905883108926, -0.009276556571554073, 0.12980366359206305, -0.910973237827393, 1.5797215203243713, 0.7943301487371804, -1.1130572146029099, 0.1998067549940503, -0.7390361941567174, -0.03160937821399997, 0.8886254231848908, -1.7148889986325593, -0.6173173005708534, -0.34128302103439406, -2.8185379539628763, 0.6480872399135454, 0.44949862178211025, -1.699181167206435, 1.122077356387924, 2.498198384377876, 0.8530825698612018, -0.022946756322085673, -2.1767043026650814, -0.04518499450772673, 0.23083796307540763, 0.2605116451485827, -0.13868446245240418, 0.7875178622809264, 0.010924903112965987, 1.149466232873995, 0.7797648666345903, -1.62346360997882, 0.3876669838057139, 2.338391164660085, 0.9242795792926447, -1.1428130623866213, 0.30780008762475464, 0.34154409925122703, 1.1137280750119245, -3.3300907902204675, 3.0271605788570395, 1.4588021551345154, -0.9502839617127122, -2.5840101631292467, -0.2641024955301215, -2.778480657216944, -0.47783557386043185, -0.5996589550419376, -1.1335822133245728, -2.6679902671120304, 1.1676491857065248, 1.3642126927938654, 1.6431081601093163, -0.24797496938871078, -1.2619778354640647, 2.001842085330821, -4.290452328851587, 2.896617504340352, -1.0559229973111706, -1.5876593544495403, -0.7782538527486667, -0.23080461966899093, -0.4618173216746578, -0.06098279296000217, -5.058443293258098, -0.5260626598676441, -0.20903857676792978, -0.6436251597198435], [-0.18295945342878056, 1.1059943372170344, 0.9153705277108521, 1.0286521986187842, -0.20036419425963947, 1.7367952010231835, -1.2942262405416058, 0.6083621876537302, -0.04495747957095527, 1.0407388824097317, 1.9129154957893244, 1.1734222839379875, 0.5912892918188541, 0.08404143955889148, -1.1319105172430681, -0.1686175351321138, -0.7075565719726908, 0.8808237039424603, 0.26003691380620475, -2.580371242799217, -0.31791763521569555, 0.015237254242616197, 0.7108801661245773, -0.13879730265019088, -1.6930438982862204, 1.2817066335212692, 0.2872575258437825, 0.7958017328048518, 2.0338374911436103, -3.1410819444563223, -0.07336813863606563, 0.3709451716628525, 0.32950588163866423, 0.10872644162028303, 4.116943703033911, -0.8896073955879601, 1.237611253540818, 0.5494365913392759, -0.8476817129968803, -0.26099670009067427, -0.7197714131143913, 0.24681656691691312, -0.47878971616743565, 1.152760489776837, 2.4943416309768667, 0.7756148243594606, 0.7259631760547164, -1.8500152874637814, 1.9844977369892258, 0.5420484816191646, -0.316058385938832, -0.15032716764035367, 1.973685521776267, -1.013289898990244, -0.8349496967078333, -0.2831847882453835, 0.0780632346072212, -1.8368190145194891, 0.7167925408682327, -1.2642561699343007, -0.42823444131111316, -0.37906105145203434, 0.971673874345805, 0.1372222391155033, 0.8475027213900131, 0.8765919999268104, -0.29647547100363125, -0.32055535907767485, 1.666055217947017, 0.5274563738747432, 0.5507209650210779, -0.3966669349234626, -1.1126210563057917, 2.727545050839834, 2.7838460186095824, 0.5132356972818954, 0.13657255908490296, 0.6662537740029018, -0.7021365982802494, 3.3214862129314726], [-0.5461761211095756, -1.297081401266088, -0.6464983001281286, -0.35391720217470807, -0.519304811938801, 0.1124362006114225, 0.6696990346547923, -2.3176538976433587, 0.08886002653145504, 3.0517572033519325, -0.5669018140095818, 0.9324461429169776, -0.8953503752494654, -0.6660178080757028, 0.024478819684387965, 1.0202500163936226, -2.070792230008014, -0.13446906883532694, -0.8249099155095292, -0.7272319046474602, 1.2080946851560077, -1.7653608186657608, 1.6095785639782874, 0.43288886105279756, 0.27794958802735037, 0.1793748578761172, -0.717939510481708, 0.9773679054777945, -0.6187453970785801, -1.023458989455088, -0.516466131888356, -1.0094411739543816, -1.6539589166056075, 1.1434569479485064, -0.2804472098372623, -1.2603275712142952, 0.45067436408420564, 0.23751726953555563, -0.6987430008720055, 0.5698756321812672, -0.32682383697982603, -1.5443587917827815, -1.1962407883247814, 0.11831965252813795, -0.9485073504175074, -0.6369862719750724, -1.1713171351743559, 0.6361719606616526, 1.5240863102586544, -2.3287287581598837, -1.4380995772526008, -1.00951881566829, -0.9503751149444019, 0.7265111520416543, -2.1313605963339466, 0.4101154159178302, 1.9084584722399016, -0.4238802979312528, -0.6103374334926495, 0.18745608933210478, 1.5102049595383562, 1.401444399112311, 0.06282869755109305, 0.5378933877761507, 2.4189932011312347, -0.12443024194367945, -1.5328979986801337, 0.5091647394831095, -0.6491460318198065, 1.2530033435375474, -0.644673297883911, 1.001831874713861, -0.07600488725908115, -0.7337061419720703, -0.44905256297282065, -1.283291774354238, 0.43303960622667037, 0.7286350761677847, -2.1447299942098166, -0.7353665926776491], [-0.34453988930134666, -0.035035728051686185, -1.649838295940936, -0.4031782068771376, -0.6900950071895438, -0.1257179931162177, 1.1054348076601035, -0.0760444808095937, 1.4344905817877727, 1.5933845363287, -0.1238617934902074, 1.173598583251416, -0.48348800309319856, -0.42794507325252684, 0.9772736248672338, 2.0849699077035546, 0.007844352048803457, 1.250884156297417, -3.118027429605201, 1.46574698702568, 0.9480140837822946, 0.5289612402009448, -0.21712182465431396, -0.5185111073421129, 0.04338177806739488, 0.16831615424915877, -0.09823903650375569, 0.46898601754417135, 0.6497797936493945, -1.4863043358712489, 1.013308743618217, -0.026347834704949342, 0.4585553302483185, -0.6983544037122961, -1.8794858114367732, -0.25485278787782295, 0.9030442153980208, -0.13289689157497886, -0.942383265842373, -0.6231472658842018, 0.31276954449821287, 0.2842707651936627, -0.13128793747904605, 0.16919631133409876, 0.564124579076039, -1.8821064814940196, -1.0469031485277656, -0.5033243368981627, 3.6199188747337163, -2.043974566434581, -0.023735318312509118, -2.050668504865767, 1.730955514834856, -0.39614968091816205, -1.4608494510166905, -1.1208204353507607, 0.9119814196360588, -1.414137454497941, 0.18290423801886516, 0.7499629022447742, 0.5840825316287762, 0.48737722152338525, -0.2146995153450779, 0.51513800292959, -0.936925857999448, 0.6123045088684815, 0.9279373053462996, 0.8083206728812827, 0.027197189521784338, 0.3300142138840063, -0.5054853977221255, 0.5305226498950508, -1.242340798869246, -0.47251934288862113, 1.4439019554835135, 0.888901940892399, 1.4862000013453587, 1.0261502424562914, -1.1646656359508087, -0.8647056527491728], [1.3207112535521843, -1.852545660704578, -1.528408369395202, 0.31584560141383994, -0.5556561516982013, -0.1964208543969388, 0.07679984069351745, -3.5641966984066107, 1.9494570552258879, 2.7851677322620803, -0.8117006192599601, 0.950848455739037, 0.5972933965128777, 0.17400728137528015, 0.2589638787504906, -1.5688445322978128, -0.08618308199386947, -2.380470792071351, -1.0978113740751365, 0.2772190477386204, 0.6001610067647778, -1.018258151124515, 0.4871226577877742, -0.6765412373098036, -0.8197451064360288, 1.6675546280001419, -0.13601327193771975, 1.9464202862164117, 0.5798814824778986, -0.09807793919296968, 1.589939733611775, 0.36412369272825745, -0.38093900450847185, -0.5242626431337821, 0.37452503026726697, -1.5621103075552663, 0.4606499166453149, 2.530210764488267, -2.8688652517468736, 1.414445573628549, -1.4106726209842417, -0.5207799274258301, -1.0663892683045, -1.6481216838745167, 0.3837670344004254, -1.1066964530399153, 0.14496746474109032, -1.4534727016280742, -1.9819602447634868, -0.11715409700605468, 0.4883985898359488, -2.359449220950317, -0.7609543605442578, 1.5379472153994462, 1.3405890299314065, -0.11478482930991368, 1.421978434445205, -0.9738539669420829, 0.008684508885195666, -0.9862478137123456, -0.6661883095479958, -0.19769202570228664, 0.9715515876734958, -0.472681361647063, 1.2401195404381609, 0.8900167587236538, -0.003036097573268937, 2.3315016812559897, 1.183313837844974, 1.403606058613037, -0.858955699414962, 0.24704460123069907, -2.5107668540699857, -0.9986798035589641, -1.7711863663893883, -0.27228090520005965, 1.0577954701049692, 0.3921074183792897, -2.455632752009908, -0.7098280788260392], [0.7615215708249673, 0.13713834295842645, 1.8095221146491516, -0.23439101977690574, 0.06254257494892722, -0.6458815092944401, -0.22996420390239314, -0.3937230100160489, 1.3132807517489236, -0.35797078952159284, -1.035745832944053, 0.330482978849465, 0.8917674521789118, -0.3050441747770084, -0.7997817135234839, -0.868068990757162, -0.5163069676543086, 0.5222048295249105, -0.24544638871337773, -0.9805149695899129, 0.6583005751812301, -1.248151306578254, 0.5803078783488361, 0.4502572698740034, 2.5311308739027316, -0.8960863736431202, -1.6993213845564874, 1.4246324432232766, 1.6538440006192519, 0.6414559765050548, -1.0422002342865713, 0.8854031806219612, -1.6710040588575221, -1.6995031407623475, 2.6862655901828445, -0.039905357483580435, 1.0342133923751238, 1.6394219866601407, -0.4260981995614664, 1.3046304723439077, -0.8289719802790958, 0.039422610168251306, 0.17335934431509775, -0.5206421851685176, 1.9273779317917412, -1.1743312084435362, -0.13443993319184688, -0.04906854054381872, 2.065287432279597, 0.7082833540121274, -1.0583942708009964, 1.3801706403147354, 1.3384571460481338, 0.6631720463659143, 0.6995599107469473, 0.22203346277699715, -0.01341100974025794, -0.69511134080444, 1.199322511177584, 0.5903569936964057, -1.5026985560349888, 0.47129415159373095, 1.6773552537122556, -1.2568133718800165, 2.3300800298837716, 1.7101904765034146, 1.4593477034026392, 0.3736091982664127, 0.09716477577746983, 0.16030448054409382, -0.3481211103170856, 0.14801342392875524, -1.2072843268883544, -2.4108214768086995, 1.044042668080995, -0.5325451049386116, 0.21085869376118566, 1.0773424675644345, 1.1507383589487996, -0.3034457202242475], [-2.69224961271699, 0.7273182241747006, -0.7052231570110947, -1.057187863438965, -2.5303307015549157, 2.1643972496223873, 1.7785678912366096, 3.8783051679176346, 2.7018403011198044, -0.25047447213630963, 2.6771396598794515, -0.22092689496513046, 0.20030492690792906, 0.8185682034797507, -0.1481976206857996, -3.1604255528186305, -0.9348368377860767, -1.45333445195925, 0.3462384119651772, -2.4975435492571028, 0.6290085316021812, -1.6301528053259964, 0.2634680244092553, 1.6445541753346105, -0.8874528081408457, 1.4182617497962593, -3.7098403640856614, 0.8126574406823016, -1.2608793537252196, 0.8032588494054257, -1.1292689054402247, -1.1986341098235587, 0.0107219371688203, 2.366461340435511, -1.0531005868449022, 3.7576292352802665, -0.32899019091618137, 0.9512085015971171, 2.134624634603507, 0.48988790167936175, 0.734511893042006, -0.3125034477591918, -0.7989868412455915, -0.31993083214966317, -0.5941675162888256, 2.9786570691969207, 1.2465311534837529, -0.03772623594407405, -1.6459805140817463, 0.5095921712828692, -0.2790013225404632, 3.282326159307891, -3.1253686494929585, 2.0587599296682275, 0.44957491202377703, -0.6395325921807702, 0.38248569847663944, -2.8185226207938, -1.4808127194515095, 0.01735729657849955, -1.1289228110920653, -0.1863477831019771, 3.023800332502378, 0.5962583331087214, 2.4113794770020522, -0.9960468857194111, -0.36095354517355394, 1.0453416211419366, 1.3438699437534125, -0.2935621870548115, 0.28805763076226576, -0.6909470207844188, -0.15508862548528737, 2.3189627231176386, -0.3215200335840536, 1.5691887474351887, 3.137070183094256, 1.8285819530324443, -0.9910307999985056, 1.6560470423432752], [0.3093286145140826, -1.5381894739676574, -2.1638482089511206, 0.7398418808159013, -0.9707663277345415, 3.6268924645433276, -2.136010921326403, 0.4728340798528461, -1.2546953169474488, -1.049800434393553, 0.8926596640817315, 0.3500816728337852, -0.6366768292035652, -0.6486477574775954, -1.4002211740999522, -1.4899886812369592, -1.7292493192107434, -0.29004075287754716, 1.9767280581355735, 2.4650360276777703, -1.0891762757440924, 3.0544521170121484, -1.4965426860492073, 1.8578103034651179, -0.9727549729025318, 0.9333758266801513, -2.1931181115209637, -0.4017686942819859, -0.3905947917542211, 2.154945144069726, 2.101849077381913, 0.9678635761938257, 1.5486104662998568, 2.9808153900899486, -1.7914724957461905, 2.1642852841647158, -0.8314025036545717, 0.8574538693830592, -1.1548890171256818, 0.9018157409531818, 0.8576801635463067, 1.2552645662329587, 3.7545460973973066, 0.8625010544315833, 0.18742819711851663, 1.3516555852958567, 0.6715509545016384, -0.6741744746655242, -3.439699119822016, 3.711238399353586, -2.4768230180890063, 0.44815329624664846, -4.6629613037078155, 1.7068845455049555, 0.46726798160864264, 0.5894232795478849, 0.21477311272587238, -0.3848010773986199, 1.4381132158164516, -1.2418674921619115, -0.08235979781219906, 0.7056298582308997, 2.2395656234817087, 0.3934258077755991, -0.15329891376865803, 1.4103701298663214, 3.207687429775923, -2.9632619936321474, -0.7871048163244049, 0.47957782729558884, -0.646990270770197, -1.9444752425051997, 0.035802254432537095, 1.9388502170240418, 0.5736795547391069, -0.68261875640607, 1.2906388750196731, 1.0518160593933144, 0.8675702938417145, 1.9611460775987641], [2.6451395554156796, 1.7506603137042827, 2.2465124863466106, 1.0532631340303866, 2.269451521958035, -0.21854548392192463, 1.7676748431261515, -1.4589552476941057, -0.08574521058117039, -0.6412988102987237, -2.0055206684123448, 0.7828079083808536, -0.10750961979687326, -1.237354269435374, 0.21995870980435672, 0.36144663744592004, -0.21766445604075113, -0.4266449226863709, 0.5548784599774659, -0.7276010413035283, -0.321896715338089, -0.041827775651662326, -0.3521269269796713, 4.170653036634318, -0.10088335989837463, 1.106340273783372, -1.0564635073163886, -1.4527585677282304, 1.8133174467825002, 0.5086318919363899, 0.049774906340594144, 1.0709477346352496, -0.25098214880292236, 0.20875759755787884, 0.3767521425693115, 1.5892832073418575, 1.1264437668633531, -1.3349692401199267, 1.378798023283015, 0.008112789600018232, -0.11985710237770188, -1.7051784165519512, 0.9173830795923762, -1.1082710237302371, 1.7023270043344898, -0.5562810402097361, -0.4125830979553341, -2.707420128484611, 0.10910907391616692, -1.1882886326455786, -1.7118230369293221, 1.1505152728963652, -0.95042118130005, 0.8499112355670624, 0.5469160221537192, 0.9583185057069921, -1.2458641827404258, 2.462062763093673, -1.700274859017145, 1.1229702361396903, -0.7342865235233446, 0.0089203940976287, -0.6123505372185224, 1.70871904442901, -1.5547335076330113, -1.3171045853605576, -0.8574658233012251, -2.422281837689934, 1.8099852395862261, -0.9748943663204109, -0.6639593282757666, 0.8699667761355907, 1.07364264623502, 0.05556559258017201, 0.7431201102192262, -0.13435588737783088, 0.6592974531541997, -0.5515402205262392, -0.2803486741829785, 1.3166849117122035], [0.1599379487522815, 1.9014855775720727, -0.6622671363225312, 1.0505063267159742, 1.4371979534350172, -1.5656418912440138, 0.3013960538707302, -3.71658382281238, -4.301777527014037, 1.3739246978370536, -3.7060750489340646, 1.0323981948184626, 1.1952105584857255, 1.8422045579587374, 2.818326360141159, 2.8753415676380887, 0.47238427337666794, -1.868248077323062, -0.11272840113753047, -1.4419069887458131, 1.4892654368269247, -2.7183196223048385, -0.42231053321442, -1.2366518906374118, 2.40432040304725, 0.5260106873343962, 1.299268982818636, 0.7798740582136053, -0.4487554504933113, -0.01836153443895894, 0.4731725125101757, -1.9679610107458563, -0.18708606245912282, -0.42184484098335945, 1.8970739754873676, 2.200394490964863, -0.16810906677307816, -3.644536314675642, -0.2312740384122134, -0.7758865650031882, -0.9772038718441491, -0.43061740847709196, 1.4492035735190494, 0.342808128610998, 0.13039250100331906, -1.300675363241531, 0.8758110722704883, 1.2288675548945027, -1.8995849770930957, 0.5529615893045923, 0.1762388856154798, 0.8801590252065662, -0.42669799294693206, 1.2590796198480438, 1.7643535400521657, -0.9557765613050797, 2.646631872371231, 3.0808269796130237, 0.13212374175497024, -1.8948363749406403, -0.7699811655160967, -0.597608907707448, 2.179927757331015, 1.7667451460169132, 0.7978952156494042, -3.0353167726186787, -3.1979830514036833, 1.9850207168556677, 0.019967022963069195, -1.4455973556111124, -1.2313819556863284, 2.253504738828726, 0.3902373470889095, -1.1436454137795837, 0.49713494031015126, 0.47128005621829216, -3.276669427378727, -3.137775100951098, -2.196641462606128, -2.6309895515566133], [0.2651981778728167, -0.8302882329484514, -0.35139255766029753, -3.4404172560032666, 2.39378333191764, 1.0211386116486898, 0.8190591242570192, -1.2823551534810869, -0.8065195417914863, 2.465879829493218, -3.39257226131549, -1.9272110483196887, 1.515380592241116, 2.3419654448972294, -0.0932210300610257, 1.4874313076817254, -0.15324938644696262, -0.995293355993714, 1.3482705484998359, -0.8156019242047867, 0.3718928862586805, -1.753077302796744, 0.1408390892265763, -0.9463474162393962, 1.5455178767285145, 1.4122645293098575, 2.5097963134494132, -0.12001926850671256, -0.46513267967095057, 1.1428338209666398, 1.2994845456659294, 2.157723207742778, 0.869560169980416, -0.6276294058617925, 0.9613239252040329, 0.8724229471976958, -0.9747786225935281, -2.651738902407407, 1.5379456280823771, 0.5277226312370275, -1.0317613074114278, 1.5934540675926803, 3.2704807241813096, -1.0814511872002353, 3.108203478501334, -3.5678042237306298, -0.32361890015760364, 0.8106068865242367, 2.5626587333291178, 0.07048737993874739, -1.0943511214383532, 0.5402391260205067, -1.2833994359309695, -0.5046848354093904, -0.06123743246882092, -0.7954149415236014, 0.9423315894292789, 0.22713321893214794, -1.105192170166131, 1.5492431624140794, 1.328804238137212, -0.011512504648474682, 0.8894061656624962, -0.8201511800834997, -2.399982502580407, -2.9203933569942646, -2.571215960244811, -0.27680012883487737, -0.41418846461640885, 0.32316737992760014, -0.9039987580568213, 2.5707453113515304, -1.1527977511497072, 0.39135104056420417, -1.5092535274770285, 2.079617506274978, -1.2240113637645553, 0.005131494727313064, -0.5047909701870779, -1.5838380126895975], [1.3070307493803042, 0.26210469799394265, -1.71280468216747, 1.3817833861123265, 2.4955238811352674, 1.375197536760157, -2.308337167575829, 0.5977784388482823, -0.9824439129674347, -0.9014991687136987, 0.9975960692504516, 0.7322216893103347, -0.49796616842358443, -0.9484811461528387, -0.6810843965664417, -0.7488054907133596, 1.057856636669216, -0.20128832432273827, 0.9173606590536496, -1.490525668280882, -0.6218634974791408, -0.5537151342950323, 0.9388682024696137, -2.702614558338809, -1.3302932714865432, 0.7394289463460961, 0.8138134937129379, -0.18425737226920427, 1.5800118121220252, 0.7158954571141806, 0.15253854598188074, 1.390333361308002, -1.7984755783145017, 2.5526223153312504, -0.48282186835095137, 1.0006533900594425, -0.31488807773010247, 1.2368973423381857, 0.014888835587947551, 0.10032742412956815, 0.2989268423560035, 1.1010070526293658, 0.9450367249993087, -0.6590108751421774, -1.9997622247460796, 0.6394890187331633, -2.502889270239908, 0.8685887307665981, -2.0007295622435244, 0.4037629481914729, 1.3350989028434486, 1.5679746557460026, 1.028922696370408, 0.2691735556944661, 2.592912392089046, -0.1680921672066637, -0.4341748631798084, 0.8308203400724434, -0.0787439760492195, 0.2667655239713926, -0.2185534566803656, 1.1499940576980636, -1.9620343272468488, 1.4333456326708787, 0.8839901101930324, 0.7175588037449276, -2.0523959282115505, 2.8260207652175042, 0.6837672937776936, 1.8163360457658628, -0.5717128560037176, -1.051684493800859, 2.0049830580295906, 0.771689776721957, -1.7021763417934301, 0.14938731600356545, -1.271294033399263, 0.19150239713438644, 0.47596301414111697, -0.770702222427768], [-0.6960515454527963, -0.8295335342273712, -0.10470575288473158, -0.4065547410347265, 1.8400222875667385, 1.7134829152583106, -1.4434057728880059, 2.1344970877302503, -1.4993741221733654, -1.4163223272688974, 2.923628826542441, 1.3602771918283982, 1.39979384058591, -0.6442995638651875, 0.9625043730944587, 0.490094324899852, 1.0972154962885878, -0.32848976472580693, -0.8077465390620673, 0.8918600956513216, -3.8646749335798054, 0.4459141382390165, 0.053566878094232884, -0.39490764033537695, -1.0430172955159533, -0.026677780692150665, -1.0865769292403913, -0.46029527187693553, -0.5945846225476328, -0.05356543242715183, -0.25403675036162193, 0.35258153900430794, -0.8887459247698964, 1.2227892899948372, -0.9583512536501166, -0.9858461966410917, 0.12436756033777722, 0.11602652639941925, 0.7782055921188626, 1.076666246120425, 0.49418957186069695, -0.11017259504363264, -0.9701396961966819, 0.21983730702282803, 0.5642122251152447, 2.148586708815323, -0.5603457811746472, -2.1447077842863123, -0.23094619454433749, 1.2451214122919807, 0.007631547243573375, 1.2593923154733064, 2.647404605436767, -1.4424573027971097, -0.45589662488358357, -1.951525455224193, -2.5477258995535217, -0.04072530636758757, 1.3108647053296967, 0.41707364267554564, -0.7021586602179265, -1.0069436447949591, -0.12834498987650672, -2.280231429483796, 0.511199853441532, 0.8211753034761085, -0.8680841059816251, 1.8531468077841429, 1.4884226203411015, -1.5658797445368031, 1.3714153974802235, -0.8195656948446954, 1.3540184781148399, 0.08886108902848434, 1.356769714685715, -2.6067775282516674, -2.1540497303362596, -0.603122775148573, -1.0488722486871183, 0.6773665877834067], [-3.3415064987635934, -1.1219711591944692, 0.7315886559870828, 1.2436805141263716, 1.3533698610007636, 0.760205100553978, -0.3133776183855185, 1.655674013929922, -0.22239022069042755, 2.044096624554612, -0.07963780430536271, 1.1891198619586485, 1.348225199253227, -2.5012308863500694, 2.063616072487163, 0.19561846525860815, -2.523384110435853, 0.12723849645869942, -1.0113802109371357, 0.42990967680338443, -0.4043024986397054, 0.955065175550137, 1.0688176736952377, 2.0728332870327724, -1.0771119539944745, -0.9117034156854766, -1.4830923086957815, -0.925044307056519, 2.75908640297765, -0.6725119409972501, 0.8929764414875513, 0.9255154383304937, -0.5540315371818617, 0.0899911633000694, 2.1961883201534995, -3.364016365778172, -0.2818550916687223, 1.7524505732931805, 1.165908657498031, -0.43523760907172326, 0.08984958703657864, -0.28609025923502973, -0.46379818290910585, 2.046014321760137, -1.6588044670458715, 2.1140566624262793, 0.39260990496991377, -0.620276199517216, -1.2514730118921382, 0.6287064112126448, 1.87272828999498, 0.5873493892189977, -1.0924389287547867, 3.038733751805269, 0.30510737443409625, -0.47362023880232273, -0.5443619654779298, -1.1273895924392876, 2.2424151430568133, -1.8564739198684472, -0.30481540692925696, -2.8049708947054977, 1.2243731412362227, 1.1150688601627985, -0.79476544826703, 1.455855700666531, 2.262495453890749, 1.1977722163629263, -0.48557070089440707, -0.6815417180543097, 0.29571798798161464, -1.35907425485418, -1.5037407092967745, 0.5107849626457894, 2.182548975413581, -0.16445087827762644, 0.6483501787065691, 0.6414395986918418, 0.9425666483462254, 2.6806773768908903], [1.014966552402453, -0.7061064181621329, -0.8661066551210308, 2.486568744929901, 0.018175625440390912, -0.026528877890803566, -0.4896648497731077, -0.7303253263486214, -0.35206418161643527, 0.3085069033365397, 3.07487845342293, 0.3275180410557844, -0.8663246813847088, -2.4651575219637536, -1.396494497912166, 0.7354277278522491, 0.17438400019753653, -1.3852911271215884, 2.3571374103859126, -1.906108394045431, 1.0706146881938239, -0.7748447862658682, 0.8264336541390448, 0.38305486708490055, -3.09318837226364, -2.0131815043922683, -1.1150889713243597, 0.6787531923217415, 1.0052308916881387, -0.6595209750803711, -0.31233733239867495, -2.90785227263008, -0.4052402419589074, -0.5639724240474832, 0.844811807827788, -0.820364671027401, -1.1957301412025019, 1.7905181383646305, -0.26259666249233465, 1.3680641204161963, -2.08393474223043, 0.8162247424002714, -0.3477531308258987, -0.24032278602707433, 0.34303868967350887, 0.8263482881932577, -0.4526869797988621, -0.6057730265437403, -0.47574868393300906, 1.550990373169379, 0.3831099380384842, -1.9469940257408835, -1.403417666238137, 1.5479263972386246, 0.24537096079510878, 0.16829253713727288, 0.797681839387702, -0.6743778710621546, 0.5960464227020585, -2.536935590202853, 1.3354855710627516, -0.231940862841957, -0.3054352875542722, -2.067047416350021, 0.37298864467033077, 0.41514262305829175, 1.6795558757250835, 0.10405799808850505, 0.42549547058487275, -0.39131044216308464, -0.6662361137230944, -0.3220792064682034, 0.2944540415556272, -0.26490537045881374, -1.5203275456507455, -0.4589313074742981, 0.760532449508923, 0.028543474619306376, -0.014523491902165465, 0.39948941208188055], [1.9540391484979671, -1.0134616094005646, -0.1966715446437887, -0.5657132844171762, 1.402988770037551, -1.921513388076005, -0.2002197421723081, 0.6221676575518968, 0.9895237555122551, -0.21957525349203877, -0.5628752047184755, -0.7924060410846899, 0.9835101559230113, 1.2496222110795332, -0.30430509032065883, -1.1061747176410313, 2.2901727009083612, -0.7874252229214375, -0.12323718975513553, 0.9747233476556613, 0.27529274749734683, 0.9745115390187108, -1.5536902245421904, -3.2497915427990685, -1.9900760211776984, -0.5444131206546066, 0.1347781657461622, 1.2514800285376562, 1.6002275470132876, 0.9933118928631874, 0.24992431700172943, -0.2714340943856807, -0.43018951479087875, -0.05149851911056648, -0.506912110182944, 0.6349992223108974, 1.1210678249589978, 0.9581090231941646, 1.4349830552354053, -0.04811701467357006, -0.6820403202660079, -0.9737803005323274, 1.0482445181642097, 2.2412684403239487, 0.9123434653717457, -1.353671535562028, 0.6704563708765995, 1.2393894855121228, 1.7873977920366655, 1.1595776858791864, 1.2584112695873595, -0.7652020388618593, 0.19909898330308898, 1.0318369722478518, 0.9319057465135187, 1.2824160393473967, 2.155091545382857, -1.5243642338105763, -2.945406684133746, -0.10566418620324258, 0.6024474709967022, 0.7609446696718936, 0.3032205501479788, -0.037876213629693775, 0.6856389844119858, -0.6910159873330983, -0.32623177426520755, 1.5410242889478623, 0.6823725041452592, -1.3002499776052319, -0.953038027958978, 0.8735550029206574, 0.03690229936996086, -0.23013694351252398, 1.413339967418981, 0.06253201212861045, 1.8199728367705372, 0.2106741851227239, 1.0576487521495719, -1.693133788673614], [0.09361409249208964, 0.5039794029780221, 1.7215663318161638, -0.8718281169801501, -1.5892894105507056, -0.9168875811308488, 0.7356981833316562, -0.1910987611241583, 0.7330953838138217, -1.0710726022848673, -2.4824204656044278, 0.6714146366035513, -0.3977643628893415, -0.6730239139076127, -1.6958091042530434, -0.8789131180820896, -0.7754840856549328, -2.047958156536287, -0.24024337864696674, -1.5598183624075945, 2.3042850770262673, 0.296468852372753, 0.011795406425041502, 1.1364430115523916, 0.4187097670864608, -1.459363621733946, 0.3526611314433634, 1.4229108236706103, 0.19670561470233897, 1.3013870657261546, -0.11625858803673418, 0.09401865692995985, -2.3665623332925523, -1.6604507477453994, 1.3518734068188683, 0.47771241657097113, -2.481572263736862, 0.6926788894206225, -1.3891101953848384, 0.8583729037435993, -0.3263494596074035, 1.7219357598333649, -0.5369354724624259, 0.19321679294800384, 0.27692864233217945, -1.4982337658112628, -1.5108539342651257, -1.2802730542074532, 0.6137430015030471, 0.8783422305396105, -1.6422173926051136, -2.756020630756605, 2.27935601642861, 3.1587254832414042, 1.4615066808978197, 0.5744326152028492, 0.3634936197074709, 0.34473754366758125, 1.0839373724740202, 0.5037482566243406, 1.950072281627682, -0.9163386083435727, -0.7567459379420584, 1.1544529687983303, 1.7379372431973494, 1.4238012372239048, -0.32875925381239857, 2.782072255484656, 0.8225965907589322, -0.21894765137847602, 0.03269587002680971, 0.5980251524363525, -0.9839838827127518, -0.7885155834083943, -0.17611469115174075, -0.31038071045602655, 0.5414166229364121, 2.2054897172691494, -1.340592773321414, -2.168842594745815], [1.0506800520803776, -0.003114955025225545, 0.5205148741369752, -0.49668237864120424, -0.04002373906757205, -2.365683636704165, -1.460533353123186, 1.691683623352772, 3.4259171043115533, 1.551954995559464, 1.3178263797920808, -1.813980918610801, 0.3020272605688115, -0.20920105760454033, -0.6494188924766164, -0.7072385307155064, 1.5500392046837725, 0.8400703609834085, 0.10901058669926902, 0.08013506133897155, 2.4259510525931542, -1.2297018639669877, 0.5205945167638725, 0.5430119616367708, -3.3868572245022664e-05, 2.4741286520556858, 1.2103306327458911, 2.415029354078418, 0.997480898413492, 0.5794774676265338, -1.216018278128407, -1.5516007787880002, -2.5577432661629396, -0.11454802400487354, -0.944192151008669, -2.3643747744468198, 1.329917582185065, 0.7651759138536921, 0.5199058026465442, 1.8534162229808968, 1.1006420046492935, -0.794691913513848, 0.7946727420706158, -1.6099320901574932, -0.42804848308394555, 1.453822549744201, 0.23810800839625942, -0.5715984179129817, 1.6069165888530654, 2.0030279633720904, -0.23217549722962771, -1.598117474686773, -0.7897591321944665, 2.003956105295799, 0.42676583820429975, -2.7470147231521467, 1.2579786475051462, -1.2634900718837272, -0.0645667804073207, -1.6760412556378823, -0.6891011261210839, -1.7351509721195053, -0.33180575839868376, 0.15724833728416987, 0.17455176978715728, 0.9045179928809248, 1.8753347467951313, -1.023746108172548, -0.8012421923047491, 1.4167824655232697, -1.12287798982783, -1.044514140878186, -1.067619965639034, -0.728708685828827, 0.3718670925328667, 1.6581278391230418, 1.061999443354217, -0.4621717420481652, 2.5001685303768504, -2.7303605330116616], [-1.2939992669705784, 0.09459643794827832, -0.2234671367150761, 1.2649864987526906, -2.4448305223140343, -0.6841118531581722, 0.4372647405078015, 1.5367524203591527, 1.1055453806383204, 0.9796993123388512, 3.2169091913559558, 1.59827267859854, 2.7197137400522204, -1.6750240487851957, 0.8364419321440757, 3.8142693847739593, -1.835690402508038, 1.3133007035547628, -0.5456933584095254, 1.0209435855313234, 0.26654754228013394, 0.6249422692395251, -1.4907250518183075, -1.3599623870654123, -0.19458229044993466, 0.7096296600438725, 1.558286956190221, 0.4182495986126298, -1.229862681312879, -0.9578432484125575, -0.2635950201148493, 0.21086244876079227, -0.29408251612016034, -0.2093333937591824, -2.8255732531550226, -1.6090422073844586, -0.7111277747882289, 1.7341082990761034, -1.6223566578540856, -0.8225157598252927, -0.4447765445277177, -1.6567946005006147, 0.3218498172471416, 0.2954975922426292, -1.4962796859403047, 2.9554923531601918, 2.8796918919047454, -0.5123369710184146, 0.009975459368220507, 0.46300099576996884, -3.728525750577628, -0.6414626519528995, -0.8243085072189139, 0.7456338047934192, -1.856030798289334, -2.4854482149920583, 0.9769307634811654, -1.5690979570115264, 0.941783273400151, 0.2570883315041916, 0.5330593483066931, -0.339487132809488, 2.0062574773909154, 1.7572872195185536, -1.5012434122586065, 3.3364818463342316, 2.2048388803639027, -1.4995517335726367, -0.7835202292249793, 1.2547333164394372, -0.13198509234179312, 0.2888899330644148, -1.1730175144059134, 1.7989131292206824, 2.5197547767358626, 0.11835343042792514, 2.268750321150832, -0.37925203964671955, 0.909097183902652, 1.0964407302631307], [1.6973018998989944, -2.1581124672375918, -1.0859740975763412, -0.8238648486674494, 0.791355212552971, 0.5250103077891493, -2.520155262838028, -0.4323767301612136, 2.230105779869935, -1.6433465908677958, 1.3929011013138701, 0.006197836370846588, -0.7567717038024084, -1.806130702519895, 1.0095573791604042, 1.5168124570200807, -1.157115939937626, 0.42309145611627275, -2.8158082997909712, -0.07126386274897453, -1.9766446587677675, -0.6351478309329951, 1.0630519118792168, -0.39402603059960906, 1.9142626172501571, -1.9582235297353958, -1.1943819038726415, -0.5001501238965678, -2.1881259107076416, 1.6055037357970796, -2.307807530279894, -1.3099739951096445, -1.1844887293278996, -0.7930354760126394, -0.035605722285403194, 2.240552497120825, -2.0040812350301485, 1.18212506874247, -1.7189617207136811, 0.6270883059770921, -0.7289583010308776, -0.6940308488960348, -1.3514555636564975, -0.4517207482594097, -1.3073675702402385, 1.9622772050485917, 2.261025120117839, -0.23552136604979712, -1.2213759629341712, 0.010444858188204738, -1.4536935466162124, -2.2817690438920217, 1.523959284846695, 0.8692380803759467, -1.4214923522599496, -1.1127459328844311, -0.5872243170792885, 0.28682158097205246, -1.4530535660989623, 1.1113964602050042, -0.6530256024862174, 0.46776549629752745, -0.47319096673063543, 1.1147295106270316, 0.8929577412746642, 2.0814747559714983, -1.3392861021350269, -0.1702179748773323, 0.295007732110891, 1.9988575056699731, -1.1725184128453632, -0.14844843206047634, 0.7471108567938334, 0.5914720061414633, 0.6106382286437422, 2.1120221003352615, 0.25410069875793545, 0.9837782969367244, -0.5977605346114683, 0.4791181599049787], [2.3110851415849356, -1.4914357962810947, -0.44719988836730773, -1.2789819145061974, 1.3631593596918312, 0.8157822429445887, -1.8426740919266842, 0.4957438598144965, 1.5523026124403831, -2.0621714419754387, 0.4850163884290703, -1.1282090259078184, 1.7921204911132325, -0.0334081133525102, 1.777764371388476, 0.7010539802916277, 0.00572414047590559, -2.476804024028256, -2.3677564303728236, 2.7881498524321553, -1.1161715437726019, 2.013514487103329, -0.27159462148161173, 0.2877059400963832, 1.1453179595200438, 0.93625675719581, -0.8839617277268733, 0.747436439755837, 1.4629941805555846, 2.1175489034241166, -2.9073006043954406, 3.2346161052247946, 2.7931229343334025, 0.06310732529537241, -1.3217694991375142, 3.875103483894328, 1.6357856006575098, -2.1121968818040027, 0.6771910289038277, 0.8267756438271264, 1.2959294945204731, 2.3945735671203567, 0.8004811779353093, -0.7190009033401271, -1.181772754457283, 0.8359531874403295, 0.19188929593451395, 0.3210324974902918, -1.0764718158103874, 1.9597952468404856, -0.8486113840594941, -0.9107674491100609, -1.2031801374057112, 1.6019002153115682, -1.6104750919806177, -2.21388722436657, -2.323606798888059, 0.9510198857564134, -3.780282924592354, 0.12762390571016902, -0.40391195593903956, 0.8630584886288097, 0.2670750778741287, 0.9605758082799842, 0.7438663446066399, 1.48752202254363, -1.1992331336684667, -3.3404986206722302, 1.0768450118488784, 1.7415305114579, 1.878193772547389, -1.2416035648716375, -0.011659202266219514, 1.2220809040924765, -1.0014263121559235, 1.5610093661166495, -0.4979063751982996, 0.370090853582594, -0.22374401314488293, 0.7697565111683655], [3.2808228755655997, 0.9442805743919979, -0.19484362056823626, 4.220467519586621, -0.5140908571946683, 0.2052715737664833, 1.5421577691445711, -2.4535392405260064, 0.9736060034710678, 0.7320845340448835, -1.964782475776807, -1.7378230828620105, 1.1507883614712133, 1.6145569896853929, 0.6041541162903443, 2.042330617339211, -1.336170213392022, -1.7195716865537638, 0.9826782556020568, -2.4826051875099115, 0.4551032890945524, -2.1708005764453335, -0.3397520510451246, 0.36857993134459, 1.546274393639171, -0.6452230045450711, -2.768660650123883, -1.2246870396753322, -0.18684428860991462, 0.17337046860457625, 0.9029130450581951, -0.27280769111210124, -1.0132283293784314, 0.08944453220739415, 1.6317151779586858, 1.7333350294625114, 1.2048017507405646, -1.3898008781266622, -2.0642674585108165, 1.5979180284842702, -0.9829108775778306, -0.6110426298174195, -0.01821278977663591, 0.17004277175692215, 2.0157224349045286, -1.2257944817075113, 0.28582472620111077, -5.062591232574086, 0.14874701009479793, 1.2194508408663305, -2.0283828455043507, 0.6163585060445577, -2.315275314027716, -1.0001865487694086, 2.3507959612114773, -1.2063557428970444, 1.4088635529964024, 2.1123098950409833, -0.16402338552348342, 1.5536206925020066, -0.6028635129852359, 0.08762072971006975, -0.9528383670501722, -0.8281638862657112, 0.1729090296559804, -0.5858079763134434, -3.0559674904776917, -0.7904396882037518, -1.3820297449047274, -1.518213636342221, -2.7921868092466426, 0.6949530437015958, 0.05553143139032179, 0.6788469511839934, -1.296120766774203, -0.8403613089220243, 1.446079269528234, -1.5708562425914225, -3.5489121614614456, -0.07672486027541489], [-1.2915612459534098, -0.034713345760677625, 2.498713380235263, 3.1376054438663736, 2.096299372395407, -1.5975923058047303, -0.8735636999065951, -2.0478521859717445, 0.7854938499318518, 1.9101960274838223, -2.1466406723076017, -1.3488204291154016, -0.7641619485310109, 0.06719585735644187, -1.564141995647094, -0.8296090764467478, 0.636215902940505, -0.4158561966150537, 0.4767909828268129, 0.08316505820180749, -0.4586497859646704, -1.3528475064271972, 1.2778403003401115, -1.4293850696978467, 1.2825492350112966, -0.2124725081792381, 0.08446462206633014, 0.480916674981419, 0.5845477578576055, 2.5129300839418707, 1.1161794762154393, 1.7729130868212126, 0.010053200754432938, 2.484208164226952, -1.00497672355192, 0.36198856426667153, 0.4114852868866669, -1.761356117462224, 0.2546143815702721, 0.6283230608590719, -0.45616083738634455, 1.959196315602178, -0.7178856213755925, -0.5564740333056842, 1.6806652764651353, -2.0526305916521363, 1.79326181792502, 0.8668360993497638, -0.5210468021397908, 1.754585505152754, -1.3842317550760075, -0.4745638704433962, 1.038596822658058, -1.5037697966659365, 1.6501245648286205, 0.2992841386702334, -0.7031491020415198, -0.6240918255002608, -0.9061209713627343, 0.9367699865973811, -0.26507698392553786, -1.854724757660441, -3.3569421089907534, 1.0544088363276727, 1.2186907225224566, -2.1260722412190725, 0.07121164312456768, -0.35804555384551817, 1.642398416445264, 0.33068045064631735, -1.5648045794138452, 0.16469136828387207, -0.13004050265627445, -0.15791656102829987, 0.2551206856893161, -0.9941281210763951, -2.8417576564881486, -0.25009943614812846, 1.98574822413421, 0.7087264634030983], [-0.23821215373378563, -1.5737040003592881, -0.5361863440259098, 0.7692448480478433, 0.5254577348707361, -0.5933479047311332, -1.5224060466795444, -1.8295296774306338, 0.0639132759274999, -0.166203958893474, 0.900874336186632, 1.7359128073196775, -1.5952230067789244, 0.28142284322057776, -0.8547321404447614, -1.4179798187884778, -0.38019287025448373, 1.660385390766074, 0.38980148702632195, -0.08769608799269148, 0.025141659826918804, -1.1334567034695642, -0.27836427343855974, 2.0154824957908493, -0.3356232373446624, 0.14254672138998611, 1.1589179495025141, -0.003952964683337817, 1.804671165756581, 3.1186598431681154, -0.19949504763069234, 1.1937571749211482, -0.1562431256781228, -1.7714574190857966, -1.0436663510631161, 3.1365618307476812, 1.5356625156058223, -1.1358442074902864, 1.1753700279436752, 0.3139630387319992, -2.057250478699117, -0.3844377999771361, -1.6729725074151482, -0.7755695718628953, -2.304758150369792, -0.10646676839117782, 1.0539671195363494, 2.308299601086263, -2.875744444825266, 1.5694991861937653, 0.6160052553326286, -0.7800669609888743, 0.3793211253809599, -2.981339843423522, 2.3355007428169188, -1.6713837601459358, -2.8104595050718983, -1.3627114905354485, -1.902380237966241, 1.459727523576155, -0.838102442698191, 1.213852925509685, -1.6810485981541428, 0.48636500008310124, 2.2787775927321627, -2.7079360039871827, -0.3304683263774193, 1.9450243735164419, 1.7173059435592375, 1.421004677606633, -1.152705189297653, -1.1656585509115145, -0.6702235731960962, 1.3079461866867712, -0.7940713403163056, 1.377928528330559, -1.8089460717875383, 1.1149752735139988, 1.0107232818791871, -1.0206721313062341], [0.20813199048076614, 0.14386819199301268, -1.1121870229659951, 0.45038029946329733, -0.3949085280426515, 2.1330044554958474, -1.3836060308220932, -2.1957398307023013, 0.011095665046100867, -0.7618654588157449, 3.0098161428796764, -0.5985657619910622, -1.301871464765581, -1.5502830611770382, -2.022942426569677, -1.7399167240976845, 0.7321504926969058, 1.6524564640480928, -0.7651571857409232, 0.693819369557497, -0.4020781101200263, 0.25150813998881894, 0.0063189058674517585, 0.8396668433179706, 1.3035380222646151, -0.29207698127204035, -3.022480065847812, -0.6086309469845258, 0.5643868539194168, 1.6339445972735926, -0.6582139498294807, -0.915443984799318, 0.9280640568585264, 1.3458974220240894, 0.17527519790337548, 0.7106992802949036, 0.5952475607131685, 1.6017923485597918, 0.8092159801194134, -0.47247998122572293, -1.7429338519452817, 0.5774775212695363, -0.3404444613442756, -0.17386296516464375, -2.626529725003156, 1.3038337762206966, -0.5221668196186948, -1.3595749752010111, -2.26778810042581, 0.9975779236902579, 0.5080096181721412, 0.024359681911376867, 1.4751117963398215, 0.3880138172607439, 2.878877178367177, -1.0025271358195207, -1.0022256394873605, 0.15411583840217247, 0.3221927889117563, 1.623718611074384, 0.9011366357889822, 1.522024202796464, -0.47737488970976394, -0.38039471018355553, 1.3125747715815592, -0.8284204990012392, -1.809483325674971, 1.3618376211704746, -1.2295261636406303, -0.6855441196414997, 0.9266493991245507, -0.9269642693269786, 1.091365273638546, -0.25101219176346307, 0.8239477442675076, 0.5786880245450876, -3.4225680279168955, -0.9104716662390289, 1.546287119271287, 1.0198503222925335], [0.4960765431100328, -1.5530090611612068, 1.6387586516847408, -0.9053029147864184, 0.9965332917428453, -0.8015334791185198, -2.745412755925336, 2.034604663631508, 0.42134773877547627, -0.6040652035512445, -0.14438894070335764, -2.3674751047386926, 0.3391249457291942, -0.8099052515386035, 0.3445347364132039, -3.907635665200052, -1.0612732549551729, 0.48573004973623474, 0.8863767902463024, -1.3734624297780345, 0.24746835509583318, -0.648110966567993, 1.410836611019502, 1.182464152323554, -1.004117451373846, 1.652801810273654, -3.6200965290473444, -0.5235501056517778, 1.7953090496368567, 1.758281622867049, -0.00535248069626193, 1.3761993939816353, -0.9566654381681315, 0.08745390792955873, 0.4493871136178989, -0.6791220415145282, -0.3040010323059899, 1.0619678168948279, 2.280183577197443, -0.27135032526920067, 1.4229707916038374, 1.4949690997674039, -0.34271117412810087, 0.004674868930724561, -0.7811185766963393, 1.6043205395451539, -0.5781003855460082, 0.7218264070961723, -1.0872772139330444, 1.4123857154453434, 3.1909409702438323, 0.10721792250073123, 0.37968911364317454, -0.13509729907064066, 1.7036443423712526, -2.2393401760500313, -0.9584750640737069, 0.26481139047370544, -1.5095139416088081, -1.9890646944068353, 1.9792388567920098, -0.7857050291824867, 1.2992651574053689, 1.1619139823940612, -1.5035599093352894, -2.543858084569108, -1.8997549999540013, -0.06394938995471121, 0.22822467761825702, -0.43249289437938443, -0.25912806016490275, 0.6475522882968034, 0.902083687650078, -0.9631762199089424, -0.3138384193203831, 0.9598093723195125, 0.008827309879322948, -1.9850137037979132, 1.34152110262982, 1.3466668545424882], [1.7270420998244553, 0.10595722656534406, 0.7138828789023057, 1.9973321711393273, -0.13219175528565058, -1.8086710630810623, 0.3347721358596397, 0.5499076211356155, 1.3358040942477813, 2.0476359431435096, 1.1871924553005553, 0.695242430843266, -0.7657038812968424, -0.622186615007314, -0.8174295380992647, -1.9919858844182228, 0.4595198643259744, 1.1121356346609304, 1.9561321048285059, 0.06962719381535223, -1.1468974993951202, -0.9407197223112199, 2.142016306034416, -0.624118271491735, -0.2953057921715647, -1.008467776256525, -0.14569520970349514, 1.9172952499250577, 1.1173458347340455, -0.1990700381783194, 0.7759435587434368, -1.7982025086975846, -1.8723642646266236, -1.0023440589511607, -0.4132111932702823, -3.278237900786309, 2.225778359218887, 1.1216251714296286, -1.1095855468392213, -0.7469177157950219, -0.6698110255411747, 0.8816769763968598, -0.4991655874478051, 0.3591556440450168, 0.33469413942461085, 1.283965956598823, -0.2158576306221283, -0.07938014909387014, 0.3352888014665716, 2.0385291536516204, -0.4611064315311448, -0.23274448268374942, 1.1239458927636423, -0.8808975670555201, 0.5176636079367788, -1.6178802850121927, -1.5657944378179856, 0.7329210738854521, -1.2947628679726912, -2.4795759755912665, -0.9544300164742373, -0.08577304409433535, 1.0709683969645423, -1.2984728259032468, 0.11084881344960137, -0.06723610949766493, -0.8236435095919015, 1.0434420436744345, -3.2986869203242875, 1.1843333061571464, -1.9055240639035278, 0.7728254282377292, -0.1674841163796277, -1.2575323380748533, -0.09703862722786828, -1.0449780634466321, 1.2699894861536873, -0.2584467655529154, 1.8229532457754494, -2.7660814637343423], [-0.011962651353212143, -0.07195527469558186, -0.044773636753419416, 0.49742405399903417, -1.359024626351845, 0.13922343457516134, -0.01843668486834898, -0.5240579642718555, -0.44580621790004415, 0.6838303102547559, -1.2926232800065043, -1.3506057929770579, 0.5352861710540582, -2.0021462370175587, 0.018118732059116894, 1.4030683360979572, -1.3813393170468848, 2.2874472801360723, -1.5690857540658156, -0.43356941094883106, 0.8438461763817582, -0.6569860253673848, 0.5512389019233835, 0.02311481396157009, -0.634042776043052, 0.25200240510704164, -0.464309423970099, -0.6046941604811958, -0.0510681470209262, 0.8131283064338078, 0.6516417771415365, 0.5863237893578012, 0.07618505855231919, 0.11324607979535828, -1.4821672355138586, 0.6620323254965902, 1.7479655522663693, -0.645195343910001, 0.42715984313271843, 0.7990570580904858, -1.4388772559385874, 0.6716034883365417, -0.25805153869998937, 0.43011071526587, 1.5108347268624407, -2.3716030716666174, 1.215806989497925, -0.8980246002767139, -0.9122279218087813, -0.27971796893399764, 1.6341843842486499, -2.431556051211404, 0.5920698942086785, -0.2608843297311806, 2.736454043757857, 0.43256790690494185, -0.15907507560321957, -0.0964198737682399, -0.1092113844609222, -1.4355955239216993, -0.629572626827548, -0.9679281277022742, 0.4921631613865991, 0.2900320029857252, 0.8677865465537246, 1.7297683932859969, 0.40949455465082074, -0.01080951183690423, 0.8682574481358799, -2.2211276253386045, -0.5690807587408447, 0.06717329212612157, 0.29476425383126564, 0.8114601506466614, -0.29044457881827707, 0.4600873094802357, -2.703719221103194, 3.3993833521279533, -1.1539084697605917, -0.9124570779907439], [0.6743779230231924, 0.05279269354180195, 0.3171480617891478, 0.3150844822749285, -0.34270149431376523, -1.1959633569250372, -1.0642767240407318, 1.943648425750355, 0.43868888399006, -1.7382120648330548, 0.01850062919094418, -0.4475950619589676, -0.7838746163917485, -0.5518907584112916, -1.223873946098332, -0.38967552502700925, -2.0209816462976384, -0.1828466457485455, 1.1893088888263696, 0.01897528532300841, -1.0572174923221123, 0.07064617309059751, -0.3159995377727636, 0.8122935689357687, 0.9797983692274874, 0.9080406577705509, 1.6177646814132243, 1.366353538077559, 0.7752510000487987, -0.710675357043718, -0.7280849937810306, -0.05916326042729581, 1.0556741092068427, -1.9783790243285018, -0.9686314768482513, -0.595936561614007, 0.5613313015407596, 2.2760380194235013, -1.2079627868000908, 2.9342382596778998, -0.3659990937658862, 1.1321473994629279, -0.4747600055959021, 0.5443730959614513, 0.40724299858448926, -0.8120751082692378, 0.2204425478203155, 0.2463854242456802, -0.5674364665542678, -1.1672123517995998, 0.17456428097084792, 1.931943306100741, 1.3521501393143078, 0.9519630951858316, 0.542098685187138, 0.8324616334003574, -0.4944365199640268, 0.8311184117802277, 0.20776540405840135, 0.17340723710856465, 0.37000365002923413, 0.2682883959394697, 0.7014739394804402, -0.5600905732239747, 0.3150417326739615, -0.5905815547390318, -1.7581612041695032, 1.4505983159439189, -0.26547550830742345, -0.8749742684674373, -0.8921496199010314, -0.14086516221197412, -0.7228144335970843, -2.4302819784582113, -0.6834645581738024, 2.0286371956194014, 0.1132911663438824, 0.8046526983873794, -2.2522933199752746, -2.068955803575424], [4.050140365701175, -0.11368003166288171, 0.048332344058318266, 0.767234544535921, 1.873365477283625, -0.06645963736402177, 1.0957759031444927, 0.622233564963282, 1.0254186067445479, 0.0262656651769157, 0.7924465216270704, 0.439895755349089, 1.8789207101141017, 1.4368912043007092, -1.084915645125608, -0.8432482087385559, -2.1511600104032182, -0.9234941720121265, -0.7580484783204182, -1.2976251797985592, -0.04303073252322587, -0.05818439813142359, 0.1638516392138969, 0.007897454081167345, 0.8304855150927415, -1.035168923821858, 0.05105914964347007, 0.0784820537662582, 0.09936340638449302, -0.7356402512864609, 1.5152142485540874, 1.353899029342443, 0.5765911867301566, -1.6614716380037886, -0.783801570083059, -0.20954462402019824, 0.15229864147608016, 0.22071342814311384, -1.297735334705297, 2.237515895246331, 1.2033917804641008, 0.5367306126615402, 0.0950142784841281, -0.6555893627995949, 1.7913657677092256, 1.4081227981752669, -1.057592754298911, -0.24082844550294435, 0.4286868778983024, -0.426005342694495, 1.6272623523744383, -2.6054723701954914, -1.0436134454671075, -0.8929209961395987, -0.8522306937467058, 0.42583451171237385, -0.34206033514641715, -1.7737700654604402, 0.09695138033235252, -1.4231564232272549, 1.7627341206210243, -0.9412414026874278, -1.0618427606148253, -0.27566745577925833, -2.4034367567517787, 0.15248927108209875, 0.8585731068989146, 0.5587977505772265, -0.7292519967911509, 0.29239195394696005, -0.48664235853952514, 0.652084585476064, -1.3349412762764044, -0.8647857677541322, 0.9658141066977417, -0.5553336093959877, 0.008609672876170649, 2.089791007193899, 0.5303715423292856, -2.077009472984911], [2.4040975096475017, -0.1964239082526982, -0.1659652526934052, -1.0573371567185363, 0.5236423929308691, -0.22835995864717232, -0.34462094762899975, 2.6652110180662696, -0.15979832381824619, 0.3992310908660693, -0.002023710496116196, -0.14247156021572033, 2.419842798302089, 0.6022202310252768, 0.25088733221583703, 2.833836598893504, -0.8621259713720111, 0.20046610572190252, -0.4815022997101589, -1.1253240751568163, 2.166534443310466, 1.2454281268128073, 1.205887998237139, 0.17391955050189165, 1.5374025799439757, -0.2735677655569369, -0.5272700127498687, 1.1593064260375288, -0.9795226392417706, -1.3953844255940802, -0.9511013337983377, 1.90868793618587, -0.8443078323114747, 0.30130597352189986, -1.4870987228411043, 1.2612108032057336, -1.7517157821439544, -2.6974714762914824, -1.0863519668759578, 0.830275725388976, 0.21614743610936082, -0.4946690222222001, 0.3132142423025687, -1.2381845584182596, 0.5720607937973754, 0.4998900395184996, 1.2895699245602392, -0.918555725789263, -2.0552836629089186, 0.3925282333093289, -0.8781751069033256, 1.0977738728962458, 0.9741934701270534, -0.20410268849090973, -2.1667394349295517, -2.644232221697466, 0.28849524330399007, -0.1977876328864605, -1.5310792222010827, 0.5228540319642219, 0.7083047433164366, -1.0932846444159194, -1.5164884745103384, 2.32753532361224, 1.5441264829515347, -0.30906738695393854, 1.0573071007097383, -0.8367768042746425, 1.413221792775464, -2.2422005952947104, 0.37944106175743053, -1.3627547878133184, 0.4796815684943417, 0.24769287271236756, 2.954542649210295, -1.3156620731548003, -0.5625790077033341, -0.9531279117678728, 0.5560146531086381, -0.6633301472754183], [1.5844579852599137, 0.2664411045142451, -3.1443176720668338, -0.5185128537589598, -0.49259218542414535, 1.1644919300666035, -2.7782336803330225, 1.708322039911934, 0.8342655990515977, -1.0903384679315726, 1.7327604988742624, -1.9854685419890286, -0.26070096548179716, -0.8405047774561661, 0.022135245744069863, -0.8578590997653367, -0.10844846077092445, -0.5069037834749553, -0.8268714009272893, -3.670071406039518, -0.4618652709425764, 0.2284495581366805, -2.0201548178131006, -0.07340121294757758, -1.10870909622526, -0.7886596186233741, -1.441278710981372, -1.9771521254756756, 0.1189401397695918, -0.5521270824849644, -2.0905411373810563, 1.9178954806978241, -1.5600528131116114, 0.8744598195060279, -0.4464939565670271, -0.045913885116214144, -0.07350741642428865, 1.079658017321555, 2.225472883416738, -1.6492023612791045, -0.40198336992507494, 2.6074010029543957, -1.5088517516550337, -0.46308159053047143, -0.8756157432983716, -0.4248218581748414, 0.8752607431750387, 3.0642540460808116, -0.04150552692192817, -0.002368747924697407, 1.0212506859325703, -1.3417999386959576, -0.25019526143329546, 0.9161614219663627, -3.2548720531828987, 0.8907192883535069, -0.4888045063547581, 0.2706400098147731, 1.459301807166552, -0.5317871884112568, -0.2886790136480563, 0.4525514843363659, 1.2107859966742565, -0.5303616943307753, 0.7455581801407604, 1.0103423502600648, -0.16905404192552337, -0.8082995810580141, -0.8245098553915492, 0.5985474549150098, 0.4610113633220321, -0.009883236938765382, 0.06818933862753077, 0.26095993364960085, 0.08089647604233167, 0.8032395487603168, -1.2933741982844293, 0.13438041134248443, -1.0217024782595536, -1.463436232093541], [3.766669588433763, -1.4801085490642636, -2.0391857787381507, 0.20196102717875067, 0.22624192517101263, -1.1055125528955825, -1.073453490462084, -1.576170989822732, 4.043115197548323, -2.262918075086863, -1.2814948716436418, -0.5221312825820255, 0.11083681909586637, -0.6677961050505316, 0.5572699767167255, 1.4288035514283308, 0.9469621231963694, 0.8292107976265727, 0.37776234366797107, 0.23403858785391868, -0.4516563159763311, -1.9652200981334293, -0.400748382002578, 1.4334545932754625, 2.5075337543372695, 1.2695185836250695, 0.13411829870908457, -0.5625681551706135, -1.5403214365777942, -0.7457974905524328, -2.855903567934493, 0.013735558582199476, 0.7854621017026243, 0.4663115810138662, 0.3189116315664316, 2.2305260122329673, 0.2544320546354146, -1.071171738646608, -2.8500097308575985, -1.0404090536885116, 4.088098447259683, 0.04389659083113287, 2.63078436995633, 0.11011470673952575, 0.5262025246895659, 0.4388123362783264, 0.23792494804611683, 1.2694654182607465, 0.1353330853178715, -0.620716775380405, 2.987375398670884, -1.0760171796778997, -1.0138345741441201, 0.4538694083373821, -1.4136592816470948, 0.27681520234271173, -1.303882830187461, -0.9483295298121135, -0.537432301761051, -0.46172033013936226, 0.39641425357439736, 2.4490638527705433, 0.9809142198287282, -0.34903156718218975, 1.3595242875295965, 3.51326418028135, -1.2247934197894665, -4.135305225996385, -0.34756971021973854, 2.0399972149750085, 2.8903726587834053, 0.44913153188989696, -2.10711697918941, 1.400333590840916, -0.542344243333589, 1.4597130990692408, 2.5429545977926136, 1.61178940032151, 1.1610918947409825, 0.2979926674023334], [-2.078504572720538, -0.21969450556498824, 0.7556330691119684, 1.6322163634978057, 0.478658303657264, 0.3867035314153215, 0.35311806559018866, 0.5524324630271242, 2.1646712557995436, -1.901361956489914, 2.2379445270821776, -0.9115146601142013, -1.9876311379800888, -0.47205544708754643, -0.16002100897008475, -3.2164246727391785, 1.2870316732248663, 1.308108858805705, -0.9161241718984126, -1.7861479750142628, -0.429120433170807, 1.8102293386813684, 0.44701451625581134, 0.8148199348786995, 1.9130373704742514, -0.9192714371692514, 0.07500725644235233, 1.2670623966663248, -0.10891336478763018, 3.0102190327791836, 2.0164570121630656, -1.7189279420849506, -1.2341931077570598, 3.7661493604586234, -0.12180529025252021, 1.2676088994972567, -0.7915580325833066, -1.544515427539804, -1.2383619148960028, 1.1442308581921476, -0.16402412502565106, -0.25495172581557846, 1.250124887287364, 2.2140867496321164, 3.238259118797272, 2.1234592986316145, -0.8440470997264254, -2.641625004543186, 0.7653484861565382, -0.4233265481707625, 2.8416580678170105, 0.5923383056268939, -1.8060335413236561, -1.5117561756906368, 0.5782834010879782, -0.3890779446039515, -1.4804301992461497, -0.28749923809377864, 0.42765311878029777, 4.065270549058454, -0.1410017124467394, -2.87265966236991, -0.6543952031470882, 0.6963744641315321, 1.2484424276290427, -0.005139590549869178, -1.3114260491229583, -0.41064828568062084, -0.553271740406777, -0.21830822356589563, 0.6971258426671202, 1.2520541006588917, -1.7779613021066158, 0.9179186465464519, 1.0900520091411527, -2.8581201646522993, -0.033428620734473, -2.6900503574240564, 2.2552203843615892, -0.4300003699383473], [-1.091816265628645, 0.4656849052808205, 4.51814371716629, -1.1818018686952145, 0.8205617654218909, 0.8268603989905636, 2.55915833062276, 0.2955036232854795, -0.15258949486349818, -0.6313965693644309, 0.728343112156502, -2.9792394868792305, 1.3311417061094697, 0.7820490068016331, 0.2823418674056816, -3.5823533518175545, -0.30630532293421103, -0.1373505937436361, 1.261110197209011, -1.8008167530618024, 1.4043211612940085, -1.620610989500706, -1.973254974423799, -0.8667844720826192, 1.9470787309571693, 1.001889303516389, -0.019620916261287067, -0.4021432950125847, -0.382935893810545, -0.8599780398948417, 1.95923177614667, -1.512067323074721, 4.463995202065434, 1.4179213581329657, -0.9367746835831656, 1.3363748277939003, -0.916990738055728, -2.85721508735072, 0.4691336622749412, 1.3182766308028657, -0.38119742025656483, 1.6979190124338257, 0.49781526448137187, 2.978809587662438, 1.3593694147149564, 0.9472532584230579, -0.007198133850469642, -0.2571645702742327, -0.13127600594495267, -1.1654233729854682, 3.704302605862213, 0.20770771875809976, -0.8954875257016354, 0.030308730026764583, 2.3809192927364604, 0.8194437673333317, 2.860400225677386, -0.15455433952500452, 1.4779515660649787, 2.0386543317905685, 0.32629073077505527, 0.6718470588805072, -1.0665183340351803, 0.21637060232195826, 4.16087773010337, -0.817413045458045, 0.1174043241145454, 3.936040950080102, 1.4945529411573495, 2.8312393717478064, -3.1637435965913014, 0.46510406033520957, -1.7780087598820133, -1.417180994797023, 0.832973775086119, -1.3251778722756076, -1.4226223291117468, 0.40112111753456364, 3.794848142816302, 1.093932425400586], [-0.31633379989692895, 0.09768280980621083, -0.8540430152333933, -1.9521558966190167, 0.43010393712862965, 2.200303373654943, 0.08514351639417353, -0.7113216685918753, 2.0200913112274987, 1.9837562293058613, -0.004550348363149356, -1.6345968244051636, -0.10195836480408457, 0.2834833155896317, -1.0151706475022353, -2.496600004230443, -3.461947885542932, 4.201285371809389, -0.8921333164989098, 2.3488999434922646, -0.10242457129713903, -0.7307324325784571, -0.714157777291451, 0.603004722931823, 0.36901756062135616, -0.5272508982317254, -1.006980061981281, -1.9986135035108232, -0.9461804902967612, -0.12349924209970364, 1.6061670777242627, 0.7230787428059803, -1.8643936673716708, 0.7514173785427739, -4.0430328486342315, -0.21339314770564732, -0.355294145122201, -1.6905361527339426, 1.3923296544768744, 0.6112013364383438, -0.311653861112203, 0.29472952241770267, 0.18568143478585447, -0.12039722887467175, 0.119400101814927, -0.929257682181221, 1.5224097597014148, -0.5017117763683842, 0.1467508357573162, 1.146390116472017, -0.5665945674920468, 1.6120743770885555, -1.8382785755135067, -1.4631248957402603, 0.2661443978755505, 0.2651037958167556, -0.015590545035453388, -0.5805407295848997, -1.9649491303156763, -1.6177931228014033, 0.37124161977107833, 5.7637069545923465, 0.056458797463411745, 0.06120521777616049, 1.9241747236545907, -1.4158442575430887, -0.26805956098439254, 0.6004122286971546, 0.8285919633019764, 2.803371070957558, -0.635879166181171, -2.392551927639732, 0.14980953732794663, 1.3433756485780237, -1.197485825461515, 0.9671422342479188, 4.200185382274134, -2.718836637557813, 2.205355802435127, -1.056715426025467], [0.8320598971524541, -0.8233990541073221, -1.4237318864934976, -2.5299512215661375, -2.8959101243808494, 0.07972874393703429, 0.13505009817229016, -1.5955052033142265, 2.55096028700847, -0.08093620706488645, -0.10324437520803406, -1.721428808756632, -3.072243010635773, -1.088186618722076, -0.3182040007837162, 1.6500674958833002, -2.1920955764183803, 5.249784812370802, 1.5992981168477962, 0.3925878368001974, 1.6562371150237392, -1.8062931052088387, -1.5415137125549647, -1.4135355412875235, -0.691438186331151, -0.727380133647467, -2.6621943749541805, 0.9429362870810888, -1.0019195098691251, 3.903322279159488, 1.1791791195305095, -2.833774088571365, -2.6223506529574085, -0.7914394116096747, 0.43120835465266655, -1.9013649573261002, -0.14520849074239203, 2.297564852610764, 1.4663841243874438, -0.2976684147139252, -0.5412140602633893, 0.6814211227861956, -0.005952072512024464, 0.3317756865960884, -1.7750644015114019, 0.30551194735479037, 1.611305735231734, -0.31025354560004464, -0.4510849862229147, 2.0276503747371213, 0.08032961336898814, -0.47715269748020656, 0.0861140443480106, -1.6584256477081332, 0.49281891078981616, -1.7354073016601672, 0.5682616462405289, -1.2175450537306796, -2.3766318567396394, -0.8266509203882173, 0.5545568461341791, 1.6792069397532408, 1.376591086468295, -3.159015123910837, -2.2095190466044095, -1.845238725701172, 1.193301013711521, 1.5934558656621531, 0.3611129426229593, -0.3044476680376077, -1.2989897279695735, 0.2959658810538278, 1.3375695639573586, 0.9586768109066846, -0.42786926333457037, 2.8162224787957557, 1.771332124196506, 1.1565056342764297, 2.8482367316354535, 1.2511861924312764], [1.0191594156025663, -0.29311465358698063, -0.1933304310539474, -1.9264173813214591, -1.2931371643041876, 1.194647455384419, -2.146202303306145, -0.5791710523553855, 0.6003462873696102, -1.654139103805154, 2.6692576802355723, -2.0227820726251298, 1.1091998131262937, -1.9395901844805572, -2.1094090259963996, -1.8511007263709272, 0.06202517873623294, -0.7994397853990639, -0.5821391036793291, -0.6815028746754712, 0.952928890907424, -0.556634415186189, -1.1170633894282516, 0.8460563506411898, -0.15678138164310698, -0.6195629264664766, -2.8423727826482543, 0.40199178119379186, -1.599396636056704, 2.445848409937447, 1.708172118119049, 2.9994229476437337, 1.6286878020000397, 2.606248513533953, -0.6064347898922726, 1.0476803634652736, 1.7184458976960837, 0.7608905934466544, -0.9155787643290487, 0.9741580376876833, 0.6210543337842436, 1.8169028782334258, -0.9764781107869543, 0.3279657299311291, 1.3402598604093379, 0.506720923174878, 0.6346829736307807, 0.02880650149157361, -1.7189318176831248, 1.1162667116601968, 0.12601440360422947, -2.8455958069198064, -0.9706222449670053, 0.4824641423350622, -0.14051332945840192, -1.2304019600794918, 0.1109835861406002, -0.7683786976680405, -1.5631618429003369, 0.7451365294047927, -0.44245795876335864, 1.5791187063902288, 1.0443724820277556, 2.242591150974849, 0.09838056410902188, -1.330318101401119, -1.1208633235621683, -0.5077639897774929, -0.24489028412632866, -2.2189351377432946, -0.24429219636657865, -1.0177667984369583, -0.731438640778292, 0.4574682285264286, 1.5456560517782147, -1.708993824040694, 2.494075467174037, -1.2743935321282303, 3.274478569540121, -1.6558740060134363], [-0.20189135684567816, 0.018901127535451145, 1.047583278275474, 0.4830188814463386, 1.7943903877683376, 1.164004488522404, -0.47334063227892165, 0.21117576195522592, 0.752088273204568, 1.628394215637714, 3.5450373324688766, -1.3401420344970398, 0.39538642461892887, -0.2948447829196936, -0.7034460408989232, -0.32554705697372494, -0.10598899585402378, -0.8955154392952517, -0.2975638185185982, -1.334741297066182, 0.9640321244327801, 1.889794104264047, 1.5570673632489285, -0.25510169533302374, 0.5431157992408859, 0.1956375270053707, -1.5029970522817733, 0.6011887039265295, 0.9472502165899348, -1.0507776988345399, 0.5151752999309723, -1.2875621376767976, 0.8293459624492644, -0.9617058830761361, -0.19278250276008718, -0.9534482461338104, 1.0041772791162573, 1.0605921590431553, -1.5824173735370735, 0.838917455464448, 0.7580861661520615, 1.1236301167720386, -0.9976269255545722, -1.8916056778985983, 0.16299652756439076, -0.010612734789478485, -1.4657079139438398, -0.48033415404679863, 0.5774200184946644, 0.10657681334563553, -0.8747467808924111, 0.5579982902881325, 0.004778775147924612, -0.6511016907114731, 1.6599081434877097, 1.9841146200315636, 0.03434944108959733, -0.5221842745406466, -1.3566519938742105, -1.115956968574474, -0.35335180115842585, -0.48509094940593783, -0.28965415821613383, -0.6775301172488006, 1.0299543077854454, -0.8236898482737727, 1.96602709950351, 0.4065548981356999, 0.02960877492883036, -2.1438200117970045, -1.8759084968066697, -0.11767138645756886, -0.1413671940531485, -0.13268340704517598, 1.824766250180165, 1.0930376591545172, 0.2410258810574599, 1.89728299228664, -0.9515419090048858, -0.14832273659768389], [1.178550163659411, 0.11542817234825548, -0.09019790900975796, 0.4649203121157082, -1.397607024956261, -0.7545428474253171, 0.2863861652492362, 0.37766811152257995, 0.29933341572068084, -1.359939989980604, 0.215202708491167, -0.004751129662021407, 1.2675731481551056, -0.7827049815377455, -0.8436593013244134, 1.636328758178117, 1.0833678258025552, 0.7220209066951745, 1.5548344856411915, 1.182298539622194, 0.44150730964505, 0.4287859569476459, -0.012281028560916805, 0.30542221766273403, 1.6821334914959105, 2.0624974600155355, 0.05087343020740265, -0.4563615215341258, 2.683801273536637, 1.7320331768361765, 2.076828933030122, -0.7024339866935837, -0.5948357251306821, 0.5840030763572838, 0.023453424696522396, -0.07568621035967278, 0.26169747986733133, 0.4291566143372161, 0.8081587777683474, -0.29420944240219365, -0.8664879348678711, 1.3917797123124966, 1.0070116246526484, 1.6759277005127977, -1.1340475374630932, -1.0036234822128804, -1.6209122812238896, 0.31060455645920465, -1.3559454480027688, -1.9349130187414116, -0.958032235725255, -0.325756081120272, 1.0335292728892773, 0.5998359584853772, 0.09926827953094694, 0.22069235052364988, 1.5787978819663746, 0.18920463707805774, -0.11125558974685366, -0.9751307690861779, 0.517836121605609, -0.21523445368588415, 1.5132687324352974, -1.3383472526600573, -0.7865232077174323, -1.4796351942068895, 3.2094214170032376, -1.375299777792363, -1.436169600402451, 0.5653987731719115, 0.7316298444301422, -0.2374986416192251, -0.24122434713188592, -1.5449227368662024, 0.5628550528098701, -0.48464301252501174, -2.0859957947464665, -0.2566959965706198, 1.1345758658403011, -1.7565339556968764], [-1.3203435561292998, -1.5385788158111742, 0.25657086857561545, -1.7662416966987107, 0.26169210553568084, 0.6092369801393351, -0.8027650559976592, 0.30880498230910947, 0.1315311593707027, -0.8910845469585128, -0.7945506333735246, -0.8103192659799051, 1.0087851894102566, -1.1622702339988555, -0.10824599568460597, 0.330278767689752, 1.4819487571235235, -0.4390586116566594, 0.21332692786940785, 0.023290769525090616, -0.7368403975173123, -1.4647711211248478, 1.5844878944550953, -0.5789701803040259, -2.3673988806307813, -0.14786132556887097, -1.1705836365183915, 1.3375477836054444, 0.42129798922817224, 0.41232210281030507, 1.334577740596076, 0.4513382508072538, -0.0545875421900386, -0.12622276228164406, 1.3850368877268395, 0.0028403735037296836, 1.5270597385638278, -0.7787509764698893, -0.8140685042515785, 0.5501832601095173, -0.9127004955756499, -0.0949644685860854, 0.6216388031120109, -1.3057774812232812, 0.8028594251012822, -0.8121407964442985, -0.05977345662089112, 1.598325265734177, 1.9848503645167601, -1.7124727079214819, -0.7547999541170186, -0.7667034194696615, -2.4840111947853303, 0.13484587322746572, 0.9499779823239863, -0.5542059857486847, -0.24067712854812515, -0.5915320132873336, -0.6846663963225832, 0.6584178845726409, 3.190856133691681, 1.027380215208873, -2.0547855971060347, -0.09840010526972366, 1.377290581402466, -1.0159731821913331, 1.0067237363640587, -0.4453042254340298, 1.2497005261824259, 0.963971362486518, 0.37872609306689387, 0.17862606012676088, -1.8688061694582825, 1.2703151467064342, -0.4667131586015038, 0.4191175997506795, -0.42615859107511567, 0.7154354755649761, -1.0447487879973196, 0.507050328006113], [3.7487651391745325, 0.3826801744330943, 0.07197978350142908, 0.15078938719445514, 2.0924883201196067, 0.7066058499646677, 0.43885874305507966, -0.4382102562188417, 0.20238375612513784, 1.0453827530573396, 0.16909632048596415, 0.9455760810186632, 0.8294853443199461, 1.1701310861797702, -0.28498617645913443, 1.2703753258661283, 0.32000883010360154, -1.3206071126321968, 1.5002842674351424, -0.6613537313722893, 1.1835034045028603, 2.0292173477360627, -0.20681286903207524, 0.6070939903061014, -0.18681895866137302, -0.9447639274377022, 1.9597372330497973, -0.46733393644934373, 0.9359386452398186, 0.5175316528602478, 0.4639761001799743, 2.2940900805037283, -0.8853251305826674, 0.6891916302966156, 1.8321649541108531, -0.07904133466739514, 0.6358315703137095, -0.2388517449592366, -0.22222070684356943, -0.4785223638249753, 0.5409864620026184, -0.5624343522480236, 1.0254510911340775, -0.3985222113329164, -0.7683417767689529, 0.8930337942533985, 1.2913193044269633, 0.21741611568631858, 0.030585773086506757, -1.0335425608405542, 0.08757484033062832, -1.7122318967912886, 0.041692525354616365, 0.6749765155570409, -0.28714436039918273, -1.2868401426173588, -0.8038408976617285, 0.9507412872330203, -1.0885871129640587, -0.03365844793031921, 0.02203588679410086, 0.40686131576309864, -0.5782921747708863, -0.6648044686299546, -0.5632359797765557, 0.47570264832285747, -1.1764823663899688, 0.8981681559188842, 1.5800481129539654, 0.037678275026126584, -0.04070114391091065, -0.7491326583265792, -0.1319643137922035, -2.193149415422874, 1.6491157602114952, 0.23147504831258714, -1.5941083757629508, -0.04145034056024671, -1.8848020051796524, -1.6969779733224581], [2.1560416318826197, 1.3856489374754946, -1.0228650370131256, -0.5439236747219356, 3.4403036161543277, -0.8525513832304934, -0.8762330001763651, -2.3832391375877933, 1.346094677881802, -0.06571812384897179, -0.39820552845964613, 0.9465213174673731, 1.3473613815271328, -1.729589522642225, -0.4406702873735086, 0.7515214839862249, -0.7225877670951317, 2.1239672285857734, 1.2104793797225353, 0.1130011326809889, 1.6998600278282623, 3.442473665222573, -0.6412352441692405, -1.5802176818594365, 1.6614248999661814, -2.9257731662981823, 0.17177868389883572, 1.2123002251984936, -2.199612767255361, -0.4393711688926674, -0.7662273339715001, 1.4751882669888505, -3.057073268496667, 2.444558384707177, 0.9070389127297473, -3.2050966628465, -0.23019319746036496, 0.2744324418711519, 0.4969725092276085, 0.09518437588439853, 1.0658886109584413, -1.1757471962553283, -1.301310443871551, -1.222484109160201, -3.337968396931865, 0.6460466542008071, 1.652081360232318, 1.33701688482505, -0.05348618065201715, -3.644504077691782, -0.5399241646161047, -1.9069904728497231, 2.056749127974292, 1.6574432414450522, -2.569471552565413, -0.7720565512406672, -0.24330531066135033, 3.368611347541644, -1.2165676844484914, -1.0531102750162307, 0.2964508333986506, -2.242147825036582, -1.0434422102180796, 1.377784844794421, -0.9211557298135232, 1.175120059168554, 1.5084838852956504, -0.6123227791591627, 2.253082536320822, 2.045477014689864, 1.4599087453998478, -3.064968336456493, -0.2901647203398134, -0.35904374570075964, 1.9888753535388894, 2.0016336698746784, 0.911560524830652, -2.98370227236035, 0.7412929997860718, -0.6021938000084648], [2.270709433642392, -0.9861891652897946, -1.287370147296982, 0.20493324875371552, 1.4720195360798247, -0.5215363644848032, -1.9011714357475995, 1.586585869293796, -0.657423091012272, -0.5711081098147158, 0.5243379961971553, 0.32574111995241817, 1.0508498444711791, 0.8200772737355874, 1.0662439272596635, 2.4503920272984847, -1.0382257505116668, 1.5058244427084166, -1.1462403054128172, -1.1087103635842666, 1.335880143658436, 0.9253846701997498, -0.48155165448857307, -1.8911386117450604, 1.9893827852222172, -2.0619959510159416, -1.31181642120929, -1.3832676190328352, -0.8401358109342556, 0.8941815472360987, -3.1942751483285132, 4.135816556870946, 0.23198440633404452, -0.08196469067796353, -2.86759274246569, 1.0050413655214419, -0.7057255506308985, 1.0853512200053093, 1.2562581471580343, -1.3536779360823774, -1.2894731698871778, -0.026981334220027395, -0.07282714130511252, -0.5286399736093271, 1.6417059619722492, -0.18269568674441605, 0.2682888239153033, -0.09412690732603446, 1.7523875854937287, 1.0740891118630251, -0.18421619053913962, -0.5857942511536353, 2.4258438040049937, 2.244129161612017, -0.4433886798561408, -2.4159400543177374, -0.7199948303727804, 1.495646484559862, -0.946856076231146, 0.005693237659557244, -0.4322772537801092, -0.26206756285981786, -3.1886922403939577, 0.04117458923171817, -0.46371080169041046, 1.4635853337561164, -0.5506934638308418, -2.51310961896424, -0.5164443886508202, -0.1947463035912834, 0.42892731716098187, 0.6626863577930031, 1.4811779684123023, 0.014321804423117614, -0.6472533647181158, -0.6252433660429011, -1.2712180037872516, -1.9556051814540991, -0.3095615280013121, 1.1972613297644217], [-0.17228688746197385, -1.003358602959954, 1.2309807165457916, -0.5157005198304356, 0.34864559550221136, -1.6772128900396182, 0.06692375661854566, 1.0733940173796936, 0.5140620395319297, -1.2389765706200415, 0.11716611708863317, 1.449815348533791, 1.130058643262755, 0.9278401305381697, 0.1391670141099539, -0.3380921286325375, -2.3072638411812743, 1.6281932857570602, -1.9122590057606799, 0.9457611268151354, 0.7953698001956733, 0.22753808822067512, 1.3002903923803364, -0.9649431293947766, 1.0036334666029527, 0.2792071688060856, -0.211658764695905, -0.7881325847957644, -1.085829469620499, -0.8960629186112629, -2.109560620365107, 1.3842763739397277, 0.9875653556494983, -1.0773354248466487, 0.3852766368419644, 4.0643221357451305, 0.4182257527619428, -0.6626625656215176, 0.6171360023107324, -0.8288278063782114, 0.4825115316978917, -0.6468360430233654, 0.6978779508981318, 0.330540445454556, 2.362628804038291, -0.2563102050420554, -0.8727057090879541, 0.18201759716218296, -1.0423446602024278, 4.935675418350253, 0.818445262383143, -1.3636164175612888, 0.06831301213324925, 0.6767614172183329, -2.924984080578996, 0.6498725769989231, 1.8113667281525265, 1.3053280019550961, 2.3687058018289116, 0.1986943223214439, 1.3341293672335417, -0.2345090687137628, -1.4237129207118033, -0.7550453279128779, 2.229565218165968, 3.2141066359158086, 0.05096171724126473, -0.538341350184422, 0.3343956824503603, -0.19546222286323447, 0.5409841176187421, -1.08205878503481, 0.3961107257794158, -0.9465666158078172, 0.022278872799154633, 1.6195513327568707, -0.07009307330174999, 4.006283452815091, 1.7914842710002743, 1.9216436022708638], [-3.281013347426819, -0.6693848531612089, 0.8586823892457283, -2.0952393581888336, -0.3660764577627868, -0.4679827529735788, 0.490165661288506, 0.24607578566863123, 4.71519453783119, -2.5159835168999654, 1.3802371018905963, -1.5788104350416299, 1.4410653774943953, 1.8408545899242712, -1.654204937843004, -2.8670817161250555, -1.7211923602585095, -3.4526887952274747, -1.7510968837509366, -2.7133787843017108, -0.3924617983902164, -0.46154184666839093, -0.7874936010159342, 2.2022785983481223, 0.6105296175633355, -0.453078345081441, 0.645410308140372, -2.7648127865917065, -0.5277392452742489, 2.038755026108031, 0.12283952523910098, 1.4970650976229007, -0.10701512918621309, -0.3033263550036247, 1.9347700513099697, 2.795072999756481, 0.2157922795929417, -1.6879937079846172, -2.3144035632099156, -0.08959542128078045, -2.975214989089853, -0.9141130788973709, -3.2955346499865668, -0.7492370054832959, 1.0651952151428261, 1.9369049586932987, -0.8801066882609175, -1.5649280693773486, -1.670409282052845, 0.09985170013852417, -1.2092809940837894, 0.4778637245660441, -1.2024286682359102, -1.4516615815469156, -0.378890451446753, -2.0480220351842315, 0.6772417752611347, -2.2842297588954956, -0.743957737104511, 2.291354289377613, 1.5098080862067982, 0.1880534550590562, 2.111621110269664, -0.410134681257326, -1.2041211491420447, -1.4676237313581575, -4.7452880281294165, -1.598481383306876, 0.7836705296592476, 1.5615278701414974, -3.8683874022951614, 0.01026287860723684, 0.14042096780623817, 1.0716555466967388, 2.479518730293212, 2.3783533053230563, -3.1968872921336926, 3.37102098505857, -2.874419352029708, 0.4062065860094683], [-0.85562493041892, -0.5989206626063602, 0.40175170665847126, -4.728749521654296, 0.6587583098297414, 0.2514237930551255, 2.505331686635565, -2.2881441016566306, -1.4517689373554867, 3.077027764676228, -0.4402631948775039, -0.7311851324454807, 2.4501170966917187, 0.9392109985864204, -0.5555315733867663, -0.2582433590512489, -1.7579633166323498, -1.8182739756119113, -1.0343866952870113, -0.3701369424406752, -0.7048131076339816, -2.50336199704998, 0.35722662536705485, -1.3271355984448021, -0.126411681111701, 0.7790736556410711, -0.19839699000522976, -0.3664286974405129, -1.4266997399505914, 0.1512335252774561, -4.073183620246485, -1.0232526971020957, 1.4494650299025802, -1.2156733604107788, 2.071487567429439, 1.1860991326642498, -1.9882359898464772, 0.26572625160606334, -0.6988970205744593, 1.107735063546553, 3.0035096605393727, 0.18542842666458575, -1.532362097315347, 1.7152095914341121, 1.607197010987688, -0.9625663471757658, 0.18549117349087138, 1.8466160588137652, 2.1988058630753167, 2.5137382791897758, -2.87468136251493, -0.9048161307483827, 0.9374058222387206, -0.6979258743380101, 0.9832688232431378, 2.4337050893468164, 2.5108267774147124, 0.4974938564667281, -2.7443228917257083, 0.1030806173789656, 0.2862883920306181, -1.956874338076489, -1.0649948841529011, -0.5331392807044844, 1.3566008336972923, 1.295096899997162, -1.4175212621311986, -0.3079001218339652, -0.15109034313251554, 0.24916628414715, -1.0890704279564603, -1.8754948828457554, 0.2137785798822153, -1.9438689468442716, -0.743557103391645, 0.7974888456593494, -1.3033876185277342, 1.0415782069060584, -1.17292218573549, 1.793141742085551], [0.08462855235809157, 0.3054300858516005, 0.767806741698869, -2.942599473987605, 1.6822427917670735, 2.104518362478721, -1.316168572942515, 0.3249099083227678, 0.7479313274584489, 1.6781239697545356, -2.684960969688204, -2.989306401648825, 2.0572107450331836, 0.34983753659755334, 1.0004940855761808, 1.9531394071383383, -1.9444964612765863, 1.2493511520202043, -2.1580007840378412, -1.8492403569153062, -0.14940473583808964, -0.10718875636772503, 2.2540273953413776, 1.775461317732406, -0.4047800736820022, 0.012221260758297386, 0.25623085573719456, -0.3563648960134186, -3.2513973275914334, 0.7946714733285104, -0.30585896647947247, 0.3384991793425262, 1.3772439311922067, -2.825627580764446, 1.213545163614258, 0.10251828348332077, 2.2429765023037684, 2.587796363180565, 0.5200730351820049, -0.8396289093854229, 2.422046355027158, -0.5358449857929434, -3.1410985073110904, 0.3404476460703358, -0.7958797793436729, -0.9490533894448142, 1.4971006837943794, 1.351152613151042, -0.18563032408460897, 1.6279465371447954, -3.030484751598088, -1.0338209011838015, -0.2170976518922754, 0.19705654001765516, 2.5701484889274973, 1.1596656302427155, 0.9357034847254763, -1.6473354489424172, -0.5061332288205684, -1.931637037376593, -1.082880134657307, 1.1804365015886837, 0.19050823483433418, -0.1878985103322709, 2.601188310607914, 0.28211142339631134, 0.5689249406840311, -0.8470436654514683, -1.3978427136046405, 3.025827842934952, 0.33632908286211993, 0.007206907771225987, 0.1038089253899462, -0.766196632272103, -1.0022267345780478, 2.4970504466552104, 1.6936358775140925, 2.1234965176606537, 1.5685164331891217, 0.8858774600507837], [0.4096223075150492, 0.661653004633279, -0.2959782994020077, 1.020895870282287, -0.477917035925779, 3.50698595632027, -1.6911417168389273, -3.2061648481197453, -0.2635607269577388, -0.011417782917581694, 0.7503477100538973, -2.0454742209113213, 0.49081290494422697, -0.06926588355250377, 0.36055554500258075, 2.705237645891898, 0.5965318669430497, 3.843372565035622, 1.3411655325759482, -0.27433655399998597, 0.9413599306606439, -0.8129178005200998, -0.40115612506348486, -1.7482083394549075, -0.17359274299029473, -2.5745129069234642, 0.8162364769747111, -0.07629406168511961, 1.3185788087195849, 1.2972579836009073, -0.3896568367428627, -1.2822621874492681, 1.3761013905780823, 1.4217200731654853, -4.049595108998454, -0.17995009611158364, -0.3531190485796542, 0.6551541769075458, 0.13441663047873392, -0.8559384353368183, 0.20043564500210426, -2.435331052478699, 3.402496517814064, 2.386076201383225, -2.4757246106172097, 2.6478311128545386, -1.0383457264443265, 0.574038506097193, 0.06041049924691918, 1.605740426892551, -2.801799085278814, 0.3036366148385634, -6.126970467066272, 0.28053497723304943, 0.6952195806773541, -1.8150637753036627, 2.1328256309017966, 0.7440657078467956, 1.0530188259657156, -0.8058092284479235, -0.035456055686739055, 2.574978405804655, -2.2626082411163084, 0.7870816176666979, -0.36633516023700086, -1.2027234142368781, 1.0847633543979576, -1.9438307420213115, -1.743621665914525, -3.1730677246047985, 1.4132192580225877, -0.36051509932219916, -0.4334305490836718, -0.7120333294322445, -2.5103698327096393, 2.0286933866481567, 1.902662914082918, -0.9347759615826423, 3.992453628376116, -0.5997588279900659], [1.4916529190881733, 0.6458256785712327, -0.10300410712150956, 0.9058481041942139, 0.46755015331957944, 1.6192758244561933, -2.5161899105497008, -0.07391671173217484, -2.3121924805008796, 2.2661827424268117, -0.16610534472023505, -2.1646430243462853, -0.5838331579171134, -1.1339097068113106, 0.04753326873996193, 0.7604573168455083, 0.39868301862263816, 3.2807592681349775, -0.26600196328408393, 0.7464593782359812, -0.3597181489702623, 0.7832073836134422, -0.6083278453549487, -1.3772741097479113, 0.7628855504911523, -0.6728572551823389, -0.24917304117676226, -1.2923296209373838, 1.5253434796937866, 0.4966071377201368, 0.4734781858252211, 2.4495624393520967, -0.22539013800898275, -0.17436144843991122, -1.9968142274597873, -2.2929783433962245, -1.3361857570140714, -1.1250089344684513, -0.28174763021633525, 2.2370681729048916, -0.8086005828897143, 0.8051850087226798, 1.1819383650171504, -0.6419211678241638, 0.4544079583333765, 0.7727758847184595, -0.1281652231972028, -0.9264526590989849, -2.7323122383307186, -0.08039503527787571, -0.5467816965817446, -0.042190472861416264, -1.8680171253869735, 4.000167967945695, 1.88752599836036, -3.563608930335246, 0.7347775992503957, 0.9243523019374016, -0.22298574279763858, 1.6301086241570706, 1.1727136476720639, -0.5529956819910853, 2.64599258033243, 1.8175340563843274, -0.036314137029894014, -1.6774445601141938, 1.4279559093606806, -0.9622948376216357, -0.77204717607049, -3.3337063583516113, -0.4745076705740229, -0.9803642998047772, -0.801041078202358, 2.267220545437035, 1.1397583930897586, -0.07958897859514659, 0.8611396413550005, -0.5324547643477304, -0.34006840346308587, -0.37457942889633816], [2.490310459427761, 1.680896935379668, -0.5825153178811664, 1.5306923556699368, 0.4704098909424879, -0.40902458034330297, 1.0604474223833424, -1.2645896046712126, 0.08183644211101337, -1.1941020164701817, 1.0060428340137406, -1.078842372917795, -0.28090254549235055, -0.4466868825832414, -0.3963367954508205, -0.27735608542484186, 0.03422303226958403, -0.9781393980037733, -1.600815660448047, -0.6208252161130601, 1.0852548113521643, 0.8966585883119215, -0.7664421021893716, -0.33458803184256247, 0.1735124165318873, -0.9545778612237079, 1.839356875085941, 1.7065061228057274, -0.11277552508015806, 0.488084640966522, 0.7239421986086724, -0.0807769069280249, -0.5767334698890426, -1.2924640017260263, 0.11545787020794063, 1.5671281466478053, 0.33466683234893096, -1.9548439025860231, 0.8178614982367944, 0.6227915164538392, 0.029807779407953757, 1.251396520679446, 0.7144367290227626, -1.0258104723309125, -0.12872414126732137, 0.27751184628597947, 1.4426540802905032, 1.8391538049333322, -2.2711799762971334, -0.9644657543844584, -0.25203541078462816, -0.38834926498696865, -1.7465695328901643, -0.028738409600872206, 0.8207260795126953, -1.2927941294066538, -0.9285374002377876, -1.0696948265696895, -0.6747842680687459, 0.583252508196227, -2.2116589082784346, -0.28548421842511135, -1.4010881311421564, -0.47443949324256207, -0.3600533219543195, -0.09964426626367787, 2.8915848449377104, -1.0231656710048331, -2.1347730971885643, -1.3670809865830624, -0.8294822402729715, 0.26378650770697176, -2.2666804559326827, -0.027429906345195054, -2.718175620036568, 0.25966963214034167, -1.063289482488003, -0.34221102959379973, -1.9643737163746864, -2.8581445140952404], [0.971844832978042, -0.03944116639553659, -0.509671785438458, -0.9929056077029137, 0.9815799137835649, -1.4779138084346368, 1.4140648557411435, -0.34145503297321844, -1.3832923699589654, -0.42648385718756804, 0.04065577247017327, 0.3880932855996082, 0.482460586347861, 0.2696720421395873, 0.11074305098838405, 1.0625612659326116, 0.2423918465426091, 0.9403473868798312, -0.4498260789586432, -0.4028369101538858, -0.609889751818129, 1.1469875312682967, -0.35285145715858346, -0.4594760019790787, -1.0134475367625613, -0.06572107762695797, -0.3532742705456624, 0.02251957682966154, 1.1615623550374503, 0.2134659641569804, 2.0185143671907135, 0.8826191058095073, 0.07192240089204698, -0.7078136757874521, -0.681676325652963, 1.1595406548919391, -0.7669465691067453, 0.07892918577430906, 0.019834790325887634, 1.2500545617504153, -1.5315130415725835, 0.8021043759637022, -1.1123198920443231, -0.3455500254975838, -1.7615909132724312, -2.658456503339061, 1.8872942124921819, 0.8546835511446781, 0.9081778126396906, -1.0130530680718322, -1.635449281130682, 0.3249083075102135, 0.0831882491424106, -0.36914416662007554, -0.6120844477149449, 2.067332367954219, 0.37370234895454296, -0.06759311681008975, 2.161885272622554, 1.6956668323064126, -0.9597551842075068, 2.192529805038179, -0.7632249390048519, 1.180609621272808, 1.1005868658863478, 0.474794849815768, 1.0980940621736888, -0.08114577207305193, 1.4274733620811815, -2.480140822236462, 1.0971610867896515, -0.9971659653268292, -1.0749195084225514, 1.2791523073470956, -0.6484937457100173, 0.28433139433607324, -0.8183963466376198, 1.2716368861840488, 0.8597701815770471, -0.8147243414503575], [0.036436952006086584, 2.286052425165371, -0.24916479935385966, -0.22330864853581603, -0.32262726901901057, -0.15185754541957008, 0.8248293621553567, -0.5470114296829429, -1.302239824477952, -0.14937164652421608, 0.6403652416779237, -0.7699019558963888, 0.4091704714152155, -0.7466188081625368, -0.03899218102333192, 0.7399690940929423, -0.4235622286276935, 0.05993070258754897, -0.5487899296726733, -1.0452461192638332, 0.04548237395169612, 0.7241654132373209, 0.4462717617112065, -0.40194236085633794, -0.642127271678389, -2.2616993593130847, -1.5751357306637916, 0.5755797375510617, 2.1170956272289594, -1.2134771814710044, 0.7276496657636503, -0.0794814354167984, 1.3854458253191424, 0.20519828634233758, -0.011907155566099217, 2.599912828467405, 1.6816170840365183, 2.0765540073093356, 0.020430211169193996, 0.23164632001202995, -0.20761771318776961, 0.48264976516077773, 0.9122916265331765, -0.613346772331807, 0.517610980119648, -0.07189296737424077, 0.8371081264594388, -0.7109450660826059, 0.4680290322398116, -1.247976707271154, 0.2536163234275877, -2.3340518490130253, -0.2806625084508873, 1.3280443017864672, 0.9644504106682915, 1.8553234339838853, -2.233070656461511, 0.502677434726354, 0.8210295625920143, 0.6404965019500102, -1.2029647459208546, 0.7668551823538874, -1.6614420834919392, 0.5589989095460928, 