{"hidden_layer1": {"weights": [[0.4966236968166133, -0.90115848901494, -0.26226442591848026, 1.6744204318242424, -0.4273438243192638, 2.572929122002448, 2.9048951633661093, 0.7838619663758905, 2.68274539351612, -1.7198203046870115, -0.38629023370394433, 0.1377076881922023, 0.08370879969971322, 0.20474273665728066, 2.9052562989562225, 2.652299140764674, -1.9631869222881306, -0.028157776465577922, -0.3186001886597713, -0.47983732210717794, 2.438828449548011, -1.7486494786760693, 2.5510740075586638, 0.5522726008192158, -1.8649912400846915, -2.878864996691011, -1.7616320501000646, 1.1522876511483142, -4.579508238958292, -0.4250712280643775, 1.1421385497517438, 1.573823952048805, -1.9384860318659822, -2.056964385552918, -1.0948431187256031, -1.0182712395867453, 0.4389996566310685, 1.0445720618595822, -0.5770466029157966, -1.082817198950407, -0.11317519960492554, 2.9981772897272627, -1.4520578571491227, 0.6867239441535292, 0.6656164744655256, -0.21689067301860424, -1.9279668809847492, 0.5132388002882106, -2.6197319465905156, 2.718985065834355, -1.235043996160467, 0.28224099283406595, 3.5085202007864247, 0.2595361974443416, 0.20420199894123245, 2.024418823889196, 3.2141786524992426, 1.2276710521201957, 0.5356115144501996, 0.5758682899170409, 1.3380606514710354, -0.9324617120560561, 2.2716893807584375, 1.3390413985445695, 1.0581232194258057, 0.17392790108622802, 0.46117006670664135, -1.7398814315363609, 1.4517854934386487, 1.0854734484864716, 0.05819326955945579, -1.7714404323174902, -2.2610467844132156, -1.171618839280139, 0.02001643423038164, -0.24963116503013794, 0.4008216305867566, 0.4749253554297063, 0.973861023230609, -0.1292574106041126, 1.3899326475694391, 1.0924118022181502, 1.8464379942235865, 2.174872265105167, 7.926981472385796e-05, -5.5057721525495, -3.8898327830135258, -0.7376244828953776, 0.43186487902547616, 0.25797568545564425, 1.4750003467615853, 0.6700477866596185, 0.5963997507326575, -0.707303973508462, 1.2650406511088241, 2.4158058262460034, 1.661837110555806, 0.18980286723823575, -1.5478600871434414, 0.7264420346633532, 0.018593082452401346, -0.16314279576440457, -1.402834011796239, -0.22938802512341144, -1.0456945341540245, 0.4580496221767645, -2.571880591415837, -0.5011485054686515, -0.30369391293529074, 3.2385961791064726, -5.413347136716056, 1.8953448749246955, 0.6445626534657081, 2.0188151389787445, 2.079886311467391, 1.2279668451686652, -0.5127073283438319, -0.45623661827157913, 1.6434339006676928, 2.3821875230197547], [2.8238405135770805, 0.1570069808258319, 0.19327239890992218, 1.9152167209289763, -0.5919502899542232, 2.6345896329813265, -0.10002325319836007, -1.8271693403659626, 3.1440121135838046, -2.774501360581466, 0.41062259447840055, 0.5246584261883201, 0.8671871954603627, -1.4606263706274631, -0.06741563225758142, 0.7818644357661063, -0.9494637028897395, 0.03701865785137857, 0.5059858510470084, 4.067337633396401, 0.8025001927255485, -5.834819810206294, -1.454330623135888, 0.39097914265491807, 1.3325390700394815, 1.1350189699360584, -0.590499074030373, 0.88842651889316, -0.43623576709748796, 1.2509933459975457, 2.2817011933656683, -0.7609473710431359, -2.095946323922785, -3.4868034219311697, -1.0474738259744378, -0.5922048419163441, 0.4024436220027205, -0.7220622607006879, -1.5205685463354615, 0.3145383547351217, 0.8798018712634376, -0.015042847780562797, 0.5844369311165436, 3.01319735824761, 1.6988281610317493, 0.79393456523449, -1.813626845980727, 1.333685691863678, 3.5562741904815325, 0.1152359340543228, 0.7442679408075431, 0.9793825567072345, 1.4601485822108222, -1.1287360655383742, -0.005746194238689035, -3.0604867488016403, 0.5714016226001768, 1.5413499669024895, 0.6613542579587051, 6.236824348977247, -0.03461601187756825, -1.707461508061328, 1.442100653694565, -0.7829902214821952, -0.804865744913537, 1.0605399070740678, 2.109896385653742, -1.390041070795327, 0.585174312329203, 1.281396113091407, 1.9944338392726209, 0.2748982610183941, 1.4744822558648336, 0.06373401860986357, -0.9673342685668647, -0.30792964328167544, 0.8187329084723305, 0.9747004847492481, -1.5570076751184705, -0.46364308732601567, 0.021836675930712108, 2.5653667480692297, 1.309350027891227, 1.3575377258337515, -0.15180596648320044, -2.223051979087701, -0.07741534642837433, -0.5367028510201822, 1.998736759606754, 1.3762227217406309, -1.983934588421949, -0.949263226181288, 0.1228449906372653, 1.3660155581956304, -0.8726175887621126, 0.067835601860413, -2.4075585802473984, -5.014616062640894, -2.9495782657373955, 0.0963552078505537, -0.6576021871326668, 1.2500630568241669, -0.46825803038999425, -1.1832131999758595, -0.6534790354648877, 3.501952307609104, 3.5530882163423487, 0.08787018850840278, 0.1286145369420165, -0.6707519832315072, 2.239102019436427, -0.9600982149876025, -3.1671990060812405, 4.222204901587401, 1.1061602020206305, 1.7690114212794192, 2.6247350787386616, -0.8951122090317438, -1.1707581563867517, 0.6283347532093134], [0.8677402536893354, -0.4771074421135322, 1.4951177757779355, 0.5900697162886018, -0.8403975790583166, 0.8986647618259898, -0.16957866261002966, -0.046161292223011206, 1.1108685672008978, -1.711000197298989, -0.4780904307352823, 1.9473826889680477, -3.1403724372763033, -3.343464469949612, 0.7948590185815572, 1.1287216980895856, 2.9982049305227227, 0.22067494111098715, 0.3313732386523656, 0.21631684720558372, 0.6645528127852317, -1.4017812492048751, -1.1722504912547498, 0.327950649508015, 0.14116119328136167, -4.9383659363200225, -0.05198492724223945, -0.24744318376498972, -1.8134460011755553, 0.18638344549247698, 2.4520130528877147, 0.9760879821218694, -0.8468832040103406, 0.20309932521652632, 1.3823440663124118, 5.82821918747484, 0.5663341326889016, -1.1356444864490969, 1.036663211249621, -1.959757344554905, -1.2644927880308745, 6.184082278047057, 2.7612324399400325, 3.844743262813381, -0.7102012800192471, -1.9998998020939764, -4.287470822357649, 0.25029256067249084, 0.06124960682578379, -2.7848673047893167, 0.3616030711465615, -0.6932974690881734, -0.8962578011354175, 1.7087746528434828, 0.544430413029577, -3.1071027716808697, -0.1258116973991017, -1.8530363390994884, -1.641212811544391, -2.1778203465795785, 2.833630401556975, 2.477521134831965, 4.007620684268246, 2.469826704041664, -1.177092446963142, -1.1530997615687453, 0.9095667084714574, 0.5526142996222765, -1.0390180042161123, 0.6244407551947563, 0.13794216923605956, -0.13686932918130648, 0.12116485311211105, -0.4398140419979753, -0.45045418471762266, -2.343341356670741, -4.738605312669293, 0.2978305094330021, 0.06971612131753412, -3.9750808651004603, -0.682045240592075, 4.608051745192086, -0.31136261837452767, -1.2793734152026253, -0.5360624439080655, -6.539688346779164, -1.4966077694343816, 1.729708578508595, 0.260454351532314, -0.08139445074232529, -1.5711969626633837, -2.7847805867640605, 0.39734098157953657, -1.6564358527546699, 0.9540092128217619, -1.1759680755685291, 3.601877608434627, -2.8984208216378375, -0.9906043525318058, -0.0740051375371472, -0.024266017049568395, -0.4724774291206583, 0.5760198776031649, -0.27120049080056197, -0.39436632558373463, 0.9107900355012676, 1.043209473764526, 0.6283114000328718, -0.18843712552862582, -1.1642190787108206, -1.6228601837993377, -4.1888757494678925, 0.23921548786954738, 1.835940231265451, 0.7463387536809003, 0.9024957107460422, 0.5299820166513913, -2.7051411854141074, 2.296727753276867, 0.49080866776862747], [1.5331564390066796, -4.477195525627539, 0.10748452922301568, 2.9413277448753443, 0.3951481825132314, 0.6059280559865112, -0.6654208621368536, -0.7839122061135558, 5.253149240048004, -0.775118671086845, 0.6818970615175178, -0.20657688738806293, 1.6570467892557674, -0.9576187754614442, -0.5705042899484958, -0.39784737710256396, 6.604635130204452, 0.21159019836882823, -0.04218866179384915, -0.12210596399245414, 2.7983484597819257, -3.7563983021286123, -1.9122844580111416, 0.6670766070109622, 2.4145590347108223, -0.07114121303491028, 4.420240026213648, -0.9390807323419476, 2.989094987232184, 0.36194219483700624, -4.754695662436398, 1.8132425495082733, 4.551288992234007, -7.4916069927062825, -1.4163766045799333, 0.1176733042187198, 3.377052737381277, 2.248085006251489, -5.022745067700553, 0.8227999793116778, -0.6416556718881371, -0.9295918812828833, -1.208611392392998, 1.9772209353657955, 1.227178290235113, -2.004638074014457, -5.688149646320062, -1.197361548657903, -3.9946475319731283, -4.294159508292371, -3.6266548941569425, -0.48468639913417955, 0.14673219419252684, -1.549720020082518, -1.320830706343621, 0.9417380825427341, 0.49997549228406407, -2.772343541565346, 2.4286017031692113, 1.316551733551397, -0.806950187581858, 0.09552317788587222, 1.771154699793915, -1.2241488008179349, 2.55963660664183, 1.1130980444867815, 0.3488653074509603, -0.6522385980613934, 0.6186419332683879, -2.6623049602650544, 1.2861944470630708, 0.7784287210104838, -2.053175921918794, -0.3450118939474424, -0.3951402023852829, -3.192769540056188, -0.992174064993875, -2.490325048202796, -0.31389764153007055, -0.6355366923845781, -0.8216575937487595, 2.7082236654784193, 1.186287103012512, 7.473442330981035, 3.4434740373214487, 4.710234946146991, -2.644440824974384, -3.3569716141577652, -3.628861449235014, -0.5480257373505888, -1.897268603668131, -4.958461443413654, 3.6558536240023254, -1.6869617309802585, -0.4057061491482844, 0.3493703015031773, -2.5458653306935783, 5.0879125745057285, -0.4006144928994025, -0.46540460693681773, 1.4634828066314776, 0.4272355259895377, 1.4046037569408054, 0.4760996603802914, -0.060530332179679895, 0.27318375983115123, -1.1039881914670027, 0.6735039613197136, 1.1711038572136248, 2.493744812493046, 3.4745329514781598, 3.3492298805195757, 0.5811456057996016, 0.13493586332018295, 0.01676340760973016, 2.025887119166629, 0.7205129781559351, -0.6039440197312009, 0.8832532611105505, -1.8211731115278507], [1.8232181024624536, 2.563647979387921, 0.38581821970466085, 0.2262634871089798, 0.6947857519568229, 1.0059407114124777, 0.1550894113882528, -1.1948018366431863, 2.8665630053250366, -1.1598109406110368, -0.15155863272834466, 2.286400974238673, 2.181337339836933, 2.608450605776737, -0.2571759556439129, 0.2816532222945943, 2.4261924100668826, -0.6119372173417816, -0.10401928801373693, 1.797601105868167, -2.941460829663123, 2.0492885657441167, -0.024684386092995697, -3.2056310366160226, -3.0775500408069405, -1.7078439045962324, -0.7682582590936935, -0.23450291219542338, -0.8891697736170707, 0.6076501781379098, -0.004956830059414736, 2.1157861316895983, -0.6245161145986055, 5.583188075313084, 0.21466082386240398, -0.2964064553348839, 1.831271034557973, 1.3653567731403007, 0.7389984332054487, 1.6761156904309236, -0.31236934508701547, -6.230229488873511, -1.0384663179583749, 0.06198385881182431, 1.4200585044281901, 0.9040539795996156, 3.7190295661448998, 0.6599656665540932, 0.8483007118363852, -0.5424091294873612, 2.098604385665597, 0.6990247886475779, -5.023886398710132, 2.517262447576894, 0.6393366797818372, 2.3755852713068686, -0.12389264762711451, -1.5896086504696405, 0.6009026123720482, 5.212707904213308, -0.6574982861930033, 0.12812503550651713, 1.223515146358375, -1.4102148885602086, 3.8173857218233, -0.7390804464206531, 0.0106598675789359, 0.5994914055145806, 0.24857624751475696, 1.9444458447702597, -0.46111712626358337, 1.0580380260311857, 2.2504412493858643, -1.429128898635122, 0.3728168389886729, -0.5402953900170226, -0.292092049428388, -2.561122800215429, 0.9864571974065403, 0.056106551406153074, -0.14228534404124668, -3.348142189098736, -0.1421807937171914, -2.684974584389634, 1.5229185962109242, -0.7097232104216087, -0.5157343670669599, -1.4675636112295527, 1.6793438690736586, -0.6192372412749745, 0.48466863511150277, -2.369889091792571, 0.14237710729203265, -0.09565399542182264, 0.04171878624663501, 2.739820409644064, 3.2399565882932455, 2.18148821337613, 1.8124656366595162, 0.6521756442590504, 0.45132703840313687, 0.5849043134722298, 0.8122036070144034, 0.8207234116113511, 1.5132110102177252, -0.3030533374947848, -1.092298651772026, 0.8217335144577487, -1.9445743075946698, -2.133815896225094, 3.751522189634748, 0.21765337949376032, 0.35580383304002633, -2.5162906197757753, 1.224961400249851, -3.892201088902238, 1.058571314982718, -3.766993202708286, -0.782125777644563, -1.2424074447576465], [1.7463610375606986, -4.175067963280983, 2.006460949512902, -0.770971014773891, -0.28229665044353375, -0.8558130420873957, 0.9866173099030981, -2.2938331364083098, -1.3143827692855639, 2.6575201571865525, -1.8502427656988423, 1.156512394505673, 0.882427852338447, -3.2290661397751657, 0.5949150317125707, 0.5812796846423552, 3.208198448409522, 0.556539107565694, 0.14132305288558297, 1.1657100624930319, -2.210139179446657, 1.9731338687945104, -1.4140949494212638, -2.9831253976220298, -1.3943916011413329, 2.8789015305545633, -2.175141013847389, 0.20538661451437354, -0.7263684222484246, -0.7955762216802156, 1.3946172361091804, 3.176133637238341, -0.8637461879095184, 0.8942691396343968, -2.2666601058457077, -2.9850316142377555, -0.9665699672372609, -0.9303939911854904, 0.8756561130028282, 1.7178533578605462, 2.0578944429374, 3.393145229611309, 1.6041642014082247, -3.1306194680781996, 1.2470852683398486, -0.6756470185871122, 1.20478242378775, -0.31830302440887476, 2.779326324646212, -2.2921261495714447, -6.772416371001398, 0.7354090985037319, -2.5932171726649482, 1.2629359502695743, 1.8641793725480114, -4.617868978916595, -4.103410796146558, 0.8079805818043744, 5.5544303720160055, 3.1497262809165227, -0.8042500762947623, -0.966565975510292, 3.631358868269083, -1.9819871981764263, -0.20917438460364648, -0.944471973124053, -5.010059299541804, -2.1323946611855376, -0.27161720370470915, -0.5067779907153577, 0.1266281247993958, -2.4870495070231544, -3.1052136685924987, 0.46160072710605143, -1.0154190396689737, -1.6916948939294034, 2.50081578883603, 2.9711011731980426, 1.8433801968146286, 0.24165717308900375, 0.7406045383535406, -2.755591721526856, -0.6929114425427837, 0.13042455622844978, 4.598282225771796, 3.864383296138745, -2.422595785458158, 0.0020129635385660633, 1.0287252768740405, 1.9492604402443765, -1.1313285788783016, -4.356637036069721, -0.9352918647994699, -1.5454016777601816, 0.20796081552708923, -0.4453349110138631, 0.02462929524350924, 1.314426123163345, 5.549033308761299, 1.1912264686898038, 0.594818266210357, -0.8504102742276445, -0.5947779678889396, -0.5671869070673196, 0.20052701093068956, 0.2971070872212148, -0.9883752441844534, 0.04279432447226227, -1.7334416789564362, 1.989243909935191, 4.004474148216075, -6.507583928630182, 1.310435204603774, 2.8870799474148177, -0.4082766864618132, -3.670459257475501, 2.770747305016634, 0.011682039460696007, -3.1023348489266396, -0.3219550191578378], [0.8661410261047878, 3.8660444166200114, 0.38722577415821097, -0.09512476611512072, 2.323554690236335, -0.8726677959269182, 0.2976134736620864, 1.3415406651284094, 1.3496520696767726, -0.02823451718907969, -2.8508869328126663, -0.0958917164780901, -5.750449254866761, -4.05863721575614, 0.8426410766787831, -0.07888486574156259, 1.2543025097283382, -0.23713980088848866, -0.49100976407111785, 2.45038579650723, 0.6481018511208193, 3.9404682445425756, -1.8352700116403593, -6.652612329826577, 1.0504611150573364, 0.23465159602410915, -1.5162716237214826, 1.000274730948483, -2.377231278617051, -3.6729012420890217, -1.874234338534066, -2.166219291968479, -2.328754448739055, 1.6118912743622549, -4.658587812460253, 3.320121058471209, 0.43843745328596956, -0.9658921955736745, 0.4691701647988418, -0.8830195609966431, 3.505100386483351, 3.258507515140799, 1.9638712306547308, -0.8057162557246188, 2.4038428855655454, 0.6048987996597854, 1.4841067788820412, -0.39581957340386026, -5.029711391956147, 7.03316060644507, 1.1380725368701456, -1.7917138389350034, -0.9007611482987471, -4.54650111444746, -2.226144317128887, -0.9886639830129662, 0.046040450521099195, -1.165638675840444, -3.2754794710343216, 0.585962640848197, 0.61397067404011, 0.9718291744476173, 0.026640699964259832, -1.6518057141976235, 0.7856226603086227, -1.3210748046216894, -3.9536879496052295, 2.682107497585855, -0.26579529072356284, -2.150981758947094, -1.9279578453100246, -2.299531899470843, 2.7912220695094137, 0.8656793579976758, 1.407659919783701, -1.7171919578302202, 2.269135177862353, -1.6122498716378348, 2.5336075675073495, -0.027965953609224027, 0.0161991680429964, -4.0500276983578045, 0.05106503348031375, -6.47913344034002, 2.6646697486128006, 2.068702831683638, 2.4960060868399103, 1.5707386799148637, -1.261857807848226, 0.45034178425257826, 2.5701931969654646, -3.621567156210379, 1.0600904669706817, 0.9850109730649305, 1.4653309856629275, 0.7999848506756817, 0.8346160633818273, 7.026574477071386, -1.7253960924882104, 0.6726850148196454, 1.2623808969480241, 0.6793454805189454, 1.795970654559325, 1.9163413962483509, 3.1716983332435347, -0.07877496505661648, -4.201259746645424, 0.02618743190029688, 1.8014660511192162, 4.579000060635684, -0.12364175906509726, -2.1722387451501595, -2.777816500028207, 0.9930666720450414, -1.2134259061622639, -0.35555971154305177, 2.885209712701585, -3.1842945100947446, -0.18594765215233916, 0.4057974479796154], [0.2904704225140921, -3.0936938711137167, -1.8118780610409748, 1.274020342480101, -2.8161290676602504, 2.8536550396648024, -0.47335351818913246, 0.41397679763163026, 0.2669028395970117, -1.1463795806418657, -1.126849670454963, -0.8626924520320777, 4.735392175801816, -3.4347186794853504, -0.7775087669926992, -0.7882413908770788, -0.8676677437136615, 1.9649182321593666, -0.3163692229781198, 3.445356039739314, -2.3895258637733243, 1.654490929468282, 0.4407304738956351, 1.6953851903748025, -1.5668985660689487, 1.69396288558358, 2.4506849084926596, -0.30865912586504884, -4.027512300207723, -1.1297450357382377, -10.223010775869776, -4.504795602703583, 0.2203991447102506, -4.2586561690523315, 1.150884523529594, -0.17720468517425408, 2.0668694697332084, 0.4872694361551522, 0.15436086332586454, -2.7920434269598364, -2.328242082429338, -1.187272101519778, 3.304672008994289, -0.1434808723190849, 0.427930651021303, -1.0693988390975198, -0.8959593994730805, -1.7440995936118937, 3.6705265897030155, -1.5475896435670715, 1.0673019384845477, -0.9892077695407374, -0.6031507928526781, 0.8210178872063816, -0.6125972775273794, 1.6267612138769891, 0.7121545155393858, -1.347163828569502, 2.103503148668075, -0.3522530608551272, 1.56160273625267, 1.9528482713061637, -5.965426271952274, -1.135864406514192, -0.7958686171335174, 0.10011688908592488, -1.014153996187635, 0.5968748152759908, 0.5816522516703706, -0.2694161483553534, 0.801181418828777, 1.7472241558627448, 1.8352195458900458, -2.0225943125936685, 0.49959807481777446, 2.0183312375085722, 0.2794074093556344, 0.43978072179377065, -5.430530966283414, 1.7842402399440167, -0.2724827584147026, -0.11897348438022361, -0.6196228694836149, 2.910947799150745, 7.0910348476465, 5.653942618423495, 0.6725535266004802, -0.4804169182402871, -1.054436703303463, -1.5416072925659463, 3.2843700486225225, 0.6963418305888066, -1.8609104049141496, 1.2988751735372872, -0.88051724248586, 2.7504891376794443, -8.76836408041499, 5.4799364072799746, -2.1940857525831605, 0.9189195246021195, 1.5715623322493277, 2.287415850649804, -0.31466021541550737, -0.41572010098512413, 0.4409331898538519, -0.7913395231864616, 1.7610976072820261, 1.8211647714769859, 2.0789095365205585, 1.5878854175482262, 4.304820725583723, -1.227902176215145, -5.481549386373668, -3.733324774439911, -0.4233653228982747, 1.2425213549724465, -0.6236724778442367, -3.8000950706233896, 1.378155897137042, -1.2575586084619095], [-0.44588751143899635, -2.5110606080028375, -0.9713783755307053, 2.824839686871399, 1.9559052238870722, 1.458864422658131, -0.48053350888902185, 1.395583444097939, -2.029552309956582, 2.392088189810157, 0.8441453921582768, 0.6097993370800813, 7.546756360348124, -2.301060109466618, 0.08077220663804917, -1.053236091433362, -0.49243307332259073, 0.25559673591006976, 0.691053396850648, 0.8424198197921527, -0.7579153920665148, -0.33326848742303494, 0.21906922283882999, -1.4772056638671267, -0.9051504847593833, 4.659992371768118, -2.169292365604556, -0.1502480543376664, 6.846993944011015, -0.14399676666601693, 3.363216049616727, 0.20359914825382402, 1.6834173458505555, 0.6187499266409996, 1.1750843005517644, -1.3354254811412392, -0.8276752225111016, 0.312091498886703, 1.1933109363076715, 3.281740631399859, 2.8890683579252303, 0.27973642542898164, 4.6073600323768265, -1.6817212300768296, -1.5314441310454556, 0.24907862656666407, 2.9256786760461484, -0.024359486472385655, 3.6970660202126866, 0.6227939293782707, -0.7467897043610089, -2.1385295334645202, 1.886141117413114, 2.53811365732891, -1.025112608613416, 0.16990263583557225, -0.5469011992641486, 3.0635155839483788, -0.42170772130691764, 1.6793122602779986, 0.9375487382461573, 4.712616251801881, -0.5040880321242674, -2.223436350972888, 0.0088699424409799, 0.1094719555259314, 0.7860644931019154, -0.22286673834934378, -0.6718672994029329, 1.6754075428869537, 1.4330577205168284, -0.5493846841907092, 1.4879431988178908, -2.7951156082961615, -0.19835018635968227, 0.17639715911064152, 1.449389143382863, 1.877717369856281, -0.031794171380329986, -1.169693255371762, -0.2069959959982198, -3.7069257204104646, -0.9633224112910345, 1.4394877426173647, -2.1833290373821996, -4.274419565823128, 1.0569765121425996, 2.0316567289642404, -2.065965123997204, 0.06680793438201818, -0.09778572577960375, 0.9433508232508102, 1.2816549998227795, -0.3009745883991892, -1.140102260262422, 1.5219141670101692, 0.41923809976099713, 0.6940024659028267, -2.4127556599383553, 0.49775737026090094, 0.32950612594277234, -1.3264018329774065, -1.0864162358991312, 0.05848551695336781, 1.5076213397683647, 0.9547852864893067, -0.2826311543455145, 0.5116885202843298, -1.4498086522915543, -5.754424092449492, -2.4794273215352356, -1.3125167910743634, 1.1155992171375426, -0.5215770697216111, 1.2251529296831416, -2.7784479668536872, -0.9745271889214657, -0.5492131675268757, 0.7543644768329801, 3.1433935688425034], [-0.8960240672510865, -1.2010279025961341, 0.48052377883831726, 0.1941891585750306, 0.6461768841319865, -1.722451855533983, 1.4802707844088383, 0.803315889985316, 0.20999845008623905, -1.3275185699577063, 2.4178860019946598, -0.6930786204451068, -0.6114903247949268, -0.3895463670927386, -0.7195356820076633, -0.05945885282145938, -1.5313425084370706, 0.5705106373288715, -1.2804321386249893, -0.48974762445521824, 1.3720503443513279, -1.9973983671033366, -0.9318258103782002, 0.011684582453651761, 1.592111564190379, 2.4965275963633355, 0.83401466372424, -0.1532231122220936, -1.7927895109132745, -0.5417442096411549, -0.22371267101366996, -3.344165285459408, 3.3924868988742043, -0.7391087590657449, 0.558340557469545, 1.0482636964711853, 0.7646450471178473, 3.593325028444841, 0.5317755199651025, 2.5271926912823264, 0.8915683669298867, -1.90290141586746, -0.41557146673390294, 0.2378382164217781, 0.5893216571575463, -2.1791282931217473, 1.7432710984908826, -2.5786537436550425, -1.166251777099996, 3.6879322712310794, -3.8044666977501427, 0.11477585161242336, -1.062953054367109, 3.790755404401876, 0.718987982899236, -1.5542188740781837, 4.1065001649904795, 1.566407428347778, -1.3637748500475213, 2.3655161211226035, 0.6391279278008467, 0.4597419354444326, 0.7209341714217439, -0.45854113131383895, 0.1855909277093161, 0.26877010985407207, 2.25681901233183, 1.0854479940822368, 0.16457694814384205, -0.34747861826714044, 0.37879617171664304, 0.5196755117327558, -1.7341255528785575, -2.209343392146313, -0.04990976425689473, -1.0657502183759515, -3.165823930611706, 1.2681508074750634, -1.1719009445380704, -0.3829087302013304, 1.3452826192206364, 0.9179116015738663, -1.303705573656298, -2.003962125529685, -4.9526810867117375, -1.3031131175578756, 0.9407461805954948, -0.502466190298287, -2.364105585484106, 0.3241995326199913, -3.6966545263605037, 0.8286975986670223, -1.0261443484596806, 0.11377902085474925, 0.5007307981305276, -0.11670889680678295, -1.3029384582889296, -2.642601164721846, -2.979704500095295, -0.4590264751466706, 0.3766052341669131, 1.0908739766622506, 0.19795986978801322, -0.2789587174439846, -1.1819864100831607, 1.4164686795459498, -2.394314118325099, 1.7954846434667289, 0.1912727810918934, -1.5289296097608638, -2.7768613376151463, 4.121149582242793, 3.2895366413445695, 0.27122360153962194, 0.6926757436647439, -0.2684511495460695, -4.5243093761909625, -0.23864563432764163, -0.2730862091880439, -1.263863253313459], [-1.4516725270177202, 2.2392307177895883, 1.391509116482472, 0.9492657206954008, -0.9897541478119305, 2.8963294869578395, 0.2985565374772526, -0.39133244718530363, -3.5290654353067863, -3.383043320043913, 1.2044533361903418, 1.1516333613686809, 2.198128907878796, 1.6415394566356334, 0.7215549461742978, 1.124840584603757, -1.670073433483374, 0.7202429730719062, -0.06100264207061545, 0.17663071415269307, 2.2265765956621046, -3.9044812331272607, 0.2375224637204186, 2.826344907590583, -2.223692353836685, -1.9228476178590335, 0.7416480294682664, 1.624836899841796, -1.1048021947443967, -1.5601854885294812, -3.9059897189972768, 0.31615707418742744, 1.5284633713098643, -2.319489041299533, 2.759837536892564, 0.23166004525278205, 0.9044686384222548, 1.1036952191300717, 1.2270965271384557, -5.3644469122476455, -1.547672203271203, 0.3887100923139796, 0.640589028965173, -3.0950719918836933, 0.11182653351284656, -0.4203195348224437, -1.5877126158355064, 1.5003688899702592, -2.438617331675587, -1.4678411929816284, -2.344257828669188, -0.9561371461894462, -1.577070101974918, 1.300254641660139, -2.416834093647037, 1.0630030007385507, -0.29447275497863734, -1.639124263934089, -3.1572350052668163, 4.790830667338423, 3.060019342137227, -1.9088736989696335, 0.9020090028284189, 0.3699312820427478, -1.7145749989598893, 1.5786850666611831, -0.3920716068178434, -2.3625276441889658, 1.0122529336795973, 1.7911960979309474, -0.6993572888980558, 2.769726225640199, -0.17173554706908015, 2.0329498541440576, 1.6640151647102397, 1.2965286891359664, -3.771663133238801, 2.5629288361900757, 0.8877220936085094, -2.226064884486919, -2.29223949554173, 3.1280784168372016, 0.7697362092220407, -5.975768103710717, -0.29320300612895217, -2.6826984389072943, -1.7860498593772633, 2.1910185549672905, -0.978460580115862, 0.33378917240386236, -0.41338146440021156, 0.3345543166435514, -0.7054857697454766, 0.0032688146677041625, -0.22857482431352488, 1.0352325670424183, -0.6827653798315464, -1.875578205694909, 0.7826113416105198, -0.9794977133838764, 0.5124130715623745, -1.2581665385631668, -1.1840906514002185, 1.9125971391946843, -1.3021771862019238, 1.9106286830524613, -1.1349152882590323, 0.14884299118892128, -2.0911938848334075, 0.9760991552808667, -0.7127002317971133, 0.5570404765112499, -0.36990863143012626, 1.7101647649423792, -0.11135214502458594, 1.861943501833085, -1.1965732564994218, -0.5845907637270409, -1.1360969105565344, 2.1337261605782274], [0.12355018298371741, -1.4881613135754796, 3.5014406422234634, 0.3677578109214228, -0.29253347124261936, -0.3545000259665737, -0.26153072720945886, 2.308398946653342, -1.1919997131339772, -1.0511117220691912, -1.3846127797521546, 1.7694557832499036, 3.2549428693131537, -2.4548973577631563, 1.3878252023347686, 2.6597977838128957, 1.2510214522865284, 0.024880531444426573, 2.2282946799766674, -1.2090139139448692, 1.953994853050396, 0.04715095653936612, -1.4579081525764828, -1.347828179535092, -0.5666548903402789, 1.4156264210298832, -1.284603308206993, -1.2984707378422655, -0.2959381984566228, -2.9629734622522155, 0.941448481439072, 2.445187504931494, -0.06295975637142712, -0.018362857379797787, 0.2119429902185167, 0.3044816996252933, 2.7299624720801408, 0.19607368094944155, -2.163669023111803, -1.2554202161571515, 0.33281648455882357, -1.3512985849800243, -2.03657027143026, 2.1307533473711358, 0.21388810614973658, 2.3056162407681398, 1.665222551555781, 1.1174924675578009, 3.1600690117499224, 0.8565925149799851, -2.07004730780585, -1.1120337986940778, 1.4457192891826172, 1.5948611411177276, 0.86948657753674, -2.677963863772061, -0.7955441446821028, 1.0171376436138801, -0.11689536935814583, -1.5200885596562808, 0.8695671168754323, -0.34444625745124563, 2.5084466184362952, 2.063359647669278, 0.9152203682334441, -0.25992692583376226, 2.5014464602476982, -0.8262848019469782, 0.10979440759603103, -0.3780900237418542, 1.1479194943211943, -0.2222803525081973, 0.6973361023768894, 0.6803020576699406, 0.8347720112693011, 0.7018277168044915, 2.7476463733150855, -1.0139834424890817, 1.0057902323143728, -1.8929164579273823, 2.723855388591524, -2.7237338028515357, 0.12427612557121029, 1.021200648790769, -1.995877935937192, -0.021585659565772325, 0.4946800153008404, 1.0259572156399213, 0.17320172970114467, 1.5509044998218255, 1.453168811050713, 1.097704112470565, 1.931360210927305, -0.19314851482356882, 0.9448719222580066, -0.3985179874200165, -0.9389488801214788, -2.494460955045696, 2.3290391846294085, 1.5161241845738838, -0.9563070988268226, -0.8831628421745159, 0.22357399853891952, 2.2677601435413095, -0.3193523643420033, 0.016504678359357334, 0.32271593790218306, 0.30591903419034333, -0.49691065568194864, 1.7501093180069187, -1.44928157592532, 4.553964076989458, 2.7454645713916097, 0.34116561500722625, 0.1449905681440189, 0.16326490001073696, -1.8180641029782156, -1.407886968645005, -0.37887367028012436, 1.1242730884816223], [2.0639793624722254, -0.6415134967937535, -0.2969557193091256, 0.03685568261028305, -0.8458867165190534, 0.2232316964969087, -0.21120262724009684, 2.3603413100445465, 0.6067516971405849, 0.02238153760677388, -1.6972467582994386, 2.8401819509626756, -2.1207222658876477, 3.159994599641976, -0.003080314677462577, -0.3482304674732471, 3.2073771494169567, 1.1290034282365127, 0.716339797110596, -1.4446263422969507, -2.5953331287531802, 0.252553199652788, -0.10028413439882385, -0.9887926062243155, -0.9420341628485848, 0.8640176860729369, 1.5548470779719046, 0.0143457691061356, -1.9821875625428709, -0.14282673862315046, 0.1631600956316909, -1.6467677424920955, -0.20443780596432187, -1.3786308245779437, -2.5182958120745593, -1.1318708578356582, 1.5091873879528515, -0.04782845383942896, -3.006709681279387, -2.099503231594773, 1.320404607931032, -0.26848537071515693, -0.8628438414187283, 1.0521369870047246, -0.6631785596859637, 0.6147294593801, 3.429074080185245, 1.8679413898535469, 1.4765919767042142, -4.0947274835604714, -3.2343358917342018, -1.1275131018043871, 3.9788011999994013, 2.9816238010683356, -0.9353994442480087, 1.3443327602035327, -2.01833141591765, 1.393031493720604, 1.078365586252844, 1.114752545860357, -0.17540479199495093, -2.9381593442993004, 3.307665578825403, 0.9730955990148081, -0.2729986588046187, -0.050684259428599686, 1.2771272254244002, -6.033744401355879, 1.8925330886947132, 0.6124211118283475, 0.7474807197010053, 0.7255868209165871, -1.8223305430223335, -0.5386562469118634, -0.26952536815629713, -1.2061085931742235, 2.5880042295227086, 0.21014558894502303, -2.057932440491533, -3.4801750365839257, 0.03943455535668662, 0.6113700140415409, 0.05221172375141334, -0.30545409666766793, 1.1888189580255213, -0.2572778389809593, -3.643271492128084, 2.254852104794722, 0.9441053412813063, -1.0226752545032012, 1.4511111292257795, -3.1027160105706293, 1.1741539525129234, 0.5192217980090851, 0.6213598916272942, -0.1053411732361, 0.027437022718574566, -1.7743846254028512, -0.5807910413934536, 1.3647869606441598, 1.4135676481938386, -0.40292770112185444, -1.0984018486984302, 0.43307020460310963, -0.4892255174907618, -0.854963565520238, 2.080060873598694, 1.5847798504838408, -0.37436100099215913, 5.913768043980406, 2.6704675066640458, 0.08969177557278442, 0.9892219697913606, 1.370112684196983, 0.6409064200176755, 1.2934232300234978, 1.110199751457101, -2.3918530929827355, -1.874293228896149, 0.044333517893975695], [-1.6898481434031944, -1.2608983018648114, 0.5272436012162791, 1.8123892559025399, 0.8393126433354611, -0.0977382395240655, 1.9817866596132934, -1.1998673056025262, 1.7432570987160885, -0.2856420845470761, -0.9773060535964048, -1.1603536755236894, 0.9691067152706403, 1.8784297802247145, -1.2175787137800882, -1.4561046903033736, 0.8113003388370152, -0.3632703178375943, -1.4738225233892839, -0.5636905146732895, 1.5557154311906, -0.7362296366875435, 0.1637847587333813, 0.1571420074399292, 1.5536992864915309, -4.807618605024257, -0.4874996206859385, 0.2803953850530625, -2.701855998757828, 0.109140900001672, 1.4768609744211378, -1.6347721936758144, 3.876727904277896, -4.989653939623286, -4.51564045625198, 3.0731283712430746, 1.441074437844886, 1.2453239484000787, -1.915711919024053, 0.4966765601959841, 0.22057400456002274, 3.524689450148328, 1.6170777494425663, -1.1746770419222052, 0.6577712985210967, -0.7146374430613827, -1.182390162150814, 1.9030789655191445, -3.3066014837144917, -1.7503802928267618, -3.262356959398435, -0.9212915946506125, -0.3883245055674858, -0.10975153902838063, 1.7192576614491515, 0.7252813367060765, -1.7646270874838812, 1.0461451198841618, 0.9649266278304693, -3.4208206934737295, -0.8703928518104896, 1.4891202648428141, 1.9013890549084556, -1.1552863390888113, 0.45169889678046327, 0.45596268153332736, 1.302019293464022, 0.6556909594164233, -0.36624923196211195, 0.8372158031959923, -1.421401210297401, -0.0695753574457422, 0.8656724487324476, 0.8745895841172493, -1.3935469024758182, -3.8186586102213194, 1.455523026937993, 0.6501089620600877, 1.082844490607402, -1.6528894882681078, 0.5058029175530999, 0.11504878790534769, -2.188731920508233, -2.0322006155474446, 0.7609359369564439, -2.3236312427503782, -1.135615866941908, 1.825156695049577, 2.101981424759477, -1.1008226874037554, 1.7213184441078373, 4.259430672774764, 1.74618987328845, 1.0222273484844322, 1.5483073903250815, 0.95754013615141, -3.687075539579678, -2.2898650899574315, 0.8237590858416006, 1.4816832274803926, -1.3003262308638384, -1.095338810498023, -1.1295213469417504, -0.520582135444667, -0.8493077481514452, 0.12834097851287185, 3.416552865987128, -0.21603530415720804, -0.07022417752169603, -0.19303489526867024, 1.7889228098531413, 0.998202664678806, 0.07859982156820797, -0.10270848680983947, 0.787386791992037, 0.7975021501590559, 0.7492863920978693, -1.4872816879210045, -1.2054140856611193, -2.519089319556035], [-0.9927360743887761, -3.565679909076804, 0.43481706588468366, 0.30404259823229574, 2.38940519046954, 1.8219078399608393, 0.44532814119773917, 1.569392092661194, 1.7605137103681359, 0.27231505172130127, 1.3138893841123482, -2.3368941900979947, 0.7106063415804464, -0.8294209644947133, -0.052893538208619376, -1.1727654021847995, -4.570384943300985, -0.4889853629833955, 1.1383101036148335, 1.4081096944587457, -0.36595792955418377, -4.172538366884221, 0.1511268253320631, 0.780217942770774, -4.484407205500599, -1.0310480810481328, 0.6280535959448725, -1.583326376755462, 3.5354947586394156, 2.279062034942261, 1.0379915140285374, 2.554059718746324, 3.97600319182966, 3.014292838169864, -0.16100151126756762, 0.974754713410495, 2.012217726482919, 0.6798636331051615, -3.3072932446521563, -2.8537734674171884, -0.28114849125290403, 1.4892511274890343, 3.5665679790933, 2.875296154581566, -0.4951641292402667, -0.1617468172883421, -3.318368762363747, 0.6018133382636499, -2.4781917334399, 3.651702925019001, -4.411600934475761, 1.2568496222395549, -3.1081831162400686, 3.1539926991559253, -3.9473875327935493, 5.605196406419555, -0.8989860769666378, -1.6818795873157777, 3.698988126257392, 0.8776290916294716, -1.2440594325225018, 1.980303848350496, 3.327410986923696, 0.8114586119137431, 0.13575346213497605, 1.788919307093683, -1.3597736498248914, 1.8934276313064555, 0.3608671727566844, 0.1178253446048166, -0.6706835069548086, -1.1909688393048332, 2.547376309099964, 1.2429137304723927, -1.7391296132184038, 1.753980278192297, -2.3904638561672873, -2.489523407475412, 4.390314538008812, -0.4172498543883648, -0.5310739883317842, 3.71513408859788, -0.1074905236762939, 1.8656669566965811, 3.990445082027098, -3.9755083602486914, 1.6390593014557728, -1.3732548340153683, -1.7306444138376458, -3.428581011057269, 1.7542562903106202, 2.9963939104276016, 1.3769243847815165, 1.5867286626204777, 3.194027609604217, -1.3767064783344722, -4.324296343358875, 2.379439883947277, -0.5558382004151694, 0.3357773083824207, -0.22919208581037573, -0.8438732381187488, -2.5255850889167832, -0.09035884403346331, -0.32704009305421433, -1.7078345298992006, -3.9514354566945644, 0.4344587283691402, 0.1111575657051955, -3.303303660639053, -0.9849808256380541, 1.6449710210244382, -1.732400393182853, -4.7199512317223755, -0.3263783980353004, 2.129298823693421, 1.4618890628637462, -1.077886853965468, 3.128566839639641, -1.295672247228642], [-1.385908173871784, -4.0045671385428365, -0.22200198783499922, 3.707224685164222, -1.0702353394039874, 0.39820220508607396, 1.2456770537683317, 2.0778020964265886, 0.19489480752430102, 1.1988850119860524, 0.06929184959652963, 0.017480373830569496, 1.7703341525102092, -2.2063605559475374, -0.26132260649376976, 1.5990639257607626, -2.0147105729455883, -0.43681784124599193, 0.15055497094984832, 1.4912954456049277, 4.192574159232227, -0.6965575834828296, -3.884549849233621, -1.1142625827786174, 1.0751441344051957, 0.9239407330046623, 3.1815337224567806, -0.8962506716017501, -2.174779417014563, -2.3914272077532197, -3.65094214956496, 2.8578477670437112, 0.8196079888314681, 0.908227185114295, -1.0964296596648255, 4.277912320608321, 1.876447495000113, -0.4896118263208568, -1.004127442337342, -2.9553682719249807, 0.8252569003632045, 1.344770653438995, 0.6912781159847341, -1.237693431221659, 1.1296648699544718, -1.1669242782375842, -2.52755172487581, 0.6219949389778638, 0.7836664838171821, -0.7273320279738766, -0.26290879628542924, -1.0902090932589135, 0.3172681363103867, 0.7648822938607462, 1.068689836477178, 3.3269554086599493, -3.3817640438026313, -2.1238206487973046, 0.7383880771335598, 0.4320961918195281, 0.9398877531851654, -1.7535532739123227, 4.245523863099183, 1.3267982794504813, 1.322804904123255, 0.4366767260248069, 1.5057688869548187, 0.7224339045069739, -0.26273887333640583, 0.13404655849835329, 0.13288491908209107, -0.5350203455958372, 1.0079576773220171, 0.4623224916345558, -0.7998270967362673, -1.5248945860781147, -5.171343826782014, -0.13805442613549354, 3.116477127642808, -0.5969338148501558, 0.22634252637295224, -0.5989687375728397, 1.6800912465994347, 2.4114264245441897, 0.6598092623785061, -1.7461219181730936, 1.565745990359038, -3.731640372682122, 0.011133707612772742, 0.46323322665286976, 2.9766888947173142, -3.7746816180608342, -0.02255315508852872, 0.5501251585022867, -0.6719328994328533, -0.2556225026840155, -1.9331482116353302, -4.517236059972402, -2.878910251097227, 1.2438241030177326, 0.5028581825165839, 2.759927058520403, -1.9494563789450308, 1.8493595367610036, -0.3172091766570795, -1.321741569084613, -0.23279173242914722, 1.4609887216241484, -2.166187662989795, -3.8538917242903934, 2.4352962894740267, 0.8997494609542531, -1.3412532600415923, -1.912728785548507, -0.14402235555297965, 1.5798950108942034, 1.756539207177292, -2.3707472050603764, 0.6294977762671626, 2.0519082712804515], [0.8573872268444661, -2.173372184096786, -0.015829892982226687, 0.19155629604449076, 1.2019427471122206, 0.49894666147964595, -0.7427141034073963, 1.3970245629495475, 3.7088644998291684, -0.6074376960885202, -0.7341943899295645, 0.5547350196145759, -1.0508349271341242, -0.2451230859059469, -1.5869512484201225, 1.239346977712893, -1.3444408994991757, 2.1460643764008105, -0.6470248171903101, 0.5281957023194334, 0.5837062331790951, -2.0838198790851084, -0.19853896861909695, -1.6577994694717573, -1.7713014265704885, -2.198054860275993, 3.9084439697428017, 1.0094332587127286, 0.8685617486923383, 1.1566791219260353, -0.6697932330920429, 2.058958167715398, 5.005162166876308, 0.034891175412586156, 1.5447528504638122, 0.8663715042935451, 1.1863522484412403, 0.6116750351344178, -1.8023749847108894, 0.13531213837154982, -1.6057612603964464, -1.9493350942526577, -1.0362328239964886, -1.3607223422076369, 2.415152064575655, -3.0699984495830157, 1.0755145913952897, 1.0244612217334097, 2.553937999269834, 0.9775083457118953, 1.0916046601837295, -3.2010139212749995, -0.14976023016092038, -2.2188206777928676, -3.408634233122338, 1.4635321453905714, 1.1717881092593074, 1.4712693071590008, -0.9704644438710033, -0.2611173151257308, 0.15097213564564374, -0.6114045077171419, -0.368114091455946, 1.893724551327301, 0.8939159702195572, -2.3605719884777367, -0.8090740874379321, 2.1122390695637026, 1.4403694888590808, 0.48456701333938074, -0.3186987594997187, -0.2528122765113363, 2.4418690907266045, 1.6966245102029067, 0.49243372232351623, -0.34786678638520613, -1.0979637650383034, -2.7315288672735374, 0.9970960839291606, 0.4017106789174889, -0.8488813537676069, 0.38554204800671776, -0.8996666508064942, 1.2417970107808536, 4.064249762677533, -0.4923657123771052, -0.43086462235858736, -0.9286407719222322, -2.8583037255240207, -0.7127653919669537, -1.1271613891895425, -1.571925182953438, -0.5869104782836092, -0.7249135336592726, -1.101289417987956, 1.364948101731929, 0.004787894155885971, -0.46276248623044264, 1.8902559421139355, 0.8689289970953523, -0.1451679068887151, 1.5066437375990327, 2.860143383054783, 0.598245579820673, 1.038422273708907, -1.5314753091009585, -0.7387331698688583, 0.5053240021112844, -2.565831452473477, -1.3093471222309674, -2.900045831889336, -2.1261285554828175, -0.7264699321917645, 0.4707939287680713, 0.8927411026967287, -3.172021421219442, 2.43060420609356, -0.7532265427510192, -0.03236303305142953, 3.927723423818611], [3.003040416786203, 0.33546655428203476, 0.7265519368105693, 3.283186411283577, 1.7115549200016174, 0.6873501743242556, -0.8836624453346105, -0.39487823775554026, 0.47849225068273205, 1.3025485577938287, 1.9845074842955048, 0.282729598395987, -0.4571046356979993, -0.9990206428599233, -0.015005655797692651, 1.519222313122104, 5.940088960700859, 1.3705738777377368, -0.4612618634257705, 2.167798502420857, -0.13437640580928628, 4.424375354373118, 0.6427094202243304, -3.5638127836438116, 1.570035882084082, -3.3850677532792326, -0.7501857193828614, -0.7404539652808527, -3.010872304448205, -3.6169388164857588, -3.4888700807789057, 3.6130537180450957, 0.6173401730709435, -0.021159638344927047, 0.37419483591871805, 3.1392437175232426, 1.5472213883451613, 1.3084969218131903, 2.102896010048012, 1.2619124143564087, 3.091605134884579, 0.46889677186721573, -2.9905927341916776, -1.0181610209031369, 1.0671089177894835, 1.129572540535601, 2.0334242742331394, -0.40134366933033044, 0.4518158167371874, -0.8539355529821302, -1.378708810088917, -1.81738649280194, -3.2682198553786943, 0.18572715060376105, 2.521584729395507, 0.40116923726880466, 5.219944370521811, -2.2546856114701526, -1.4485384561269272, 4.091898493515683, 1.04847087856129, -1.8509793285073752, 1.9396253573514306, -3.207540228927965, -1.2869664468693967, -1.4208295743093913, -2.5077043461544024, 4.590217249239533, 1.3661189271418843, 0.027846677530954246, -1.0998148036240607, 1.4628709171157246, -2.396508870971698, -1.7887299322524914, -0.3481525643289568, -1.5357220303395263, 0.052875679491989284, 0.634946641085324, 0.11920934082675795, -0.24455126077810402, 0.00735672419892648, -1.5947857418531204, 0.4097420810138526, 2.052224573343306, 4.9571786407983085, 3.3470054777012064, 0.3387919690491237, -0.2521775227274091, 0.983120127474298, 0.22330162847215104, -1.1565776538967905, -4.424833098078922, 1.563517989716097, -0.23516758126759996, -4.532595031532586, -2.4030337260508596, -1.1333642326905533, 3.416656087504026, -1.1509697017205314, -1.2797688573693073, -1.209862111869883, -2.7238296172788825, 1.2827122677049752, -1.057160428040478, 0.481886410583102, 0.39785124549975537, -4.186640083341367, 0.13510722384809123, -2.0294173408945286, 1.6750998161099093, 7.3422901644879355, -5.56188375079024, -2.3999936728065796, 2.40818669899119, -0.1532778408716461, -0.82116536670832, 1.874389149152062, 0.12361659449119039, -2.543681481821133, -2.4774422545973005], [-0.7951612343597602, 0.2953018288939243, 1.9324525960979708, 1.2655945119115855, 1.9454530519177713, 1.3111740022866065, 0.31744830688334363, 1.1096954352790993, 1.4021699558012197, 2.317997925226792, -2.4550671007662412, -1.681503366837897, -0.2405996661407487, -8.059560767003637, 1.3529826940234797, -0.4633848332628911, 3.8535688230030902, 1.4861820171403732, 0.22603531008105787, 3.579955190426237, -0.8058795009647796, 3.2210279173870533, -0.5834115780844829, -5.163887387019785, -0.9866550033406026, 1.721958062650846, -1.0202452619454276, 0.5969544090981945, 1.9566061835846766, -4.633284047963585, -2.6712029711138463, 3.169759029156538, -3.0645546694941252, 0.1438881671448955, -0.2823297383060669, 4.945058141007658, 1.4526240343029224, 2.7561414981359644, 3.0651814211269737, 3.723985613958012, 4.11626246842547, 2.6717754480287335, -0.7732980851298352, -0.6511855784139834, -0.9055192006457432, 1.620693717479291, 4.630652920947192, 0.472310563924566, -3.8034568176530166, 0.3425770075735542, 0.8484000704496554, -2.5130692479905563, 2.9026520457359517, -3.8892309601238018, 0.7639506160708016, -5.045074376408005, 6.662324883810503, -3.539156089657364, 6.447843479109652, -1.5730295808316308, -0.5283447822751998, -2.695396041746402, -3.110383154457426, -1.3809342680183125, -1.0899973533689695, -0.5337224819155211, -3.5215965891445737, 4.495188950842836, -1.3458743922112912, -1.7629434073643064, -1.1465459889146177, -0.9534516178152722, -1.9833904303786294, 0.5952035941305236, 0.2970818162845281, -1.3078745827992377, 2.7794341964304157, 0.7837755060742493, 3.7053217432228545, 0.44841627793121586, -2.0828617324931904, -2.9520255224927414, 1.3372858034522155, 0.291482527679846, 2.119502282490632, 0.2817472525288596, 0.7414247823513916, -0.22633074098735778, -2.346075938458947, -0.41557274705478137, 0.8246105870600731, -1.7415112037879399, -0.9058517413665699, -2.119769226874305, -4.2124442885444, -1.6942003533943544, 0.9488274058183069, 8.619802252299015, -1.2191949716595043, -0.8721445239737099, 1.1779317224393329, -1.3266159391424985, 0.827820390614924, -1.5209684486434527, -0.3816169711245736, -1.4212307377739166, -2.1311735199199275, -0.1140579230650541, -2.143037795143362, 4.444678578562796, 3.426200819907756, -4.533359793544775, -1.4091949871710563, 1.579618251941558, -0.8341131281191221, 0.4606800247201292, -1.6307321712583855, 1.1188894211854197, -1.424946469101882, 0.25602138662351365], [2.3303070849063183, -1.1224417460622305, -1.2606169680628938, 1.1354693740838677, 1.3558916178563425, -1.2442424561440772, 0.0023992384513980133, -1.6807935904137818, 3.3925517930946487, 0.6938459539981339, -0.8106758285127486, -0.8477810381531535, 1.8365276642559512, -1.7568677818176204, 1.0592604459221835, 1.019158112015357, -0.5802647530798757, 0.4601472011156021, -0.6010438578138606, -1.385558378491051, 4.236457194987488, 1.4947314204349724, 0.3485688192585407, 0.42884421562121144, -3.0021592854113797, 4.748338523007532, 1.071842750763975, 0.2663660765225665, -0.37320860669969397, 0.7302370562774554, -2.299713438236892, -0.8529450649978799, -2.050186221723151, 1.0429776939551663, 0.5373384196398732, -4.678512819361776, 2.24973760420177, -0.36246183016793704, 2.128794775560747, 2.073490959895184, 0.15442060035159147, 0.6064226753563285, 3.0516009121624874, -0.6099860491389381, 0.019142329735095595, 2.396448610777125, -1.9146889789975376, -1.338329507043761, 3.6943230951608794, -0.33629423290451316, -1.6814170705865175, 1.2656436966684463, -2.0897467961982543, 0.7124904322196024, -0.3235395048728433, -1.3200352800702593, 1.44849148881027, -1.7425633828263156, -3.2955015224194293, -1.0402942303345775, 2.2062378288209925, 0.9775629355742688, -2.019280877070642, -1.0418137557669982, -2.0143292864110083, -0.945902043221136, 0.5496995909248381, 1.7566541858243352, 1.4263507905276707, 0.12014212379415463, 0.5100408945530702, 2.943940965039211, 3.232567329932083, -2.0985207980711365, -2.0144265968487938, 1.9136426599532506, -1.8751595806387704, 0.9718531671833, 1.5239036384103977, 0.3267299010570329, -0.8129279616226285, -2.564886977215256, -1.4918497741021173, -2.023097012416367, -2.0072703603516926, -3.0918525006851927, 1.783756573264602, -0.4790608451634423, -1.8025648215104972, 1.2470801705457053, -0.4612280255607159, -1.5199006888288071, 0.43029984724873227, 0.048760046495702244, -1.4048279126974736, 0.6800238337327513, 3.350563025553191, 4.125136355369336, -0.7925411797774278, 0.46400005684650514, -0.17180716496731283, 2.638365293574557, -0.48426450378678565, -0.6418960809734489, 2.895728057584891, -1.370017265207828, -3.5442644915001247, 0.20074366516043665, 3.6064448843675287, 0.6911275430091695, 0.6649805300857915, -0.2895369726355366, 0.6359904347702703, -0.9522066449929996, 0.21614042029100672, -0.7277365922511682, 1.083686103661709, -3.623645632907782, -0.5787579845067893, -0.3474854814983555], [-0.48026142870612504, 0.28736647058256637, -0.050039757625704354, 0.8508029068874275, 0.9010626872264579, -0.925244801454784, 1.2318040315057677, 0.39543387772170996, -1.7135818933481608, -2.73887495986203, 0.30526256822864106, -0.9632166726806431, 5.483493318049715, 2.3719411063304565, -0.7603621210769578, -0.525656566174188, -0.19106024490808518, -0.5581456739275463, -1.4922926023302667, -1.3814634706578865, 1.0313650619886328, -0.441996253666194, 1.4001671607652244, -1.5335604719345874, -0.2725071760851036, 4.026487871178713, -3.657627256811904, -0.7731490173225749, 3.212070699362831, -1.6729102447734092, -1.3142691648827811, 0.7116175395383789, -1.0995153780290547, -1.4190233638352099, 0.4050717456027241, -0.5404235476084953, 3.151789060509082, -0.3206089227042567, 2.018100269364603, 2.15097097876748, -3.6460231682047843, -2.3167320347787905, 1.5606169452299588, 3.6519284200369686, -1.2670274868379983, -0.31001330722857295, 1.174016330420295, -1.961127886038195, 2.6374316856498425, 1.9715601448041713, 1.0233310048962536, -1.0255619963720894, -2.1722584174683996, -1.201443590507702, -1.1039017860861862, -1.2212584571543084, -0.7459510804885465, -0.8972260068471003, -2.1346706029239195, -2.3773798351278272, -1.3136654512947583, 0.7934080093393128, -0.012459372729440067, -0.8018401750631726, 0.6139213404586015, -0.021446244280341375, 2.1230546789979963, -1.0656821355654262, -0.5964067965374682, 0.9017373243266592, 1.8478421183689588, -0.3319495468158613, 3.3068396236032083, -3.7004072453438783, -0.08953927969471867, 2.300791007787615, -2.906192381619715, -1.0033277557694373, 3.0104580404432033, -0.013989516500142272, -0.12267914045918309, 2.1130436399689954, 0.6154351940171013, 0.10981067699558135, -0.1646913952577173, -1.1291214457370882, 2.6254533354214087, 1.6434859072712722, -4.38602734831244, -2.948512892176984, -1.262576816614144, -0.8062402668503462, 1.74741774028572, -0.6988289890695708, -0.9597266092331371, -1.987258500676599, -2.9840903224073605, 0.3832713934979985, 0.8396213277087574, 0.22722305391781386, -0.7663790233218805, 1.806538108699791, -1.201326345659567, 1.2850633516141332, -1.9707189098774718, 0.3030176793357884, -4.067002805248053, -1.4440721595524537, -1.2572904826767954, -2.537837841439789, 0.33746492025522273, 0.466809043270381, 0.7947560906139042, -4.00061882459615, 0.08089388851133987, -0.19760524655320033, -2.350221908679105, 0.2751962336190342, -0.833955507625383, 1.0056502769954607], [-2.682066216210027, -3.677013067212131, -0.8104823956222438, 2.4267243368884457, 2.4738714187908353, -0.5680249540555429, 0.06058483624976857, 1.8337627820356488, 0.8531217489089638, -3.794458330230669, 0.1034350902036567, 0.7341591183121309, 3.2313275382590945, 0.7740564957756981, -0.028195757243744093, -1.4192533950823265, -6.635971366745302, -0.22399124133062578, -1.8715833769767525, -4.346659101883266, 1.2656742734753907, -0.6577267792810838, -1.4449208141002887, 2.7345691607253766, 0.5256139437793758, 1.3937576705919674, -0.1103351850947156, -0.8084404748677781, -0.40433494152609045, 1.6059034407126787, -2.7846563502118418, -0.6078506093865409, 2.341701535512004, -1.8320141542361308, -0.4563488238453015, 1.946940710558576, 1.3267069191218401, 0.21148338925054, 1.1176776470533099, 0.30414323592024994, -2.129754319286191, -0.5135183110697658, -0.5207707829595203, 1.90717743585261, 0.25400989601469026, -2.380912481527542, -0.30768688161027824, 0.3079740749309358, 0.28947355993034735, 1.493587708427663, 0.8294236224751289, 0.4993072049728166, -1.0995190592960886, 1.253937595639965, 0.353721297779046, -2.7717684747484146, -0.006992127038709324, 2.264477070913642, -5.922174495233344, -2.2612379680942785, -0.373815380186638, 3.154432447493073, -1.4159256274274759, 0.36322813418056205, 1.1175196519217132, -0.4377530832386423, 3.299071031318862, -0.9229517378739236, 0.6051059773376792, 1.2481076098527375, 0.12333527264008695, 2.1469361949331405, 4.582204297926379, 0.05552893775206724, 0.9440274473575458, -0.8029796668943638, -0.22588357049901484, 2.3230471029482587, 1.6097196500392648, 0.45308199952751427, -0.7679101777198548, 1.8940298000033537, -0.34219487006468813, 0.2678717519540839, -2.7142781901762096, 0.8192382436332226, 2.0774490400771097, 0.4939263391323985, -1.8897137198333875, 0.22960877395474935, -0.48175829091107114, 0.25532182920519864, 1.8291368584563508, 0.4921014294458189, 1.0076264878045502, 1.2188910362936871, 0.2686025287366821, 0.5013563239365791, -1.0225579037866195, 0.969267269372223, 0.7704250927550854, 1.1037904997290846, -0.48311577639000347, -0.8088721326874625, -1.6532422470771528, 2.211633791621962, 1.101065351716232, -0.8359559102293428, -0.01865013938334855, -7.3803197099594975, -2.4315965553801777, 5.530831602430289, 2.2192626092828602, -2.051173727711949, -1.2690471867505186, 0.8183971675083636, -2.8136928117382873, 0.27292117923843606, 1.6769215998200764, -2.5730825784279627], [-0.5041914894488408, -1.6187655102191933, 0.4384349858934414, 2.628626587207114, 0.9165661567192672, 0.2752800957921693, 1.4623780130172368, -1.9422616391267762, -0.522058779597061, 0.5984000092440043, 1.9412642279779888, 1.7125830324127274, 2.0884988345372095, -1.5173045564398626, -0.6567613291720149, 0.1162997369587152, 1.0743519377316284, -1.2284207807117047, 0.09556863732835257, -2.6556449391827432, -1.843689673696913, -0.04501460302952155, 0.24657739545783347, -0.15959089672988963, 0.791955749822442, -3.4210219120017427, 0.3298255467035582, -2.2351614108438818, -0.32060133811102814, 0.6673997276941703, 0.9329520277718957, -0.10208290493245072, -2.745738067171591, -0.02395390090185289, -1.1488543751154197, -1.3668818893832029, 0.895023692784957, -1.0003073791153072, 0.33268493688378437, -0.5216137054288794, -2.265400794515122, 1.0998447854253115, -2.0934975184233338, 1.3094273603636446, 0.34467031111665647, -1.9538223298226967, 0.5621318582490434, 1.5476527190126768, 3.3052682872759935, -0.5063018547772808, 3.052565144994672, -0.1596648039093409, 3.096888245241897, 1.1330651385545658, 1.0474806134309345, 3.5019235524617818, -1.4938293880458506, 1.996191370923114, -0.8379725941489633, -0.4640048695460517, 2.2159053664725215, 0.2268340187430145, -4.298013643949088, 0.287481520162682, 2.033492087385669, -0.2126224413291765, -0.12608137222624036, -1.8403775432629677, -0.13087757450796633, 0.7434685521579417, -0.8882099552972259, -1.7088905090060613, -0.9759101484399698, -1.0052269358844625, 1.2210835142092105, 1.6907705450535193, 2.3987277891445573, 2.8002251287012143, -2.638846008704613, -2.014162096551439, -0.8375289615088929, 2.282558662355034, -1.5000475836399336, -2.418745264764894, 2.246772513221089, -0.025929315510595456, -1.767535887741901, 0.4132908456873817, 1.2089674623268558, 1.7876045176755657, -0.6543187107641704, -1.4653993093530309, 1.1454486565498427, 0.898204762684944, 0.8349615341693148, -0.013135687983750146, -3.3558988605932045, -1.0602777329819044, -0.287237802145938, 0.9799992040868893, 2.327862868310425, -0.4610583647247319, -0.12465487881139031, 1.0201778974372988, 0.8380934112942428, 0.0996134841743382, 1.622980009046698, 1.5079992831502347, 1.0093645823634223, -2.9868234512425658, 0.40915197850786394, -3.3462808214364514, 1.5432433312737235, 0.5490106864526413, -0.03907174300178474, 0.7708405031665629, -6.100566767951984, 1.8433831890291357, 1.2222670001922418, 0.197202908241342], [2.2853102088192148, 0.5575133666166339, 2.378634591991328, -0.5381097983422202, 0.9679927230455413, 0.24396231105850769, 2.092819107116622, 0.7714553010478736, 1.8883186002192351, 0.6779628294237494, 0.028805126669943983, 1.791883280887271, 5.391314843430005, 0.1365654908724822, 1.7590347611588408, 2.2162599631916065, -0.7391496489407328, 0.731907954066396, 0.8779382215239264, -0.21854742453282625, -2.0204427439755253, -0.5505447891249386, 4.186552071345998, 0.46392764629041283, -1.4707491540877107, -0.3517198941743021, 1.4278036448951776, -0.14275047738414545, 1.9242072110035469, -1.4163608050087741, 0.7769837389091954, -1.7608198469349974, -3.5126855396996417, -0.023015134036110226, 0.5711896468182664, -2.34200922001494, 0.6943431992312611, 1.0025276928807063, -4.627003358722586, 0.6623450859135491, 0.5585307476960907, -2.4436793266114174, 1.5443845546296933, 1.676187128080898, 1.26636945799631, 0.18941435307695279, 3.4497557712404943, 2.5448951014076755, 1.0588117865486988, -0.3171672380335741, -2.209745749824755, 0.2842438204114653, 2.0999991020147784, 3.0338158916121327, 2.122994694715707, -3.3900670302101483, -0.812312091543548, 1.407426117846538, 0.17485935950763554, -0.8133144623658262, 0.6044183232551251, -1.9911353918957122, 3.869402066692386, 2.5676539030612404, 1.1425182053768697, -0.3165532275630894, 3.0838918861270335, 0.5089757305870095, 0.08520057261975701, -0.5580916729135982, 1.6652569032033917, 0.062254124149828095, 0.9129024501562597, 0.3908739680525534, -0.029593549483894276, -1.2314337221762703, 0.8332990594822944, -0.7618560480622438, 3.0692025578364515, -0.749082449546013, -1.0976337785458552, 1.1214646736475726, 0.047525989483268326, -3.8661364851097417, 0.1610582417123934, -0.3683149767546902, 0.7500456075452687, -0.1109859063718963, -0.27916295749335246, -0.9833670978285673, 1.17807346671395, 1.7290060083199124, 2.994834591475828, -0.2547460738292876, -2.4504134912003472, 2.600099282279911, -0.675050778853257, -4.322394897964567, 2.117767790824317, 1.459969929120808, 1.8488026712575159, 0.5108327433896971, -1.9905702147692708, 0.004355500837928285, 0.9462995845857428, 0.015365877136887371, 0.887489404922638, 0.6844191177548387, -1.0440872484204067, -0.6038068465150521, -0.39933075413676894, -0.7848773838873481, 1.0780084431282515, 2.522175126711626, -0.623997066610682, 2.0011838074715627, -2.6631627087247662, -0.12404554512322388, -0.5435738755451572, 2.2891604996291584], [0.5465912837713974, -1.0169919095503337, 1.847920619877123, -0.9715367721752096, -1.4372894904461708, -0.38302360646113465, 0.6963206824460741, -2.0964999183005553, -1.3998895171040613, -0.38964334404882445, -1.4153157323535743, 0.12277762150663023, -0.7647836047704206, -0.5055443471011407, 2.3100307941467046, 0.12045601595179992, -0.7017528927452237, 1.9776956839227917, -0.43050736970677045, 0.2076732884227431, -0.4577870873100835, 2.819485635256656, 0.2627961267930361, 0.67012750532669, -0.14720991615508192, -0.3698730281954518, -1.2253348078933177, -0.3107831495953256, -1.1610572985204255, 0.04534001569688675, 0.6134708190654321, -1.667988286340031, -1.4314061535839466, -1.3804595740675987, 1.096520215825758, 0.5432761629565857, -0.47416160452539763, 1.3117891469095826, -0.6723506211362289, -0.4597767923363649, 2.0222914630760944, -1.455108390103372, 2.1957031805390175, 1.9221781016118942, -1.5959374013712886, -0.4769998325560006, 2.7042460790917904, 3.351241988695943, 0.692729053389338, 0.5896379880907783, -1.304672929626246, -0.23387530435635565, 2.3309455986108256, 2.2482716718486784, 1.5602658064519026, -1.1152999184285561, -3.6548470378404057, 1.5416034886931174, -2.4583018946250235, -1.4843984289273275, 2.0479768635557805, 0.7253579373511414, 3.03675251844367, -1.5490704281707772, 0.21283080988873676, -1.2483335369017448, 0.11817789507597101, -1.072209835487853, 0.6469535419889705, 0.5969592112802701, 1.3398938566640493, 0.1473029661886436, 3.0071583147017202, -0.9601053344009434, 0.3447538071253763, -1.1913579432823034, 2.0891434615652655, 1.9549453035513695, -0.8745966769654449, -3.706198222991788, 2.4127804837867326, -1.9994322670341125, 0.29416538266035025, -1.6259185985079658, 1.4777409201177172, 1.8519015508357137, -2.6342243078338234, 3.1432729260422114, 0.3104177403081912, -0.1760642875231171, 0.8924712165172695, -1.3213794631529807, -0.5050921286126805, 0.7082419371713263, -1.4751833781131567, 1.5443669347764561, 3.9403713855804536, -3.0921770691720996, 0.5199892504170345, 0.39640103342323507, 1.21987974815947, 0.24445444284751477, 0.15842930426139484, -0.9561003449053885, -0.21824626204479633, 0.8561152118540666, 2.1742017432443688, 0.035340156061048004, 3.545636236369399, 1.7939748029704279, -0.3553616015897603, 1.3603818559692868, 2.1373294038396082, 0.8961606370549465, 0.18536814079485114, 0.21679644709544288, -1.8259965365833615, 0.9856550180377005, -3.8854866199445204, -1.5465236009035637], [-0.7197351497593573, 2.264166692934691, 1.87390546921819, -0.24417829733734037, -0.18563006781519692, -1.5080307707107206, 0.3039208735810162, -0.5730557850435919, -1.2940997853463339, -0.49995876117033355, -0.7979782217686927, -1.1241076640029284, 3.5158057222170127, -2.368969777498244, -0.0200631426638412, -0.24090170378822515, -5.643728326706505, 0.6401345213182115, 0.905202510072967, -1.351523667796895, -2.6727478547974255, 0.6710545194962999, 2.608798324964142, -2.13181610875509, -2.374506896810555, 1.9511422098910411, 0.7518015676358594, 0.48161495790189546, -1.8816914801859956, -0.9071145085088159, -4.137131932306983, 2.2217824466196814, -1.5197723611494711, 2.675687767388647, -0.25332907943352895, -2.100165315174437, 0.5208688723206055, -0.13419652367700916, -1.2600705800599517, -0.3355884849688504, 2.246669414417337, -0.6083422386063463, -0.11157723639209628, -0.11132374007931145, -1.1596012103673365, -2.1622382719584414, 3.828081888434438, 2.6988907683818315, -0.5105317830205067, -3.851894415142109, 0.8545071064877333, 2.5115049279206736, 2.6486698394054464, 0.2736734960594864, -1.1179772978830853, 2.083404936332105, -4.021534183129672, 1.9687448959542486, -4.5327487067708105, -1.5097728453347212, 0.853100398949049, -2.7239485197920135, 3.1658807321624094, -0.5058876331217153, 1.0164624904040482, 0.8478528264277305, 1.3450653439422373, 2.515317288158776, -0.4276370990474471, 0.36175894533742525, -0.5477528509416961, 0.5117596381276327, 3.686055199692266, 1.777923804173552, 0.1029175614280805, -1.470750930907602, -2.0698061645469976, -0.8544765804571641, 0.1276814351619936, -2.7347958794622254, 2.274360889011199, -0.41010042683467496, -0.9320482314521007, -4.451469905597184, -1.251277387986961, -3.6472564263242577, -0.30960036065995145, 2.564426337919339, -0.7201231302560607, 2.378950949917498, 2.2381812713945126, -0.9650217932379629, -0.4092686725067257, 0.9944585428403279, 0.38409277131831254, 1.1489058684517823, 1.5888461803125074, -0.5068701142937185, 0.3704691259195109, 0.937713135667465, -0.6859796301879156, -0.041536991872173745, -1.5055141673495651, 1.355291940275959, -0.6259682974211233, -1.556076938810016, -0.41429081822027775, -0.4008292343020275, -0.43961214561466305, -0.6658406083333115, -3.8627184592934154, -3.066095273953424, 0.8759969917842423, 3.227725953302956, -1.706275684352272, -1.5079504863444768, -0.8816302846364238, -4.085896478387889, -1.4348361879293936, 1.0816386146557784], [0.2549005672492087, -1.858704028715688, 0.5529402025705734, 1.5105983529988178, 0.8759115007740607, 1.4352192092038611, -0.3921043065464482, -0.24764407405181035, 0.22727309497559392, -1.6557260624246175, 3.0013313014296683, -0.14930656006542042, -2.0960815072313874, 0.9366692966809174, 1.3560359585871822, 1.9129826481100742, -2.9584522842135894, 1.8630427918316061, 0.7383399966969433, -2.1810446240630452, -1.2854305007163156, 3.0628415448267705, -3.2871899046483923, 0.5611118812888161, 1.9045709133728805, 1.17072013872841, -1.1678056851000052, -1.1640921214637978, -6.001973734876815, -0.03165708849627222, -1.2008069411590783, -0.34741277338655596, 4.167518214512824, -0.7855146414784696, 0.8675360972586064, 3.0728794215376776, -0.8103441596560524, -0.4067417013267262, 4.902325511501402, -0.9066647487678718, -1.4547411885806998, -1.5988976819637615, -1.277325673068355, 0.8625321594412964, -0.699146752195691, -2.612699819681841, -4.772375426181375, 0.2670739406760237, -0.9192306377995081, -0.9031941224450692, 0.9534067938622163, 0.19316718479729725, -4.728461710296931, -0.41848132537805244, -3.075753252465051, 1.7313835998181157, 0.2542399710790726, 1.3480288263057205, -5.116386265075066, -1.5821597680836392, 1.868562043723113, 0.0362721504052567, -1.72151500356002, 1.3871480571701464, -0.5359991714711204, 0.8509256883630725, 0.5416481596092824, 3.111480231160763, -0.12988109040165946, -0.5239159361393965, 2.2886801873780755, -0.48815259566035296, 4.122376966133262, -0.4529091577896545, -0.2138754864397659, 0.16207781568108895, 1.5209499039637655, -0.5023015475203894, 2.2935263830789347, -1.390835774802908, 1.666421380654888, 2.8894804379967294, -0.05427691684782273, 1.3419146144706677, -2.223460496860374, 1.8628660855523314, 0.9413110885565575, 1.8314706481694751, -2.8827838493599502, 0.06778019910114857, -0.21612398362261956, -2.2076705449504703, -0.20470166714665436, -1.4560125257148264, -0.502833312576295, 1.345839225790656, 2.5265594963833786, -1.221697994653109, 0.7976195721595356, -0.6387121086860589, 0.1270388961681281, -1.0504730185562867, -2.1251187516766703, 1.1021936365094263, -1.615506871694479, -1.8638577699748518, 1.1365703451378943, -0.9596270268700908, 0.019098512119393434, -4.815715326681788, 0.5894177054807653, 2.6473736889313653, -3.2611977538095056, -5.120415467294831, 1.300768719124891, 2.073506953684852, -0.5892178939700904, -0.700428543965671, 2.278229419327474, -1.1719371052979655], [2.948480123329341, -0.03315464530677649, 1.7135795562640281, 0.7807972434368594, -0.7830511183919561, -0.6218037291631515, -0.16257694329788883, 0.5716944599546064, 0.3982743274012473, -1.6320719727041255, 1.373344371987221, -0.474821939909986, 0.2486933050039564, -2.271817055389588, 0.7456777093946505, 2.1095014031336525, -2.8967547711294643, 0.20087805121291466, -0.41023159733199904, -0.022477254911509644, 4.27341086460594, 0.43563292824599353, 0.49553645577711836, -1.3455673744570813, -1.6705785357202192, 3.5957349774821483, 0.01149871938137914, 0.12755153221862472, 4.307604473698859, -0.9335657703980835, 6.117731591615855, 0.727407406901793, 1.9004042999775825, 2.925672120244012, -0.2903434281930435, 0.5644774354659972, -0.7364705771289942, -0.6568823773716239, -1.067549065952275, -0.17184455134653712, -0.07349928345316907, -0.24481079678044426, 4.5900974126469, -2.487145632578608, -0.07724277908171316, 2.260427242025218, -0.37490926153143556, -1.8129761858886078, -1.4844001625950176, -1.5394406073972506, -0.683284390695628, 0.43244491708561444, 0.486364488060181, 0.8309233711939576, -3.77682150291925, 4.693877562923676, -1.297001657644793, 0.22521851364186643, -3.8097065006237605, 5.397421492995494, 0.20636124712765644, -0.1983864612623712, 0.3016737816539377, 2.2801416273685864, -0.09981673173782167, 2.4457050717918647, -0.005172954533365015, -0.14321691476048873, -0.6228317685349831, 0.3609863530457018, -1.184865570768925, -0.39500335077581994, 1.3406755836217938, -3.0215641622366456, -0.8788668195818581, 0.4134363244350768, -3.7353351851056726, 0.07749045022266024, -3.8931136861303166, -0.5664409824637747, 0.5500471540799999, 1.9023494505966727, 0.5253215667456689, 1.7515006453859, -2.576590039295564, -4.034694427112192, -3.012699575724018, 0.6956616291418588, 0.4421483285300741, 2.6631122246506953, -1.5223853436220112, 1.1099367077168707, -0.9865748274351994, -1.5410746607862837, -0.3377436929958699, -0.297631904284866, 3.102268845282528, 0.9973416462244346, -1.1354189256774534, -0.8012242013308865, 2.5507249622897215, -1.3877136419159826, -3.3180838583654455, -1.1112450748725482, -1.0936588731176566, -0.9325670529074602, -0.8935304820267552, 0.42846867455503096, -1.454677618701534, 0.6771879417782771, -2.6509259878428932, 1.0749413875816733, 0.6184168222999447, -0.2935511381569898, 1.0569392029928606, -0.33927293729498353, 0.9523909466325423, 1.1570696108800775, 1.202132224493806, -1.0654456617318513], [1.329863682181718, -0.5251664658881038, -0.5536002020614963, -1.3474346922941887, 1.0620165211757508, 0.2135531436518173, -0.3329625154612605, 0.5324175457500738, 3.9422020477973776, 0.478191817707978, -2.130970509046903, -0.030132542892593022, -1.3422922147093679, -6.749059615496724, -1.899224850196352, 1.1211694824568108, -4.898442176268139, -1.5435669805789474, 0.3101194587546971, 0.4206916766365125, 1.7275032471010714, -1.9900405793390106, -0.31162658582217034, -1.7702809674571363, -0.8748562079543803, 1.7079958541640583, -1.2117371763035303, 0.11036292819761123, -0.8358753197917961, -2.7103383213729644, -3.157290459350256, -0.3450498536135327, -0.7600480463389562, 1.9803366285610784, 1.4275524811111118, -0.047905923619195385, -2.105881108125666, 0.42998197169449887, 3.2727157103021507, 0.6635298506084375, 0.7684951269995929, -3.6052747334768993, 3.4982095714107206, 1.6475120170709991, 1.1836706990434627, 1.1765728550434351, 1.0167859184097234, -0.38674469193653, 1.9277404447772384, 1.8857744736652498, -2.0780220866034638, 2.6943403819530842, -2.877969065758248, -1.3986300731804686, 0.5085504071787738, 1.299847433655707, 1.9581245585251352, 2.7114490168831105, 1.1362753851003198, -1.159975811524094, -0.58263781284915, 0.07038152699859743, 0.94895890968579, 1.7960826659134412, 2.684135470330926, 1.7480837470388033, -1.0450666293321262, 2.4430250968771294, -0.8724647161715311, -0.09365239926873024, -1.588847227101487, -0.28730862174048466, 3.09648900945047, -1.2599372333613845, 2.223314859076536, -1.475440360656135, -1.6013475948198836, 1.465904887742241, -2.035518397189586, 0.6583931659181536, -0.7534715666381823, 0.6735901514421435, 1.8994026595040587, 2.537630788010624, 0.863783012752827, 0.27196947206718775, -0.16637853192141486, 2.1072303522016043, -0.6015518871186087, 2.310339220578869, 2.0895176098989947, 1.9307180415488254, -3.3816345973733877, -1.7902394264166375, 0.09620433527672609, -0.9220588028026881, -4.858431270547727, 0.16924591755219265, 0.31398538697502215, 1.3042012134150758, 0.277522570252514, -2.2038389253071715, -0.2882899518730133, -0.06698267850652488, -2.89722093666133, 2.4678616215294737, -1.6587805915914025, 1.4292176624165007, 0.6337016966457332, -2.2157690422760763, 1.9044699012208848, -1.4416780306614911, -0.5112975097895446, 0.2510411759440082, 0.2591053251087985, -3.457217695775697, 0.5832977371811326, 0.002978668196363859, 0.31322467261070214, -0.9237224332008761], [3.4519974711155306, -2.044196658964401, 1.3824209169682338, 0.3337768295384155, 1.9992419286210041, -1.4692192709310838, -0.39080172987824874, -0.05924061058831353, 1.131861279050843, 2.2565584918163717, 2.253624301296137, -1.624155791136608, -1.9542871036879814, -6.646517782988792, -0.3218347749233292, 0.07846799708216422, 4.074200363944091, 1.1771782921201022, 0.6702030947535664, 0.8240332246602816, 1.0218954908371423, 2.762195688674647, 0.22130546482771687, -3.480344959040373, 3.86476840868957, -4.096519499776398, -1.4422980785863566, -2.4384844570855795, -1.1476279824904883, -1.661971191685358, 0.5254720145430569, -0.5402325407295202, 0.289170655383556, 2.533038688949668, -3.2337620041524073, 1.7416258263969873, 1.4336413625667275, 0.2101666762061281, -0.27226338893226815, -0.3839748606386747, 1.2557778333198697, 1.0724493247892308, -3.2515970248268804, 0.5649214478600383, 2.0923441371266875, 1.9168713148392802, 0.4402507715997105, -0.42361860277565494, 3.1703976950732042, 1.7343587408075467, 5.960976545367455, 0.8131139296784488, -1.9299452748572603, -1.885165377275218, 0.9978520903248095, 1.87728198186316, 2.034062231343816, -1.2003851898464601, 0.4020776500659236, 2.920343805482004, -1.6338808540082819, -0.07044718070902865, -0.32372236396544707, -0.2984720037915248, -0.6876758451617409, 1.070940912230878, -2.888171349459653, 6.345258667524593, 0.11586636150228548, -1.5833237703770753, 0.45344975796515186, -0.661411095006675, 3.5810907471124356, -0.14510289718320957, 1.2487220926036522, -0.819100033354293, -0.5553817293871173, -1.1057382121937944, -2.8080071911857294, -1.126884258876595, 1.0238391245473597, -2.1947879291860577, 2.616201521525282, 0.7175121655169852, -1.1876457889483756, 1.5440002097171006, 1.5656075653117707, 0.30852933933180793, -4.907541097023111, -1.4049794893575587, -1.9317507853554368, -0.370502538636044, 2.7326220404769592, -0.25064053117503726, -4.46499496509331, -1.1430607923648421, 2.494182251549704, 3.976456493337408, 0.8786802079349771, -0.473598460464843, -1.5638777933753487, 0.8063779798748576, 2.836143859164171, 0.18811009628162123, -0.5765059053098672, 0.7357031738166758, 0.2176790910838178, 0.31585671465617643, -3.7628588140184607, -2.6918950292983888, 6.134963675694707, -1.9183824664329832, -1.4725747956270898, -0.8728691942227954, 0.6065973184108642, -2.6105584835338607, 1.552069826913572, 2.002304949923163, -1.4056707327718545, -1.8885724321049857], [-1.7653332454297497, -2.005024507680769, 0.16463760953103654, 2.2464535544702096, 2.9269890131234866, 3.4126124852922275, 0.9080478246630184, 0.4595795660789514, -1.1560454042080934, -0.7183198977361385, -4.252091474623599, -0.04443152199752191, -0.09862777022545573, -2.6182092041331475, -1.233051627674109, -3.2286874052875953, 1.0461360482235458, 0.9200496405532683, 0.8224089443038745, 2.9005577943336687, 3.415489419331385, -0.471139867412969, -1.9117702249904465, -5.461604400837126, -1.044320696459891, 0.0009040777740738224, -0.4903748892431921, -0.8447773090868754, 1.4921016267416014, -1.2491696205371878, -4.8814281951594785, 0.14704697041123377, 0.5221571828411276, -3.982754120000225, -0.14128032654554962, 3.820384446856657, 0.3522305775479094, 0.732520524708351, -1.477812758236235, -0.3090252727682188, 2.880043540389027, 3.4826914670235185, -0.8097316134378678, -3.8443668914189644, 0.0014069904936668083, -0.28072871321371046, 1.7988037430742088, 1.5433453390753322, -0.11354097719659906, 1.3330133774064876, -1.621066589067459, 1.568229085636029, 3.868959939431093, -1.8756176880370297, 2.093012952381891, -1.5795168236778876, -0.3840467232981979, -5.128692264934536, 2.5687214368369675, 1.7602236213760611, -0.007484048288386156, 0.2882713079137698, -0.554770944896501, -1.4706602058157692, -2.0850527600178013, -1.551287165743058, -0.6724406825479354, -2.3148416741727798, 2.244093647457342, -0.2735631080412743, -1.2096053430876708, 0.9808930972936217, -1.2932247888103576, 1.9821126777127267, -0.8675284383983108, 0.9395709510901208, -1.1484838858044721, -2.582467386452314, -7.155849500343041, 2.3021911660878662, 0.655463465087813, -1.489859621442718, 2.2355445862804473, 2.3712734351285363, -1.253127342180896, -3.7187247027924006, -1.5381258677608027, -0.11696880251639145, -0.983974949618056, 2.186765226402586, 1.6276425031499717, -2.615365464238834, 2.8710190178356414, -1.3194181832610143, -0.6049945912215431, -0.7601243625480039, -0.6452877097219826, 5.993025484143543, -2.8336471093513698, 0.23106643711549693, 0.5851967334931282, -0.7878877405988229, -0.9943139142112336, 0.38303810522880366, 2.5221453831792764, -0.05600123632785774, -3.220720340969033, -0.390493049259559, -0.00317323087403788, 2.0808135555713787, 1.5391302178008397, -4.676042661671697, 2.413285080966771, -0.43810118459379704, -0.6749563151366329, -1.8355828087462616, 6.011473234695253, -2.1726541323272546, -1.3111024067251167, 0.7766642793290585], [2.928510027642815, 0.2925870233903849, -0.8662712152834102, -3.1025650456708624, 1.5881242437080088, -2.862074800674337, -0.7579830425110803, 0.5556148106436908, 0.10261081507470975, -3.036413454179879, 0.03735147026036998, -2.0647551942105022, 0.5101101905240419, 2.0143453312028874, 1.2733221285483884, -2.426842312028021, 0.15393750720978708, -0.795971305054646, -1.4565477938232012, 0.7107653045390318, -1.0895091275514701, -1.5937332126876753, -1.0727863533691395, -3.378528129634126, -3.519902998554926, 2.1660863483383985, -0.2134830690807205, -2.210496885842368, 3.120090152554867, -1.118892414014015, -6.428389518118318, 2.51962154595218, 2.4696648010038453, -4.496751275701808, 4.555559025582953, 4.176556806993656, -2.0715109574661748, -1.87668178844868, 2.035790239605863, 2.920786157684033, -0.45179089782077214, 1.1925573993169598, 1.474238834784138, -1.7406440256537343, -1.5878939200101316, 2.310765705477245, 1.7887551567889437, -0.07706606644574232, -0.7041459268402048, 1.2449620824769303, -5.174086344148964, 2.585837071598497, 1.4076788998442138, 1.2524429208289285, 2.1117337350432357, 2.044042333272682, 0.6754679773275047, -2.3582853661929293, 1.1837356465994031, -3.3104022774612862, 2.6065704032585235, -3.1622048067179978, 2.3932491789040657, 0.7616743738660176, 0.2192583426726716, 0.036079547936309415, 2.4621737436552715, -0.04873502080891953, -0.46196310859392525, 0.7755320348821352, 0.9997000852873745, 1.3196093328828515, -2.3713608220608267, 0.7486183314285078, 0.17706666473407306, -0.9566537761857543, 1.5462018029076456, 0.888683648381984, -2.808592924456633, -2.0679382283549654, -0.8229200761518031, 4.403739901504481, -1.1032060163702089, -0.8644124088405629, 0.7181775626672144, 2.4196574743895654, -0.9735746881138242, -2.4177020384855794, 3.311570506430222, 3.000196128052492, 3.9971956326538933, -0.7573125043605288, 2.836949628694662, -2.411882036442587, 3.398079595808822, -0.7657518665461693, -4.96042977005079, 0.869692151337723, -2.507523295446301, 0.19755713337570405, 1.246785034390347, 4.271305353661645, -0.8754506785290352, -1.1681047795026143, 3.461210942067955, 0.1404728053485308, -3.7424023021963566, 1.3620198762528926, 0.4734611036713933, -0.2551506005536361, -3.8812179827060214, 0.21103265363912524, 0.24669968507365114, -1.6305314500065167, -2.1410305123434963, 0.1259122036926603, -0.31291718028590826, 3.098110235059621, -0.43182411825302, 0.8188703280742978], [1.8518478107031895, -2.621937945323657, 0.32225986924474254, 0.10499644229074498, -1.775294770125819, -2.1429295332330818, 1.3883556921507996, -1.318040212688163, 0.3062212243527908, 1.0237603823873567, 0.26552576510746884, 0.025367181727012213, 4.0188444025881465, 0.8171982064742325, 0.5984420015767105, -1.2797465813393523, -1.7657452130042697, 0.40999516539661945, -1.290908582031231, 2.4395790111366336, -0.43075991544089637, -3.614213634445059, -1.4032688581401427, -2.260945045462096, -2.114127785875863, 0.8856290260474982, -1.1239701253606404, -1.5609517785415714, -0.5425196473533085, 0.6925282381345628, -3.584562010069595, -2.288431496671706, 4.220629546907198, -0.3365161366315767, -0.5462699913291462, 0.5405558006080171, -0.7032625568675576, -0.14100325920678675, 1.057380612870525, -1.1880851930045127, -2.1565591326698574, 3.4698680640430375, 2.2701819798395517, -3.222810623259278, -2.443805151120598, -0.3035628768181609, 0.17879891026536107, -1.9999986420786173, -5.2347480974157365, 0.6494165428317067, 1.7316172110100922, -0.7155948591450282, 0.6820389595926725, 0.8067518082195633, -0.16665035829042238, -0.9313163513139725, -0.3245840929504531, 0.4844742859453054, 1.9249529763169153, 3.830723588607913, 0.37230062470016717, -0.4805011894750522, -0.5772355874459631, -0.6540973706202503, -0.8660906992020831, -0.1907064456382563, -0.1225743796581593, 2.0702333743841947, 0.24884534903974267, -1.1678907803359333, -1.9382848348897508, 0.8777249338784899, -0.8295814180249443, 0.8085247348718638, -1.5241528990333544, 1.2592045572162358, -4.785864067465889, 0.873321474397388, 0.755940864850703, 2.2902830654493385, 0.37047939615846437, 2.019664303509798, 0.12241471410502866, -0.7203540845242615, 1.5708963687253046, -1.1312354968781575, -2.2064531577225126, 1.3867096913942685, -1.7598510608103917, 2.316647703817101, 2.647161948548781, -0.003328986557346556, 0.3100815154990022, 0.636686797374998, 5.724467718164248, -2.1646197418381283, 2.335983067003668, 1.359569948366178, -1.578939963580098, 1.5718156537554884, -1.441392922182029, -2.2740971446558307, 0.4843776914936182, -1.386104005274371, 2.0115210352327564, -0.22559056761759305, -0.5673621973494816, -0.15105175821374858, 1.3695923819357245, 0.7635266599594204, -1.6885556602141607, 0.4758701155536799, 3.0404535044460284, 0.22498615693241905, -0.12829145096248207, -0.36911230817406293, 0.030723543890695825, 2.3252424675169907, 1.40428330138633, 0.8296778690234546], [1.2793333352299874, -3.058033950951374, 0.5666146012744149, -0.315925175639698, 0.9981918857213654, 1.7120402281266272, 1.6332611559866965, 1.8813304234032695, -2.6164513108116756, 1.3941423523751184, 0.005842650884688582, 0.2882908316132673, 4.033068618858339, 3.390378185083003, -1.3994274796866397, -0.9221584241404529, -2.0403525059809, -1.128062194751983, -2.071424618578962, -1.7342849631707224, -4.608308784574796, 1.3948554972692353, 0.058007594703574826, 4.408973092856148, -1.8306200036341251, 4.293751660434727, 0.5196814042952661, 1.2248700861377069, -0.8191757500399404, -0.13546014944263957, -0.4752975146183775, 0.7778495450561677, 1.7021187476336446, -0.7858623979791254, 0.20316043020997865, 0.5187364995617475, 0.8780588181863477, -0.4951583898835696, 4.566564614852563, -0.6935189755558564, -0.9363982769222957, 1.4767683898077717, 2.7909899389935875, 2.6954305736816204, 0.6549006221458057, -0.8434354565916025, -1.48788071866614, -0.7046392706591003, 1.3006728283070867, 4.505620381274825, -1.3902989479182135, 2.5871016090185877, 1.0227975519036885, 1.8878501873912927, 2.075254183685155, 1.3616222046189534, -2.064092095971351, 0.24420347362334852, -4.423020221413729, -2.2316233630508484, -0.3134107983860372, -3.9457986653681094, 1.593765008886753, -0.33441753718105366, 0.20981163314507986, 1.9504845002326567, 0.7742919809829125, 3.0491148081814905, 1.3380447949258216, 1.114546688167317, -1.570038328530525, 1.0046059761508392, 0.2309189123724568, -0.9962800418564419, 1.1723888220604435, -0.217238899542897, 1.0787385547183512, 0.5258805809019866, 2.390693099429675, -0.14448729813221253, 1.8266774225011744, 2.540969340297334, -1.898462049879666, -0.6154874698734965, 0.48727741086173004, -3.0062516454434136, -1.0022445465255665, 0.2653479614653955, 1.5533839556479387, 1.5478309635802294, 1.2593780584512508, 0.998335019933685, 0.3372673723732027, 0.9166440941044433, 2.243252040624956, -0.6063126275813198, 2.253798850615068, -1.265508275004287, -1.6674787300423493, 0.8489667654498619, 1.1991061978006923, -1.7483874664322194, -1.6013264302730086, -1.2119390408342487, 0.7751784312107076, 1.7910833714852123, -0.6657714560315592, -0.8335061760197224, 0.5611540793689008, 2.5652003568493, -3.5691098689036607, -0.15306829656717258, 1.4588563989988206, -1.3494055948732047, 0.16170766775328382, 0.65227644452265, -0.9632076915236547, -1.4868686651002871, -0.14227862893860582, -0.003032872849625965], [0.5329555449193696, 2.214517555874488, 0.03967629566132668, 1.2593215889898313, 1.0379950270588807, -2.06761113176302, 0.711886181796296, -0.9236749595945947, -1.5453763854396056, -1.088054942429825, 2.727501728588922, 0.6025084071825523, -0.5894934535367047, -2.366068953131132, 1.1539267659788826, 0.47794090923929566, 0.11953207245333883, 1.1173581087951134, 1.1932568866453026, -2.9589122303992235, -2.845917884780579, 0.9076873209398726, 2.8861302408760734, 0.2627130140404852, 0.07628323768726174, 0.8934209547596281, 0.935613191009409, -0.12240896777485878, 2.72652749510994, 0.840259750325052, -7.2419834850308815, -3.099657523208433, -1.4961218618388534, 2.7602845219142718, -0.2903665042934993, 0.6315904120935139, -1.3650925577615216, 1.171325826622308, -1.008231266968457, -2.696692163350002, 1.5885213616073748, 0.4068147520322754, -0.474318934536455, -1.4263889570534065, -0.2165020862957716, 1.1743859127985374, 2.501688295651179, -0.6745300501525633, -0.3308428574794728, -2.633122771240984, 0.34923932230058125, 0.1000332913127265, 2.3059914739883487, 0.12872588972121646, -3.2356173373974157, -5.847380101985733, -3.459214339431373, -1.0971939264975452, 1.2616600290522466, 3.415772007578822, 0.3274632903310432, -0.8820575995053745, 6.055384385111819, 1.4900155051707868, 0.5034527800682599, 1.8148835203936218, 0.08651326067335649, -1.4226645290015996, 1.482326726938981, -0.3898486319529161, -0.7950143360400029, -1.1379103952518415, -0.8965348092763195, 2.021340009846423, 0.696414345519561, 1.0244458494431927, 2.203808893969255, 1.8213724923113512, -1.9728040874439838, -3.55765694390024, 0.571130744053015, 1.306908878722053, -0.5916263294356378, -1.2460899740715252, -1.157479652608534, -0.021180910500885053, -1.864595108635371, -0.08943477858353303, -1.2888904587406311, 1.0556493236954851, -1.684506801274455, -2.283821226412512, -1.0772052286841352, -0.6224297360638712, 0.5994625767870025, 0.7918195511153718, -1.6019422726596475, -1.0362211850359309, 0.46295327299769, 0.5376713179664053, -0.1346176030536342, 0.6928970549238838, -1.3538348495390071, -0.24826527290221045, -0.6717116929551298, 0.7499026441753075, -6.623331760146031, 0.0024763718680939103, -0.9849757477840462, -0.1256830031517917, -2.810132404420045, -2.039186836906736, 3.022941490449008, 1.8292915735982553, -0.04959128704493248, -0.5387334465917889, -2.69819745644083, -2.649199487433947, -0.5719341968481199, 0.9744750256170268], [2.265227101761661, -1.7715688831497576, 0.4954589230313991, 0.6006700160486119, -0.2914058640242538, 0.3042179663503719, 0.5543785857280439, 1.619413267814474, 0.5309810843094473, -0.39883280387025416, 0.35099307626601484, -0.6453818194888784, 4.422023495168646, -0.8671654885063587, -0.12104789998715779, 0.9518975538716011, 0.31758703660605525, -0.22115067530053759, 0.8241588630041865, 0.27415739465704525, -1.4816545246404356, 0.23647831816063244, 0.635499656644974, 1.8075429356101642, -0.7468309242741223, 0.37909395786242056, 0.5174646763602836, 0.36193096849548245, -0.26351129538207324, -3.084326578236268, 1.3887292428350575, 1.282725762181371, 0.5344838101441146, -0.8514384197765837, -0.92974373781407, 0.9555877964816246, 1.3288170964990185, 0.5022504989478798, 0.10311321014182429, 2.6034037907412935, -1.3173026461134136, -1.3314048981580027, 0.515843881788773, 0.09801514773728205, 1.1465932466651825, -1.1117998556379016, 2.953834077790682, 0.6617814349679554, 3.2989936924537706, -0.36130131516399927, 1.1520566226646787, 0.7187300045677759, 2.606810073116802, 0.6020118088332396, -0.1534943344236591, -0.8076323390519572, 1.4501762162658103, 2.272627979638584, 3.790567024215279, 0.2369042727896685, -1.214511653848429, -0.5961171401727929, 1.1779079602009164, 1.0748560750999883, 0.4732501135544548, 1.9657053719962014, 2.6638254979773306, -2.0986985239064944, 0.33758506138213623, -0.477547471105333, 1.4815136215991698, -0.6668847763748403, 0.25837300638852023, -0.49955192801251636, -1.2859922461569635, -0.29053563740566674, -1.8910651517147827, 1.071731416910451, 3.2202756479315076, -1.009520712909228, 1.0062311587091095, -2.5412918422535657, 0.5405283201660059, -2.4770949228713244, -0.08958026990238055, -2.7458545931552893, -1.3267358908391715, 1.3563841523898612, -1.3786874440843087, 0.6789669694358043, 1.4848272131221805, 2.074214157381101, 1.5800068532265812, 2.424806453147469, 0.6591892926914988, -1.3049429430387736, 1.7702424418596951, -1.1619380135899728, 4.837786557471832, 1.5045093070737288, 1.1074924638718615, 0.0382519705537459, -2.386712745936632, 0.9798555351317336, 0.027859196871350946, -1.422619100590214, 2.9906217133220987, 0.0442953450699698, 1.9314580532955277, -0.3802570846671719, 0.2623780126095147, 0.972756376836812, 1.452618092929447, 1.1349146828982206, 1.9949436482847984, 1.8617445383277618, -1.1025922975061706, -0.05186605628861002, -0.6404287472937061, 4.8243191816833], [-0.17739478950189252, -0.8921168844101159, -1.6142166497313577, 2.123375228540653, -1.6931491598644974, -0.38853298702532335, 1.3704684134267118, 0.8395948548868714, -0.7352656241109297, 0.6520572507422142, 1.0887931239365254, 0.25188377070542317, -2.111726745933816, -0.3006977912138584, -0.3850785153805027, 1.6723376036206303, -1.332410110427888, 1.5879217374198122, -0.27101236643424204, -0.11962005511019065, -2.3165937581942413, -1.5622492924408111, -0.6680813353717567, -1.1592288512910618, -0.5964209415532659, 1.384021832617991, -0.4165742223181816, 1.100442383672363, -2.2242016531062387, -0.38576936860335515, -0.0004620197785534726, -0.6912448364012208, -1.155626907020484, -2.3119298573859672, -1.6267147503095614, 1.8478729217741106, 1.3221720440147138, 1.148554712921898, -0.9203182636319949, 1.801906867000589, 0.3189510856561058, -1.0353519039483232, -1.5217047838767752, -0.12016123316485451, -0.059650052731781804, 2.3160562243827667, 1.0659197647394079, 0.0089876323901737, 2.7521839815597535, -1.2065667259901116, 0.7860466387555142, 0.26015151142232545, 1.2163567342028612, 2.2230402142407866, -1.564007010821442, 1.0183973794801688, -1.5473516983529885, -0.15164645517997802, 2.148033308725509, -0.8874264867764521, -1.5190192370563476, 1.1839164528054127, 0.5096615369316849, -0.6379155578861958, 0.3355866378373856, -0.03362188001868439, 1.0166327013659642, -0.7425191153538404, 0.8608215121581415, -0.5419677485266013, 1.425054695143927, -0.43098725458064924, 1.5924236665898202, -1.0393500588778577, 1.5817711281833158, -0.03322055175750085, 0.6286905256739392, 1.2294650694634683, 1.0745655865562171, -0.07557221818978141, -0.2817978692982128, -1.835579091182226, 0.28231453777017385, -0.5376785391549004, 0.8633712913158391, -0.6835580124303304, -0.49849458936510455, 1.0382889191370734, -0.38615255768173856, 1.1911946535360196, 1.103789530965833, -0.04199834057020638, 0.6625811688478109, 0.7129581546460909, 0.545435521437259, -1.2326017326957504, -3.125135018100422, 0.6994122689930206, 0.9313161705572761, 1.6078159836009775, -0.3234581486781865, 0.9425076680348892, 0.124851449306405, -0.34786654286887064, 0.7822983294330178, -0.3450639688411312, 3.4738498002289417, 1.6852255327819798, 0.32630814332579455, -1.4881778123093934, 0.6982013020522441, 2.2631362435031015, 0.6870060680175611, -0.2224575698222976, 1.428573058988984, 0.9978994394475937, -0.5163970009280284, 2.1248386292080017, -1.7364507151476505, 0.3835475886132543], [2.8778014073256233, 4.270374063606805, 0.2683099784028728, 0.16701551436381068, 0.23226300914939865, 0.4586979500452859, -0.5330602665680186, 0.45045804909095916, -0.8957496021097755, -0.8045064514919251, 0.4310431264532315, -1.109654326785733, 4.551314745278865, -2.3529892584966405, -1.1139733717440172, -0.2443098753908682, -1.3096443265685864, 0.0002244358176185691, 0.0995344691368389, -1.9610537774941061, -0.7026452114178542, 1.4559232939908369, 1.799337655244606, 0.4761155457512628, -1.7863722058060714, -1.2955663514990332, -2.4203652882862006, -0.38338455182468545, 0.9105528287504459, -2.966673072153909, -3.466423657220253, 0.7234908631817377, 1.9101771404735775, -1.8101192448577585, -5.500046886450873, -2.402102067835497, 0.6101056271743325, -1.0773786466475344, -1.7922839784259523, -1.7183615864851298, -0.5047424855477223, -0.0773306584136546, -1.955229885756082, -5.882188216063401, 0.11343337390762849, -1.0939035659449716, 4.556344506026075, 2.0406716003517102, 2.711876861819601, -1.7744710116696565, 2.80666490692312, 0.9828666634233147, -0.23131032872894122, -2.015794154591591, -0.40924562863583674, -1.0416349236545357, 0.6986005620456031, -0.729475045218499, -1.5656947140112865, -0.126428045397082, 1.2533481296986424, -3.0281575095386803, -1.3067880718522744, 2.330064044882026, 0.9639179847016551, -1.2584054681836705, -2.286467799758957, 1.5313609355961169, 0.18467185641214823, -0.9417440761009429, -0.2516343003201334, -2.863883592379953, 4.119139280300527, 1.0492383363123932, 1.8896896095041043, -0.10302366960148658, 2.6751378741411043, 0.025642384734507733, -2.2038805093384113, -1.3205992100845787, -1.2089339730566413, -2.29040525994057, -0.38948823522666415, -0.7764839768113103, -0.09027080719819788, -0.6509926835944129, -1.5461282652162613, 2.2867276420010167, -0.09352028883327296, -0.4570843603756372, 2.658317659145436, -1.5999274016996572, 0.008348791573558225, 0.8586795508876527, -0.26214932763388044, -0.23488567693684034, -1.4734903603534097, -2.3061038849480733, 1.3462574873763895, -0.7803867587859513, 0.5807973251780411, 0.39290314363443074, -0.37884232268785145, 0.76487943799104, -1.553027526697827, 0.604253667829931, -1.8954390242349015, -0.13516341801286433, 0.5959324582548038, -3.616961671508466, 4.388386255225828, -4.6915104539160835, -1.5689779354853166, 2.2701522394680653, 0.644593335773006, 0.8132678925337932, 2.8310390612002574, 0.4959852309822205, -0.24331808934449722, 1.6423336018903358], [2.0660128055855336, -4.086081865951077, -0.6251241091703459, -1.1520279485881206, -1.4865545097857848, 0.7561996946317651, -0.5970200479045387, 1.9248898750223726, 5.282247186679265, -4.477523044975103, -2.1039121171210136, -0.793340962243463, -1.0590622901138567, -0.6295766124065909, 0.9340212989698673, 1.0153495661326812, -2.821883918036088, 1.3149938235580254, 1.3223709764331188, -1.5004466073454266, 2.2538034290496056, 0.0329949350722388, -1.3608651489421302, 1.4451311690304314, 0.1354252280922107, 0.09873548127130605, -0.7940453476614011, -1.8237358269075012, 0.7428176989499891, 0.6481005410671414, 0.7742683131896912, -2.590353785513218, -0.8225770286908319, 2.025701867739618, 1.2019433245485196, -0.10150056396477133, -0.09299687284595054, -0.49242897319687284, 1.7012815715776812, 1.352897521972167, 0.40999947948044896, -0.6245745483954778, 1.311477307507111, -2.0116160764372886, -0.9229545933271331, 0.057089733876088795, -0.3008789698070322, 0.3517325159140772, -3.5334023326815642, -2.8143535616976587, 2.9033742310704342, 2.1578929999754597, -0.7396929330623133, 1.3665300987880742, -1.2561694298027721, 5.140749375268619, -2.2556292593110756, 0.342327954939317, -1.6980402995808006, 0.5599171330806727, -2.399595479013356, -1.4496404117094799, -2.2276612987330413, 0.8842229274143515, -0.9229338989167513, 1.6357474415549882, 1.8750421971816191, 0.20965286857598495, -2.2516085494052436, -2.3289566521910765, -0.41727940944439046, 0.06515721254338666, 3.0483849869412882, -0.7658366832849277, -0.2449537341625712, 1.0751373653714842, -3.1560013476302777, 3.1524981166875463, 3.0049081494520467, 0.9077963521108708, 0.9617678952583738, -0.9194071704704107, -0.1829656625846957, 3.3686855964419387, -1.4714105713964492, -1.5689517619940898, -1.6252285162399458, -1.0900807290965788, 3.101396799161927, -1.1464155764965704, 2.160672702447546, 2.3702085205096375, -1.4657867728557041, 1.107603839568765, 0.03383669207569344, 1.8717279591742264, 0.8882220169494416, -1.0637475708434043, -1.7043052418049403, 0.3847557983379324, -0.718946238224628, -0.790947973215836, -0.22051337081547467, 0.15287066618614276, 1.5803312279403363, -1.6263059626885803, 1.2274287428125532, -0.12610330591404828, -0.5259336613554961, -5.4239173308214195, 0.03563200636446667, 4.748645514044788, 2.2314836269928913, 2.7610811698380937, -0.1589557883320069, -0.9199321413339855, -2.533894633626059, 0.3363528843262452, 1.6916729333713225, 1.6186405732030356], [1.8428088700867777, -0.24240593312723036, -0.3079893125559828, -0.05714754874289812, -0.5492821464410228, -0.6833420552169132, -0.6431219773605952, 1.8071802226407532, 1.983026842113019, -6.235592676608724, -0.11459784718390996, -1.169594425299305, -1.3188168469197354, -0.13907562662320455, -1.6043634053236466, 0.2786405526121662, -2.566016282118477, -0.661950678469784, -1.4979830221604964, -0.4414137917359231, -2.034288375901076, -3.084743478470211, -1.0683491197839041, 1.3082150830347956, -1.8812468849982813, 2.448917908004567, -0.35850318820018917, -1.308303885120547, -0.34207626033342736, 0.15511095275169792, -2.918121799574153, 1.7216357478363138, 0.7426218297530481, -0.9031962042181582, 3.0989489542980135, 0.3434449869693375, -1.614532702702705, -0.3707429021021121, 4.179479412865279, -0.6160803658827614, -2.02707459727417, -0.2519264595197214, 1.544404252165962, -6.529140170366505, 0.5246867917580162, 0.20807467896768486, 2.9094183211944777, 1.103834030523062, -0.9550163823762163, 1.3393906133638285, 1.9937026456344695, 0.8137485656713709, -1.4536601462378915, 0.3983610464422363, 1.4535076200448664, -0.26482335071176144, -0.1598894657085316, -1.5562096678364816, -4.379067096384796, -2.155697056638933, 2.2609374043141917, -0.8741018272401917, -1.861274486788337, 0.7101595034476486, 0.802925824203409, -0.06459422372927781, 2.0598157081741144, -0.9551153574591509, -0.10756333632541047, -0.19407761128605244, -0.48300460617377833, -0.796944833027602, 0.9960581244850514, -2.9293241001153105, 1.803258787435451, -0.9164955609032408, -1.3744026541626413, -0.7220331197526253, 0.4470936575700218, -3.6982898058429385, -0.0030941549135591996, 0.5324113779448473, 1.5199088334271433, -0.008727707530955189, -1.1051759393009617, -2.1767123254177183, 0.6522777373803389, 1.4001994503076844, 0.26984929336135965, 1.9493606175880187, 2.842638012845565, 3.8455009739910326, -2.2262298047764646, 0.8494788870359301, 1.1458732407387782, 0.01718581800130655, -0.05311778747152408, -2.1965867295991757, 2.6398178831514203, -1.0394467543729449, 0.21709940422398757, -0.18428976896144503, 0.8585928931858213, -0.0031409224281717866, -0.29051158452256276, 0.36513618558780525, -1.5954795164830957, 0.19652408009424646, 1.314874560361034, -0.33238782897348096, -2.3344416690776906, 0.8430683058375271, 2.2184221674729327, 2.8886065237796172, 0.9666410566142558, -2.739392544372891, 1.1286175084314636, -1.1784984836460959, 2.9738988881621418, 0.25967655375427795], [1.8405509359068588, 0.6690578240298259, 0.6366494470481536, -1.3879406681585904, -1.986717622062187, 4.808706256184314, -0.5845424714484133, -0.3024089950178532, -5.292957011099612, -4.24723710401057, 0.12067590384161035, 0.1556355144625198, -2.7966120546230195, -6.150795255726407, -1.3774737889977862, 1.0928497453564725, -2.870123516099907, 0.64986309408872, -1.9623138880907154, 0.6226576627095054, 7.680784131145374, -0.5629957577281847, 0.8284823092772708, -0.29016004251250693, 0.15316402769555898, 3.7666524434515147, -3.0078338157889197, -1.837693830094321, -2.6556573040097438, -2.6223021096931336, 0.21895861303277706, 3.5700544757739707, 1.0964455262057229, 4.914067466934437, 2.4967152035979274, 0.5530005038562393, 0.6319653233684724, 0.3141140583521375, 4.11724345577195, -4.436146532380549, -1.0696773898826089, -4.2710076292060934, 3.7036340872974174, -3.4200314875904096, 0.9757100619409055, -0.49028346561109465, 1.3795399550751961, 0.08041893487562138, -1.6815221922958836, -2.640512298276886, 0.5008015348692592, 0.11631974799515718, -0.6770144908072234, -4.089796492149696, -5.392035552466072, 9.877792618492716, -0.617803781524612, 0.5724423711631645, -4.442765699534414, 6.2782670596938095, 0.10049000354533334, -4.303858552746066, 0.21831245673348884, 0.9041335860554994, -0.18478856400109897, 2.126622590595136, -2.051302513972984, -1.513270735412179, 1.9369447494668326, 0.6586497609652461, 0.3576014828863283, -1.363837034911788, -1.968400275053965, 3.659818012634678, 0.2363484010203919, -0.8741726903454416, -3.590047766009224, -3.220436278275404, -4.74486421714771, -2.284448154594615, -0.9865916430558371, 0.39212367209037, -1.3073553659093888, 6.1103762692368875, 2.0788441362267807, -3.5895709796062722, 1.3206513168995389, -0.5534485316303995, 1.8971316138215992, 0.607942703741285, 5.269726967846881, -1.037498906748139, -4.7036556723180665, 1.724137545986139, 3.027033950241697, 1.1351345794664878, 2.856492352966894, -2.922912006290951, 0.314972894260062, -0.18426060493249372, 