{"hidden_layer1": {"weights": [[-0.18494607091939275, 1.3178963722088477, 2.0587313893601342, 2.3021024348469727, 0.8008124992791804, -1.3206994343783443, 0.7416728378756191, -0.14139897431931603, -0.09067374181862815, -1.0417787837310675, 1.1560132503711884, 0.5672072198029467, 2.9827746771320305, -0.24461857275863072, 1.1691504289483703, 2.2347117171694615, 1.8319679248591514, -0.04250129330238859, 2.717243451262163, 2.2522587365446074, 0.8927701133451568, 1.7515437092251112, -1.758369010479716, 0.5569802620425119, 0.4603845404235235, 1.6291289828574447, -1.817721889973135, 1.6309021075220473, 0.034276276442616174, 2.3936691509016983, 0.6485558616375298, 0.33054040051074507, -1.58221861791327, 0.11429336276531439, -0.019872591258561924, -0.6192504959107143, -0.1861434236522677, -1.569415302184389, 1.1980440988324035, 0.809557424660898, -3.0224213359350403, -0.18499156212959558, 0.18905925884061758, -0.9425103419950507, 2.3828983805351176, 0.5438569322562442, -1.8718137083025013, 0.5982947803870113, 2.9260873592101198, -0.8326905413342245, -1.5206516421878478, 1.785918951831284, 3.399096261598422, -2.9462659873459, -1.6142099952939335, 1.4171788537586467, -1.7565229856367401, 0.11526100456446269, 1.1027555158640168, 1.0657065590603259, 0.40565198692866483, -0.8517690630827245, 0.07833171224271257, 0.35679337430433017, 2.0736212236320317, 2.177090283945098, -1.907780030790796, -1.8066031887352214, 1.2673262518672803, -0.6144728081385002, 0.6253534649049324, 4.21404801627186, 0.0162023139398465, 0.7173348863527786, 0.29581895673667924, 0.08860598168441057, 1.9344831461809284, 0.3209650327812347, -0.7343182234829089, 0.060072221376941085, -4.418530344743661, 0.5354683734758274, 1.795527565261812, -0.6932010703774447, 3.8438895340275296, -1.1566855921436008, 0.04479368927898062, 0.05192128443632855, 1.006657194756785, -0.06534209117791595, 0.11635026996729808, -3.8215616709569225, -1.0097739983737137, 0.0993648557805536, -1.328096729325898, 1.869655946282235, 2.0231812636474036, 2.9715253877206216, -0.4039970421367628, -0.5997266012759679, -0.03552225682380491, 2.0818369174269367, 0.03180252210149603, -2.0092524520104362, 1.432906597575793, -0.6797375706293878, -0.3129398326058652, -0.09380656155820404, -1.413366909910621, -2.4928321507399422, 0.6051848799736325, -0.14380455180709617, -0.8887807806906185, 0.9711577878693557, 0.8533025436075136, 0.8267784879501942, 0.7576113103097604, 1.1811827566432138, 0.6574840238513733, -0.880039633515901], [-0.9990831082081172, 1.4562472320376367, 0.3668452984161433, -2.784030596781617, 0.8389368536427632, -0.6232050857274545, 1.2836030988329847, 0.048179406579690734, 1.3923790806482355, 0.09036658492048538, 3.3348254430281483, 0.44115914074543194, 3.7082825128360684, 3.400919026010374, -0.5841118229218296, 0.6170284647462645, 0.7241599077913313, -3.356878404371483, 0.5917552339979276, -0.7026632210370807, -2.72514526064953, 1.8913457276737484, -0.7194252471971039, 1.1605024440706888, -0.5802483375014433, 1.4132510552527926, -5.802797791879472, 1.2497497598114407, 0.3447593702018803, 4.154469086187535, -0.4108520160208167, -0.9512209346537088, 0.8936588045837378, 1.8376239118558848, -0.5220695818412798, 0.05924195513493247, -0.41194842668161125, -1.7723179638371114, -0.5324671454653065, 0.7060941912476745, -0.31827877423829715, 1.6190427766753135, -0.3563760203559064, 0.1758220569384811, 0.30318273748047264, 0.7021362287633267, 2.9060644425486375, -0.2022983438500709, 0.9926985794234563, -1.8056636637530394, 0.26373553273782574, 0.6612874525982949, -0.5779611502731683, 0.9459634274074515, -1.9409976804418665, 0.9912014837554994, -0.17595422473538408, -1.7478636378681647, 1.3763636100203074, -0.03960911957213753, -0.18087650281089715, -2.466588452687567, -0.1845074824716913, 1.2770848254240053, -0.11566348622869717, 0.2748822522371149, 1.8044421692355224, 1.5375978360560827, 4.354881512201856, 2.7951125121187, 1.4632998162603321, 0.9384493708738825, 0.8364477975589175, 1.0324586199477497, 0.05753890810558972, -2.4458076688884303, 4.135383705233321, -0.18925067640320914, 1.2117619108072946, 1.3122305287914395, -2.4498495811285417, -0.43583895933185723, 0.9963100299509472, -3.2610689419336616, 2.6506360763962302, -1.4447005143985638, 0.8376397621341486, -0.6309513026725361, -2.0327352059160817, -1.1369372022542024, 3.4329877057501217, -1.630539113503986, -1.3446456408407623, 1.00516057898323, -0.7752636021261454, -1.4073454042218638, 1.7713064506090341, 0.3149016533196626, 2.557514391261156, -3.5399787841275545, 0.010390971093278875, -1.6925904187963325, 1.6943619648886568, -0.7983840958843842, -0.5962051334005225, 0.28647770650192855, -2.1242337787241032, 0.7852253660889996, -0.25284035867297633, 0.36365811929678854, -3.1171367357658877, -0.200620593484094, 1.4324334524718298, 2.0016472106367047, 1.04646925324194, 0.2389525235545415, 0.6815133522895742, 2.0137022060959757, 0.07173063896157413, -1.4169310846546959], [0.7801363496826555, -0.315589365275158, -0.2712225459951883, -2.4254404853392404, 0.5072885123015454, -1.0313602147315648, 1.0933197938540493, -0.8208133003559258, -1.4055653944707183, -0.8832642503018405, 1.0616650072210505, 0.8376275513888216, -0.09088810591917723, -1.5170529159556478, 0.673208587907437, 1.4555780010786015, 0.2996344242927107, 1.3118719713826064, 3.2879592374750097, -0.7798655400783479, -1.526376429470079, -1.6990892294857065, 1.3746644912921904, -1.613452595338106, -2.577837400639883, -0.6336024871524036, 1.0039255339436335, -1.3022614617089026, 2.647956528538609, -4.114325220222594, 0.07681735126142347, -1.050488809486278, 2.4019580082471585, 4.1502330524350475, -3.567692504737624, 0.9941712039741909, 4.2069364813158865, -1.301163165764372, 0.2743911386435326, -2.327496900042846, -2.6413535277854896, 3.2589742918684457, 0.6174956081076827, -0.2655774206809729, 1.2738635731639474, -0.24274594469258365, -1.8748395195601775, -1.4587907950505454, 1.2957859463588346, -3.5854873544465273, -2.1610292124479664, -1.826319109504955, 0.48934300969968647, 0.4894364777338016, 0.8259060438547545, -1.026891722641441, -2.091455544724223, -0.7832872097070026, 0.9233319845643696, -1.3308463293837087, -1.483736225496885, -1.2699231820070562, 0.35308395840903667, 1.1615166719756036, -0.43555900627242833, -0.032803883195625744, -1.0169902989256723, 0.10029354732623821, -0.8142278610924613, 0.5896240645623887, 0.10735065559765994, -2.79002109535925, -1.8055505710635555, 0.5137327635888429, -0.3192011032713863, 0.9286355380956307, 0.028318134279332084, 0.3466306831074882, 2.34135224671045, 1.5527637191082402, 0.4952355886990784, -0.27659387018917014, -1.472736361897336, 0.7680737312409043, -1.0776503058262137, -0.1742014469673396, -0.8051962893774528, 0.8757375210919535, -0.7559199220645718, 1.3243688497802482, -0.27940704426870666, -2.115944044716286, -2.9905451002900083, 0.38112653408093494, 0.6272502128306787, 1.693986484207635, -0.06820569256620461, -0.058452391886098964, -0.6084607835545099, -1.2920576171686453, 0.26360321448955504, 4.039316188156267, -0.5363005575880694, 0.15211462305812345, 0.5484415957998635, 0.6444116200473824, 0.8484958280614271, 0.4234243371093357, 0.660590038760924, 1.0455748847529245, -4.489193532565518, 0.17217361091328126, 0.8393785853571654, -0.49994425690409694, -0.003765303365641285, -0.7345509761367645, -0.04133940045944507, -0.731901779439353, -2.1813211085771025, 0.9009882369136811], [-2.8104628514287424, 1.2602104756017714, -1.455004801694639, -3.2238812356905604, -0.14260223796763055, -0.7020096933829556, 0.05818013219264463, 1.1530399902073556, -0.5937676432021863, -0.8646566174125366, 1.850721279157924, 0.2538251645105593, -2.353439221282459, -0.934050677446889, -3.0875770837574885, -1.5265771814363462, -1.653558242507456, -2.0546098955483725, 4.564104671642726, 0.37819035543467333, 3.200421386764977, -1.3527141465633912, 0.9422638189293004, 1.2185494620851505, -3.2693525441309865, -3.277723216207752, -1.7351916894274593, 0.306165679747464, 2.4382675154939486, 5.266736437676799, -1.0620201397721154, -0.6380000216521837, 0.371155602626021, 3.5187282226673107, -2.61257138835037, 1.7247342279807443, -0.23011341664749282, -5.082782822656535, 1.0049849001471702, -1.4669497544431507, -0.5181826335748823, 1.2245408915592482, -0.8059267173475998, -0.2721127982230484, -0.37537498545204406, -1.7833443536948659, 6.071006893646743, -0.8586359663910128, -4.641926380331695, 1.8502260036927527, 2.017981383062922, -2.5907707416726353, -1.0975415084869045, 0.1886944613368948, 1.1470049760893526, 3.7058449130386752, -0.49436948925037366, 5.006361732576478, 0.24883015566105945, 0.8382412174958586, 1.0234161866980886, 3.0840222216998656, -2.1675203361129003, -0.25205119805145776, 1.8633006538914283, -0.6162805239055984, 0.9024902057774586, -1.9895064822842607, -0.05533100772369525, 2.5334074020934274, -0.9138647770097597, -2.6938966712813763, 0.422812630064626, 0.2423523634089912, -3.372072770088358, 0.5539947030753013, -0.7950081673086572, 1.6139289099709735, -2.4674460094520727, -0.5420387182887613, 1.5282392958530506, -0.28190746659233956, -2.3504658335572204, -0.5028554797461534, 1.6029350094734005, 1.765223454193372, 1.0251566486572994, 1.2068129579140232, -0.39061067441227254, -1.8015248953292131, -1.5432575665397403, 1.0468331698360644, 0.01280652891463989, 0.7801778728058405, 1.9669454835991178, -1.147092191893138, 2.0860840143749493, -2.2346817696516714, -1.9675959579772744, -4.856794872781265, 0.31146334253266283, -0.9157508671316824, 3.6178522128283257, 0.6524339520559197, 3.6890230718597854, 1.2526874817868254, -3.1391280961542005, 0.8736867241070065, 1.6659201000260753, 1.885218114682372, 1.08289006916488, 1.4633384619353877, 1.371039905966425, 0.7327315392929646, 0.8221953746760803, 0.5396664587474181, 2.719628195573278, 3.8255913359428226, 1.0463757435819812, -0.7774758108637368], [0.8459877306468776, -0.2533133443102754, 2.1092584348264447, 1.5325240568185836, 0.3367281496278988, 1.6819654956871246, 0.8462893677097206, -1.2171752683491828, 1.1807884644781976, -1.7338687589928368, 0.6280091916988001, 0.07299639778765124, -0.06812386622941649, -1.251925778369956, -0.5834299325102412, 1.0496601656189641, 0.16426417206388788, -0.9801946940891486, 0.6344561133263361, 1.949990295294177, -2.2518933892956197, -0.519292336665921, 0.8169543460365583, 1.809848470830664, -0.07575509718893846, 2.9639546521260964, -4.3757652266288005, 4.032748417811706, -0.1609278305016439, -1.1488674884146728, -0.39116790546195096, 2.132429352003058, 3.1695972457417523, -0.6442052967241512, 2.4725692253681335, -0.30158112302398726, -0.6022051354296071, -0.8736754139845899, 0.3805373514921887, 0.7381427987879964, -0.4109016688591865, -1.1924166756126373, -0.598725943278024, 3.9633626020169848, 1.1016738929814176, 0.7056098443529112, 0.029279712861957016, -0.28210102325571035, -1.169059249336928, -3.374166339808276, -1.5937805090994641, 0.2000448555343238, 2.278927953624639, 1.5081851513519229, 0.8521498400065763, 0.6995350952277222, -1.5825930364325447, 0.6241802596278735, 1.2828305311394723, -0.05072463473937919, 1.2844647892967207, 1.8405871611093423, -0.8549493923163409, -2.1229302338170375, 1.287741537489644, -0.8247355473986822, -2.8349107560637616, 0.9119457000163104, -1.1492074725443124, 0.7806961205116572, -1.4405690836077214, -1.369368447709411, 0.0688295776063458, 1.1580368425405874, 3.6056306227548256, -0.44559749119442804, 1.9902169823133147, -0.479529239627879, 0.48170373274553374, -1.0542130662574603, 2.1178768232222285, -0.23524491186676022, -0.6573345026779978, -3.5051164454395254, -1.5302682751281698, 0.17965405519229885, 0.9444635903639736, 2.4942172162411045, 4.073515724158954, 0.24296018840206368, 1.598442950624588, 0.3331961844877119, 1.421685648672424, 3.6175679451842626, 0.40221936994729335, -0.6044559170610714, -0.9146182351613436, -0.34830550198355936, 2.2724484052043206, -1.040942727154964, 0.45487957501081533, 6.804860265207656, 1.6987753130830283, -1.0167052827457954, -2.4249230945782614, 1.9703123094578558, -2.7216025034284037, -0.33379483264750176, -2.169062733139153, -0.2859114124131012, 1.001116158065202, 0.04331484816444275, 0.5798342524728024, 0.26949637602669746, -1.1998996967814959, 1.00874015159539, 2.9488091503753338, 2.222587608488507, -0.5105168886400653, 1.193570212902442], [-5.904242284642312, -2.420926428432469, 3.6628535878300097, 4.635213997873435, -0.7136452056261487, 0.5658325957888977, 0.3454376051703665, 1.2575139453573374, -1.2350626880292792, -0.8267590197637981, -1.2122802432439368, 1.152396414187515, 0.3230729137329114, 0.648184002899271, -0.13295364840940896, 0.7784862659267484, 2.934694230366057, -1.5894848851752448, -3.099206206003673, 3.0349620358944036, 1.3611891576470834, 1.2531835805221625, -2.4743040882546627, -0.38702651272850525, 1.5524654679660743, -1.0123742981556512, -1.1843426692530004, -1.6279821153634455, 2.703638185948283, -1.6297241321997156, -3.441299593130984, 0.5082886798071719, -3.0220599799710315, -1.1442986279518887, 0.6789603095314122, -0.5963803665826795, -6.988298537748851, -2.5818888978255896, -0.09693051705860206, 0.26441708232803784, 2.0127975175596022, -1.702484338368358, 0.539318496656345, 0.17220600041924514, -0.6191896724963706, 0.7533829887709075, 1.2641406044659627, 1.1074302084844043, 0.20656163774527722, 3.346798876368313, -4.8219969631835164, 0.14211660744888804, -0.37650007931505836, 4.085139279932966, 6.956380559203224, -1.2472352610494188, -0.5429923683518937, 0.6311430071387151, -0.20780648276577762, 0.18242355158916013, -0.9676119471410207, 0.3813885417934361, -1.5816507039537284, -0.20278030931019522, 0.18473831568902402, 0.8731245446429623, 1.5294195975800675, 4.697547383641526, -0.5967726123711447, -3.8670008967753358, 0.9057438765290404, -3.399480740069056, 0.299268582071163, -0.22897542604677495, -0.37457186113798835, 0.30660551921663937, 0.9652225955231739, 1.6150114429217448, 0.21284650217494955, -0.025842811183380724, -1.4920202105378184, 0.18523868348477923, -0.7926647588393181, -1.4669506787504034, -0.5422567162414428, -1.1572424786267077, -1.6044981015475186, -1.7085508033860857, 4.799926256052073, -3.7661124959843204, -1.011695693339794, 0.6520614910610018, 1.7141656772663694, 1.8875503611524782, 0.16083251604673576, 0.7202462945931413, -0.8113850668869033, 0.215428645766502, 2.294775042685454, -0.7654799010332383, -0.7435941675774618, 1.8454008611899535, -2.141051386228966, -0.5293338401751995, -1.5877194565044965, -0.9000295943714196, 0.5568086959438464, -2.1052731582261193, 0.08601320440431479, -0.6754794670889426, 1.9597129275597902, -0.9704407388737601, 1.3529820339711036, -0.18894473921269794, -0.12642093767302542, -2.9364236769368985, 0.8941488298588516, -0.038394985940726975, -4.679576806538098, 1.1652468396010869], [-0.6562927122934618, -2.910077463971217, 0.7889783796737034, 0.4300819712690809, -0.750138097254574, 3.984102606450579, 0.47913603474706057, 1.1396551336610836, 0.5714927668856244, -0.3794056337189636, -6.050202059360891, 1.288283378106799, -4.505331663401848, -0.6674917679170803, 1.7820171443883224, 2.175292143297752, 3.563910840123938, 1.1176874860642028, -3.6436389435718994, 1.3609889074977313, 3.665156425772712, 0.7430800729083749, 1.1784850243081129, -0.48121027253589216, 1.0942036732285751, -1.9705333503037434, 5.879382236067325, -2.7358366909820555, -2.2413206225349356, 0.9915316410972864, -0.8505919649531599, 1.9199343662926762, 6.460946120364516, 1.5601676294424784, 0.3208250527613275, 0.8219478662713802, 3.544405104789881, -0.39802754246927996, -0.6389622975563014, -1.0723085742668133, 1.2977775389176727, -0.6110570719229131, 1.7021272940311452, 0.8809871565830849, 0.31717214896288637, 1.0626625558170937, -1.6085227428904572, 0.9578877288202328, -5.478178269253339, 8.129854755545827, 4.8315574654099445, -2.084840662226268, -0.6548322551425181, 0.8143622378462856, 2.1172445892457983, 1.3050451767195543, -1.1422354400504542, 0.7798392875138463, 0.8640982505871267, -0.3324345802999311, 0.15076856211320586, 1.522467807883413, 0.14924714412033757, -2.829320326704186, 0.388126468638132, 1.163045286267008, 0.8793888620452708, 0.15161500131426037, -1.7902118725833736, -0.9091823879562895, -2.3377471780805767, -3.3533416757112238, -4.429655798777454, 1.1182327398144791, 5.713204036545689, 1.1091594203523458, -3.2507950648282375, 0.14601900831659015, -1.1824851443798194, -0.7329861578486797, -0.3262071750067202, -0.46573270484739127, 0.061647765242195576, -1.6545792045210808, -0.1642375636183497, -0.10032449678780572, -0.7413952544611128, 2.951201635530038, 3.5923654612102665, -5.382974759130805, -1.1474874479104609, -0.9634692839842335, 0.39712876683308723, -2.0978903819748904, -0.47153598076627057, -1.870121694396364, 0.7092054956971844, 1.570541991059969, -0.09412570033373771, 1.3092631451595085, 0.5246871033738876, -4.486494549856456, 1.8184811261857141, -0.8387640526451323, -0.9031328160328511, 2.0729603530583964, 1.8890524738578092, -2.666507976396256, 3.1078890510791464, -0.8859856036991947, 0.18817209957651965, -0.02276037975804561, -4.189942553317853, 6.07656649520206, 1.4067339836384072, 0.7961978558135151, 1.1608322379273306, -6.020296511230079, -1.943236755681811, 1.4025616556274392], [-4.70061811673069, 2.1868551887888814, -2.022846256761648, 0.10399243686239669, 0.5990481113153078, -1.0117514665317329, 0.5349991454261661, 0.17524896085366165, -0.42523461782261135, -2.2909098078636587, -7.21717275495855, -0.14488590562282083, 0.9086871355604843, 0.7299975480319739, -3.8093661697859265, 1.161691147903295, -0.5416561995837196, -0.8592271306149625, -1.8674169347920493, 2.2111400636545686, 1.2498113757594718, 3.336687006576616, 1.8734834878218531, -1.1661199706494112, -2.861101567639919, -1.3265531178531031, 1.2564168577282484, 3.478070806966655, 2.0660271154967433, 1.5697016961640422, -0.20391716917013927, 1.340187516957735, -0.044603801931127285, -2.309014101297808, -3.016511416260753, 1.798570680419127, 2.73775362487161, -2.0449204247256816, -0.2695418486057719, 3.639068812879501, 2.800196649025711, 2.066983675630412, 0.8557291075069572, 0.15243139261941144, -0.4374475801364206, 0.5982330238363504, -2.8507125726101714, 0.9974095885620828, 2.504494554176047, 7.009394157817021, -2.886752322634464, 0.565714525845267, -5.1648813462781105, -1.220182924572634, 1.1724458994162064, 3.2489775620004138, 3.998877618789966, -4.39716917867576, 0.7487316337486637, -0.5908880514463611, 0.8642749713349379, 0.1240964017205284, 1.2336124969107316, -2.8363674670302736, -0.0379247075154135, 1.404434447305656, -0.7447643026112325, 2.8540105300543948, 1.5612120526861768, -0.6805665709508562, 1.778981548114306, -1.541942412526284, -0.49976245981169987, 0.5597756395332583, 2.75193326452043, 0.27273490637234954, 0.9731017652945338, -1.1608569409186844, -1.43793166511756, 0.3772579707839055, 4.328898768771599, -1.3106788466487194, -0.28034033636895994, -2.3473586282734837, -1.307669414177598, -0.8856516430868573, 0.1548832724656593, -0.5329467398074412, 3.860300586154837, 0.30778903402566, 0.834861896951451, 1.0334080310595684, 1.731296269889959, 0.6748414829377732, 1.6896489877017828, -2.3054825803796564, -1.2379400313445923, -2.745735225290133, 0.21654367329843915, -1.461582826736389, -0.6885576591852065, 1.6373408110970937, 1.6202574054484065, -1.5901853939389534, 3.7427252034084173, -1.1045421647555496, 3.200531521895422, -0.36982554537574586, -0.27166025276021244, 2.101072954911537, 0.40735510868948577, 0.6222735770327377, 0.4795932838157874, -5.550262221721473, 1.3083236017003874, 0.908308309610066, 4.321267273788751, 2.100927746631871, 1.2273846380463125, 1.7418507919891806], [0.5364700871322905, -4.170817023616654, -0.20624752623210307, 3.394311968408068, 0.10772883566499958, -2.4688927296401944, -0.8206122579400715, -0.565076160391997, -1.3136143554066406, 0.12153957125546486, -2.181430505986962, -1.307406298645693, 0.581834867887529, -0.8609707602622801, 1.721716156430836, 0.21025735908654317, 1.2056046619841185, 1.8979187474523913, -2.680652420813954, 1.367633780949413, 1.1898067759412303, -0.2628875768921095, 0.6180805133908305, 0.08806428174461946, 1.0676306659094406, 4.049770242659124, -1.099426931086721, -4.805525845977164, 3.4920730068410446, -0.48794388247362414, -1.161829051128269, -1.916470360196434, -1.0219744609176802, -1.20495923746152, -0.9540987019280635, -0.42295432969845576, 4.161113475370471, 4.529894841160084, -0.346375941386707, 2.534673543948433, 3.9627507102636295, 0.37673601915149474, 1.0651197006624766, -1.8459344488319807, -1.3012024893176473, -0.822354448147368, -3.7077161569151613, 0.6098221137669799, 3.0406012515736456, 0.10193461257180157, -1.7038490092038558, 1.1444303341167517, -3.346376173890663, 4.025149591325569, 3.7837387755336556, -1.8532919907882017, 0.9864313304787163, -0.20160146250718686, -1.2050413982413366, -0.04213876132201132, 1.213212829146796, -1.9177192811496797, -3.4023749698305736, -1.1204167004983099, 1.0656710126861992, 2.7347746060694473, -2.082702269913497, 1.8948060704196579, -1.4372716417220242, -1.4534534191391382, 0.838572061615183, -0.3245046054256748, 3.227836059483757, 0.03302772039829835, 1.0570359262907636, 1.1897911802733159, 2.1660975926905466, 1.3978787355535662, -0.30342836007529184, 1.040333027673412, 1.0935278413592344, -0.6384894848420619, 2.7994578597107553, -0.23369848255979025, -2.4781995976866726, -0.4994650315676277, -1.0331411172344926, 0.17238560592965416, 0.08628029910729959, 1.779420192377346, 2.116431363804247, -2.620736207176614, 1.17878120270091, 1.006436141554526, 0.4712151782136458, 4.569141452717334, -1.145518998848249, -4.951355481641573, 2.2789892625519634, 0.24437770296436584, 0.6323117759197725, 3.552159177448621, -0.3298873295450991, -1.905169752211732, -0.06588818446718142, -0.11694923268130013, 0.6091509874727324, 3.3060718791311436, 0.14767511111430984, 0.2414686809025885, -1.2101470493181476, 1.8668674665106366, 0.4665889087037135, 1.2093203908108143, 1.4669308065584583, 1.0210354170215943, 1.1395036717989757, -0.7238795634969206, -0.88158977102396, -0.03469004679416143], [4.777835413949654, 1.8699112897863286, -3.8106803962441624, 1.4071965194111482, -0.31397012432481003, -1.614516546667371, 1.1422234884897513, -1.7389203604187367, 1.0133006509122136, 1.6021686611872301, -3.589570790959439, 1.4821760291850081, 0.4777037422078705, -0.892582348468545, 0.3390451952806322, 0.5568606657018245, -3.548498888208776, 1.608731770932088, -4.121195927554583, -2.5749997587398075, -1.9079132426430352, 0.16706923708187643, 0.8090844863218187, 0.4046731696478891, 0.8995475024321262, -0.7611786340306584, -1.5354384874504248, -1.804053463309055, -0.3307079404818436, -0.2377045628835977, -0.44124698415532143, -1.883937751538753, -1.1537947599224991, 0.015850792186883216, -1.1070387776697928, 0.028821461278070396, -8.881246524862378, 3.376593700445237, -1.0827242603172302, 0.7235716351911322, 0.27987803056218646, 4.019857825843561, 1.977724587001629, 1.3189862535090557, 0.24337682646719944, 0.731381191454939, -5.832867603563521, -0.08314495248605977, 3.9911322857402762, 1.1038701300649139, 1.6815592521277338, -0.650969551042848, 0.7208133527123946, 1.9122975506424582, -1.636604261424533, 1.1993909415969641, 1.2082336113299137, 0.8445988029926216, -1.0345421032500128, -0.2904591396092645, -0.868401367381812, -0.78497949111079, 1.0220287006036872, 0.12076699071816915, 0.39098722639077327, -1.1193046601074694, -0.10615271073865643, 1.1115942285104607, -0.9896107258113201, -3.887155660988138, -0.8840952650552474, 1.272462101258717, 0.27142507564861706, -1.15590921687088, -2.902350270072262, -1.109037804533092, 0.10641378552473357, 2.491133311391983, -0.45691814939927305, 0.6813438755653064, 2.401844796129422, 0.26510426543643645, 0.991650061271259, 2.0240434778690473, -1.9142312727068636, -1.040578000812264, 0.9579943374016603, 0.6737046758934903, -1.459068869384384, 2.258403805659365, 2.023644441881577, 1.9254994804081944, 0.5990482024151036, -3.9316763388484395, 1.285593872215921, 1.9696173812128772, 0.3017931854343441, -0.02289111188735614, 1.2201566473596528, 3.0253917406020348, -0.6597040317051093, -2.426499337358861, 1.63416555695673, -0.35350373292377013, -1.334213103631859, -1.5105553799899099, -3.9677204170628535, 4.141835650518836, -1.1766042471166434, 0.0648273952913307, -1.2948245176881328, 0.7441313265022194, -1.2010474305186256, -1.0079333994503887, -0.5111081993354091, -0.6772012770275652, -2.826019196905732, -1.8378859908246399, -0.7015501174614895, -2.2857661670650926], [0.8834939656275936, 1.0483290313321876, 1.2840854219052062, -1.528187567578502, 1.0045573163006685, 0.2604535242855769, 0.33804625309848, 1.5498508661147168, 1.374112279744317, 1.2876899111943692, -0.6877397775485002, 0.09700677994647536, 0.9516630030882683, 1.731926483819524, 0.01690784731194409, 1.4014448500480785, 1.9798802423952215, 0.09628318677334535, -1.1538644590444156, -1.1142824586162747, 1.8546723223534918, -1.0767222071295885, -2.738529973260453, 0.08293094370476707, 1.0306962129647024, 2.4060229406227043, -0.49799251247384935, 0.16397708063013272, 4.004633900007313, 1.430407938403976, 0.5554028277412606, -0.8448757640582449, -5.523230293445252, -1.0338687479094206, 1.1939523807196846, 2.2832565351492797, -0.25491330745671414, 3.236203529272355, 0.8674164219803657, -0.5771371719920723, -3.30290839780708, -0.3555921163260268, 3.019316809671409, -1.088956346943072, 0.47915762013817453, -0.19135465258864762, -0.11738522763785486, -0.5495747982837922, -1.6916710427065442, -4.301459533415671, 0.5609455997201211, 0.014501040520784172, 0.5787022569644729, -2.363985875416883, -2.016083000064643, 0.37871506810321914, -0.460971270779634, -3.3938433395486083, -1.0096711642963012, 0.8140321885851302, 1.7480618326359192, 2.574736666014225, -0.9490400686225782, 0.6027082199424443, 2.388902436961136, -0.41114850132730146, 0.7744765072870459, -5.349177977308742, -1.722538131475649, 1.7166368771802278, 0.9977427669227701, -0.9298819760866185, 0.48289736180581, 0.14288796792856576, 0.7038067196303032, 0.23596182772170474, -0.7222910480391936, -0.429527060373399, -3.4451763543464864, 1.1207802024135618, -2.2476412232916796, 0.6579562293423562, -1.3143763158971478, -2.290158748685278, 1.4424282571060802, -2.1665269579874424, 0.9860355954119263, 1.0436139843376766, -0.33933848022286656, 1.1930505111529168, 1.0726783728972749, -1.2071858680808623, -3.3006178699178212, 1.306966062157005, 1.183193408374904, 2.0530379359185855, -0.3265205388452981, -0.6992348053535766, -0.805931321709912, -3.8721007962820746, 2.0134586226572537, -0.675475975828781, 0.3525473182541094, -2.7367512658244597, -2.8526077716122886, 0.19793923301557276, -0.3876231710636473, -4.878165727542667, -0.4428430929839575, -3.245091733721006, 2.6084601942581793, -1.3333491540173854, 2.6902509932334646, 2.5141109842370506, 0.11610445104342992, 0.06719433409648395, -1.6369879158503557, -1.017200583841736, 0.20647131458685755, -1.4597262688958106], [-3.3158880401397597, 1.4098702551651876, -0.41896592774273117, 3.5602582744861704, 1.3986597828846359, -0.5146298269894654, 0.3177159677522151, 0.7794510248166794, 0.09582295751476845, 0.17351734871532878, -2.159309760922992, 0.3937705550407351, 4.2578486679132075, 0.4423163747147517, 3.2108479044959086, 0.9926609077213073, 2.575471025546294, -3.8354972850807156, 1.1742052272706405, -2.2219616970013436, 2.4461268141686574, 1.1703247599666604, -0.19379602856711955, 1.6255940369091135, 2.299559023883647, 0.6107582091684994, 1.7687233720385984, 2.8933599316837437, 0.5323684661529818, 0.661190674693281, 0.6009521708185348, -1.807769159346428, -2.404754407147934, -1.9144909440078908, -0.4936338202794902, -0.15572846299336549, 1.500824044370217, 1.5461409872280891, 2.4624978772392963, 0.2594564653552174, -0.4356292262848, 0.8719634856023086, 0.12176046614001537, -0.5143934203998628, 1.5604621938780343, 0.8041668400277576, 0.14012781723811008, -0.23383681869227285, 0.3025000659290408, 0.6490459572762368, -0.252505560312197, -0.1803286063024477, -0.26674691283370566, 1.5711285609908818, -0.5199788755465649, 0.4162180771976411, -0.3200014100656548, 1.8916151153271037, 0.760530640259598, 0.46670467439134544, 1.2570774849741477, -0.6326434505724278, -1.0917053164555703, 0.061684667458737595, 0.9964386567625427, -0.7003510749780897, -0.43618603583023874, -2.2443572060629835, -1.0779446119188487, 0.14762830923142448, 0.9733080553459781, 2.1568069490215565, -3.690321452501291, -1.1091924226130125, 1.3719859615001049, -0.0013972168725475337, 1.1155287377671832, -0.8823773307415591, 1.367561468209904, -2.052942338032062, 1.2718432864250664, -0.08099125992706467, 1.3338409701659897, 0.011320994297039462, -1.974660419236953, -2.084625243693612, 0.7547417285614789, 0.5665083787913846, -3.79453184565223, -2.7777434944035684, 0.06540014351932547, 1.6479713975068861, -0.6680788391925887, -0.18375580870083677, -0.16031005987972907, 5.022676890945597, 0.06796871647525386, -0.8643972800713671, -1.3463088150204734, -0.491798039505833, 0.2831692229566082, 3.8138709822651156, -0.15935310068228897, -1.6591780949954869, 0.5271391492097435, -0.21995578744875682, -0.48018754324848956, -2.353896592158818, -0.5608211827256133, 1.4618019916683473, 0.24562024029800467, 0.2959318919547509, -0.6078786691916067, 2.3709267990083713, 0.5438114857018407, -0.8547364859295535, 2.4807795786902944, 0.1818991147747189, 2.5060175740246944, -0.22257994706275236], [0.9796618647719478, 2.0861380337549984, 0.920878080717994, 3.273155040484299, 1.9233852031578362, -1.0282686123801303, 0.6207875130649959, -0.1999139060571899, -0.3203751110202481, -2.822481137948719, 1.2238114620797638, 1.1689666004966464, -1.0263252856204907, 0.5349666579796694, -2.162832686386289, 5.449886021134699, 5.351179262325406, -3.3374585389818296, 1.728865100878566, -4.404484280808923, 2.0973083619170456, 0.9045099202183591, -3.2356825534644273, 1.3126117519147935, -0.49709762067081326, 0.1817192640567549, -1.378055085588371, 0.7965106999198479, 4.827407522335571, 1.3914857405377412, -1.960251930194899, 0.469979424845706, -0.5307404633199996, -1.63077932111951, 2.414458895171222, 1.6306784956710287, 2.720361655679258, -0.2785714316684874, 1.4249244971047998, 0.5681845798204394, -3.7921626143666822, 0.9496976352234338, 0.16356111966273362, 0.32665924148283426, -0.3407531560063958, 0.3312988060450598, 0.5085718252480791, 1.6494059816532203, -0.19565123838130155, -0.1973272076932068, -1.3255905692175354, -0.08835335662657609, -0.6024897138699641, 0.7031129539115428, -3.3416875255224685, 2.2004390408595023, -4.364399160332404, 0.9460782649240981, 1.0895652462142082, 1.5144104203686297, -0.40156565032346664, 1.6728222969309925, 2.0154341658304884, -0.0685401037220175, 0.022921082478282534, 1.221710527526861, 0.4534337016238644, -1.366650986338022, 2.509167903126127, -1.070835570042581, 1.7492199710166083, -1.5309705880337892, -1.006536897834764, -2.0975811463539165, -0.7736795463379814, 0.9134421222142236, 3.1557761008964103, -0.9105320115410008, -1.6436205081612232, 2.1148417979821725, -1.614445219743494, 1.3929667721733785, 0.9742988227534317, -2.8282211842909417, 2.8954576628026176, -0.5981564260459891, 1.2335801438175522, -3.156135372477076, -1.110987649754038, -0.5139524735458246, -0.33229473339584004, -1.5005784235173039, -3.8147066725254763, -2.7734975562343953, -0.2862914170134405, -0.7116032130574043, 0.9665979891448345, 1.4111414580441413, 0.782714869739312, -0.022300802745621896, -1.0980311276954204, -1.6786578298938635, -0.5120309973994007, 0.33435060494535584, 0.28032709814181733, 0.1458107625436041, 0.15343335341236405, -4.989115567121583, 0.18272423896219056, -2.1193403222451277, 1.3385853390956315, 1.150033903731184, 0.3133962017209296, 0.40581407760107474, 0.4824030277410288, 0.2256834940915513, 2.228627483590222, -2.193507987344519, 4.596271431870466, -0.3716261612557562], [0.4764761772002211, -0.9384227953090432, 1.0228962643585477, -3.38679011195562, -0.6865311943731393, -0.33401320403305834, -0.7730102144706931, 0.5561357686103586, -1.373219298499169, -1.1615668570494408, -0.07316028888570127, -0.14323180318065565, 1.1271233631993283, 1.8375599516355972, 0.44997899257865354, -5.146135622703206, 1.5673948415290895, -0.010246900813406514, 1.1263374816231158, -3.1250554157821413, -1.1934484025835292, -2.171675346017322, -2.0326923590772696, 0.005095725714074637, 0.4282502630704508, 5.100719203752427, 2.057048197690386, 0.25009725535071325, -2.1994537181333147, -0.49599574985635136, -1.288614201351865, 0.13895286172580087, -1.6106979323109436, -2.0589799542508667, 2.1146580750651585, 2.158974243119142, 2.3751037868960303, -3.284533097266959, 0.979308885578531, -0.8373453323570793, -1.570917725913033, 1.4409078794394679, 1.223425972067083, -0.685779694156126, -1.1082261378460836, -0.48541630876150765, -4.281551485027375, 0.38744898081712414, -3.7752278319663675, 0.3552800034031317, -2.3930595505429397, 0.37678791102745346, 2.8690626734170612, -1.000100196068316, 0.6593472526588118, 0.2502391612487122, -3.041227873123937, 1.3537087556745475, 0.6862443245681965, 1.7491195540929085, -0.29173968708378023, 0.39465343216717924, 1.4222148397873684, -1.7240749224964624, -0.9198037904254329, -0.8409866328142701, 0.9533592096771759, -2.055219665200344, 1.376223552857218, -0.27222570286507913, 0.27707755862295474, -0.6480571021881837, 1.9612475182269173, -2.220077932948805, 2.372011745848814, 0.6654069802032657, 2.360378548680361, -0.3575014035211554, -1.0284578029772915, -2.9453347177494362, 0.87418715473784, -0.2432169252891745, 0.41251298834153194, 2.3409664375166894, -0.9209600406613779, -0.7431968657796308, -0.5852256034077433, -2.7581730795210286, 0.5390550559619273, -1.5516758446917396, 1.554128127751221, 0.04506601888912314, -2.4359938706011857, -4.844656892731472, 1.2752988554960505, 1.1091560526091806, -2.4627763695129015, 2.484900247111063, -1.2271874612135787, -2.317107287467227, 1.1770311213063847, -1.9129015489642394, 1.9283140430075376, 3.077961226163023, 0.14421166127182494, 0.6199953575406421, 3.7419303562709656, -0.850998062158633, 0.7172052984167383, -2.1884373364473806, -0.33906196652678333, -0.5441203890803803, 2.02072832102438, -0.8042838201479686, 1.471201420451575, -0.020555438660814426, 1.1352313117532902, 0.4959426405746704, 0.02789834384783008, -0.8844733245632591], [-9.199336640068127, -0.48136073415714786, -1.2810133050516563, 0.06673058925347246, 0.03047122171056886, -0.3928268434843686, -1.3163216643579876, 0.9600022447225941, -0.5323179862873229, 1.1351148872841796, -2.236900469244509, -0.25818288154114455, 1.270036662974084, -1.6679830489842473, -2.220425278275826, 2.0718508464936765, 1.3991156371098878, 1.1884467054815158, 0.8746721008584702, -0.6054132616557968, -0.5164778138141476, 0.8372885297745309, -0.29394187810167277, 0.02176645863815091, 1.821009154227584, 0.40101592297417427, 1.5296283225479514, -5.119837883698504, -2.523778218048589, -1.7727885053339074, -1.4209768223773407, -0.6553703616469129, 1.1870543009615107, 0.35847559108472166, -1.0768624254142583, 1.1574703487174651, 3.2538423212691763, 0.9326666900507579, -0.40493252969079374, -1.1397586935652564, 0.09016798324374026, 3.671929466098731, -0.18537850713306997, 1.0054304080193512, 1.2877970168620765, -1.5201490781649634, -0.29971062900712364, -0.2793690273664002, 0.2793864718308853, 0.13798999929311231, -0.8175738222909115, -2.5375873378591223, 2.8455330547672757, 0.3324890761911265, 1.906906098615411, 1.9529331446227622, -2.7196509492009753, 4.035681748635346, 1.1876400512454588, -0.941666356959923, 1.652465300608073, -0.5638978183797551, 1.3008008135961306, -0.16274535585037944, 0.10884202862133771, -0.6756082466919828, -1.4237891155796154, 1.2231661583919855, -2.7660341462240923, -0.7025319427452115, -0.06663886148575458, -0.9052884390296968, 0.39774831542365796, 0.4480963848542433, -1.5100097791700824, 1.042163605538511, -0.6781257454767889, 0.5647859071233813, -0.515164091163417, 0.5920225130650375, 2.8325080517262182, -1.5703143319965047, -0.8516485279630339, 4.030779910184417, -0.6558705865229587, 2.2525133171816627, 1.1651665255153423, -0.13683399363733026, 1.8743129895259474, -4.9061757944540165, 0.1176577093925735, -2.8687202271275996, -2.654781907387579, 0.7317070149802037, -2.8681064548044617, 3.640047908413385, -1.0592599424537372, -2.540441799317402, -2.969073175177564, -0.8744422565836754, 0.7067767842224906, -1.1395872070836914, 1.6206251398595284, -0.41406293157377216, 1.8362222423197123, 0.8175281256703737, -1.637879694149693, 1.2784428174168525, 0.38865296035034835, 0.8814421778771269, -0.14764868707298054, 1.0403505395152821, -2.6795661749473667, 4.350428659915593, 1.9797415911388696, -1.6289460975381707, -1.601008259015974, 3.1246362261898715, 3.621125549311354, -0.8110883266157888], [-4.311784374412215, -2.8535649152507436, -3.643592650337781, -0.610795685042224, 0.7700865498260866, -0.8689485966875286, -1.0784813871767214, 0.7528319331988215, -0.8118486957801383, 0.6053088970194737, 0.9964326529325287, 0.09892567989894188, -0.8994814520364586, 0.5722125365253862, 0.9100471359836628, -0.3311772512419319, 0.09064922140759472, -2.373365317825904, 2.7383691334357247, 0.44762789303995526, 1.4393401720208705, 0.4173912312797356, 0.5586554820376404, 0.8840214386287819, -2.704843410283837, -1.4617247222705132, -0.7237589945218131, 0.027863931299089723, 0.9997435194699836, 1.4735471297706035, -0.8392677641461379, -0.9096524611273109, 0.0030159469842177696, -2.2273237587434824, -3.8422771975535928, -2.123319814400261, 3.892946816332983, -1.7658292928559842, 0.4662602775016408, 0.4212006602837576, 0.8734171400441725, 3.178812362767538, -0.3861289662592671, 2.0733852057901476, -0.7266519482539324, -0.06493520733891715, -3.2798686943844366, -0.7254248626431781, 0.04469055214720887, -0.43518694332592045, 1.639261701684143, 2.097615940154445, -1.478893274224771, 2.1081651873519074, 0.18804464102722848, -0.2309480924044626, -1.2249805247187107, 0.6551208853216429, 0.7138783844908355, 0.5848555382829507, 1.4794797392386516, 1.4274497517903815, -2.317789820277158, 1.8528749364065427, 0.3495401789084032, 0.6249575965141081, 0.577728010835995, 1.9646424536293472, 0.4979107686529779, 0.02601881048046845, 1.4227704963180081, -0.37517548519790084, 1.5462088047888527, -1.4185177092085655, 0.40407115276990313, -1.0382790518992673, -1.093080026471744, -1.3104301352205237, 2.125086424373162, 1.867598246574806, 4.599525565235559, 1.2951730289917487, -3.5876398279670347, -1.0806818752482037, 0.30375164192572723, 1.4659986990540266, -2.1198663620767624, -0.9369681920623011, -0.11836438025960411, 2.2546495040349215, 0.557710216372943, 0.5338877320784051, 0.7608745546890028, -0.4010296930848832, -0.3671284833714926, 1.2077206904383138, -2.3497864357091562, -4.065499617944799, -3.3634510607179715, -2.0216634539138747, -0.8860245023176307, 1.4489034198292028, -0.12463187421763769, 1.9234516409089597, 1.854944210834973, 1.2324798604186555, 0.7415081848154755, 2.4440426968236966, 1.8009268221222179, 4.243240897288235, -1.6409034218392453, -1.9425924874309175, 3.4089780982481117, -1.7710168792461563, 1.3652089477693843, -2.274600654294573, -2.615569164412634, 1.5346059039964663, -1.2152590017886178, 0.40828183097273574], [-1.636716725140918, 0.23267081024762307, 0.17163945023791632, 2.85882244685517, -1.438074927539961, -0.5600152288974902, -0.5926544153943031, 0.6734168712102283, 2.6461812208906372, 3.9598461174000725, 1.332889463631775, -1.8937432151833522, 0.526570109433835, -2.8924046482825907, 1.6340147390684656, 1.2448589114662794, 0.6865218607309805, 1.8858079822585436, 1.0296035528978786, 1.435299237861549, 3.0747449158445725, 0.7439477129708942, 2.113159319517034, -0.16833724576339817, -1.4897094043829042, -2.311012801832641, 1.4813948086948379, 2.15596606218009, -1.1222209215884595, 4.047565874442808, -5.659012513770586, -0.17892631748451784, -0.22314153369994927, 1.5701036747566697, 1.8026325412659654, -0.40105435842901144, -0.6772323376930608, -2.3534293143659313, 0.5994342886652597, 0.4756706701111558, -2.9884609531918063, -0.013353723268706286, -1.4579783027133582, -2.6319957139288155, -0.22475331583749328, -1.017131398726368, -1.089704892239091, -0.2892637575294746, 2.1492825452747426, 1.0042039324777963, 1.7042723345215034, 1.0893846438739907, -1.6838704432160718, 1.1487512829306843, 0.8807590476164406, 2.948873935843207, -2.6764864527551318, 5.894402433584567, 0.007955453729256623, -0.14396035527549772, -0.16818889901854214, 1.6357046423585355, -1.821432633787973, -1.3954419488518035, -0.09669511810947931, 0.1777260231622977, -1.4655269056322546, -0.5787449656658609, 0.4568583653952025, -0.30136394504914665, -1.448980124270954, -0.22918421750593132, -2.3850004088654333, 1.2570561462899448, 1.4699648972840174, -0.6581872804673082, 2.7746977626483704, -0.8981919401200892, 0.6643184619192526, -1.9581697919666838, -1.8979864701972957, 0.07073469829672478, 1.3317526451253063, -0.9529774282012144, -0.905497349048373, 0.5998644269502806, 1.920571970096032, -0.6789460761821905, 1.040982564716243, -0.5882782484452777, -0.6391313941873311, -1.7042891333873111, -0.5900683714234782, -0.7806017856301776, -0.8990420485551729, 4.384606309840532, -0.46581622496383085, -0.9009275403525288, -2.9525315823271363, -1.3684292786583248, 1.5588915838626394, -0.6768101850256961, 3.3709086836641697, -1.7544857863165904, 2.9995385311591773, 0.34775570114165805, 0.6582582879081279, 1.8734727934101882, -1.8089241225301502, 0.08875359130046634, 2.0712445221563747, -0.14197620442716996, 1.43224103663154, -0.603379374282078, 1.0043453285397452, 0.054981816738715696, -2.336312469852279, -0.10725916349694242, -0.11930498527723225, 2.387168265658419], [-4.852950712683048, -1.9785195479290643, -2.142158803781074, 4.363886822335702, -0.6318833226178996, 3.4076564502033277, -0.5693701174141071, -0.8265632979341665, 1.3506886127992257, 0.15427257357882254, 0.6013862736916805, -1.0178493847207948, -0.4195798173353305, 0.9503782820201153, -0.5817781380918872, -1.8373372809141488, 2.034101479824682, -1.656000757074366, -3.1265638684061794, 3.1119485292182536, 1.8516547636850902, -1.0833236893121014, 1.191896123376121, -0.0030688612018153223, -1.1758340676496812, 0.881733408702572, -2.570069006862618, -2.3620666056244755, 0.7110547112056019, 0.34252409847813364, -1.827844877054712, 3.681235593589709, 2.3158519725039723, -1.5460111684013782, -0.27909764225500217, -0.6697829380205291, 4.928532601002002, -5.577534448149674, 0.20047888656187832, -2.33460060091045, 0.925933089241676, -5.682293167000902, 0.3252893372892371, -2.5179559887335055, 0.6574491841655155, 1.4510709473357433, 0.7335083096378235, -0.29337840550371713, -5.222966051385914, 2.605071531603914, -1.1862727326475082, -1.0841969086307162, -2.763228176710565, -1.8182488291437269, 3.0290841274884546, -1.9137569401038173, -2.20727020650071, -1.4584952801799727, 0.6349757897683145, 0.7223972056270177, -0.17532338711333859, 1.0749331883219744, 2.150104071467094, -2.437454028989173, -0.862937080554255, -1.092884924206604, 1.7085753909056955, 5.519509209831318, -1.325507373074131, -1.7909765780179794, -0.13780515218554756, -4.482499455441664, -0.2809713993418165, -0.7150544137213009, 0.23784682636139037, -0.6178123282072995, 2.586003707316849, 0.5926255452954979, 1.6367950572822023, -0.27515329076433576, 2.5542720903511955, 0.7534031284222655, 0.9123896590790861, -4.259757066263525, -0.7776115043689124, -0.15866458801072228, 0.006869206109255389, 0.3794210405333887, 2.756603821167973, -2.2082387075684626, -0.7398197427205737, 0.7602155785974721, 4.154099232254948, 1.3386943386750878, -1.2649690048486415, -2.3515273528849403, -0.43798036427086995, 2.3490156008039804, -0.37426092898715657, 0.3742982935094726, 0.4385726368049967, 2.1053380832819033, 1.291025009436702, -0.3900818547272402, -0.5218598076876724, 4.261202820118684, -2.1242589202471036, -0.6564691278322792, -1.966372809553746, 3.4855648772531884, 0.005856156415016633, -0.15829975531122675, -1.2204003066126452, -0.02771949464018611, 2.0740999099552937, 1.3383915531248871, -2.384604525012888, 1.0376194336507234, 0.5559154320011281, 2.88531714613114], [2.0524709410652853, -3.6084588729773466, 0.7015330619797039, 2.5066438789687635, -0.23801614505721164, 2.402170604493929, 0.41642702384057695, -2.1301540926459075, 0.4083612259077201, -1.4838167158847235, -7.487052186096856, -1.1371833850641178, -4.876345924166372, 2.6518971498814117, 0.1405358872087575, 3.284735088165422, 1.6352363921436581, 1.7468204381939048, -1.3342762070901546, 4.394196703161256, 3.306668887445512, -1.8409781139475794, 0.9860526863081512, 1.414472203395317, 0.5471060475222352, -0.07307360249089837, 0.4213475821245517, -3.334140894023929, 0.8050086169508347, 0.7599137659465496, -2.11087839979605, 0.9355000024851332, 1.5434953440289014, 2.0511442516558, 0.7733300383877081, 1.217745289157396, -5.523082898859552, 1.7539829160526554, 0.9421623718030134, -0.15686226473034823, 3.146560795451374, -1.2351730766841122, 2.0362069486063907, 1.9171930897220575, 1.0557896017961035, -0.8930775365192055, -3.346625744463915, -1.7851214145213836, -4.322653632048672, 5.269772368251128, -0.645493092636088, -0.5051838723137287, -4.897241841758318, 4.906809476061523, 2.9649269737536867, 0.7136223834063613, -0.9243628689518332, 0.6092357774911094, 0.2615665996206444, 0.22322027889513812, 0.6203403955430328, -1.137257767006968, 3.2807367551865396, -2.3606752201966157, -0.17099238811927978, -1.9144553504642172, 0.6314287543177652, 2.3314445298739788, -4.738050559665912, -0.6250090065697405, 0.1799913683746358, -1.4556885843841636, 1.32177112916237, 0.278157200814665, 3.010328216668159, 0.2747612429765943, 1.1132084696001932, 0.10036039487798801, -2.721319888626658, 0.7225395629321562, -2.0756522696010804, -1.4946745791622948, 0.2475371185391011, -4.64727410383605, -0.2776353312710981, 1.3537702481469762, 1.4769403626706115, 0.9273495523825149, 1.7201122670381677, -4.2597613547709425, -0.568312228510677, -0.5837991130857915, 3.2997140746096623, -1.3330929701051546, 0.2823022211566192, -4.357903820648739, 1.1811788213028604, 0.5888915306064586, -1.398028350259238, -0.9721195856377651, 0.2504795546304928, 7.53813367742951, 0.01210932266213773, -3.0808485689298784, -2.1216508471778397, -0.05260659069635832, 1.9607795780333424, -0.45630771791732316, -1.7520946685462766, 0.8841342521951248, 1.5429931867698568, 2.234522400390115, 0.16213399229631664, 1.0221672388322023, 1.4560115387291024, -1.332160838663201, 0.39271439029233407, 1.1249830382072494, 0.6922381258036494, 1.2046791825551428], [-1.4006613650691817, 0.7044854610265894, 2.3246987065469176, -0.7638162943582403, -0.36764944343492506, 0.6764947012425588, 0.09355909276695898, 1.9527536479748346, -0.3368278969329023, 0.2332023748111863, 1.7404037180735141, -0.3932109078341536, -4.293412266651818, -1.407913097810968, -2.635779302672839, -0.12571632753644515, 0.7617176665541506, 1.202302334894711, -2.427407099491059, 0.7840046912745073, 1.6734867646633576, -0.34325248544417425, -0.10898638694507178, -0.44565246915721973, 0.471090013542338, -1.2227899341575126, 1.7078812167893667, 0.43793181287848215, 0.49212727704812614, 2.7893330361557194, 0.5656043434840219, 0.29900040563481867, 5.511905770026818, -0.057475676502747805, -0.3209823480306449, -1.1949002646442057, 4.61833657600635, 0.3341605704161934, -1.618710242194004, 1.0750632131599431, 2.3442460952438458, -2.9653284243834928, 1.2241101670771304, 0.5936058835765134, -1.176742076384698, 1.0897359653830785, -0.5420604707931483, -1.8234905238421888, 1.7112217408777932, 4.629398654617099, 0.585897084136483, -0.9889316789257144, -4.888699765417036, 2.7859142132320867, -0.6865669164204344, -0.07471342591056498, 1.2428789077393994, -4.62802432066448, -0.10987175991210088, -0.007028838350131201, 0.5882534702745467, -1.3780037547903927, 0.6489979467620242, -0.6557927030644268, 0.14284583920712793, -2.429795239590018, -2.0118726785805485, 2.763223049594556, -0.011530512949877048, -1.304413510858729, -0.5983123524613736, 0.5912237348968742, -2.629901415890791, 1.1006515753578154, -2.2676825401914873, 0.023349656137824828, -0.5661790749687842, 0.0366409935378743, -2.5596687235380777, 3.2886175022895068, 1.8554579770457553, 0.40832059707231494, -1.109569427589767, 0.0709286477064177, -0.5569467246873273, 0.24078442158824293, -1.0755778896701724, 1.0074808221540474, 1.2472485236940807, -0.02498661766983839, -0.4389191954094266, -0.5643136164787209, -0.6966645687922943, 1.8047964915379908, -0.1215795534081424, 1.8820138144724514, 2.591765060917371, -1.0604264132790016, -0.04263420074480771, 2.633138532031727, 1.6659577957006741, 0.8706258276554258, 3.1187173583233934, -0.019499994233177234, 1.7433958171389439, -1.795925928564055, -1.4139042562674555, -0.772426103605091, 0.5996731089570342, 0.9190352391780214, -4.857151295787248, 0.4147120457822062, 1.878132805410305, -2.7453276734155807, -0.2156302664218327, -0.14393166669912497, -1.001443532013102, 0.10829581465154206, -2.9279612689526386, 2.4476325323738926], [-0.9966722102320916, 0.5564056263025852, -1.0617214167987303, 0.07829849855859046, 0.24523585133422904, -1.3308382838980206, -0.1904665280881711, 0.7508092659815143, -6.761406657256203, 0.07946452011018218, 0.2869110450833874, -1.0907291131951213, -2.1985359354556264, -1.2424293864459925, 1.0825897997710432, 0.20797616304256814, -0.8366730525240277, 2.4835733713470978, -0.8672840540091676, -0.8694888225086559, 2.081346292779859, 1.3969579575217084, 0.3106285023618058, -0.01365349240912166, 4.021554412045529, 3.0221168336409683, 1.8817806133797885, -1.1333720881548375, 1.849105719976203, 0.9632005421964023, -2.4047096007137343, -1.2821082877911198, -1.0262896819123417, -0.608970829271735, -4.209355339047008, -2.215785542963039, 0.893895385832285, 3.3760226243143268, 0.5307241928294981, -1.0302769682066881, 1.4651684900487014, 1.9431456036681918, -0.7204715193740222, -2.3211442970548113, -0.08703034529193023, -1.4944675480556513, -1.2813203481297373, -1.1303169528390065, -0.07081341760612196, 0.7828556911910685, 0.3384637464060797, 2.520737241945194, -2.1782502813881033, 1.6309075065060015, -4.929261711379685, -3.3156307372419174, -3.9523708436194678, -2.7769093572615944, 0.10296261465499293, -0.6999812112109082, -1.6174885171253623, 2.261290820750416, -0.10266720221050549, 0.4527434046202898, -0.2852654285864565, 0.7091644632218188, -0.47923626833509625, 0.2590431081427198, -2.7735292142161305, 0.10760791444833125, -1.4641946849275838, 2.813708392310027, 1.7179685285211403, 1.6183037733558663, -1.1686926097593333, 0.12396547285112523, 1.5942599102886037, 0.8054503600881079, 0.8596066569604457, 0.24158723001401755, 1.7237852649255099, 1.2271966134294567, -0.3125168372036524, 1.9255242721197068, -3.0599073264238, -0.16575619068185185, -1.7473720810190605, -1.7975613356405666, -2.078863391931196, 0.18501631434978474, 5.132879440280899, 2.203517132763644, 0.07336553226112888, 3.459063430050896, -1.0308743205947823, 1.4003457837880293, -1.866425226791208, -2.576829357472164, -5.491958162303625, -0.5499164191229797, -0.9732470671643851, -1.452357822887813, 1.4329073636605938, -4.411268174242707, 0.4327892062016234, -2.107464877949757, -0.06789118810056335, -0.8356542320039855, -2.535786189635439, 0.3226349565516888, 1.5901282438938729, 0.4146592924839284, 0.33638943193575316, 1.2832831750920288, 0.6574778889973466, 0.4127218269781958, -0.600288925255831, -2.061670533489773, -1.7179371653679554, -3.1475769326907854], [1.8492229975778878, 1.0102102527158923, -1.4164590344459882, -3.4703532080403687, -0.028097489287701914, -1.5868664232999494, 0.44937633814932765, 0.7644250179702331, -0.6068287972946622, 3.8783017599864644, -0.09934289762042184, -0.5849207635514402, -0.9686995049605654, -2.6825893790066027, 2.851914538338421, -4.3341648823438135, -1.6505191314406635, 0.5319287695957723, -0.185639146360473, -1.3040394785345322, -1.9044529187146906, -1.2495909343939886, -0.2898816486694136, 0.5725214901652613, 0.25880729155188015, 3.834606297823714, -2.6080640649486906, -1.2383803950436094, 0.3297388047588805, -2.385496783217749, -0.3479677164296648, -1.0610847472983878, -1.6177734853561652, -2.9236655909787386, -2.693875157676198, 0.8745893231857866, 0.8386518951246381, 1.9373171083307625, 2.900395232851599, -1.285814712720219, -1.1953268075465977, 2.738189408903416, 0.2559470635110292, -0.06148796863083292, -1.0697795457199444, -0.1998951066695638, -3.219010093026495, 1.0820365397904648, -0.8750047431886744, -0.8939405107925817, 1.4274117916284808, -1.355916879983947, 1.5993415480338304, 0.9627421822497817, -2.0475636701089326, -0.8104804687902478, -6.283655818619016, -1.7276428289350614, -1.3516303693035125, 0.5781100895012931, 1.0280515079145092, 0.04402743620345118, -1.0327353472204774, -0.28123362564622495, -1.6242154590361508, -2.4634042510399667, -0.19023157285129966, -2.757199715937003, -1.5496831839949194, 1.7880161543141, 0.1153414289190208, 1.8875642022759476, 2.656143714373139, -1.261221832143358, 0.46278830336090016, 0.580025667266093, -1.009262584816265, 0.6152391542132961, 4.66617439339483, 0.39781831946738594, 3.071408967478232, -0.047362529884051124, 1.4517421321399748, 5.985137498173964, 1.0671718295711552, -2.142162511525126, 1.6540524131721936, -2.505512186780526, -0.9943412480245428, 3.3016635580822347, 2.6309282921509296, -1.3960867898771268, -2.3501061356011244, 2.956826198148179, 0.7752895705253227, 2.842740339690876, -1.8472527015907656, -1.3146192178847083, -2.025277241702703, 5.237684557275067, 2.135574828422218, -4.703303136598093, 0.15989995336469004, -0.4732262560350574, -2.2067790839847286, -0.43905825491433975, -0.6820894047589022, -1.984677082939496, 2.2980838975493594, 3.277079857272531, -2.604586781657793, -1.459929122571168, 0.2859999578072921, 3.3227254607526806, 0.16118528406582983, -0.08704131812238339, -0.12193518442037864, -0.04301957899446049, -0.8482518231623659, 0.12398908318218481], [2.2086029752875027, -0.08607194191725896, 1.903391934625038, -0.3799541041014288, -0.7183821397526632, -0.9818841798594422, 2.2000551392771572, -0.07004886619083502, -1.9606826349606366, -2.2119329409545783, -3.2546547117697275, 0.7424500771123033, -3.9396183479784703, 0.6806554335980309, 0.9989950879638289, -0.8917575923145991, -0.5446691623666854, -0.4830919650905689, 2.8053795968653756, -4.407409259507563, -0.7841311003765418, 0.517823648994334, -0.9997068191638139, 0.8449357494800998, 1.2820793926391574, -2.6044146361993885, -3.836871734425541, 1.6503656735608538, 0.4515923865729309, -0.6881732455008986, 2.5243975499521207, -1.1132643252543888, -2.6326096473054554, -1.9684913110463147, 1.0137536697367102, 1.583607287065972, 4.369670621920419, 4.463834306980971, -1.182949964954326, 1.149906213702014, -1.5798631272338972, 1.1374712744623692, 0.6315876479821595, 1.214814625891905, 0.11920491846629205, 1.5504050084211474, -0.845316249102768, 1.047857495536078, 0.9734990601300407, -1.3734732232378153, -4.504770263722057, 0.983554912947671, 0.8157440614413924, -0.649345011867031, -1.978356354684099, -1.8193043533328774, -2.9264156017701657, 1.4358044988451524, -0.13098481261107411, 0.8844106780349675, 1.267013312854226, 1.4913188638651833, 1.9032853099504616, 2.5506123910372014, 0.6582518348880583, -0.6709813275122054, 1.805022453378561, 0.08423453573848314, -0.05566459375797498, 0.3287172847452562, 0.6250292886628501, 0.26264453635893675, -2.5224864850446056, -1.6358689842713094, -0.4792503070760281, -0.08811201896176411, -1.1864703847051845, 2.233168253346834, 1.2238605321256752, 0.10839459615746701, 2.970454655945321, 0.3656047123916507, -0.5857722525135671, -0.2637581324841236, -1.150799973266422, 2.6034932617686417, -0.22990335196749842, -1.8442568910143662, 0.7825284433221031, 2.810557828810508, 3.506034649908828, 2.7446925577372183, -0.5067738666920073, -1.2942590253564608, -1.1172657134958823, -0.20091467397147536, -0.1818033227852529, 1.8787753019765743, -0.6476582796177444, 2.7066029299624477, 0.306827104918592, -1.1193537966220914, 2.034071886278876, -0.10650155953330448, -0.032577154988288795, -2.1794386763007423, -2.6204072909245326, 0.41683243418074234, 0.2602533189942829, 1.245151826146222, -2.6794702655434843, 0.16401841353419855, 1.2241126221160585, -4.658439083745721, -1.3185402466682645, 2.351672197304358, -0.7433912263323177, 1.497578974839546, 1.2780638536017905, 1.956482910942756], [0.8279398126932737, 1.780420222283561, -3.275697184465968, 2.218629146964789, 0.4664854289830242, 1.049178600358089, 0.5255137769989372, 0.4000420227255256, -0.40058855243346664, -1.4441237918304948, 0.3640901882921912, 1.2912758725671165, 1.1437133058357836, 1.1280234284262947, -0.843384791293758, 1.2060497462959188, 4.483241530843204, -0.013088841068622395, 1.6996494292314572, -0.8876817888617818, 3.039569279136244, -0.8223636278077919, -1.312861053427085, 0.6458312760737259, -0.07399720149402951, 1.7765680158079726, -2.2150130131795365, -0.26285632909601186, 2.051424425257768, -0.04501885724563844, -1.287459875018112, 0.406370971351281, -2.7192129403513357, -2.518124474523546, 1.066588497712989, -0.2840378724369213, 1.5574054359547094, 2.2423496620514274, 0.6426864514239108, 0.5364577155979923, -0.9316211870190628, -0.5517302346910329, 0.9221279456618966, -1.1486653588176665, 1.0108758792463988, -0.22205816007375942, -0.8092495016537625, -1.1278807490358207, 4.334918911118995, 0.05094441750225278, -1.567313848816021, 0.3967179593356204, 0.040503848311955505, 0.27354261517865847, -3.7179197885848962, -0.9608584240082216, -3.056945231174077, -0.6301985696846301, 0.23773358012398615, 0.5773066814617692, 0.04072082061958045, 1.644372663744934, 2.426400052191561, 2.1318082806288357, -0.38882029300918236, 0.8817619889844717, -1.0813826389085284, 0.9243322983254666, 3.3968759885675355, 0.8658382822222432, 1.7538261779990243, 3.0200596320897417, 0.607285878999072, -1.2763644710227997, 1.7102876702767573, -0.314300553689318, 0.38535612985541323, -0.5724762180987589, -1.2742167434413272, -0.016090619403825234, -0.3212873322419661, 1.1343355124567718, -0.4154232486470687, -1.865567133876427, -3.0551664183063423, -0.5404787368926609, 1.5547829354069636, -1.7061321377049532, -1.88846362494213, -0.6396585330584329, 3.3817646158386716, 0.3955005974929025, -0.8402308856567315, -0.8943719082148375, -0.3213731609544791, 4.5506001829732785, 0.5551570776554834, 0.21068205184691935, -0.9648890032183337, -0.23326909377936722, 0.9360686059524195, 0.8880883436147208, 0.8584673767572654, -0.595073661348954, 1.0163849054799716, 0.44599085260419097, 2.338882732142906, -1.7608593862200088, -1.0591553718112534, -2.340060549944031, -1.686249254348925, 0.38615156556636865, -0.8921298150404793, -1.4956679966202935, 1.4737118282627932, -0.8327654422742584, 0.1126362764856233, 1.0068385838820315, 1.272495017020919, -1.6682062603556804], [1.3075729725361056, 0.8077275987738635, 1.385705783521544, 1.9823061755600937, 0.14789553676619577, -2.242474864234486, -0.4114331010598926, -1.026884339845089, 0.4501295227146465, 1.8349625185703906, -0.6083335600468464, 1.209936123713521, -1.7816103864961315, 0.37144865006116345, -0.678397730683939, -1.3750595332711917, 1.9696919192162075, -0.7882840557078156, 1.4581521220985876, -3.437453968677177, 0.48016779531463366, 1.4056812275838564, -2.4291220541961924, -1.0747054739276127, 0.14276090221903093, 0.1858206229153254, -1.90448937993631, 1.9154314631420453, 1.0662927089779386, -0.1452611012959633, -2.505529183216792, -0.32665307320235937, 1.5677647132122603, 0.5022551561441946, 3.036361188931157, 0.42345039668554724, 0.6392671478344204, 0.45446428342915635, 0.14517550965455958, -0.47094569334747927, -3.2968453523060752, 0.1590020599110086, 2.6530163649426868, -0.9738659998860948, 1.147241528557808, 0.6343887795331767, -0.3276468045360963, -1.1047892193166486, -2.9347733424277194, 0.5056036568991591, -2.701744346373253, 0.2851741729819952, 1.7379515477867524, -0.716526062925283, -6.288214558674217, -0.7501392030196579, -0.492632110589933, -0.5009537154563451, 0.901712960988131, 1.7769332366235646, 0.21094446004769066, 1.2750811591145352, 0.2609202184539881, -1.6699314811529977, -1.006770312416556, -0.6787307452407441, 3.652705890860111, -0.16903901180667188, 2.314215017762621, -0.5629071813472499, 1.2523842956108358, -1.108350746442889, -0.7800398856866142, -1.5629912438674156, 1.8711104941564578, 0.8145580672492859, 0.28201345276829226, 0.36481343984287223, -1.261163498659736, 0.22667584920150988, -1.3196492685659007, 3.6234332259340865, 2.456975038323807, -2.026274312223671, 0.7944201606970277, 3.356852347149048, 0.7625470272925553, 1.626071659379378, -2.9066489808013367, 0.9651955297336449, -0.3417295931997604, 0.28856841645778314, -2.9854679206961343, -2.490312352552821, 0.43212485625320063, -1.6762142716532074, 1.0223666711603645, 2.279736518562414, 1.4841243193539992, -0.018715266867119617, -0.9336015225808307, -3.529412068794002, -0.3787351322201183, -0.5302425403434803, 1.629539716645647, 2.1770983021413888, -0.34623199295441565, -2.642324763978704, 1.1270119177493134, -1.5727074592306693, -4.380554656516936, 0.504677560412161, -0.1267594568532619, -1.8705162710296253, 1.6112117567393272, -0.20295244055922204, 0.5907820228078, 0.5859005798981556, 1.8821581677193029, -0.17060060902674062], [-1.2671587057072238, 0.10449843297758785, -0.5537749684786638, -0.3758645029557748, -1.527311815256662, -1.68994418667805, 0.1801132264356426, 0.5774988096089783, -0.5564965716041381, -0.2585072227627713, 0.8622069369171698, -0.5564904051019046, -2.8906889559931432, -1.4114649214734598, -0.21865067992706014, 1.9827918003556047, 1.306963865929726, 3.3151346541059192, 2.317011082562083, -0.34155974988755594, 2.38055414868475, -1.0382262510211608, -3.2379851728544238, -0.30183904917984467, -1.7991235689150609, 0.4427830086044153, -4.706211539433202, -4.87536284254718, 1.5787380945617053, -0.007293165876352973, -0.539231060689962, 0.49816417412404385, -2.584110799405496, 5.399776732661391, 1.252241558062809, -0.2710937810105484, 3.0597144813476067, 1.8270037819563163, -0.45418194128138545, 1.4735052287376225, 1.857510801451531, 1.5940911039634444, 1.6695464666291677, 0.7778041487386114, -0.6561987860722183, 0.40277761785435506, -3.7649010265350684, -1.348462886441343, -2.8170039888470835, 0.28638462756813365, -1.080668573938527, 1.2747924654874903, 1.9371519873861718, 0.37765357374347613, -4.756575238440994, -0.2922715890569441, -1.0857782003145395, -3.5900901549800563, 0.20507210147207355, 2.455903702960835, -0.7038256632108063, 1.9016646094786969, 3.2834589045433593, -0.293037494928655, 1.5334225847177367, 0.7334581994675919, -0.9356268502943603, -0.6751772880304993, 0.16511738033131665, 2.854692470296939, 1.5747898063377204, -0.3874397937836415, 1.6150619936091093, 0.41493294172954387, 0.26364600301868885, -0.6284068741183796, -1.0638109109686829, 0.43739503389539097, -2.1287787841875927, -0.6777589264566474, -3.5684143024731907, -0.8855888558865939, -1.8598226019907176, -0.8814076285624399, 3.1133863121276386, -0.7549274555615022, -0.14529465006022982, -0.5269012458452683, 2.2762752241102833, 2.0084649342535608, -0.5921254026256626, -1.8455605948668437, 0.5690828078535224, -1.0305848420333064, 1.9275659304921693, 0.6121983274914832, -0.6593272530482895, 1.401180268098514, -0.6576962341427068, 0.8196004342098229, 0.4630512532825768, -1.188537731267586, -1.429109039677956, 2.1466821944880627, -1.624541000275, -2.770451247935218, 1.6981639839126783, -1.7675874094724997, 1.8578340069875439, 3.109149643630416, 1.863502789455018, 0.10303875117214888, -3.094717205529166, -1.3590329665644432, -0.7475302709112269, 0.5598420569594188, -2.12149532538499, 0.6348738524183308, 0.8826366356704178, 0.0021744776249461337], [0.44007545020469435, 2.9961841444329624, -0.25945510980706415, 1.175618480135256, -0.05745843466682605, -2.9160775242370556, 2.517978138440673, -0.5894707423737154, 0.3186614238361681, 0.8881285517942926, 2.9118291844091533, 0.4076025329228806, -0.689993547201252, 2.62946185049753, -0.4439874064566624, -0.23255662873752694, -0.7901309153959352, 3.7603432893266193, -1.2941882043958872, -0.35376716002957503, 0.464335068873125, -1.0252302265473732, 1.9183579158550634, -2.176952561820715, -2.275869274097697, -2.3393343946253005, -0.4764284914619836, -3.8071189540364987, -0.4859418577397995, -0.08628243555033929, 1.9675637006958036, 3.2107650843144233, 3.4703628168208174, 4.718275477689976, 0.6078364028822617, 1.0765707183506863, 1.3554521340047483, -0.9425690023381856, 0.8631125715458834, 0.640212258896293, -1.361890996863587, 2.156373355228651, 0.41224483960332997, -0.31021125436847513, -0.2683079365823754, 0.5872249557835784, -2.553945821827317, 0.9214977078894275, 0.9050982901446419, -2.9560740516113246, 1.5527671058417214, -2.005362420855568, 1.7769982809926546, -0.945959541811503, -1.5137839377611908, 0.37674847309308085, 0.9153962181682275, 0.1475542782387828, 0.08808216690608286, 0.18546578513110512, 0.7625620915821271, 2.8725964353452866, 0.5222479136169262, 1.3624430060901556, -0.2606546315774191, 0.8028706022858829, 0.23450834806607138, 0.03621383863983634, 0.33116271865198843, 1.2874146548308891, 0.3184038179758271, -0.38641288472254703, -0.36366356372111586, -0.3866975204205291, -1.1177504682927166, 0.38537768725892785, -2.4057527835324053, 0.8926656618067562, 3.154916903235769, 1.5582013061549422, -1.1096828089561845, -0.07643841341393505, -0.1747585098401488, -2.352393826633139, 0.8422412801995299, -0.9437864053762595, 1.2785892985756717, 0.4024002161143084, 0.6696232736690322, 5.5061920611026025, 1.3662844141382837, -2.3690925877795306, -0.18750782413941777, 0.0040741078558432856, -0.7472325799364441, 2.258959788633851, 0.6156865671828907, -1.6053458169108235, -0.33609530738054605, 1.6934810948021908, -0.7260144105850286, -2.0988421226437057, 0.20322728813289365, -0.7255706589615107, 1.5533729722108045, -2.4853172570397732, -2.702548534944901, 0.18336444131343724, -0.7718480360132671, 0.9682463574137801, 0.928429941929802, -1.101422354554691, 0.3347023706951165, -0.21178311372919312, -2.9065228914950074, 0.18548700365894447, 0.09026090307896131, 2.6295242273227717, -1.8420180836700224, 0.3115166511830122], [-0.7087452420100963, 2.3057445871492503, 0.031681301502345285, -2.4637380836055844, -0.05888094503878492, -1.4988621839841758, -1.0184254044997627, 0.9917936218189063, -1.279976938144803, -1.7777248399182124, 0.9149736989505749, -0.12964165294507757, -2.1876844329259004, 0.6074673206460895, -3.611664544353, 1.8564551999806114, 1.494779390797765, 3.7402844463504383, 2.0506253827064196, 0.44898036220628273, 1.3485838990280485, 1.4479513046906425, -0.7673367072852415, 2.2595762889787046, 0.4232524784973061, 0.5341888768738565, 2.5393579327278424, -2.525542390447458, 2.47538266144093, -0.18504155929190258, 0.35255309317596534, -0.08340782407814537, 0.8169582556063945, 4.82445541454408, -1.9029156984199243, 0.12477615618023477, 4.677475016674314, -5.291056941191464, 0.26227369842155623, -0.4223613651210619, 0.4851811758360252, -0.5864971241189312, -0.3624564434570317, 1.2716578964119503, 0.17486267343574632, -0.8704151751988608, -2.9438706035937425, 1.8584125416279118, -0.14303008949879348, -3.1063880244708, -0.4225967021810578, -1.8594551131606136, 4.366491666583463, -2.4518295243962878, -0.25051078059055915, 0.0046739118100197225, 0.7682185998554131, -4.423090200611528, -1.5361310866491793, -1.3934739463097847, -0.5509135632353052, -0.36924116035101523, 0.7597425317061017, -0.988547195795785, -0.179195223434752, -0.6075565328488768, -3.5055516879032496, 0.44987944169033656, 1.2107996976253486, -3.387624296177404, -0.13830665454270719, -2.096462530454199, -1.0199949280582177, 1.4371040662402315, 0.6811479219175393, 2.162641969738646, 0.02839765659799787, 0.28480018052520534, -4.869657453428284, 1.5468935134163209, -4.911232323375562, -3.4265947338928746, -2.8925782888185676, -0.23099009019754596, 1.2558227749095356, 1.7019988345840265, 0.46522963207245627, 0.3787087070565978, 0.6462146291670174, -0.32014568539952776, 1.7789350081579232, -4.215504344774885, -1.7701849842795083, 0.02148895837024701, -1.7840443575788545, 0.5593716400989396, 0.8512701300172355, -1.0856785349914089, -1.0095256872545746, 1.6021386074083752, -0.8422198878020499, -1.0887437363982013, -2.58449580057943, -0.954441479614961, 0.6207597220740106, -2.1243246705022485, 1.021963276751599, -1.5079805251260168, 2.2041636792290467, 1.3862777420054515, -0.11970456301430077, -1.3589477287431155, -1.9127775874005977, 1.893582329099623, -1.882882557397108, 0.17476280457544396, 2.646011109936571, 4.652938596376261, 0.25498947789979987, 0.19546122806547656], [-0.17156225701748357, -2.579397604310666, 3.1398386248687418, -0.5528831165085526, 1.1677704156088808, 3.302396711727996, 0.6472061322128103, 1.2647361899697052, -3.230482265841563, 0.42756571900235446, 2.01003016913797, 0.8741651271685706, -1.713019448958424, 0.4794569593593937, -2.8528288400745208, 0.0831400665634788, 0.5247039699302054, 2.0995349502566656, 1.7234399366144861, 1.919384386938843, 0.6492699795937008, 0.3622485217799147, -1.1047839020667773, 1.068120020472175, -0.34143277029250196, -1.4150525113990275, 3.3831391109941844, 2.643275897463373, -3.0488962561410995, -1.072666623682807, 2.0250891611523834, -0.3726940329657765, 4.2331325967710765, -1.1158299447615736, 0.5581754478339453, -2.0790662259977384, 3.8508859706180187, -1.0061423073909432, 1.3084326007072407, -1.6879450063541213, 4.193731878222099, -2.343819254726394, 2.509679422420671, -0.11523569862827697, 0.8416978806187536, -0.2114412042250253, -3.658442982238496, -0.019167233885474356, -2.953932531321065, 2.4627148961875016, 0.4716203182492183, 1.3045245505261207, -3.2845551437521507, -0.3845143163950268, -0.8573662716354233, 2.440805314065821, -1.2699088965389258, -4.408097899331125, 0.62893179260507, -0.8918050196926467, -1.0253389114343405, 3.0368953510705623, 2.059711674894301, -0.6492785358293565, 0.5297351830117397, 1.4306572747008393, -1.6771859097626058, 4.228596970911534, -2.8531531919697373, -0.3229166922663861, 0.4655256215689579, -2.2310519902340267, 3.182523229287898, 2.6312931763586622, 1.0278961909055908, -1.1865062290476507, -1.0418515044170968, -2.191234782835579, -2.698968070453459, -0.16300278637073554, -1.3999067310563578, -1.6469180858403174, 0.14527895440189187, 0.17977771249190844, 1.1794636375239527, -0.6260078676835994, -3.0320217632394977, 1.5588249295585197, -1.850956742239829, -0.2824696882695738, -0.40999983665033246, 3.7331908361745376, 2.0680294740515497, -0.8056553608955143, -0.6336121568039048, -3.319937335323202, 0.9536149693897916, -0.32210167287702385, 0.361877414257618, 5.931409404088084, -0.15772747706919052, 3.776701156789207, -1.5651842534894191, -0.6195131954453375, 0.4008420358717233, 0.2609542975601336, 1.5290259220745177, 0.2307448582719275, 1.382532384258072, -0.897206779140221, 3.092228821099411, 0.9036163924683083, -1.7788642579931429, -3.75533239705866, -3.94697963116906, 0.6628591148081938, -0.22003801360032027, 4.797524034312657, -1.778043827861608, 2.5601536043364628], [0.9860608103085349, -3.600142576339669, 2.243619973303657, 4.109207172343271, 0.8164892003426657, 1.2538353302874712, 1.080402347439413, 0.8601406639173551, -0.575614368008311, -1.9957643055715428, -2.243430149701996, -0.11471383549878783, -1.8463615930963118, 1.0573669820166227, -1.8360596651535404, -5.788212979868916, 2.040672213553227, 4.73507703626936, -2.081250005451237, 2.646418213767403, -0.1200710609546157, 1.0761031138957138, 1.2886887880507765, -0.14473395667047853, -0.7193828523958725, 0.6768103238074085, -1.4286076003840804, 1.0527904793273168, -0.4989876220269011, -5.139402912992282, 0.6796202434851055, 1.9110358744923301, 6.763211596426915, 3.133359644980966, -0.5847702245097998, -0.90445821536364, 1.5331523987345705, -2.332120019866498, 0.47119834058066096, 0.48274843767719094, -1.324754474181563, -1.4550588892310865, 0.35533122053394023, -1.7226710460825783, 0.5945169107110033, 1.5765204097881318, -2.7020653161377446, -0.7316479717690745, -2.9426797923086805, 1.945205077008959, -0.5215506655651783, 1.1739341453306806, -0.06574371709337941, 0.4501256113430279, 3.562433837053531, -1.973695039544223, -2.778615797283922, 3.4491424899600824, -0.5216230049947378, 1.2163128414650564, -1.0685026186237647, -0.017670477527609977, 6.814643494837044, -1.5086063113004375, 0.8184320761278226, 0.5154732983140515, -1.731548009314094, 1.5700156608991176, -3.81783141763487, -2.8464580406789395, -1.1284839867934358, -3.156799149457734, -0.6076194354591229, -0.2528165365955235, 1.7754277400064096, -1.2524239562353476, 0.25146905153075794, 1.2869594664436856, 0.17943897614423737, -1.899426775327099, -0.8213682545952216, 0.33545582548116704, 5.674644475769208, -0.979495954456248, 1.6464881286795683, 2.1086164741274143, -1.7766553677350332, -0.6649062871060686, 0.7893196725110083, -2.7683830092539075, -0.22678286394248356, -1.641517694408365, 5.258680501762665, -0.15596768445661033, 0.3398127378126218, 0.5356650505035429, 2.0463003187811473, 1.7232439207750179, 1.7902688176247201, 2.720598753769208, 1.1655387842571814, 3.126510992848494, 1.176634289203745, -0.4768445215857503, 2.2876767050570903, 1.8868750837865922, 3.3131793285736553, -2.421998107973209, 0.6327176609144163, 2.2209057110574255, -1.379152118610125, 1.9919816434783673, -3.337749411051155, -2.962215015681066, -1.8822507242740403, 0.9372018134024681, -0.6699850136490118, -0.7811849181541459, 2.612533166818433, -2.2494237253816576], [-3.1189612360473062, -2.339886707043483, 0.3385530860829313, 0.7571894501544096, -0.6852169237395592, 0.7124311512234252, -0.4762743157281347, -0.8902081275255299, -2.182274938644053, 0.5866905651997208, -0.32431757230866587, 2.302039070866804, 1.5041013225223276, 2.2896960597285987, -0.9814807730735579, -1.8955269827723906, 0.7482898864673652, -1.1014560364077188, -0.3011925135994771, 2.3897359858765976, 1.5849149729503664, 1.2505490063003457, 0.7583451590655235, 1.1614022639617212, -1.3720002352979528, -2.618325660177174, 0.15308412588799183, -3.191173631199904, 0.22152866041479585, 4.663198026398212, -2.469222772925299, 1.5211405354042853, 0.22376035521952597, 0.6857442896873613, 0.21340228004617412, -0.42077778747451183, 4.324087818316433, -1.0064509141103697, 0.6390504353374169, -0.956962728063056, 4.4788945637888204, 0.8044353939079656, -0.18576127523397024, 2.7881267490992734, 0.12947931840772295, -0.2556384898061046, 0.8228871695920109, -0.008509379559302343, -3.619397249172676, 5.309548804426011, 3.8366539877386283, -0.2713802886608849, -1.6030558153372005, -3.192705991793351, -1.3185865588336683, -0.09800403266770405, -2.9775187384912263, -0.6191209351264945, -0.20017835948274526, 0.8801170448911636, -1.194824438715587, -1.5767478597594204, 0.5715560061968115, -3.8785248648737665, -1.4043116628659793, -0.3587789624224527, -0.25442945871855116, 0.7514660946357737, -2.950760981085238, 1.1003715786313353, 0.34111048993393894, 1.2012786850653105, -0.2637861877360411, -0.6771335620239092, 4.976047381285574, -0.6885835484701764, 1.502278539884348, -0.10775952795392782, 3.821735107932917, 2.686164973438481, -0.08473678817810712, 0.8103163309274783, -0.29359244152639774, 2.534109032944224, 0.7957055854014311, -2.0227567594199067, -0.2826358559853414, 0.831129966470007, -0.4822947317719786, -2.6999750908687044, -0.3235011404810566, -1.473180534250364, 0.7686988428364849, 2.24632333717057, 1.9072024009080646, -1.5304759914635353, -0.23760539620938276, 0.7341513827230288, 1.8166160442659764, -4.157865749311727, -1.4632920616257155, 0.3187369703431821, 1.5875739956903359, -3.3037122304489706, 0.9665573151350696, 0.6611103809523686, -1.9705733222361268, -1.1045680413877457, -0.3436355938563316, 1.998670957638237, -3.6928957738017623, 1.8218518797026435, 1.631273329894547, -2.1706075981393225, -0.38433857851423814, 1.078263055668023, -0.03997369642015395, -1.9553741913171043, -3.64808444711242, 3.1659100897534524], [0.4592889410451126, -1.7852886745125176, -0.6367591432781138, -2.230389695052811, 0.15083127368044613, 0.26271368415338703, -1.2993599160732483, -1.446973263371836, 0.04714887781504313, -0.5728606559120935, -1.8665244258551583, -0.049347423674551756, 6.077969641658792, -3.724652781144972, -0.8658100581325399, 2.9618836384341094, 3.6911970035969834, 0.5302901186541764, 0.3926639856650832, -0.38295949343513397, 1.621117050936268, 0.6870275111473847, -3.3560872014500682, 1.1848302118902985, 1.6974841013780242, 1.859421872162635, 4.9588352726387175, -1.776292660640619, 0.44609812315118613, 2.165655511500054, -0.9198346841272651, 1.3093185444066608, 1.7721998726434838, 0.6245193955685162, -0.20880949106126567, -1.8661132706287296, -2.4298621588563334, 1.1549790594523814, -1.8471900137488508, 3.11896425820439, 0.6866809412566169, 0.46934637259850287, 1.2975172214299926, -0.19528794279486314, 1.3129391521366212, -0.5764592472439186, 0.4076401622959751, 2.872451515160714, -0.012434276773571104, 3.7820532798200532, -0.2865452651223872, -1.6006464120350137, -0.34902031770493736, 0.8305900298274194, 1.167978045653525, 2.3872273899562546, 1.5043506292761308, -2.9627718800712284, -0.21695796013672236, -0.12011201977814691, -1.5987395703740832, -2.2586740597511907, -0.7800710032582885, -0.11943066412972883, -0.3088514694895563, 1.7509310723828422, -2.0496090257524693, -1.088761556878058, 0.6860895913714199, 0.4825538711124769, 0.43975221136239123, -0.31414236886827046, -1.6546660766379853, -1.0014621931998247, -3.6072598823071442, 0.40695320989823613, 1.404295304739608, 1.2313707819617241, -4.75761635721729, 3.4086945246327987, 4.871334638818378, -3.77649432900836, 0.33653123801558005, -0.8455703480441095, 0.6103370149588646, -2.067565867837173, 0.5008432774543001, 2.156258732174573, 0.46870679724417047, -1.600243281214551, 0.29333355700563507, 1.5553438597414266, 0.3958749105273524, -0.8666827997712311, 0.0438570975317014, 5.043517325005901, 1.239595084996075, 2.4157138331660573, -0.7849071693619469, -0.3783112156381359, 0.6591876294694203, 1.860387537107021, 1.3653475840410545, -2.5348006871198243, 1.4768987745031399, 0.5591495278137293, -1.701715458591569, -0.3282200597924716, 2.0002937183531397, 1.50003420723111, 0.8676403570069003, -1.5198008902775542, -1.273621722080804, 2.668283420565305, 3.3288020689335696, 0.5418759382750611, -2.657238735035578, -2.7270206119993277, -1.6800167412719618, 2.7090921157635983], [0.23959825423602393, 0.6971359188703763, -2.311696883154565, -3.2893618348645757, -1.0845316513727545, -2.438441128877509, -0.6617096504307899, -0.16326381355089387, 2.2165616119113802, 0.02187838232404706, -2.2623466413940387, -2.0830772922807523, -0.6229846982067463, -0.23050952137220362, -2.2924534441916737, -1.3032548974638252, -1.582591676035941, 3.218346536388002, -0.2798608479154855, -3.3369772896709295, 4.48060569891599, 0.43080219470889985, -1.6021153705653537, 0.2796871351719015, 1.6928544280904905, 2.164071491266734, 0.5753570244791345, 0.6871180431376438, 0.2073208273975668, 1.9328120295585745, -2.453901703365382, 1.3427848624502028, -0.21332365989351737, 2.5949803729750514, -0.8886074299643637, -0.0315582914518899, -0.09979563305946888, 1.6178951251961877, -0.1197020676784791, 1.063047971360692, -2.0774898032326936, -0.18642429284742076, -1.2242625352573793, -0.8342251854008764, -0.7626127249452526, -0.04557148933771305, -2.0849519996399595, 0.534952348040368, 0.20473749818264939, -3.0486273850170176, 1.6300998967794893, -0.5249230857947668, -2.907990839029228, -1.5644378612275116, 0.9364922662970723, 0.31777563505426537, -1.2687577682864104, -1.839976677599469, 0.5570183133838059, -1.1420508599562893, 2.6745946175198756, 0.6121035466573294, 0.8397044566182228, -0.1740232783042879, 0.2992179741995984, -0.5672622289845437, -0.7202400116863306, -2.1750420697598836, 0.7189276793454115, 0.7325993451061965, -0.5873823722976579, -0.37220324477178374, 2.270939174383042, -0.9320618497150672, 0.9166201392900178, -0.9254288989364513, 1.445072463012985, -0.21441017671623386, -1.7905418660364987, 4.239077752277152, 2.648652562563796, -2.5909799207743354, -1.7467901053548025, -0.8712530589260612, 1.3936494447158416, 0.9036354869659042, 0.3387296516550912, -2.9300053568640174, -2.1143794851420754, -2.650425079356826, 1.5275197706214583, 1.723127948770546, -0.22168436367986682, 1.3992785854393088, -0.2393000787685661, 3.3934857632758315, 0.3443494018035931, -2.1344767523428514, 1.3616191162403775, 2.045289399206366, 1.1479688404983903, -2.0509163659086513, -2.0414715250056807, -2.935179326751537, -1.5186271656096764, 0.6183658252973632, -0.8436302153761389, -0.3118455944149402, 0.32092813004382503, 0.31907539437949667, -0.14418974047651176, 1.4078695704304722, 0.8991705032587816, -0.3469438005555809, -0.1539613665617708, -0.10396989860401329, -5.267902711904886, 0.3058108611523339, -1.9938481582667114, 2.603576426604882], [5.26858536294677, -3.2080470233564005, 0.5672855982830619, -3.334259590030427, 0.32785775742779427, 0.010819640599456752, -0.7458672233266647, -0.46256441357177447, -2.669321007879931, -0.8624231330546449, -1.0024017193712704, -0.08287644627229979, -6.728932721362578, 2.560639419847289, 1.2750649928102677, 1.144203652175354, -0.26843500768499146, -1.3968468543584462, 1.4223366911178184, -0.9547530686741564, -2.956024126137291, 0.7925171199006473, 1.9313632801102523, 0.4612260207533091, -0.4820894194871959, 3.961046661466284, 1.3596309883373687, -3.076903724835695, 1.3082549360478415, -1.0636841067500402, 2.2483462509214336, 0.5333225624553022, -0.19411974286111197, 0.6936421049546371, -1.6378561198997663, -0.16032074633733154, -0.426542581306658, 2.411230875629364, -1.02991512488273, -0.9271853293907276, -1.0876336717774016, 2.6092946748731376, 2.543172956660337, -0.8833801599588771, 1.1610945822496608, -0.3799722574926788, -3.0080169525991804, -0.15988097711238652, -1.8288864903375261, -0.06825538603138026, -0.586992963657404, -1.0779180568884, -1.2000452492762677, 1.3309748139091588, 2.2446705562111227, 3.2489527557727427, 0.3928696466563886, 3.160367124182436, -0.33059269650685913, -0.4089956227410342, 0.8726915991887226, -0.5940798105060815, -1.391540467586585, 1.1591575723788898, -0.29244871371577036, 0.16579206334958516, -1.620990274378558, -1.2807994400684797, -0.10502026077878943, 0.285164330736826, -0.9565090250235706, 1.8667950976749506, 0.9448234348177391, -0.7452600401296434, -4.597517740659982, -0.9780814150522634, 2.1636409621772033, 1.1729780743688087, 7.894208406835621, 2.457933134950968, 0.6924941543824895, -4.192741282117801, 1.682263822653295, 0.794445355276403, 2.281891610488157, -4.3300465818096345, -0.8272519473061649, 0.3934598672773388, -1.804240113309189, -1.3137054103932018, 2.5723045377268385, 3.1049605948947456, 1.0022447021107102, -0.0679068602556231, 0.6989775552725745, 0.9114246682481734, 1.3374160670665627, -1.264847634300246, -0.028235790876627326, -1.3103762463528152, -0.05289387663352932, -0.9898645224300053, 0.27520319032207147, 0.40331159405600736, 2.5002746645058123, -1.8940387393692832, -1.0977627869142659, -1.9722342849720642, 0.641423669679535, -0.5209103176737471, -1.8855663751535634, 0.9252712381989789, 1.845163706305883, 1.8617617686461667, 0.8494774152710539, 1.482017822893212, 1.6837663904465752, -1.4304711154743426, 3.0026572714595856, 1.2115334269233962], [-1.9864283966174126, -1.0044699688079992, -0.1429039437243539, -0.1282812321994653, 0.728410608917882, -1.5993839693440761, -0.321350741876546, 0.8437685375468146, -0.6497665821164469, -2.4365100170968708, 0.033234219581465406, -0.012809787076917795, -4.215032985105148, -1.6097264535035287, 1.5364519963630747, -2.324774627874392, -0.14705715722414697, 3.0728454712061897, -1.7749957317116245, -3.3679806899708935, 2.5691936624661986, 0.7504241051487994, -1.484743077497834, -1.187856964508037, 0.7613041227090682, -4.604320329560486, -2.610679643276879, 1.281862098092381, 2.200162946995574, -1.150591883128091, -0.2263253720204336, 1.0872258008158644, -0.6146009810568606, -1.6553944671604843, -0.31821653124143795, 0.05087571173434821, -0.15705631360110342, 1.8129888669222594, -0.40838925369054446, -1.3104734631044237, -0.6846575914640519, -2.6334896030480848, -0.4845844571367542, -0.4518970496856883, -0.862541054823482, 0.6165324242916722, 2.140466911349261, 0.47665709763173003, -4.245184675156745, -1.988296499614215, 1.118179600442569, -1.494023015536203, -2.16740681222071, 0.03794908940712806, -0.05071276042280836, 1.6364678824700571, 0.7203180174233318, -0.28938911838169873, -0.7440561104939999, 0.12026859779537821, 0.2642549958980283, -0.228347959484373, 2.090220966900087, 0.11519582673087979, 0.43213079107949, 0.09554869734311763, -3.1876550409445414, -1.011032536807466, -1.872080481004897, 4.369660476146001, -0.4071376076799362, 2.5311504555800437, 1.9352905051721636, -0.9751576520314882, -1.731791762751612, 0.4211307663140227, 0.7704590334685576, -0.06692794965488255, -1.0568008496944126, 2.017148779189282, -1.7027162772433377, -2.8251937376136147, 0.24535816073999675, -0.34191672994671934, -0.43693933782834105, 1.5063250597917937, -0.32767517056996404, -2.959892078071791, -2.112969983702488, -4.136007350484107, -1.5788654710296772, 4.3199467989531275, -1.0629570915023334, -2.1715604137744435, 0.8697585855099872, 1.0579899310167322, -0.3418091181285784, 0.49348394000717727, 0.002035804723494088, 2.435040812822419, -0.6306201848977517, -1.584812859857643, 0.43627976879042535, -1.1127550092881746, -1.246649159146154, -0.4393068516891286, -2.176338857934044, -1.8975693785827001, 3.149497298500961, -1.4139968292364569, -0.6497379430043394, 2.559160510637472, -0.2290629117479568, -1.7440044142462847, -0.03179830689179297, -0.42390660010116177, -1.5134801784028202, -3.1789324303901316, 2.2009130463712925, 0.33974503141731416], [-1.0845138546903763, 0.555639111582011, -0.6061037718159251, 2.7583416741592814, 0.7017471780967725, -0.454175373133876, -0.16496689666058295, 1.5277074540038644, 0.3183859738686147, -0.5372605338537956, 1.5141577796499552, 2.0530033795221283, 2.0425840742370864, 0.6478561388710032, 1.0965487176030764, 0.628357429489895, 0.8529683570176115, -0.41744745726736454, -0.15742962123361934, -0.37324851945666165, -0.3732566722541319, -0.6633882213794675, 0.07865995476391736, 2.422804233057813, 0.19458162511963634, 0.08994245624992833, 2.010380866030149, 1.768088182594399, 1.532647737992373, -0.07392904749781512, -0.9616537305312045, 2.0822321985919396, 0.2583901140178218, 1.4043615627704007, -1.4291186145643229, 0.9153258768629831, 2.5357128066752495, 1.604073688926133, 0.6291513536199562, -0.17372653597665508, 1.1217726928876788, -0.21351928695825664, 0.4374032619130869, -1.1802221307774188, 0.7936391232261528, -1.0704765434787462, -0.8780431870383053, -0.7771807740455516, 0.7053079953613931, -0.609335961335036, 0.21580359042401925, 1.006085179134828, -1.0092754886932096, 0.04877313965563301, -4.298249005229224, 1.615733913853079, -2.5076788031489663, -0.36398971103870087, 0.7442640243869735, 2.3355507436644944, 1.8243362258073579, 0.32976424509959895, -1.0851982515890768, 0.028983575309907462, 1.1458941310186859, -0.6015565212968985, 0.9424273185615664, -0.19056197951689044, 1.235767827566313, 0.04573336962356604, 1.1246457295453822, 2.143569865749272, 0.06952453961509275, -1.4118802569457822, 3.5725475880725397, 1.3105668690553318, -1.0294251367902945, 0.6867313503861835, -0.7404646125629419, -0.9741343642755022, -2.740157347384329, -0.9242966467970419, -1.2928557367789062, -0.8637568853938329, -2.790905890373505, -0.3964729537132246, -0.7443533760806266, -1.2924216664607842, -0.5429489160120053, -2.747468488070384, 3.9083153280475886, 0.05019531207685302, -2.0733866843828537, -2.082706486136871, 1.099173552393261, 3.3221617344896726, -1.624665392249792, 1.1515322414031515, -0.7857820386170826, 0.08464458373419968, 1.881287094460012, 1.3780610034100762, 3.0118231392259824, -1.0972212346467494, 0.7075296431248841, 0.5408717806246792, 2.461605873729545, -2.41700763309167, -0.5010411224767514, 2.8455277581987355, 0.6087355453880575, 0.09937465258368645, 0.8289075946596023, 2.4211203756446125, 0.534742901856392, 1.1867250750272873, -0.47495261509337044, 1.180469295983422, 1.668371852737824, -0.019177194438646003], [1.761459483769787, 0.6799789861734558, -1.295794544963907, 0.8598795852795895, -0.39767920949662067, -0.013335137361369232, 0.019642369664777636, -0.6547097938356073, -0.26622865462105605, -1.0576717374505007, -1.7742822676578491, 0.7546999361774971, 1.1764076496223443, 1.0189153154114525, -1.3229300158277018, 1.8861135844841248, 1.1718901017800107, -0.7213927909010346, 1.4574545173952507, -0.16482959821032214, 2.7646548265419657, -0.7758075983826671, -0.9815737527192375, 0.8928272983087391, 0.4591149476873456, 1.0435288691590607, -2.546428252944283, 0.6598064817998808, 0.7592492974426278, 1.505159973998821, -0.8620794071682107, -0.7693231450366973, 0.3440954717759094, -0.02418613975875479, 1.5970725974430797, 0.5592242452440286, -0.3274259163965668, -1.4914170304474832, 1.237078602239043, -0.2601100551626051, 0.6407969244646387, 0.6389192504145278, -0.6866321473946501, 1.5517661445002533, 0.3352036513459845, 0.8351817853381193, 0.2749343773730484, -2.773448728688125, -0.09515986969560959, -1.7568528167554331, -0.6132928837289446, 0.46352387218275903, 0.7753954435436514, 1.7368344560591031, -3.2115815726362476, 0.7133230611972918, -3.280666668538946, -0.8776828567320342, 2.039785001236167, 0.896654946450894, 0.6379448133378015, -1.0058918158552894, -0.18852939987989903, -0.014457942220368813, 0.9161919209065666, -0.239672385038291, -1.1294429915257442, 1.6942950247216395, -1.699540048193304, 0.2993979333635646, 0.7277280166865618, -1.7624639067198262, -2.6003363970194635, -0.5103361045884752, 2.482329931738159, -0.998428710041219, 1.501599018752258, 2.3951807622739283, 1.4502071106453074, -0.07727677321728586, -0.6502500279690752, 1.3214384559233205, 1.4369177282611036, -1.6994818571147785, -0.8052119629821789, -1.629339191850708, 0.05363476817667726, 0.7057056978271695, -0.8138566408011036, 0.058991323130687036, 0.9256041713829062, 0.3634083915123762, -0.776361883723846, 0.09590214199663935, -1.4604160037923568, -0.646954708580798, 1.165444511391907, 2.286689966913907, 0.2825629765293898, -0.6097224629108584, 0.5871371492084461, 0.6163415800267619, -0.4185919731870415, -1.8727184985318748, 1.2304915628483177, 0.3136214556649141, -0.2515086954572121, -1.7519500260735064, -1.3255677178190535, 0.27437340417071354, 0.973506909490673, 0.0640503102549286, -0.17246157837788056, -1.0616631802244552, -0.09927165409027897, 0.27292972285358263, 2.1450969146952406, 0.035708779917992414, 1.7876138450090444, -0.5941042022293849], [-2.1487770892985893, 3.097615232292237, 0.4760564381949497, -1.1321052264779965, 0.08573039630684273, -2.1891047774859076, 0.3348220800331627, -0.46998884690473625, -0.07116207138490703, -1.2933836489490282, -3.572995365648857, 0.2546280699872637, -3.067036672550465, -2.115113900659296, 2.2802910783012464, 0.7603300554367458, 4.292961682691201, 1.2220441925290597, 1.355239880286777, -1.0193585085108687, -0.12158585207228728, 0.5558418426216847, -0.2082698544306845, 0.07956437587890174, 2.0437396936606422, -2.2472459083017506, -5.6253925767705475, 0.8408646910250122, -1.0444567026550493, -1.733492968091158, 0.2612048366095769, -1.3046414436908393, -4.811645191448175, 0.5138531384026184, 4.728457862595697, 0.4922249593222669, 1.0573336127479127, -1.0245651305650099, -1.0467066805192151, -0.004444519867769806, -1.6143406414817836, -0.8809834949799729, 0.9282430524659896, 2.132671498489226, 0.08624962558253858, -0.0915242689097304, -1.0645007665318345, 1.5607137925230283, 0.12567981894001495, 3.1617708592567477, 0.5018339843102494, 0.17409415658337737, -0.8520983544290077, 0.4662913523460544, 0.841197888600205, -0.4702941861777546, 1.0421249891371769, -2.6858564183109737, 0.6550497581753193, 0.4725752589194697, -2.039217631672137, 0.7170856984162243, 1.9157068358238023, -0.4014266666896868, -0.309156838148868, 1.867271519291786, -1.4282398797871663, -0.8744284694761598, 0.6124089645900673, -1.836564798955481, 0.8632455283761813, -0.25357495473211944, 3.4833745163258256, 1.1525344576936571, -2.9761780763269097, 0.7412540224907488, 0.5173577231440308, -0.5670699909350098, 0.19742508641488787, -1.5546169690907883, -1.280637302796284, 0.3535723059232364, -1.1004725328361942, -2.313027095982183, -0.6007054743479724, 0.17972149812743635, 0.49642884256410885, 1.1929927143378085, 1.194798811107636, -1.1709475223815335, 0.08448603426793513, 0.3284887390160705, 0.10081649715640147, -2.2604237872113098, -0.36531339311242994, -2.8903569226480506, -1.0385682057007757, 1.1315955008303369, 0.3074487852291239, 2.904092846763552, 0.26510461277425745, -3.9826727923029397, -1.1253499558183515, -0.41647473880504515, -1.3567464648408578, -0.20897942065607544, -0.46081550122142767, -1.9208238111982965, 0.6227396140529198, 0.3209326917804705, 1.4686079955491385, 0.8943132500001385, -4.339232424993232, -1.7117234638457504, -0.815476273867645, 0.11938584178196951, -1.31748683155256, -3.815265908298088, -2.450592492735902, -0.8498749441552399], [1.7125138066051389, 0.8566328884908223, -0.017067492576633758, -0.28271253205858793, -0.983194424485755, 1.2911566135759966, 1.291475253482869, 0.7659235916843244, 0.8650601098832802, -0.1265824666150627, 1.9146023303513884, 1.2812746562675796, 1.582346065698015, 0.6516872429565531, 1.7431799884345502, -1.0563181461714468, -0.6715561156868873, -1.3077831805672995, 1.7089252877674361, -0.5466167607403332, -0.052912996630106936, -0.39112662172163143, -1.4389139523501775, 0.9636930184513268, -1.5497848406609178, -2.8896094464012236, 2.7727719652515086, -1.663051488140835, 0.4091167950401342, -0.23860707251591567, 2.5296507123137566, 0.8761580422075972, -1.0851363894220136, -0.9604279430911388, -1.0360978172991668, 0.5352070501783368, 1.8951414937072388, 0.2646765814453721, 0.38427199299555714, -3.5053375675901592, 0.7777025199122104, -2.774140423996267, -1.032122488084703, 0.45462824011339636, -0.9430049938954468, 0.9492899168417418, 0.13894626794997927, 0.6139933741502943, 3.200733592049574, -0.0561132775623849, 4.20632493969137, 1.3000770520547806, 0.06077901381552411, 0.5223017281558036, -0.6608721870269558, 1.0845324550870061, -1.128099825585906, -2.23189887224601, -1.1128350120895203, -0.43991072860645763, 3.411910109831776, -0.5912626941706579, 0.31722528235555075, -0.9503971425779953, -0.2995112260387636, -0.41921437238990117, -3.504840071645952, 0.08160545563326943, 1.4964687836608854, 1.3970499202884672, -0.34516059347944333, -1.1205195114582733, -0.7309367072163573, 1.4494356878847376, 0.23992305946905185, -1.4541726577465228, -2.271700841345275, -0.8063703748155177, -0.5362269975172436, 0.9887768209391617, -1.7164830288561759, 2.1709526075023393, -3.2672931641037968, 0.8613858442464959, -1.6289374609898741, 0.48129118221808803, -0.39281059890212694, -1.3657047432891039, 0.5537802586837239, 0.002131814584527928, -0.9900537571922124, 2.5406432774445595, -0.746058974332908, 0.39531765062882246, -0.9158984451650061, -1.6779063111234862, -1.5369212039606426, -0.622301384799991, 0.5950334260695882, 2.4878885623305447, 1.040174732026174, 3.328353513372734, -1.0596427926296705, -1.6278374614712003, -2.6078770317312365, 0.9360293477985704, -1.812278563589475, 0.276460624757183, -0.8356083028444774, -0.46468350321354523, 0.702831145892768, -0.04780842949094143, 1.4833398880706956, -0.8339813895253952, -2.0564709755201926, -0.1516032308686511, -0.5754400282756622, 0.09838079386620849, -3.2427021158446907, 0.5836575593057268], [2.671189833802353, 2.7228753743249574, 1.2599003522742034, -2.143341985269579, -0.6020365987564283, 1.0037529508755962, 0.2771427466536832, -0.5741870434196864, 1.0383723649033734, 0.6969925327409859, -0.19511984059568543, -1.4072115233863456, 1.0467908943568613, 0.7043512559898576, 1.9805242593887848, 2.275133439088698, 0.17682537633380663, 0.9228965588511159, -0.36256839354190384, -0.9781851243014451, 1.6949410811690129, -1.9994817641479996, 0.9622549263071383, 0.05789477096615967, 1.677384643882989, -1.1707417408775067, 1.878507481998328, 0.18271183822926185, -1.8812728158040624, -1.2074218535975856, 2.217767978051924, 4.893888413897456, -0.5992396088070432, -1.7171660940187272, -1.4702584671410461, 0.22770840163465317, 2.520457512515785, 0.5769927277487578, -2.8786477000032447, -1.4483477137793543, 3.879919298737133, -0.7224368982697891, -0.27903352762500006, 0.5788813298096036, -0.33290896241153045, -0.5720487424342157, -4.3252192945923635, 1.0922765962150986, 2.489273987510893, -2.2763016946418335, 3.0799012469032347, 0.8909376944222479, -1.997261497268469, 0.5796200055769931, -1.315863140103238, -1.6685714250370327, -3.048641359081823, -3.661305020068001, -1.2087123078466224, -0.41306152198141677, -1.2505752532133076, 3.061071694119515, 4.091384710997336, -0.47099761896312814, 1.2485516564534653, 0.7410469686813066, -5.511842500271334, 1.6956554260416723, -4.6752225096280915, 0.3847595920973179, 1.2865271309762785, 0.07640370305878638, 1.467458463021076, 1.4353761176049968, -1.027662477309761, 1.837496397204876, 2.095062042764979, 0.6775507558165149, -1.1909584469403782, 0.3350999505884183, -2.129354215292047, -0.2557240905107673, -2.042513979807107, 2.2976532318663008, 2.9462159447696683, 1.4422966603997454, 0.11674276752902066, -1.238594057208158, 0.5830229967236158, 5.443881474138278, -0.44823900839520825, 5.400293356595478, 0.06343168648777632, -1.0749069135315659, -1.435327846577067, -2.469532070609525, -1.0891804601365678, -1.676086126397662, -1.8142356274561369, 4.295578745080446, -1.1831579238825702, -0.4363487819030814, -2.563798687459668, 0.3768705398570751, -0.03649790565122887, 0.6580643812574027, -1.1062124744564852, 2.0442651838101216, -0.49943873044862563, 2.063309036201483, 0.17721041610614172, 0.1064020505627946, -0.7124683691004641, -1.0647021839551596, -1.7603225607529147, -1.4716800100651002, -4.453942121275198, 1.1080595699850286, -3.2722931277704985, 3.015630569278088], [-0.7616621322976241, 0.7145068125117287, 2.6950759725939166, -1.6272753448711854, -0.22288470337482003, 0.41797283719373435, 0.5272871405772713, 0.815585961545641, -0.9054055320130923, 0.4891065986002709, 2.0780682366958927, 0.018417726830499265, 1.8397453846021425, -2.813091744518673, -0.4852344630371445, 3.2308182650468336, 1.9655836055085925, -0.6165464185448736, -0.2658124596857814, 1.5854705719416609, -3.3654362514983456, -0.8333279827880216, -3.6479424512523857, 0.6573450675620742, -1.1805358620040274, -1.4255333387030038, 3.2394388711347712, -1.0143977228294638, -1.2552126635038092, -5.126972436000091, 2.465890881685767, -2.1919785431220937, -0.6906940761365631, 1.6987426171298599, -2.4274121857508715, 0.09072157327093315, 1.9947643218947617, -7.352983376976098, 1.3803281016002367, -1.3647696415851374, 3.5200814734459867, -0.8460505615904017, 1.147306397393927, 2.6288943280972568, -0.16345014302738645, 1.380487803537668, -1.0362510007543708, -0.6996629770998264, 0.5253406779659843, -0.45438258545453014, 0.8179648038006415, 2.2169690595134215, 7.110578664408181, -1.691171539760196, 0.5091562856499443, 3.020004257318433, 1.1628344868977187, -3.0758546336639316, -0.8723558268162784, 0.8271184205326413, -1.1289850255254765, 1.4681176363689181, -2.8804654522590503, 1.8657058421300652, 0.351307651371576, -1.6598365754516402, -0.40804931892590224, 2.1111565930986442, -1.3440797450145168, -3.3111229548241203, -0.8311814939791213, -0.15185307724474129, 0.2866203375008247, 1.901552919103376, 2.4851198653647413, -1.4813467754367302, -6.08939075689577, 1.01140614706934, 1.1614844345709585, 0.11832660168507023, -4.151077971587905, -3.157628979277345, 0.4820756336318087, 0.49798412387454344, 6.188821103744388, 2.538606281487308, -1.7654824235487234, 1.3531586642354798, 0.19500260464314043, 3.953602074931074, -1.5463035466572943, 2.211387191523363, -1.7636391346499523, -3.801842609860608, 