{"hidden_layer1": {"weights": [[-0.9038474516038448, 1.7625089441611648, -1.1793366634272422, -0.29283404275051383, 2.0395983993627307, -4.779400013799286, -1.088849830692817, -0.22533515739608606, 0.13876328251225487, -0.07628002253588748, 1.548404036702141, -2.0628463996575452, 1.0084889062007532, 1.0924241180186471, 0.471615421690568, -2.0580039976745907, -0.4432658050734402, 0.4093043348511038, 2.2297985474113267, 1.9644240357883893, -0.34862360905793194, -3.7743766870476017, 0.47263587374277055, 4.454789602058236, 1.9357748022668142, 1.034578111789228, -0.23171523458319285, 0.8736784774962244, 1.015921276468867, 0.69074544056174, 0.8009803352592068, 0.7267281672964159, -1.0986316755819354, 0.015939560073538802, 2.818580486230575, 0.47230496342952694, 0.5682899656545854, -0.7637653979218715, -1.9972489811331997, -2.4816544044897864, 0.9773660311846984, -0.5778427821735023, -0.9736216350095919, 0.4356522417583288, -0.4099303760209224, -1.3380176384420173, 0.08469125590993636, -0.5576621854457354, -1.5352782529913451, 0.5769413995111077, -3.6817022087924323, 0.2470372746087536, 0.5793579437557926, 1.2488551583013072, -2.75880305394988, 1.0694378760642946, 2.7645324418575337, -1.7816319723636251, 0.3168172849718834, -0.8616585652851607, 0.22465656865974684, 0.7251941149866622, 0.6270654665055958, 0.19227731278466173, 1.1818523636184517, -0.5714216860623111, 1.909685297462774, -1.28931774913065, 0.660116814151197, -0.3384859371347764, -2.8297995776185316, -1.45313128771507, 1.7092563439617061, -0.28785289709657447, -3.4172984571161327, 2.2409306589172977, 2.0853281030997786, 0.43737362615922426, 0.4920210929497344, -3.364680332918044, 1.35128098426592, -0.7653057700830773, 1.0684080138490377, 3.045374347737633, 1.8077763524987183, 2.5922182686745803, -2.1864913863545627, 0.20598467788819366, 5.210003836817876, 0.5419872833416414, 0.7229658557512134, 0.9642998163446891, 1.4086810050062253, 0.7090066682122045, 0.0753409929585434, 0.9489866366614815, 0.3510118361021648, -0.9705585173849562, -1.377223750822815, 0.7943913003227185, 0.371739848474411, 0.8008076705762821, 0.4151104591985279, -1.3791529636217295, 1.4933747433032039, -0.08448726428724157, -0.9123348855108485, -0.29634852347584023, 0.8864483502585513, 0.7357591497704588, -1.2482678075080753, -0.4360556553799242, -0.020037739407264762, 0.47269398457863304, -0.8854671025558074, -1.3740346431472317, 0.5522594244937181, 0.8454128200080809, -0.47038643836535027, -2.801889476565919], [-0.5216967648792658, 1.4714502433073218, -0.4571747662528779, -1.0288048335373374, -1.6896291061694053, -0.7104307918236451, -0.14996072287033546, -3.48324861707275, 0.4599517179957974, -0.6510956622544934, 0.39019485414167393, -0.3870621017950922, -0.9476391597676828, 1.0301865005587287, 1.2879841164240782, 1.574319951788716, -0.3246135288605278, -1.2447035865041132, 0.28960194208596823, 1.0090761868253062, 1.4247485861866944, 0.9523805011481974, 1.0242132513059408, -2.237191481364994, -1.9658581361663776, -1.6466281646711483, 5.137963780576295, -2.353792575554174, -2.4924201874787713, 0.6725077451154758, -0.2205824832026171, 2.4065677897507323, 1.2168592963010916, -3.604959185393399, -2.3887521931713294, 2.968562283456407, 0.03082571750795862, 1.4832279436247522, 5.103465730388843, 0.48169940911128856, -0.5668405223552789, -0.17649625358373935, 3.7603331171625536, 0.4916200654198369, -2.4497207016538876, -3.5873398063256317, -1.6865352128641766, 0.1243900165356696, -0.4460558792319234, -0.3465271400324345, 1.319079037670739, 0.058220901904418636, 0.3443711024822246, 0.5824216311762728, -1.5953185768430178, 1.5780025938029727, -0.00047419896991702793, 1.9945189741177909, -0.643471296765025, 0.31120351230838456, -1.4199207495326396, -1.3898306151534296, 0.022221145913033574, -1.0436834975917453, 0.8596719549319275, -0.4233090655070098, 1.085242183902983, 1.7127274980203424, -1.303035991353574, 1.316012238737371, 0.1887049913135712, 0.8526964573996538, -1.0318174864028937, -0.8397922119348863, 0.9450906817071901, 2.2860501617969073, -0.3419717678631603, 0.43519349661722073, -1.3711874602458338, -1.599170802565889, -0.5088445013922611, -0.5563438917314728, 0.7276753757594718, -1.4741788658850297, -0.6973878394114925, 1.5222219028815354, -0.40735573791605856, 0.127827958087766, -2.716422543970917, 0.6562474768519667, -1.4197930970387898, 0.2406282694366173, 0.6273830979196873, 1.2655771530245095, 1.5125012854924125, 0.6651563702188495, -0.9546531931486585, 1.1722231888430295, 0.04561854931746639, -0.055401775833408384, 0.3224345346474222, 2.4971469904168213, 0.049688978676130056, 1.6377263916464813, 2.4230479255467334, 0.6872838143166812, -0.13669133854840101, -1.569083388916974, 0.3415944002890219, 4.993126418748358, 2.1611892703070823, 0.27944692508535773, -0.683123398872535, -0.2880190070356246, 1.5154498915657737, 0.43893274525294307, 0.5665787096841061, -1.289395968699188, 1.1214912330877052, -0.5306090924049963], [0.7352693927803993, 3.2124897667699797, -2.773790276133567, 2.76971606426814, -4.9465657863429815, 0.07644785670431808, 1.3529809333278946, -0.56589183494179, 3.742490352226889, -1.1527248821200047, -1.6022066178493302, 1.7575744699739846, 1.5316568360610758, -1.3770054563528449, -2.848140347478954, -0.8988924004728929, -1.155361800219755, 2.6928269291080325, 2.214251212598745, -0.750031717976084, 0.5703899745091779, 0.813466162197154, 0.7702864275675303, -0.21573308308640454, 0.624053284499508, -1.0122445623637588, 2.5482695078482642, -0.21992882227432076, -0.2940544890511398, -1.1389366698983043, 0.6251357679976525, 0.0035424358091260774, 1.6562708702434215, -2.7963144296245903, -1.1887803288191907, 0.3628669424035064, 1.4092011026291158, -0.3910575476380442, 3.066774264901499, 1.215490389515406, -1.621565623246773, 3.8742403354309882, 0.5452409072038044, -2.280688936565518, 0.34112113092088525, 3.505092460989212, -0.14999640458821198, 1.207211800299665, -0.10195492741785794, -3.40944863578829, 0.8093171739174173, -1.1154964430092205, -0.9857435867258287, -0.794986214991939, -0.01245659956792813, 0.9321108625626577, 0.579660661412605, 0.3928378006193065, -0.3477647012001776, -0.5190504990030996, -2.6719534217050125, -0.0052211513258758726, 2.5441369333356914, 2.7173408220295667, -0.4143934149146996, 1.857825630502066, 2.1690216276290935, 0.6511352703175383, 1.2156925251137325, 0.9848779950391964, 0.6567837945013287, 0.46537292215181963, -1.2685237420243576, -1.672620585453976, 3.003448899299556, -3.3410647209983426, 1.9967923717374858, 1.0825857888761268, 3.9526362699323587, 1.6465692923326418, 0.3049369172230442, -5.553434300321923, 4.966904146505737, 0.5889823711979142, 0.12444129174379441, 2.554790673537128, -3.0199920155013604, 0.5222546441553572, -3.604590480598463, -2.597032542113408, -2.0384969648104714, 1.0463431526540636, 0.3313080254085033, -1.0641147917176452, -0.011299877932944312, 0.16076029966431166, -2.058889850134691, 0.8036797909340243, -2.3754951552574326, -2.6068692940454694, 0.3973482924368368, 1.189790017117812, 1.6529079601648744, -0.5357384315363974, -2.353674830449376, -0.325142332945888, -0.3339200835963248, -0.08580573026960023, -0.49476151732814355, 3.3233030579405796, 0.47381132745630206, 0.12001874400813142, 1.7348573465974677, -1.422990718315226, 0.07009698841288134, 1.1231022862601316, 0.05742085009206259, -0.41031222190309913, 1.4161871551717369, 0.29736960706047105], [-0.022894583865661008, 1.8305460120628663, 0.14143194115181792, -0.6884993400405277, -1.7926661491665006, -0.20793391462133898, 1.841860086628936, -2.248680886137536, 1.5592648110628953, 0.9186098816043644, 0.42865758294448325, -0.6468889051303169, 1.4201318475185003, -3.3505139473773444, 0.7528391192239917, -2.4279094337319553, -2.9622285491371465, 0.340446126846555, 2.3358727732549758, 0.5794727643136799, -0.9406615911112596, 1.709049310630009, 0.7440020330096737, 0.8054966068813297, -4.60157445418772, 0.9142046311534288, -0.6463389987254189, -0.5154456776585615, -2.947779044512891, -2.546560211274804, 1.5189691744783658, -0.5122314280223467, -0.8800290510977528, -2.109965944315603, -0.03209248467375249, -2.4054891235254336, 1.0029213575033735, 4.1059897806568735, 0.48546957791399264, -2.2972709341183686, 1.0908875873519033, -0.058537847066752344, 2.1045190481378286, -0.7092997448678305, -2.349473547717482, 0.2978032908867818, -0.1239497416768726, -0.9010398243561532, 0.7675622816468066, -0.1710799361642006, -2.682318494032842, 0.2781380564018321, -1.411190302026368, 2.5193105078522238, -0.5193884960589106, -1.1811483327907357, 0.8485974091688087, 4.5453446044988475, -0.5875068886344742, -1.0851230926761597, 1.9729797736298502, 2.0452769380397338, -1.6385538381283964, 3.242429630800276, -1.6180210601766547, -0.04031498224597612, -0.2538298698349375, 0.6801472961498832, 0.33394736857291024, -3.9475018280765664, -3.99124107995259, 1.6462311672471888, 0.06062217956043684, -2.750100217087149, 3.526929232012803, 1.1061157978470124, 0.5343634098540038, 0.7069593117899977, -2.015400199785787, 2.548144409784591, -2.1487530832562087, -0.8752977567037449, -2.383148714411665, 0.5799669693053763, -0.020633319819017934, 1.3778808755034673, 1.0000217542757819, -0.572833842809626, 2.32578927507051, -0.46370381090352497, 0.6371966547417888, 0.29091990116132976, -1.2604482450286159, 0.14601570380255324, 0.32372135936131796, 0.8372597408622949, -0.12357417696694653, -3.9153021793797858, -2.721063282936627, 1.0895473189484632, -1.431871456492955, 1.0463583347633603, 0.19778353179493016, 0.7635179639626656, -0.5371640209533883, -0.9774713747406234, 0.45185738332118136, -2.6989448327715797, -1.515773346369307, -1.420974341620895, 4.371419570231536, 1.3099734763308033, 3.011937601462958, 1.1346514850442913, 1.104324382811835, 1.7933133524884426, 2.646180676970127, 0.8199988686517911, 0.277417310823118, 1.2486974321817113], [0.4100310311384052, 3.7463830999896137, -0.8559794648102549, -0.659030899371587, -0.4676204732901969, 2.67490993805736, 1.4940462573224402, 1.7290061925839977, 1.0205838137965622, 0.7277718617244227, 1.3836796779871214, -3.081061968506354, 1.0713457318582433, 0.6201337572622344, 0.043306132947954136, -5.541518374432819, 0.7296310398569015, -0.4972376746672355, -1.5518170997924123, -0.5641249338845769, 0.5194641290758946, -1.1362497663109523, 2.142095281181632, 1.5958720973975493, -1.4660299904305223, -0.30181811810254916, 2.2350908193866736, 1.0264128317909929, -1.02053200554152, -1.529791653533598, 0.6790799190040396, 2.619978132842836, -0.4198881330629238, 0.5393668559180871, 0.007099587266397992, 2.430285046243685, -1.5884665004850835, 1.0107620367779682, 1.2861301589397276, 2.3941296658676645, -4.266773775348006, 0.2616049217340035, 1.158242143340411, 1.195869094979225, 1.8885970783990538, 0.1702915561536953, -0.20363934157403943, -0.545003659591817, 1.2025771674532053, 1.3805150103708161, 2.4958769075924105, 2.5589056541904958, 0.42529352459623304, 0.8864263814215371, 4.690206206886583, 2.6267712173024553, 0.29659993140857294, 1.7848917795074772, 0.02335957986304456, -0.6871505585808573, 0.3507937502105962, 2.071912182651157, 4.691060321008191, -2.4466181158475764, 0.3070112824550352, 1.5881542278440788, -0.15663732939335925, 1.6156465763945245, -0.8262000397882698, -0.2877653277136087, -0.6787419063995787, 0.35106664851519126, 1.823996850568823, -0.25038292930066613, 3.4223534739889225, -2.3516409408923713, 0.8773741906030326, 0.6296652799490501, -2.58949295033015, -2.98933127090198, -0.6658533105047278, -0.21888339140819824, -0.23852953446877515, -0.6570242972478763, -0.9812962589521249, -2.544214568270686, 0.8571016292308383, -0.028510087478857783, -2.408625537049107, 0.8891691935026916, 0.888574824282249, 1.7455121986928217, 1.0233719160039758, 2.3361406927508854, 1.7568800874041004, 1.2153201385437034, 1.295805580228346, 1.494793737307102, -0.860260455665971, -4.369456217027767, -1.7540615948241083, 1.5612647895352145, 0.6597885982964671, 0.6593813444386886, 3.8388353960778114, -3.5754072089394313, 0.13720332259487358, 0.4865898630350467, -0.5585712400929344, 2.481301108852085, -1.8908787477598912, -1.1679937940819218, -0.9797187212748449, -0.19957744826640664, 0.9352652481363084, -1.693880744954362, -1.3279707100315985, 0.9263818240195133, 0.3508700668778572, -2.1726862690909052], [-0.2385113411636619, 0.5098900928399983, -0.08370942809961066, 0.5999310883031126, -6.893141899714056, -0.7825277788693242, 0.9540217695137684, 0.5431153261594001, -0.4877577432028425, 0.31616646513354046, -1.3994423761746795, -1.6067311428752364, 0.6891897235084514, 2.510330450607887, -1.4686790834927717, -0.6264247609634386, -0.361961268002096, -1.5839968113653708, -0.21334362818124458, -3.9363660228333393, 0.3939841104644078, 3.622775506729576, -1.1939019450079849, 1.8568722780471727, -0.1953028653001882, 3.8525905130810365, -0.6511256892283555, 3.9571684886369303, -0.8089326890553312, 2.633358629985499, 0.059724880658362456, -2.7256275419106455, 1.967081665236968, 2.9207983794133994, 0.20253816378649778, 2.249521882858788, -1.4456069786489683, -0.49276117265936564, 1.3517331035484341, 0.6738322912255073, -0.6699619590090683, 1.7995922012579735, -0.8289596474519725, 0.6194284014690671, 1.7172376936240954, 0.3677929843956408, 3.7233451763708936, 0.2381951842194742, -0.25586570209108456, -0.2539359921413232, 1.9573397131099652, 0.6965845573976085, -0.8916570303449837, -1.2087844050309784, 2.9516733803951065, -1.1630645030514337, -0.6082329603702494, -3.8266614418608946, 1.044254425486343, 0.07592751332143037, 0.017429050156040224, -0.3003522647488781, -2.2400128668748147, 0.2445282224774206, 3.4876783035903345, 0.7937636947192006, -0.8678305139850785, 1.0647154043753861, -1.767154959658314, 0.4232565555764252, 2.7287871014420664, 0.913682965222907, 0.5078357812937447, 1.7615809991371278, 3.363276334692127, 0.9826191579886565, 0.36454381959370286, -0.005562122353869191, -0.6697219408214018, 3.226299408098292, 0.9336465215580704, -0.584644834623243, -0.5030289822601935, -1.1134120964853742, -3.287789255708114, 1.5732580747634994, 1.580872779134112, 1.0610316277553884, -0.40710292844849894, 3.092401493197271, 2.534516800681051, 0.29911277727181734, 2.6067660283228102, -1.9523733041637001, 2.049905051547429, -1.3992310172120193, 1.1958581046220549, -0.7962132216723197, -2.766905991830467, 0.7060543978511438, -1.0960299510700087, 0.9210485886734885, 1.7504159335008762, -0.1658323999078017, 1.9246266684133555, -5.468669939000314, -0.20770097689242714, -1.8695252310967978, -1.068720671944263, -3.4968082834456817, -0.8186781408641584, 1.6182856437205, 0.27260792582499976, -2.26332024766708, -0.6312214844917077, 0.7653563644161719, 1.062340470301157, -0.4796372369919098, 0.9000685907002265, 3.225972917465499], [0.2530215803661174, 0.07624215826773557, 1.5109312905065897, 0.5491056130925538, 1.1274534907090565, 1.7366873901251585, 0.716851474066143, 1.3838191082937898, -0.7218262153388684, -0.8885188519062881, 1.1621778164698329, -1.8292354631164582, 0.0637775198051479, -1.8544191438434052, -1.137763675879465, 0.2341055266737326, -0.16349376073288122, 2.772935546381267, -3.937321031329197, -0.32614599045153003, -2.0894278933931916, 2.5594254497279763, 0.15485582985334476, 2.3724904389341552, -0.2914763970424581, 2.4544226976343744, -0.2852426635703274, -0.2533645697495763, -0.1640369484156235, 0.9921187291794932, 1.0218896949128515, -0.5919230225575418, -1.7020269495338045, 2.5624716532784917, -3.506940478442147, 1.2161470337544666, -5.764586482258463, 0.6688482897952437, -4.363258283237057, 1.7111475169750896, -1.3355554151998084, 0.7083921865176327, 2.4404404422889154, -1.836570554766722, 0.30959858123075645, 2.6829425234879642, -0.38842455773282364, -0.12594038424226395, -0.14972579877003228, -1.2950753751038753, 2.1208136517425884, -1.6006455411759541, 1.8448867756265, 0.049473563249957955, -2.448293329823645, -3.0165319979350547, -1.4427613565092636, 1.8641192480223814, -1.2258796793217603, 0.7244277131047814, 1.7974087889834391, -0.5432393861333175, -3.1340666884016324, -1.2636948758012343, 1.575959095124438, 3.7218779749001056, -2.805477709312406, -1.7315311544895682, -0.8222486659068164, -0.6485932999530577, 3.015416805370292, -0.9411308084457637, 0.2495649661196522, 0.13644744586033447, -1.2294367102563226, -1.8078241771084218, 0.886359206067608, 0.4979069966409593, -3.382281021032514, 3.9744880741736086, -0.8427024016107522, 4.197402234607376, -3.7665044420174665, -2.3951902693130203, -1.1418576927694661, -0.6041173327511224, 2.1800596927390163, -2.763184734045784, -1.850615310143599, 1.8017553275972877, 6.13721828281773, 1.4266541923917793, 0.4215920097490959, -0.010593244127486575, -2.7182596698192683, 0.7125394560435948, 1.6723953619429488, 2.6947684864780723, 0.42151375599774854, 2.399000180665121, -1.840018080709806, 0.5608386152847182, 1.0037718459565925, 1.7371380345813932, -3.5045346708890173, 0.13787215272034795, 1.597957605857629, -2.068332743791409, -2.2760514501421905, -5.657641760943714, 1.0457781700165771, 1.9362340322020148, -5.902771551147244, -0.004834694095196643, 0.40290740794762625, 2.0404690286196874, 1.5463561821552516, 1.4562171264313066, 0.015133464853155303, 2.393632223406574], [-1.2801892548600864, -1.66330819411654, -1.6762856260321262, -0.4293165776343034, 6.1712470712619485, -9.67061528082435e-05, 0.9461220667378193, 1.6646159124534479, 0.8688036502784628, 1.4786042593982311, 0.7930409647279631, -1.4889912991930503, 0.5095855486748961, -4.0801473679827645, 2.1631199122766542, -0.11766721249512185, -2.1491322014487966, -3.985872032357424, 0.3153747418086883, -1.7124778883708198, 2.0103554917379878, 0.06626196785785708, 1.4645182919248485, 0.6185075303363289, -4.38632682994159, 0.5851814013452478, -6.050386968062726, 0.1455768678096334, -2.389373556894271, 4.323089505245635, 1.093550450399396, 0.3174349362280134, 0.7747213273449679, 2.0106651706373726, -4.450434828839451, -2.347381410999067, -1.2761939364553925, 1.0668884561984908, -2.9921347910837635, -1.7844933178655287, 2.849865492418274, 4.373059698547974, 1.8309014032765045, 0.7617016711533772, -0.003598469522729323, 0.4119580970277409, 4.572041186720472, -1.3764894063531192, -1.0783185699592575, -1.0788306629281679, 4.53687153639619, 2.326594871372391, 0.3384903751378755, 2.80665192053435, -0.24541228152594347, 0.46577878038322573, 0.29329443744823974, -2.3712707233450927, -2.3951946501846813, 0.4192630570402583, -0.16596529296450843, 0.9800836072988811, 0.7750911294970765, 1.2669167523423162, 0.9474821467426912, 0.5477242642304943, -1.053069934193322, -3.478579834349265, -0.9847465973894416, -0.9510994930346826, 0.47947178133185386, 2.9341363265111875, 0.26755359822732655, 3.6139335755797752, 1.03490867071266, 1.2596990852127914, -0.26295535339447573, 0.1627354953861765, 2.102566021165886, -0.5960386654552758, 1.7828648895234944, -2.123081753571234, 0.6390636465056232, 1.4826894514696067, -0.6612806022438786, 0.612990235850281, 3.847970962063629, -0.5806440362923884, -2.0126701208397813, -0.7417894010090474, -1.1055852666210138, 2.3238680217300933, -1.4399591819968913, 1.3476751004834844, -1.3415097700578518, 0.15139083561392203, -2.5245249553209557, 0.6028631183766482, -0.9547212130052694, 0.292965579221117, 0.4648671037285599, -3.500614523303386, 2.144423076207804, 0.03737263890493274, 1.9368235878129993, 2.559172866046933, 1.1246269582840163, -0.22756539265817527, 0.8942848673399754, -3.331850498608354, 1.364856772618916, 2.040376656590049, -5.642865885303192, -0.11605586648119061, 1.5747284701280726, 1.0354304812110746, 0.5983407719549002, -1.025976932545962, 1.4016271620437883, -0.5228992233070829], [-0.1801907926078662, 4.2837990357621845, 0.4053924168266344, 1.2770817572344888, 1.2235992548245491, 4.270642405657881, -1.3094397538026916, 3.542910564940665, 0.7476512171718894, -0.27596156050521436, 3.8167912831367485, -0.42824067102741953, 1.0811164516277274, -0.8564675686969762, 0.35960444478722153, -0.8593107301417773, -0.6206696579360522, -0.5755362812806625, 1.2807583015235413, 1.1524351254872869, 0.327588207712797, -6.271911774978371, 0.5117847448952348, -1.0773284277916677, 1.9517470592403585, 1.0710934336092028, -1.0147487355442568, -1.5535567863213335, -1.4332651845472981, -4.794227108428412, -1.7311458864385834, 0.7643085158460288, 0.5628442781765314, 2.2305718371119947, 1.643836412868852, -0.5056877096579994, -1.819333412109612, -2.212065543235504, -3.3069898326757827, -0.9110784368928171, 4.491506957396989, -2.1994632153288602, -0.6058326933365055, -0.21200620945391058, 1.7485627524997973, -2.4050218740348845, 2.7750949836306007, 1.0441596788835221, 0.2595473857952121, 1.1342862924339818, -1.6925280004007404, -1.5942668015754677, 0.6545971298359704, 3.9966436304815165, -1.439877161410019, -2.160470136713722, 0.8057832077036529, 1.149165770864366, 0.0814844985799523, -0.7298144979756918, -0.23432083175821966, 4.5585892411865e-05, 0.3634756041318489, -3.7585408677039944, -0.8994112773850987, 1.7349240490360789, -0.8697063573575731, -2.0858232685045217, -0.15261620815749574, -1.5393657930658216, 1.650445225328692, 1.6370508133158652, 1.1119831780348548, 0.7173289107244308, 0.04491413568215474, 0.6613264070746375, -0.8481090193884995, 0.6294850806939867, 0.5393297429428919, -2.417008954234179, -2.7110629774208816, -1.5032787047634542, 0.6794106716676631, -5.630324728297619, 1.2119425546492288, -1.0739497776074503, 1.6415843497285285, 0.5480996172667908, 1.967938854903691, 1.0404630168107898, 1.0093337817132884, -0.7798766250736998, -2.035920017792198, 0.0316407407831001, 0.6610317497115997, 0.06116273835190522, 1.5626965188767414, 2.405027861916144, -0.3415739271189595, -0.03216094575568718, -0.050660326075980464, 1.9239569696073895, 0.8251497749410064, -0.362736213100636, 3.7862283294844077, -0.9891261900834037, 1.530875154227631, 0.018000144914910355, 0.3120894338255269, -3.283814163678623, 0.1388732274614151, -1.0933374976808345, -2.708175494464241, 1.6218138561945339, 1.052178423933942, -0.08357478475795649, 2.300763869922297, 1.2042237034222596, -1.3017409411895768, 1.5372535095540623], [1.6403827337249823, 3.2953096141164746, 2.0455716823483123, 0.31014446682494357, -0.29431541522007126, 0.8130953176240795, -0.3931253188000224, 0.540210844637726, -1.096607344923739, 0.7019726000111526, -0.17231115581053502, -0.3213437882162416, 0.4277124493543683, 1.8048919333202869, -2.984341345294043, -2.399946068743255, -0.8346827261978398, 0.6810695947137745, 1.6636166095110863, 1.1374027480533453, 1.4372793658403764, -0.02117321532727693, -0.7653611573444439, -0.06494590967951676, 2.6680983130575813, 0.4496871102263709, -2.5645231141620943, -2.5869065592517813, 7.022898045995887, 0.32325127116103114, -0.03400046383437269, -1.187461090478487, 1.0675407240025105, -2.6491903522888083, -0.6734480804416663, -2.778247636676287, 1.8220970213559098, -3.8997204231777025, 0.872859452293012, 0.7910531803550933, 2.8498108773272643, -2.0801693185924535, -3.7722220159854754, -1.6157969218149804, -0.18441425705251982, -2.4188073782477004, 1.0916841125768144, -0.1681513999891949, 1.5711092808158726, 0.5106941905372192, 0.11388111180604919, 0.6078771027144153, -1.7487982883074984, 1.6021104971626603, 3.194421096303184, 0.7363268655829158, 2.4184387941838184, 0.582818217273011, 8.815776438196565, -1.9680583868728398, 0.6020723450939686, -0.3556191423143261, -0.5126486018505464, -0.8937016155109809, -1.4046749776720986, 0.05614312224418524, 0.11486760874336008, -0.7888408072515894, 1.8572389568317276, 2.3240943140061594, 0.21084515608442622, -2.7577087901268023, 1.8599450949280167, -1.9384465635179662, -1.011589993127178, -1.0383767108250175, 0.6436103343626043, 0.294951083201227, -1.9828529405633837, -1.9966970600495346, 2.7299127320402383, -0.6070237110815592, -1.072316769741168, -6.014783156435202, 1.4790301929026555, 0.7382535488431896, -0.7470920402537876, -0.8908656151519566, 2.7842305218899464, -0.3169735091976137, -1.1020992433179417, -0.3939271420606633, 3.917401666223954, -0.12248081822887891, 3.0178817946206635, 0.9474517938286883, 0.7181087391244975, -1.8856985557990824, 0.565022806144829, -1.0822029737883514, 1.744888530564225, 3.170672015315291, -1.6010548948401697, 0.7472999412641818, 2.4482405969305003, 2.985965824935951, 1.0099147539859776, -0.5847794815104201, 3.250689310464732, 4.8227714239482085, -1.0969692664385002, -1.065646908569718, -0.09482451211613328, 1.4604400706944234, 1.1330274915718668, 0.04084762956432369, -0.016055858213239488, 2.2437944141161874, -0.09050789556765296, 0.8397183318768148], [1.7849848346755373, 0.33238246980033986, 2.4282955431050106, 0.32651090136339456, 0.8483029119276837, -0.3376667997447392, 0.7989228679818751, -0.9078973335888373, -0.6621516155589098, -0.4466145855894687, -0.13424294495239597, -1.914311116142828, 0.9137067253606805, 2.3005245014280606, -2.2545746469671526, -1.1887172929454335, 0.15900714350821718, -0.4719768951803334, -4.638200903486283, 0.1835936493657642, -1.3546740726854765, -3.2074523598865174, -0.20816443565094375, 1.1072152570243723, 1.3312457354480287, 1.6322185005829637, -0.6366344131945483, -0.8425942229466036, 3.0787398934197814, 0.6939872440140086, 0.5403747907777162, 0.874714964094006, -1.0330546103668004, -1.8341110109730558, 3.051847069609195, 1.5329794315975613, -1.2829742331970717, 0.02707013945076907, -1.4237268047144371, -0.8842140738822595, 0.7169049025231921, 0.052956421054832836, -3.0260667628583366, 2.1653920872298364, -1.0485282525790698, -2.6698605203919015, -2.6937472213586937, -0.5320829813815701, 0.6952568560866834, 1.4145503266333002, 1.0630362117109142, 0.9738042937944696, 3.5816561500447506, 1.0744636001027212, -1.962480277973268, 0.0056945974587692605, 1.0911781226874175, -0.30593149168296396, -2.3147636628455714, 1.3816949409195838, -1.746694212345343, 0.6257660727094373, 0.4742750071764856, 3.7903014646221815, -1.060619737203732, -1.257814865395927, 0.41745360368811263, -2.2325763432647054, 0.596918374255563, 0.5087922043109022, -1.6787350215901573, 0.3804256905942331, 2.7280315801084147, -5.170456861602641, -1.235410760714718, 1.5681635156069222, 0.06535962464439467, -1.0820068896042503, -0.43094405774332023, 0.8318220042192963, -0.16934839628352202, -5.804793226424016, -1.8072434440063652, -2.91932043897772, 0.7109188023933668, 0.6896357973930669, 1.6749971135518946, 0.11450657395053215, 0.04064952973425127, 2.105953063070042, -1.6819023895894056, -0.05993780737493822, -1.5527062392715267, -1.9115694087968964, -0.03212760301666212, 0.54860387966781, 0.09036823245112348, 1.179375846479668, 1.096711629073937, -0.41891999998244833, -0.9889922876753335, -1.0910192406051977, 0.8056941426445285, -0.6569142500643032, 1.1068305357779697, 1.1035024969898535, 1.0150579047942372, 2.2336624596635177, 0.6888373656228873, 0.7444442096387227, 1.5912985103094441, -1.9066149536474681, 2.4200237181283315, 1.0147009767361819, 0.7129499108296666, 1.3196902379981712, 2.532715483794933, -1.4594113907267705, -1.1195738034831797, -1.5427021685729096], [-0.8699729825958864, 1.2399515749133343, 0.8701253564967627, -0.13251070058969325, 3.1846272264633906, 0.5667076296927399, 0.4993093841253048, -0.8758798446808981, 2.09943852811062, -0.054982721907657024, 1.2451823285694035, 0.3712400497773542, 0.40437461907822186, -0.46888444659358525, 3.980513181119704, -0.5134536446877926, 0.0028028862204949466, -1.046795714297358, -6.1341254033634405, 1.002551267154287, -0.437697421657588, -2.4449968019261203, 1.1738140258966843, 1.3527199040796958, 0.7117980841059083, 3.2595067863190383, -0.6430783101093727, -0.07962020705493272, -0.28695573283033254, 1.320467185512704, 2.061727392103072, -1.702274110205998, -1.2485573062200954, 1.5415315836413015, -0.4266637980220352, 0.6320200546088602, 0.785331322430658, 0.42785470317005675, 0.4354794130010239, 1.6216419317649111, -1.5254434079329753, -0.7680167023749592, -1.292974463534045, 2.6686692513562686, 0.5431038789671292, -2.889259452644985, -0.6735675823231144, 1.4110034176796875, -0.9813045742244881, -2.1067273978936782, 1.1097222071690445, -0.9332567286118455, -1.215761567296967, 0.9751708986845894, -3.4197196803230834, -1.0197872377166077, -0.5519506957988305, 0.5188037973959857, -0.07968085700348077, 0.4080434808513385, -0.036687899171904556, 0.26614209430873514, 0.7213771361946014, 0.9604928317571988, 1.9892664946189196, -1.0320626099796246, 2.2340702411326703, -3.0785424734871496, 0.1202284547951959, -1.844359967401831, 0.47821299211545276, 2.3338866229048865, 2.106291707010054, 1.0673587007851018, -4.761255693074399, 1.53452442368352, -0.38914063495375995, 1.3915015233017078, -0.07968438175658046, 1.1969863073126594, 1.4563588957152338, 0.7337329928730202, 0.44231560026373706, -0.18755049197142287, 1.3119972696004139, -1.1454832760387985, 0.8210425236882736, 1.4180584506217384, 2.861761033761982, -0.6615586325192003, 0.7668488435653368, 1.5840576587258492, -0.6299617708526637, 1.5676450430401432, -2.1461220034051234, 1.390423426467433, 2.1147418645712084, 1.236739479782441, 1.1343917817243079, 1.980061801856437, 0.2259039606083056, 3.4131493092847887, 0.4168300507856629, 0.2953734519704674, -3.760282163063501, 1.1914637539932396, -0.005941607429938482, -1.1013539261456733, 2.4817756119866528, -0.5279750096213879, -1.76504092733233, 0.5739453560595362, 0.3256615904871703, 2.7382192403266163, 0.7961499800002034, 3.233638886115027, 0.7402877710343322, -0.22297747682957814, 1.563039716538699, -0.014702921188605559], [-1.4041389088541352, 0.25235007039886587, -0.03650094762044417, 0.804415162460471, 1.265116538968587, 2.696793914799013, 0.9493206225527387, -2.9743095379382902, 2.035530136588257, -0.2984088582949776, 0.854402373927757, -0.8970951696420405, 0.5930950802132187, -0.7215863251118128, 2.8514299808906554, 1.7894385574851708, -0.14361133844532567, 2.0014770737863476, 2.9604094873243225, 1.1607010340503439, -1.517358930439265, -0.017891390800611005, -0.7166017846161761, -1.394064577700506, 1.2845850631475484, 2.7109120390416264, -2.2040772508987994, 0.5903988092038223, -0.9243164473157273, -3.642028810208321, -0.15726192404738362, -0.8247998347668855, -3.1776641869721023, -1.4936759219059863, -1.0624022593660716, -1.0023291923289421, 1.322231714974973, -1.3341841328161788, 1.7939495954921267, 3.8349190795879977, -2.329357489375822, -2.2278385757205514, -2.576524823161612, 0.1823491369181527, 0.09493326688613565, -3.2590958220673216, 3.8395654419505862, 0.4031023916767833, 1.5987623723320787, 0.4912637570932105, 0.9589919123651688, 0.9023996483720701, -0.4778050220587784, 0.16016166685833796, -5.805738811645299, -4.004761549960696, 1.2754830328259141, -1.865653190561674, 1.0507624954898558, -0.026452112852282175, -0.3299134735416601, 1.4354661893062957, -1.212906792328757, 2.6438678619703206, -0.8971405112792651, -2.6156231393689904, 2.3297610337466983, -3.643928847319579, 1.4131744139711044, -0.3272496205541155, -0.13068182122630903, 0.15688950577288135, 0.5110887938712708, 0.02689403668769267, -1.8099204651365246, -0.14130516126366802, 0.012498614181869785, 0.1296729699329751, -2.6396126807022706, 2.8753014352227355, 1.7758038866096069, -2.4568026512530103, -0.06959422839927161, -0.21425348678758638, 0.3318769232371558, 1.7176319037022028, -0.38502490002455353, 1.0558541073727974, -4.3650213879817805, 0.2574931501157097, -1.642446204369926, 0.758347975818337, 1.559215294352644, 0.8718436133173464, -0.4534107729959922, -0.38873097420143754, 1.5260025403559934, -1.8600553051445528, 1.0175182612379576, 0.04578135957088125, 0.788417540241481, 2.8020770958780075, 0.5538502113941484, -2.0480146792607887, 0.2651779617449727, 2.399265905343798, 1.0038285322828746, -0.5289962449884487, 2.30819261505201, -0.8223267555015032, -1.7861878889141973, -0.8109398237818866, 1.0904333926546295, -0.1296406074410533, 1.7555217033255153, 1.9375750352337235, 1.0061991271065915, 0.3722603448782411, -0.4495562760152077, -1.5814676121400861], [0.502227412755344, 3.669014383563333, 0.3844678848012397, 0.22579318710290433, -3.095067280904345, -0.13734790490399454, 0.37855161522687614, -2.9297977827460207, 2.5382136310873373, 0.3084323430296793, 0.4694083057960697, -2.0511641372595073, 1.1133648969482484, -1.5739889392794941, 0.3184220035096833, 0.5147542739338208, 1.3063024318817695, -2.536521097899074, 3.9670819214588424, -0.45237201810744165, 0.8547775552626645, -2.5157094192490432, -0.47795348757616446, -1.9560070949829573, 1.067608006628599, 0.5049871241330056, 3.5917448154598564, 1.23685987413473, -4.671909547432661, -0.5792589965342759, -0.2886717728108743, 1.9829789765141819, 0.839845234271272, 3.5603590941230503, -3.107606181630126, 1.386467146481022, 0.6109919798470922, -2.712180272473464, 0.9548901176200599, 0.9702774181707803, -2.176217047140588, 0.7165017803728965, -1.039338743221693, 0.43794578989603067, -0.9738647603184565, 3.0587842679834236, -2.3438579118380045, -1.1735818871927182, 1.3343458875992398, -0.9982043280600795, 1.1828314876729327, -0.1403827390307082, 1.0480920988895515, 0.17506598734354004, 0.12743349514728297, -1.660962127866151, -0.7102139821761, 0.3190401249667848, -0.6610333532760116, 2.1600673864804354, 0.010902310072206059, 1.95339296734337, 1.2477455339340562, 0.3677122024120513, -2.632590001888953, -0.32503166909773124, -0.4796612819638936, -2.8691777590508103, 0.007061383799288829, -0.3669537815937019, 2.3068981295963202, 1.0717370010611278, -2.09030595839482, -3.333745754586661, -2.644124770721534, -2.2068118949967395, -1.5851607785453004, 0.1272690561935284, -2.687351550202201, 0.07117891401367969, 1.9595160404222856, -2.688624193950708, -0.9746779122483362, 5.608763161483159, -0.30600907008902345, 0.1446979411503283, -0.3216146048572917, -0.0920228770530927, -0.8042396811808125, 0.6924524256874943, 0.1467504013284674, -0.7581565081906555, 0.03850798793952532, 1.0116201048161706, -0.6116016234105227, -0.662998499259187, 1.0523990282543085, -0.7922696668428257, 3.146334439461091, -1.0502676178230665, -1.5053200637160602, 3.684858933386625, -0.3498755404182948, -0.9823141773489005, 2.3662073909462102, 1.1736819189035979, -2.48438533735188, -4.614415811344704, 2.8572921372578093, 3.6453858991077794, 2.0277546399764037, 0.2927038865628424, -0.5881607134971297, -1.3502223616199243, -0.19138523991375242, 2.0813446420129225, -1.2261490981031833, -0.6612508112771717, 0.05736761715238756, 0.17421036193294678], [1.0983781604758565, 0.3150139467404182, -1.9152709452546826, 1.328515705078547, -1.1015375531623093, -4.252263465706957, 1.7328484452858142, 1.4430993160549401, 2.98810272762741, 0.31722792980252784, 2.9297980204685303, -0.2754456346276341, 0.6959534991460365, -4.627541151048359, -1.478681017205946, 3.0082832502156767, 0.8920338089608832, -3.4585275640775137, 3.61371311518832, 0.5348047087981656, -0.8908151755076857, -1.3154936020455468, -3.257283235112075, 2.6060176398729262, -2.505149040912057, 1.2566767494011233, 1.3939074132421163, 1.3107564562013876, -1.1385621200627367, -2.9233553393626184, 0.6429914270729119, 1.2415423265981154, 0.6757996988714544, -0.20323821746557957, 2.38092097636978, 0.010394617306492238, -0.44494306492558766, -0.6500625972699356, 1.4501213231645158, 0.15138595386520903, 2.008735399055931, 2.384748268826315, -2.878724014969073, -2.048662256039825, 0.6711578553707365, 1.704751588829227, 0.9219454124356439, -1.1480824990321465, -0.4159506787172857, -0.4761860028276456, 1.641600810469891, -1.1145111841877087, -1.2376290072340328, 2.591896191768939, -1.2996559927375733, 0.6649865095634779, 2.4599387398179102, -0.23291347675799254, 0.6115474049611013, 1.904357401369041, -0.7661098011027928, -0.20266022484248758, 0.8665200113416619, 1.836678805766772, 0.21476765353347085, -0.2533107278056934, -1.1527929923131723, 1.0110902038243896, -0.9110594675186203, -1.6312313192185188, 0.1962629950264168, 1.5248053605339074, 0.3457986411393556, -0.20920606266780226, 2.0760509352808234, -0.22998481997327966, 3.6807648791870533, -1.8699568385051057, -0.660777922145816, 1.8710245790465831, 0.06135731156385662, -4.598022658155733, -4.1838519276486, -0.06329758032902508, 3.8302296655467356, -1.1322402397862903, -0.17306099257972204, 1.8095003252801893, -1.6036282708962435, -0.2643531369848563, 0.7787275879229018, 0.5318327328217726, 1.4837098080051643, 0.7585716014249959, 0.9475005985587591, 2.679756220883628, 1.295194873847771, -0.0043678972271611475, 1.3305180976903221, 0.9755861520981797, 0.4054832838175749, -0.7607287802845146, -1.3763483931405351, -1.7262802997792805, 1.9501395334610956, -2.889086086367186, -1.3697399085458124, 0.9544767514967558, -0.30186595292444185, -1.452625454404861, 0.9768880831809461, -0.008647982361222172, 2.873693338670021, 0.1640517308780177, 1.8875276383672992, 1.7394581146813322, -0.4739534712822314, -1.099290877537455, -0.6838694008095948, 3.3468559424923376], [1.637844291842959, 3.2063611765666895, -0.4304125883911968, -1.2813666220853164, -0.038646472712695, 0.8604390506070868, -0.9223968496350282, -0.29298421473689296, 1.9730082866291652, -3.2800288357378053, -0.3522353494716966, 3.5038325371127805, 1.7383748976055386, 0.23990034707247315, 1.5304443911276349, -4.050016653140374, -1.995935946471467, -2.6273563620796434, 1.9799456119382228, -0.8255001242687372, 0.7907172253069302, 1.5894471269980497, 2.493665702698122, 2.785675544067979, -3.0173487177845724, -0.03409278731593923, 3.7358818939629455, -0.3986938708780561, -5.251264683022927, -1.9501117639508172, 0.6866592640170822, 0.9097890137198572, -0.886475627725657, -0.9689117220122598, 0.01657201070326524, -1.8168642553226682, 2.2417087939141247, 7.659878552435119, 0.31584336775003685, -1.894920869245648, -1.0626495624729893, 2.4106717241327296, 0.9595636519017163, -2.8190509115530995, 0.642348010961795, -0.5776844845951524, -1.9268620788640085, -0.7805059861382343, -2.0829186150679044, 1.8242911789963334, 0.28378045413005415, -1.278898701673816, -0.9736849686191362, 0.08379922182578768, 0.2132433589396907, 0.45323457581114013, 1.4983420518621802, 0.6625736477316773, -0.6884614833724351, -0.5630066362064765, 1.9743578340508126, 0.7279626233651334, 0.3076807489673339, 3.495222551257258, -0.8422721474611389, 2.564303435262002, 0.5549598678948319, 0.5969786270554626, -2.1279753121627394, -3.1847142563784008, -1.099575569667592, 2.336241837840305, -0.5290578946386247, -5.758878476456699, 1.6642546349892424, 0.9945340913777411, -0.3400838482089529, 1.111801875144925, 2.1195023119829473, 1.1942432824902312, 1.469280567963108, -1.9682982797696646, 2.1222871148755873, -2.710998372793794, -0.6548364956130535, -0.9060340028468967, 2.5437734832001135, -0.6838806917668648, -0.010643731350874942, 0.5849031050850734, -2.1652534488255735, -1.498928249319375, 0.14617297189625794, -0.03678414502131966, -0.023795875809063824, 1.7058491888833394, 1.6262053298040233, 0.6950895138574624, 0.835983850250783, -0.5296669638290203, -0.7935616750431025, -4.701857994065855, -0.5047101973598741, -0.5434594852923093, 2.554566351926988, -0.04058005576964829, -0.3564236850974462, -0.9051692570048324, -0.8060188509387033, 2.566990286627256, 1.1384468130751229, 3.1511275376880747, 0.9557008541102511, -0.6077885201141484, 0.5237530151276444, -1.462301640657455, -0.13424436075159268, 0.3438799321875341, 1.1205677286651865, 0.34940408113340776], [-0.5621281996255318, -1.301762545722048, 0.7085279697240917, -0.31708054593592705, 2.274210164042882, 3.1322008267471135, -2.1653343508048892, 2.272474795185669, 1.370373803758607, -0.8380518251438536, -1.8053210757692986, -1.060941853032133, -0.696908274093621, -0.35368743280135856, 4.050168593101151, 1.4257320311150676, -1.7194843463001566, -0.17923165766075422, 0.4507119441889993, -0.2512804097055352, -2.6833512240108868, 0.18793508711254, -0.2672149137409414, 1.0939835347241476, -1.775330781656176, -0.17900936194706002, 0.5125237843593891, 0.10896363493106294, -1.6687407262025913, -1.9885275336631842, 0.08262993549213736, -1.1351804969933272, 3.7131096888327186, 1.0811323319664419, 1.2681223661719112, -1.1698296673433148, -0.9080076426006722, 0.35754628038975184, 0.7562638332649594, 4.892901006503974, 2.0681776973020605, 3.1105837666956475, -0.49992984794117984, -0.35439316211569255, -1.639833102195999, -1.3844178043180486, 1.1957642682963026, -0.8394969505743742, 1.1818678799752727, -1.8290672402939299, 0.6109382102239508, 0.3231219981981638, 0.3027579930426686, -0.705384628322569, 4.428256937573166, 1.0521404078815686, -0.26547677467176317, 0.5499965840239158, 2.355160234111618, -1.0515591873802894, 1.5080835234969963, 0.031523054088219093, 0.3876257308006623, -0.1846724270571651, -3.850459472434285, 3.460903494561183, 0.8605009305488488, 0.18159110785746313, -2.2994768461844988, -0.24732465403806508, 3.385557660969773, -0.3846733410622018, -0.010095375308459647, -2.156202253990398, 1.68670291287895, -2.257540464287486, 0.9175110952443815, 0.13934714482641775, -1.0571172115241296, 2.1103211972024782, -1.1853044309901035, 1.1202356726104088, -2.3974535651640076, -1.4932023855351146, 1.367533961270282, 1.4992446406849504, 1.388819353891469, -1.8346597918377303, 1.0660989550945366, -1.3871156541901064, 1.537780260542752, -0.17925690987064524, -0.5570223899224573, -0.5718554881545204, 1.6323324977675606, -0.7858202215660471, 0.48158657508586633, 1.4283492524500803, 2.2836827582828336, -2.272350670925774, 0.8518606634696504, 0.082171726359298, -1.3094811475636756, 0.5062334838673846, -0.6023547406011198, 0.6844141733341117, -1.2623984082957183, 0.6102095489094947, -2.398425227324473, -2.004870273680927, -1.668124521222237, 0.5342000827824988, 1.7762638284962418, 2.8018037665654463, 1.576931250045449, 0.9675237104845168, 1.0950884821202655, 0.6450565627103165, -0.08973434193109728, 0.8528315892751567], [-0.39491999040561654, 3.124017706910399, 1.380321464495021, 0.7027435642068436, -0.13924693036212946, -1.5869242851289556, -0.4384360131943273, -5.904027334157325, 1.829018131640899, 0.46403610884722457, 2.449289650463576, 0.5625543283853439, 1.0108069378997204, -0.5753051581362417, 2.2562140682015617, -0.43073421743623186, -1.1042676314924331, -0.5112086080929054, -5.09363393838234, -3.713959648019943, -0.22078111600808775, 8.798415861636377, 0.5113031711544493, 1.0258636341198262, -1.8144005559573926, 1.258206485987129, -5.115867745401585, 1.2367084186497685, -3.307678100419035, 2.591216465953044, 0.6660058648923234, -0.7676650596875656, 0.7508022628525678, -1.1469070257638911, -6.003486273945714, 1.3154487062586386, -5.034005414274673, 3.2911043314366606, -2.101959769301382, 1.5994173161102363, -6.0778925182539245, 3.9183897797466667, 0.9292641244542583, 0.7848447330886207, 0.07963369070925422, 2.2464065168982965, 1.8337550264346842, -1.2741523323765278, 0.4753376608878386, -0.1717082422619237, 3.0199674987309426, -2.2791968334749653, 1.4691038227569087, 1.4081665917882666, -1.4091648837669777, 0.2299007586221645, -2.136963862933097, -2.4861149504359425, -1.6991837358628106, -1.6508380143465475, -0.7319780772720289, 1.024733308989645, -0.7155113874526461, -0.7055534073869516, 2.1334053031204863, -2.37281834748043, 0.3913975371050387, -2.1087885260887065, 0.11069925874095982, -1.2481902079257305, -0.5990813972348222, 3.3061191939331644, 3.8287859432574227, -0.17532857021226292, 3.830961118963945, -1.2256643106995826, 0.19473214019753166, 1.9104515706316907, -2.431309367599131, 3.51063396219741, 2.0547990376079137, -3.6414035582014206, -3.2395615372437465, -5.262504378614205, -2.7419558658108047, 1.2154409158702535, 0.7428429351567508, 1.6892735219853603, -0.5215026425726471, -0.028269906795887537, 4.49802736535018, 0.4166634247169903, -0.09879655867853694, 1.3944231425261866, 1.5639277020970013, 2.2909200177905493, 1.9703959228547399, -0.35013362245897545, -3.3711601571365764, -2.3049696673758637, 0.44455544128462143, 3.205912521835984, -1.0200969453913298, 2.734921449852426, -0.4794930943782824, -8.341045076221357, 0.4907748224206299, -4.426726058663079, -1.6478887891482372, -0.9635005214786592, -0.14715789651125977, -0.9819201887899731, -2.8235826255139376, 1.644502565694275, -1.5372638499671207, 0.7901920588576906, 5.175778514164468, 0.993072355759537, -0.5799792806895704, -0.33420874306623966], [0.5713333734224175, -0.4057683901649081, 1.6519782173846478, 0.7670556278730083, -3.8016997760829097, 0.00035447211031509386, 0.38898401420567114, 1.7058295782479727, -1.3430035872085666, 1.0564495439242525, 0.35315889874299283, -1.051271110047121, 2.20715668327171, -1.6711413829261952, -3.2502062654426176, -2.156066660717658, -1.7692526311879306, 1.5944967754551782, -2.4894558370527298, -2.55661941402925, -1.4859229564149823, 1.3177379642985207, 0.8921738269607669, 3.0181916580990387, -4.088295402404272, 3.844513735728598, -1.8914414753695132, 0.8720868105362333, -4.223105663507602, 1.2943163241512343, -0.4079266080171112, -0.35472104259693277, -0.8937053440543944, 2.826740336640864, -1.737737423871056, 0.05789880673882985, -3.8124514141754364, -2.42658452694768, -5.2167193231423585, 2.3472485410579083, 1.9444572600059182, 0.1759215798660392, -1.4184949489779402, 1.0604011472204085, 2.9133114396489623, 1.6640574059051931, 0.008008071812298399, 0.10887524615053629, 0.2656998657454879, -3.229102696669192, 2.7989356398301024, -0.20683436800666935, -0.04725989179703259, -1.1477052649639206, 1.538131309084412, -1.2877200890321898, -3.028339285892331, 0.8357157798254762, 3.7029385830487254, -1.8390521918179126, -0.6343558025248287, -0.17896306154177805, 1.2059059485947832, 0.046852859802411995, 2.3480415633256233, 0.18427994784831347, 1.809383449771452, -1.9591908563375033, -1.2699468210875124, -0.576708497834787, 5.850479419570501, -1.809921823415968, 1.6782485917727663, 1.423212525399521, 2.4958244189538488, 1.2639169067044795, 2.6705511638238035, -0.3161354494059474, -1.3537884139220968, 0.03339452446483992, -0.08060178516820564, -1.1191240320885871, 3.2797677490020227, -6.326329335913165, -2.606213388709594, -1.8331248488133114, 2.427211476691725, -4.128043849646824, -1.3484924747921638, 0.3841923423404249, 5.55575470172757, -0.37171213444484547, -2.118603113267235, 0.655154927931574, -1.1432148323539926, -1.2310608331414676, 0.2247282801139358, -2.08573119268547, -3.0389078676589243, -1.3674697972020922, -0.40215882617440635, 4.319569569403556, 0.08071389802099715, 1.8836232097405268, 0.7299223066362446, -1.1625675822028976, 0.03290430651021318, -1.4039117056715764, -3.1441739672247313, -6.565353063076974, -0.8593588972523096, 2.038045685016983, -2.1184372154038575, 3.6804172706491363, -0.22023089273347266, -0.432685656849996, 1.5552273949767055, 1.5318899297760822, 1.366547323670212, 3.2057085029799466], [-0.2701399335886212, 1.0904243388671984, 0.9424380175156614, -0.18036778539252826, -0.25238915905407605, 0.7034503063502769, -0.17308817332599435, 3.5103455989438315, 2.659089417327561, -2.067515412395749, -0.35973631506302933, 1.3404226587217791, -0.09597113319985265, 1.308101023379229, -0.4038178753446021, 1.7832192091061534, 0.8730299838778657, 1.834349891439555, 3.9869475213879952, -0.17493449919573476, -0.5220695948811015, 2.833165299651848, 1.7175948570977602, -2.502909334556643, 0.4484479763860072, 1.2198528413217276, -5.080918686001048, 1.962624594196497, 2.179623747404154, 0.7946223488032832, -1.5529893610714558, 1.627622705189056, 0.36254132908090025, -0.8355612771615328, -1.063445316948213, 1.1172342916587126, 0.853994675364294, 1.2027868287903665, -1.654158954547893, -1.9981316126277104, 2.1870571622903214, -1.8803538850944146, 0.22057849993132975, -1.048096686355719, -2.451780142447903, -0.18100512681175435, 0.6675193481695503, -1.0544617788956965, -0.8881639757042858, 1.6681498747454366, 1.7098589688262196, -0.8421002717798306, 1.285279118317736, 3.7753828082101113, -2.1147952314968514, 1.268928623562343, 0.5062927474104398, -0.6259260087387415, 1.972579128180443, -0.32081855414056787, -2.29087166563827, 0.015175871114503066, 1.5834975811865108, -1.33102905291919, -0.5575810728997658, 2.5641254700649716, -1.101312211256272, -0.5983366183226236, 0.023758654367518086, 0.21055112055614414, -1.3312870848128897, 0.631074098943865, 1.3968218703361126, -2.1120966285770937, 1.4658281366200503, 2.942608551905248, 1.5143804395604379, -0.915426208805342, 1.087589581650708, -4.036095361476366, 0.19102787587269796, 1.8899822349547986, 2.628468471611999, -2.098707120318036, -3.3576097789257813, -1.5825649824562, 1.117871018458936, -2.468758184329954, -3.3837254023630248, 0.1435187171531466, 0.6951293232763246, 1.0436935859099445, 2.0160713501613783, -0.02239630962933831, 1.4228724748345807, -0.8869743220653649, 1.7066036433382248, 3.573839121544664, 0.5939868500039547, 0.4163201006364079, -0.3821181707100306, -3.1428748110578884, 0.10577990973198664, 2.322174872052859, 2.376238502279381, 1.1350628779408534, 1.436280373285335, -1.0268641276016586, 2.847632162806273, 2.63801392916535, -1.0410150202352022, -0.051934658505736975, -5.812167314216482, 1.068373715483471, -0.06267144141379888, 1.379836967286191, -2.1913439668303014, 0.0005232396984294244, 0.7753059046449596, 1.0405069420024144], [-0.4494583687754914, -0.048155521259970906, 0.05076348332244464, 0.360051694784829, 2.955541261358437, -0.1650581928231981, 1.2329628724195811, 4.207869085499139, 1.789775201154919, 1.7885326727775355, -0.9551970332539118, 2.1293790829882115, 0.033258402188698945, -2.833628657000291, -2.474979152245518, -0.015161226838631955, 0.25689604873505706, -0.42793563974230614, 4.541725051861417, 1.1140452263443632, 3.5785182423418695, -1.5899878957541347, -1.9143936669001194, -1.648911919919242, 2.664114673218082, -1.2573875876381384, -0.1457881976311526, -0.9087436864316526, -0.9312461064538451, -0.6706882606507992, 0.5585621601992464, 2.6315777469320114, 0.48047347445966193, -1.641056654202261, -1.1720899889947292, -1.0430374919515533, 1.1292835555599257, -2.030796992632362, -0.9984730220259452, -1.4223299726066003, 5.714327533958177, 0.8700710587309112, -0.6537034529857342, 0.17184952749061744, 0.1104792929741999, -2.2369437461628956, -1.017148112157309, 0.5727252659571699, -0.8275423144298157, 0.0001752671869361963, 1.3909534097214469, 0.9418995151958024, -1.6815800703295298, 6.8094184251872445, 0.8415335604515742, -1.1554402798662253, -1.2593047116701437, 0.7040440879681824, -1.672252250227818, 0.7670113540656194, -1.1234243890211595, 0.39849440171296857, -1.764788188374601, 0.7503818258528614, 1.8254033578351774, -0.27652586714971267, 1.3127693607035154, -1.6672057791447377, -0.5646571931151059, -2.235442151197355, -2.523926750325717, 2.1207775735126653, 0.4617997463188143, -0.25268887671423373, -1.4407782816697174, -0.30303200090325677, -1.7694464585477072, 0.6123330957555848, 3.5380140803019393, -0.526130071318943, -2.9880317938841023, -3.3419104168461704, 0.9712244291277387, -5.1521364842730275, 1.1786998536001807, -1.8666661811540881, 3.612157107146106, -0.09253300948823459, 2.6192207761107067, -1.1948390797690884, -0.023892557082930654, 0.772338251878541, -1.5439008438959063, 0.3223149351756545, 2.4556092427905485, 0.6967742727983516, -2.3386215925270935, -0.3825649726782658, -0.13834888697577505, -2.4061150850162463, 0.6222466421057484, -0.2803195669726304, -0.3675305762442597, -1.3635273235330367, 0.6784419462471809, 1.253687414618967, 1.5851921821696866, -0.17437489056156624, -1.1224697137929105, -0.5445469520399745, 3.801865118727879, -0.28459840266951575, -2.615531974461816, 0.44638932660303904, -0.6974833471528459, 2.093954412018706, 0.8125365529326828, 0.8190117757713457, -1.4783760631393144, -1.5926679578834575], [-3.2487931208219853, 0.7371323736130778, -0.2909032684879559, -2.7370051907431447, 2.99450101139592, -0.0688747837396123, -0.04682464662582512, 0.2799530541490598, 1.5851309286272137, -0.19745310575494923, 0.5818700107449594, 1.8031896421544586, -0.1363029990893113, -5.588676794443515, -1.0178095843372867, -0.3017234907452119, 3.6796850910180505, 0.0113714381906332, 4.197856838083504, 2.0300839645782784, 3.275568007295074, -3.676280095919356, -1.898309685194915, -5.117782679824266, -1.0185635934325252, 3.1698091945001874, -0.5100726443990949, -1.4496742469081967, 0.9366413965438147, -2.3574143185072747, -1.1781927496522362, 0.7671663664096813, 1.3177960572524605, -6.1357201330199125, -0.6717088004259792, -0.5135129433034116, 1.8031827542351193, 7.066331258475483, 1.1257485235886175, -0.8325194383372982, 3.349341865996189, -1.9424589945909965, -0.9455339675420444, -0.8824696415689192, -0.8916380905462615, -1.407779288000932, 1.9001285995858126, -0.09411697334702071, -0.44234257571027863, 1.2613430605246347, -1.3368407095319326, 3.6022577827049984, -1.7246535288057874, -2.2585222494665307, -0.6105509347464365, -0.22807672317763475, -0.1787130735942345, 2.028980188991689, -2.4569628040616376, 0.19915860280839345, 1.4986797326966548, -0.30697470672715454, -2.633953997981438, -1.390102046357975, -1.9783259363345083, 0.20853526608412898, 1.0865710546541942, -2.323238312848055, 0.013576946159894316, 0.20093978356817468, 0.16790392320233333, 2.2829645444521685, -0.010311043579274818, -1.6116616040870426, -1.356971995196086, -1.57865574730869, -2.349302889690114, -0.0033143256717516134, -1.1337749826704924, -2.290329926102178, 1.1126925419370255, -0.3406283534424939, -1.8765220904981192, -4.702058327197909, 0.46069072502015607, -0.14043278881787544, 2.3072790590465875, 0.5406058849007856, 1.9866451315586902, -1.369989183615928, 1.6357580977844535, -0.07658450517593152, 0.5165130284538128, -0.6818269407936155, 0.4935400587024463, -2.591256060193528, 1.0134915062453567, 0.41181330578606107, -0.9668422803359512, -0.6313843092863125, 0.24268980419875585, -0.1596011388745301, -0.08617511902742014, -3.7368230730369105, 3.6341506266379446, 2.4159937629643204, 0.005289375062979027, 0.37271002248833746, 2.2791089758470204, -0.849003705612067, 3.2985273235368093, 0.2196259091643864, 2.9893380193210612, 0.6096580401426839, 0.2952900643800668, -2.1015000963920065, -1.7642396773069549, -0.9329740988562943, 0.6237892934243173, -0.29116543916061904], [0.28736093410731345, 1.5672269646285195, 0.6461880029346675, 0.6527448672344651, -0.6603741037526267, -4.217080937466813, -0.19833919408283074, -0.527350520043262, -0.06629013010082732, -0.003579108405508753, 1.6473314963779218, -0.5180617568751884, -2.0254894984512295, 2.2061159560833876, 1.284905956452107, -3.3510776043859773, -0.07130435247465057, -0.17937156931541065, 1.6691639134106255, 0.7265546016058024, 1.8547225484948884, -0.6631585413538386, 0.664778853402406, -1.9451782281836365, 0.408864412647856, 0.2604213810496147, 1.8519875170009377, 1.4035051748386962, 1.0566423615893064, -2.6819346767300245, -0.6221251080197446, -2.4585717305249766, -1.821024606202665, -2.741174104063838, 1.5875402682969362, 1.249651461639921, 1.2010506776756222, -0.4274180172908381, 2.796684994030327, 3.418787937126204, 0.36943505224604806, -0.7738739385137908, -0.78586932853037, 2.9011761721858598, 0.8261021469268759, -1.5906508109236102, -1.782482859000107, 1.1419921096590755, 0.48267853833073854, 1.349580500942154, -1.27199766974378, 1.418228264917737, 0.7193809233997585, -5.558207907905212, 3.038480910098133, -1.1063743982257042, 0.9895259706895663, 1.79671517821531, -1.236288332112369, -1.5951790075919836, 1.9061230241448535, 0.45481407797634943, -0.9845131691404068, 2.552623652564979, -1.1396568371815776, -3.014237977508496, -1.5875961778465641, -1.9401584332348398, 0.2337528882223888, -0.07681305193169174, -5.026431539357208, -1.5532042401788688, -1.1257092904359998, -0.8299087133954469, -1.4418044590600478, -0.3828441387272844, 1.0628155794132863, 1.145758695266087, 2.497146605659364, 2.0264053431548312, 1.3145348829395815, -1.1241952492616716, 2.8170373465861234, -2.295054372879961, -0.5028374767148402, -0.034621319644671154, 0.7644825907219178, 0.3843426634531104, -1.9593339594536958, -1.2334001234185104, -4.257680619680529, -1.523992182475961, 2.1578181852346274, -0.3299621089681371, -1.128840414686439, 0.7374554217497636, -0.9902115113990829, 0.8386408125055687, 0.3951797086475657, -0.432231170320879, 1.078968022310149, 2.8816930041106943, 0.06132231237315213, -0.91570188386174, 2.030605656910567, 2.210776328923231, -1.2947819139688024, 3.256331900875991, -1.7653856840518534, -0.9281501522238977, 2.2268433399634104, -1.9418968840329944, 1.4891894411880966, 1.3982277490669883, -1.0981521361666282, 0.9399314358311438, -2.3354491087968827, 0.8017950100981558, 1.0605505728963565, -2.9652694389952576], [-0.5605898546339292, -0.7232350332653131, 1.051829615971593, 0.1627905723614483, 2.5377193761238206, 0.894783902057744, 1.6236465612863742, -2.7772294240703514, 1.811986976546939, 0.28730573326737824, 1.0370412832787834, -0.7712233993166054, -0.5925680561365196, 1.1400753530155763, 3.3549432115253497, 0.07584047492214448, 0.07268477821620316, -0.3047395891835443, 2.474850044227054, 3.227096996293487, -0.19609859436020222, -3.7729654740922736, -0.48864240286298194, -0.05756548779589701, 1.5616344962276365, 1.3510481749941345, -0.05385752562579233, 0.23382306226626826, -0.9019164295453954, -3.748005485370285, -1.1205357296179081, -4.451532342452516, -0.5224584026069539, -2.9292437851889983, 1.782298910539024, -0.3312913649544677, 0.5700493212982778, 3.136423266245377, -0.6110487150732413, 3.9831845808228072, -2.331300348592181, -2.6893818003924057, -0.9807113456476848, -2.226471310971619, 2.330367169921846, -3.1209059250455167, 0.18363277758475569, 0.6927366828164586, -0.15591914431702572, -0.9819695636985777, -2.3593848225560587, 1.0002620810143068, -0.7086416325273946, 1.2038760736060865, -3.2405119519314973, 1.8874850883951035, 0.5049433200395531, -0.3732608517168764, 1.4072714790281708, 0.9147949074372697, 0.04060937507753585, 1.8639862170633423, 0.9129635893217999, 0.8512213641697679, 2.301284826490145, -2.9251015304574954, 2.0821359361363667, -4.067701356646942, 1.7434946070678194, -1.8028851505749106, 2.611612765510682, -0.9399593756192175, -0.22942007614987928, 1.4349957109352636, -0.24842032423082766, 0.7039621563325037, -1.331493145734758, -0.8532144320441759, -0.6444826570814345, -0.4368417081005821, 1.051155547523046, -3.7985377020641007, 1.9891421181275697, -0.3303923569495759, 1.895969627131691, 0.29847586259395015, 0.6289561822252364, -1.6085787051601854, -2.935063931744791, -0.5553529164777219, -6.00206791549206, 1.6180915441603083, 1.175945446053818, 1.2626653048555219, -0.14670163276816306, 1.2199385170491883, 0.18689731080674649, 0.21278167980095003, 0.12075606225504999, 1.5090580153732822, 0.8130476084047038, 0.21918905643025943, 2.218541330132408, -1.766309936651354, 4.192620576147067, 1.9522421366024996, 1.9310609051826564, 0.26537673682196733, 0.4434455494459417, -0.8281851766228638, -1.2963696315450868, 0.1736510111576562, -2.2580747174845364, 1.1911940135880474, -0.7650798039172046, 1.5309425542862842, 1.5567476976989019, 1.35817764248193, -1.4282012297075017, 1.3888421407775868], [0.7074387520094441, 0.25938871202568287, -1.2171217406572117, 0.6607497604303867, 1.5315712232263023, 1.5545105785007454, 0.7647887933712935, -1.8524155275786982, -0.20813799710440076, 0.2183201472731508, -0.5188463741920611, -0.7802432279138084, 1.7207692800138257, -0.5233000232881818, 0.2711721976565481, -0.2802313675530881, -2.0887278251124193, 0.29272492670398925, 2.055782957958508, 1.180420001541925, -1.4615303803695112, -1.524554336855561, 1.0373079144201414, -1.2260772275917355, -0.7942555452363057, 1.6060949814672718, 2.0821321624399074, -0.8908735089030825, -0.004704969230039813, -2.9592291942981297, -0.7598582035594165, -0.09354102840269604, -0.48799167618100453, -1.1710610042111598, 0.06585413733833995, 0.1794770686443755, 0.5978220470988955, -2.686233589640134, 0.2549101478348421, 2.4350087376884844, -3.3633797753848156, -0.8575044765603353, -0.254792795224619, 1.1318791820168768, -1.7897882272383523, -1.6382477404351534, 1.1921013327391834, 1.0439160671364267, 0.9162666016319294, -0.20638751949779374, 0.4076380577763812, -0.06221958844954545, 1.8768731666773124, 1.1570735029656458, -0.5168635923951922, -1.1950556895499993, -0.005424305414020873, 2.0091003612494878, 0.7384164577043807, 1.7094928293275637, 0.8089213583234108, 0.8781527661352743, -1.588750018077048, 4.074967823207709, -1.913774144222008, -1.6212249005603965, 1.6787442389291138, -2.9676145820417767, 1.4349425273442462, -0.143990564809362, -1.4686085109949896, 0.5827788765528286, 2.066643011964938, -3.0991203006860264, -1.8964102022046359, 1.4207439725125943, -0.012919267369728454, 0.9596471914044327, 0.9099348927156022, 2.0143565753191086, 0.7175375549854636, -2.9338170333506257, -1.4625654185088819, -1.5327887766332826, 0.873676052325522, 3.07186323908741, -2.105889346142761, 3.3153185583864824, 0.11406039798355762, 1.745886791220051, -1.4531479933107287, 1.5024696495480192, -0.3894397221325829, 1.0535444704233394, -0.4468536852223478, 0.5059959543345302, 0.37820440884000595, 0.1356695705465632, 1.594064609018417, 1.1473502176469066, 0.29306437888100845, -0.6260401709464485, 0.012494875099769058, -1.0169210425687563, -1.490264992132084, 3.5024288995509174, 0.210666969147393, -2.452901026674919, 2.0393287795747517, -2.5665520266815323, 2.465741231768916, -1.1363563557219243, -0.6869700757460601, 0.7983849444589901, -0.24785042912161118, 0.05049344976622854, 0.4933269956005431, -0.19072987375393657, 1.4831269709613444, -1.6905327357372428], [2.1735279385464494, -1.0026274197171603, 0.7453439221755106, -1.314818820208116, -0.7864633345814038, -2.552094878020002, -0.7625711854453566, -1.3693720874730602, 1.2903904413497904, -0.08476159560655372, -1.3507124716996541, -0.6960759514813625, -0.2968091668283139, 2.4623411570090794, -4.372611533120207, 3.127056269438508, -1.3627455210459933, 0.7380024984485524, 1.3479516454961233, -0.30923199731585616, -2.361353194543597, -3.571096455514667, -0.0654190223261677, 1.9894453791304998, -1.019338265034516, 0.16846921293995015, -2.060608444489306, -1.0910230048880756, -0.929188844256196, -4.933902717002695, 0.7532208739272702, -0.291355682894241, -0.17618380610638665, 0.6069084943778282, -2.340127241328793, -0.04537735046127623, -0.1233618345025349, -1.233382073596758, 3.323525590546946, 7.63194174067433, 1.2655999813932997, -2.6285265286255592, -0.42418115639005266, 1.0685259829868587, 0.7127913871212237, -4.929460989570781, 0.900575015669385, 1.0963732964382544, 1.190498034784595, 1.3898380269474693, 0.8498856458636418, 2.1085012290693905, 2.065471691643591, 5.279062712082045, -1.7152207651621743, 0.050462789699680856, 0.8782284174158697, -1.820450934882067, -1.2243121087309816, -1.1234996908818415, -1.6303729722292697, 1.760640766089794, -2.452367426055722, -4.9941596309378005, 3.077497994237962, 0.4291112041868223, -0.018525606360165606, -0.22627466411766933, 2.526209588346963, 0.47940329688899747, -2.068674016226567, -0.5809398979855045, -1.1258442082814364, 0.10159184389318476, 2.5022020564129837, 0.47539325612449423, -0.5602020556756155, 0.8108211916319177, -2.827768306861787, 1.310762598707692, -1.3541123070754315, 3.6378036386264903, 2.655728238083083, 0.43589221131546163, -1.0634865470004295, -0.4462337742542039, -1.5845679489950457, 1.3651686078560745, -1.0340223910419717, 1.1243362405447075, 0.9244880780661472, -1.3977336368125652, 2.8683194323617522, -0.78149160429879, -2.3724623118552257, 0.7480040693415534, -0.4641312973963546, -0.035443479803392665, 0.2645645618191338, -0.2082886321103419, 0.4328293302788515, 0.30970652613709393, -0.730138157492084, -2.642450723389294, -2.915643351160963, 3.821441899416314, -0.924179782290223, 3.296902106343171, 0.7621126942340807, 1.5081181367289702, -2.781874158164039, 0.598857168901122, 0.34428737831931194, 0.8176125330028718, -0.8907962038752069, 2.5844805361854974, -0.9732413560786085, -1.9407246591294045, 0.9140592755588383, -2.4860199592896497], [-0.36131981680848024, -2.6686408578461167, -3.4197304337124463, -0.48679511263149455, 3.852651046152459, -1.9513115974760435, -0.9711627002587787, 4.612268112424511, -0.44245248848095503, -0.368991131117764, -0.4501039572152394, 1.4774891994132702, 0.588094198887908, -4.099918338337291, -2.0544656096703373, 0.35483393446011924, -2.998970028314855, 1.4782253617833918, -0.9025798590818971, -0.8702498507715322, -0.18373114991837552, -1.6584245611387414, 1.455545132854153, 0.7266932664254387, 1.9146887956082006, 0.10603908451632292, 0.9958119721345511, -0.7607217426986982, -0.9741622494799376, -0.5735322576219705, 0.7750848768092312, 4.550330497072919, 1.711228254370131, -3.9423121229167735, -1.3804210860169641, -2.5632636451342012, -0.6552934456557333, 1.5065242662243052, 2.3951534864481174, -2.3358681440159295, 3.216037971281686, 0.6323786293438439, -2.7606400562568885, 2.008839042329309, -0.651784916172832, -0.8916506995581243, 2.3290998760737547, 1.845042503736231, -0.08979643636411877, -2.1153073715146524, -4.075848713428329, -1.0765892628353446, -2.1663902339412457, 1.7442585720830956, -0.5117979037285938, -0.3151805824876216, 0.6720606427981226, -0.4673242051781058, -2.519403683511592, 0.0627974433687551, -0.298800220243173, 0.323749547087514, -2.3129019022444286, 0.05606384686535606, -0.0358096485393468, -1.3747692512425378, 0.26916705527974105, -0.6147884293682749, -0.6789424903515924, -1.4570397869189886, 0.3796110731024992, 0.9981391947204633, -1.456729217600727, -2.422670730619468, 0.686277028981033, -2.9380969405831032, 1.517434981792082, 0.15442098259164266, 2.5853095865835694, 1.1203775409741386, -2.2563651425970765, 4.202604540814919, 1.7336414714063513, -0.6295406554660815, -0.9516578529088091, 2.321680898980752, 2.4062234213625393, -0.589847049143189, -2.199302727030102, 1.0550630175904099, 1.5753118313133005, -0.6087210958118859, 1.57403771957493, -0.7002388804484279, -0.6557851956162449, 3.0733961880640415, 0.6759539071767712, 3.7371512993519267, -0.9668770973526108, 0.8862940835388085, -0.0454067935645866, 1.588408891980059, 0.19206213887810272, -2.7311992698799377, 1.3633975342931304, 0.1490769178891099, -0.18639688863252077, 2.0379896540909277, 2.7767391999911797, 0.7654386135198801, 0.3756807901670659, 0.29812156311629134, 2.8097735075249526, 1.5292914527788022, -1.6205672960449247, -2.5891451396854728, 1.2619327173354726, -0.5553552101402016, -1.4081509882701193, 1.4707110250701478], [-2.120118214547837, -3.2451183769547782, -0.10514275544124396, -1.304485709456542, -0.06074503568269077, -1.316534642484356, 0.4054360431914232, -0.4574596619753305, 1.0893361726581898, 0.41599344374252684, -0.3114935598711754, 0.10573892217624281, -1.778046419798157, -2.8082351216436208, -5.531067415991473, 2.191519933203834, 1.8912635705555974, -1.8658913259532977, 0.07463533321055106, -0.5076034161468325, -0.770138533391837, -0.6037855744935199, 2.49369243355643, 4.472762418725903, 3.468914220405475, 2.041103637630444, -1.179635191084959, 0.9341335354224288, 0.7559931433939735, 1.512685437066007, -0.6688064548521307, 0.3094666612320836, 0.1370256805467984, -1.3833026484089763, 0.6094329207300044, 0.6213076372823488, 1.0057734220886598, -2.375403153323966, 0.20644398855751514, 0.08171105482607892, -0.6788996687082699, 1.1712786691925556, -5.42305765614984, -1.6172706333857993, -1.2822674922806394, -2.2552485715192456, 1.4570175247873784, -1.4845436183213223, 0.2734773633589707, 0.6824084991684216, -0.9888552854973292, -0.04476588525769346, -2.518497236156387, 1.540501453025364, 0.426633792975259, 2.789392620834867, 0.6680211793368689, -2.3604707151206514, 0.4408984490698246, 0.5162757919133164, -3.390974957715162, 1.2249752685179691, -3.2363400790530497, 1.8172615635588891, 1.0221914392529643, 0.5343409055070029, 0.2961164709117137, -1.931573089626188, -2.0624068509968385, -1.85089865792893, -2.376120350733705, -0.9774852037489212, -4.2602522317474145, 3.418457022419421, -1.0702171593942433, -0.016716705437129234, 0.2512266740435775, 0.48082702723136217, 2.855516870128978, -1.6299273415332165, 0.0929877070079699, 0.8983351185967802, 1.3057388490650963, 2.8354636084517653, 3.4800074071208287, -1.7907855658836795, -0.7962896520289436, 2.5762767392557784, -3.056346070029675, 2.562806948656129, 1.9994014472175612, 0.2912521192693928, 0.2943464377549912, -1.2969674529592115, -0.5459901907564898, 3.13015189337286, 0.24657364623232517, 0.4393343941988375, 3.1125917845066926, 1.2534565809733933, 0.09668966201211504, -0.9871893197208156, 3.5937996509405337, 0.4779446678270465, 6.888318979164564, -3.3771436814491267, -2.345537979833025, 1.0023893227040757, 1.551802452070197, 1.5730014524207656, -2.7575760775393987, 1.4648335788184716, 0.705834453937295, -1.5362207494014513, 0.7153432012861487, 0.854734954734702, -0.6206582291728894, -0.1242294428114564, -0.7724230490752638, -0.5112556795261977], [-0.0008218790844735346, 0.3699789375750961, -0.4720085045016185, 0.6923000211049712, 0.8236814305373521, 1.243788867108617, 1.0074999263388817, 1.949410223449882, 0.6211060518597491, -0.7385629803926523, -1.4400626377113883, -1.448937961698174, 0.822578152167063, 1.3742394835983487, -3.509090334240833, 2.653903297097528, 2.5513610118335, 1.433083821999901, 0.7688331641384806, -2.228078909877763, 0.9145413188668022, -1.2717885391256907, 0.52978866130868, 3.0393422775693915, 0.14815741237407154, -0.2987119543207735, 0.0966709822105883, 1.2686054674151535, -3.9251005582825744, 4.836436171889504, 0.5282660755559042, 2.047793452566527, 1.5515103426694528, -0.9587516174190265, -1.6236973305801976, 1.9619799518660188, -0.2718959534972888, 2.44165711657466, -4.004280452544978, -1.5857923677407901, -1.0354582360164166, 0.9481619701621115, -2.6322121399717693, -1.879925196133128, 2.599451411020721, 0.6040719325266094, 1.8376479669795085, -1.0142099404401888, 0.4010176896772281, -1.6035316697529232, -0.6730124776703347, -1.720488561023987, -3.5600014688849004, 3.6449211936706045, 5.3676116211783915, 3.1378153419990107, 0.0954507854120822, -3.015189995941339, 1.0647216363796494, 0.47637246937793737, 0.45067948773696964, 0.6563906226869368, -1.870358086107784, 2.531572570625396, -1.8076028487057323, 0.8267826253352162, -1.1327842324745392, -0.11454636174672146, -0.3988459158769226, -0.33928579287292443, 3.826795479185551, 0.4920756692616916, -1.880911229666987, 0.37307383626951807, 3.8892009957746443, -1.895045449876097, -0.46021777969841693, 0.0785187251835328, 2.2226730666675105, -0.5858362841283178, -3.53680389316856, -0.04503837496588512, 5.038923398409274, 1.0496797091254404, -1.2385149875544852, 1.9918141369752325, -1.3395834250025256, 0.6085254398943637, -3.933534774758118, 2.40103837465531, 2.6880442812636, -1.5456385734253881, 3.899011564228271, -0.5836845042333334, 1.9723483756949978, -0.4209181001800407, -1.1482394049612448, -0.3442189012975853, 0.3417088062214877, 1.310636088094161, -1.1068203061573034, -1.0718790200828154, 0.5378072487491408, 1.5078712659653695, 0.05571798464561786, -3.843266204500557, -0.7964552234308379, 0.6848940014717619, -0.31229949051506833, -0.8282550292957427, -1.4098376559703483, 3.1976313069268385, -3.0606735320056018, 1.6998513885477244, -0.17136086986244256, 2.524046304889151, -1.6675614018329612, -2.540774738174042, -0.8353447110231141, -2.7895016795755665], [0.09640679378702227, -0.47156578444899083, -2.2743374668321006, -0.9158151400017724, 1.417461143804033, -0.9900374698225505, 1.1687127724896924, 3.045892231692326, 2.03346694632179, 0.10048627953448763, -0.051476534190211795, -0.4842981119769621, -0.34385951642263807, 4.854133189540283, -1.9672399979462085, -1.3197657773034257, -2.9408542557957698, 1.0110585366780125, -0.47583541560681764, -0.9096681249749023, -1.4694872473909641, 1.4431465925667246, -1.285998143239041, 0.7941502357331575, -4.117632714766655, -1.1458641084654595, -0.690757271464508, 0.6973111427645081, -4.082230904781887, -1.5219579499126963, 1.649418712467752, 1.3157449069007099, -1.3219184258290921, -2.1661711268057258, 0.9176748787012967, -1.2445096679962653, 1.2021292825581846, 0.9458180721268026, -0.36903043369767097, 3.2552266511544667, -0.7768629748288732, -1.2224881513516954, -1.4835494047171625, 0.4081211566184388, 2.270851705889871, 3.9341948592431097, 0.8576028361886898, 1.2264212939296393, 0.9890552309790996, -0.631524381606023, 2.800139508724713, 1.6081409026517972, 0.4529732063834706, 0.1738936596178934, 1.6066886376712024, -0.21953821832410583, -1.2210791060661725, 1.9354912343526212, -0.26875422754014994, 0.11499739278366576, 2.697525314812496, 0.28848928244601824, -0.3334539991302502, -3.2962583797887333, -0.5774632560704663, 1.2980448612131934, -2.760603601994137, -6.378719742463807, 0.48277865431563965, -0.6963542727126413, -1.7638514953697202, 3.7764115882846925, 3.6969758059891498, -3.66697811168273, -0.818576204520277, -0.4186529643753071, -1.0505466684993903, 0.47740736156325503, 2.828027568692266, 1.0589045739061114, 0.3925769223452144, -2.2923136571378597, -3.3525958101468927, 0.552343006532014, -1.9528462835656848, 0.5067961861323003, 2.035396808172853, 3.512294921616154, 0.6192604580384345, 0.3885128504545895, 3.996933199404803, -1.5828261910407828, -2.775592631901377, 1.0679341268607039, 1.7302467878509453, 0.5660817638691945, -0.01400965191400435, -0.9393474817278928, -1.3326887680715989, -2.4953568516348694, -2.0565191618347263, 3.650816566044428, -0.7517552774266869, 0.3429756099069292, 2.3578396230883896, -5.307152903141358, -1.5721847745926354, -0.08908793724026604, -4.537820065601118, -4.092720094235604, 1.4836536922493053, 2.6059311895590533, -0.8566794318444456, 2.5909650488750735, 0.025114040410224702, 0.7782883382759352, -1.4490261170263525, 0.31819109962961045, 0.03415320318027504, -0.9027163161519872], [-0.3136850424639699, 1.705313599439267, 1.3488008563499312, -0.1292237251131518, -4.36575292527986, 1.0901408824157766, 0.7188604494039877, 1.4856420554154695, 2.0497338630921598, 0.7457554963601813, 0.5196092783949714, -1.2782533003366066, -0.20290690467895636, -1.6586361218346117, -2.1965047092311565, -1.8689748260759986, 0.8073410299843955, 0.5258778353403607, -0.11516609974827724, -0.3310445369449271, 0.26205154488462806, -0.422165720999523, -0.17389934199431342, -0.02160924237574959, -2.6735587081124894, 0.8042578348606791, -2.42200835930867, 0.6882051763002163, 0.1611810680599266, 0.5775369747143096, 0.3860236777314471, -0.6694146488939035, 0.11046999395146885, 1.9709212611873503, -3.5200942511197204, 0.6597036788191682, -2.8701458417199346, 2.8567752600430443, -5.781823489641374, -1.6930253100503052, 0.38976862707810184, 2.9578747386073827, 1.3607804797377763, 0.49017845933330506, 1.8987483745656797, -0.2619107976119412, 3.566062004338631, 1.5078780438353216, 0.49362846160253276, 0.63148397846236, 2.184417064461924, 0.7079579578310066, -4.295900464956239, 0.19554813739929391, -6.188348371457361, -0.16371198870940815, -0.3291687117617, -0.14481185776583852, 1.6755297066160264, -0.8519027177690766, -0.9310124576176279, -0.7894414777356703, 0.21924103279604143, -2.243241457817024, -0.4022528163191621, -1.7130289606967433, 2.9030547289689697, -0.9806897456924665, 2.0899774615040156, 2.359131328031326, -1.5573381466851894, 4.127103123987255, -0.9193159870043587, -2.4153800784398447, 0.8381083419231005, -3.545966982030335, 0.5645231828230246, -0.12625260755332682, 0.14179403901637763, -1.2972826445194452, 1.6139616477778547, -1.3024147608946302, 4.926162240552003, 2.126695194220029, -2.826740888598358, -0.8941176837316882, -1.5720118814858128, -0.11874277749658396, -0.9114201546980288, 2.960026201834869, 1.431670982312081, -1.3084350435364616, 0.9500355866969765, 0.4300819674864175, -1.3881772139884256, -0.7611077313050855, 0.681571193086217, 4.723572319072946, -0.6942843584716885, -1.361198969799866, 0.30239891119897155, 2.172282278146878, 1.387769003039933, 6.205979212111849, 0.7691100740225614, -1.0405900168287645, -1.2700078954395937, 1.4528704446153784, -1.789809729203457, -3.7620321427203205, -3.1758099221387757, 2.993178862081725, -1.9536063242819195, -0.031174354526804886, -0.09423491751363963, 1.2593182298246555, 4.108435544355986, 0.09108370240077246, -0.14045967697279876, 1.8018914223374236], [-1.811959904371752, 0.5081917534345971, -0.06549152458029331, -0.9318093320839385, -4.891950725470558, -0.06103870617003755, 0.43935796415240863, 0.5756808525909928, 2.857838027195974, 1.7909318883556513, 2.4798966984571202, 1.729989972109526, -0.3410411195358836, -2.644798138870907, -1.7605971398243767, 3.9618584889574096, -0.9110841848442712, 0.5067250824227975, 0.49356230964391035, 0.4340065749458403, 1.8737044354635621, -2.0480927750123015, -0.7274173987154717, 3.4824843158074423, -2.7112212859200158, 2.4707809167712327, -4.3758947088512565, 2.104344163601372, 0.1535613415655183, 0.0037876366637847737, 0.5689730332639019, -2.4569607445375956, 1.743900417473256, 2.735449620447618, 1.8459775348112928, 0.1650006635143725, -1.0040566725383417, 0.5300270338323119, -1.8752246302927413, -5.104947085439997, 3.3130351352562584, 1.6117107987154595, -1.099215205452662, 0.7330127279895805, -1.71406880283174, 2.653179717653962, 0.36144301133948736, -0.4064587108294583, -0.3739082091640175, 1.6560811608538972, 2.3663077208459984, 0.3098392941571241, 2.7530878827388214, 1.8521997012648834, -1.1279344504114837, -1.3771352016945917, 0.23693783643600297, -2.4567017381914558, 0.9479233854058776, 0.8466057179237005, -1.1650751160878696, -0.030568430903643296, 4.291133437019074, 4.638987786764072, 2.221791018792563, 1.3054590836267266, -0.5344187711933087, -0.03467361947750295, -1.0520677295289727, 0.23384731634715905, 0.7377871068995235, 0.5420881122035875, -2.7362791556555455, 2.2861512303395948, 0.5306367517328238, -1.8357699117363975, 0.06465321973807008, 1.1775458140067092, -3.0221081905494027, -1.1712680149591213, 0.7864068363674935, -2.161916807557126, 2.4483596597671946, 1.1966273092631647, 2.4449998345434536, -0.8069017295380871, -2.4990323074613334, -0.25813496239495687, -3.5522499887371755, 0.959537555512788, 0.5775182813129781, 0.6111159083858978, -2.2582348108134047, 0.05199692672611246, -1.538856588827078, -0.3040933423053838, 1.4640878476449894, 1.0244154394244052, -0.26568045303176013, -1.0719863527614786, -3.338396916985562, 0.7861744217687123, -1.5038761004290213, 1.94126618703139, -1.2831469433328382, -3.4095481213926693, -0.9663136740677195, -0.5835774640767288, 3.4344364832697676, -0.0016870543286624305, -1.549557307473754, -4.034617503193615, -4.65037523085079, -0.799062313563184, 0.6937309012080022, 1.4367537246017494, 1.1564338842766504, -0.8468508081905995, -0.9945833841024248, 3.7616650425178793], [-0.8414233511035105, -2.3013856999527835, -0.17416108823896173, 0.12671096197497767, -0.5637525448266656, -2.2541973277121796, 0.33709723223162563, 5.4698235214720246, 1.6883801545254045, -0.8456339085832656, 1.923282423950889, 2.1306708167281836, 1.461820964340237, -0.3064760644761892, -2.5972182340381798, 0.18007459424306438, 1.0252729642637108, -0.6178429201261274, 1.581828198780947, 2.171059967189708, -3.134254662192005, -3.707074779769765, 2.4168923598738177, -0.1717296210083606, -4.1670421003331, -1.9115291385442503, -1.5661107837393662, 1.0958177992978013, 0.31687746615252727, -0.31467792555192475, -0.8335607820422998, -0.4296366079709017, -0.41540349093959955, 0.3034528846918609, 3.2007685996560773, 1.7673223113909384, 1.0046343093802292, -1.7529192056993985, -2.660158745858514, -3.8849351630386337, 2.223652860495491, -0.20325921202907885, -0.22039080586088222, -0.0912281843755025, -0.598695885941724, -2.07796706816243, 0.7159670082787373, 1.4301395597655786, -0.215711321854048, 0.8520591485835964, -0.8800994244943509, -2.32527679519412, -1.9240220961120984, 3.4745001711204586, 0.5043342763100848, -0.14632542510144383, -0.5349573904171121, -0.22738808891961845, 4.308947332051704, -0.42100741445707685, -0.05813170734591267, -0.17170538765610877, 2.034680573028126, -1.2905845702934333, 2.7178889546258227, -0.6336722134072059, 0.7167605540749901, -2.3085525765503405, -0.6268258789338432, 1.7701563710072388, -0.336254854858945, 0.6226104657392246, 0.34890020298301166, 2.565040940474659, 1.8951124570389741, -3.7649589542174655, 0.4599184217646538, 0.3837973837613671, -1.0612626640576033, 0.869397081908807, -0.2946910751292144, -3.8347496135591523, -1.2709842446002195, -2.6934856935687668, 1.1729335981820617, 0.136804942606828, -2.568820201753237, -0.439483702860885, 1.124633338859365, -0.7521142984769636, -0.37935705835006817, -0.6696146012695764, -2.9668867828009473, -1.5811213257988292, 0.30563937993017454, -3.0820010766334827, 2.4140304071042222, -1.3624268406300346, 0.14848372515336924, 1.5728263437452301, -0.3675978099286755, -0.5054910680988385, 1.8962531442833417, 0.7479360112210632, 2.7111398879623345, 0.6767333949255684, 3.939368026495932, 0.9931274718682626, -1.9981792960399765, -1.2738366899367868, 0.6596486283894099, 0.8102082365923793, 1.8953228999490077, 0.05680199572702788, 1.33959232591439, 2.491243543720787, -1.680852968656541, -1.3077278054215695, 0.9766806824517037, 1.877291711739454], [-0.19658066753793513, 0.2419622754627081, -1.3644581382417957, -0.5157553976802951, -2.3073500123180657, -3.9798413419556113, 0.7336946228667288, 2.9767222722735154, 1.0661078245597073, 1.0030335128221304, 1.7352704692255583, -0.15723497555699661, 1.1915090148120235, -3.5632766567193292, 0.7318259687730934, -0.8678582360829907, 3.15884384955092, 0.6229426866540607, 0.5521964261865774, 1.1965599601922543, -0.865668871221125, 0.5297739523278637, 1.2857970458142167, 0.2453285235412397, -4.971439876522034, 0.7159511366994705, 1.155038403437988, 2.5956279332440926, 2.825504738414206, -0.57117296079179, 0.4797929642320886, 1.501446113795928, -0.46434712281294116, -0.8934132405278656, 1.3511207988296532, -1.9145596835774268, 0.994778982122222, -2.182401682497033, -2.2750612942149986, 0.10458123245454891, 1.6318782246340222, -0.36035173811962484, -0.6028435341831986, 0.1264712327877871, -0.36467087193286707, 3.1467554832725395, -1.0160137171736492, -2.0832552234116966, -0.7547136677908486, -0.16450717904004117, -1.1031602318777833, 0.1605270037769709, -2.2015310399307415, 5.067336165304075, 0.36737704860216464, -0.21479661111764545, -0.20809613852427217, 1.7209205700590138, -1.282460347633479, 0.7726718646724495, 1.3309562791665013, 0.5567689543129043, 0.31703418920859894, 0.9519707790436249, 0.2126880985159996, -1.2848420294617948, -0.42475645046228677, -0.4818820131898599, 1.09556299061229, -1.0223861399463776, -1.5548336391401514, -0.35385317688102175, -0.4141361074929541, -0.926875459389607, 2.773535756020237, -3.0967384022880133, 0.7850752108765617, -2.5451730101171752, 2.074380642434591, -2.4128943155752722, -0.18783164809596, 4.198287170215115, 1.9217903820422402, 1.18984748977129, 1.9113518294397323, 1.2472528589175553, -0.43995122559244787, 0.24856869223238726, -1.4655960370420444, 0.5047443752004562, 1.3146796692869547, -0.8319901841971921, -0.07398514114611031, 0.1699309704747371, -1.280593352204922, 0.8364115690703015, 0.11934279892899803, 1.0046921958161417, 0.8952420360321862, -2.986545823770933, -3.2928545025923968, -1.5609687509849786, 1.3407954406579978, 0.17991031151330994, 1.795151601805231, -0.10231085778283197, 0.5018716182367078, 1.8822884054875593, 3.6845341343127296, 1.6369145433858237, 1.4160296353621398, -1.2846485775651642, -0.8523434547019012, 0.8236315346799017, -0.11408015771257021, -0.4391924868775103, 1.0005275694237308, -2.250672918870857, -0.6722560937583747, 0.6655513407091987], [0.00851076926559877, -0.6529153009763852, 1.0026691156503342, -0.3737610941710934, -0.7140808783593255, -1.921732124979379, 0.8455300895779209, -1.2535721499092043, -1.9195145519347374, 1.0722937302119129, -0.22140963568346134, 0.8259522316865883, -1.170389039549113, 3.5611839456268517, 0.3007303268015773, 0.932550248347113, -1.2998876225116924, -0.04473963905914395, 1.3657024170706005, -0.7028454196704985, 0.07461037551478479, -1.8612147291393852, 1.032094804586235, 1.7819745752412433, 0.19973521080073586, -0.26201328271964164, -0.004343164469115661, -0.3503631394188258, 0.3796842509011383, -4.672986562409044, -1.0411633009933114, -0.9568933412798082, 1.0504394500625946, 1.1612952447860954, -2.996392058487157, 0.45972712200996385, 2.3969592726281688, 1.3597038184902523, -1.2808686240930047, 1.2072511383248987, 0.9305537386741775, -1.8067410122415541, -3.101628444642502, 1.3734449817576881, -0.18869608110477984, -0.46230519866963815, 0.07312774812716906, 0.43608018834086815, 1.0177795916529164, 1.1062824201263877, 0.14440205106934842, -0.4367731184420436, -0.3565060220551435, 1.0596349284481683, -1.2368043432404152, 0.3667083573310066, 0.19934885680465997, 1.7561765828543008, 0.6251932677397284, -1.382000920874791, 1.1848269590184974, 0.36806312137430364, 1.105915231457995, 0.4570017455668732, 0.38478468927008014, -0.18394174834090676, 0.6479820935614581, 0.988524947536445, 0.5574558336780335, -0.735510365688661, 0.36991523516053904, 0.5806462775371746, -1.8093077930895451, 1.0012149214368442, -0.9745097217859872, -0.8027104383838689, 0.7241623421037733, 0.7245179856018691, -2.386845133201605, 2.1755886242632716, 1.7756446043418435, -3.268521494756911, 2.124980701661201, 0.9252740148804227, -0.880427280546594, -0.9524417500270375, -0.4820046121565057, -1.7602584663356273, 0.4640219489843779, 1.3191995938596721, -3.6612929764793205, 0.4757541924433681, 3.431825037012355, 1.8363571743074076, -3.803136914978695, 0.19680614432087412, -1.7960475104113973, -2.279030132155522, 1.3559193170686568, -1.6822417460323593, -0.3872520287117025, 1.0275590209044367, 1.2821880958015843, -0.3875039557125701, 3.081572502101769, 1.0046365041876404, 2.1888305043115728, -0.7925080868988978, -2.376180531496384, -0.28474184836638144, -5.3897658558846775, 3.4216568409525814, 0.46624223199452425, 0.3429632315971169, -0.44442787215708135, -0.7738118795921533, -1.3715687691656941, 2.2168618651419183, 1.2082024548688433, 1.7821715867481447], [1.1940290039355612, 1.503066891615306, 1.729854534014153, 0.8042526512353683, 3.3621597871584856, 1.3269016815050978, -0.69985327028231, -1.9839069676489132, 1.6718053581819166, 0.29568660227192084, -0.8894143375943456, 0.13783297619205004, -0.24183989065549327, -0.002533446606455131, 1.0161263739698851, -0.4840465118007131, 1.4859400797424702, -1.2970528194730946, 1.5187190790163712, 0.9648716270662182, -1.091573141674187, 1.84012272598692, 1.2230482056952978, 0.36866305031369495, 1.2533479706927437, 0.7929424252844205, -0.4815454638463909, 2.0047229187621354, -1.034242364488472, -2.0758807896819573, -0.7329629115766437, -0.20475678366080702, 0.3966631732434133, -2.734517707476732, 0.9351563364954838, 0.4700205615395315, 2.3275470612844344, 1.6028232961854167, 2.5156711179630267, 0.9160490892237738, 0.026235953487175227, -0.2645651432717401, 0.08072042112356388, 0.5582752967423054, 2.6921917898255416, 0.7254798662334617, -0.12383055754236642, 1.8311536414730079, 1.153105112684886, 1.5141770077164813, -0.7946171418560374, 0.5591834430679857, 1.6589619273115754, 0.7872942755417861, -2.9810990683820617, -2.1414146060527357, 1.6686392793070854, -1.6412520960268564, -0.16512581288155184, 0.9192109184362389, 0.4445074863318552, 0.2797717745786048, 2.914129218159383, 0.6266975442461751, 1.1597746176738377, -0.5091537330500551, 0.9420692146300765, -1.002780050349994, 1.6091052588872345, 0.4412507730508411, 2.3362687312344748, 1.2233185010981793, 1.4410614038292473, 0.49636058163964647, -0.9286769620121046, 0.9715399149281357, 1.5411536089313378, 0.6776455034555116, 0.7271740022499694, 1.7564922532418008, 1.9116335014213517, -1.9080634813422046, 0.6618300036676283, -2.206730379190886, 2.3859807929849297, 0.7203554131247718, -0.0754381717412892, -0.8533630601077952, 0.5597821266574837, 0.09199869511257228, -0.48113541900150714, 0.0950497389241387, 2.069844791708128, 0.9724195162071811, -0.15782503303883366, 1.5651060099627672, 1.85788660745881, 1.2854346595260848, -0.13597883534002017, 0.09444625812604758, -0.14013130469821844, 1.6230215289443155, 1.3500318990033613, -0.4739265171355974, 0.3937782052621949, -0.27996600068008504, -1.2013464841891386, 0.3137389475528401, 1.6044975923465137, -2.91275300746375, 0.2327727017462223, 0.0896388180122918, -1.5078358952718964, 1.5609698619920254, 1.2308315320000915, 1.847260217684447, -1.226546895415741, 1.869534093737405, 1.3986206040789966, 0.44701337003159375], [1.038508180188198, -1.0525972166167454, -0.196324489660799, 0.9543417420734865, 1.6427709350823374, 1.97410680942155, -0.9924826842798812, -2.001806812629047, 0.8677625184344833, -0.18816642354322588, 2.1684689579118426, 0.08704453851214525, 0.3661659281446585, 1.0082558302391202, -0.6774693868069822, -1.1263517023863885, -1.673786136259296, 1.1501001645192241, 2.192091872306219, 1.7869492236461246, 0.33653234628318046, 0.3667500978971926, 0.6245649628385685, -0.7372951617244262, -0.22301931049977192, 0.4416619953373712, 1.71903083121756, -1.6099944097340757, -1.2447751769693547, -0.8270425607088595, 1.8189276690749587, 1.087215393910993, 1.0227801429762229, 1.1216637288958653, -0.7764644236737483, -0.37683250822976305, 0.973303650118396, -0.739703279099208, -2.984566282676728, 0.9095419314577078, -2.236361553791675, 1.1740283518102963, -0.8249751892768744, 5.09825375684503, -1.0694739369943038, 1.3965443969563167, 1.0645787756553098, -1.123674593797104, 1.8528861011649704, 0.36796353801760456, -0.9100399513810854, 1.7056258912111744, 0.18476193161857177, 0.4930143368018661, -0.9377308732136923, -0.44666903559476356, 0.4224430157636077, -0.14974133535652093, -0.0568084061430102, 1.551769120844196, 0.25143567117746807, 0.0854152291439976, 0.6408528422677603, 2.7326077489859126, -0.9507150145893323, -1.261029227741717, 2.054221477167947, -4.294439205830877, 0.9282790816274242, -3.2786164010100274, -1.3698347029116276, 1.9811154222479543, 0.4610766530158154, 0.15213957321743912, -0.3002273777627727, 0.16761056999625595, -0.2089082653707664, 0.05558105512048072, 0.9446677968895726, -0.736594274863156, 0.6639491760742812, -3.3627375383997054, 0.06281735573539328, -1.290602447050854, 1.7089210047752474, 1.0042159908480353, 1.0652850523944741, 2.52746542016685, 0.8736684477894637, -0.3165260258105609, -0.008738509305063247, -0.2750920992242855, 0.6489789127276988, 0.6844522256610395, -2.42560171587051, 0.0740652853161655, 0.7440537102124273, 1.4765960002984664, 1.6337197669327788, -0.5393182165640333, 1.1815113788027038, 1.6197521045776893, 2.4004585936458747, 0.43116191894450817, 1.6435841486445988, 1.7455826799012026, 0.5053396228791276, -2.021407509060194, 2.222090187148909, -4.951052073937594, 1.5563096623570871, -1.2349645613464537, -2.0468566820083582, 0.25555527020768476, 0.8802787947142883, 0.17685176414400613, -0.025368250288001555, -1.0596885272869239, 2.25073198681975, -1.6510696831909328], [1.6912655703921282, -0.14528487103648874, 0.7005891215148802, -0.8460788347775787, 0.8268375761226636, 2.1771001596733717, -1.4807753931879417, 0.7501232150491571, 1.5428373325483111, -1.328978953976414, 1.6891074055961344, -0.6073448526389421, 0.6117042183822181, 2.6134127994243452, 1.3293091205694147, -3.228186082936642, 1.407318183277206, -1.028010435450109, 4.310809027138336, -0.6222615746213769, -3.1068411099557314, -1.2728723917191185, 0.9601468761355635, 1.7501011860492433, -0.6246786653607402, -0.8550775160537128, 2.1373546807570856, -1.6175155243579191, -7.82701807583896, -1.4575945666010515, -1.0036107924875917, 2.737691389776894, -1.8207146349107415, 3.351577973761558, -1.6709704607400584, -2.041753760816643, -1.1877731715612403, 0.08156664078991711, -3.931247399885986, 3.5725550774791746, -2.436892564994467, -0.9187214213863352, -0.13292839597435455, 2.9022765434605384, -0.5695772432876309, 0.20326575742603575, 0.336047572926028, -0.031075290079344738, 3.3391194190375773, 0.8805939249869377, 3.0698208402615728, -0.3526308902790226, -1.3183255293557872, -1.0195702749022504, 4.525124520694177, -0.7693545176928998, -2.3471708304740675, 0.5502751492612055, 0.857409132232552, 2.183944020482102, 1.1729892321076874, 0.08011144249312496, -2.735116819480239, -1.7181987588250025, 0.3241931120286131, -0.5851369027756106, -1.2472363006570069, -1.5454161153678205, 0.601852886473579, 1.1252208175385325, -4.496577548941971, -3.1115198564208146, 2.010609489993818, -4.334482485573739, 0.49285844204160195, 1.391039060786818, -0.15604556801530994, 0.8405604030368419, -2.491377477502883, 1.8113236591989426, 1.7666917040801717, 1.5454018205379803, 2.328369110014358, 3.4163553110585907, -1.6186952316201189, 0.06557537846576982, -2.2977435750575115, 0.3404549003469849, -2.504127663530843, 1.3233495757468179, -1.8531962542256513, 0.5196874447332408, 1.450439767572416, -0.0025262178516737934, -1.023689212628216, -1.9408072459716244, 0.7160460771780058, -1.7339559174554897, 3.6175139340887865, 0.8976109903448393, 0.710867648505979, 0.5958322909944891, -0.6091489534424814, -1.5900044487936045, -1.3677236757986073, 0.6332975238563313, -1.2600554763955771, 1.8604026787351688, -0.9643372827956475, 0.12438861504170087, -2.118684757867102, -0.030134539898949802, -0.8555433707605727, 0.5134984427586586, 1.5295597022883258, 0.19452794443508462, -3.11014462305705, -2.1861689319179107, -1.3777296713162432, -2.677764761455252], [-0.24646342691584203, -3.9413217040392667, 0.5139464037481948, -0.017815100258248926, 0.014511122624855708, -3.51169954931383, 1.593181759894807, -3.030243534131513, 2.4176369237198707, 2.0513355311190726, -1.714839597300902, 0.09174921760544935, -0.07652184002154064, 0.9264293366499311, -2.9129259202795836, 2.8165361145927457, -0.09523293969994746, 0.9647486300401816, -0.5720593501118897, 0.07890967710195712, 0.4565398872489878, 0.6365559525016773, 0.5398521404570069, 0.929014130372133, -0.8160763630256201, 1.134582441605063, 1.9611889873900752, -0.007937793716809577, 4.147854551757711, 0.17233829848927304, 0.2395353225723628, 1.9301705474026984, 0.4619647300030047, -0.9679499608369759, 0.10095261901030705, 0.10648728284402506, 1.1898977897414227, -0.8376903428329683, 2.8836625676668297, 3.1032565127412024, -2.5543693677607897, -1.5411454944926373, 0.07248233513954785, 3.189127490507407, -0.9123399665691365, -1.5694024884878854, -2.79228530251117, -0.9423364650537479, -0.8156120990508704, -1.6137707914785917, 2.0325353122827363, -2.491639328189792, 1.678216689838248, -0.6534464456027765, 0.07896981938545446, 2.6938201187777833, -0.4992727030827336, -0.7140404211092377, -2.4766734581804553, 1.003649880749212, 1.2917592024668056, 0.18772045869941817, -0.2398659546312397, -2.5894781967685128, -2.3780421606439774, -0.30338542576274014, 0.8549098278120896, 0.8972287970613998, -1.2073184206494132, 1.660168800944383, -2.7395893261264717, 0.5353906094780605, -1.0961502539526635, -0.09688964841145017, -1.69419008469614, -1.8184077626536461, -0.03782458648893521, -0.16960316490239935, 0.6421197984923402, -2.2399755715106284, -2.3577947678334454, 1.3193170327199648, -0.6047493045512602, 0.7924351160743058, -2.874474283138189, 2.120268567653362, -1.8909912051160551, -0.44107930596639144, -2.6099339519238205, -1.3180480980342792, 0.8638108443135463, 0.506820658374914, 1.0312186492448883, -1.5308516172392834, -0.8319054653246148, 0.8450939858839525, 0.5225822474263405, -3.6948932111415824, -0.5015009552588607, 1.3860491750005415, 1.4168276218134657, -0.7342551158902209, 1.6557707287396493, 1.4044528522311848, 4.61143867235772, -1.4882445424888426, -0.03836550577524071, 3.7683457148423853, -0.788541453571472, 1.3107074705713349, -1.6125083857424407, -1.6041651645984951, -0.269110948589416, 0.10289687567677945, -0.9682342211574726, -0.5653832025194493, -0.48079311094283034, 0.8497251042484985, -1.303522487371801, -1.040979466735183], [-0.7879411699371226, -1.409358942318363, 1.578295211301779, 0.349670889515576, -0.09360723192806752, -4.663263056639094, 0.8470988290188007, 0.059993268385251396, -2.313883332246007, -1.7716921873544265, -2.168489209005324, 1.717927023338389, 0.6050241742677585, 1.6620405602108965, -2.553854349148473, 5.235121384957708, -2.5045107607788712, -1.5723528238721158, -1.0218187270188228, 0.3516648400740563, 2.192666148238595, -2.6453482420111363, 1.0208042934117358, -0.13388121816185827, 0.010926309899549244, -1.1186282420311466, -0.32079089986828785, 0.0634281119100328, -0.39296115637552836, -0.521936937439302, -0.37867275473290263, 0.7544302126070639, -1.6419186461866078, 5.423263368329275, 0.7708984793606857, 0.4350575702736193, 0.8750755607302716, 0.9759819778477112, 4.86424118368549, 1.668134493481925, -0.5822738263234284, -1.0956123549899885, 1.1073035303642278, -0.37819608803012433, 0.13818950240892353, -1.7966629642143408, 0.0813283012406374, 0.15430665096868793, -0.9098257909890899, -2.2240428273782076, 1.9952980029610417, -1.8037798947074724, 1.1030208190068496, -0.11226457085336407, -1.5932715470848804, 3.257059603636175, 1.2290145877253142, -1.888215759091513, -0.2081472390026381, 1.9749498805197725, -3.1221605791579172, 2.2192984373435043, 3.0911617325950065, 2.3943091727259804, 2.539017945066029, -3.0516201745691642, 0.34319711142802817, 3.739678737317087, -1.9945960841722, 0.0016886354805172058, 2.937350644090429, -5.114091657002694, -2.54954843270099, -2.497230323806722, 0.3853533287184652, 0.8701338708423555, -0.040585629534890984, -0.044995650492690435, -2.0830378851039453, -2.5253289341748735, -2.7464001723605302, -3.0794789420502546, 1.8550891167978878, -3.8828874002764406, -3.3256108499775396, -0.5195385953547977, 0.09695478220241141, 0.720823085012536, 0.5257504790776476, -0.015781891456680044, 1.8740706450626732, 1.2239170088150189, 1.9000780737639125, -0.8825133938369869, -1.2221477504172096, 3.6228185780114437, -1.4129069102230591, -1.4405201902385003, 0.4246075766841676, -3.2120432461595065, 2.5379395401163793, -2.270426910278256, 1.1629413072844892, -1.5967459661549088, 2.629079648532952, 3.047358059171356, 1.3725456433047976, 0.4940783176968413, -1.9803953814509252, -0.09078019127693931, -4.882068191272234, -4.495534303943938, -2.1125395544021313, -1.4913543706423344, -1.0910404596444085, 0.8785389569607306, -4.031010228150546, -1.3072896877971203, 0.6986518769385849, -1.5958381349739659], [0.43510525609646966, 1.3344363230456517, 1.8951802173261316, -1.1970963967906205, 1.4377986870906634, -2.118620999867619, -1.602148417598963, -2.7465988352713984, -3.4997699255855905, 1.1204213368884033, -2.2943531113246967, 0.2600323056476432, 0.11678364898835203, 2.398549202144886, -2.3296614176374826, -0.14910062926293297, -2.268594669409199, -3.9692302701331466, -1.063329593189474, -2.2109052948132564, -1.1021939168246853, 0.9320668499542677, 2.9570513095699047, 1.834898614763376, 5.127875852521713, -1.7997134605336937, 4.091331882820539, -1.6286488422386134, 0.531712397987105, -0.8089244461889228, 0.19246211739891608, -0.8760726233858029, 1.5801732460610767, 3.536940672197963, -3.356911850851055, -1.6610146240392965, 0.8046157687291962, 3.9455804263047045, 5.364582562653107, 0.6801303182187193, -4.104364603209139, -0.20942476594935736, -0.5242126716920232, -1.9434489197958853, 0.28777735403821036, -1.5491132609921374, 0.7284191227506829, -2.227344120748608, 3.24090609995544, -1.7025679963329905, -1.6371756019726444, -1.0718203704143017, -0.10845254064937311, -0.2901720902829428, -1.457913993233302, 2.4651816759372456, 0.21318259085662206, -3.0357559646276013, -1.4430022352694911, -1.018022387162229, -0.5440057015886771, -0.9505646372153577, -1.6128226214272186, 1.575419254508604, 0.19053384636410323, -2.269464116681342, 1.5984588155251696, 4.932370831891444, 0.052844486410366334, -0.7548916741492828, 2.1619125488799473, 2.1145978233476566, -6.517374264593445, -0.5380716545878009, -1.3653522297631937, 1.5733891690539243, 2.0418369173623176, -0.8780167869294213, -2.6803346201987, -3.633673206681684, -0.30645230522432715, 1.741307550261983, -1.3540896427593823, -1.3010682935012654, 1.2118328425362774, 0.7353898977365771, -3.4224043089103677, 1.171568236061833, -3.8194276210294413, 0.0702638734967216, 0.44701937260357316, -0.28069978425817216, -1.3044508490981777, -0.6049205850844439, -1.5215134638534986, 5.417233058272932, 1.046016112209248, -1.5194451016799317, 