{"hidden_layer1": {"weights": [[-1.8417912164021502, 2.1757216306260023, 0.2759081610091003, 2.5764014995984574, -0.9042407509543925, 0.44389398424173615, 1.0512412270083935, 0.2355683639043388, 1.762894956550959, 0.7907490262565511, -1.658530745036946, 0.4837324953420268, 0.9170140028264132, -2.4537773474011977, -0.7272223715452529, 0.009679758905150939, 1.665820618366132, 1.4538273509438024, 3.397022935850499, 0.2153016671207764, -0.37802734050112163, 1.6631703773222668, 2.6706834620423394, 3.0956314167210244, -0.39494403906512987, -2.369663345062396, 4.715773592634573, 0.31999246031682327, -1.8041385552092226, 0.7779614371808727, 1.815757185980442, 1.3204797763174336, 0.011502180574993663, 0.7420905456317339, 2.2265373496330336, -2.215699620780973, -0.5900626143584838, 2.585541551674483, -1.9239581442591598, -1.4988452330418482, -1.2107339931656491, 0.18413150869189354, -2.5479614408423403, -0.7754095254348908, -1.7287781947151786, -1.072548707972256, -1.1260456314315759, -0.5812528181916218, -1.142008359042344, -0.0018878523937872033, 1.5730001891829302, 1.8255143393741033, 1.030742650241856, 2.5188281664031873, -1.3048317450308606, 0.17272584363774482, -2.072005870488326, 1.3626679136235367, -0.6959082860548336, -3.9193412579600015, -0.44705160870065985, -3.0899863863678685, 0.24699180544173446, -0.1336294665364649, -0.3197514091138449, 0.1618858038809634, 0.6939362384218131, 1.1941327990253205, 2.6646627816604824, 1.6608520079834332, 0.7853239142221617, 1.7051387813014711, -0.46781925781682604, 0.8002144663215179, 2.8188835849363043, -0.12397863245985839, 0.3538852578957383, -0.23424166017408043, 0.9051541505732824, 2.5509632060498535, 0.12136077611561037, 0.8899189065646876, -2.031923119362335, 0.5252410112828676, -0.5928573434348385, 1.479970299605986, -0.7567324774009995, -0.15077364825538092, 1.0070226179669952, -0.8142770423688575, -1.1332759004230049, 0.5553137926593597, -0.7168391334054277, -1.0154015520806856, -0.48283143358729047, -2.4817338567918403, 0.6202830239591599, -1.0208258411831554, 1.2588065309996694, 0.16586384281642227, 0.5364757183788329, -1.22452801751399, 0.7604659732655916, 2.640629610155572, 1.0953031913519446, 1.004519830611299, 1.7084062229578456, 1.6438892685219932, -1.4045304744612834, 1.1139244291159363, 1.3883983479734563, 1.3464100631067017, 1.1522217868922382, -2.108211080285016, 0.4706648761430456, 2.8585868769765184, 1.6110971372840877, -1.3019001578432894, -0.33922779920889845, -1.2010967993076858], [-0.6087271399905752, 2.105779973158356, -0.7036448676347113, -0.029773164863924118, -0.520070421160729, 0.45716482206358683, 0.2869038329566915, -0.3987117104830292, 0.72716285433911, -2.367504931785306, -0.13223414725476593, 0.3872603844690343, -0.07096400603940026, 0.3592667665606438, -1.144954658185959, -0.42138728051802243, 1.7201307832309396, -0.1715485968378119, 1.7999828468224928, 0.16395988315898716, 1.159083570880805, 1.488424655234501, -0.8888245244199582, 0.2963330373590614, -0.22908926619048792, -3.069403373938344, 0.1914337247624639, 0.8733593299750432, -2.0748161634035704, -1.6136800884437368, -1.3967277160586262, -1.1303679085940024, -0.1701651040305456, 1.676405461003575, 1.2560747492709456, 0.23507048973583552, 3.3701505158870257, 4.779058960349011, 3.331026134908062, 1.3974345560728425, -1.381169670014835, 0.8397676919539869, -0.03145374895698046, -0.8675409470111185, -0.7489053509897762, 3.244776370403966, -0.6109344830047941, -2.302720934769179, -2.24586274689111, -1.8358025667438742, 1.3880810769319494, 2.2178581041977954, -0.2931684561787259, 2.071598450360471, -1.9086133227789959, -1.6648412163416917, -1.3215273999960595, 2.1334880583280245, 1.8568599140705322, -0.3439924664758709, 0.18723264865726777, 1.1015300777742576, -3.2257317989053185, 1.298573643212821, 1.483248153851698, -0.9270532873039589, 0.5630862443532485, 1.1161667645617934, 2.3031290339455692, -2.4840327823524797, -0.2261558646847161, -5.832001346440268, -1.1787822791334737, 0.5991469678126693, 2.2892663471127115, -0.5143943179340362, 1.187943400651165, -0.28891603160845203, 3.100888782400449, 0.7174293081577947, -1.842066627833092, -0.2656217306965193, -0.6389029785368684, 0.5443400782612089, -1.4936338086528116, -1.3781583252228529, -1.0121015327133192, -1.438533162154867, 0.21134567409926056, -2.368441743678277, -1.9789494179314706, -0.6418393133972939, 4.593701404457846, 0.06983069028851716, -1.4462355790235528, 1.5554464325505577, -0.1581646962404545, -1.2279712626113601, -1.4406457023121262, -0.18227666324504288, -2.0959480353717708, -3.303029447141849, 0.5019836447625038, 0.3295360750391629, -1.7413632822460359, 3.149544180450583, -0.37910146685232515, 1.06796407674546, 1.320941166146791, 1.3751614102106164, 1.9916891752770847, 0.9930037952481721, 1.4910297023079992, -1.5991652659684266, -1.0481843059202725, 0.5758396597150839, 1.629293297307193, -2.0390275577580885, -0.4679082488222724, -0.2697930985386322], [0.28224806755549947, 0.19436684749669106, 2.4425018959109543, -1.067932193080919, -1.5381170986696964, -0.056901634951487395, -0.45212050356829464, 0.9283447740355733, -0.28819630088534137, 0.2835367170815058, -0.5160791146781653, 3.1335317374384486, -0.03744764043717432, 0.13762194314407544, 1.3954325018375402, 0.4917930784880106, 3.3652491972798875, -0.6771309675195545, -3.5936592103018805, 0.9687174180246514, 0.38811312451751645, 0.9936590154081034, -2.149270872391121, -1.9899888666071452, 0.7925754758072793, -3.9577701842288473, 0.757802743897386, 1.7060595387734396, 0.5686631072016632, -4.1801309581037955, 0.5495017560392677, 0.12406953724449844, -1.5148846776245455, 0.09123614350350054, 0.1465894754709962, -0.6523010454628647, 1.4506575197980698, -2.3822854584707533, 3.280951544458209, -0.14800670208696748, -1.6788149486727715, 0.4789324531109987, -0.19407755523039547, -2.593371224923957, 1.2612412048753245, 0.6947260226483472, -1.3604114652946628, 0.665847416231573, -0.2229991566839839, -0.758721421493474, 3.3285001980392206, -1.9022632425688701, 0.6216086723483973, 0.551635751692631, 1.7967197635161525, 2.9320543931098526, -0.6636217209309976, -0.045881456606644645, 0.16490986148722225, -2.7072061297056362, 0.34981574197545573, -0.603940765345687, 0.9701566652078457, -1.2989495506896156, 1.7512054896921339, -1.004255954708739, -0.5243407525286783, -2.8589165518668556, -1.2721956447790912, -1.8016928963557648, 0.40847304410167684, 2.3513200027401067, -0.06817964619813228, 0.7578476391693595, 0.5913446857351369, -0.7106610400388758, 2.8169028068018327, -1.391522799713313, -6.053829474649831, -3.446783002166756, 3.4899279533427063, -0.6053818840010495, -0.4664203106031796, 6.242538527662426, -2.634253405389537, 0.5710493673977065, -0.8602447328731487, -0.19499420781721605, 0.6691946828247572, -0.9064142724866527, -1.3267910917467656, -1.4285024140083669, 1.094170030796691, 0.3219595016115358, 0.7483597147841741, 4.1291810319514894, 0.3967400647708299, -0.4476467198799481, 1.0488800101489133, 0.10836966022691326, -1.1094555997846711, -2.5020426740355854, 1.4141460421945313, 0.26425473299782226, -0.7793767628051174, 2.0174408166667757, 0.9161873100520581, -0.4669549618186131, 1.0373739219108518, -0.2869535636771941, -1.3169530603340713, 1.457545407307086, 0.8042038583551292, -1.2012623328023393, 0.7465080958737051, 0.49079133614757997, 0.038458341628525725, -1.010386798839215, -1.776029791816854, -1.616506401529075], [-4.944797935587859, -1.3671024258481748, 0.5640749843357631, -1.0685156793450086, 0.6495477677382954, 1.1466403883591203, -0.10175280949926027, -0.2899087065657986, 1.0463832423301964, 0.1646903660032194, -0.8097029711774504, 1.5161058384151365, -2.334430276059355, 0.685600273323489, -0.09135738653630038, 0.21234171517982478, 0.439150308746449, -0.4772725418520605, 1.9787381625061957, 1.2846742644560707, 0.38003276520290397, 0.3957023377017042, 2.1208955626983097, 2.832889118396506, -1.329899894548355, 0.20360592100410935, 2.4320137985819814, -0.23276971789592338, -0.45204093087873665, -3.239945352693394, -0.10813407072562456, -0.8844707931670311, -0.4921829797301055, 0.06534175454247651, 1.4719115527768403, -2.5069892363616666, -1.3521623350454786, 3.5791771901097196, 0.33962983494333054, 1.8074054511802942, -1.0870668570637547, -0.5626611156711783, 0.4629476594643527, -4.854073906093756, -1.8182160491525987, 1.4026818976902409, 2.5597355095397467, 0.9077693589144614, 0.9150664842436265, -0.10286425626487487, -0.2168546919755549, -1.0856759250340233, 0.8213883820220647, 0.30652529846365334, 8.332651464593873, 2.422597318086464, 1.0327122861950713, -0.44152033276800734, -1.0818214849157788, -2.713677478969148, 0.7419497317118787, 0.32946424137519065, -0.5853298829758792, 1.8211275606666324, 4.063827761454395, -0.607668686188278, 1.2889237337055857, 2.5831644301314465, -1.6120390518586587, 1.2999772945055263, 1.8477829640592172, 1.6167693868719686, 3.4454906885331207, 1.2701872634422982, -1.374605752981839, 0.12963542098692335, 1.4219330330345683, -1.047083794911322, -0.7172720640823728, -0.26799640774812394, 4.157110333510775, 0.38791773540938046, -0.29495259631428367, 1.5478281021827278, 0.42383786649109895, 0.021600339018559785, -0.8610967353531919, 1.2250162447130957, 0.6610967964669286, 0.15159532283787472, -1.2781561336849647, 1.9171213165562049, 0.7924735476823578, -0.1497824608497379, -0.5342807894066937, 4.759194600003599, 1.091568705383215, 1.5305459625654125, -0.6198791104361672, 4.59534668485863, -0.6830383529194057, -3.123878172486515, -0.6072375385184353, 3.6366468081269447, -4.323456146413752, -2.890586884288979, 0.8298845655356593, -2.48160266443473, -1.1096579479292772, 0.10601282263136198, 1.2261206696825608, -1.2238424858988783, -1.512232583849299, 2.8885919528997084, -2.074900034711185, -0.021318920558349278, 1.731635147788765, -1.7281601084525389, -2.037519245667332, -0.5288072182998838], [-1.7985258110282474, -0.1758070038960419, 0.09583370506447515, -0.9598576974476517, 2.228035549515652, -1.2024430733355398, 0.17936337182640905, 1.0868334442435437, 0.7481168817326294, 1.7279256007325665, 0.6724510843827469, 4.123908351859742, 0.3604138462147744, -1.3840955025777966, 1.159930664941854, -0.607102842129298, -1.1670100659882159, -2.0409832959069467, 1.559115419758901, -1.6662185015053463, -0.8879066231592622, 1.7121871135564422, -4.221122837698947, 2.81192058474092, 0.0008645255579241677, 0.7124217689108449, 0.37179984846753217, -0.3799248223643822, 4.161292540203546, 1.526472108877897, -0.24917027068975772, 0.2632726371756422, 0.16145222423142477, 2.539116792047792, 0.6614808678184975, 0.5059496087523625, -0.6443129542144456, 0.8622656471833056, -1.4979892200937794, 2.6364048319879387, 0.43397926635630096, -0.8670508579480771, -0.03661245692749116, -1.204078540334642, -0.9863073500488334, 0.4300630930068542, 1.756782459712786, 2.063093116806133, 1.0547766403896208, 1.1020145923637261, -2.5242527317953414, 1.356482749589761, 0.5968133862682821, 0.3481920895853666, 3.7715588501907455, 0.5251664583227617, 0.43971600738882205, -0.5135064589711784, 0.3385482738103212, -0.5637511410344558, -0.6802698979655796, -0.4961645686302473, 0.9189493965834564, 2.200244215768974, 1.7938253340219277, -1.1721205574026137, 1.901486431811818, -3.157846223238345, -4.133447735479353, 4.3108646467460865, -1.7497051501219258, 4.284571942323496, 2.8464463251730763, 0.9124285588398685, 2.0525771936043142, 0.7427888030826093, -2.79664674830688, 2.6946774103963476, -0.5525132114661139, -1.1696293437660927, 5.042762618074799, 2.598962105842414, 0.49538553072650615, -1.9762963794476367, 0.0523274105869662, 1.4571052175059345, -1.6829827012927976, 1.2900616706107946, 0.7138260757799397, 0.6404074384080535, 0.8912083720334675, 1.1277596402913492, -0.6460490941972094, 1.8661386160140099, -1.0249762294082438, 1.753494187396939, 0.5554861702907582, -0.6817849849565867, 1.0854963206389963, 1.6379537536991702, -0.9240170629200184, -4.737622588918135, 0.20046183315997562, -1.9401146997673753, -0.02995509154714187, 0.22590252270726702, -0.0927187465010896, -7.224789348153882, 1.8212895933197675, 1.8869806007595764, -1.0045902988914084, 0.8295945278056188, 0.33731204627534384, 2.5660171596912678, -0.051408815646158706, 0.9258178120545063, -0.6249415789631328, -1.0837636061468698, 1.9269547364990134, -0.9064648169177856], [-2.7936611547564514, 0.7753366597877797, 0.4024787392603042, -1.8180296191643361, 1.1880123811365493, -1.17349722023529, -0.11214433473699686, 1.5302797471449547, 1.5304565119549123, 2.065466592317554, -0.45091251516394965, 4.5073436272362715, -0.27555949135935637, 0.32449659508599327, 0.08994323000743545, 1.2282798846327205, -1.058226359334831, -1.6545227288289897, -0.43190939181040516, 0.8806982267397726, 0.07739185789469355, 1.9182681450016537, -0.6736399902985102, -0.31058226656229765, -0.9808867129351918, 1.043274620089374, 0.5724921385006938, -1.2946642131844703, 2.4032316586220444, 4.456183031513706, -1.8647995621915985, -0.19987084342654238, 0.3077279167538027, 0.6876982191978569, 0.6060660271470513, 0.6102771364157736, -3.6095928711040393, -6.994892172461847, -2.7359627316232142, 0.2657773763869693, -0.17544550028287217, -1.414599199544422, -0.7861342765100912, -0.7275337297542642, -1.8298631720952299, -0.5476429718941103, -1.6006306575931246, -0.5551558410672167, -2.13602208703538, 1.0721056894538816, -4.838140108799995, 2.8657806673034942, 1.058899747408383, 0.19800405290551495, -1.5831938061993767, 1.8669471817379577, -1.0828785478273786, 0.12344750881370406, -0.4421755084158239, -0.6971680357046073, 2.621534551329738, -1.553347856246098, 1.914891543633034, 0.9070181075615352, -0.30267569644251635, -1.1591016462222623, -0.2827830569764876, -3.496737581159255, -4.297001011608342, 4.3711037998283, -1.440229673082989, 7.321407446854686, 0.6469103071199096, 1.3607896175696856, 2.204694893297029, 0.3061704395191571, -3.193395960355082, -1.2673292199716455, -6.2936522673266975, -1.693921633386861, -3.33375521531345, 0.40483150766672293, 0.5317313288016622, -0.4426520635362132, -0.9967735838327347, -1.2812015508628707, -1.285473873574638, -0.2471811189005251, 0.009581261760050032, 0.7893597397362294, -1.1819291693757272, -0.7669328275905827, 0.29885768887743813, -0.6294017824702792, -0.31219498226357584, -2.860836372991913, -1.997749475044408, -0.09673515732841195, 0.5947644590578847, -5.249860659741061, 0.9149510361248712, -1.0555913388499094, -2.0448001667601905, -0.03392114424833356, -4.478252811242655, -0.4175956156269683, -1.3050880763989854, -1.042995241023501, 0.8253331763964014, 1.6298140407937656, 5.131584902267421, -0.5318818398313684, -1.4354933481147791, 2.36196568279245, -0.25113018569054574, -1.1355206514953993, -2.175407338628423, 0.4416281571559264, 2.1615148831692244, -0.990527349492305], [-1.0195881414686863, 0.5407825622195565, -0.8326018928888361, 2.5004410116640994, -0.41170030229551563, 1.5865499108686867, -0.3163769635943802, 2.2799831464114293, 1.5138461765258713, -0.030153090668211348, 0.8294705800356419, 1.904076825135364, -1.4892466371027013, -1.3644038017047797, -0.8187835767750312, 1.3567990005309527, -5.529015993020642, 1.0224530785968735, 3.5087096988460384, -2.2038314313643377, 0.7264838155813668, 1.3891855810516907, 4.866679431934132, 0.6324622843321565, -0.7901286979986798, 0.7144660296575139, -0.009877232864759146, 0.7246926181300454, 4.006753921802653, 0.8695987293956309, 1.618193495415489, -1.0321177703918292, 1.2538741602788395, 0.035080589124767025, 1.9378932331307273, -1.3128909617375124, 2.7525359130157336, -3.733905270325743, -4.6815030845699255, 0.9358963636970977, 0.5419937521507765, -0.8350810530114394, -1.3092342830905312, -0.48187297399337387, 0.06119679447166409, -5.354595716238959, -3.547614134258367, 6.43951287534966, -1.8134121393347082, 0.7775354772189217, -1.6504738131852257, 2.592464051766478, -0.07342090632568739, 2.2644666997871203, -4.829116271663975, 0.7396471587879371, -0.1782643729394723, 1.384535342695118, -1.1430370875444364, -0.5476440419644284, -2.1485309675591227, -1.5052770566664027, 1.9650489810554277, -0.6372439959376258, -1.1797100886491785, -0.7420317944715806, -2.0052774248661316, 1.918125152303751, -0.8956022061938802, 2.429276724551581, -1.4750905458485415, 3.6588015049827454, 1.1333433757648703, 0.6350831470221237, 0.1939611169848432, -0.9167209577768816, 0.03824739551553658, 1.5652952702824479, -3.3941339982042114, 3.985482031577619, 1.674386090981917, 1.471151169817595, 0.18696228074696716, -0.4027589826971204, 0.9524147898587527, 0.6580760539990743, -1.8494007955482787, 2.1708535063798355, -0.35325064059370553, -0.9739049593108252, 0.26838299564067125, 2.218452834801292, -0.8680788486610941, -0.8476901231549822, -0.02173804446443325, -5.51303242109637, -0.05027198373302049, -0.11961708969849866, 1.1541176756890685, -6.968283625920924, -1.0731324136442948, 2.6437807388267207, 3.208252692829896, -0.40374096929551645, 3.543247090743771, -2.536962139747457, 1.2407180932396158, -0.17494019875096314, -0.4023402716789947, 0.3991686490564372, -0.8978361673096522, -0.04725299222995386, -3.9430888333125975, 0.5625559990980518, -1.2817175116252055, 1.1040314738759673, 0.30503175042384706, -1.172864688319755, -3.1347523486869004, 0.5643653284582417], [-3.1859701114822583, 0.3069288564758999, 0.3574239764386643, 1.2281321150846647, 3.6255186816137073, 0.16630817755808655, 2.704749678560925, 1.8160539931573245, 2.5653461513784137, 2.316849250599793, 0.9072009673335772, -1.04445113061727, -1.4549074856529733, 0.2213882048178577, -0.7733131165839396, 0.2443659626974163, 1.74267390147667, -1.547639940305559, 0.39026808711373134, -1.2106382439181518, 0.3353138326092264, 1.9673217857806566, -1.166698713578387, -1.4747515305527161, -1.5062435830692804, 1.3440770721060467, -1.085629438995922, -0.6623331762989498, 0.5804318403582469, -0.0873837439435124, 2.8250042125148234, 0.0993313634563128, -0.6141428915635154, 0.567017006791899, 0.658125451551108, -1.4479991918082462, 1.9245741933986962, 0.2665041419629606, -6.085775874746783, -2.3747413319087887, 0.22883894764575816, -1.0292874706421709, 1.2212129696587868, -0.9787503191298413, -2.0831175281191, -2.366661562823044, -1.958752142868188, -0.40422474739625036, -0.19490513859318148, 3.5328844572776363, -0.6944868532491312, 4.525588574725271, 0.27783983165786275, 0.8887786613539524, -1.4413144509282416, 1.128548101993305, 0.08683504863467519, 0.4210239340432625, -0.4388297002325902, -4.097340909781422, 1.0510281429882573, 0.3870938442319309, 0.998671746964082, 0.48927006174839843, -1.655703515538317, 0.967770884129372, -1.9589035292954144, -2.539802614441998, 1.168501386012283, 0.9853711604218446, -2.015960610192251, 0.7105436540823074, 1.9231212501434367, -0.5807548757392432, -0.9485196152238088, -0.025412165762378022, -6.882422013136166, 0.8531491405506089, 0.8487903777497322, -3.0513494171057824, -3.495113947655367, 0.27610510088543205, -1.5193308805544512, 4.010892632286016, 0.7077490360403289, 0.26241073021592565, 0.09087331665104921, 1.9178567784831437, 1.5809576203837086, -1.8987397581756145, -0.9841613766854238, 0.8671871575854568, -3.3941001138762723, -0.9120453512263019, -1.347691914622394, 1.534874152869212, 0.08965404666549971, 1.2277846334274016, -1.0789653315615415, -1.9269828920752041, -0.44857531918563565, 1.737606132544458, 1.3377992040610496, -1.2627582055755289, -0.14054107921284031, -1.6387042634232432, 0.5861298565614359, -1.5475120515822622, 2.141529191998624, 1.6808401907582573, 2.424293914352614, -0.3622006484582026, 0.9970407390588438, 1.0979344560031703, 0.8444622083915354, 0.5681849684333963, 1.2796795935012961, -0.016306447424932827, 0.27080044552810406, 0.11440521160269101], [1.6090938419821024, 0.9686198851335285, -0.18524095083113454, -0.2683670180428966, -1.8543617043442897, 0.0006713234263965879, 0.5473264532217278, -0.7417233895312653, 2.150011905052657, -0.39137684064861594, -1.333868136491212, -1.0357896254433032, -0.04083442762922348, 0.9231834092417469, 0.16433866123866978, -0.8915197183182516, -2.8666554092079815, 0.11275311832063303, -1.6356293434765632, 2.0003516282567966, -0.29837716344299725, 0.6323776782884647, 4.310952059316012, 2.28491646399277, 0.0964009328903776, -0.27760911143517725, 0.22870541867910243, 0.7853074337410358, -5.34209684291552, 0.3097451675196373, 0.7632259792377598, -0.6061093939001808, 0.7454993735157127, 0.2636481951511968, 1.9363169321850198, -1.0593374635677446, -3.305536995411781, 0.38409367028408337, 1.5887972891085218, -1.8684357351604142, 0.25403331638950577, -0.657787160802592, -1.4798490586040984, 2.6750967093980567, -0.900579324046009, -0.3340154131942046, -0.40613868422971744, 1.4221840288318612, -0.3161677572890753, 1.7609102536350445, -0.29484571379265495, -1.1553244247976158, 0.46454066155856644, 1.4536833540467138, 3.369312645343372, -0.8789976984081035, -1.5358044677616705, 1.2780583970716426, -2.4248082198687877, 2.6041636627248628, 0.8520076199781427, 1.107783513484415, 0.9292339806710578, -0.1408109072945878, -0.1233435352072269, -0.491564049419064, -0.5017084177782706, 0.07799825814220593, 1.1016085260315034, -1.4182872702471587, -0.7919296382137466, -0.3592662654715944, 1.0315391323375407, 0.716788018927954, 0.21952552333801562, -1.183575266693695, -3.57311562456461, 0.743931624813825, 1.9304427017098245, 0.4114606021171626, 2.4334874870297374, -1.2608966408349769, 0.5753659126175144, -2.219923873571536, -0.653660474372483, 1.4690786447171262, 1.0951363373400407, 0.5454526504421918, 2.3429291246657566, -0.31559345005923833, 0.21054810357173478, 0.6757553122164957, -1.64417891392781, -0.804420103163859, 0.5144511106771406, 5.77526095172579, 0.11151686782492774, -1.74492608869616, 0.38385872259020526, 0.09210724458433166, 0.6511891178729403, 3.457174909590043, 0.2098535810703276, 2.1141961600252115, 0.8093256637004338, -2.4107205636989324, -0.8555919972106237, 2.773801705685184, -1.1572296728394829, 0.316578160911057, 3.1566258037792516, -1.9814058505911867, 2.896672033587259, 1.089008920017943, 0.37841114247170604, -1.2564011917013693, -0.008871976030269563, -1.585346661186847, 3.2577425887882336, -1.6383715579239402], [1.2285378386838768, 1.0637029101017075, -0.11064312776191963, 0.2084510635458031, 0.9620446425280973, -1.1435018713533822, 1.371068720378681, 1.5263887475380706, 2.772438833127316, -0.7815395435031018, 0.1941915006804348, -2.6545706996436262, -0.4394703722446432, -0.012182262297582512, -0.2348441290197984, 1.9758092871710555, -0.13230735967978494, 0.19153008500357152, -2.4004014461939702, 2.466658518826795, 0.11766046870870109, -0.5165198081455953, 3.0923749755239096, 0.6284093324942971, -0.31569263750639176, 0.8544119300662624, 0.16998915982838064, -1.3994570852108688, -3.5475804516659326, 2.3645247085012944, 1.9284844300670672, 0.9027695232705116, 1.7366474113041261, -0.21942623928277413, 0.4118689757484609, 0.6786801158164603, -1.5812654281074854, 0.6199647705804233, -0.39675466346636046, -3.1373713999671367, -1.220660867605977, -0.3302228333566721, -1.9850679811216672, 2.2074286976402675, 0.0507689403870596, 1.788024057480775, -1.0139991364905463, 3.133282527233646, -0.04772405024399269, -0.8207807553771634, 1.0164633462539654, -3.3889067014327283, 1.0863045436692405, 1.8054362020435402, -1.6725734652893873, 1.9917769585729808, 0.20133215632352944, 0.2366974351161448, -0.5216771165447927, -1.3129006878881646, -0.7943400373987773, 1.1811138386273226, -1.643939154391353, -0.4762769683281843, -2.886594240834201, -1.0001641125456115, 0.864425958286404, -4.373837461068947, 2.700419815589522, -1.9965175803124569, 0.5453373508781931, -1.2775174831723282, 2.704975942396633, 0.04887671294282913, 0.4730797964780598, 0.020773323483682098, 3.6543350444859874, 0.7051459303204808, 0.8558586901656834, 1.3771629828247793, 1.6886817532819134, 1.0474412218866496, -1.0701304809807322, -2.0668213337018257, -2.3454377045077632, 1.0040260548766013, 0.2265765514552456, 1.085474905303645, 2.4180967257231445, -0.8077408379006645, -0.7975585303813565, 1.5769723965560092, -3.855259139873287, 0.07578885529681717, 0.18594263669468097, -0.07484494881737327, -1.8708387599782386, 0.014554170248610271, -1.354017113106571, -0.9515719605237735, -0.8912956410878068, 0.023402765195887684, -1.6691708785769777, -2.5435430478550094, -1.1390065817709278, 3.229587103436983, 1.0185920421412802, 3.173719508864468, -0.9093739069516995, 2.0974867822866976, 0.39021611847769366, 0.8473433092681165, 0.9496167297229068, -2.1910185213802285, 0.13522908361461214, 1.324451476093607, 0.501878957528457, -2.2348095290541576, 2.8239388274559216, -0.21190800348626668], [1.437179075277626, 0.6160215480510705, 0.9963581118796945, -0.8985969739651055, 2.1101633752235394, -0.5467245187333242, 1.0243184911696155, 1.2473702405674594, 0.5944677835331567, 1.3719067677416816, 0.049264553384955605, -1.1931352832658222, -1.5001418450455635, 0.23218898382709008, -1.1197662103265307, -0.6324122257095249, 3.821738647408963, 1.5153077665032741, -0.5727983052003602, -1.1873065059330554, -2.3914068957056696, 1.461291438826782, -1.512053208430275, -2.156507717133573, -1.567805517032674, -2.816736117908031, -0.6894631184899596, -0.04719080520553548, -1.2934918102407744, 1.2913798303302988, -1.1013670244613618, -0.9385209940348934, -3.08237114338569, 0.9140771938701978, 1.228368463890884, 1.2313628209135052, -1.2755867829936307, 0.21340603682705309, 0.9366112932784584, -1.6642960534759932, -2.6232481748948304, 1.129877631250779, -0.5728289379155329, -0.7549869356856392, 1.6725954120284456, 0.6163800547001459, 0.6684007866301219, -3.3089443338278692, 0.07473247517935735, 0.3662756276659306, 1.0254764818268174, -0.2211774535714665, -0.08627237846922835, 0.17839199713913542, -2.135138917285451, 1.3688804257423146, -0.847424415216512, -2.1498944719968254, -0.2860405539934594, 1.1046010573407754, -1.1120004528840424, -0.9209521109985287, -2.7793023548540052, 1.185270334304052, -2.3159812889313045, 0.30414146043415985, 0.7003254143978535, 2.3742199337789285, 0.5438246668408656, -1.1212485405170511, -0.4015727975044895, -1.1349451271434685, 1.099525471308998, 0.5709725472394022, 0.7522320830384763, 0.6464922895051077, 0.9678541680068613, 1.03616791778965, 1.5429852135938649, -0.7636080879673401, 1.765998668734732, -0.025785029655272393, 0.3082191082773474, 2.916871012335639, -0.04933459923417756, 0.799885114762611, -0.2963235972436665, 2.2917266515325845, -0.6071159593858932, -2.4221968360569575, -1.2983072039782837, -0.35064873135664426, 0.08359833125765687, 0.19289094978531407, -1.9682499347260192, -0.027593874181689217, 0.7947640660980794, 2.090874183613993, 0.15117792138636324, -0.7789447969813618, 0.05211340551653456, 1.2310687906196889, -0.7496048811613203, -0.5198929048812463, -1.9092237921874824, 0.8196954840556959, -0.9235685320513816, -0.4836617382593677, 0.6597906859422469, 1.9800602511067402, 0.27728169338601955, -0.5973876323917705, 0.3262505726413478, -2.2013294737383022, 0.531915522475801, -0.8105544870879254, 0.7370172628805809, 0.38418157175502876, 2.500008614091353, 0.027239630854829507], [0.42743827848005084, 1.4910216563240828, 0.6952366256056426, 2.3425131935633257, 2.379454265945599, 1.1505461558599581, 1.3936512049720615, 1.5331126207265378, 4.730560540507374, -1.3564262913708502, -0.003367450228169674, 1.4133330409345648, -2.093315139588038, 0.26514489603584057, -0.06090861270826392, 0.7927290839238122, -0.2640644043931193, -0.26162239092141126, 2.802677201315963, 1.2909285257900214, 0.08662312745053782, 3.0177888338065277, -1.42717059728277, -1.0146999303595872, -1.0232772289481853, -1.4204660983427433, 1.2774968569997205, 1.4757046630527915, -0.5745553821354314, 0.18424143010048152, 0.8711894177294377, -0.6585305857965028, -0.28959154618999866, 1.855044989227839, 0.9079554036666401, -0.12628223127612578, -0.36971477860160806, 2.6376758954006494, -2.905715100016372, -2.800431127170701, -0.33080491182873545, -2.752840215322948, -1.8088389069491668, -0.4542800551878968, -2.1818026141391975, 0.00640588355091915, -0.9356453350857924, -0.5920403229117003, -0.6798736911667855, 1.7390535472614839, 0.7248914411568891, 2.6230227142481795, 1.5270458200969044, 1.689980430197264, -0.7430456672099159, -1.5155609486757036, -0.6610666244841743, 1.591130669702226, 0.08294089620182442, -1.5605261665703285, -2.3567112052902273, -0.9159330234120998, -0.4522522124672204, 0.9267554317290273, 3.716437121946843, -0.08211569332708216, 3.103702886962354, 0.15513861703530193, 0.6353046628599882, 1.0404365248542649, -2.5834565868464137, 0.5163085485978453, -0.00435722978769854, 0.5366332530206742, 1.0773687894614254, 1.1411650726516334, -2.255095545891653, -0.5153894816622391, 1.2060869284633873, 1.8273173188999354, 0.28384083446945596, -1.0610741814797604, -1.6001041203548043, 1.3713509787376539, -0.1699945786775965, 0.7521838116317917, -0.6349554717367442, 0.1924252046972743, 2.244094736892728, -1.0725660690588883, -3.0127225372041724, -0.15475367321858016, -1.7468506352418633, -2.396090787408752, -0.06815811291130996, -3.0375443907182262, 0.925496414743498, 1.0172432452143563, -1.7090554115571348, 0.1615776839422118, -1.0621150838110827, 1.2688388365473986, 0.6250334693072266, 0.288211177535658, 1.7486611114474322, -0.3301664597049497, 2.1823138406448206, 0.31180328327474066, 0.187620623647254, -0.6120593568522164, 3.137790857092486, 0.7916597182238415, 3.25985703917505, -2.5333295185307545, 0.7451946947464394, 0.8959800229851264, 0.45586788988178867, -1.0923055497913632, 1.5959679404292377, -1.7274306378390585], [-1.6980134243512222, 1.9056417808751007, 0.7658412722519143, 1.8280849154490537, 0.8117824219902755, 0.73320643591225, 1.892312530720042, -0.694991513807528, 0.5703777379588684, 2.612455925216052, -1.470464184230345, -0.5664336765056773, -0.5571583661118186, -2.6314816642727688, 0.4165589424046679, 0.19640926110086412, -0.5456778864524824, -0.595425563971296, 2.8519710730375323, 0.11605528581938951, -1.3572600281834923, 0.8217336632907626, 0.4327794054142246, 1.7544980995392863, -0.1806394262595996, -0.9425457901758306, 0.791315197498196, 1.535529740195704, -0.26218105126321906, 4.634534120179651, -0.9750862123870139, -1.3844156967118066, 0.713881179774488, 2.1637163722861334, 0.9023235219763746, -1.4726388793903105, 1.3277419861334565, 0.37391814589433847, 1.1807619124632514, -0.22428025380966973, -0.8091139428981124, 0.48323634915401464, -2.28214205626862, -1.4989904294232916, -1.7192513725872318, -0.2092061439231907, -1.7788041664784133, -1.05047893129234, 1.1620392154203576, 0.284641796085489, 1.6963822313719543, 0.4244742972364151, 2.225821337709584, 1.0184308575456225, -0.2347121154487304, -0.6918835330817544, -1.1619897893689486, -0.9895027005896169, -1.8114759998732788, -0.7037135763272084, -0.5365864591384225, -0.8149213776503041, -1.641193484576855, 1.5109423414861736, 3.0524506375073495, -1.1966486827930771, 0.5663364497021932, -0.8318734996221222, 0.7249220565034182, -1.6746274284412856, -0.6095575639341593, 0.47940822544105227, 1.733274062205569, 1.758704819075286, 3.091736885663715, -0.02915329617392366, 0.09902566613312866, 2.297092834589339, 0.6882302983956153, 1.0634547665105345, 1.4037607508882248, 2.430578647545837, -0.13109732580877625, 1.4621882767603138, -0.16009372880178996, 2.306072995177435, 0.41857443377724657, 3.009745596762492, 1.3830009257389715, -0.9684403750509372, -0.5063476275109731, -2.796582179775805, 0.4382284612301661, -1.7776096449788659, -1.2552539887358165, -2.343917569065007, -0.2880320920442022, -0.4686388578460349, -0.42326396109219144, 1.1285911591080904, 0.329716744312034, 2.0966329152166616, 1.1895249814121949, -0.2956919657737926, 2.1903970894987874, 2.3339324446877283, 1.4591683759470517, -0.46513378171206493, -2.2529383964575813, 1.3369988788654168, 0.7729061902953539, 0.5235940407171634, 0.17882537910234203, -1.2138619749773394, 1.0691319705409377, 0.4609801424109674, -0.3169685139098474, -0.8518268448479869, -1.117246447348368, 0.17573057752638324], [2.20696524412675, 0.8736214297487316, -0.18879805505577976, -0.5577016027795513, -1.8992118795768007, -1.7943687569775204, 1.216802485186592, 0.3654943029874632, 3.1009485249161646, 3.145839880584239, 0.547962542889511, 1.0056919164566276, 0.027639630993683918, -0.6434603891540976, -0.4931790229845483, -1.5245160348071194, -1.184993991844862, 0.8089704024768123, -0.4789411119259717, -0.2974932621171982, -0.8797442196007924, 1.1324794101580749, -1.5372516180536853, 1.1246130263262206, -1.886447846393256, -2.897477953650331, 0.10720441897709357, -1.536340460425871, -4.671101191946912, 1.3923318172223973, -0.7123216748650398, 0.8354793071517198, -2.4547804246839453, 0.19409329312012694, 2.567669280773554, 0.46408762634047324, -0.6020121138263589, 1.1490560654105293, 2.9676899549406723, -1.3332574847360874, 0.1059967585916772, 1.3695759409342798, -0.8044607236082604, 1.2676529135675088, 1.828423606618145, 0.8064288887044562, 0.00709729190326909, 0.04744707704011821, 1.2735984492690688, -1.873123282587001, 1.9409261248918952, 0.5869560395317491, -0.07217349852203493, -1.0824028572613404, 0.5668783475800936, 0.7338575469343248, -0.5380616544317265, -0.3536983904111139, 0.06337303454787137, 0.47775017344234827, -0.1468889806943395, -1.4233139586254038, -1.5088450280387313, 1.2013842799683498, 2.161657416899507, -0.9298151167898299, -0.06268522693646009, -2.3694782716232052, -1.9309276326968965, -5.320598674905431, 0.2561083350706248, 0.3055957733114864, -0.12897248992776564, 0.17418277767845877, 2.1336361690630694, -0.1774266822748443, -0.2038602060525416, -1.1630629709042015, 1.4336488241475254, 0.8289885955490868, -1.6135443219613477, -1.3177213347059982, -0.1516306422833639, 1.5833689525932948, 0.6883853621577851, -1.043075473670878, -0.392850350391455, 1.0186588627391107, 0.9760699715848867, 0.9692377117038394, -2.058916632434608, -1.879835191488848, 0.9687534356575475, -0.7342580656526126, 2.36694619372456, 0.3125768208611276, -0.8078620047621383, 0.5011664716502521, -1.2405033786117903, 5.747381611577487, -0.8795903011385564, 0.7139515226037699, 1.4342161384465484, 2.3241507606193172, 0.6122362739114167, 6.058214558194252, -0.8365608270178344, -1.8063323383269498, 1.123827921985089, 0.04315060323220541, -0.9731830125177279, -0.9054781254353536, -0.6783418677191875, 0.9386539829460467, 0.40193315580542976, 0.7641569476522964, 0.400896927714314, -0.7696990401959982, -0.8905155385524721, -0.13728603182022323], [4.264040028106606, -1.596026655049168, -0.4282073261273075, 0.5724175110559837, 2.269285013791464, -0.8259680912782438, 0.7368257328422706, 0.24105536871612349, -0.329518049583138, 2.400230379346353, -0.6436695845042308, -1.8390119244955816, -0.14119569674230198, 1.50126319586788, 0.2291271689998089, 0.5870038192968369, -1.9253332411924438, -0.8658207630738259, -0.9391989196825554, 0.8839940473867719, -1.027488699739574, -0.27009222289284085, 1.7890886276885587, -1.0929905165897564, 1.9802923611049237, -1.1376579422779096, -0.8985547068505308, -1.1772629955959644, -2.370316901520946, -2.1603116273513217, 0.77265826383569, 0.34217938287027705, 0.15225072437106998, 0.8874858768712408, 0.8087488098808077, 0.22861188345941966, -2.980012720968985, 4.8294932968289155, 2.5236986465191746, -3.6601025138806067, 1.509743342922715, 0.9667439014749445, 0.37160422813876826, -4.07031303538518, 0.29220028066369275, -1.574650920172316, -1.566701235546522, 5.441245348543244, -0.5381315006460683, -3.4367871239981094, 4.5955534511305105, 0.24056524076578895, -0.8446466637167025, -1.0812461216914278, 2.328079242901962, 1.1502311179614702, -0.3915251931002032, 0.5604577795154353, 0.6716052932665684, -2.1682218525591384, 1.526262809405178, 1.6032436050496153, -0.5387806506430487, 2.9631378346749573, 2.9719122440592995, 1.0408276067510784, 0.1304390669180824, 2.8933989024535136, -0.9673511046765417, -4.897069456964304, 1.6178606249420298, -1.2101310011460737, -0.5907226625897559, 0.09637341529043017, -0.2875842518317652, 0.12430175772315939, -1.387782856598866, 1.1202428427309399, -0.06873801649859128, 1.8714088925311392, -2.322944170538207, -0.5108861711205812, -1.1563097772155488, 2.291489727088002, -1.5547549865818204, -1.925323377847091, -0.10442064488451579, 0.00012749539727432022, -0.10409378615501201, -0.3713025508802654, -0.32168484236649764, -1.2596241721350487, 1.2763232392787982, -1.7405970812751028, 0.5825823748382438, 4.437579426537369, 2.062617247805269, -0.623798585211502, -0.08932531855328477, 2.7373712182889225, -0.5628238616284387, -1.056430326723293, 0.9423929700551414, 4.19951077807672, -2.030063498723335, -0.4948137312061981, 0.3314341711532429, -1.4885365818613518, 3.0723788292555114, -0.039759654792617276, -4.44697995341766, -0.01582632308265898, -2.0653932327299724, 1.7672355988762933, -1.280284487017752, -0.5797240338284787, -0.5209480817402621, -1.3803521149753437, 2.2018218848756748, 0.1801417160618737], [4.699512650494675, -0.7954347430229725, -0.5200751176096499, -2.8819928279930727, 3.510807890830538, 1.0917201700782428, 1.0811752552281162, -0.4198600923020922, 1.7997258556319458, 0.7143849029039415, 1.7134151612496749, -1.0470758903517146, 2.286242411136925, -0.13343156147571192, -0.7508432831429751, -0.15962087056749905, 0.018511692946568598, -1.0809095128140447, -1.8246250363653742, 0.08044739646901804, -1.1862990994369722, -1.1538241968393566, -2.921618178800015, -0.19978942499740746, -2.0975628860477187, 0.9547099714876587, 1.8756900545944217, 1.0753852630831604, -0.10947403379067658, 0.8799893044296385, 1.862276863268636, 2.6410839470396654, 1.5859989397586907, 0.10301526969841818, -1.7997896243092126, 1.3709531871760705, 0.05025077025563015, 1.2409459253045054, 6.916582103549661, 2.5605122596244554, -0.22310301721111378, -1.6993806796454305, 0.7859522980111213, -5.507409799724398, 2.536721995694265, 0.21952904041796428, 1.7032601017332967, -3.5187187336206835, -0.3533614096511687, -0.010227831095253328, 0.8331741977325143, 0.9122575866584938, 1.0168982317735629, -0.7089095953684431, 8.294105339707308, -0.5157331872410972, 0.8604324062230266, 0.9863755704633328, -0.7935479933642352, -1.8894436804181693, 1.5002734103103372, 0.7962752969963718, 1.7277101035996956, -0.5074939171031889, 3.774529963339826, 0.18692075514960332, 1.8375310238398581, 1.933081756221625, 2.568927626955189, -0.5334449387489855, 0.5913769907921724, -0.2543482953416168, -0.4286694833070884, 0.37509897310256884, -0.569828795355426, 0.6966079793830311, 0.8944372038207222, 0.558079329032575, -1.088545997921271, -1.063028548671188, 1.0111306781804372, -1.0782828146128858, -0.518588042800039, 0.6008096844722655, -0.4268885640771329, -1.2213401835495827, 1.3604953659875578, -0.15788862589845615, 0.22959083158055338, -0.3301619653334896, 1.0068816550985342, -0.16131132400102885, -0.9554396137062965, -0.10559020052422091, -0.576786282546849, 7.354972981823324, 1.2471041537131256, -0.2534460971827307, 0.6509345718584418, 0.10879475095333109, 0.6049995510443906, -0.23486632977082197, 1.510386295370223, 2.7822838229966456, -1.212814987336692, 0.3717282314473776, -1.4251875479016047, 1.9252644669037817, 2.845047602695479, -0.42685302065708947, -4.025124342771758, 0.02373423805551549, -4.461378876071317, -1.9662299646452173, -0.09782562823962516, 0.11970738471714885, -0.12143269355600912, 1.6076137152394416, -1.1993664087274791, -0.8594584122187812], [-2.6828246345248576, 2.057293849571079, -2.925920640106362, -2.0216399986479825, 5.4397662335484025, 0.7469885578130343, -0.22083375507862485, 0.9550163425722311, 2.4359984124988747, 1.7903910610981406, 0.7932208833706007, 0.6424461134159302, -0.5565257013732575, 1.0506281515745832, -0.3652553211889416, 0.4060314138745871, -0.8834835521508844, -0.6311959805691827, -0.09474193653233719, -0.12970403108796383, -0.030614235564984566, -0.4428302853599951, -2.8517181906899167, 0.5354555333278829, 1.4370564928389307, 1.7597118906607605, -2.217230213618061, 1.6839630523600093, 1.0936825191878774, 0.7427085951451448, 2.045574581185617, 1.0448501488689228, 1.3700196576311112, 0.20999792191139496, -0.2184560389034908, 0.3811853957985199, -3.979901746737678, -1.030459054651184, -0.33746126761637585, -1.7481624843901962, -0.23792413713910074, -1.5685909262386117, 1.5259879744833225, -3.576057524678399, -1.8812682489582198, -0.45898172702225914, 1.7549004339458047, 0.0871969357259902, -1.653141948101915, 2.7651932155339276, 0.6171644474101278, -1.0209323622528077, 1.0194297811668083, 0.7634399352961628, 0.2568422547882653, 3.320819693635402, 0.8100780833494636, -0.6259846187176143, -0.5561583252505958, -0.030394077836383492, -0.901848019401356, -1.2558497575614656, 1.332933534101572, -0.49224035475081135, 2.8167004422439286, -0.45155994558609086, 3.5467309038292734, -0.028145919331775456, 1.1210057886657387, -0.560491600566748, 1.421800089128533, 3.5307267481449984, -0.1042407282560781, -0.885203275090284, 1.5291011778457686, 1.3202102055354739, -1.2137606769352731, -1.456807425815824, -0.7166333711250209, 0.5512840909310153, -0.31793689410352566, 0.09611505319129167, 0.33026729315224895, -2.6531341173258167, -0.28774783953762256, -0.35213551495937423, -0.20287144186109127, 0.7722316038659872, -0.1139500184930802, 0.5846180033426103, 0.6666182418475081, 1.411345088417548, -3.257846887292518, -0.18081549111020384, 0.6586392036164332, 0.33137076836870955, -0.8840045787728145, -1.2636800411794542, 1.528352945483089, -1.8320729346670577, -0.5407435886278369, 1.7067209159078973, -1.5104374698235619, 0.7319136337212073, -3.697885858154095, 3.362906711080017, -0.13728536325702592, -0.2888658996550351, -0.20350282512745052, -0.5014590355014136, -4.727748769821881, 0.1786123077298193, 0.19681485499877788, 0.9820053983708117, 0.41614872795995184, -0.22181565536878955, -0.18339686454542084, -1.0759981284137816, -0.7281398945361337, 0.018143666548129146], [-2.8341453255605726, 1.0597241989029447, 0.8600731021244479, 1.1133934143375106, -3.030670607365674, -0.24089017740634344, 0.003527041694825806, -1.1511371717028722, 2.1820766034247057, 4.530657368510786, -2.0996088378366293, 2.7857483262864298, 1.5076742328798207, 0.27665743234482376, -0.7282270522525026, -1.201566823198281, -1.9643330264931376, -2.029680464866482, 1.9869280962858022, 0.08858296911458452, -1.7101748216915194, -0.9682051547185168, -2.18416516262128, 1.3265177708278888, -1.8349647078610714, 1.9660637101862453, -0.041053481803396866, 0.552356915547026, 4.101946804975008, 2.79675086307872, -0.9558715227923136, 0.17769169870980184, 0.17211764315952247, -2.0739583609496046, 0.33253099171164124, -1.6574164063634897, -0.9100685775149285, -3.629791039350775, -0.4002899344723613, -0.8398771347392008, 0.018409754310394252, 0.07890962714287411, -0.3478654080555065, -3.347118141369341, -0.3919963758585712, -2.227909978162133, -2.1588350835640684, 2.7794219957380792, 1.0739031290249699, 0.44749803562383983, -6.611956301193454, -1.709271567233704, -1.5322142858437529, 0.02574367740126963, 1.562410070335969, 2.927152178487478, -1.3482189575244363, -1.1561375354769339, 2.128922930857985, -10.221941908198287, -0.4894526443427564, -1.1825727514988058, 1.54239804556088, -1.5563441421421809, 0.15482611690569822, 0.6525548013582301, 0.7792054064005951, -3.854281783787671, -8.093881963958632, 1.316356688448285, 0.6890915612050308, 6.4617190220164575, -0.8208802146112635, 1.077565285228426, 0.24105328828326117, -1.2191519784358873, -5.849188675547341, 3.424353265333197, -8.239200533621553, -1.2060567229475982, 0.04985784339978835, -1.2869253875400952, 0.03494021639509637, -2.780560995086725, 0.020979829911307007, -1.6381776439063376, 0.8726745541319844, -1.9076901281433272, 0.1417175383763651, -0.9681725344756029, 0.26380207513431386, -0.09312058655342786, -3.4363520810917687, -0.49797492741704513, -0.9406634677860021, -1.9741616696031832, -0.3032186636043622, -1.0386628375502303, 0.5404031391825536, -8.248791990783639, -0.4695326518093951, -2.6231046668265487, -0.5305796871564904, 0.7026139258028383, 0.19376212169459567, -0.7084918830513344, 2.0955974102792116, -7.130135927966929, -2.064689091770252, 1.1681754133439421, 1.3427691322162296, -0.9600309464406086, 0.4171953596718664, 1.026940185047803, -0.8549276685052789, 0.17950850844876676, 2.1427847745874677, -2.038872675056092, -0.3240283391232184, 0.17896797345830698], [-1.0268780470256234, 0.7720490917313627, -2.138372155930778, 1.0054642647343985, -3.6937654517165006, 1.1876788248693244, -1.9847349708685587, 1.6970299670879099, 1.4803057420419807, -0.34700442823369, 0.336743523046838, 3.1679940588174826, 0.16062535743860512, -0.21631737783792399, -0.8043439259542978, -0.839873534284097, -4.113119207078442, 1.3716013469311727, 3.3862745626461255, -1.989440895943436, 1.7375216020089244, -0.6286013031825554, 0.04326411712415985, 0.5613272467716061, 0.5959110804010105, 1.4249144512057181, 0.8482890441585362, 1.245844893823773, 3.8333321910064506, 4.489786949536893, 0.9900718506612473, 0.445955982761555, -0.6516216769724399, 0.9401463021755571, -1.3623014114688432, -0.5554968004535358, 2.3658550231280873, -1.9664054986529274, -3.7139857557131988, 4.570320353189745, 0.6759835908065495, 1.3144359589481083, -0.3197712890530885, -1.0247593576480658, -0.28505841420016276, -3.7992086469572186, -0.9726425668789305, 8.495627173151926, 1.4221202976731395, 2.465971411873574, -1.955702696875012, -0.07688598582269701, -0.2902782320024938, -1.3248738562854234, -4.3075004972969895, -0.6025549201011563, -0.05571178572620779, -0.8862650372747127, -0.5151784512401675, -3.0178197797753437, 2.1141792242244515, 1.2468084841601028, 2.064476143472625, -1.0335081425048123, -0.7485268712249298, -1.0715471236148704, -3.9055775268564092, -1.6383706699310607, -3.6740784835261615, 2.973495249362589, -0.39344812391898576, 0.5495640528965291, -0.13906826581012532, 1.1229460653381542, -1.0547352697611938, -1.0377654454125749, -2.7858767024544755, -0.6227634833442919, -2.7950444122088496, -2.718715069575008, -0.44238063999394417, -0.4366565733637148, 0.835719962067044, -4.01731383229374, -2.2215120986236045, 1.7042915661255282, 0.5880050857957212, -0.688446005990159, -0.13982615707342852, 1.064784952858641, -2.1591698052999813, 0.8509550099795191, -1.735807200861251, 0.41845684221249596, 0.19462787821287647, -2.9943291569832953, -0.21436588238026694, 1.769621395057013, 0.9136140747881993, -4.330219592812299, -0.14943723446896662, -2.3963146032030935, 0.7545456081613839, -0.8080076575863098, 1.1440587692485946, -7.125045128961262, 0.18399588953572057, -0.866395877837676, -1.722411447365491, 1.660780632203953, 0.5229371043536771, 1.1694989399564348, -1.6501405219355758, 5.398732070393806, -0.9039643908764348, -1.501605806489425, 2.0307599111434995, 2.131626274910714, -1.1285607374312596, -1.179261120332012], [1.4659332345849339, -1.018440562006412, -0.6549909108971796, -1.2280249852741412, -0.8598554626499196, -0.08204386241490702, 0.45130934908806514, -0.9179184410301477, -0.5752136698053314, -2.1635428229779325, -0.7324265213411847, 1.0720328666344403, -0.7645427934979953, -0.2878503419534374, -2.094235542845237, 0.630198204682685, -2.597522925342336, 0.03617152487132384, -0.9415440502339669, -1.1833548024405687, 0.10569582085968632, -0.10986065362411432, 1.1603350633478395, 1.937954476540059, 0.2609119059448304, -0.21794003962158032, 0.6849474699119154, -0.28711377591864395, -1.3610200915896793, -2.016795968931617, 2.275965740876914, 0.31968468288621266, -0.4951213296494234, 0.3423447143844974, -1.406631785041216, 0.16119039627547013, 3.311601344258206, -2.397927290868819, -0.8712763799663813, 2.050042878041606, -0.839849795940466, -1.980622949082642, -0.5275243521730659, -0.8923691248590756, -0.726161365761747, -0.31471522107822036, 0.04954858787724814, 0.583474582994275, 0.36943564754017233, 4.3443284611778665, -0.5876073777065797, 1.5770917321440774, -1.7218269958211558, 0.4484562089243299, -2.1286805943418226, -1.3083962902000597, -0.9241975626958567, 0.0678637274632147, -0.5153035747821086, -2.7816835184419486, -0.04446060091220371, 2.1470557397868935, 2.990099111605149, 1.9831149117160907, -0.6725236772721428, -0.770732688261177, 0.5565566820421541, 2.121121283992529, 1.1584894250534645, -0.40187203797644194, -0.3795447515534909, 0.8550578103613105, 0.24643756606895784, 0.16696434373639946, -0.28903295969133996, 2.4111876904251988, -5.707240704934016, -0.27297692977566423, 3.333342010794897, 0.810687565882916, 1.9178617201316126, -0.7395143017209346, -1.0320281583502706, 0.8725756987041702, -2.001780508746546, -0.8373686049662067, 0.6639509445743966, -1.0565870274270512, 1.0853610297284566, 0.3110318419651877, -0.8441474242273409, 0.1416679064720842, -2.660167777553052, 0.5650954909751147, 1.189026634558425, 1.1422890214853358, 4.345912687603349, 0.5465311692195911, 0.14735810095897353, -0.8836171950814157, -0.1366599647406652, -5.3178802033137265, 0.32730437506241733, -5.754250833424168, -0.34020549104775955, -2.3816832157919148, -0.86391276261711, 1.5651294027347267, -0.9188600413559165, -0.8805359322778863, -3.404647932755919, 0.45998517056447147, -2.2098405415653617, 0.2553221498447711, 0.3424447360476246, 0.6183743533345981, -0.6837264011411918, 0.43129048191355535, 0.7307812601897625, -0.16754737191456628], [3.578789291060236, -1.4638539188925341, 1.1909879410811546, -0.7202677062860846, -0.487228651179421, -0.1707854946566162, 0.2701670190948891, -1.6164663589170605, 0.1348593830359182, -1.5615397333562686, 0.7713246521175248, 0.03351172242658805, 1.9695885016635153, 0.68085629795613, -1.7045171460019006, -0.3690398786279465, -0.3838767779292763, 1.534344127546933, -0.9567287932739929, -0.8097889040188243, -0.7690595172881199, 0.07665971635253549, 6.072026346679499, 0.7315785921808625, 1.4530306174885328, -1.8092707830984784, -0.5307746768853857, -0.2371596415381228, -0.9160761821721737, -2.081314485620804, 1.5484033267273045, 1.8369126496302695, 0.33891010271841077, -1.0463532967077942, -0.3120045519822282, -0.07916480830824926, -3.374001968144738, 1.8709415923147046, -0.7822483053678643, -3.4067052625559064, -1.2275327863927812, -1.3683929439547502, 0.7708529146208452, 3.6410185299043833, 0.5569116780127933, 1.1797763803852452, 2.884777198942143, 3.930900917542912, -2.2167672818820443, 2.0155607676859013, -1.1075550886385588, -1.5503586127121014, 1.0600125239598626, -0.00864360975768302, 2.104466251643976, -0.4388670824691617, 0.7521158392674279, -0.026553089234118334, 1.9909736662725166, -0.5472655432338659, -0.04381731221389928, -0.07644854873557645, 0.24855816483945006, -0.7831389508207075, 1.9049283218239779, 1.2665907700973977, -1.3962115539255966, -0.9377547119438754, 2.3187676099691443, 1.2218462380537276, -1.1950819007696254, -4.876126544066341, 0.5165532187968392, -1.007409476324541, -0.058746635106631855, -0.6403747631947114, -2.047766640265204, -0.9230679155574961, 0.4838511931463457, 1.3680991243738763, 2.4717486482282944, 0.8611821536838832, 0.3458382870151045, 0.7443417786065705, 0.8474507566835392, -0.518264855733674, -1.1599853534386706, -0.6236524646805844, 0.678160965084279, 1.1968957697654588, -0.054483945501819384, 1.2533571782280044, -2.283776657066945, -0.34819884015939334, -0.3173873238546087, 4.781067597812732, -0.3442297895159323, 1.230719636532054, 0.1514992702605677, -0.7217987911766471, 0.5212572880979982, -0.6416806014978756, 0.29646244305209324, -1.8334726736429348, -0.9113041827099291, 0.5186702885677846, 0.06111364275591602, 5.340165976917138, -0.8029721692151335, 1.2522584516442012, -2.977465175031712, -0.6980955575842652, 1.8476605560115735, -0.886346985548736, 0.17437945200116448, 0.5742908374513432, -1.7136707804342268, -0.3180994529864174, 2.0677984571116057, -0.21544939487795287], [1.7632559562174444, 1.0098565185054758, 1.0474768139376625, -0.3312200423339338, -2.193544439437601, 1.683509799222489, -0.30967157162659464, -1.8653614515806753, -1.1441068173475635, -0.2560638735622846, -0.679168432765352, -4.236028765705812, -0.6083102081976542, 1.708510470021972, -1.2665389815104027, -1.3722170651939494, 0.9005449442467683, 0.622709328576617, 0.787121363603279, 0.9600805795678605, -1.5764969180773003, 0.21436075634651908, 0.08436957487261863, 1.1229184919293924, -0.04494006205015844, 0.2967923768976034, -0.857711393355735, -1.072714885909462, -0.8603015844263455, 0.6426731226861244, -0.11727031072131937, 0.6560019842158479, -1.05467414056754, -1.2054794663758777, -0.9520728395967611, -1.7054324779215755, -2.0527986559364915, 3.766827315210918, 3.6125059812927374, -1.233125214432735, 0.6320737934307619, 0.8744844632543969, 2.254562119413759, 3.21251570840655, 0.4452446424942097, 3.0663630825042585, 2.349107875613574, -0.8866064699401056, 0.04255174935822989, -2.54225396049475, 1.2613280345653552, -1.4900091046706867, -0.4863541150034203, -0.14082549027574912, 2.3927772966744496, -1.6254126723859885, -0.33758175477590135, -0.5402505663340045, -1.6113105588307584, -0.46922251809670457, 1.7427055986560065, -1.023805914191802, -2.5194558344381583, -0.8843605313567479, 5.119455448919269, 0.39035401749241744, -0.43005837402933106, -2.870713451505599, 5.0497394217379865, -3.8816824941950676, 0.8815106039712446, 2.41287760490165, -0.8797943364685825, -0.455141126989874, 1.0021900134259658, 0.09017213042746104, -2.0915138019634596, 3.1955867337808073, 1.8966862807683966, 0.10036752362196415, 2.7030216332110197, 0.06353353663640009, 1.349475219148372, -0.8264171349058678, -2.4225936298186554, -1.244249825756754, -2.7798815587014407, 1.2480606669684682, 0.1180803367736741, -1.6558730669058452, -1.4449087523057231, -0.8320078476268615, -1.7644615323311164, -0.9223531184720554, -1.1930952296493187, 4.605763519417773, -0.4882013526180321, -1.34212322135561, -0.4829743082720698, 1.2831501988582636, -0.9689346297579078, 3.3882763341889306, 1.5005658269727054, 1.9867736893722698, 0.05680509023843242, -1.9663297766156846, 0.01850202153854813, 5.839577487384922, 0.3964111904458178, -0.38870080166517734, -2.1931541463904125, -0.25389952334441285, -1.83113200791989, -1.6993913337285034, -0.9161581677377846, 0.5961112031317277, -0.7014003440939697, -2.1824292788476094, 1.8208564436282788, -0.9120228176412299], [0.555764335663623, 1.2530672133039482, 1.4353423987513918, -1.5192383456975012, 1.1572975936928656, 0.5731825741178799, 0.75710830575855, 1.3659757858650743, -1.2490377177455652, 2.8863049626696693, -0.7044902815443239, -0.7363998747518129, -1.5441497161624207, 0.2542886160164882, -0.9895282585213502, 0.20116264605940073, -1.5464091570323755, -0.10856943428450455, -1.6081663298743576, -0.5199448977886963, 0.016816468689892578, 0.7804582017867556, 1.2746160460483564, 0.4129842650421461, -0.1572968051305355, 3.0767305190464467, 1.9626132287331701, 1.0366998170670778, -0.3593830521097763, 0.2158802279353816, -2.1233966720749864, 1.038228539473522, -0.48832178616380734, 0.6552880781608672, -0.17160119526648476, 0.4931785378887302, -2.271007841922637, 0.34436874767566683, 2.1017463447333613, -0.9567725573544296, -1.5325083106028585, -2.7790296083140893, -0.07431849545055981, -0.9121098866077414, 0.44737037158859494, 1.87727841379165, -3.183470727142954, 1.0698473831111914, -1.6412574291274433, -2.2403783448458867, 0.8703931664727217, -0.38671584060540726, 1.5970021723647196, 1.4368863751408314, -1.395401039669954, 1.3473884952181923, 0.3852078153526901, -0.954227140923485, -2.793725020768033, -0.8038591531021306, -0.11233818026533188, -1.5468167283067906, -2.4528153809358484, -0.811056240306759, 2.559160075642821, -1.5554145735630776, 0.5627208256700873, 1.9191277937741342, -2.771989037131998, -5.467839294480254, -0.9806120836969809, -2.3951668077964396, -0.44959768784930026, 1.8646289803447607, 0.5498398657829227, 0.12691748192770175, 0.23382806392136377, -0.025508162674549494, 0.7175592272607153, -0.49537599718249103, 0.14531618787575187, 2.0013009339954864, 0.5514760807999419, -0.2989068356744837, 0.004631636849732022, 0.16055335644879715, 0.03655860868884549, 0.0025876935436664997, 1.2041310830875274, 0.7044063473603175, -2.4947705657361494, -2.354182406821316, 1.7305488574288321, 1.0889163749362587, -2.8918981378809745, -1.1792402032185796, 0.29952029387657175, 0.8919900678799413, 0.22634590263401783, 3.2790976923716855, 0.23375221827189874, 1.3742589568654435, 0.5200895945221, -0.7541638138597888, -2.8356007735831965, 3.076571288806351, 0.541513510040573, 2.259945763966604, 2.218051825817017, 0.8917696848429368, 1.2138534551251743, 0.6932113095137212, 1.4126190318221703, 1.5800921723124834, 0.7821968343849983, 0.1318416432642198, -0.4890757983398363, 1.6919879646893294, -1.0793648653960208, 0.6665891607529004], [-0.642677230301842, 1.5980698021661421, -0.5448382298119256, 0.8613595037355933, 2.2415465038607865, 1.8900174828797187, 1.6358873855323808, 0.8800848550441277, 1.3665715670216358, 1.6010273494617138, 0.815031980910375, 0.31584719855824084, -1.178516421981115, -1.3506080348433225, 0.33105364027170897, 0.5381705624010872, -0.07808596208782705, 0.8392225036498175, 4.196113319786131, 0.38531235253683305, -0.32057781847029243, -0.5632550607579081, 0.3454229052604376, 0.9325407745631161, -1.1202353680918624, -4.289878898972357, 1.8951182067760841, 1.6164136138408118, -1.4551820710735908, 2.4690215834170663, -1.431960343546905, 0.9575364510335428, -1.1393634124382002, 2.164192461592869, 2.60817681989547, -0.09009815744539668, 2.301879687888731, 2.143787808972646, -1.1225067166854992, -1.0101576082734693, -0.37482927772830493, -0.808556236640007, -2.046100335464788, -0.5891990349612491, -0.38550590014795344, 0.43894166126248024, -0.7902898902242977, -0.9884027190943986, -1.1084955812818684, -1.1626293116224615, 0.6461004406777909, 2.1226479417236495, 0.39399929805318845, 2.1707353325762035, -1.8590547819878975, -0.42270720339813567, 0.8525703693373365, 2.06984005967645, -0.1036111504150015, 0.285450946725024, -0.6195439513912632, -1.0920496772514094, -2.5713113718268783, 0.716008185948302, 1.6154778635321356, -2.16250179110074, 2.592559637347986, -0.6472121041655781, 3.2140172086242162, -0.16114042863356995, -0.774369465150164, -1.170171357071576, 0.6068350602696144, 0.9045769912530209, 0.9998756225281892, 0.7443239999241809, 0.5970599230142011, -2.0718048580353106, 0.6866019214724387, 3.427262677678605, 1.617806044806304, 1.1107280181776198, -0.42397961080821994, 2.415701959298531, -0.435770161564144, 2.4478128982138996, 1.7175641367613625, 1.5852108997553973, -0.03945456913192581, -0.3263059438195399, -2.6175634419797724, -0.9313434216211522, -0.29118928943119726, 0.13248008058858277, -0.7681543237906376, -1.8581638522032409, 1.9517718802531403, -0.13041963602766218, -0.9816440825110652, -0.5009450552275596, -2.134469704756589, 0.8266575076982944, 3.2651136730731483, -2.0204659927051543, 2.9508297191847705, -0.4627489690567556, 1.1740858847698545, -1.5676411952425027, -1.739565657740096, -0.391944512518098, -0.48592045214664126, 1.3109632926637254, -0.7636969873358794, 0.5350106168210584, -0.41450319844499417, 1.621094251470498, 0.7231797431585439, -1.0152485318157094, -3.607941115034598, -0.9324378371764444], [0.038477492988849726, 0.5980390754426899, -1.2661297040159496, -2.126218242882538, -3.5730377467160546, -0.01356813666279777, 0.24308804158098019, -0.2508706536951276, 2.1169710817977063, 1.7990208417051214, -0.9082480833653741, 1.3878455688101425, -0.6192898033719795, 1.4356684364622287, 0.8911272237011506, -1.1343935243916483, -2.2687103753521574, -0.1919166130776859, -0.6650604820543222, -0.6313415861606101, -0.08169315022419313, 1.152585259190225, 0.9224160304642378, 3.849234130681413, -0.4221036732760901, -2.627901047882044, 0.3717954762440648, 0.41645123870016765, 1.3780028625555638, 1.2710342423273282, -1.9011807409145238, 0.9545232826103546, -0.995265711365256, 0.894103318394375, 1.6666327271984949, 0.8118842842605397, 3.769785169056742, 0.49898505957245876, -1.612011242494338, -2.4569553296861786, -0.683683728208645, -2.4366400443989686, -1.521838311534148, -2.7505207849197966, -1.4893827813104308, 2.556495236907023, -1.727295632084712, -6.509798278291793, -0.15335776954251218, -1.786442723398065, -1.5834763875172828, -0.3096598595387748, 3.930816461060767, 0.43628807997410246, -0.8247056718405248, -1.2053477635599097, -0.19731318903118086, 0.27972691250572973, -2.7179770610333076, 2.7655498884747476, -0.9971167532313354, -0.2739150924190102, -1.2533917261558702, 0.30370732976518683, -1.9263027090045954, 2.3551739507036107, 1.0136372976390384, -1.0133765233740026, 0.1261695365207093, 2.503154170551351, 0.8778020509952016, 1.313662177824989, -1.5285217553728425, 2.5938196467579213, 1.8231507989223914, 3.224164654537341, -1.4801746698374936, -0.45776589069478346, -0.19067492656139287, 0.17550010436780994, 0.7016624320645922, 1.1359194210349148, 0.8823300433953843, 1.9764972920690016, -0.7825186056313223, 0.5675478220967686, 1.7619744978360967, -0.1746488787605855, 1.4581946541087025, 0.655374787547021, -1.5804428347018329, -0.3070463784829705, 1.542100836535325, -1.8038686956333252, -0.07084085339644337, -1.1107515218501594, 1.0429684173314244, -1.6496375897815707, 0.008162734630437134, 0.21612115892506756, -0.3834849002110693, 2.6419471654622924, 0.37150244523541776, -1.3190204047569964, -0.8564752356538634, -0.20392774540090913, -0.546884663704796, 0.9190305369474262, 1.3680560317148145, -2.179546776847887, 0.5752343722052715, 0.34310512281496214, 3.0875602600526815, -0.41700082969303565, -0.6431520970124256, -1.4668961306330504, 1.4828772786403415, -1.6688286002023136, 0.0010566363460462738, -0.9783425262856804], [-0.48196838736838216, -1.68174035569945, -1.2891616504032213, -1.4265387986208171, -2.768589745240967, 0.40919743719666696, 2.210054876287837, -0.23444957547773182, -1.6101531734173324, 2.021234862203747, 1.1409609147945492, 1.722795838709252, -0.6567446795524691, -0.07266940131602077, 0.024872429149618572, -0.7457529716171339, -2.3000278124178375, 0.6915310941143258, -1.5870456686369716, -0.43604030140727856, 0.939064783005615, -1.3349393435369064, 1.3919122755389124, 0.6646290025242915, -1.181465597705154, -2.0698863811697006, 0.4908196982419215, -1.0044076524092989, 1.5248194070485201, 3.261376618672193, -4.66636255408897, -1.6352543647791524, -0.12746398761912045, 0.6197004963750318, -2.143016802342311, -0.466794008395222, 0.2504507368472359, 1.4566110097371245, 0.6651408085866476, -0.7490776809035452, -0.5253416026319429, 0.80660329800573, -3.605808993337314, 2.1687862302956153, 0.78288150436919, 2.584547296882464, 1.7972142646137357, -3.1218757041690206, 0.7975474458755469, -1.2126560690242152, 0.19472125766638645, -1.0361912153184523, -0.20792863662128191, 1.0661549928685015, 0.40887898722409965, 1.2412004601954187, 1.8346523426735475, 0.12101329382024814, 0.3076697251927662, -0.5817269882326428, -2.059385409708021, 0.2289913296411788, -2.902667523084131, 0.07578088147405315, 0.35377174043194726, -0.1095609692327657, -0.4170468232627044, 0.4110989467402188, -1.2098313365493236, -3.180025175225336, -1.829725855104481, -4.025282704164227, 0.5180386776114345, -1.0810524644296753, -0.15340456121364826, -0.6195748625934165, -3.679958835715395, -0.8316223557184108, 1.654694069573454, -0.5526778476775795, 0.017763188271097623, 0.24887851904841138, -1.3846061871620785, 0.043430069058868856, -0.7737508072227934, -0.2495632016896119, -1.1595490354195706, -2.216795180905778, -0.5537342868483137, -0.7543824214096229, -1.2338849619026477, -1.9364713565063145, -0.5919865920264326, 3.0354756083250582, 0.49275892080812256, 0.521354568457365, 0.44222810434606774, -1.2704528135112623, 1.0909246686545933, -0.30132978678751476, 0.5078785152637197, 4.235510780472608, -0.08232907960089117, -0.027717023339665428, -1.966636572247279, 4.57603282955736, -0.2568929806409745, 1.6513433307827228, 0.23537279780576761, 0.09743546874506503, -2.076357388012352, 0.7438230799487372, 1.3018835339977304, 1.743821077517023, 0.2085502843380653, -0.386168203605988, -0.43418995380019, 0.20962692622567797, -0.5144968316919756, 0.2614868362114153], [1.3025435534387944, 0.7366894223303188, 0.4194955135465638, -1.0281864615125407, 0.6452225046101926, -0.34180674000208205, -1.2034499499055087, -1.3585688928475266, 0.17611385747748182, -3.163244624107598, -0.8705947049790217, -5.491579073756971, -0.4579369120615981, -0.8905092338792945, -0.08714099057364391, -1.341257478086799, -0.07143168346766358, -1.4294105838750855, -1.9506395542015078, 1.3535236274543978, 0.5009248549261411, 1.0707599581937077, 5.189842794203354, -1.1708682913297397, 2.1521765485717417, -3.053361393309942, -1.4533877866818627, 0.2358038679256854, -1.8165136558142545, 0.278472034198722, 0.831471916001566, 0.8237311345869284, -0.057764352395749834, 0.8335818813374388, 1.775636297334929, 1.752793225656741, 1.0808440819714888, 1.2670016385845875, 2.4900040241363746, 2.025048335004951, -1.3550996962395945, 0.7425097416607693, -2.5663771290131545, -0.42879198680003233, 0.6398985792241864, 1.3131067963617935, -2.116019473934386, 5.724800721558115, -0.3651464237687252, -1.7450181731499352, -0.6807132753314377, -1.5111558227631623, -0.2389477640536824, 0.11573090482501493, 1.3661238344250863, 0.30430529420423263, 1.162466103753633, -0.9833787189622005, 0.30099001263864206, 2.384954777994196, 0.5514890106476701, 2.987648180621344, -1.0017931542956033, -1.0629648947642976, 3.7203688921022975, 0.7018321939580913, -0.08303676634903903, -0.19314647924794046, -0.8575829503960908, -1.1174220928478347, -0.7739842652899283, -3.9810994940850044, 0.520171115932412, -0.9065051381490106, -2.7163934583324263, -0.7707154138433108, 2.3959946038719075, 0.007118009572189905, -0.5380297227185887, -1.1272356014894158, 0.7405254699872234, -0.7196952478968436, 1.6221847677287724, 3.8746560314495597, 0.10259842151790127, 1.8775751075131581, -1.5532099269300632, 0.09558082108149184, 0.9390488491865786, 1.2816423009112097, 0.03381115683977008, -0.7522889937892663, -2.2377086343984804, -1.085328836082415, 0.49527438327530987, -0.9063460677971381, 0.35788449476453055, 0.9835780371241863, -0.16149231826812402, -0.8276223373384967, 1.386993212054812, 0.41156555405460193, -1.2237347017332707, 2.7174233403053556, -0.9054712788898076, 2.72710688500777, -4.097169991536782, 0.4790618861828953, 0.6749875530219633, 1.2205592686360314, -3.9985648563360345, 0.6770437448315735, -2.6431019106877587, 0.20954086117457396, -0.23279619439003593, 0.6016481972238635, 1.1686686104504893, -0.9669759142282017, -2.811461641729906, -1.2559721999457074], [2.727205905677449, 2.3725094138371996, 0.9462356562350698, -2.195205383701949, 1.5492030787879878, -0.9179068774687692, -0.9676185656193125, -0.555749359124811, 1.7829247745027992, -1.5160785982345206, 0.5918753754063835, -1.802255189837441, -0.4017089308468527, 1.3700727283408254, -0.30985046137707867, -0.2718594934608767, 0.23073409349941265, -1.7816710300403877, -0.5505129026886522, 0.8343640930985768, -0.11956849198929642, -0.21536934630095955, 4.951024694462101, -3.761951038046537, 0.5756114090900406, -3.677064560277002, -0.04292348312891178, 0.18668792165553527, 1.5605709021019458, -2.012977041795103, 1.4587507951654881, 2.293198760073399, -1.0714306164676484, 0.17064115832022927, -1.727818072104376, 0.7568786848866452, 0.6921498500163662, 2.082762145096998, 2.461929869032703, -1.1290025730876052, 0.7438902446898459, 0.8199193004784917, 0.5689491218682041, -0.1509274491014574, -0.15680218168496235, 1.8064559709948724, -1.2027370784775506, 5.03739568715935, 0.4284952329026168, 2.18527099388022, 2.0518931240292373, 0.43235615281756384, -1.669552789983629, -0.5319659684842003, 6.627246364676199, 1.9838009771884506, 0.18509663941451024, 1.0518115210468508, 0.1688262483285568, 0.8492272763706885, 0.4480606346554403, 2.057659699152521, -0.7807049498763988, -0.8085471823838165, 4.292467145686035, 1.478950984038478, -1.626867892270376, -1.8304164743504983, 3.075638891043696, -1.9315397897224789, 0.394045473540641, -5.28766174373846, -0.7078548944798775, -1.600255021503052, -1.2252565111643494, -0.14684347643173648, 2.3772370706927846, 0.48857544784704465, -2.6735095729166063, -0.2798320072476356, 0.6767665355542173, 0.05792243543215254, 0.459734935847215, 2.7843805809022286, 0.8425439162864974, -1.3794062987720446, 0.11977110233284598, -0.563148490252425, 1.2504413402079195, -1.3925135925443126, 1.8276331716477892, 0.2598715741960457, -1.177361161477676, -1.0375256648045648, 2.3621288741224578, 3.2840521148203488, -0.7891241785917286, -1.381365129212069, 0.7089812541528662, 3.097313968886339, 0.6503500787507623, 4.884696558090725, 1.5408736587790024, 2.771269735280205, -0.8465111884080296, 5.426247660538789, -0.21515621144679115, 2.3300874005566614, -0.43658898869551616, -1.379529429342065, -4.0089559305213545, 0.25734545045831275, -0.5031625702520274, -1.0943470116998146, -0.9641914663458788, 0.23770532895952873, -0.08715281651719403, -1.2094937236584307, -1.54874958658229, 1.5802063815808443], [2.8372931694511037, 0.521188879031997, -0.0022692717909257075, -1.264830656199534, -1.4636920007641059, -0.677759662967966, 0.21241672700040948, 1.5795988482883172, 1.0558530655295517, 1.3027277327720765, 0.9294945939529371, 2.4074415591002083, -0.5273251827874609, 0.8989923126294334, -0.11665688828395418, 1.289887322698344, 0.6556724817027213, -0.5571813705055528, -0.8903173745694803, -0.5944033980253555, 0.1852988614821441, 0.4961289254041103, 2.7335485104198303, -3.2629768262440186, -0.5834484266876407, -1.155801618159109, -1.9499919626710207, 0.9662926993236877, -1.2193339609539615, 0.2828575663642959, 0.4961669853554385, 0.32960378396842605, -0.14214917938461816, 0.5761690649433855, -0.004323167328031639, 2.234227073587279, 3.4123481534808824, -1.793550105650314, -2.1934259656680144, 3.6745402894663037, 0.6483474157341031, -0.9633697483142531, 1.1036890963865083, -5.500748886250701, -0.40102677658497543, 2.9540195085122827, -0.734362316958309, 2.751311047537199, 1.3394229429938247, 1.2221313074337798, -0.24672272871378934, -0.6359326041582091, -0.4978952863597641, 1.1000324943824706, 1.9119201750711183, 3.687081404278018, 1.6943212155542962, -1.1362856193327435, -1.0356031152003204, -2.229538815174936, 1.3669199322814611, 1.9660103123084627, 2.7245935526041363, -1.5618172821802494, 2.9266897977746726, 1.6738445689089216, -0.07617291780647839, 1.4373336883307888, 4.838204140582218, -0.5439510000144085, 1.1876115138527916, -0.9637442274515668, -1.135687949090428, 1.4559498036185379, -1.9300148473419858, 0.07222513060794938, -0.18589292783498226, 0.9481921035323468, 1.0544613444977091, -0.6329428777525526, 0.9413333557794346, 0.177995559896323, 1.6472263250859998, -1.2389148688015992, 0.7765517616035467, 0.5783292056172257, -1.0643291521024112, 0.31945724140324305, -2.6037900763089317, -0.48301835362679313, -2.089816529772941, -0.6207220721611126, -3.934056241105553, -2.5468557631529385, 0.44006413479601464, 1.0074778547272196, -1.397172684782934, 0.6514965366444369, -0.4657481771811762, -3.93412037892236, 0.3106313526927009, 1.48709794735929, 0.7622912387660308, -3.2266837999546407, -4.222092831325069, -0.5468811992135136, 1.0868156932551631, -0.011709166701588962, -2.6998526879101648, 0.3444860470170666, -4.693084404039078, -0.2810273767132499, 1.7204290921030003, -2.3871025992378874, -0.6128358907453577, 1.4225726103038938, -0.4666870557301669, 1.6638703635155343, -0.6463392820434433, -1.7552790718944995], [2.1278739176587402, 0.9139022533015803, -0.28818036181376894, 0.17242339374528035, 0.6964484838277495, 0.9046337912125595, 2.708604233275739, 1.4525437132327763, 0.9524766195858587, 3.1196496538313294, -0.15543160077828486, 1.6359738207409449, 1.4349704989330099, -1.6595833731233571, -0.5022706984079547, -1.0083037985338006, 2.12592904020005, -1.5918083523431399, 5.347150001194467, -1.4244645953318527, -2.014845342407062, 0.9730052520151146, -1.8461831199542222, -0.5809316198689592, 0.6514651169588174, 4.575367513305154, -0.1158295995690773, 0.7747711124469955, -0.556933368282776, 4.3018095821917255, 3.2136029469918066, 2.733047817831867, -1.1700799278098846, -0.2823823454025694, -0.745800320708465, -0.1364300910261689, -3.4587682599290193, -0.693068614380722, -0.09417505969816113, 0.785869920520487, 0.08326322367450936, 1.1725220493923845, 0.2771496105363245, -3.4107343573335953, -0.8228281696078283, 1.5561378293745236, -0.4865892401566638, 2.91191725599901, -0.36629217404478953, -0.01855547544992771, -3.682863050956244, 0.37936038363163244, 2.450382652002243, 0.8903910427797893, -2.2982308729158194, 0.37922104278448215, 0.4115076051434915, 0.12701294561048684, -1.2152161776666919, -0.42277554148770846, 0.1579367194092063, -5.333591801870555, 0.5333978561016274, -1.4410058199965254, 0.25422410172288923, -0.22257057803993974, -1.8028849157837028, -5.845576320712715, -0.0019009348455759243, -0.39557961931510877, -3.107158739052441, 6.840292053493116, 1.2058623315546528, -0.6304337876861352, 1.3248795998776903, 0.9170583734363311, 0.8522182073341127, 1.4812251273914572, -4.051576827844742, 1.0215366841019067, 5.106364975859566, -0.9062455882763952, -0.8317809420422095, -3.3716085202920145, 0.2827518538977917, -0.23096616196252662, -1.0223804676384514, -0.47446169470589894, 0.29366557748165995, -0.9373168074759834, 0.18144340834137798, -2.7454265311965314, -5.410403826868578, 0.1815920560915681, -1.205038971101244, -1.41357083924355, -0.06859673982604565, -0.016680782323758227, 1.9900173977246929, -4.706971800670135, -1.4627018429054537, -2.4006640625421176, 0.6402654505332965, -1.9018877572818003, 1.2212175862181722, -0.12202591200996663, -0.17236609507070813, -1.571725341885946, -2.2287754089598732, 2.0224531809629367, 1.2784446128807248, 0.48642892713253233, 1.8948999273306246, 0.48451127527869053, -0.24503276345670696, -0.9641574082121046, 0.01760536487772953, -0.4092962614311606, -4.540417474964767, -1.1123583425471602], [-2.901963799593166, 2.897715420707419, 0.4626203224137112, 0.14496255725833104, 0.18087808021563118, -1.2547746545553513, 1.4957634980993586, -0.6012010241061867, -0.15869151598173642, -0.7155605814645631, -1.0782128663493555, 1.8241523217386595, 0.15455766415282746, 1.2721244618763201, -1.8040156544576362, 0.18074683747080858, -3.2907092945630905, -0.8126399549883301, 1.5737204439368522, -0.6410877039616832, 1.226301933723857, 1.7984854970397381, 1.840225557981668, -6.1083574844695585, 0.2670129838096904, 2.1128472630680313, -0.4560578092238117, 0.001659287984980948, 3.58352645154148, 4.928425259118396, 2.5499670826148586, 1.2352859239636258, -0.7113206281810747, 0.901064431806347, 0.19043539298520146, 0.82120944145566, -3.117664671878248, -2.3879406628889237, -2.062757846058874, -2.8214308160438053, 1.6530443712451874, 0.42235873448521083, -0.3518653472831753, -0.24235967616763, -2.10271323418299, -1.9829162207618103, 0.8640160922830079, 4.456456253976726, 0.7962737055128222, 3.2184044970107113, -2.597598992462961, -0.38704810767858494, -0.43131099938175654, -1.2146199716573685, 1.6218542389628396, 0.9848696929704218, 0.4874301626428086, 2.252497412900801, 0.3499012772278539, -3.7547418683920903, 1.7153987672679047, -2.1028741723531827, 1.937034736847338, -0.9240704913068729, -1.6698200835568608, 1.1787320396888505, 1.820942981423749, -2.735586567979855, -1.930760259819609, 2.026048823307374, -4.32543603708163, 3.6796768291145754, 3.4542978741819432, 0.4290342341890067, 0.9246123033116213, 1.0769357805688535, -5.688590224402052, 0.7743934649153141, 2.1814657706433604, -1.1347342285488253, -2.3468648098112914, 0.579807951601513, -0.8855611208214396, -3.5070065531675607, 0.5050375967402068, -0.8801935599054941, 0.6609593747863661, -0.8442397666134328, -1.338546500038412, -1.8715998089372803, -0.7690558880238868, -0.0982856886118296, 0.07090797841266507, 0.14170149171510316, -0.9013591103251974, -0.38787852226812014, -0.7402625550863615, -0.48935017991590307, 0.332127398877754, -5.7192834689809215, -0.2929028157918977, 0.4281424377333102, 1.1525817896174242, -0.13439266677475403, -0.9016951163362199, -2.8234697111262825, -1.3968378981466132, -1.2823954419510546, 0.39379294248714497, 2.076176959692971, 4.422501393107663, 0.3692662873745873, -1.6378047495230625, -0.21898184779438687, -0.4261170960126657, 0.15066519613297552, 0.22841809393901827, -0.33376736953143726, 0.8001601452045677, 0.24499779537960928], [-1.6368211835085025, 1.5839873853591984, -0.35653014496504676, -0.4922765650164357, 2.7069851580568542, -0.5045024067988658, -1.1011929704853871, -0.8462217540944614, 0.24878800100707021, -0.3845895015836706, -0.41008298630445944, -1.127091771391635, -2.0102865679252986, 1.5742130197727922, 1.2503202827522302, 0.7576997391544279, -1.1030955373911502, -1.050517039159861, -3.8736517173708283, -1.4819949194366386, 0.6015879212443639, 1.3451986551822261, 1.0513666269712318, -2.197918966662837, -2.460623124899951, -2.1433694980228073, 0.06889588509397497, 0.5241394847725279, -0.6425513860901975, 0.7058530495261686, 1.7978161848195577, 0.2566225626844525, -0.1435540855978217, -1.0210356724631513, -0.37620031443041646, 0.3485577234889768, -0.8064617829234307, 0.016980801421688556, -0.9359956772860129, 3.458988521263919, 1.2982002395996837, -0.13235188532878664, 1.563480334948397, 0.567286177584016, -2.162488460853919, 3.228824482721528, 0.4046480233022113, 1.3090923505159442, 1.1469973951582277, 2.5237917073763336, 1.5350080652975864, 0.6033635601308452, -1.0684065427789347, -0.6025647572160792, -2.5652272060909946, -0.1403102587120976, -0.5257914487212991, -0.3108536426744449, 0.5917496556748925, -5.6411835571857525, 1.3863166826828368, 1.8789655236651241, 0.997786733764137, 3.4421531365577502, -2.526541162133581, -0.07520340428821186, -2.23433378794854, 1.4144370486900002, 1.4184705009896337, -2.1419604927896017, -2.5146310805774363, 0.4802902951880668, 0.5148411974527092, -0.7847766502069986, -0.3987683730754677, -0.09968001527216712, -2.7785751029323777, -1.665305847560612, 4.488795447119468, -4.716450080429591, -2.2226086051020437, -1.3267062417041395, 2.1173094552012666, -3.8326700368097453, 0.5831909482128814, 0.4260450826904205, -2.425660889577436, 0.8857612061361154, 0.7909258608153977, 0.8901444146711546, -1.5451325271659437, 0.9448553682511565, 0.16923709018086217, 2.6393448312694283, 0.9301594180806292, 0.8428470353702365, -0.21738700724126706, -1.5069630983431483, 0.0024073409909372064, 0.17317279373399558, -0.10569990458559746, -0.13323979326510738, -0.8424103477905773, -3.7485457692712556, -1.8861957714403677, -5.633253858251741, -2.643162061120955, -0.8019510514463862, -1.946117424475673, -2.6478592133088426, -2.437234693955394, -3.1690630647600027, -2.721096683917951, 1.5594163088979505, 0.11688036179812605, 1.9290241801761745, 0.46941748039567505, 0.17741192640691877, -1.7265769056542173, 0.6407887310027476], [1.5392598952819592, -0.6970618659385017, -1.231020040872743, -1.4664688081888777, -1.2771196120942834, 1.5553161009951308, 0.12884072170310334, 0.6807121619185428, -0.5331704953653444, 0.876167878896783, -1.0773952223992782, -1.0744350486598067, 0.18160179925765407, 0.7077089616100022, 1.317093841829921, -0.8742130801567419, -4.82427930864134, 0.2309296114088528, -2.9380722104027335, 1.3133556126005521, -1.3879199421426514, -1.083713370323394, 4.436411591808982, -3.848246396493072, -0.2814323328961459, -0.9505210639566608, 0.019935377656313733, -0.17581553915944093, -1.2170878751866114, 1.7566892349825403, 1.2973765510011892, 1.6929744689444544, 0.3221433616497528, -0.21904850315678162, 0.9489172771756359, -0.20571334667832172, -3.929431097205404, 0.05264511142254914, -3.3553301366514727, -0.7464241509483233, 1.3146609983079642, -1.8868676580567942, 1.4650503038581564, 0.222317427381705, 0.09810874612562996, 3.955757933415808, -0.8563729135163619, 3.0982817471327544, -0.17324753878262936, -0.556695889373119, -0.5546019552438773, 1.160415096901222, 1.0115195436914455, 0.4450646457412119, 1.1389915496005747, 0.1763288782333365, 1.072633377640269, 0.37425171843231625, 0.931342909084049, -0.5422861949581571, -1.956301203140325, -0.4923912947381108, -0.17937211526974858, 2.0029697516813023, 0.5317092016516602, 0.0590152256827052, 1.4061067264446439, -0.34808915300268667, -1.3229517595678197, -2.8570117804934156, -1.2308603386754566, -0.0060350766543089485, 0.11644858300922716, 0.47544034637402527, -0.45689513262443654, -1.0033946733673107, -1.0186219358073625, 1.2864728603003455, 2.147964200238063, 0.05842627211607195, 2.992642490610795, -3.0288734890646873, 0.3603880269573689, 3.3175096001446396, -0.7471340033449791, 0.1308975903652284, 1.2527288411310047, 0.7169973159540485, -0.7090263713376134, 1.3755641148890303, -0.8641922815835024, -1.740033204207032, -0.37475048486528695, -0.2377569275890251, -0.4218076235789893, 4.908884763787835, 0.7535772231678021, -0.7581894868115052, -1.1188413933349408, -1.9207164950089939, -0.7704850104177681, -1.8643589743112827, -1.4128412551754306, 1.0045077962258993, 0.06847862108775514, -3.0952377524825696, -0.893515065117698, -1.8298451779928593, -0.7114834070802214, 1.1222250363309287, -1.4301908413076592, 0.5673171548985428, -2.0938102255077298, -0.9910378418105613, -0.5523935644063187, -0.1305534754464024, 0.025547095916552135, 0.1429260776709228, 0.9895636272266579, 0.37666796564787963], [4.91571222942151, 0.06180774246015225, -0.5724772176599855, -1.1899182040604128, -3.201249574407835, -0.14393243905318193, 0.5471674145366584, 3.086751166463572, -1.011757588678857, -2.051028628470131, 2.571664074625831, 0.2874527900233135, 0.618938092377927, 0.478049902493355, -1.0433679521688464, -0.6695390339259798, 2.7786562417892715, 2.752669740889333, -2.936968255600501, 1.360772250418655, -0.25963716677061427, 0.01529489093620466, 2.576549076149774, -2.0149770718261513, -0.9274329843256611, -5.378722626677134, -0.45052730321218065, 0.15289974939368928, -3.719756923260164, -1.0045321693572604, -3.254314596833498, 1.5736449198381086, -1.9775928027690433, 0.600227384577265, -0.34202430918774246, 1.0990218259249143, 0.6327980179105047, 2.098673700660248, -0.9667288550171854, 1.3491974817504744, -0.4167871748093109, -3.1365803304435858, 0.05866096860168624, 1.27633380271618, 0.4514896479288193, 3.004830211006227, 0.509378323786471, 2.3956071905786165, -2.7208145249505837, -1.1732299901245686, 2.1769804348299697, 1.0285710511669937, 0.6624531595769783, -0.30873682655774815, -5.907958895812571, 1.3003046555043785, -1.0505894985868436, -1.401678642890244, -0.4741158867483832, 0.09902983389620039, 0.4249200457021496, -0.9015438771522857, -0.40717149965107086, 2.051949908263867, -0.5903881698659654, 0.548995555998987, 0.29527092153504625, -1.189435483305869, 0.6185731568709152, -3.876193440891087, -0.5485702422263392, -0.24210420111597739, 0.42697341619194945, -0.24601210411790478, -0.5778072434572648, 0.7206755229339519, -4.314423450255175, 0.19212913787267571, 0.6749264861176038, -2.0824250903985777, 1.9231321433058706, -1.4443385480012658, 0.8714476257582181, -3.3390431662204185, -1.1983372889168582, 0.8422031348563713, -0.5711588595158897, 0.16125429585902834, -0.4449670860272154, -0.035350091762425526, 2.0062375854915344, -1.6099221636404175, -0.6575220474812326, -1.1286379770989945, -0.3849817010161269, 0.26884720014276847, -0.3795425973702121, -0.31281067930759343, 0.23531729461582318, -0.15742724605410566, 0.46376078761344053, 1.4409897336535233, -1.161895916802368, -0.3885516238416969, -1.999757689355582, -2.4965157593193057, -2.3772654468285546, -1.7392226754247733, 0.5778556105090085, -1.6365208072735358, 1.162894840220238, -0.807820436745477, 0.884095043239518, 0.20936923031322416, 0.7738854974138747, 0.19193342529184493, 0.0515848890274698, -0.3993102940707065, 3.0297919154781487, -0.42616052793678794], [-0.34528702418936036, 3.1005868848833593, -1.620396060454987, -2.6609376320301656, 2.0898014551893382, -0.2980316202371602, 0.44829122343296574, -0.25864354790784005, 0.06571312060965044, 3.5438521583398632, -1.044052649856797, -0.6105784249551874, -1.0446218156376244, -0.2039781806835586, -0.8534545764775715, 0.9539877634656039, -0.754142834221633, -0.5176315022018532, -0.5558019284022038, 0.7098106016607278, 0.12099477105881178, -1.0251118924731157, 0.2845994984684392, 0.10175138344595507, 0.607688497510627, -1.3751282439903834, 1.718100344259246, -0.9312225886453146, -1.3301010405245912, -0.05592142091398688, -1.8643359334835792, 0.6775405396108364, -0.29958655128183753, -0.8474435341568819, -2.2169794769767455, -1.261180779412918, -2.3405046766765554, 2.742607206707506, -0.7968624721852654, 1.956152669772202, 0.24696327997853232, -2.5219038241276026, -2.7990238862838246, 0.3974033498064995, -1.7917280589362388, 3.3593598597435657, 0.9981385367662241, 3.464841872799839, -1.5913011029868556, -0.2661777506089962, 2.2882089456306405, 0.6187517392878853, -1.1578866164010897, -0.8287808667693038, -0.46878368168841034, -0.3017103948241974, -1.5054628607743563, -0.8246946159413275, -1.8451868244368834, 3.8572757862177496, 0.35191556230050436, 0.06919827198747681, -0.8491293527466012, 0.3738628167293197, -0.01331413758844036, 0.35640923846118094, -0.46152261428348945, 0.2063348837397456, -3.37146756360019, -2.1302553919630767, -0.8895673865433784, -0.913282334778017, -0.5108883109790521, -0.7835940082110003, 1.0359396831660868, 2.535514787622991, 0.8645363700889894, 2.1633048631439906, 1.4004718089759696, 4.191713843318909, -1.6464012495047442, 0.6615703628389143, 1.7135466994932278, -1.6116430893788405, 1.189652782664527, 3.005012809927774, 0.7879981393647125, 1.1242145548509157, -0.016726169027628763, -0.37256860007766734, 0.9469726265675766, -2.5967357288879827, 1.3942846195426881, 1.4374141940284226, -0.7152542238234272, -0.983235585131688, 2.2450705068966217, 0.14897211487145579, 0.8797744931754348, -0.5695580588764136, -1.4206785916014584, 1.6899916738245802, 0.0022340581503078314, -0.4973227208654774, -0.6916463181223487, -0.9526830176673488, -0.9721180886735316, -2.9939981537498097, -0.6350116254334572, 0.7698795569923316, 0.4179795178213227, 0.2489894461645604, -3.658856979316762, -3.802985028680003, 0.1117077263506721, 0.7227965196939382, 1.6576486928790473, -1.2351594464524411, -2.3758136058286867, 0.15565819732068206], [-0.3244720408432514, 1.3413497023933107, -0.39534554124486876, 2.4624210676797524, 0.18929604107408526, 0.8766520129981709, 1.456585694756621, 1.372617072412273, 1.1080418709058364, 0.2121578104811352, -2.411773463493823, 2.1641765250783713, -0.6902457010295372, -2.10935761454359, -0.9922566292395144, 2.6039079815501616, 1.1326754377863593, -0.14058171913980214, 3.2304272278036947, -0.9982283437136301, -1.0694213124978116, 0.9779980405952674, 1.9048251870859876, 2.344877053654938, -0.7839153557405586, -3.613565968791914, 1.5199740906291825, -0.28077449006251565, -0.029044083265389778, 0.4842295008840912, -0.9283047699278444, 0.7855461529998183, 0.6805952208232329, 2.4755665414765704, 1.3273319888912796, -0.02372923417482814, 0.836900580272938, 1.6176027969741846, -0.38833831973124067, -0.3066071954433976, -0.8934610292142278, 0.5932436396859484, -2.65961536439638, -2.8455058862818206, -1.9380906369170077, -0.3133836247049063, -2.8054631803120276, -0.532037980027723, -0.1982375612346785, 0.9484207833011136, 1.2589515005342506, -0.6301295994259372, 0.11563038643892949, 0.4408615229148962, 0.12782093836215833, -0.4044405532167534, -1.2433169875535048, 0.6961176055768394, -0.11030024997613067, -0.5496144260147519, -1.045967191481776, -1.8909020144842223, -1.4865121767587124, -0.11294434544979631, 0.02179226669883202, -3.2640862233135115, 0.5338826635021158, -2.3067637661861986, 0.7506675772381708, -0.8719791325206854, 0.9560228796432877, 1.7004845093432153, 1.348511832811282, -1.1082988461902672, -0.1623560673024912, 1.0630769486857163, -0.12343253035272769, 0.24298872190623727, 0.0037188136034733824, 1.1920877058673434, -0.7849649184411648, -1.138173674285622, -1.1306697315074095, 1.616122531978043, 2.426203991455188, 0.6841312882276889, 0.2659756114656259, 1.8972703359958878, -0.8167034152394761, -0.22731242173667798, -1.4859926993049568, -1.1701141583049808, -1.506509774893308, -0.22677797766718097, -2.008488379759535, -3.1466894238207956, 1.4122812084037601, -1.1863185026979488, -2.9561289901402543, -2.896862984457833, 0.5235181952866882, -0.6518391386276382, 0.11079595080322062, -2.142805675058546, 2.850306624314697, 1.9122554355010026, 2.817656764866245, -1.6138435790606, -0.5475341656904098, 0.8658475602382805, 1.6770283706055134, 1.2792939747539696, 1.8282235036992114, -0.6028608082813236, -1.0666486194033389, 1.0014175216464356, 0.5289906801555028, -0.5292727183301742, 0.7739180434962925, 0.33512549762671673], [-0.9840638761538788, 3.5806325602851765, -1.30171212709287, 0.1760596175877747, -0.6872270349965589, -0.6480536142035537, 0.37674388767279693, 1.8735137476075967, 1.0314465277235438, 3.176159165545828, -0.5464514282576551, -0.022486220812692383, 0.049986081037870854, 0.6263989340971058, 1.1869155072671556, 1.2553758860243953, 0.2229496765995401, -0.29704917738039616, -2.875675816558192, 2.189776003131754, 0.9224913560722768, 0.31800693515104245, 1.7980311169563696, 1.2236334013351813, -1.1008187627100519, -0.6590325350551428, 0.7067977683202946, 1.1948043274736153, -0.04897569777072624, 1.7494324266114565, -0.35611229599413247, 0.5504872366903354, -1.5454228021146632, 1.1977062241864678, -0.45698562510156115, -1.0636997935930135, -0.9680266516662995, -0.9844882109415604, -0.10322275004815691, 0.06969786117899704, -1.8415791091165294, -0.7030563292567082, -0.06317063465604286, -0.7182284537763298, -2.166762613145159, 2.34059710185094, -1.4533099611254978, -0.20958494078967363, -1.9514961307117615, -0.7710413503915498, -0.20456850032321863, -1.3330603269001309, -0.2989680479412262, -0.36078227986524214, -1.9613259625378414, -0.4209363102276464, -0.09583169732936729, 1.396558432359669, -0.27165659523190283, -1.2054862790974936, -0.9094199292878099, -0.9567348713660407, -1.901367280412289, 0.017378777494287387, 1.0212803780978943, -0.9539689042620818, 0.7115218262236669, -0.4225621678800439, 0.42163148129312655, 2.559563843179105, -2.2666144006551785, -2.5899712068249587, -0.161053943506427, 2.9783630839907844, -1.2895006215493998, 0.66796223781233, -2.1405480326254636, 1.1473557537206003, 1.1846068325109609, -0.5879864141027378, -0.15311415463109446, 1.3774360760404214, -1.2239657713410765, -0.8824802627497192, -0.5762027579918818, 0.6786756653277914, 0.5813316503429674, 1.224421558770084, 0.5229082651477663, -2.3946556676497455, -0.5896201130309542, -0.36625003567541264, 0.2901812205392711, -0.042960264401419423, -1.0256166728789902, 1.1348840750317757, 2.161017299692088, -0.9964380058051816, -0.9991809157971983, 1.2099957502086487, 0.6497774925058601, -0.19497311782650908, 2.463583755869133, -2.2242081207601023, -1.3365784536311824, 0.5532753835023166, -0.1882675647831181, 1.1318371025618368, 1.0768539906348964, -0.32969663214156514, 2.534413425889292, 1.2340744126770038, 0.3234502304008844, -1.7012684985629694, 0.3702560260939428, 1.6922670130890105, 1.4515539467901097, -1.4751238892823482, -2.085898245891112, -0.3760274257332349], [-0.4894812741834511, -0.22264873169223656, 0.3688587428241803, -1.7918251408788282, -0.543702910237667, -0.8076020866826562, -1.461191511739769, 0.7249693433194034, -1.604949931806586, 0.26368607215089523, -0.2267513905102708, -1.1599012240791025, 0.1916976168387089, 0.3208565654366321, 1.252311912008427, 0.4736463444838473, 0.08587893485481847, -1.5626415291100821, 0.25994822931946554, 0.06130948029652548, -0.8717051331890099, 0.692101693529102, -1.2202030123950436, 0.44600735724666557, -1.0423514402118994, 1.7589277800659031, 0.9526089143780417, 0.3058261979201624, -0.15394582420009215, 1.0065326401991157, -1.8401246198662775, -0.07956846291602668, 0.8517663973348384, 1.700872702244011, -2.4687836933507246, -1.8211145031713187, 1.013654257312615, -1.6329185174713277, 1.3772751889331245, -0.34209661006248165, -1.4388227114927972, -1.5076988549195798, -2.314333667957841, 0.8490187754043464, -0.07692962371058229, 0.8180933440308793, -0.6675023682560232, 0.19595963805175898, -1.4361867379447673, 1.4260322576579991, 0.20519206432764656, 0.0247666874364093, 0.22090854224672868, 0.6506196159054293, -2.361103885677173, -0.8138596255515339, -2.378711777348496, -0.6993204462329319, 0.5145357381890093, 1.7463350325222682, 0.7629088888863677, -0.18116244432521147, 0.02569828986073846, -1.6026629573357094, 0.4973932489642257, 0.6128701199905465, 1.9086220029241066, -0.23163649528317795, -1.1306727667775365, 1.3553149982370551, -0.46514352239901724, -2.5661737794262085, -0.2345737417085733, -1.127303235853221, 0.7264417061736237, -0.10374693998451677, -4.0795637667067215, -0.7681016417569666, -2.3726150406201625, 0.39630643223361006, -2.017628768356387, -1.4191353355467204, 0.945389113754961, 0.3321982554709504, 0.03581824433960114, -1.5603829417893613, -2.4926235225156383, 0.17760278380863315, 0.5661626714793786, -0.22907659990406704, 0.3121126999337882, -0.9528069133040387, -0.5046288889191397, 1.2210937339019, 1.0789479326546532, 3.0176398155805515, -0.6768596592708244, -1.4248569375784699, 1.2694701422235561, -1.8489165749205174, 0.7452568390959389, -1.2659895511282073, -0.9656731114859707, 1.58309111042088, -1.4511637103611326, 0.22382651409596316, -1.5909065206200794, 0.7208494120199215, -0.48524683902086596, 0.33866012549015473, -1.2988802998640923, -1.0684333453107078, -0.4336013391884256, -1.5237627462447998, 1.1085787996481173, -0.2546833829956122, 1.8086494532712352, -1.34705172427874, -0.1936075268537515, 0.684000140989725], [-0.7617737803195961, 0.8408511515784975, 0.8577250958911011, -1.1994094593624218, -0.5797712002087761, 1.2473107480490448, -0.9600758515568372, -1.2239712925847646, -0.8143494585683606, -2.2702785966485246, 0.13057816629787014, -2.002976200656037, -2.448547265855037, -0.02274602004299485, 0.3557174045511781, 0.9494367438157713, 4.775278569891726, -0.5999545561190036, -5.01948411412087, 1.7782924843223875, -1.2678255470156905, -0.32259526413482387, 0.7032458059759936, 1.3942326394780136, -0.582681519219438, 0.22216739924059925, 0.5590080284727459, -1.2273958653248742, -1.376973593985396, 1.8545156958426419, 1.693073122735813, -1.8768281227526664, 0.5407358879034139, 0.6212423437982865, 0.6357632219916743, -0.15571305723148135, -0.5412864763910863, -2.4547134752277042, 2.6655019925348, -1.2607768716176828, -0.5635416329207061, -1.6045899252106925, 2.862948760996765, 2.9662557295253924, -1.8906477229407046, 2.775426617717528, 2.105033238077406, -2.390267075989913, -0.5844465741905946, -2.185360077415534, 1.1614191544513415, 1.0021279202889553, 0.011139789161729866, 0.23407573946877933, 1.112049431676303, 1.4266448448571594, -1.5520434569723074, -2.5944495445290627, 0.6916438913595866, -0.6931421115514411, 0.5216418537823949, -1.5323032031488588, -0.08861216081087774, -1.3285555929474482, 1.9689702525246207, -0.01149560635888388, 0.11708712752678063, 0.43278922327571717, 1.9457404398370113, -1.3397898940597783, 0.5408625483751113, -5.311126966097761, -1.0046912714459875, 0.8819877309019866, -2.0159423247911663, 0.6204153203628815, -2.192256343363415, -1.639189004724873, 4.386777003441022, -1.0739408576197176, -2.166620221567467, 0.6566690094642224, -0.5592724244222651, 0.7348426693694925, 0.15424198109189202, 0.39472849221393513, 0.6332095777346199, 0.081110055559774, 0.22922029989816692, -1.3234398266110776, 0.6411118873344063, 2.2992472203593968, -0.1874450854016698, -0.728913514503356, 0.8650816323407278, 0.8608685476323047, -0.32465100137516756, -1.5662029399718034, 0.7397072568090493, -0.12084674968442068, -0.1446270493627148, -0.059545022820543664, 1.8623798838028964, 1.6584038322388008, 1.5077933521962767, 2.6872017007371705, -0.208746456971139, 2.5578269519855965, 0.4712204170067345, -0.4787065282910863, -2.5110812186460545, 0.463804967013894, -1.9885347939294615, -2.4466152196648974, 0.4123443241849949, -0.6049486199099777, 0.1110111195525316, -0.37259334670896704, -0.26175720621769366, 2.3637128619768153], [2.880095925792353, -0.163188379393068, -0.2789768340284686, -2.8244712664230134, -1.8197079379918055, -1.2967875023145523, 1.8124851340785246, 1.0755497900548439, -0.745725518040149, -3.137334646550885, 0.9032835251588689, 1.3567758863945016, -0.3011698769938094, 0.4589263451131862, -0.9524960312699572, 0.26684041118815216, 0.7333364777355538, -0.8311257479807836, -2.481697102016235, 1.1919306007223662, -1.3080985008858306, -0.7545355809902703, 0.39337238887470344, 0.1991677786978683, 0.24746521185342582, -1.7410956972457945, 0.5115695488104947, -0.6107167590740635, 2.8707403595972365, -0.4345763563796585, 2.168417023530222, -0.28258263500351266, -0.7471636812469238, -0.2405783468402832, -0.02356951155452875, -1.2189459246554144, 0.5779154390383042, -1.4967723641483066, 0.07841676508642094, 0.8834012351726176, 0.30427886200157, -1.1021928723692087, 0.4136004010807619, 1.366022485655947, 0.7551835202412951, -0.3817302528590918, -3.12125101639054, 4.183925886708139, 0.5547133173585537, 1.9734043337481881, 2.577188649544574, -2.8165297104654297, 0.4348429991116768, -1.4744193951922357, 2.4159295715014575, 0.577645529889473, 1.129127750041388, 1.0341853282184013, -0.9656129945278797, -3.7707450366460917, -1.0466255441591714, 2.6944315427528216, -0.06431610760145696, -4.738343696450692, -0.7450258583120493, 0.8743450873869101, 0.13497459269186066, -1.3682504229619254, 4.170986123194234, -1.1046217116046881, 0.6360507123490056, -7.302584111083658, -0.5758317908372244, 0.2555879089235225, 0.3271050158885333, 1.0862775529106314, 1.5119205381937217, -0.23266750891643256, 2.0597592516647243, 1.1637955782001121, -0.9268264793941144, 1.1207244108990402, -0.1882177436047522, -2.1623338341333285, -0.14965601516192284, 0.13243282399964812, -0.831889345051955, -1.642849083777135, -1.4465783553263711, 1.2000871467392424, -0.6620962513916118, -0.9909083822352157, -4.090204774840517, -1.6575130442592632, -0.6341316187897177, 4.487491946474029, -1.1528913078381624, -0.37542099073188717, 0.40759480603565235, -0.11817809917987819, -0.9249063323635454, 0.42206252924201426, -0.14505150537685846, -0.28169402744869315, -1.5669554026632613, 4.971687637493857, -1.8894799400433397, 0.0444452442013964, 0.27254526256258, -0.18898735035198097, -3.6022773843821656, -0.570849975767625, 2.3865299423681234, -1.901145761702637, -1.2432816385003036, -0.5391888457106292, 0.49811481757983317, 1.7850372219459558, 1.915791738161903, 0.7447311545847368], [8.254275110514763, -0.9650313711645632, -0.5910114247181852, -0.6080295812998077, -1.182939210973588, 1.6785407903812088, 0.08638268573540277, -0.23945455238085384, -0.626018576857934, -0.5404410591848601, -1.3144248055819052, -0.3658482164923892, 0.13721701891688293, -0.010715408202032416, 1.2570383245969394, -0.13082629256434597, 1.2877866789513914, 0.032445197282305924, 1.207844319837075, -0.46014070452492983, 3.4833308326602435, -1.031001412111464, 1.6937119274005943, -1.211482912649463, -0.15345030438863927, -1.0954379159024557, 0.5315265731730401, -0.687797760623233, -0.296782662652824, -1.6204271308913927, 2.0466016408410175, -2.39203412758338, -0.11877928947151088, -0.12453976312541298, 0.40433185919812276, 1.09379014494296, 3.217150553176905, -2.2208551526969496, -1.2345962487087887, 5.005768745654166, 0.10070076112412352, -1.857116738035603, -0.7291776491451492, 3.613991532230288, -2.461818507797529, 0.18492311999976574, -2.6203546106586946, 0.1408575042753687, -0.5894346681775149, 1.0409311675035235, 1.2821267272615557, -0.48208484963244996, 1.5055511072016086, -1.3777181042282696, 4.194677412587029, 5.7796019954803315, 0.500726462838069, -0.18586486798113508, -1.0146586033104943, 1.7536603243234268, 1.2133694455697452, 1.464754037473229, 2.968502053320215, -2.153002399166735, 6.205497076293747, 0.8876201189583961, -2.374075191029377, 2.155622703711668, 2.532052613248105, 1.2588171938007826, 0.09887195432305004, -3.5750834019628477, 0.5315784726156709, 0.5485618543211882, -0.04975077887246993, -0.7486276906097198, 5.869249293659863, -0.9268287332058076, -4.46445745443857, -0.8847274099821418, -3.956752960601827, 